// This file is computer-generated by onnx2c 
// Command Line: onnx2c/build/onnx2c --func-name lif_decoder_forward out/decoder.onnx

// onnx2c
// Git Branch: feature/func-name
// Git Commit: cfcce19

// ONNX Model
// Produced By: pytorch, version 2.10.0+cu130
// ONNX IR version: 20

#include <float.h>
#include <math.h>
#include <stdbool.h>
#include <stdint.h>
#include <string.h>
#include <stdlib.h>

#define MAX(X,Y) ( X > Y ? X : Y)
#define MIN(X,Y) ( X < Y ? X : Y)
#define CLIP(X,L) ( MAX(MIN(X,L), -L) )

#if __STDC_VERSION__ < 199901L
#define FUNC_PREFIX
#else
#define FUNC_PREFIX static inline
#endif

static const float tensor__Decoder__layers_0_weight[128][32] = 
{
  {0.00150941521860659122f, 0.19273182749748229980f, -0.07453946769237518311f, -0.02885851263999938965f, -0.09930785745382308960f, -0.06788986921310424805f, -0.06930283457040786743f, -0.04333722963929176331f, -0.10097291320562362671f, -0.10120321810245513916f, 0.17198158800601959229f, -0.06725957244634628296f, -0.00541588105261325836f, -0.06553884595632553101f, 0.03449692204594612122f, -0.02609951049089431763f, 0.08186865597963333130f, 0.02544959075748920441f, 0.05291994661092758179f, 0.09779847413301467896f, -0.05839177221059799194f, -0.17291799187660217285f, 0.03999396786093711853f, 0.09297581017017364502f, -0.20324343442916870117f, 0.12069035321474075317f, -0.01485871616750955582f, -0.14453636109828948975f, -0.13658531010150909424f, 0.11183490604162216187f, 0.17429304122924804688f, -0.02182513661682605743f},
  {-0.12873038649559020996f, -0.10557372868061065674f, -0.02782166004180908203f, 0.09286226332187652588f, 0.03519814461469650269f, 0.20150303840637207031f, -0.21155507862567901611f, -0.13230903446674346924f, 0.04336614161729812622f, 0.17819665372371673584f, 0.02502085454761981964f, 0.16494585573673248291f, -0.15339379012584686279f, 0.13028900325298309326f, 0.00636227475479245186f, 0.15580783784389495850f, -0.11610046774148941040f, 0.07828740775585174561f, 0.13931220769882202148f, 0.00909294188022613525f, 0.09138693660497665405f, 0.14229363203048706055f, -0.13361507654190063477f, -0.22570599615573883057f, 0.01118606701493263245f, -0.04695250838994979858f, -0.12516711652278900146f, -0.00119999470189213753f, 0.11724790930747985840f, -0.10749880224466323853f, 0.12267026305198669434f, 0.17168499529361724854f},
  {0.00300112599506974220f, -0.02635049261152744293f, 0.09399497509002685547f, -0.06561483442783355713f, 0.02018488198518753052f, 0.15370476245880126953f, -0.10932044684886932373f, 0.16038326919078826904f, 0.04184065759181976318f, -0.09482914954423904419f, -0.08130238950252532959f, 0.04329424351453781128f, 0.07897252589464187622f, -0.13088229298591613770f, -0.01449491735547780991f, -0.18526393175125122070f, 0.05192125588655471802f, 0.12849503755569458008f, 0.06991706043481826782f, 0.19162020087242126465f, -0.17106452584266662598f, -0.16968758404254913330f, 0.16149093210697174072f, 0.12999492883682250977f, 0.17310933768749237061f, -0.09781576693058013916f, -0.11149381101131439209f, 0.18097501993179321289f, 0.05485065653920173645f, -0.18151426315307617188f, -0.10184730589389801025f, 0.12941233813762664795f},
  {0.14070697128772735596f, -0.00540241040289402008f, -0.08424350619316101074f, -0.12015086412429809570f, 0.09155298769474029541f, -0.01594760268926620483f, 0.00672978302463889122f, -0.08402982354164123535f, -0.07420557737350463867f, 0.18860757350921630859f, -0.12759619951248168945f, -0.16505451500415802002f, 0.02862037718296051025f, -0.04944828152656555176f, -0.11958281695842742920f, -0.01373306848108768463f, -0.07561426609754562378f, -0.13117542862892150879f, 0.02786162123084068298f, 0.17990972101688385010f, -0.04625926166772842407f, 0.18490749597549438477f, 0.17782039940357208252f, -0.08468274027109146118f, 0.11418519169092178345f, 0.05962127447128295898f, -0.01290057692676782608f, -0.18348462879657745361f, -0.16179712116718292236f, -0.14359277486801147461f, 0.10477535426616668701f, 0.17840568721294403076f},
  {-0.21003651618957519531f, 0.03661486878991127014f, 0.08127380907535552979f, 0.13599626719951629639f, 0.12606842815876007080f, 0.10137952864170074463f, 0.13990196585655212402f, 0.16124573349952697754f, 0.08695828169584274292f, -0.05611720681190490723f, -0.12631620466709136963f, -0.21123316884040832520f, 0.03720802813768386841f, -0.11438852548599243164f, -0.14435058832168579102f, 0.14185893535614013672f, -0.13335940241813659668f, -0.11201834678649902344f, 0.24758517742156982422f, 0.07873922586441040039f, -0.14918713271617889404f, 0.01879329234361648560f, -0.14667566120624542236f, 0.21557556092739105225f, -0.05032514780759811401f, -0.00735965976491570473f, 0.01131806056946516037f, -0.10762742161750793457f, 0.09804776310920715332f, 0.07339432090520858765f, 0.10411097109317779541f, -0.08098467439413070679f},
  {0.06535885483026504517f, 0.13506814837455749512f, 0.13106346130371093750f, -0.04659251868724822998f, 0.09748012572526931763f, -0.11054255068302154541f, -0.13097505271434783936f, 0.15908749401569366455f, -0.04031628370285034180f, -0.03279983252286911011f, 0.14296276867389678955f, 0.13169816136360168457f, -0.08085023611783981323f, 0.11844999343156814575f, 0.11765161156654357910f, 0.09226088970899581909f, -0.10060936212539672852f, -0.10872535407543182373f, -0.04858301579952239990f, 0.21988265216350555420f, -0.15315976738929748535f, 0.21076558530330657959f, -0.12574128806591033936f, -0.07764326035976409912f, -0.06587188690900802612f, -0.08534268289804458618f, -0.16609025001525878906f, 0.18264363706111907959f, -0.00118089560419321060f, -0.11685550212860107422f, -0.00702559202909469604f, 0.05436564236879348755f},
  {-0.07050339877605438232f, -0.05678905174136161804f, 0.09715935587882995605f, -0.05312557145953178406f, 0.18192933499813079834f, 0.06797113269567489624f, -0.03284569829702377319f, 0.01649687625467777252f, 0.00767022743821144104f, -0.09670504927635192871f, 0.14067442715167999268f, -0.02131368033587932587f, -0.06094368547201156616f, -0.10891794413328170776f, -0.14575400948524475098f, 0.11926849186420440674f, -0.02432828955352306366f, -0.09866989403963088989f, 0.13536821305751800537f, 0.08565711230039596558f, 0.05209676921367645264f, 0.00470565957948565483f, 0.04694019258022308350f, -0.22320394217967987061f, -0.12119068950414657593f, 0.12597589194774627686f, 0.03565756604075431824f, -0.12281856685876846313f, 0.10993246734142303467f, 0.03556105867028236389f, -0.14813810586929321289f, 0.03591197356581687927f},
  {-0.10476744920015335083f, -0.05272736400365829468f, 0.01287635788321495056f, -0.11088608950376510620f, 0.10701230913400650024f, 0.02019876986742019653f, -0.04569616168737411499f, -0.01618650183081626892f, -0.08293601870536804199f, 0.00065854069544002414f, -0.14318306744098663330f, -0.14205569028854370117f, 0.11125025898218154907f, 0.23623211681842803955f, 0.21299201250076293945f, -0.03147472441196441650f, -0.20143425464630126953f, 0.14050020277500152588f, 0.06093940883874893188f, 0.12862984836101531982f, 0.14260716736316680908f, -0.16656666994094848633f, -0.02752799727022647858f, -0.09616365283727645874f, 0.13759517669677734375f, -0.02853880263864994049f, -0.06812146306037902832f, -0.10664383322000503540f, -0.13796983659267425537f, 0.10725566744804382324f, -0.10083169490098953247f, 0.06461631506681442261f},
  {-0.08387153595685958862f, -0.11224602162837982178f, -0.23546588420867919922f, 0.18193109333515167236f, 0.16480483114719390869f, -0.03389890491962432861f, 0.01219168491661548615f, -0.04573753476142883301f, -0.05114610493183135986f, -0.00666200602427124977f, 0.04171728715300559998f, -0.11048555374145507812f, -0.13107438385486602783f, 0.16666488349437713623f, 0.11064073443412780762f, 0.08041654527187347412f, -0.04225083813071250916f, -0.11308105289936065674f, -0.17500866949558258057f, 0.10757156461477279663f, 0.17894676327705383301f, -0.11441387236118316650f, 0.07545030862092971802f, -0.01254836190491914749f, 0.12627688050270080566f, -0.19010590016841888428f, 0.16044959425926208496f, 0.18272764980792999268f, -0.18303857743740081787f, 0.21403682231903076172f, 0.14846649765968322754f, 0.10929688811302185059f},
  {-0.18748401105403900146f, -0.10872640460729598999f, 0.21917171776294708252f, -0.14437691867351531982f, -0.10951852798461914062f, -0.06031706556677818298f, -0.10598698258399963379f, 0.03699974343180656433f, -0.18064455687999725342f, -0.15093314647674560547f, 0.12564505636692047119f, -0.04219146072864532471f, -0.00284619862213730812f, -0.06823679804801940918f, -0.20337700843811035156f, -0.19862394034862518311f, 0.10490855574607849121f, 0.17413778603076934814f, -0.10317292809486389160f, 0.00832378398627042770f, 0.14484821259975433350f, 0.18267981708049774170f, 0.12805522978305816650f, 0.05600221827626228333f, 0.19493609666824340820f, 0.09291490912437438965f, 0.18565820157527923584f, -0.07774807512760162354f, 0.13928939402103424072f, 0.09792218357324600220f, -0.08979512006044387817f, 0.16505487263202667236f},
  {0.01189707312732934952f, -0.11311956495046615601f, -0.24154871702194213867f, 0.06309788674116134644f, -0.17890179157257080078f, 0.18969367444515228271f, 0.04413216933608055115f, -0.00925973244011402130f, 0.14676102995872497559f, -0.00849036499857902527f, -0.13485844433307647705f, 0.02969898842275142670f, -0.05887974426150321960f, 0.13332422077655792236f, -0.15278571844100952148f, 0.15222314000129699707f, 0.04044795781373977661f, 0.16613578796386718750f, 0.00719951512292027473f, -0.03273934870958328247f, 0.18203292787075042725f, 0.14820663630962371826f, -0.00631866278126835823f, 0.02065566554665565491f, 0.04497788101434707642f, 0.03946311771869659424f, -0.19618172943592071533f, -0.00976888928562402725f, 0.13426299393177032471f, 0.18966057896614074707f, 0.06323246657848358154f, -0.00922584906220436096f},
  {-0.12498650699853897095f, 0.05414761230349540710f, -0.09337326139211654663f, -0.02930156886577606201f, 0.18388809263706207275f, 0.09104616194963455200f, 0.05446024611592292786f, -0.10030395537614822388f, -0.03629726171493530273f, -0.06869011372327804565f, -0.12855194509029388428f, 0.17191286385059356689f, -0.03793972358107566833f, 0.19982631504535675049f, 0.21958397328853607178f, -0.09872043132781982422f, -0.10739731788635253906f, 0.10978858172893524170f, 0.00730356154963374138f, 0.16260668635368347168f, 0.09921175986528396606f, -0.13197721540927886963f, -0.14475296437740325928f, 0.06348530948162078857f, -0.03908399492502212524f, -0.09964752197265625000f, -0.11277469247579574585f, -0.01068251952528953552f, -0.20713081955909729004f, -0.08942522853612899780f, 0.10636059939861297607f, -0.14393293857574462891f},
  {0.12183108180761337280f, 0.00956453196704387665f, -0.04299818724393844604f, -0.18216805160045623779f, 0.06025237962603569031f, 0.15523199737071990967f, -0.03720107674598693848f, 0.03327779844403266907f, 0.01387152541428804398f, -0.03994331508874893188f, 0.06318362802267074585f, -0.19226269423961639404f, 0.17708349227905273438f, -0.05821459740400314331f, -0.17149007320404052734f, -0.00863470975309610367f, -0.10406055301427841187f, 0.06387688219547271729f, -0.10795849561691284180f, 0.08350758254528045654f, 0.08981309831142425537f, -0.11967989057302474976f, -0.02396310865879058838f, 0.13265715539455413818f, -0.02360016107559204102f, -0.03062064386904239655f, 0.06547243148088455200f, 0.10944633185863494873f, 0.14828148484230041504f, 0.12619936466217041016f, -0.00751084787771105766f, 0.12980185449123382568f},
  {-0.01912730000913143158f, -0.05131144449114799500f, 0.14672556519508361816f, 0.07184274494647979736f, -0.17004275321960449219f, -0.02936648577451705933f, -0.14450810849666595459f, -0.18211936950683593750f, -0.11613969504833221436f, -0.01991631276905536652f, -0.15335716307163238525f, -0.16907870769500732422f, 0.01981473900377750397f, 0.16069535911083221436f, 0.08663462102413177490f, -0.00771877635270357132f, -0.04079552739858627319f, 0.11314472556114196777f, -0.07994621247053146362f, -0.23577763140201568604f, 0.17662037909030914307f, 0.00275257858447730541f, -0.08649735152721405029f, -0.02822052873671054840f, 0.13425694406032562256f, 0.12033975869417190552f, 0.18582783639430999756f, -0.02803245186805725098f, 0.03212726116180419922f, -0.19235153496265411377f, -0.02894546277821063995f, 0.10621818900108337402f},
  {-0.11389371007680892944f, -0.03338224440813064575f, 0.04842112213373184204f, -0.16782969236373901367f, 0.17082646489143371582f, 0.21007555723190307617f, 0.12831719219684600830f, -0.05525324121117591858f, 0.01727878302335739136f, 0.00959296245127916336f, 0.05125726759433746338f, -0.23936080932617187500f, 0.06250970065593719482f, 0.10595081001520156860f, 0.06176383420825004578f, -0.23100744187831878662f, -0.02946835383772850037f, -0.04630833491683006287f, -0.18108020722866058350f, 0.01116541493684053421f, -0.10349025577306747437f, 0.03137253969907760620f, -0.00430625444278120995f, 0.07841300219297409058f, -0.06038145348429679871f, 0.16849243640899658203f, -0.00549561297520995140f, -0.20598542690277099609f, -0.12302983552217483521f, 0.02643180638551712036f, 0.26577213406562805176f, 0.19268047809600830078f},
  {0.15977688133716583252f, 0.05554439872503280640f, -0.08967649191617965698f, -0.13887286186218261719f, 0.01292096916586160660f, 0.20563840866088867188f, 0.00259983958676457405f, 0.14531677961349487305f, 0.05049320682883262634f, -0.02098562568426132202f, 0.08810170739889144897f, -0.17761485278606414795f, 0.17364513874053955078f, -0.16159461438655853271f, 0.01704682596027851105f, 0.13221241533756256104f, 0.05301398038864135742f, 0.12982177734375000000f, 0.01463819481432437897f, -0.12830050289630889893f, -0.24773751199245452881f, 0.13017779588699340820f, -0.13417889177799224854f, -0.13347759842872619629f, -0.01767077855765819550f, -0.16777090728282928467f, 0.00918747112154960632f, 0.18404459953308105469f, -0.09664691239595413208f, 0.20219708979129791260f, -0.16369637846946716309f, -0.06516467779874801636f},
  {-0.09103995561599731445f, -0.00698935240507125854f, 0.05372861772775650024f, 0.01004575751721858978f, -0.13458415865898132324f, -0.08721847087144851685f, 0.06980541348457336426f, 0.06328076124191284180f, -0.02416324988007545471f, -0.05174782499670982361f, 0.00761655997484922409f, -0.00757139129564166069f, -0.03211208432912826538f, 0.08363240212202072144f, 0.17012208700180053711f, -0.09813397377729415894f, 0.14044699072837829590f, -0.12864659726619720459f, -0.13542915880680084229f, -0.15350230038166046143f, -0.07042182236909866333f, -0.05504687502980232239f, 0.07012640684843063354f, -0.04052541777491569519f, 0.19869711995124816895f, 0.07481873780488967896f, 0.20936819911003112793f, -0.02405298128724098206f, 0.03358695656061172485f, 0.13243451714515686035f, -0.03658828139305114746f, 0.00885646976530551910f},
  {0.04434315860271453857f, -0.11604228615760803223f, -0.01343894284218549728f, -0.03781117498874664307f, -0.06706701219081878662f, -0.07149722427129745483f, 0.14928519725799560547f, 0.17589984834194183350f, -0.08534335345029830933f, -0.03816995769739151001f, -0.09192352741956710815f, 0.19604267179965972900f, 0.14528408646583557129f, -0.00203228951431810856f, 0.02274781838059425354f, -0.08122196048498153687f, -0.04696380719542503357f, -0.11763414740562438965f, -0.13133385777473449707f, -0.06259375065565109253f, -0.02964385971426963806f, -0.10387166589498519897f, -0.04258422181010246277f, 0.00797376502305269241f, -0.09983172267675399780f, 0.22784443199634552002f, -0.01375823840498924255f, -0.08851107209920883179f, 0.22183513641357421875f, 0.15397354960441589355f, -0.02671433612704277039f, 0.13933365046977996826f},
  {-0.04245330020785331726f, 0.14730872213840484619f, 0.19215540587902069092f, 0.13562573492527008057f, -0.03074241802096366882f, -0.08721628040075302124f, 0.12069716304540634155f, -0.03517446294426918030f, 0.12639877200126647949f, 0.04005002602934837341f, 0.02546630240976810455f, -0.11907153576612472534f, 0.11889701336622238159f, 0.13967002928256988525f, -0.13741230964660644531f, 0.03617819398641586304f, 0.11139466613531112671f, -0.00890742428600788116f, -0.12887082993984222412f, -0.20090667903423309326f, 0.09903752058744430542f, 0.15015600621700286865f, -0.01531949080526828766f, 0.01210318319499492645f, 0.01287755928933620453f, -0.15336441993713378906f, -0.14224559068679809570f, 0.07946731895208358765f, -0.11605831235647201538f, 0.08060341328382492065f, 0.01417963672429323196f, -0.14322528243064880371f},
  {0.15503683686256408691f, 0.03017177991569042206f, 0.01206552609801292419f, 0.09489393234252929688f, 0.03759581968188285828f, 0.02726021595299243927f, -0.10401693731546401978f, -0.11403172463178634644f, 0.02014045231044292450f, -0.10546408593654632568f, -0.07505977898836135864f, 0.02865855954587459564f, 0.10893009603023529053f, -0.11678208410739898682f, -0.08555645495653152466f, -0.08231359720230102539f, 0.19238761067390441895f, 0.13889390230178833008f, 0.15092939138412475586f, -0.05115136131644248962f, -0.05578912049531936646f, -0.12841624021530151367f, 0.05218245089054107666f, -0.02976533211767673492f, -0.12473264336585998535f, 0.10834405571222305298f, -0.07488924264907836914f, 0.01965565234422683716f, -0.04372363537549972534f, 0.18678554892539978027f, -0.06603451073169708252f, -0.01503444742411375046f},
  {-0.16445633769035339355f, 0.06648432463407516479f, 0.02694408223032951355f, -0.07264219224452972412f, -0.13215520977973937988f, -0.02517717704176902771f, -0.00416678143665194511f, 0.16160516440868377686f, 0.02138276770710945129f, -0.16432850062847137451f, 0.07830110192298889160f, 0.09692413359880447388f, 0.06212003901600837708f, -0.09461437165737152100f, -0.13390253484249114990f, 0.08851859718561172485f, 0.00740313390269875526f, -0.03637194633483886719f, 0.16145902872085571289f, 0.16787192225456237793f, 0.17008280754089355469f, -0.19374856352806091309f, -0.16002045571804046631f, 0.17446433007717132568f, 0.18849761784076690674f, 0.05161672085523605347f, -0.10478014498949050903f, -0.01022918988019227982f, -0.08727926015853881836f, -0.04758594930171966553f, -0.09100963920354843140f, -0.03388730809092521667f},
  {0.21092976629734039307f, -0.08117943257093429565f, -0.17116409540176391602f, -0.19010238349437713623f, 0.08699790388345718384f, 0.19858299195766448975f, 0.15137779712677001953f, 0.08185868710279464722f, 0.10602343082427978516f, -0.09124597162008285522f, 0.06140162795782089233f, 0.08134341239929199219f, -0.09059083461761474609f, 0.01346825063228607178f, 0.16648170351982116699f, -0.03910209611058235168f, -0.11267168074846267700f, 0.09328210353851318359f, -0.10993048548698425293f, 0.03392113745212554932f, 0.13245430588722229004f, -0.05251015722751617432f, -0.18738321959972381592f, 0.09566228091716766357f, 0.02157808467745780945f, -0.02767838351428508759f, 0.03475445881485939026f, 0.16943039000034332275f, -0.05282855778932571411f, -0.00832587946206331253f, 0.09091205149888992310f, -0.18696691095829010010f},
  {-0.17136104404926300049f, 0.08293344825506210327f, 0.13587847352027893066f, 0.12035349011421203613f, 0.07210021466016769409f, 0.03625931963324546814f, -0.07951001822948455811f, -0.15751641988754272461f, -0.02585530839860439301f, -0.14202786982059478760f, -0.09154275804758071899f, 0.13473641872406005859f, -0.06607820093631744385f, 0.10709447413682937622f, -0.06483148783445358276f, -0.12834152579307556152f, -0.02200241759419441223f, -0.03033841960132122040f, 0.14353147149085998535f, 0.03006240352988243103f, -0.17430463433265686035f, -0.01984217762947082520f, -0.04779194295406341553f, 0.01858633942902088165f, 0.06048338115215301514f, 0.06626188009977340698f, 0.00783148407936096191f, 0.20397336781024932861f, -0.17742864787578582764f, 0.01086214277893304825f, 0.08959454298019409180f, 0.14894318580627441406f},
  {-0.16433274745941162109f, 0.08063212782144546509f, -0.12800812721252441406f, -0.14981645345687866211f, 0.01549101434648036957f, 0.21139191091060638428f, -0.15884561836719512939f, 0.12282613664865493774f, -0.11483678221702575684f, 0.08116205781698226929f, -0.20835754275321960449f, 0.10096700489521026611f, 0.09848497062921524048f, -0.15532721579074859619f, -0.02927260473370552063f, -0.03540578484535217285f, -0.22510369122028350830f, -0.21840836107730865479f, -0.12860260903835296631f, -0.02657292783260345459f, 0.16684551537036895752f, -0.01256209891289472580f, -0.23658397793769836426f, 0.20081673562526702881f, -0.10553464293479919434f, 0.14773100614547729492f, 0.10736913233995437622f, 0.12505015730857849121f, 0.08288681507110595703f, 0.00807831902056932449f, 0.09416762739419937134f, 0.16800254583358764648f},
  {-0.16238434612751007080f, -0.02425157651305198669f, -0.01416024379432201385f, -0.15957234799861907959f, 0.02337444014847278595f, 0.02991273440420627594f, -0.10060082376003265381f, 0.14203532040119171143f, -0.02544277533888816833f, -0.06430408358573913574f, 0.21877776086330413818f, -0.02354899607598781586f, -0.04999592527747154236f, -0.16792002320289611816f, 0.16961829364299774170f, 0.03778249025344848633f, -0.07125938683748245239f, 0.11915593594312667847f, 0.12832970917224884033f, -0.13857379555702209473f, 0.18740123510360717773f, 0.06219948083162307739f, 0.19099599123001098633f, 0.16178898513317108154f, -0.10244998335838317871f, -0.17107465863227844238f, 0.05207232385873794556f, 0.15450517833232879639f, 0.03485235944390296936f, 0.15816223621368408203f, -0.14955668151378631592f, -0.18093235790729522705f},
  {0.07926544547080993652f, 0.10795963555574417114f, 0.15851470828056335449f, 0.07120687514543533325f, -0.26758551597595214844f, 0.21163655817508697510f, 0.09419652819633483887f, 0.18589869141578674316f, -0.07125410437583923340f, -0.18953548371791839600f, 0.10763224214315414429f, -0.23486307263374328613f, -0.06268062442541122437f, 0.14439338445663452148f, -0.06514345854520797729f, -0.10208658128976821899f, 0.00670047197490930557f, 0.10251356661319732666f, -0.28574755787849426270f, -0.09562816470861434937f, 0.07662329822778701782f, 0.17662636935710906982f, -0.05253508687019348145f, -0.14541633427143096924f, 0.08659249544143676758f, 0.02705623209476470947f, -0.11584339290857315063f, 0.07881235331296920776f, 0.08928517997264862061f, -0.01804332435131072998f, -0.08118610829114913940f, -0.20344458520412445068f},
  {-0.11068993061780929565f, -0.05823595821857452393f, -0.22377322614192962646f, -0.16145166754722595215f, 0.18776640295982360840f, 0.16724464297294616699f, 0.12549583613872528076f, 0.21578800678253173828f, -0.06105586886405944824f, 0.10039163380861282349f, -0.05707436054944992065f, -0.01841850578784942627f, 0.01828277111053466797f, 0.01311488542705774307f, -0.07174462080001831055f, 0.08773978799581527710f, -0.04825079068541526794f, -0.10402924567461013794f, -0.16759668290615081787f, -0.04526862129569053650f, -0.12853401899337768555f, 0.07825873792171478271f, 0.15850637853145599365f, 0.00112515559885650873f, 0.01870929449796676636f, -0.05405861139297485352f, -0.08382556587457656860f, -0.04306135326623916626f, -0.14374125003814697266f, 0.16247417032718658447f, -0.06361345946788787842f, 0.18927018344402313232f},
  {-0.13578735291957855225f, 0.00126188853755593300f, 0.07251714169979095459f, -0.17046901583671569824f, -0.00926454551517963409f, -0.04776430130004882812f, -0.07197539508342742920f, 0.02258807606995105743f, -0.19448430836200714111f, 0.14124546945095062256f, 0.18479678034782409668f, 0.15172743797302246094f, -0.11794325709342956543f, -0.16236886382102966309f, 0.01244641840457916260f, 0.12907013297080993652f, 0.08253011852502822876f, 0.21398048102855682373f, -0.02448923140764236450f, -0.00965238735079765320f, 0.04782710969448089600f, -0.01541010383516550064f, 0.12453617155551910400f, 0.13531406223773956299f, 0.06400264799594879150f, -0.09678541123867034912f, 0.07839183509349822998f, -0.12937775254249572754f, -0.05541293695569038391f, -0.02399075962603092194f, 0.13814333081245422363f, 0.17447072267532348633f},
  {0.05440580099821090698f, 0.12373714894056320190f, -0.18191325664520263672f, 0.18974457681179046631f, -0.05334490537643432617f, -0.14122231304645538330f, -0.00693112239241600037f, 0.18161536753177642822f, 0.15754544734954833984f, -0.10545846074819564819f, 0.02041369862854480743f, -0.15114675462245941162f, -0.21395590901374816895f, 0.05413217097520828247f, -0.03408243134617805481f, 0.10489504784345626831f, -0.16250462830066680908f, 0.15410964190959930420f, 0.00691544497385621071f, 0.03072766959667205811f, -0.15679559111595153809f, -0.07716072350740432739f, 0.08298869431018829346f, -0.11698105931282043457f, -0.10131713747978210449f, 0.03481163084506988525f, -0.04067897424101829529f, 0.08330678194761276245f, 0.25928896665573120117f, 0.11165413260459899902f, 0.07703085243701934814f, 0.13856367766857147217f},
  {-0.09966412186622619629f, 0.01585096865892410278f, -0.16036430001258850098f, 0.17131927609443664551f, 0.00203086389228701591f, -0.11071191728115081787f, -0.05593902617692947388f, 0.09364807605743408203f, -0.12677879631519317627f, 0.03581326454877853394f, -0.20406623184680938721f, 0.11385343223810195923f, 0.20394252240657806396f, -0.03975662589073181152f, 0.02696507424116134644f, 0.06656802445650100708f, -0.00019870225514750928f, 0.07862660288810729980f, -0.07888019829988479614f, -0.13008987903594970703f, -0.14652326703071594238f, -0.07013680040836334229f, 0.15734212100505828857f, 0.02620669826865196228f, 0.08935528993606567383f, 0.20877322554588317871f, 0.09941031783819198608f, 0.18475829064846038818f, -0.18325807154178619385f, 0.18064859509468078613f, 0.05489660799503326416f, 0.11062800139188766479f},
  {-0.06404751539230346680f, -0.14607429504394531250f, 0.21867747604846954346f, -0.03386721014976501465f, -0.11999920010566711426f, 0.16473579406738281250f, 0.09280269593000411987f, -0.07840323448181152344f, -0.08586829900741577148f, 0.14932540059089660645f, -0.04066135734319686890f, 0.13196244835853576660f, 0.09278076887130737305f, -0.18752405047416687012f, 0.06082464009523391724f, 0.08628807961940765381f, -0.13781166076660156250f, -0.00583205698058009148f, -0.06267261505126953125f, -0.16637092828750610352f, -0.15574474632740020752f, 0.12455076724290847778f, -0.01255249977111816406f, 0.07068774849176406860f, 0.20130513608455657959f, -0.07746166735887527466f, -0.12085540592670440674f, -0.11374949663877487183f, 0.04913907870650291443f, 0.11998473852872848511f, -0.06339856237173080444f, -0.08666180074214935303f},
  {-0.02703906409442424774f, -0.01741419918835163116f, 0.12046618759632110596f, 0.06069513782858848572f, -0.17942439019680023193f, -0.02829108387231826782f, 0.00854970980435609818f, 0.16404117643833160400f, 0.10954046249389648438f, 0.18172942101955413818f, 0.10874247550964355469f, 0.05069601908326148987f, 0.23726321756839752197f, 0.13574030995368957520f, -0.06928420811891555786f, -0.18526393175125122070f, -0.02260606922209262848f, -0.11799097061157226562f, -0.00313310674391686916f, -0.07370807230472564697f, -0.07591667026281356812f, -0.12850862741470336914f, 0.01432041265070438385f, -0.15890415012836456299f, 0.00278512015938758850f, -0.16316702961921691895f, -0.06887818127870559692f, 0.03691662847995758057f, -0.07479818910360336304f, 0.08786358684301376343f, 0.12848038971424102783f, -0.08183090388774871826f},
  {-0.00901637598872184753f, 0.06217055022716522217f, 0.07024210691452026367f, 0.17384198307991027832f, 0.03845810517668724060f, -0.07915735989809036255f, 0.12905953824520111084f, 0.05537774413824081421f, 0.02658886089920997620f, 0.00327886687591671944f, -0.04793090000748634338f, 0.17430701851844787598f, 0.08826009184122085571f, -0.09328357130289077759f, 0.08677877485752105713f, -0.17013540863990783691f, 0.01897458918392658234f, 0.18068762123584747314f, -0.24779561161994934082f, -0.02505689114332199097f, 0.06684508174657821655f, -0.15796023607254028320f, -0.23620840907096862793f, -0.16691382229328155518f, 0.10498864203691482544f, 0.08399246633052825928f, -0.13594782352447509766f, 0.06027719005942344666f, -0.11701148003339767456f, 0.14936371147632598877f, 0.08819033950567245483f, 0.18026211857795715332f},
  {0.12426706403493881226f, -0.10508139431476593018f, -0.01659520529210567474f, -0.09243825078010559082f, 0.09873483330011367798f, 0.05080939084291458130f, 0.03825096040964126587f, 0.14047339558601379395f, -0.18709558248519897461f, 0.06605128943920135498f, -0.00510856229811906815f, 0.03338348120450973511f, -0.07381197065114974976f, -0.23569479584693908691f, 0.01237116847187280655f, -0.07754408568143844604f, -0.22600015997886657715f, 0.02038688585162162781f, 0.06377263367176055908f, -0.10638435930013656616f, -0.06036037951707839966f, 0.06489799916744232178f, 0.10078271478414535522f, -0.07329282909631729126f, 0.10940050333738327026f, 0.17512531578540802002f, -0.11296904832124710083f, 0.07978990674018859863f, 0.09124796837568283081f, -0.20152142643928527832f, 0.13805425167083740234f, -0.16290371119976043701f},
  {-0.08188732713460922241f, 0.10067212581634521484f, 0.17916005849838256836f, -0.06870546191930770874f, 0.12650118768215179443f, 0.04247596859931945801f, 0.11082871258258819580f, -0.18459685146808624268f, 0.01212986093014478683f, 0.08181790262460708618f, -0.16986981034278869629f, 0.12234541028738021851f, 0.13581803441047668457f, 0.03224883228540420532f, -0.10230709612369537354f, 0.04872597008943557739f, -0.02051788754761219025f, 0.14352913200855255127f, 0.09384416043758392334f, -0.07306883484125137329f, -0.00883520208299160004f, 0.05120032653212547302f, 0.13405561447143554688f, 0.16333016753196716309f, -0.00968440622091293335f, -0.08294045925140380859f, -0.15961915254592895508f, -0.19154933094978332520f, -0.01037995703518390656f, 0.00112971954513341188f, -0.10480944067239761353f, -0.26173606514930725098f},
  {0.11345860362052917480f, -0.14397305250167846680f, 0.16512320935726165771f, -0.18443755805492401123f, -0.10377285629510879517f, -0.19442725181579589844f, -0.03123284503817558289f, 0.19380567967891693115f, -0.19963437318801879883f, -0.20658026635646820068f, 0.19856013357639312744f, -0.12574405968189239502f, 0.03727985545992851257f, 0.15335611999034881592f, 0.06786775588989257812f, 0.16884656250476837158f, -0.06963162869215011597f, 0.03019130602478981018f, 0.08805057406425476074f, -0.00829513929784297943f, -0.07025069743394851685f, 0.17549517750740051270f, -0.19286519289016723633f, 0.14214499294757843018f, 0.10323911905288696289f, 0.16943819820880889893f, 0.20200306177139282227f, -0.07836917042732238770f, -0.19040541350841522217f, -0.08490357547998428345f, -0.18841153383255004883f, 0.04756191372871398926f},
  {0.03170846775174140930f, 0.18197700381278991699f, -0.05889792740345001221f, -0.01366000529378652573f, 0.08840000629425048828f, 0.02248484641313552856f, 0.15671327710151672363f, -0.05813740938901901245f, -0.18311111629009246826f, 0.03278261795639991760f, 0.14938427507877349854f, -0.07001876831054687500f, 0.11112874746322631836f, 0.20705108344554901123f, 0.23087275028228759766f, -0.12119357287883758545f, -0.00644557084888219833f, 0.04457841441035270691f, 0.15410654246807098389f, -0.18163004517555236816f, -0.12840162217617034912f, -0.07509347796440124512f, -0.14410743117332458496f, 0.10401698946952819824f, -0.00348481489345431328f, 0.06561915576457977295f, -0.15463533997535705566f, -0.14151048660278320312f, 0.16490800678730010986f, -0.04532843828201293945f, -0.18628087639808654785f, 0.18899850547313690186f},
  {0.19358554482460021973f, -0.15484467148780822754f, -0.13187935948371887207f, -0.08999698609113693237f, 0.03233175352215766907f, 0.07191298902034759521f, -0.02701698057353496552f, 0.06357162445783615112f, 0.00558407092466950417f, -0.05977400019764900208f, -0.08353516459465026855f, 0.08074010908603668213f, 0.22033666074275970459f, -0.02576483599841594696f, 0.10527299344539642334f, -0.05008560419082641602f, 0.00496248714625835419f, -0.15069201588630676270f, 0.09331042319536209106f, -0.11095234751701354980f, -0.01194893382489681244f, -0.00868785940110683441f, 0.18175978958606719971f, 0.18371728062629699707f, -0.03054495528340339661f, -0.08776064962148666382f, 0.15699934959411621094f, -0.02833362668752670288f, 0.16132460534572601318f, -0.14687225222587585449f, -0.14070504903793334961f, -0.01420935150235891342f},
  {0.20993831753730773926f, 0.04059575498104095459f, -0.17731375992298126221f, 0.07746285945177078247f, -0.12038867175579071045f, -0.05925082042813301086f, -0.01994765549898147583f, -0.10807421058416366577f, -0.01998385228216648102f, -0.00531927309930324554f, -0.09589913487434387207f, -0.09935734421014785767f, 0.00322177354246377945f, -0.13551865518093109131f, -0.15829275548458099365f, 0.15114212036132812500f, 0.24140736460685729980f, -0.09236026555299758911f, 0.03283272683620452881f, -0.21611428260803222656f, 0.07057141512632369995f, -0.13418899476528167725f, -0.06359894573688507080f, -0.09640207886695861816f, 0.15640415251255035400f, 0.16025911271572113037f, -0.00485969660803675652f, -0.05752589926123619080f, -0.14800108969211578369f, 0.11943320930004119873f, 0.14175893366336822510f, 0.08009082823991775513f},
  {-0.09866845607757568359f, 0.07154911011457443237f, -0.12053348124027252197f, 0.01486487966030836105f, 0.05008257180452346802f, -0.02206536382436752319f, -0.04944628104567527771f, 0.13392579555511474609f, -0.01264413446187973022f, -0.03937935084104537964f, 0.23880580067634582520f, 0.03170396387577056885f, 0.04646593332290649414f, -0.01224057935178279877f, 0.09093920886516571045f, -0.00316049973480403423f, -0.09160479903221130371f, -0.00443177297711372375f, 0.08505989611148834229f, -0.00674003269523382187f, -0.09795842319726943970f, 0.05571237951517105103f, -0.02592219039797782898f, -0.13448268175125122070f, -0.12490894645452499390f, 0.22324985265731811523f, 0.08312658220529556274f, -0.04393154010176658630f, -0.05455365777015686035f, -0.06361836194992065430f, 0.05623906105756759644f, 0.09777162969112396240f},
  {0.06828978657722473145f, -0.11294915527105331421f, -0.02287305146455764771f, -0.05474080145359039307f, -0.02578982338309288025f, -0.12148290127515792847f, -0.11868035048246383667f, -0.09821936488151550293f, 0.21644255518913269043f, -0.04941824451088905334f, -0.07237765938043594360f, 0.03030523099005222321f, 0.16953031718730926514f, -0.12627804279327392578f, -0.03901979699730873108f, 0.08015562593936920166f, -0.01214238628745079041f, 0.16685445606708526611f, -0.12854646146297454834f, -0.10206241160631179810f, 0.09490180760622024536f, -0.03981064632534980774f, 0.09670453518629074097f, 0.00747257191687822342f, -0.15918649733066558838f, 0.09672281891107559204f, -0.15005169808864593506f, -0.02503371797502040863f, -0.11792843788862228394f, -0.06723197549581527710f, 0.05752342194318771362f, 0.19994322955608367920f},
  {0.04887217283248901367f, 0.07309868931770324707f, -0.20390918850898742676f, 0.03668821975588798523f, 0.17905376851558685303f, -0.06487067788839340210f, -0.24381412565708160400f, -0.18587154150009155273f, 0.13450358808040618896f, 0.13144798576831817627f, 0.13692834973335266113f, 0.09769678860902786255f, 0.17074567079544067383f, 0.02031365968286991119f, 0.02218458056449890137f, -0.07071632891893386841f, 0.12229270488023757935f, 0.18445777893066406250f, -0.09617628902196884155f, 0.13739597797393798828f, 0.19944287836551666260f, 0.24060826003551483154f, -0.18256314098834991455f, 0.11392273753881454468f, -0.18412393331527709961f, -0.01925175450742244720f, -0.01964224316179752350f, -0.19970706105232238770f, -0.17249913513660430908f, -0.19884775578975677490f, -0.18162994086742401123f, -0.07730320841073989868f},
  {0.08994936197996139526f, 0.13707466423511505127f, -0.25212082266807556152f, -0.10234539955854415894f, -0.23156760632991790771f, -0.01299695670604705811f, 0.06371135264635086060f, -0.00371333654038608074f, -0.07017005980014801025f, 0.00666044512763619423f, 0.10711438208818435669f, 0.13591514527797698975f, 0.06472603231668472290f, 0.14826236665248870850f, 0.13577257096767425537f, -0.06827112287282943726f, -0.13101848959922790527f, 0.01823148131370544434f, -0.21923984587192535400f, 0.09344600886106491089f, -0.21248811483383178711f, 0.08895505964756011963f, 0.09845154732465744019f, -0.06204510852694511414f, 0.08425597846508026123f, 0.14535345137119293213f, -0.06288400292396545410f, -0.01569697819650173187f, -0.00732936663553118706f, 0.20205762982368469238f, -0.03237416222691535950f, -0.17154483497142791748f},
  {0.11528011411428451538f, -0.10704489797353744507f, 0.02929448522627353668f, -0.14134722948074340820f, -0.22013840079307556152f, 0.15497060120105743408f, -0.04939046502113342285f, -0.07863502204418182373f, -0.17459326982498168945f, 0.18446275591850280762f, -0.17349565029144287109f, -0.18735955655574798584f, -0.05114406719803810120f, 0.13931736350059509277f, -0.04942508041858673096f, -0.24396732449531555176f, 0.19749641418457031250f, 0.07054266333580017090f, 0.16942825913429260254f, 0.15547560155391693115f, 0.03922302275896072388f, -0.05349462479352951050f, -0.03498880937695503235f, 0.12277563661336898804f, -0.15649417042732238770f, 0.05218951776623725891f, 0.06287788599729537964f, 0.14751310646533966064f, 0.03754215314984321594f, -0.13408538699150085449f, 0.08395797759294509888f, -0.19961825013160705566f},
  {0.11906066536903381348f, 0.04546912387013435364f, 0.02861580625176429749f, 0.14385658502578735352f, -0.07561483979225158691f, 0.02739353477954864502f, -0.13948503136634826660f, 0.05684427171945571899f, -0.03206780925393104553f, -0.03559274598956108093f, 0.06818771362304687500f, 0.01320584304630756378f, 0.08840762823820114136f, 0.07901754230260848999f, -0.19394910335540771484f, 0.15954644978046417236f, -0.15069241821765899658f, 0.05857239291071891785f, -0.24540981650352478027f, 0.11152407526969909668f, 0.00956871733069419861f, -0.12172740697860717773f, -0.10486875474452972412f, 0.20116488635540008545f, -0.10106434673070907593f, -0.15688416361808776855f, 0.04858084768056869507f, 0.09821116924285888672f, 0.08223748207092285156f, 0.03439296782016754150f, 0.10665695369243621826f, 0.03236063569784164429f},
  {0.06263323873281478882f, 0.00140194513369351625f, -0.17556729912757873535f, -0.02528559602797031403f, -0.01604623906314373016f, -0.07833081483840942383f, -0.21029417216777801514f, 0.16782924532890319824f, 0.02554960362613201141f, -0.03792581707239151001f, 0.10427931696176528931f, -0.10971618443727493286f, 0.16047847270965576172f, 0.00028717669192701578f, -0.08350890129804611206f, -0.03671765327453613281f, -0.24663215875625610352f, -0.05099771916866302490f, -0.10347246378660202026f, -0.12664879858493804932f, 0.02949752844870090485f, 0.08821235597133636475f, 0.18019469082355499268f, 0.16641305387020111084f, 0.08931449800729751587f, 0.07009337097406387329f, -0.20751318335533142090f, 0.05980734154582023621f, -0.19095683097839355469f, -0.14023935794830322266f, 0.07134643197059631348f, 0.18498431146144866943f},
  {0.10817030072212219238f, -0.08236286789178848267f, -0.17262861132621765137f, -0.18219667673110961914f, 0.15848822891712188721f, -0.16775538027286529541f, 0.17127695679664611816f, 0.10732365399599075317f, 0.00101581262424588203f, 0.02196823433041572571f, -0.09317475557327270508f, -0.17559941112995147705f, -0.04191908985376358032f, 0.13455341756343841553f, -0.05006352439522743225f, 0.14802381396293640137f, 0.02479056641459465027f, -0.20845291018486022949f, -0.13689664006233215332f, -0.05188345536589622498f, -0.05049901828169822693f, -0.08887427300214767456f, 0.13620425760746002197f, 0.19711796939373016357f, -0.11189248412847518921f, 0.22252593934535980225f, -0.13780845701694488525f, 0.20420895516872406006f, 0.11209051311016082764f, -0.10030238330364227295f, -0.04889502003788948059f, 0.15841920673847198486f},
  {-0.19542677700519561768f, -0.03290113061666488647f, 0.02212914451956748962f, 0.12846572697162628174f, -0.22400479018688201904f, 0.18685756623744964600f, 0.09904211014509201050f, -0.05761481449007987976f, 0.07706128060817718506f, -0.02234536223113536835f, 0.12248630076646804810f, 0.10147507488727569580f, 0.16198132932186126709f, 0.06595137715339660645f, 0.20825110375881195068f, -0.09628174453973770142f, -0.04694508761167526245f, -0.23634870350360870361f, 0.02762106247246265411f, -0.13814207911491394043f, -0.18085148930549621582f, 0.21391455829143524170f, 0.12533627450466156006f, -0.08506862819194793701f, -0.22603611648082733154f, 0.03023729100823402405f, -0.02515626326203346252f, -0.11968593299388885498f, 0.15425586700439453125f, 0.15311235189437866211f, -0.17303806543350219727f, 0.15059173107147216797f},
  {-0.01795530132949352264f, -0.09235227853059768677f, -0.11236833035945892334f, -0.03476309776306152344f, -0.08536523580551147461f, -0.16688643395900726318f, 0.04653337225317955017f, -0.11416143923997879028f, 0.05697607249021530151f, -0.08568307012319564819f, 0.15077678859233856201f, 0.06032408773899078369f, 0.07829132676124572754f, 0.12700660526752471924f, -0.07986155152320861816f, -0.00241672177799046040f, -0.06816885620355606079f, -0.05762088671326637268f, 0.00160546088591217995f, -0.05804402753710746765f, 0.14942821860313415527f, 0.14480927586555480957f, -0.12230654805898666382f, 0.06765414774417877197f, 0.14398212730884552002f, 0.04257912561297416687f, 0.00319118867628276348f, -0.08172371983528137207f, 0.16005831956863403320f, -0.14923810958862304688f, -0.11500246822834014893f, 0.00229848036542534828f},
  {0.03012192435562610626f, 0.15008661150932312012f, -0.11628299206495285034f, -0.00041413886356167495f, 0.07380809634923934937f, -0.01407963689416646957f, 0.04925010725855827332f, -0.05048801004886627197f, -0.00778802204877138138f, -0.19307360053062438965f, -0.03024505451321601868f, -0.05706198886036872864f, 0.10023375600576400757f, -0.21391743421554565430f, 0.13687840104103088379f, -0.13213695585727691650f, -0.19821175932884216309f, 0.15363362431526184082f, 0.07367278635501861572f, 0.08376522362232208252f, 0.04472354799509048462f, -0.01112632453441619873f, 0.07834299653768539429f, -0.06813377141952514648f, 0.03595227003097534180f, 0.10749661922454833984f, -0.09332947432994842529f, 0.01317916065454483032f, 0.04945705085992813110f, 0.20063224434852600098f, -0.05723211541771888733f, -0.11883913725614547729f},
  {-0.06515232473611831665f, -0.10539549589157104492f, -0.05341742187738418579f, -0.01505648810416460037f, 0.21449622511863708496f, 0.01150437630712985992f, -0.17055487632751464844f, 0.11624541133642196655f, 0.22200171649456024170f, 0.12502324581146240234f, 0.02472380362451076508f, 0.10524855554103851318f, -0.20239970088005065918f, -0.14459204673767089844f, -0.14227853715419769287f, -0.16435575485229492188f, 0.03516028076410293579f, 0.08986466377973556519f, 0.00657226657494902611f, 0.02241311222314834595f, -0.12440509349107742310f, 0.06421059370040893555f, -0.08715377002954483032f, -0.03895108401775360107f, 0.02859286591410636902f, -0.08584911376237869263f, 0.20232009887695312500f, 0.08519372344017028809f, -0.09184491634368896484f, 0.18915905058383941650f, 0.05042964965105056763f, 0.10774874687194824219f},
  {0.12352737784385681152f, 0.21823865175247192383f, -0.03723261877894401550f, -0.04364480450749397278f, 0.11587365716695785522f, 0.16598038375377655029f, -0.12022755295038223267f, 0.13932073116302490234f, 0.08815544098615646362f, -0.09816091507673263550f, -0.08245332539081573486f, 0.04504327848553657532f, -0.05310177057981491089f, -0.08101772516965866089f, 0.09305529296398162842f, 0.22637304663658142090f, -0.06969923526048660278f, -0.09933156520128250122f, -0.15894742310047149658f, 0.15064749121665954590f, -0.01395462639629840851f, 0.00373390899039804935f, 0.16581144928932189941f, -0.15996904671192169189f, 0.06474215537309646606f, 0.04439502954483032227f, -0.07223921269178390503f, -0.13296110928058624268f, -0.00948224868625402451f, -0.20806190371513366699f, -0.06916754692792892456f, -0.14816327393054962158f},
  {0.04125011712312698364f, 0.04846626892685890198f, -0.12510488927364349365f, 0.07389618456363677979f, 0.02560038305819034576f, 0.07413348555564880371f, -0.15426450967788696289f, 0.13140505552291870117f, 0.10068828612565994263f, 0.03785216063261032104f, 0.16359893977642059326f, -0.06033512204885482788f, -0.07570683211088180542f, -0.04617615789175033569f, 0.18901482224464416504f, -0.03342685848474502563f, -0.17575120925903320312f, -0.13136436045169830322f, 0.20683421194553375244f, -0.14164809882640838623f, -0.09184098988771438599f, -0.19445921480655670166f, -0.10587980598211288452f, -0.00234094262123107910f, 0.04960516467690467834f, -0.14893607795238494873f, -0.03140341863036155701f, -0.00370715255849063396f, -0.09943138808012008667f, 0.14958210289478302002f, -0.04130067676305770874f, 0.09073881059885025024f},
  {-0.13904117047786712646f, 0.06601350754499435425f, -0.04720193892717361450f, -0.00053671846399083734f, -0.10360200703144073486f, 0.10891132056713104248f, 0.18527971208095550537f, 0.10275750607252120972f, -0.14095801115036010742f, 0.04858454316854476929f, -0.18299390375614166260f, -0.04029169678688049316f, -0.08545855432748794556f, -0.08196720480918884277f, 0.07926184684038162231f, 0.04572248831391334534f, -0.15144497156143188477f, 0.06619039922952651978f, 0.12753926217555999756f, -0.15431089699268341064f, 0.14882107079029083252f, -0.23786489665508270264f, 0.11159674823284149170f, 0.01806016080081462860f, -0.10746523737907409668f, -0.00959005858749151230f, 0.14959029853343963623f, 0.12123860418796539307f, -0.04271995276212692261f, -0.13207246363162994385f, -0.03035037405788898468f, 0.04303160309791564941f},
  {0.01798867061734199524f, 0.16632981598377227783f, 0.17868721485137939453f, 0.16640575230121612549f, 0.16202893853187561035f, -0.12446435540914535522f, -0.01574000529944896698f, -0.00008109937334666029f, -0.05233835801482200623f, -0.03470262885093688965f, 0.00337514886632561684f, -0.13793668150901794434f, -0.22113031148910522461f, -0.02107933722436428070f, 0.07403961569070816040f, 0.01580939628183841705f, 0.14791791141033172607f, -0.12394697964191436768f, -0.00623558647930622101f, -0.07841603457927703857f, -0.19392421841621398926f, -0.11771329492330551147f, 0.11450602859258651733f, 0.07964880764484405518f, -0.11513928323984146118f, 0.09501817077398300171f, 0.00080182123929262161f, -0.14430174231529235840f, 0.06560637056827545166f, -0.09121996164321899414f, 0.18544591963291168213f, 0.05162349715828895569f},
  {0.01828391849994659424f, 0.09242610633373260498f, 0.05539831519126892090f, -0.06394260376691818237f, -0.00466900831088423729f, 0.08658751845359802246f, 0.10452336072921752930f, 0.15762826800346374512f, 0.13005317747592926025f, -0.11180758476257324219f, 0.03520847484469413757f, 0.09957142174243927002f, -0.15175575017929077148f, 0.17593893408775329590f, -0.03381352871656417847f, -0.08868321776390075684f, 0.08468862622976303101f, 0.17920994758605957031f, 0.20083846151828765869f, -0.00787238497287034988f, 0.19768460094928741455f, -0.23192562162876129150f, 0.01481990236788988113f, -0.08811819553375244141f, 0.02063407748937606812f, 0.04599058255553245544f, 0.19063377380371093750f, -0.17524845898151397705f, -0.20253095030784606934f, 0.14563269913196563721f, -0.14182417094707489014f, -0.11418111622333526611f},
  {-0.12701953947544097900f, -0.01767514646053314209f, -0.08074021339416503906f, 0.10712250322103500366f, -0.19010490179061889648f, -0.03287121281027793884f, -0.06320285797119140625f, -0.17620840668678283691f, 0.14104579389095306396f, 0.22218018770217895508f, 0.05524779856204986572f, -0.11726499348878860474f, -0.14687758684158325195f, 0.14053662121295928955f, 0.10266117006540298462f, -0.01950866915285587311f, -0.00618707062676548958f, 0.12636585533618927002f, -0.04358631372451782227f, 0.08981005102396011353f, -0.13519892096519470215f, 0.05699951201677322388f, -0.00385989272035658360f, 0.00585494749248027802f, 0.15373818576335906982f, -0.17709068953990936279f, -0.10669709742069244385f, -0.06440733373165130615f, -0.03903169184923171997f, -0.21874208748340606689f, -0.01431869994848966599f, 0.13786643743515014648f},
  {0.14025008678436279297f, -0.00423471350222826004f, -0.11118005216121673584f, 0.07948275655508041382f, -0.18309421837329864502f, 0.17374034225940704346f, -0.03338498994708061218f, -0.10437895357608795166f, -0.10433947294950485229f, 0.14903815090656280518f, -0.09994819015264511108f, -0.19579184055328369141f, -0.06465768069028854370f, 0.14446061849594116211f, 0.19816549122333526611f, 0.15720841288566589355f, 0.11008612811565399170f, -0.03829405829310417175f, -0.14027947187423706055f, 0.10730935633182525635f, 0.00975160673260688782f, 0.19831651449203491211f, -0.15997268259525299072f, 0.04679999873042106628f, -0.18398953974246978760f, 0.16856300830841064453f, 0.17099323868751525879f, -0.09589403122663497925f, -0.14553828537464141846f, -0.08748635649681091309f, 0.05357397720217704773f, -0.12738953530788421631f},
  {0.13770176470279693604f, 0.11752248555421829224f, 0.17495039105415344238f, -0.08912638574838638306f, 0.16481220722198486328f, -0.04904887080192565918f, -0.17853769659996032715f, -0.06144597008824348450f, -0.19462282955646514893f, -0.10532076656818389893f, -0.13116706907749176025f, 0.12647144496440887451f, 0.04278594627976417542f, -0.03241358324885368347f, -0.00644899206236004829f, 0.14849807322025299072f, -0.19562752544879913330f, 0.07906882464885711670f, -0.14792522788047790527f, 0.08885329961776733398f, 0.11075315624475479126f, -0.10265291482210159302f, -0.07836262881755828857f, -0.09621927887201309204f, -0.15447299182415008545f, -0.14477007091045379639f, -0.23930700123310089111f, 0.12433482706546783447f, 0.09490676224231719971f, 0.17793895304203033447f, 0.16131815314292907715f, 0.10474078357219696045f},
  {0.12344005703926086426f, -0.01812604628503322601f, -0.21308326721191406250f, 0.13209666311740875244f, -0.08456435054540634155f, -0.02767475321888923645f, 0.09835604578256607056f, -0.08371885120868682861f, -0.11977809667587280273f, -0.20102736353874206543f, -0.00802231393754482269f, 0.02087135799229145050f, 0.18294742703437805176f, -0.06217552721500396729f, -0.10408240556716918945f, -0.07020086795091629028f, -0.19346666336059570312f, 0.16083040833473205566f, 0.16102510690689086914f, -0.00523224240168929100f, 0.08097233623266220093f, 0.03112847916781902313f, -0.10873511433601379395f, -0.10005199164152145386f, 0.19826227426528930664f, -0.04127700254321098328f, -0.09980591386556625366f, 0.06012728065252304077f, -0.00250013940967619419f, 0.10344679653644561768f, -0.06307706981897354126f, -0.04411703720688819885f},
  {-0.14657646417617797852f, -0.14498737454414367676f, -0.06390417367219924927f, 0.11068008095026016235f, -0.13250948488712310791f, 0.01953474059700965881f, -0.14593312144279479980f, 0.04845025762915611267f, -0.09031771868467330933f, -0.13413442671298980713f, 0.21030612289905548096f, 0.13088224828243255615f, 0.00712780887261033058f, -0.08696091920137405396f, -0.17421834170818328857f, -0.04789533466100692749f, 0.16136536002159118652f, -0.12932485342025756836f, 0.11165403574705123901f, 0.08731123805046081543f, 0.12100217491388320923f, 0.14015360176563262939f, 0.16068182885646820068f, -0.02285446226596832275f, -0.11680653691291809082f, -0.04397600516676902771f, -0.13132220506668090820f, 0.09833015501499176025f, -0.15500046312808990479f, 0.17526873946189880371f, -0.10401234030723571777f, -0.07324731349945068359f},
  {-0.04718411341309547424f, 0.03124662116169929504f, 0.13316829502582550049f, -0.04297268018126487732f, 0.17902871966361999512f, -0.04445733875036239624f, 0.02893186733126640320f, 0.00007482850196538493f, -0.12301678955554962158f, 0.11804780364036560059f, 0.05518775060772895813f, 0.09229280799627304077f, -0.06468683481216430664f, -0.08113277703523635864f, 0.11370703577995300293f, -0.10929773747920989990f, -0.08914344757795333862f, -0.05001838132739067078f, -0.04968193918466567993f, 0.01094313710927963257f, -0.11187157034873962402f, 0.18761470913887023926f, 0.22875533998012542725f, -0.05586382001638412476f, -0.04296581819653511047f, -0.11321422457695007324f, 0.08243943750858306885f, -0.07926485687494277954f, 0.04182740300893783569f, -0.09302476793527603149f, 0.06889368593692779541f, -0.06223329156637191772f},
  {0.18316234648227691650f, 0.18484157323837280273f, -0.11212849617004394531f, -0.07570923864841461182f, -0.01433519925922155380f, 0.24497330188751220703f, -0.10591831058263778687f, -0.09461779147386550903f, -0.06520453095436096191f, -0.04523044824600219727f, -0.04411278665065765381f, -0.12338668853044509888f, 0.11480256170034408569f, 0.07233814150094985962f, -0.02812952734529972076f, 0.14319543540477752686f, 0.06100697070360183716f, 0.09986677765846252441f, -0.10928820073604583740f, -0.11401967704296112061f, 0.02777212671935558319f, -0.02546039223670959473f, -0.05198793858289718628f, -0.10667920857667922974f, -0.12062796950340270996f, 0.00846079736948013306f, 0.01180342957377433777f, -0.10457544028759002686f, 0.00788603629916906357f, -0.07383777946233749390f, -0.03895138576626777649f, 0.04651439189910888672f},
  {-0.19407528638839721680f, -0.02093794196844100952f, -0.12239094078540802002f, -0.12483756989240646362f, -0.08500193804502487183f, -0.12687048316001892090f, 0.03370257094502449036f, 0.04343340545892715454f, 0.01662484556436538696f, 0.06123136356472969055f, -0.05998391285538673401f, 0.09354650974273681641f, -0.17351527512073516846f, -0.06846821308135986328f, -0.14904797077178955078f, 0.19707840681076049805f, -0.05461804941296577454f, 0.16138784587383270264f, 0.07610929012298583984f, -0.03318276628851890564f, -0.16873210668563842773f, 0.20564810931682586670f, 0.08413283526897430420f, 0.08851218223571777344f, 0.14312145113945007324f, 0.14650648832321166992f, -0.04407782852649688721f, 0.08133509755134582520f, -0.11619563400745391846f, -0.00447860173881053925f, -0.12187152355909347534f, -0.14931555092334747314f},
  {-0.01628068462014198303f, -0.06130548194050788879f, 0.07183541357517242432f, 0.17804881930351257324f, -0.08954249322414398193f, -0.08024244755506515503f, 0.01391394436359405518f, -0.04729979112744331360f, -0.02530278079211711884f, 0.05177183076739311218f, -0.06697323173284530640f, -0.17815864086151123047f, 0.07304056733846664429f, 0.01132466085255146027f, 0.15131688117980957031f, -0.08671396225690841675f, -0.17324751615524291992f, -0.10797172039747238159f, 0.01805889047682285309f, 0.10286016762256622314f, -0.02828071638941764832f, -0.02778960578143596649f, 0.05051699653267860413f, -0.00543553614988923073f, 0.17585265636444091797f, 0.06607266515493392944f, 0.24978123605251312256f, -0.07540391385555267334f, -0.07935167104005813599f, 0.15875333547592163086f, -0.02976826764643192291f, 0.00216841674409806728f},
  {0.00670393556356430054f, -0.05439943447709083557f, 0.12246889621019363403f, 0.11191652715206146240f, -0.06206164509057998657f, -0.03687090426683425903f, -0.03472076728940010071f, -0.09406007081270217896f, -0.06469294428825378418f, 0.17066985368728637695f, 0.18553505837917327881f, 0.04472134262323379517f, -0.08813869208097457886f, -0.18709385395050048828f, -0.19094727933406829834f, 0.03346608579158782959f, -0.01599081233143806458f, 0.00003340993498568423f, -0.20216529071331024170f, 0.14984381198883056641f, 0.03185393661260604858f, 0.08262782543897628784f, -0.16953957080841064453f, -0.01269096694886684418f, 0.11241598427295684814f, 0.07113572210073471069f, -0.25796934962272644043f, -0.11873411387205123901f, 0.01704935729503631592f, 0.06764658540487289429f, 0.04190655797719955444f, 0.04048071801662445068f},
  {0.00248003471642732620f, 0.10041807591915130615f, 0.01579625904560089111f, 0.16884902119636535645f, -0.07909518480300903320f, 0.13783773779869079590f, -0.06775278598070144653f, -0.11448092758655548096f, -0.11264748871326446533f, 0.15561051666736602783f, 0.06382362544536590576f, -0.04965469613671302795f, 0.18552994728088378906f, 0.08331125974655151367f, -0.10521637648344039917f, 0.04722943529486656189f, -0.21041229367256164551f, 0.10097675770521163940f, 0.19922660291194915771f, -0.11999892443418502808f, -0.11385106295347213745f, -0.15489937365055084229f, -0.11470329761505126953f, 0.05334016680717468262f, -0.13868324458599090576f, -0.00823881849646568298f, 0.16772472858428955078f, 0.01398943457752466202f, -0.04826881363987922668f, 0.09386943280696868896f, 0.02504932135343551636f, -0.16993202269077301025f},
  {0.14843431115150451660f, 0.14435067772865295410f, 0.03480524569749832153f, 0.13609570264816284180f, -0.00222552148625254631f, -0.15661136806011199951f, -0.24000470340251922607f, -0.00013764797768089920f, -0.18126802146434783936f, 0.01865769363939762115f, -0.13169999420642852783f, 0.07996769249439239502f, -0.10680633783340454102f, 0.03548268601298332214f, 0.00399861996993422508f, -0.03736178204417228699f, 0.04396920651197433472f, 0.11399152874946594238f, 0.09761390089988708496f, 0.00903124548494815826f, -0.04804742708802223206f, 0.02052096091210842133f, -0.07137089222669601440f, 0.06546264886856079102f, -0.22912175953388214111f, 0.12949886918067932129f, 0.18531346321105957031f, 0.06806950271129608154f, -0.07640021294355392456f, 0.13603992760181427002f, 0.00661989301443099976f, -0.17232537269592285156f},
  {-0.19275814294815063477f, 0.16489392518997192383f, -0.22294752299785614014f, -0.10894253104925155640f, -0.13317225873470306396f, 0.03898023813962936401f, 0.13929520547389984131f, -0.11390398442745208740f, 0.10145013034343719482f, 0.07010390609502792358f, 0.08119582384824752808f, 0.12543100118637084961f, 0.04324232786893844604f, -0.05727464705705642700f, -0.04105311259627342224f, 0.12232042849063873291f, -0.18494039773941040039f, -0.01538831088691949844f, 0.09460461139678955078f, -0.07312604039907455444f, 0.11073196679353713989f, 0.15884639322757720947f, -0.12534740567207336426f, 0.12420677393674850464f, 0.00595960859209299088f, -0.07910337299108505249f, -0.00758747430518269539f, -0.05602619424462318420f, -0.15404933691024780273f, -0.08540235459804534912f, 0.09010908007621765137f, 0.20900510251522064209f},
  {0.10878430306911468506f, -0.17675380408763885498f, 0.08658242970705032349f, -0.19532144069671630859f, 0.08924631029367446899f, -0.13064248859882354736f, -0.02525276131927967072f, 0.02668619528412818909f, 0.00955159682780504227f, 0.20082837343215942383f, -0.14154566824436187744f, 0.02940483763813972473f, -0.01841046847403049469f, -0.05420391261577606201f, -0.02334281057119369507f, -0.18566888570785522461f, -0.15670789778232574463f, 0.08297508209943771362f, 0.17490857839584350586f, -0.17300391197204589844f, 0.02713468298316001892f, 0.19671712815761566162f, -0.11493022739887237549f, 0.08928994834423065186f, 0.10530366748571395874f, -0.03770468384027481079f, -0.00716690672561526299f, 0.15363080799579620361f, 0.21570762991905212402f, 0.05066972970962524414f, 0.18276999890804290771f, 0.03499741107225418091f},
  {-0.06877510249614715576f, 0.14828409254550933838f, 0.10053024441003799438f, -0.16785633563995361328f, -0.14335195720195770264f, -0.02268815785646438599f, 0.12746998667716979980f, -0.14882157742977142334f, 0.07427861541509628296f, 0.05727697536349296570f, 0.10310509800910949707f, 0.16345378756523132324f, -0.16201488673686981201f, -0.14819471538066864014f, 0.10425622016191482544f, -0.00926758628338575363f, -0.00153253308963030577f, -0.11693069338798522949f, 0.04018064588308334351f, 0.09786216914653778076f, -0.10876554995775222778f, -0.12053161859512329102f, 0.13407592475414276123f, -0.22699606418609619141f, 0.11283053457736968994f, 0.16677699983119964600f, 0.15482713282108306885f, 0.17567093670368194580f, 0.17404489219188690186f, -0.01478879805654287338f, -0.13775485754013061523f, 0.13518443703651428223f},
  {-0.09262036532163619995f, -0.03519195318222045898f, -0.19893185794353485107f, 0.03824006021022796631f, -0.07978085428476333618f, 0.03262756392359733582f, -0.10575237870216369629f, 0.13525970280170440674f, 0.10213292390108108521f, 0.06264174729585647583f, 0.06156571581959724426f, -0.10122328251600265503f, -0.16950157284736633301f, 0.00901873130351305008f, -0.01010574866086244583f, 0.15967276692390441895f, -0.18446595966815948486f, -0.06368218362331390381f, 0.03250290453433990479f, -0.11790698021650314331f, 0.07145141065120697021f, -0.08064872771501541138f, 0.04851657897233963013f, 0.05396466329693794250f, 0.00390910729765892029f, 0.01594671607017517090f, 0.05336922779679298401f, -0.07991653680801391602f, -0.05566776916384696960f, 0.09282299876213073730f, 0.14277127385139465332f, 0.11078859865665435791f},
  {0.11993146687746047974f, 0.21345460414886474609f, -0.06191256269812583923f, -0.10117606818675994873f, -0.10192809253931045532f, -0.08034139871597290039f, -0.14763636887073516846f, 0.08792011439800262451f, -0.02754056081175804138f, -0.16055221855640411377f, 0.00106881838291883469f, 0.16379019618034362793f, 0.08295910060405731201f, 0.08310324698686599731f, -0.08238257467746734619f, -0.21380390226840972900f, 0.00624379375949501991f, -0.12155756354331970215f, -0.07114109396934509277f, 0.17532216012477874756f, 0.10074105113744735718f, 0.12532562017440795898f, 0.01284162886440753937f, -0.06696710735559463501f, -0.04958169907331466675f, 0.16017669439315795898f, -0.04018139839172363281f, -0.18561831116676330566f, 0.01747918501496315002f, 0.08505332469940185547f, 0.03811152279376983643f, -0.09340020269155502319f},
  {-0.04010418429970741272f, 0.11680822074413299561f, 0.07898713648319244385f, -0.06460411101579666138f, 0.16157238185405731201f, 0.17683406174182891846f, 0.10972906649112701416f, 0.07803631573915481567f, 0.08744367957115173340f, -0.12875525653362274170f, -0.14211598038673400879f, -0.15663403272628784180f, -0.09653401374816894531f, -0.13065895438194274902f, 0.06990063190460205078f, 0.12434469908475875854f, 0.15425626933574676514f, -0.04742070659995079041f, 0.07333230972290039062f, -0.15150581300258636475f, 0.16161377727985382080f, -0.11746388673782348633f, 0.16359189152717590332f, -0.02454381436109542847f, -0.11538542062044143677f, -0.11902744323015213013f, -0.18169745802879333496f, -0.13718865811824798584f, -0.09220016747713088989f, -0.01909614913165569305f, -0.20856045186519622803f, 0.12151950597763061523f},
  {-0.08196544647216796875f, 0.21400867402553558350f, 0.14523291587829589844f, -0.01560107804834842682f, -0.10547795146703720093f, -0.09266801923513412476f, 0.04320150986313819885f, -0.12252313643693923950f, 0.17725871503353118896f, 0.08610138297080993652f, -0.09524878114461898804f, 0.04898922517895698547f, -0.15931358933448791504f, -0.05136694759130477905f, 0.20486053824424743652f, 0.08198659867048263550f, -0.08628776669502258301f, -0.11475715786218643188f, -0.15393993258476257324f, 0.10060598701238632202f, 0.19967271387577056885f, 0.16735072433948516846f, -0.02059772796928882599f, -0.09889990836381912231f, -0.07782413065433502197f, 0.07924411445856094360f, -0.04033609479665756226f, -0.14134725928306579590f, -0.11579588800668716431f, 0.07832907140254974365f, 0.14199125766754150391f, -0.07634379714727401733f},
  {-0.08164635300636291504f, -0.15601761639118194580f, -0.03793048113584518433f, -0.12594598531723022461f, -0.05327939987182617188f, 0.09483442455530166626f, -0.07190787792205810547f, 0.18227283656597137451f, 0.02526547014713287354f, 0.18209628760814666748f, 0.01863742433488368988f, -0.16313609480857849121f, -0.15689991414546966553f, 0.04763182625174522400f, 0.13432164490222930908f, 0.01762552931904792786f, 0.02286563254892826080f, -0.01539911888539791107f, -0.04394798725843429565f, -0.00900124013423919678f, -0.13575242459774017334f, 0.01759048178791999817f, 0.13123330473899841309f, 0.08273232728242874146f, -0.11863642185926437378f, -0.12131558358669281006f, -0.05558610334992408752f, 0.07524020969867706299f, -0.06124912574887275696f, 0.04216786846518516541f, 0.07534947246313095093f, 0.02777754701673984528f},
  {-0.15456314384937286377f, -0.01487816032022237778f, 0.16967605054378509521f, 0.01183363143354654312f, -0.11875590682029724121f, -0.11145841330289840698f, -0.02676033973693847656f, -0.04949814081192016602f, 0.18019971251487731934f, -0.01828290708363056183f, 0.01838769018650054932f, 0.17256309092044830322f, -0.06324633210897445679f, 0.05102713406085968018f, -0.20934607088565826416f, -0.12458695471286773682f, -0.03213398531079292297f, 0.13778693974018096924f, 0.06763978302478790283f, 0.01812356524169445038f, -0.11408688873052597046f, 0.14645057916641235352f, 0.00353281060233712196f, -0.03831944987177848816f, -0.12274917215108871460f, -0.12639573216438293457f, 0.04386320337653160095f, -0.01355299539864063263f, 0.07757112383842468262f, -0.12665724754333496094f, -0.03251186013221740723f, 0.10775337368249893188f},
  {0.11807028949260711670f, -0.02450354024767875671f, 0.16961513459682464600f, -0.04059433564543724060f, -0.14924268424510955811f, 0.10635840892791748047f, -0.20277222990989685059f, -0.22665810585021972656f, 0.06912855803966522217f, -0.04965658485889434814f, -0.13212494552135467529f, -0.21791315078735351562f, 0.12752078473567962646f, 0.00527800386771559715f, -0.02108939923346042633f, -0.01417709700763225555f, 0.14840368926525115967f, 0.11388103663921356201f, 0.13819575309753417969f, -0.13846459984779357910f, -0.11668325960636138916f, 0.19053511321544647217f, -0.03769119456410408020f, -0.01187231671065092087f, 0.01851337775588035583f, 0.14596179127693176270f, -0.13396857678890228271f, 0.08473362773656845093f, 0.10551145672798156738f, 0.10156600922346115112f, -0.25755256414413452148f, 0.17687729001045227051f},
  {-0.05716854706406593323f, -0.03190087899565696716f, -0.16844578087329864502f, 0.15385396778583526611f, 0.00173582299612462521f, 0.07063031196594238281f, -0.05325928702950477600f, 0.18640957772731781006f, -0.10477410256862640381f, 0.06959628313779830933f, 0.09294255822896957397f, 0.11488488316535949707f, 0.07179083675146102905f, 0.12295720726251602173f, -0.03693390265107154846f, -0.09487587213516235352f, -0.22769379615783691406f, 0.01786695607006549835f, -0.13355395197868347168f, -0.19979919493198394775f, -0.01397211104631423950f, -0.03772566467523574829f, 0.17204949259757995605f, 0.16057862341403961182f, -0.09524938464164733887f, 0.19695529341697692871f, -0.07021878659725189209f, 0.12312838435173034668f, 0.10586579144001007080f, -0.03644848987460136414f, -0.03733444958925247192f, -0.21598125994205474854f},
  {-0.13102170825004577637f, 0.11449721455574035645f, -0.00770512595772743225f, 0.05935287103056907654f, 0.21176511049270629883f, 0.15967850387096405029f, 0.06802622973918914795f, 0.13911217451095581055f, -0.07635670900344848633f, -0.18293753266334533691f, 0.10256547480821609497f, 0.02677458152174949646f, 0.01700026169419288635f, 0.01885131374001502991f, 0.11449792981147766113f, -0.12037969380617141724f, 0.08269422501325607300f, -0.08126551657915115356f, -0.19866251945495605469f, 0.09203418344259262085f, -0.11612767726182937622f, 0.16336412727832794189f, -0.12838938832283020020f, 0.17136813700199127197f, -0.13917191326618194580f, 0.08370460569858551025f, -0.05285423994064331055f, 0.10123813897371292114f, -0.01166125945746898651f, -0.09936870634555816650f, -0.09913074970245361328f, -0.14337848126888275146f},
  {-0.16596294939517974854f, -0.07260705530643463135f, -0.22420647740364074707f, 0.01355224568396806717f, 0.05391361191868782043f, 0.03728785365819931030f, 0.07117608934640884399f, -0.12630751729011535645f, 0.14728505909442901611f, -0.16840949654579162598f, -0.13223376870155334473f, 0.05006224662065505981f, 0.12730078399181365967f, -0.04308922961354255676f, 0.10535089671611785889f, -0.06515230238437652588f, -0.05128100141882896423f, -0.04946358874440193176f, -0.08208024501800537109f, -0.01268158666789531708f, -0.14918515086174011230f, 0.12738279998302459717f, -0.09444975107908248901f, 0.09631382673978805542f, 0.14633841812610626221f, 0.04520285129547119141f, 0.05747079104185104370f, -0.10536308586597442627f, 0.11307591944932937622f, 0.08888427913188934326f, -0.07486174255609512329f, 0.02362998388707637787f},
  {-0.00651702890172600746f, -0.18009452521800994873f, 0.00884493347257375717f, -0.01569770090281963348f, -0.11541740596294403076f, -0.15986582636833190918f, -0.12723858654499053955f, -0.03900668025016784668f, 0.05169044807553291321f, 0.01366201695054769516f, -0.04533607885241508484f, 0.07679608464241027832f, 0.18474328517913818359f, 0.03671342879533767700f, 0.02565089985728263855f, 0.21553261578083038330f, -0.22031618654727935791f, 0.13204771280288696289f, -0.04127937927842140198f, 0.20233012735843658447f, -0.08572897315025329590f, 0.00324253970757126808f, -0.13670483231544494629f, 0.01337257400155067444f, -0.15718576312065124512f, -0.07154195010662078857f, -0.03581700101494789124f, -0.11773630976676940918f, -0.09849231690168380737f, 0.08880953490734100342f, -0.19776675105094909668f, 0.17040026187896728516f},
  {0.11378467828035354614f, 0.13990914821624755859f, -0.13770334422588348389f, -0.02971407957375049591f, -0.18055780231952667236f, 0.11148758977651596069f, 0.10528562217950820923f, 0.08228866010904312134f, 0.00470842048525810242f, 0.09063508361577987671f, -0.16126909852027893066f, -0.15769709646701812744f, -0.18779714405536651611f, -0.21023702621459960938f, 0.15822303295135498047f, -0.09808482229709625244f, -0.12035316973924636841f, 0.06284717470407485962f, 0.10541129112243652344f, 0.08583439886569976807f, -0.02534759044647216797f, -0.11487025022506713867f, 0.13446074724197387695f, 0.06314548105001449585f, 0.17820273339748382568f, 0.13486243784427642822f, -0.18499685823917388916f, 0.03523879870772361755f, -0.08850358426570892334f, 0.05912949889898300171f, 0.03632529079914093018f, 0.08291984349489212036f},
  {0.19299864768981933594f, 0.19823004305362701416f, 0.07327977567911148071f, -0.08679999411106109619f, -0.14849580824375152588f, 0.15983296930789947510f, -0.19817458093166351318f, -0.14622193574905395508f, 0.00931178592145442963f, 0.08954814076423645020f, 0.18605768680572509766f, 0.04478365927934646606f, 0.18818333745002746582f, -0.04586338624358177185f, -0.17649950087070465088f, -0.05704033374786376953f, -0.21667861938476562500f, -0.12163522839546203613f, 0.11730787158012390137f, -0.07627402245998382568f, 0.12430769950151443481f, -0.09074540436267852783f, 0.03240375220775604248f, -0.07187737524509429932f, -0.08588640391826629639f, 0.02994296886026859283f, 0.08011458069086074829f, -0.05138285458087921143f, -0.05793713778257369995f, -0.04235118255019187927f, 0.08457020670175552368f, 0.16569156944751739502f},
  {-0.12973606586456298828f, -0.22125285863876342773f, -0.17979586124420166016f, 0.17270538210868835449f, -0.15619030594825744629f, 0.22606582939624786377f, -0.15397296845912933350f, -0.02942489273846149445f, 0.15156164765357971191f, -0.06838263571262359619f, 0.02123781479895114899f, 0.11506386101245880127f, 0.05634407699108123779f, -0.01435212511569261551f, -0.01904093660414218903f, -0.02108828909695148468f, -0.03943871334195137024f, -0.17471450567245483398f, -0.07497523725032806396f, 0.14426602423191070557f, 0.17993068695068359375f, -0.07259710878133773804f, 0.16649514436721801758f, 0.10863500833511352539f, 0.14624063670635223389f, 0.09084885567426681519f, 0.12916852533817291260f, -0.03317092731595039368f, -0.08829274773597717285f, 0.08096239715814590454f, -0.12685990333557128906f, 0.09519028663635253906f},
  {0.11887610703706741333f, -0.17357411980628967285f, 0.06564857810735702515f, 0.01875180006027221680f, -0.10431946814060211182f, -0.10126923769712448120f, 0.08094778656959533691f, -0.00116449943743646145f, -0.15760698914527893066f, 0.07408422231674194336f, 0.06137507781386375427f, -0.06803148984909057617f, -0.12865148484706878662f, -0.03703146427869796753f, 0.16107271611690521240f, 0.07045689225196838379f, 0.04826771840453147888f, -0.16600738465785980225f, -0.10850011557340621948f, 0.14226508140563964844f, 0.10114739090204238892f, 0.01986863277852535248f, 0.19228084385395050049f, -0.20112057030200958252f, 0.06840827316045761108f, -0.10488200932741165161f, -0.08129195123910903931f, 0.14055827260017395020f, 0.19407333433628082275f, 0.05115355178713798523f, 0.00547754811123013496f, 0.09647271782159805298f},
  {-0.17122097313404083252f, 0.11042823642492294312f, 0.10727092623710632324f, -0.01683052256703376770f, 0.02778347954154014587f, -0.16056786477565765381f, -0.06056525558233261108f, 0.17502132058143615723f, -0.07083114981651306152f, 0.02031505294144153595f, -0.15996482968330383301f, -0.19750417768955230713f, 0.23812153935432434082f, -0.14081072807312011719f, 0.08733645826578140259f, 0.05765043944120407104f, -0.00508888857439160347f, -0.04876231774687767029f, -0.14334015548229217529f, 0.02443793043494224548f, 0.16775125265121459961f, 0.05863592028617858887f, -0.14531914889812469482f, -0.23783305287361145020f, 0.04892088845372200012f, -0.23321273922920227051f, 0.08064393699169158936f, 0.18581636250019073486f, -0.05508739128708839417f, -0.11255204677581787109f, 0.16475787758827209473f, 0.02234801277518272400f},
  {0.04280721768736839294f, 0.18583741784095764160f, -0.01493067666888237000f, 0.05699398368597030640f, 0.03444665297865867615f, 0.03595946356654167175f, -0.05750513449311256409f, -0.16206389665603637695f, 0.21376846730709075928f, 0.07627805322408676147f, 0.05516738072037696838f, -0.01531024742871522903f, -0.14723721146583557129f, -0.06343796104192733765f, 0.16816301643848419189f, -0.19848223030567169189f, -0.23143482208251953125f, -0.17864747345447540283f, -0.13346903026103973389f, 0.08261054009199142456f, 0.17480635643005371094f, -0.08343627303838729858f, 0.01729539595544338226f, 0.17810568213462829590f, -0.06903785467147827148f, -0.08187019824981689453f, 0.03950549289584159851f, -0.08180423825979232788f, 0.12901668250560760498f, 0.04280835017561912537f, -0.03497010469436645508f, -0.12589664757251739502f},
  {0.06867418438196182251f, -0.00298925046809017658f, -0.12259802967309951782f, -0.10334425419569015503f, 0.12302534282207489014f, 0.03971223533153533936f, 0.09686682373285293579f, -0.03100028634071350098f, -0.01944445073604583740f, 0.09507723152637481689f, 0.19610495865345001221f, -0.11334541440010070801f, 0.09750341624021530151f, 0.07085085660219192505f, 0.10779438912868499756f, -0.10250765085220336914f, 0.06063476949930191040f, -0.06230431422591209412f, -0.01858498901128768921f, -0.02892992459237575531f, -0.07606019079685211182f, -0.02229109033942222595f, -0.13719545304775238037f, -0.08796708285808563232f, -0.08513852953910827637f, 0.13931895792484283447f, -0.01332948263734579086f, 0.05666029080748558044f, -0.09881255030632019043f, 0.04744773730635643005f, -0.11570792645215988159f, -0.08724570274353027344f},
  {-0.06077309697866439819f, -0.09607645124197006226f, -0.22309038043022155762f, -0.12331452965736389160f, -0.22680462896823883057f, 0.05657209455966949463f, 0.18456970155239105225f, 0.01379026565700769424f, -0.12870630621910095215f, 0.14520530402660369873f, 0.08826139569282531738f, 0.05048603937029838562f, 0.11902452260255813599f, -0.13215681910514831543f, 0.02188682369887828827f, 0.06658613681793212891f, -0.01605262793600559235f, -0.06373370438814163208f, -0.13870906829833984375f, -0.20954713225364685059f, 0.13615591824054718018f, 0.04312187433242797852f, 0.14876747131347656250f, 0.05961365997791290283f, 0.12450286746025085449f, -0.10090246051549911499f, 0.08094789832830429077f, -0.20161110162734985352f, 0.11393608152866363525f, -0.11070530116558074951f, 0.20642016828060150146f, -0.10044422000646591187f},
  {-0.11084258556365966797f, 0.05743192508816719055f, 0.10623677819967269897f, -0.04210379719734191895f, 0.06980961561203002930f, -0.14035850763320922852f, 0.23507495224475860596f, -0.15848927199840545654f, -0.11003997921943664551f, 0.06745618581771850586f, 0.13458040356636047363f, 0.03140971064567565918f, 0.01719542965292930603f, -0.07021626085042953491f, -0.13045243918895721436f, -0.09407322853803634644f, -0.06366655230522155762f, -0.01909928023815155029f, 0.07347151637077331543f, 0.10103429853916168213f, 0.17552500963211059570f, -0.13100829720497131348f, 0.03689796105027198792f, 0.01209732145071029663f, -0.12987108528614044189f, 0.14160625636577606201f, -0.07925225049257278442f, -0.10343205928802490234f, -0.09206549823284149170f, 0.09771240502595901489f, 0.04880100488662719727f, 0.16632291674613952637f},
  {-0.03475057706236839294f, 0.06537190824747085571f, -0.02875702828168869019f, 0.03482015803456306458f, 0.04554795473814010620f, 0.09433835744857788086f, 0.06676133722066879272f, -0.17379206418991088867f, 0.07451764494180679321f, 0.02506474778056144714f, 0.12817138433456420898f, 0.05536104738712310791f, -0.17329971492290496826f, 0.07137550413608551025f, -0.15529038012027740479f, 0.13973964750766754150f, -0.23614066839218139648f, -0.06515596061944961548f, -0.04033711552619934082f, -0.13109481334686279297f, 0.05783513560891151428f, -0.11889400333166122437f, -0.17820464074611663818f, -0.18307076394557952881f, -0.15788796544075012207f, 0.09953995048999786377f, 0.17242501676082611084f, 0.14204759895801544189f, 0.10500643402338027954f, 0.00025205811834894121f, 0.18683923780918121338f, 0.13940426707267761230f},
  {-0.13135284185409545898f, -0.02442125976085662842f, 0.12610426545143127441f, -0.19884940981864929199f, -0.17735734581947326660f, 0.13797420263290405273f, -0.18886773288249969482f, -0.14679598808288574219f, 0.13200055062770843506f, 0.03856762871146202087f, -0.18545269966125488281f, 0.27150046825408935547f, 0.00171891052741557360f, 0.04941712319850921631f, 0.12811401486396789551f, -0.06356444209814071655f, 0.23686942458152770996f, -0.11319863796234130859f, 0.10721886903047561646f, -0.04579403996467590332f, -0.16453705728054046631f, 0.04002080485224723816f, -0.08809497952461242676f, 0.15136829018592834473f, 0.15436556935310363770f, 0.07005033642053604126f, -0.10413382947444915771f, 0.04099190235137939453f, -0.11022351682186126709f, 0.08759295940399169922f, -0.09456541389226913452f, 0.19196242094039916992f},
  {-0.08721536397933959961f, -0.01834830828011035919f, 0.04038000479340553284f, -0.13372430205345153809f, -0.04744878038763999939f, 0.15552935004234313965f, 0.05827703699469566345f, -0.14333017170429229736f, -0.14472849667072296143f, -0.00092396110994741321f, 0.10478609800338745117f, -0.10375268757343292236f, -0.00848651491105556488f, 0.13836847245693206787f, 0.10980520397424697876f, 0.15772956609725952148f, 0.10958681255578994751f, -0.15079694986343383789f, -0.08086412400007247925f, -0.21896061301231384277f, 0.19743208587169647217f, 0.04231891036033630371f, -0.02840476855635643005f, 0.15459416806697845459f, 0.04057585820555686951f, -0.16101546585559844971f, -0.03780830651521682739f, 0.21678009629249572754f, 0.03542616590857505798f, -0.00546706281602382660f, -0.17137262225151062012f, 0.08608114719390869141f},
  {0.09383827447891235352f, -0.00484003778547048569f, -0.09915908426046371460f, 0.19710181653499603271f, 0.13424666225910186768f, 0.11607486009597778320f, -0.08781161159276962280f, 0.10133533924818038940f, 0.00275807036086916924f, -0.15481382608413696289f, -0.07395822554826736450f, 0.10309749841690063477f, 0.00755948200821876526f, -0.02567987143993377686f, -0.02790879085659980774f, -0.07107346504926681519f, 0.16154772043228149414f, 0.11363092064857482910f, -0.05227518081665039062f, -0.22475172579288482666f, -0.11154006421566009521f, -0.02729457803070545197f, -0.14305150508880615234f, 0.11966636031866073608f, 0.16366471350193023682f, -0.22261503338813781738f, -0.05149614065885543823f, -0.21921892464160919189f, 0.20785443484783172607f, -0.03515617549419403076f, 0.08140121400356292725f, 0.14079381525516510010f},
  {-0.09098566323518753052f, -0.18674558401107788086f, 0.14403347671031951904f, 0.15071582794189453125f, 0.01811118610203266144f, 0.14707252383232116699f, -0.02107343822717666626f, -0.01475194003432989120f, -0.04556581005454063416f, -0.15053437650203704834f, -0.04261653125286102295f, -0.01675599999725818634f, 0.07682885229587554932f, -0.10867421329021453857f, 0.16269479691982269287f, 0.16859139502048492432f, -0.21459473669528961182f, 0.19074165821075439453f, -0.15630605816841125488f, 0.17072184383869171143f, -0.13061952590942382812f, -0.01670915074646472931f, 0.12607426941394805908f, 0.03512142598628997803f, -0.06662007421255111694f, -0.15454787015914916992f, -0.02968090772628784180f, 0.04980671405792236328f, -0.01958701014518737793f, -0.01527217216789722443f, -0.13955993950366973877f, 0.12121188640594482422f},
  {0.12749569118022918701f, -0.07303319126367568970f, -0.02800292149186134338f, -0.04996102675795555115f, -0.04550991952419281006f, 0.20453862845897674561f, -0.00638968590646982193f, 0.20955418050289154053f, -0.12512229382991790771f, -0.18250134587287902832f, 0.07974284142255783081f, 0.10595388710498809814f, 0.03296425566077232361f, 0.07044248282909393311f, 0.02973374724388122559f, 0.02534915879368782043f, 0.10907422751188278198f, -0.14753644168376922607f, 0.02812499180436134338f, 0.00509216636419296265f, -0.00463966699317097664f, -0.15692901611328125000f, -0.00174676149617880583f, -0.08471366018056869507f, 0.11684635281562805176f, 0.13732637465000152588f, -0.04089727625250816345f, -0.16614829003810882568f, -0.09645155817270278931f, 0.05958580970764160156f, 0.05528958886861801147f, -0.19034525752067565918f},
  {0.19466005265712738037f, -0.12086248397827148438f, 0.13919979333877563477f, 0.23692168295383453369f, 0.03674853965640068054f, -0.07466103881597518921f, 0.01143506634980440140f, -0.11403107643127441406f, 0.10675846040248870850f, -0.10156822204589843750f, -0.12125758826732635498f, -0.11072753369808197021f, -0.01535882335156202316f, -0.05866700783371925354f, -0.09415481239557266235f, 0.02851957641541957855f, -0.04226686805486679077f, -0.23751766979694366455f, -0.12874945998191833496f, 0.03297207131981849670f, -0.00593272643163800240f, 0.14322780072689056396f, 0.11285728216171264648f, 0.07270216196775436401f, 0.18358024954795837402f, -0.07646065950393676758f, 0.02955144271254539490f, -0.05674059689044952393f, -0.17543761432170867920f, 0.11538948863744735718f, 0.07034745067358016968f, 0.09533377736806869507f},
  {0.01459216699004173279f, 0.08069667220115661621f, -0.17630946636199951172f, -0.16310174763202667236f, 0.05340501666069030762f, -0.10614710301160812378f, -0.07105325907468795776f, 0.19702056050300598145f, 0.22010916471481323242f, 0.24475151300430297852f, 0.17461434006690979004f, -0.03959891572594642639f, -0.08594327419996261597f, -0.05593735724687576294f, 0.12790516018867492676f, -0.21061554551124572754f, 0.02731876634061336517f, 0.01453938148915767670f, -0.07503624260425567627f, -0.18847031891345977783f, -0.15950244665145874023f, -0.08590330183506011963f, -0.13423940539360046387f, 0.01106730941683053970f, 0.17189191281795501709f, -0.04217648133635520935f, 0.14007452130317687988f, 0.02698865532875061035f, 0.03522296994924545288f, 0.09925466775894165039f, -0.16857522726058959961f, -0.14527505636215209961f},
  {-0.11578711867332458496f, 0.05907985568046569824f, -0.20148070156574249268f, 0.12914739549160003662f, 0.23545472323894500732f, -0.00369402836076915264f, 0.07529410719871520996f, -0.21381615102291107178f, -0.19796763360500335693f, 0.21962365508079528809f, 0.07509603351354598999f, -0.10062550753355026245f, 0.04429883509874343872f, 0.11512649804353713989f, -0.16513366997241973877f, -0.09325344115495681763f, 0.13589744269847869873f, 0.10289812833070755005f, -0.11007273197174072266f, 0.02863443270325660706f, -0.05958829075098037720f, -0.14066527783870697021f, 0.12330204248428344727f, -0.02055272087454795837f, 0.12839618325233459473f, -0.05518677830696105957f, 0.13226880133152008057f, 0.00866388343274593353f, -0.05392720177769660950f, 0.08485590666532516479f, -0.14284183084964752197f, 0.04245108738541603088f},
  {-0.20113486051559448242f, 0.01237875036895275116f, -0.00708371633663773537f, 0.07225143909454345703f, 0.19557599723339080811f, 0.12006264925003051758f, 0.13865853846073150635f, 0.08140590041875839233f, 0.08006893843412399292f, -0.16236701607704162598f, 0.18175987899303436279f, 0.13601237535476684570f, -0.13466104865074157715f, 0.20989090204238891602f, -0.15035791695117950439f, 0.12791335582733154297f, -0.09121932834386825562f, 0.03905209898948669434f, 0.02837907522916793823f, -0.14570191502571105957f, -0.16983029246330261230f, 0.12595410645008087158f, -0.10786355286836624146f, -0.04720898345112800598f, -0.06689669936895370483f, 0.19489625096321105957f, -0.01211326383054256439f, 0.13663971424102783203f, -0.19730603694915771484f, -0.13136921823024749756f, 0.16082128882408142090f, -0.16107231378555297852f},
  {-0.09080987423658370972f, 0.03351410850882530212f, 0.13467736542224884033f, -0.01153108850121498108f, -0.10342222452163696289f, -0.15819071233272552490f, 0.04301954060792922974f, -0.05291842296719551086f, 0.04498896747827529907f, 0.07226057350635528564f, 0.16029192507266998291f, 0.06966714560985565186f, 0.12606914341449737549f, 0.04123051464557647705f, -0.05283553153276443481f, 0.21586912870407104492f, 0.04477017000317573547f, 0.04667231813073158264f, -0.18879270553588867188f, -0.02220820076763629913f, 0.13663339614868164062f, -0.16378585994243621826f, 0.13056482374668121338f, -0.07277294993400573730f, -0.14026379585266113281f, 0.15305049717426300049f, -0.00153640168718993664f, 0.09783089160919189453f, -0.14714165031909942627f, 0.06450562179088592529f, -0.03682461380958557129f, 0.10949881374835968018f},
  {0.07034050673246383667f, 0.12768660485744476318f, -0.08958849310874938965f, 0.14361537992954254150f, 0.11700288951396942139f, 0.00190759869292378426f, 0.02748175524175167084f, 0.17976856231689453125f, -0.16284433007240295410f, 0.23987431824207305908f, 0.00716079398989677429f, 0.09624516218900680542f, -0.00020532043708954006f, 0.06558313965797424316f, -0.17100118100643157959f, 0.07682985067367553711f, -0.08122514933347702026f, -0.14625611901283264160f, 0.03134338185191154480f, -0.15944974124431610107f, 0.08608670532703399658f, 0.15462496876716613770f, -0.08060076087713241577f, -0.17524273693561553955f, -0.03742560744285583496f, 0.03084625676274299622f, -0.03727165982127189636f, -0.07351804524660110474f, -0.11326131969690322876f, 0.13945271074771881104f, -0.17648960649967193604f, 0.08897787332534790039f},
  {0.13715098798274993896f, -0.00737585406750440598f, -0.01319743227213621140f, -0.02755708433687686920f, -0.04387283325195312500f, 0.05395409464836120605f, 0.18171218037605285645f, 0.17401233315467834473f, -0.08876714855432510376f, -0.07420162111520767212f, -0.04661495238542556763f, 0.18762393295764923096f, 0.00740273110568523407f, 0.03726999461650848389f, -0.14515283703804016113f, -0.11283875256776809692f, -0.08635178953409194946f, 0.14420199394226074219f, -0.19275079667568206787f, 0.06136443093419075012f, 0.13352009654045104980f, 0.15831543505191802979f, -0.08772064745426177979f, -0.02685348503291606903f, -0.12622781097888946533f, -0.13010643422603607178f, -0.07259802520275115967f, 0.08985398709774017334f, 0.12294934689998626709f, -0.08956059813499450684f, -0.08448224514722824097f, 0.03114799410104751587f},
  {-0.16718819737434387207f, -0.09305240958929061890f, 0.06082892417907714844f, -0.05039968341588973999f, -0.08241312950849533081f, 0.05882925167679786682f, -0.16399919986724853516f, 0.01201043650507926941f, -0.10905631631612777710f, 0.09145757555961608887f, 0.20346571505069732666f, -0.11193274706602096558f, 0.12161041051149368286f, -0.14477334916591644287f, -0.01001237425953149796f, 0.13901364803314208984f, 0.06039303541183471680f, 0.06702435016632080078f, -0.10882914811372756958f, 0.01700743660330772400f, 0.00039461802225559950f, -0.02994519285857677460f, 0.03829324990510940552f, 0.19598634541034698486f, -0.02375636063516139984f, 0.15808220207691192627f, 0.05240058153867721558f, 0.08474037796258926392f, -0.11606268584728240967f, 0.12898389995098114014f, 0.07148227840662002563f, -0.02107046917080879211f},
  {0.08143890649080276489f, 0.06411533802747726440f, 0.00753281544893980026f, -0.12808987498283386230f, -0.03212535753846168518f, 0.02113356627523899078f, 0.15731328725814819336f, -0.01539820898324251175f, 0.19856761395931243896f, -0.06900494545698165894f, -0.16853155195713043213f, -0.01896762102842330933f, 0.09109781682491302490f, -0.00733985472470521927f, -0.04576225206255912781f, 0.07544772326946258545f, -0.04887280240654945374f, -0.04604663699865341187f, 0.08415759354829788208f, 0.01267355307936668396f, 0.08895983546972274780f, 0.15900893509387969971f, 0.09633076936006546021f, -0.14944696426391601562f, -0.05004668608307838440f, -0.03508123755455017090f, 0.15677922964096069336f, -0.17396767437458038330f, 0.18238948285579681396f, -0.02079167217016220093f, 0.07756951451301574707f, -0.10397136956453323364f},
  {-0.05374546349048614502f, -0.17373248934745788574f, 0.09920584410429000854f, 0.09613831341266632080f, -0.02974447235465049744f, 0.07991524785757064819f, -0.04126300662755966187f, -0.17061117291450500488f, -0.15643972158432006836f, -0.06777369976043701172f, -0.00990354921668767929f, 0.19771273434162139893f, -0.07404428720474243164f, -0.07144677639007568359f, 0.09002167731523513794f, -0.10725580155849456787f, 0.13876272737979888916f, 0.07929625362157821655f, 0.01307510491460561752f, -0.04953522235155105591f, -0.07430604100227355957f, -0.05913072451949119568f, -0.11382901668548583984f, -0.11718295514583587646f, -0.14754638075828552246f, -0.06018195301294326782f, -0.07148957252502441406f, -0.04429021477699279785f, 0.14709894359111785889f, 0.19920083880424499512f, 0.11042603850364685059f, 0.05584901571273803711f},
  {0.17273074388504028320f, -0.12989974021911621094f, -0.14562606811523437500f, -0.20818744599819183350f, 0.07409827411174774170f, 0.04129855334758758545f, -0.05076454207301139832f, 0.05713349580764770508f, 0.11774557828903198242f, -0.17710922658443450928f, 0.16019339859485626221f, 0.19756785035133361816f, 0.13036042451858520508f, -0.05896513536572456360f, -0.14746062457561492920f, 0.11047922819852828979f, 0.23061555624008178711f, -0.16714568436145782471f, 0.11074891686439514160f, -0.08165159821510314941f, 0.17740093171596527100f, -0.13515909016132354736f, -0.21107618510723114014f, -0.12734167277812957764f, 0.04924276471138000488f, 0.06155669689178466797f, 0.08673743158578872681f, 0.19636738300323486328f, -0.03895564377307891846f, -0.02748090960085391998f, 0.09302803128957748413f, -0.07820918411016464233f},
  {0.19916583597660064697f, 0.01783478446304798126f, -0.07305084168910980225f, 0.10246155411005020142f, -0.17978380620479583740f, 0.17037273943424224854f, 0.11806259304285049438f, -0.08366937190294265747f, -0.01977247372269630432f, -0.10293415933847427368f, -0.15076746046543121338f, 0.06855230778455734253f, -0.13859373331069946289f, -0.14254550635814666748f, -0.04621353000402450562f, 0.00938392337411642075f, -0.14192853868007659912f, -0.03739951550960540771f, -0.13216772675514221191f, 0.00001137135222961660f, -0.12494763731956481934f, 0.22744688391685485840f, 0.11132445931434631348f, 0.15884037315845489502f, 0.03709363564848899841f, -0.05262630432844161987f, 0.12981636822223663330f, 0.19730409979820251465f, -0.05779582262039184570f, -0.05922741442918777466f, 0.14925280213356018066f, 0.08381991088390350342f},
  {-0.05797675997018814087f, 0.26631650328636169434f, 0.04134082421660423279f, -0.13810180127620697021f, -0.15810787677764892578f, -0.08323371410369873047f, -0.07288719713687896729f, -0.02315102890133857727f, -0.04664031416177749634f, -0.02621446177363395691f, 0.01749342866241931915f, -0.11211936920881271362f, -0.17483252286911010742f, 0.12585042417049407959f, -0.01987267658114433289f, -0.03276772052049636841f, -0.01316150464117527008f, -0.24499168992042541504f, 0.09531949460506439209f, 0.12625895440578460693f, 0.00138546281959861517f, 0.12760160863399505615f, 0.11981911957263946533f, 0.04244457557797431946f, 0.16346576809883117676f, -0.16619402170181274414f, -0.28381809592247009277f, -0.05184309557080268860f, 0.12950600683689117432f, 0.09341693669557571411f, 0.13768115639686584473f, -0.10398575663566589355f},
  {0.19200113415718078613f, -0.13483510911464691162f, 0.08051940798759460449f, 0.06014486774802207947f, 0.05963996797800064087f, -0.20666480064392089844f, 0.05444304272532463074f, 0.12146142125129699707f, -0.00777187943458557129f, 0.10457244515419006348f, 0.03297308087348937988f, 0.07363832741975784302f, -0.13105201721191406250f, 0.07806736975908279419f, 0.14960496127605438232f, 0.18958470225334167480f, 0.04238949716091156006f, -0.10030736774206161499f, -0.09173935651779174805f, 0.00435392418876290321f, 0.08298236131668090820f, -0.01763332262635231018f, -0.16987147927284240723f, 0.11067090183496475220f, -0.16600067913532257080f, 0.07189929485321044922f, -0.17923867702484130859f, -0.14635427296161651611f, 0.05462094768881797791f, 0.16375528275966644287f, -0.08962133526802062988f, 0.12045801430940628052f},
  {-0.17901538312435150146f, -0.08233524113893508911f, -0.08615081757307052612f, 0.08247380703687667847f, -0.20605574548244476318f, 0.12125372141599655151f, 0.03390684723854064941f, -0.08314815163612365723f, -0.01852849312126636505f, -0.14579197764396667480f, -0.01881648413836956024f, 0.11652896553277969360f, 0.15423546731472015381f, 0.18644180893898010254f, 0.15117305517196655273f, 0.15287145972251892090f, 0.13413797318935394287f, 0.09568553417921066284f, 0.13602991402149200439f, 0.01337440870702266693f, -0.05122678354382514954f, 0.07169797271490097046f, 0.03545167297124862671f, 0.14582236111164093018f, -0.00811682268977165222f, 0.04158626124262809753f, -0.21667410433292388916f, -0.01441170275211334229f, 0.11954109370708465576f, -0.08307554572820663452f, 0.14522622525691986084f, 0.16389440000057220459f},
  {0.01813601329922676086f, 0.03189340978860855103f, -0.13003847002983093262f, -0.12799634039402008057f, 0.07543196529150009155f, -0.18792715668678283691f, -0.04726934060454368591f, -0.22261296212673187256f, 0.00965226069092750549f, -0.14203475415706634521f, 0.10261642932891845703f, -0.08274662494659423828f, -0.07482511550188064575f, 0.11729427427053451538f, 0.16818641126155853271f, -0.05467339605093002319f, -0.00568743655458092690f, 0.12708657979965209961f, 0.09991676360368728638f, -0.05893325805664062500f, -0.16923600435256958008f, 0.03691817075014114380f, -0.09646412730216979980f, -0.09802714735269546509f, 0.15132260322570800781f, -0.06179163604974746704f, 0.21053147315979003906f, 0.13150052726268768311f, 0.05272653698921203613f, -0.05741534754633903503f, 0.03944451734423637390f, -0.15433880686759948730f},
  {-0.01502213533967733383f, -0.14574062824249267578f, -0.12551552057266235352f, 0.05528533831238746643f, -0.02536738477647304535f, -0.14349316060543060303f, 0.16865202784538269043f, 0.18850684165954589844f, -0.08307834714651107788f, -0.17430078983306884766f, 0.00057989422930404544f, 0.12955449521541595459f, 0.12119419127702713013f, -0.10176702588796615601f, 0.17691177129745483398f, -0.17886663973331451416f, -0.07764245569705963135f, -0.12102530896663665771f, 0.21540665626525878906f, -0.07085194438695907593f, -0.01699380576610565186f, 0.19296637177467346191f, 0.17855626344680786133f, -0.08883744478225708008f, -0.13050618767738342285f, -0.08101598173379898071f, 0.12723518908023834229f, 0.06600018590688705444f, -0.19519518315792083740f, -0.03127329424023628235f, 0.19481915235519409180f, 0.11053387820720672607f},
  {0.11591304093599319458f, -0.19642002880573272705f, 0.22009398043155670166f, 0.17304813861846923828f, 0.25077942013740539551f, 0.12783746421337127686f, -0.13476456701755523682f, -0.25514969229698181152f, 0.02238339185714721680f, -0.02946213632822036743f, 0.22070632874965667725f, -0.07184122502803802490f, -0.18949253857135772705f, -0.11641942709684371948f, 0.14058226346969604492f, -0.02160748466849327087f, -0.13851533830165863037f, -0.12898957729339599609f, 0.07546158879995346069f, -0.15553489327430725098f, 0.09757900983095169067f, 0.10169110447168350220f, 0.03477489948272705078f, 0.13478715717792510986f, 0.12266077101230621338f, 0.00783184170722961426f, -0.13819137215614318848f, -0.00355768669396638870f, -0.04625108093023300171f, 0.09845079481601715088f, -0.00140363210812211037f, -0.08715934306383132935f},
  {0.03839821368455886841f, -0.09934160113334655762f, -0.18507702648639678955f, 0.16378709673881530762f, -0.01504957675933837891f, -0.13557736575603485107f, 0.08089715242385864258f, 0.01185707375407218933f, 0.05519811809062957764f, 0.03876546025276184082f, 0.04046700149774551392f, -0.20023481547832489014f, 0.08746047317981719971f, 0.00280276802368462086f, 0.14696422219276428223f, -0.06366742402315139771f, 0.15921944379806518555f, 0.13607417047023773193f, -0.00541029917076230049f, 0.18059477210044860840f, 0.06165083870291709900f, 0.04890935495495796204f, -0.16637998819351196289f, -0.13860970735549926758f, 0.14663128554821014404f, 0.17149953544139862061f, -0.21134880185127258301f, 0.12631568312644958496f, 0.06636138260364532471f, -0.14546953141689300537f, -0.02685682661831378937f, -0.08327718079090118408f},
  {-0.04159605875611305237f, -0.21092595160007476807f, 0.04658986255526542664f, 0.16808311641216278076f, 0.05441191792488098145f, -0.09289512038230895996f, -0.12135414779186248779f, 0.23249047994613647461f, -0.07596647739410400391f, 0.18260306119918823242f, -0.11819271743297576904f, 0.06209263950586318970f, 0.21051995456218719482f, 0.18145781755447387695f, 0.11746323108673095703f, -0.00826703943312168121f, 0.15399989485740661621f, 0.01324021350592374802f, -0.11817395687103271484f, 0.14216741919517517090f, -0.05453380569815635681f, -0.21407230198383331299f, -0.15360431373119354248f, -0.14402195811271667480f, 0.03645739331841468811f, 0.02930963784456253052f, -0.19358305633068084717f, -0.04768332466483116150f, 0.17196945846080780029f, -0.00417432282119989395f, 0.18090488016605377197f, 0.04427443817257881165f},
  {0.07079751789569854736f, -0.19324786961078643799f, 0.00110118044540286064f, -0.21104136109352111816f, -0.15350431203842163086f, -0.07958807796239852905f, 0.27898821234703063965f, -0.07253827154636383057f, 0.00582590559497475624f, 0.02508103288710117340f, 0.07169550657272338867f, 0.06360422819852828979f, 0.03136568889021873474f, 0.05782722309231758118f, 0.07465141266584396362f, -0.09374975413084030151f, 0.03562486916780471802f, 0.17149071395397186279f, -0.16640087962150573730f, -0.12559320032596588135f, 0.08816799521446228027f, -0.06550933420658111572f, -0.09105048328638076782f, 0.12192285060882568359f, -0.09586305916309356689f, 0.01823107898235321045f, 0.13640668988227844238f, 0.08845469355583190918f, 0.10667853057384490967f, 0.15584255754947662354f, -0.12862564623355865479f, 0.02358001284301280975f},
  {-0.12522268295288085938f, -0.05361236259341239929f, 0.08898407220840454102f, -0.11640948802232742310f, 0.02418669871985912323f, -0.15738220512866973877f, 0.05782186985015869141f, 0.00339516880922019482f, 0.22320511937141418457f, 0.11709623783826828003f, -0.08769665658473968506f, -0.02310601808130741119f, -0.19394245743751525879f, -0.11590594053268432617f, -0.01340548228472471237f, 0.08443057537078857422f, -0.10646107047796249390f, 0.15318892896175384521f, -0.16189001500606536865f, -0.05318658798933029175f, 0.20268763601779937744f, 0.12339602410793304443f, -0.05304211005568504333f, 0.15529032051563262939f, -0.16523620486259460449f, -0.00048157601850107312f, 0.00391259882599115372f, 0.15031582117080688477f, 0.00230612745508551598f, -0.11075118184089660645f, 0.05110707506537437439f, 0.10352420806884765625f},
  {0.17011331021785736084f, 0.00672690290957689285f, -0.04623458161950111389f, -0.06956157833337783813f, -0.21834726631641387939f, 0.05025541782379150391f, 0.18832828104496002197f, -0.16566418111324310303f, 0.03784365952014923096f, 0.17215634882450103760f, 0.08862265944480895996f, 0.03416508808732032776f, 0.17991779744625091553f, -0.01695554144680500031f, 0.10095730423927307129f, 0.00944621954113245010f, -0.16088998317718505859f, -0.05464890971779823303f, 0.11663962155580520630f, -0.03727142140269279480f, -0.11604442447423934937f, 0.15692527592182159424f, 0.01737822592258453369f, 0.14863786101341247559f, 0.07457462698221206665f, -0.03892721980810165405f, -0.16689668595790863037f, 0.11876469850540161133f, -0.13411709666252136230f, 0.07825645059347152710f, 0.06474682688713073730f, 0.14213915169239044189f},
  {-0.12074381858110427856f, 0.16081297397613525391f, 0.05681212991476058960f, 0.19263976812362670898f, 0.12175050377845764160f, 0.06651049107313156128f, 0.13036404550075531006f, -0.10873258113861083984f, -0.10400772839784622192f, 0.18819995224475860596f, -0.10446883738040924072f, 0.11112628877162933350f, 0.12415747344493865967f, -0.07525173574686050415f, -0.11978877335786819458f, -0.11263184994459152222f, -0.17059704661369323730f, 0.06135940179228782654f, -0.10896881669759750366f, 0.06965570896863937378f, 0.19721330702304840088f, -0.14539675414562225342f, -0.00376711622811853886f, 0.17397466301918029785f, -0.05099299550056457520f, 0.08273746818304061890f, -0.21398237347602844238f, 0.19932952523231506348f, 0.04733999818563461304f, -0.06838928163051605225f, -0.18009689450263977051f, 0.07168139517307281494f},
