// This file is computer-generated by onnx2c 
// Command Line: onnx2c/build/onnx2c -d batch_size:1 --no-globals --func-name linket_decoder_forward out/models/m1_medium/decoder.onnx

// onnx2c
// Git Branch: feature/func-name
// Git Commit: cfcce19

// ONNX Model
// Produced By: pytorch, version 2.10.0+cu130
// ONNX IR version: 20

#include <float.h>
#include <math.h>
#include <stdbool.h>
#include <stdint.h>
#include <string.h>
#include <stdlib.h>

#define MAX(X,Y) ( X > Y ? X : Y)
#define MIN(X,Y) ( X < Y ? X : Y)
#define CLIP(X,L) ( MAX(MIN(X,L), -L) )

#if __STDC_VERSION__ < 199901L
#define FUNC_PREFIX
#else
#define FUNC_PREFIX static inline
#endif

static const float tensor_layers_0_weight[64][12] = 
{
  {0.01813598722219467163f, -0.10140880197286605835f, 0.25591197609901428223f, 0.24987779557704925537f, 0.17542493343353271484f, 0.13969214260578155518f, -0.09325697273015975952f, -0.16111098229885101318f, -0.19970089197158813477f, -0.12811705470085144043f, 0.00492105167359113693f, -0.24279667437076568604f},
  {-0.25588652491569519043f, -0.27244308590888977051f, 0.11970103532075881958f, -0.03773032128810882568f, 0.25235319137573242188f, -0.25738880038261413574f, 0.00960169732570648193f, 0.05433294549584388733f, -0.24721466004848480225f, -0.25188130140304565430f, -0.05047886818647384644f, -0.18724884092807769775f},
  {-0.17159755527973175049f, -0.25055614113807678223f, -0.28342670202255249023f, -0.24205300211906433105f, 0.20605115592479705811f, 0.19120122492313385010f, -0.28680384159088134766f, 0.00076232751598581672f, 0.11081462353467941284f, 0.17269320785999298096f, 0.11879532784223556519f, 0.14999759197235107422f},
  {-0.10268491506576538086f, 0.17725461721420288086f, -0.24881197512149810791f, -0.04835504293441772461f, -0.06599567830562591553f, -0.10970693826675415039f, 0.14692646265029907227f, -0.13660350441932678223f, -0.19037204980850219727f, 0.02489352785050868988f, 0.26419499516487121582f, -0.10250064730644226074f},
  {-0.05650221556425094604f, -0.02393860556185245514f, -0.09275586158037185669f, -0.13709697127342224121f, 0.09972295910120010376f, -0.19681797921657562256f, 0.14879506826400756836f, 0.27142205834388732910f, 0.07224364578723907471f, 0.11589231342077255249f, -0.27158299088478088379f, 0.14015115797519683838f},
  {-0.06011351943016052246f, -0.13778841495513916016f, -0.11636620759963989258f, -0.02803418226540088654f, -0.12107123434543609619f, -0.07718072831630706787f, 0.16323973238468170166f, -0.20509974658489227295f, -0.03288096189498901367f, 0.13305872678756713867f, 0.00900800991803407669f, 0.15782111883163452148f},
  {0.20373496413230895996f, -0.07366994023323059082f, -0.05137730389833450317f, 0.19167469441890716553f, 0.06046625226736068726f, 0.05192351341247558594f, -0.12576325237751007080f, -0.02174795046448707581f, 0.15727666020393371582f, 0.21029131114482879639f, -0.19123552739620208740f, -0.03518139570951461792f},
  {0.19058108329772949219f, -0.01792117580771446228f, -0.15748231112957000732f, 0.16278107464313507080f, 0.12883858382701873779f, -0.27593114972114562988f, 0.02393831498920917511f, -0.25252142548561096191f, 0.04801924899220466614f, 0.04470298439264297485f, 0.26916024088859558105f, 0.09997615218162536621f},
  {0.26543074846267700195f, 0.28207716345787048340f, 0.14347687363624572754f, 0.03091632388532161713f, 0.25200706720352172852f, 0.15635947883129119873f, 0.29311642050743103027f, -0.19584603607654571533f, 0.16323605179786682129f, 0.23848773539066314697f, -0.02886341512203216553f, 0.26945760846138000488f},
  {-0.26892107725143432617f, 0.04823538288474082947f, -0.22254391014575958252f, -0.23217935860157012939f, -0.12384939193725585938f, -0.26446518301963806152f, 0.03471508622169494629f, -0.13399817049503326416f, 0.08294081687927246094f, -0.08573909848928451538f, -0.07014755159616470337f, 0.01678766123950481415f},
  {-0.19529789686203002930f, -0.16958767175674438477f, -0.22417460381984710693f, 0.24691149592399597168f, 0.13199743628501892090f, -0.09308841079473495483f, 0.02057124674320220947f, 0.10572033375501632690f, -0.17305633425712585449f, 0.07255959510803222656f, -0.14122307300567626953f, -0.05127168819308280945f},
  {-0.12486024945974349976f, 0.03134078904986381531f, 0.05174431204795837402f, 0.22922627627849578857f, -0.27459716796875000000f, 0.15031358599662780762f, 0.03034146502614021301f, 0.03769688308238983154f, -0.04317798092961311340f, 0.06716746836900711060f, -0.12125451862812042236f, -0.03596847131848335266f},
  {0.08869788795709609985f, 0.04402753338217735291f, 0.16955153644084930420f, -0.28603133559226989746f, -0.06711838394403457642f, -0.20028215646743774414f, -0.27217990159988403320f, -0.17418989539146423340f, 0.05022795125842094421f, 0.02103222534060478210f, -0.23629571497440338135f, -0.17697912454605102539f},
  {-0.14134871959686279297f, -0.05830658227205276489f, 0.23524665832519531250f, -0.15895067155361175537f, -0.02344447001814842224f, -0.23801651597023010254f, -0.19376616179943084717f, -0.11231531947851181030f, 0.23763720691204071045f, 0.21021400392055511475f, 0.04311467334628105164f, 0.14367908239364624023f},
  {0.06589952856302261353f, 0.27031841874122619629f, -0.24056050181388854980f, 0.20683863759040832520f, 0.05445179343223571777f, 0.16651627421379089355f, 0.24103306233882904053f, -0.26501581072807312012f, 0.06171904131770133972f, 0.30660772323608398438f, -0.17509683966636657715f, 0.24961666762828826904f},
  {0.05006860569119453430f, -0.03512768074870109558f, 0.11051569879055023193f, -0.27166005969047546387f, -0.05447870865464210510f, -0.01943478360772132874f, 0.14622329175472259521f, -0.01698558591306209564f, -0.16352669894695281982f, -0.01070601213723421097f, -0.10914958268404006958f, 0.22734636068344116211f},
  {-0.08111965656280517578f, 0.11701175570487976074f, 0.20509403944015502930f, 0.14164297282695770264f, -0.24675813317298889160f, -0.23602949082851409912f, 0.26645687222480773926f, -0.03745433315634727478f, 0.09093855321407318115f, 0.01785470545291900635f, 0.18245582282543182373f, 0.12361583113670349121f},
  {-0.01466421224176883698f, -0.19675661623477935791f, -0.25890433788299560547f, -0.23099872469902038574f, -0.04426001012325286865f, -0.28698512911796569824f, 0.04148847237229347229f, -0.02724723704159259796f, 0.21975405514240264893f, 0.02581493929028511047f, 0.26567566394805908203f, 0.06131908670067787170f},
  {0.20203250646591186523f, -0.05210321769118309021f, 0.01519482489675283432f, 0.29540491104125976562f, -0.19806864857673645020f, 0.03065068088471889496f, -0.07768861204385757446f, 0.22437250614166259766f, 0.21153497695922851562f, -0.25687193870544433594f, 0.27876704931259155273f, -0.07001629471778869629f},
  {0.28351500630378723145f, 0.09882852435111999512f, 0.04554633423686027527f, 0.15933734178543090820f, 0.01213533896952867508f, -0.16593740880489349365f, -0.21094083786010742188f, -0.03713469207286834717f, 0.05523696541786193848f, -0.10580252856016159058f, -0.13686183094978332520f, -0.02650531753897666931f},
  {0.18993668258190155029f, 0.05146954953670501709f, 0.06888636201620101929f, -0.21163782477378845215f, 0.05670130252838134766f, 0.26821765303611755371f, 0.08626814186573028564f, 0.21975751221179962158f, 0.15540747344493865967f, 0.14688450098037719727f, -0.26695576310157775879f, 0.28823411464691162109f},
  {0.00008866287680575624f, 0.15724387764930725098f, -0.00494985189288854599f, 0.19056364893913269043f, -0.05429922789335250854f, 0.12286680191755294800f, 0.07637640088796615601f, -0.16849096119403839111f, -0.22489671409130096436f, 0.06500420719385147095f, -0.15923106670379638672f, 0.17086015641689300537f},
  {-0.11990229040384292603f, -0.20181946456432342529f, -0.12960857152938842773f, 0.21251812577247619629f, 0.16543082892894744873f, 0.24115809798240661621f, -0.22021773457527160645f, 0.26635745167732238770f, -0.24876758456230163574f, -0.01929057575762271881f, 0.16201338171958923340f, 0.23487834632396697998f},
  {-0.12207059562206268311f, -0.27410900592803955078f, 0.07039206475019454956f, -0.17002891004085540771f, 0.09242045134305953979f, -0.08014491945505142212f, 0.24303990602493286133f, -0.25625222921371459961f, -0.05060711503028869629f, -0.29582703113555908203f, -0.10432531684637069702f, 0.00316038378514349461f},
  {0.09947489202022552490f, -0.02908539958298206329f, -0.10342264920473098755f, 0.02251125127077102661f, -0.08992806077003479004f, 0.00452989106997847557f, -0.05670119076967239380f, 0.07992993295192718506f, 0.21356022357940673828f, 0.09319555759429931641f, -0.04927220940589904785f, 0.05575026571750640869f},
  {-0.16006477177143096924f, 0.16334272921085357666f, 0.18466946482658386230f, 0.05969543382525444031f, 0.16733393073081970215f, 0.05097309872508049011f, 0.04857988655567169189f, -0.08327963203191757202f, 0.28095918893814086914f, -0.03938503190875053406f, 0.02921813540160655975f, 0.05065171048045158386f},
  {-0.08932328224182128906f, 0.06443578749895095825f, 0.00275768828578293324f, 0.15330182015895843506f, -0.16521273553371429443f, 0.00081375672016292810f, -0.27630332112312316895f, 0.06526336073875427246f, 0.00325416703708469868f, 0.23702891170978546143f, 0.07552721351385116577f, 0.19553239643573760986f},
  {0.25367963314056396484f, -0.15362137556076049805f, 0.14553983509540557861f, 0.07826910167932510376f, -0.19396510720252990723f, 0.29548689723014831543f, 0.13422904908657073975f, 0.00026822046493180096f, -0.12924017012119293213f, 0.26475954055786132812f, -0.20857416093349456787f, 0.24484170973300933838f},
  {-0.25455787777900695801f, -0.17327514290809631348f, 0.21016071736812591553f, -0.10649466514587402344f, -0.13667497038841247559f, -0.03050531633198261261f, -0.10442998260259628296f, 0.01671772263944149017f, -0.01446914672851562500f, -0.13579060137271881104f, -0.16671024262905120850f, -0.01002955809235572815f},
  {-0.11485721170902252197f, 0.21643385291099548340f, -0.24504137039184570312f, -0.04440215229988098145f, 0.23779472708702087402f, 0.07265587896108627319f, 0.11052048951387405396f, -0.07479745149612426758f, 0.21353344619274139404f, 0.06148900464177131653f, -0.10005594044923782349f, 0.14925651252269744873f},
  {-0.10810630768537521362f, 0.08305105566978454590f, -0.16918513178825378418f, 0.04060264304280281067f, -0.20647841691970825195f, 0.26968291401863098145f, 0.02488067559897899628f, -0.09259725362062454224f, 0.17034392058849334717f, -0.21961213648319244385f, 0.13141243159770965576f, -0.17987145483493804932f},
  {-0.16308876872062683105f, 0.27039286494255065918f, 0.00352567248046398163f, -0.11690136790275573730f, 0.19720859825611114502f, 0.22215315699577331543f, 0.27280995249748229980f, 0.13503247499465942383f, 0.09145499765872955322f, 0.13688610494136810303f, -0.23854173719882965088f, 0.26623961329460144043f},
  {0.09165956825017929077f, -0.23352764546871185303f, 0.16864693164825439453f, -0.08748750388622283936f, 0.21158732473850250244f, 0.23116618394851684570f, -0.19435648620128631592f, 0.21782691776752471924f, 0.22316476702690124512f, -0.16448244452476501465f, 0.03742888569831848145f, -0.26012936234474182129f},
  {0.08853087574243545532f, 0.02775594778358936310f, 0.28175997734069824219f, 0.26395487785339355469f, 0.14729125797748565674f, 0.00905143655836582184f, -0.26200202107429504395f, 0.13288614153861999512f, 0.04050784185528755188f, 0.03616752475500106812f, -0.21860933303833007812f, 0.00284303654916584492f},
  {-0.23383349180221557617f, 0.17917627096176147461f, 0.01476980559527873993f, -0.18568678200244903564f, -0.07149416208267211914f, 0.18969957530498504639f, 0.26385223865509033203f, 0.12576442956924438477f, 0.00105245795566588640f, 0.06853230297565460205f, 0.20034809410572052002f, 0.15836910903453826904f},
  {-0.10464274138212203979f, 0.06413636356592178345f, -0.22408294677734375000f, -0.11046695709228515625f, -0.10726100206375122070f, 0.25682285428047180176f, -0.28303420543670654297f, -0.19167150557041168213f, -0.08868878334760665894f, 0.07103277742862701416f, -0.21961711347103118896f, -0.28061351180076599121f},
  {0.18872353434562683105f, -0.02212392352521419525f, -0.03356600180268287659f, 0.10987310856580734253f, 0.18358890712261199951f, -0.17126230895519256592f, -0.03245704993605613708f, -0.11460541933774948120f, 0.25452157855033874512f, -0.30134639143943786621f, 0.20732405781745910645f, -0.12126994878053665161f},
  {0.17988459765911102295f, -0.00372398132458329201f, 0.19662103056907653809f, 0.10931977629661560059f, 0.21899844706058502197f, -0.22364442050457000732f, 0.07882992178201675415f, -0.06878461688756942749f, -0.20431368052959442139f, -0.16857890784740447998f, -0.26688629388809204102f, -0.25049778819084167480f},
  {0.06136348471045494080f, 0.19258035719394683838f, 0.28015682101249694824f, -0.01319881435483694077f, -0.04892120882868766785f, 0.17922495305538177490f, -0.15670228004455566406f, 0.16454184055328369141f, 0.09820259362459182739f, 0.21114699542522430420f, 0.10028244554996490479f, -0.07502995431423187256f},
  {0.22769193351268768311f, -0.23076601326465606689f, -0.14102494716644287109f, 0.03587082773447036743f, 0.12226489186286926270f, -0.14807000756263732910f, -0.01309825479984283447f, 0.09262526035308837891f, 0.09891891479492187500f, -0.05875746905803680420f, -0.03243022039532661438f, 0.26690131425857543945f},
  {0.08220236748456954956f, -0.29211914539337158203f, -0.18391150236129760742f, -0.12837846577167510986f, -0.09854416549205780029f, -0.03160291537642478943f, -0.03704248368740081787f, 0.21814860403537750244f, 0.16099414229393005371f, -0.03400734439492225647f, 0.04044466093182563782f, -0.15035299956798553467f},
  {0.25144377350807189941f, 0.14027281105518341064f, -0.02086208015680313110f, -0.23404759168624877930f, -0.28360027074813842773f, -0.20840141177177429199f, 0.16230137646198272705f, 0.13370576500892639160f, 0.04236786067485809326f, 0.06269917637109756470f, -0.24825720489025115967f, 0.11545813828706741333f},
  {0.02367625944316387177f, -0.12551987171173095703f, -0.11870832741260528564f, 0.08585236221551895142f, -0.21989434957504272461f, -0.06902006268501281738f, 0.16195306181907653809f, 0.20087145268917083740f, 0.17354474961757659912f, -0.09228952974081039429f, 0.09021949023008346558f, 0.18824775516986846924f},
  {-0.11511477082967758179f, 0.19738359749317169189f, -0.05249485373497009277f, -0.23528350889682769775f, -0.01531113497912883759f, 0.15846203267574310303f, 0.20174191892147064209f, -0.25944364070892333984f, 0.25962388515472412109f, 0.26203423738479614258f, -0.20196206867694854736f, -0.23310774564743041992f},
  {0.24806292355060577393f, -0.03820687532424926758f, -0.25043371319770812988f, -0.21759371459484100342f, 0.25664940476417541504f, -0.17531661689281463623f, 0.04503307491540908813f, -0.02575542964041233063f, -0.15539027750492095947f, -0.26530718803405761719f, -0.02249454893171787262f, -0.04386028647422790527f},
  {-0.26131865382194519043f, 0.18357162177562713623f, -0.05527362227439880371f, -0.09352013468742370605f, 0.18078245222568511963f, -0.10048519074916839600f, 0.11178221553564071655f, -0.01391885057091712952f, -0.26138406991958618164f, -0.13188788294792175293f, 0.09786828607320785522f, 0.29649585485458374023f},
  {0.08270317316055297852f, 0.24365323781967163086f, 0.16424708068370819092f, 0.27852237224578857422f, -0.24249601364135742188f, 0.29640039801597595215f, 0.12923537194728851318f, 0.26707893610000610352f, 0.19273135066032409668f, 0.06456027925014495850f, -0.24570553004741668701f, -0.06317079812288284302f},
  {-0.04166141152381896973f, 0.23901982605457305908f, -0.18722295761108398438f, -0.14677892625331878662f, 0.13373197615146636963f, 0.20943541824817657471f, 0.20153912901878356934f, -0.09074654430150985718f, 0.23046976327896118164f, -0.25584286451339721680f, 0.05331128090620040894f, -0.13245159387588500977f},
  {-0.09028842300176620483f, 0.17563666403293609619f, -0.11712573468685150146f, 0.17155404388904571533f, 0.05647766962647438049f, -0.16217727959156036377f, -0.21985183656215667725f, -0.15269276499748229980f, 0.23091921210289001465f, 0.28749603033065795898f, -0.18175129592418670654f, -0.02197930216789245605f},
  {0.01988214999437332153f, 0.28023687005043029785f, -0.05970761179924011230f, 0.29239255189895629883f, 0.16894176602363586426f, 0.13021440804004669189f, 0.19748371839523315430f, 0.28321233391761779785f, -0.10704998672008514404f, 0.01818296685814857483f, 0.17436490952968597412f, 0.03544779866933822632f},
  {-0.24409331381320953369f, 0.23575608432292938232f, 0.01179048977792263031f, 0.27597895264625549316f, 0.04949739947915077209f, 0.00024320524244103581f, -0.09342155605554580688f, 0.15065190196037292480f, -0.24817173182964324951f, 0.22419050335884094238f, 0.01530273351818323135f, 0.29162439703941345215f},
  {0.07044392824172973633f, 0.11040429025888442993f, -0.01319016329944133759f, 0.01046303659677505493f, 0.27123627066612243652f, -0.29030203819274902344f, -0.19275309145450592041f, -0.12584412097930908203f, -0.18229877948760986328f, -0.22466561198234558105f, -0.15061539411544799805f, 0.05667724460363388062f},
  {0.24813720583915710449f, 0.19551391899585723877f, -0.03098222240805625916f, 0.10040368139743804932f, -0.06552821397781372070f, 0.02253557927906513214f, 0.10320468246936798096f, -0.26625183224678039551f, 0.05890589207410812378f, 0.01730029471218585968f, -0.20305909216403961182f, -0.26738485693931579590f},
  {-0.28220972418785095215f, 0.09591465443372726440f, -0.00361671717837452888f, 0.25595059990882873535f, -0.12135833501815795898f, 0.20606854557991027832f, 0.05035354197025299072f, -0.27119275927543640137f, -0.22108998894691467285f, 0.23908494412899017334f, -0.18857161700725555420f, 0.07452712208032608032f},
  {0.00690296292304992676f, -0.28135776519775390625f, 0.17257368564605712891f, -0.17712210118770599365f, 0.04876459762454032898f, -0.28347608447074890137f, -0.28699871897697448730f, -0.10205040127038955688f, 0.10423483699560165405f, -0.22205826640129089355f, 0.00928744487464427948f, -0.04060867801308631897f},
  {0.19493649899959564209f, 0.14230275154113769531f, -0.28861433267593383789f, 0.10137279331684112549f, 0.11805550754070281982f, -0.09854616224765777588f, -0.26832804083824157715f, -0.16535779833793640137f, -0.06546401232481002808f, -0.23515070974826812744f, -0.26166981458663940430f, 0.26815310120582580566f},
  {-0.28196313977241516113f, -0.06624255329370498657f, 0.15414598584175109863f, -0.28113877773284912109f, 0.21984663605690002441f, 0.05403060466051101685f, -0.17542007565498352051f, -0.26422855257987976074f, -0.20680093765258789062f, -0.02278598211705684662f, 0.10280746966600418091f, 0.09328708797693252563f},
  {-0.04756322875618934631f, -0.26211094856262207031f, 0.13908289372920989990f, 0.12905874848365783691f, -0.17582421004772186279f, 0.01823087222874164581f, 0.04321756213903427124f, 0.11380635946989059448f, -0.17318391799926757812f, 0.05556841194629669189f, -0.08370275795459747314f, -0.16791428625583648682f},
  {0.25270792841911315918f, 0.09469385445117950439f, -0.21360559761524200439f, -0.04010477289557456970f, 0.27056229114532470703f, 0.25944334268569946289f, -0.22197926044464111328f, -0.24432328343391418457f, 0.10671802610158920288f, 0.04161547869443893433f, 0.21046099066734313965f, 0.09671364724636077881f},
  {0.28650307655334472656f, 0.23531773686408996582f, 0.17148850858211517334f, -0.07089044153690338135f, -0.14917366206645965576f, -0.25394463539123535156f, 0.14126554131507873535f, 0.10157161951065063477f, 0.21693040430545806885f, -0.00982540659606456757f, -0.21705894172191619873f, -0.11837834119796752930f},
  {-0.06637449562549591064f, -0.24602130055427551270f, 0.14401920139789581299f, -0.13602177798748016357f, -0.22722651064395904541f, -0.21663773059844970703f, -0.00793014839291572571f, 0.12595015764236450195f, 0.16538487374782562256f, -0.12661655247211456299f, 0.14666557312011718750f, 0.14535038173198699951f},
  {0.19848006963729858398f, -0.07949595898389816284f, 0.26351034641265869141f, -0.06497734785079956055f, -0.09202820807695388794f, 0.28758555650711059570f, -0.12762174010276794434f, 0.29046094417572021484f, 0.12178005278110504150f, 0.15135584771633148193f, 0.13616402447223663330f, -0.20392578840255737305f},
  {0.12625448405742645264f, -0.26636835932731628418f, -0.23214384913444519043f, -0.16280847787857055664f, -0.01163544040173292160f, 0.05244041234254837036f, -0.26277369260787963867f, 0.02938053384423255920f, 0.24829775094985961914f, -0.13010182976722717285f, -0.16894860565662384033f, -0.17480158805847167969f},
  {0.00382431619800627232f, 0.17227303981781005859f, 0.15826733410358428955f, 0.08146958798170089722f, -0.15823428332805633545f, -0.15814664959907531738f, -0.18534468114376068115f, 0.00841007381677627563f, -0.21192124485969543457f, 0.06201959028840065002f, 0.05001328140497207642f, 0.17797018587589263916f}
};
static const float tensor_layers_0_bias[64] = 
{-0.19274230301380157471f, 0.07753547281026840210f, -0.16987143456935882568f, 0.10536742210388183594f, 0.24456596374511718750f, 0.28072246909141540527f, -0.10801970213651657104f, 0.02991281077265739441f, 0.07023788988590240479f, -0.17489129304885864258f, 0.18878085911273956299f, -0.08230727165937423706f, 0.12702439725399017334f, 0.14202536642551422119f, -0.22358305752277374268f, -0.29798537492752075195f, -0.31264343857765197754f, -0.13038420677185058594f, -0.12482372671365737915f, 0.04200493916869163513f, 0.18014483153820037842f, 0.14018954336643218994f, 0.20969432592391967773f, -0.12185426801443099976f, -0.17558367550373077393f, 0.08141972869634628296f, 0.19770830869674682617f, -0.13624858856201171875f, -0.19617420434951782227f, 0.16845265030860900879f, 0.09389886260032653809f, 0.10621195286512374878f, -0.07884828001260757446f, 0.06053708121180534363f, 0.06408745050430297852f, -0.19391985237598419189f, -0.09236336499452590942f, -0.27299591898918151855f, 0.04409313574433326721f, 0.20042577385902404785f, 0.03567674383521080017f, -0.25165247917175292969f, -0.00090569496387615800f, -0.11884275078773498535f, -0.19052149355411529541f, -0.05023995786905288696f, -0.27051168680191040039f, 0.05287485942244529724f, -0.27587276697158813477f, -0.15189656615257263184f, -0.02201726660132408142f, 0.13399992883205413818f, 0.04312231019139289856f, 0.00591982947662472725f, -0.01719366759061813354f, -0.19579060375690460205f, -0.17549504339694976807f, 0.28385245800018310547f, 0.15979267656803131104f, 0.15325270593166351318f, -0.09167267382144927979f, 0.02410687133669853210f, -0.17803975939750671387f, 0.29881149530410766602f};
static const float tensor_layers_1_l0_weight[64][64] = 
{
  {-0.04193937405943870544f, -0.03277944773435592651f, -0.07185363769531250000f, 0.03248915076255798340f, 0.02749591693282127380f, 0.02613770775496959686f, -0.10056500881910324097f, -0.01533449534326791763f, -0.03421148657798767090f, -0.07140454649925231934f, 0.06306533515453338623f, -0.08076406270265579224f, -0.02381579764187335968f, -0.00452845357358455658f, 0.02551737613976001740f, 0.09280083328485488892f, 0.02547520026564598083f, -0.05076069012284278870f, -0.02652297168970108032f, 0.03454117849469184875f, 0.08058378845453262329f, 0.05848823860287666321f, 0.04535977169871330261f, 0.00032622975413687527f, 0.13007888197898864746f, 0.02571177482604980469f, 0.03442243486642837524f, 0.00513242837041616440f, -0.05470082536339759827f, 0.11795225739479064941f, 0.04303263500332832336f, 0.00348845985718071461f, -0.12835438549518585205f, -0.05209783464670181274f, 0.01986909285187721252f, -0.07664477825164794922f, -0.14089910686016082764f, 0.07859013974666595459f, -0.05772458389401435852f, -0.06057837232947349548f, -0.03753207996487617493f, 0.04613468423485755920f, -0.01600174792110919952f, 0.03520874306559562683f, -0.04820184037089347839f, 0.12884600460529327393f, 0.11552779376506805420f, -0.02987563610076904297f, -0.02289119176566600800f, -0.02236571349203586578f, 0.14004872739315032959f, 0.03078464232385158539f, -0.08512888848781585693f, -0.07038136571645736694f, 0.10853002965450286865f, 0.11441293358802795410f, 0.07918309420347213745f, 0.06872612982988357544f, -0.03919429704546928406f, 0.01705477200448513031f, 0.04438866302371025085f, 0.08745430409908294678f, 0.07186253368854522705f, -0.10644428431987762451f},
  {-0.08231608569622039795f, 0.04405686259269714355f, 0.13573968410491943359f, -0.08474058657884597778f, -0.01906446926295757294f, 0.04286560416221618652f, -0.01308097690343856812f, -0.08308699727058410645f, -0.00431248359382152557f, 0.01898199133574962616f, 0.00227485224604606628f, 0.06593862175941467285f, 0.10455843061208724976f, 0.02686700224876403809f, -0.07341303676366806030f, -0.08537559956312179565f, -0.04503684118390083313f, 0.07215352356433868408f, -0.01567827351391315460f, 0.09423130005598068237f, -0.00945504009723663330f, 0.00663519138470292091f, 0.06175379827618598938f, 0.12170995771884918213f, 0.13696351647377014160f, -0.07543542236089706421f, 0.01763085275888442993f, -0.02283034287393093109f, 0.00129176082555204630f, 0.08077357709407806396f, 0.08700432628393173218f, -0.00940691959112882614f, -0.10943017899990081787f, -0.00022043425997253507f, 0.02540200017392635345f, 0.06978986412286758423f, 0.09332721680402755737f, -0.09695447981357574463f, 0.09977269172668457031f, 0.09532702714204788208f, -0.02657112851738929749f, 0.08072005212306976318f, -0.09713023155927658081f, 0.03977464139461517334f, 0.04199609160423278809f, -0.02662342600524425507f, -0.04445173218846321106f, -0.10933844000101089478f, -0.01342161837965250015f, -0.04026682674884796143f, 0.06739467382431030273f, -0.04665645584464073181f, -0.03462649136781692505f, -0.01141714118421077728f, -0.05200363323092460632f, -0.04702563583850860596f, -0.01118858531117439270f, -0.03501861914992332458f, 0.00824181269854307175f, 0.03931414335966110229f, -0.02140843681991100311f, -0.10353834927082061768f, -0.07225136458873748779f, -0.02047622390091419220f},
  {0.05345986410975456238f, -0.01839051395654678345f, 0.11754201352596282959f, 0.04483666643500328064f, -0.02671600691974163055f, 0.10073622316122055054f, 0.01120642572641372681f, -0.12310416996479034424f, -0.08486906439065933228f, 0.04012521356344223022f, 0.01622145622968673706f, -0.11791501194238662720f, 0.00037640464142896235f, -0.10392662882804870605f, -0.09905113279819488525f, -0.12151399254798889160f, 0.06856916099786758423f, 0.09438543766736984253f, -0.04545336216688156128f, 0.01046265661716461182f, -0.11517167836427688599f, 0.01866111345589160919f, -0.07063066959381103516f, 0.07630232721567153931f, 0.09615845233201980591f, -0.11127063632011413574f, -0.06601958721876144409f, 0.10019482672214508057f, -0.02890288457274436951f, 0.06217803433537483215f, 0.04829139634966850281f, 0.02248554676771163940f, -0.04166577383875846863f, -0.06945281475782394409f, -0.09296060353517532349f, 0.09879312664270401001f, 0.06411027908325195312f, -0.08108870685100555420f, 0.06868518143892288208f, -0.12715417146682739258f, -0.04330128431320190430f, -0.10009042918682098389f, -0.01806320436298847198f, 0.12466621398925781250f, -0.05359058454632759094f, -0.10438688844442367554f, 0.02826220914721488953f, 0.00724606215953826904f, -0.00542368320748209953f, 0.08979959040880203247f, -0.01601512916386127472f, -0.05288263037800788879f, -0.04738223180174827576f, 0.02634678408503532410f, 0.12585458159446716309f, 0.00160422699991613626f, 0.06927227228879928589f, -0.02224447764456272125f, -0.00176413555163890123f, -0.08883246779441833496f, 0.06042026355862617493f, -0.09449528157711029053f, 0.11922277510166168213f, 0.00895558111369609833f},
  {-0.09955344349145889282f, -0.10972061008214950562f, -0.04591510072350502014f, 0.00423940457403659821f, -0.10415817052125930786f, 0.04564418643712997437f, 0.02710119448602199554f, -0.11942640691995620728f, 0.01566646061837673187f, 0.04924530535936355591f, -0.03090923279523849487f, -0.02067556791007518768f, -0.03678708150982856750f, 0.08086048066616058350f, 0.00827866978943347931f, -0.08821371197700500488f, 0.03076561726629734039f, -0.06898728758096694946f, 0.04109065979719161987f, -0.12236539274454116821f, -0.10446192324161529541f, -0.09396208822727203369f, 0.12766012549400329590f, 0.03897957876324653625f, -0.00377231184393167496f, 0.01739944145083427429f, 0.01364122517406940460f, 0.04976989328861236572f, 0.00712865544483065605f, 0.07934225350618362427f, 0.01375958509743213654f, -0.00494280317798256874f, 0.01322920154780149460f, 0.01181885320693254471f, 0.08751031756401062012f, 0.09545488655567169189f, -0.14010208845138549805f, -0.12279133498668670654f, -0.10998316109180450439f, 0.01456511765718460083f, 0.08280474692583084106f, 0.08932887017726898193f, 0.06642885506153106689f, 0.02758890204131603241f, 0.04087009280920028687f, 0.00510428100824356079f, 0.07682789117097854614f, -0.00002669041168701369f, -0.09308900684118270874f, 0.00282353232614696026f, -0.06366849690675735474f, -0.01901047304272651672f, -0.18285937607288360596f, -0.08972659707069396973f, -0.01048286911100149155f, -0.09021306782960891724f, -0.00475166179239749908f, -0.10699018836021423340f, -0.03131271153688430786f, -0.05785985663533210754f, 0.01081935875117778778f, -0.02294299751520156860f, -0.08393228799104690552f, -0.02765866927802562714f},
  {0.04270117729902267456f, 0.01940528303384780884f, -0.04167624935507774353f, 0.08603668957948684692f, 0.11325015127658843994f, 0.01352611463516950607f, -0.02782565541565418243f, 0.14247691631317138672f, -0.08748744428157806396f, -0.11912230402231216431f, 0.06470455229282379150f, -0.11234530061483383179f, -0.00991143193095922470f, 0.12014185637235641479f, 0.06529977172613143921f, -0.11352588981389999390f, 0.05062677711248397827f, 0.03806077688932418823f, -0.02910157479345798492f, 0.08547211438417434692f, -0.11460800468921661377f, -0.09335836768150329590f, 0.12355400621891021729f, 0.05117563903331756592f, -0.10105299949645996094f, -0.09826786816120147705f, 0.00172784342430531979f, -0.14475366473197937012f, -0.01358270179480314255f, 0.03587100282311439514f, 0.09192935377359390259f, 0.03729813918471336365f, 0.03686077147722244263f, 0.08249912410974502563f, -0.07344044744968414307f, 0.11559159308671951294f, -0.05916705355048179626f, 0.03342251107096672058f, -0.00945345778018236160f, 0.03988925367593765259f, 0.03817460685968399048f, -0.01650048233568668365f, 0.02719541639089584351f, 0.03251089900732040405f, 0.12672297656536102295f, -0.02441017888486385345f, 0.06361213326454162598f, -0.11181848496198654175f, 0.08430557698011398315f, 0.06592896580696105957f, -0.11616760492324829102f, 0.10403992980718612671f, 0.01430531684309244156f, 0.00777966063469648361f, 0.05818803608417510986f, -0.00967932585626840591f, -0.08961828798055648804f, 0.07012313604354858398f, 0.09971036016941070557f, 0.06159511581063270569f, 0.10128725320100784302f, -0.04802804812788963318f, -0.04674321413040161133f, -0.00271162530407309532f},
  {-0.11770677566528320312f, -0.02169985882937908173f, -0.11438845843076705933f, -0.09302046895027160645f, 0.08592252433300018311f, 0.10499738901853561401f, -0.12544414401054382324f, -0.09624996781349182129f, -0.10537000000476837158f, -0.03664971888065338135f, -0.06254842877388000488f, -0.05145932361483573914f, 0.09073847532272338867f, -0.10604548454284667969f, 0.04666976258158683777f, -0.07861326634883880615f, -0.08216076344251632690f, 0.04915388301014900208f, 0.11620020866394042969f, -0.06345251202583312988f, 0.07023182511329650879f, -0.01410413999110460281f, -0.03093216381967067719f, 0.05492120608687400818f, -0.03183732181787490845f, -0.01845802739262580872f, 0.04907638952136039734f, -0.10484969615936279297f, 0.07074226438999176025f, 0.06215729191899299622f, 0.13230323791503906250f, -0.11898609995841979980f, -0.05377424880862236023f, 0.06391780078411102295f, 0.02888788096606731415f, -0.10838285833597183228f, 0.02439194545149803162f, 0.04061826691031455994f, -0.04187192767858505249f, -0.02025791257619857788f, 0.13222065567970275879f, 0.06571425497531890869f, 0.02702984027564525604f, 0.10074126720428466797f, -0.06200619041919708252f, -0.09563247859477996826f, -0.00514160376042127609f, -0.03784332051873207092f, -0.02072935923933982849f, 0.05084750056266784668f, -0.09267027676105499268f, 0.13125541806221008301f, -0.03204180300235748291f, 0.03290101140737533569f, 0.09132602065801620483f, 0.09034521132707595825f, 0.04006219655275344849f, 0.16887876391410827637f, 0.11855057626962661743f, 0.12267982959747314453f, -0.03282590955495834351f, -0.03252938389778137207f, 0.11338450014591217041f, -0.08734273165464401245f},
  {0.10095503181219100952f, -0.06747590750455856323f, 0.04977686703205108643f, -0.10354118049144744873f, 0.01877619326114654541f, 0.03388486802577972412f, 0.02128089033067226410f, -0.06963291764259338379f, 0.08848413825035095215f, -0.07687766104936599731f, -0.11759548634290695190f, -0.04341077059507369995f, 0.10660424828529357910f, -0.00389830372296273708f, -0.00522809382528066635f, -0.04531080275774002075f, -0.04342386499047279358f, 0.05004660412669181824f, 0.00219553220085799694f, 0.03353054076433181763f, 0.11670992523431777954f, 0.10872003436088562012f, 0.09477002173662185669f, -0.11000140756368637085f, 0.13099606335163116455f, 0.07099075615406036377f, 0.02189123257994651794f, 0.02067953534424304962f, -0.11816141754388809204f, 0.09038138389587402344f, -0.05320575088262557983f, 0.08438809216022491455f, 0.07612986117601394653f, 0.00951932184398174286f, -0.04235983639955520630f, -0.00644756434485316277f, -0.11219377070665359497f, 0.09820333868265151978f, 0.04162622243165969849f, 0.10495143383741378784f, -0.01130683161318302155f, 0.12429637461900711060f, 0.11138312518596649170f, 0.03667543455958366394f, -0.03025715611875057220f, 0.08112514019012451172f, -0.07507026940584182739f, -0.13219177722930908203f, -0.01826134882867336273f, 0.10921339690685272217f, -0.07554187625646591187f, -0.06226251646876335144f, 0.03735282272100448608f, 0.15235953032970428467f, 0.10106898099184036255f, 0.12496110051870346069f, -0.06724519282579421997f, -0.04877837374806404114f, 0.10134339332580566406f, -0.01122220419347286224f, -0.00871062371879816055f, -0.04409253224730491638f, -0.10238838940858840942f, -0.00885345321148633957f},
  {0.09078485518693923950f, 0.10930049419403076172f, -0.10864558070898056030f, -0.10159669816493988037f, -0.02511745132505893707f, 0.06233673915266990662f, 0.05353629961609840393f, -0.01116638071835041046f, 0.07834845781326293945f, -0.01770889200270175934f, -0.06119930371642112732f, -0.10186594724655151367f, -0.08880128711462020874f, 0.10707942396402359009f, -0.00950534548610448837f, -0.00336712482385337353f, 0.11523306369781494141f, 0.10544248670339584351f, -0.06875576823949813843f, 0.01387044601142406464f, -0.10561166703701019287f, 0.04402908682823181152f, -0.12216835469007492065f, -0.06965880095958709717f, -0.03265345469117164612f, -0.02065757289528846741f, 0.06452023237943649292f, 0.01232556253671646118f, -0.11305633187294006348f, 0.05268180370330810547f, 0.03193160146474838257f, -0.11938777565956115723f, 0.06773884594440460205f, 0.07259917259216308594f, -0.03847443684935569763f, 0.02489746175706386566f, 0.03394647687673568726f, 0.09036532044410705566f, 0.00320273940451443195f, -0.13027517497539520264f, 0.00115769042167812586f, 0.03472963348031044006f, -0.04940709471702575684f, 0.11950659006834030151f, -0.12554784119129180908f, 0.08592787384986877441f, -0.04371741786599159241f, -0.04475560784339904785f, -0.00918851327151060104f, 0.07486677914857864380f, -0.01939364150166511536f, -0.12758490443229675293f, -0.03661079704761505127f, 0.06742318719625473022f, 0.10679131001234054565f, 0.08179544657468795776f, -0.10775101184844970703f, 0.01166227366775274277f, 0.10872305184602737427f, 0.06449384987354278564f, -0.10765706002712249756f, -0.08382579684257507324f, 0.06609253585338592529f, -0.07111167162656784058f},
  {0.11573185026645660400f, -0.01384512614458799362f, -0.01860483177006244659f, 0.00633469223976135254f, -0.01052818913012742996f, -0.01357067562639713287f, -0.09678556025028228760f, -0.00869200006127357483f, 0.04435880109667778015f, 0.11446225643157958984f, 0.10409681499004364014f, -0.11718122661113739014f, -0.07374554872512817383f, 0.05348338559269905090f, -0.06202056631445884705f, 0.06017352268099784851f, -0.09326767176389694214f, 0.11550673842430114746f, 0.04633840918540954590f, 0.15127469599246978760f, -0.10010158270597457886f, -0.05207133665680885315f, 0.08291143923997879028f, 0.04092014580965042114f, -0.11315687000751495361f, -0.11618626117706298828f, 0.02351724170148372650f, -0.13195417821407318115f, 0.11802426725625991821f, -0.03774728998541831970f, 0.07464033365249633789f, 0.06784629821777343750f, 0.00398791488260030746f, 0.06450413167476654053f, -0.01909956894814968109f, 0.10873269289731979370f, -0.08069974184036254883f, 0.00353696825914084911f, -0.07976566255092620850f, -0.02586710453033447266f, -0.10023298859596252441f, -0.10074052214622497559f, 0.05641830712556838989f, 0.01821625046432018280f, 0.13196724653244018555f, -0.10876738280057907104f, -0.01798965036869049072f, -0.01746099628508090973f, -0.02523498795926570892f, -0.02996358461678028107f, 0.06426159292459487915f, -0.10343359410762786865f, -0.02640464529395103455f, -0.10104333609342575073f, 0.11068414151668548584f, -0.03502706065773963928f, -0.09849634766578674316f, 0.03457511961460113525f, 0.10641968995332717896f, 0.09437294304370880127f, 0.10945296287536621094f, 0.06269878894090652466f, 0.06946834921836853027f, -0.09117561578750610352f},
  {0.02452726475894451141f, 0.10611405968666076660f, -0.07617946714162826538f, -0.09127722680568695068f, 0.04437946528196334839f, 0.11233812570571899414f, 0.08605413138866424561f, -0.11265638470649719238f, -0.11244951933622360229f, -0.07445694506168365479f, -0.08946382999420166016f, -0.09888211637735366821f, -0.11705426126718521118f, -0.12522281706333160400f, -0.09392967820167541504f, -0.07982382178306579590f, -0.01321347057819366455f, -0.11107809841632843018f, -0.07538241893053054810f, -0.03971286863088607788f, -0.11586170643568038940f, -0.03368882089853286743f, -0.03688296303153038025f, -0.13107170164585113525f, 0.01454865001142024994f, -0.11456612497568130493f, 0.04057526960968971252f, -0.10305522382259368896f, 0.03652312979102134705f, 0.06813666969537734985f, 0.04853599891066551208f, 0.07741134613752365112f, -0.06970642507076263428f, 0.09265977889299392700f, -0.01315842010080814362f, 0.05859636887907981873f, -0.13259686529636383057f, -0.02503632195293903351f, -0.10108453780412673950f, 0.09720776975154876709f, 0.03300065174698829651f, -0.02383516356348991394f, 0.12575206160545349121f, -0.07074751704931259155f, 0.01895085163414478302f, 0.02860818058252334595f, -0.01188873220235109329f, 0.03787217289209365845f, -0.00780328270047903061f, 0.00122638407628983259f, -0.10590077936649322510f, 0.00824570190161466599f, -0.08905155211687088013f, -0.04795759916305541992f, -0.10768412798643112183f, 0.00487341685220599174f, 0.04917191714048385620f, 0.02547262050211429596f, 0.01336588896811008453f, -0.01989101804792881012f, -0.09550856798887252808f, 0.13023065030574798584f, -0.05623209476470947266f, 0.08232608437538146973f},
  {-0.04086449369788169861f, 0.02685968205332756042f, 0.09893007576465606689f, 0.02129554748535156250f, -0.07341971248388290405f, -0.04602967947721481323f, 0.09174244850873947144f, -0.03396720066666603088f, -0.04854732379317283630f, 0.09264171123504638672f, -0.04489708691835403442f, 0.13968443870544433594f, 0.05594676360487937927f, 0.09434323757886886597f, 0.03231310844421386719f, -0.07674289494752883911f, 0.06826491653919219971f, -0.01087198965251445770f, -0.04136890918016433716f, -0.00901361089199781418f, -0.04141058027744293213f, 0.02465560473501682281f, 0.06099102646112442017f, 0.08792485296726226807f, 0.11443698406219482422f, -0.03432539477944374084f, -0.03217053785920143127f, 0.04007106274366378784f, -0.10513902455568313599f, -0.05597086995840072632f, 0.01748599484562873840f, -0.09495842456817626953f, 0.06872096657752990723f, -0.01084106974303722382f, 0.07999329268932342529f, 0.01201544608920812607f, 0.01494660414755344391f, 0.04571206495165824890f, 0.00501172337681055069f, -0.13206283748149871826f, 0.08265809714794158936f, 0.07101051509380340576f, 0.05731073766946792603f, -0.09537117928266525269f, -0.01870412565767765045f, -0.07397813349962234497f, -0.01686536706984043121f, 0.00813386589288711548f, -0.10968904942274093628f, 0.08229234069585800171f, 0.04833884164690971375f, -0.06923574954271316528f, -0.04931807890534400940f, 0.08176562935113906860f, 0.08105865120887756348f, -0.00907451659440994263f, 0.08483260869979858398f, 0.04772988334298133850f, 0.00044612277997657657f, 0.04350222647190093994f, 0.06399631500244140625f, 0.11864672601222991943f, -0.12173521518707275391f, -0.12133473157882690430f},
  {0.03322210535407066345f, -0.05254014953970909119f, 0.01944342441856861115f, -0.00036487105535343289f, 0.07009125500917434692f, -0.01183779165148735046f, 0.03536479175090789795f, -0.00320981745608150959f, -0.06177349388599395752f, -0.13007345795631408691f, 0.00912041869014501572f, -0.07875595986843109131f, -0.04166718572378158569f, 0.05682662874460220337f, 0.10910665243864059448f, -0.11955635249614715576f, -0.07341405004262924194f, -0.08732136338949203491f, 0.07240992039442062378f, 0.04137763381004333496f, 0.06417025625705718994f, 0.06493201106786727905f, 0.03443190827965736389f, -0.12567716836929321289f, 0.08513182401657104492f, -0.08012521266937255859f, -0.03475622087717056274f, -0.11559838801622390747f, -0.11045672744512557983f, -0.10460627824068069458f, 0.01092399563640356064f, 0.01059684809297323227f, 0.04268952831625938416f, -0.09453880041837692261f, 0.00019579594663809985f, 0.11229095607995986938f, 0.07408223301172256470f, -0.08717513829469680786f, -0.04917988553643226624f, 0.07380192726850509644f, 0.05264120548963546753f, -0.10262850672006607056f, -0.00977549515664577484f, 0.01143628079444169998f, 0.00593875115737318993f, -0.08160775899887084961f, -0.03604626655578613281f, -0.00357054080814123154f, -0.12573912739753723145f, -0.08774542808532714844f, 0.02627786062657833099f, 0.06693159788846969604f, 0.11572641879320144653f, -0.01147304289042949677f, -0.04489941522479057312f, 0.05575225129723548889f, -0.09633458405733108521f, 0.09178429096937179565f, 0.12594003975391387939f, -0.08864254504442214966f, -0.04660743474960327148f, 0.05003920942544937134f, -0.02257844060659408569f, 0.11650140583515167236f},
  {0.04402492940425872803f, 0.06779477000236511230f, 0.02977377176284790039f, -0.02868609875440597534f, -0.06615166366100311279f, -0.07826858013868331909f, -0.08653386682271957397f, 0.10057931393384933472f, -0.07483856379985809326f, -0.07751811295747756958f, 0.07559883594512939453f, 0.01451570913195610046f, -0.02999570220708847046f, -0.09970977157354354858f, -0.13314452767372131348f, -0.02518706955015659332f, 0.09398049861192703247f, -0.04243182763457298279f, -0.00857882574200630188f, -0.05200162157416343689f, 0.08566719293594360352f, -0.00625988282263278961f, -0.06013168022036552429f, 0.03370987623929977417f, -0.00303439819253981113f, -0.11712350696325302124f, -0.03856398165225982666f, -0.01796673983335494995f, 0.00465369457378983498f, 0.01887021958827972412f, 0.07176838815212249756f, 0.10523160547018051147f, -0.05182215198874473572f, -0.05075569078326225281f, -0.04266213998198509216f, -0.02585593424737453461f, -0.01734947413206100464f, 0.02252383716404438019f, -0.02821023575961589813f, 0.12006602436304092407f, -0.02016453444957733154f, 0.08195831626653671265f, 0.02994802221655845642f, -0.06058711931109428406f, 0.09255814552307128906f, -0.00054544262820854783f, -0.04826797544956207275f, -0.05895512178540229797f, 0.11406505852937698364f, -0.05376688390970230103f, 0.02302003651857376099f, -0.10174147784709930420f, -0.01547902449965476990f, -0.07122994214296340942f, 0.13147608935832977295f, 0.06414649635553359985f, -0.05810497701168060303f, 0.04629115760326385498f, 0.01942742429673671722f, -0.12222952395677566528f, -0.09696630388498306274f, -0.02607402205467224121f, 0.00645745731890201569f, 0.02651048637926578522f},
  {-0.10773330181837081909f, 0.10967324674129486084f, 0.08875184506177902222f, 0.06149750947952270508f, -0.01360047888010740280f, -0.00775387696921825409f, 0.05982629209756851196f, 0.09292057901620864868f, 0.06241883710026741028f, 0.09818889945745468140f, 0.12249060720205307007f, -0.10983285307884216309f, 0.12866795063018798828f, 0.00527478801086544991f, 0.03171898052096366882f, -0.00511269411072134972f, -0.07971926033496856689f, -0.03827266395092010498f, -0.01078441273421049118f, -0.03518178686499595642f, -0.01140183862298727036f, -0.03758760169148445129f, 0.01787101663649082184f, 0.07380422204732894897f, -0.12963679432868957520f, -0.04352868348360061646f, 0.00469861086457967758f, 0.04593903943896293640f, -0.09120020270347595215f, -0.06715713441371917725f, 0.13813026249408721924f, -0.06543737649917602539f, -0.05466523766517639160f, -0.06094279512763023376f, -0.06073589622974395752f, -0.09451030939817428589f, -0.10042908787727355957f, -0.02157335728406906128f, -0.01743948832154273987f, -0.11853669583797454834f, -0.10453498363494873047f, -0.11826912313699722290f, 0.01714377477765083313f, 0.02151388116180896759f, 0.08114621043205261230f, -0.05077767372131347656f, -0.05443689227104187012f, -0.06001118198037147522f, 0.01990016922354698181f, -0.07003926485776901245f, -0.13171072304248809814f, 0.03657488524913787842f, -0.02017675526440143585f, 0.08610043674707412720f, 0.07331331074237823486f, 0.11290404200553894043f, -0.01386205200105905533f, -0.03984095156192779541f, 0.05155283957719802856f, -0.10318908095359802246f, 0.10725264996290206909f, -0.05985721573233604431f, 0.10698311775922775269f, 0.01201934926211833954f},
  {0.11484654992818832397f, 0.01781858317553997040f, -0.03447375819087028503f, -0.10416124761104583740f, 0.06242116913199424744f, -0.05475153401494026184f, 0.01664333604276180267f, 0.06789544969797134399f, 0.08492527902126312256f, 0.00423086574301123619f, -0.01289539877325296402f, -0.01783746480941772461f, -0.08055838197469711304f, -0.01846485584974288940f, 0.06009778752923011780f, -0.05911049991846084595f, 0.07469312101602554321f, -0.06741285324096679688f, -0.07584498077630996704f, -0.02769772149622440338f, 0.04761675000190734863f, -0.09680911153554916382f, 0.07044053077697753906f, -0.01094437669962644577f, 0.08216979354619979858f, 0.03584787994623184204f, -0.12177217751741409302f, 0.04801576212048530579f, -0.06429361552000045776f, -0.04998093843460083008f, 0.06032056361436843872f, 0.09453321248292922974f, -0.02526731416583061218f, -0.12783677875995635986f, -0.09245005995035171509f, 0.11226543784141540527f, -0.00770121952518820763f, 0.08559656143188476562f, -0.02525168657302856445f, 0.05579210817813873291f, -0.12626190483570098877f, 0.06610929965972900391f, 0.02434249967336654663f, 0.06402665376663208008f, 0.07853720337152481079f, -0.02426886372268199921f, -0.00591578474268317223f, -0.13517707586288452148f, -0.00152262486517429352f, 0.11634828150272369385f, 0.04013998433947563171f, -0.13090890645980834961f, 0.05633107200264930725f, 0.10809829086065292358f, -0.00326099549420177937f, -0.08896688371896743774f, 0.07517314702272415161f, -0.13994945585727691650f, 0.06051220744848251343f, -0.06576427072286605835f, 0.02744118124246597290f, -0.02443388290703296661f, 0.00336316297762095928f, -0.03809020295739173889f},
  {0.02066390216350555420f, -0.09208903461694717407f, -0.11947618424892425537f, 0.11633035540580749512f, 0.11022747308015823364f, -0.07881549000740051270f, 0.05031668767333030701f, 0.08790016919374465942f, -0.10598789900541305542f, -0.03733022883534431458f, 0.07376441359519958496f, -0.05581047758460044861f, -0.07251705974340438843f, 0.06889000535011291504f, 0.07485008239746093750f, -0.04658841341733932495f, 0.02002109400928020477f, -0.04746356606483459473f, 0.02892195992171764374f, -0.06400305777788162231f, 0.01963794045150279999f, -0.00079470092896372080f, 0.10985586792230606079f, 0.01648012362420558929f, 0.05533863976597785950f, -0.09947562217712402344f, -0.07696703821420669556f, -0.10997994244098663330f, -0.11065679788589477539f, 0.07345017790794372559f, -0.01656925119459629059f, 0.02640835940837860107f, -0.12005349993705749512f, 0.06227797642350196838f, -0.01462393254041671753f, -0.01829436607658863068f, 0.07983665913343429565f, -0.02081547491252422333f, 0.01800854131579399109f, 0.08133938163518905640f, 0.05613501742482185364f, 0.00199628062546253204f, -0.09522642940282821655f, 0.09139090776443481445f, -0.11413958668708801270f, 0.09155850112438201904f, -0.06576043367385864258f, -0.07141044735908508301f, -0.00573833100497722626f, -0.09442071616649627686f, -0.11928831040859222412f, -0.03010627254843711853f, -0.06504905223846435547f, 0.06115752458572387695f, -0.09666843712329864502f, 0.02367476560175418854f, 0.02195742353796958923f, -0.00689993007108569145f, 0.02048966847360134125f, -0.02346007898449897766f, 0.02828652784228324890f, -0.03797627240419387817f, 0.08393196761608123779f, -0.05657902732491493225f},
  {-0.07871194183826446533f, 0.00773774553090333939f, -0.10193960368633270264f, 0.07173618674278259277f, 0.05505998060107231140f, -0.14423306286334991455f, 0.10983196645975112915f, -0.08834982663393020630f, 0.01216340158134698868f, 0.02804687991738319397f, -0.05348104611039161682f, -0.07842980325222015381f, -0.02545993030071258545f, -0.03266991674900054932f, 0.08356036990880966187f, 0.07169178873300552368f, 0.15473379194736480713f, 0.00779168028384447098f, 0.06362130492925643921f, 0.01558763720095157623f, 0.10197502374649047852f, 0.09691173583269119263f, 0.05173443257808685303f, -0.08020030707120895386f, 0.09559976309537887573f, 0.04704272747039794922f, -0.00493182521313428879f, 0.11140388250350952148f, -0.05962554365396499634f, -0.03364558145403862000f, 0.08607857674360275269f, -0.07845697551965713501f, 0.00917065050452947617f, 0.09512883424758911133f, 0.08844856917858123779f, -0.00916609074920415878f, 0.01376462820917367935f, 0.06048816815018653870f, -0.07923100888729095459f, -0.03504146263003349304f, -0.01521412655711174011f, 0.05244683846831321716f, -0.11447222530841827393f, 0.00495999306440353394f, 0.11766271293163299561f, -0.05368807539343833923f, -0.04891968145966529846f, -0.04941228404641151428f, -0.01691691391170024872f, -0.10002004355192184448f, -0.10534484684467315674f, 0.03312704339623451233f, -0.11208464205265045166f, 0.01937613263726234436f, -0.12465844303369522095f, -0.07044307887554168701f, -0.02926479279994964600f, 0.04672181233763694763f, -0.09362227469682693481f, 0.11427821964025497437f, -0.06821024417877197266f, 0.02220964618027210236f, 0.07129605114459991455f, -0.01722598448395729065f},
  {0.12298949807882308960f, -0.06557064503431320190f, -0.07388622313737869263f, 0.07146608829498291016f, 0.07315259426832199097f, 0.02007279731333255768f, 0.11600675433874130249f, -0.10255196690559387207f, 0.11817962676286697388f, -0.08662920445203781128f, -0.01732384599745273590f, 0.13181911408901214600f, -0.08869403600692749023f, -0.09238140285015106201f, 0.08459795266389846802f, -0.10901878029108047485f, 0.09211574494838714600f, -0.01538144331425428391f, 0.11149779707193374634f, -0.04203175380825996399f, -0.06884162127971649170f, -0.01873924955725669861f, -0.06049461290240287781f, -0.11511668562889099121f, -0.06304267793893814087f, 0.02695829048752784729f, 0.09795620292425155640f, 0.14239944517612457275f, 0.09362214803695678711f, 0.02553368918597698212f, 0.08156353980302810669f, -0.10848727822303771973f, -0.05732363834977149963f, -0.08019133657217025757f, -0.04062204435467720032f, -0.05736351758241653442f, 0.03995024040341377258f, -0.09109320491552352905f, 0.13457514345645904541f, -0.04461934790015220642f, -0.07252577692270278931f, -0.03384139016270637512f, 0.11811050772666931152f, -0.00681217061355710030f, 0.04817584902048110962f, 0.11000272631645202637f, -0.04588087275624275208f, 0.01224961970001459122f, 0.06500214338302612305f, 0.08092521876096725464f, 0.06138266995549201965f, -0.01801139861345291138f, -0.15488302707672119141f, 0.06517777591943740845f, 0.06050046160817146301f, 0.00043105497024953365f, -0.07248990237712860107f, -0.00648918515071272850f, 0.12751922011375427246f, -0.09901273995637893677f, -0.12717992067337036133f, 0.00759553583338856697f, 0.05837159976363182068f, 0.11745155602693557739f},
  {0.02832199819386005402f, 0.07783395797014236450f, 0.06376166641712188721f, -0.02591617219150066376f, -0.01373756863176822662f, 0.00840941723436117172f, -0.09774903953075408936f, -0.11556267738342285156f, 0.10526987165212631226f, -0.02852192148566246033f, 0.09074878692626953125f, 0.13362421095371246338f, 0.07435953617095947266f, 0.06727836281061172485f, 0.05980858951807022095f, 0.07050887495279312134f, -0.01956062391400337219f, -0.11982624232769012451f, -0.06196414306759834290f, -0.16483128070831298828f, 0.00658073369413614273f, -0.07987070828676223755f, -0.03249379992485046387f, 0.01137822307646274567f, 0.11138190329074859619f, 0.01772872358560562134f, 0.11431223899126052856f, -0.08916096389293670654f, -0.08228535205125808716f, 0.06994564831256866455f, -0.07430537790060043335f, -0.09868945181369781494f, -0.10463070869445800781f, 0.00393335241824388504f, -0.08189893513917922974f, -0.05324760451912879944f, 0.01636268757283687592f, -0.09190189838409423828f, 0.11571699380874633789f, -0.11446285247802734375f, -0.11765799671411514282f, -0.05694188550114631653f, -0.02956697344779968262f, -0.11518213152885437012f, -0.10628875344991683960f, 0.09960951656103134155f, 0.04704415425658226013f, 0.10467275977134704590f, 0.10847306251525878906f, 0.06871112436056137085f, -0.09834609180688858032f, 0.08308316767215728760f, -0.10094749927520751953f, 0.10811302810907363892f, 0.11319667100906372070f, 0.11928495764732360840f, -0.09319635480642318726f, -0.02755635417997837067f, 0.06918419897556304932f, -0.12377620488405227661f, 0.03434151038527488708f, 0.02245314791798591614f, -0.06873524188995361328f, -0.12021390348672866821f},
  {-0.07376594841480255127f, -0.02068653516471385956f, 0.09850471466779708862f, 0.04055386781692504883f, 0.04170080274343490601f, 0.00841506384313106537f, 0.03269265219569206238f, 0.05645958706736564636f, 0.06180651858448982239f, 0.09410883486270904541f, 0.11447926610708236694f, 0.00223375181667506695f, 0.08847437053918838501f, 0.00431705219671130180f, -0.06774342805147171021f, 0.10195587575435638428f, 0.00158002274110913277f, 0.02304550632834434509f, -0.06101087853312492371f, 0.08046720921993255615f, 0.07252422720193862915f, 0.06269344687461853027f, -0.05226478725671768188f, -0.02965600788593292236f, 0.09210151433944702148f, 0.02923858538269996643f, -0.10975422710180282593f, -0.04296772181987762451f, -0.09517455846071243286f, 0.01538987178355455399f, -0.01781114004552364349f, -0.07071212679147720337f, 0.00420830491930246353f, 0.00113661319483071566f, 0.02163257263600826263f, -0.08617837727069854736f, -0.02389567159116268158f, 0.02087778225541114807f, -0.10326059162616729736f, -0.03024235740303993225f, 0.02783809974789619446f, -0.04746513813734054565f, -0.05813555791974067688f, -0.01742392219603061676f, 0.01437490433454513550f, 0.08106382191181182861f, -0.01659077964723110199f, 0.05930162593722343445f, 0.09029132872819900513f, 0.03457208722829818726f, 0.01236855238676071167f, 0.06130565702915191650f, -0.00913622602820396423f, 0.08370751142501831055f, 0.12477874010801315308f, 0.04936862364411354065f, -0.00830644741654396057f, 0.06676319241523742676f, 0.08195754140615463257f, 0.03906058147549629211f, -0.05962786823511123657f, -0.09335324913263320923f, 0.05351273342967033386f, 0.02113828435540199280f},
  {-0.11282016336917877197f, -0.02099465020000934601f, 0.07227727770805358887f, -0.06338592618703842163f, 0.09589841216802597046f, -0.11376516520977020264f, 0.04766874760389328003f, 0.02796120755374431610f, -0.10330085456371307373f, 0.08042279630899429321f, -0.12851460278034210205f, -0.04841522127389907837f, 0.03806171193718910217f, -0.09543185681104660034f, 0.04218720272183418274f, -0.04784096032381057739f, -0.03271010145545005798f, -0.06683617830276489258f, 0.00768694980069994926f, 0.05082652345299720764f, -0.00785796064883470535f, -0.03113685362040996552f, 0.00207181321457028389f, -0.09062150865793228149f, 0.16975112259387969971f, 0.04188920557498931885f, -0.04006585106253623962f, 0.03546062111854553223f, -0.08308354765176773071f, -0.10406312346458435059f, -0.09548337757587432861f, 0.07553135603666305542f, 0.03668752312660217285f, 0.11459857225418090820f, 0.00186559848953038454f, -0.07828637957572937012f, -0.01981146261096000671f, -0.02706617489457130432f, -0.00436501763761043549f, -0.13835711777210235596f, -0.03991836681962013245f, 0.13245193660259246826f, 0.11865351349115371704f, 0.05262881889939308167f, -0.01388953253626823425f, -0.04283072426915168762f, 0.09402451664209365845f, -0.00996501371264457703f, 0.06978996843099594116f, 0.05159914866089820862f, 0.01820852793753147125f, -0.10698784142732620239f, 0.00651393458247184753f, 0.14164410531520843506f, 0.05238533020019531250f, 0.04682869091629981995f, 0.08754370361566543579f, -0.01723917387425899506f, 0.03546548634767532349f, -0.04999097436666488647f, 0.10554026067256927490f, 0.10172215849161148071f, -0.09529143571853637695f, 0.04004612937569618225f},
  {-0.00902136135846376419f, 0.09130219370126724243f, 0.05846584588289260864f, 0.07139883190393447876f, 0.06356164067983627319f, 0.09040492773056030273f, -0.10246888548135757446f, -0.10809148102998733521f, -0.07578069716691970825f, 0.02643345668911933899f, 0.07618390023708343506f, -0.03296574950218200684f, 0.00176870462018996477f, 0.01688352786004543304f, 0.11851435899734497070f, -0.08294259756803512573f, -0.01784117519855499268f, 0.02194617688655853271f, 0.11585678160190582275f, -0.11847788095474243164f, -0.05717866495251655579f, 0.11528578400611877441f, -0.02014313451945781708f, -0.07096678763628005981f, 0.12579493224620819092f, 0.03547886386513710022f, -0.05821463093161582947f, -0.04996005445718765259f, -0.04112079739570617676f, -0.11554110050201416016f, 0.00705567700788378716f, -0.09556066989898681641f, 0.08002399653196334839f, 0.08136789500713348389f, 0.02762602455914020538f, -0.04798564687371253967f, -0.02365325763821601868f, 0.01365396752953529358f, 0.00718277180567383766f, -0.06848257035017013550f, -0.08653683215379714966f, 0.07981269806623458862f, 0.05778489261865615845f, 0.04871395975351333618f, -0.13023523986339569092f, 0.11649227142333984375f, 0.04485703632235527039f, -0.04822291806340217590f, 0.03358548879623413086f, 0.13509863615036010742f, 0.09981559216976165771f, -0.14086481928825378418f, -0.10609733313322067261f, -0.07664597034454345703f, 0.02629339322447776794f, -0.06136550009250640869f, 0.07341200858354568481f, 0.00958720408380031586f, 0.09139771014451980591f, -0.03921844437718391418f, -0.02453237771987915039f, -0.02641284093260765076f, 0.05584079399704933167f, -0.12292700260877609253f},
  {-0.00349528971128165722f, 0.03345724940299987793f, 0.03143861144781112671f, -0.01270342897623777390f, -0.08929821103811264038f, 0.08338893949985504150f, -0.08344307541847229004f, 0.08427261561155319214f, 0.06207947805523872375f, -0.03559221699833869934f, -0.03591972962021827698f, -0.04876317828893661499f, 0.06371809542179107666f, 0.04932224377989768982f, 0.07727450877428054810f, -0.00176178209949284792f, 0.07436990737915039062f, -0.00088262301869690418f, 0.13069091737270355225f, -0.10037546604871749878f, 0.00366702070459723473f, 0.07175188511610031128f, 0.11511377245187759399f, -0.01774602755904197693f, 0.05745534971356391907f, 0.01123422663658857346f, 0.05365320667624473572f, 0.08132050931453704834f, -0.09784919768571853638f, -0.04733409360051155090f, 0.00835255905985832214f, -0.06820075958967208862f, -0.02276477776467800140f, 0.01729482598602771759f, 0.11306800693273544312f, -0.02320428751409053802f, -0.09013859927654266357f, -0.04617706313729286194f, -0.08302015811204910278f, -0.01982467062771320343f, -0.00175856729038059711f, 0.04450926929712295532f, 0.04603466764092445374f, 0.07224580645561218262f, 0.11473212391138076782f, -0.00976867694407701492f, -0.03399269655346870422f, 0.10519669204950332642f, -0.11018502712249755859f, 0.08680822700262069702f, 0.09931892156600952148f, 0.01828091219067573547f, 0.03193911537528038025f, 0.02825763821601867676f, -0.12273003160953521729f, 0.07516133040189743042f, 0.05817660689353942871f, -0.15861570835113525391f, 0.00358730461448431015f, -0.07262594252824783325f, -0.04684589803218841553f, 0.11472137272357940674f, 0.01647542230784893036f, 0.00309750810265541077f},
  {0.10087980329990386963f, 0.02061307989060878754f, 0.10284335911273956299f, -0.04620174318552017212f, 0.03570177033543586731f, -0.00109975587110966444f, -0.07261621206998825073f, 0.03386741131544113159f, 0.06089731305837631226f, 0.03315249085426330566f, -0.03233196958899497986f, -0.10004170238971710205f, -0.07786384224891662598f, -0.11642970889806747437f, -0.03199534490704536438f, -0.05826237797737121582f, 0.08828742057085037231f, -0.05329235270619392395f, -0.09122125804424285889f, -0.05246287211775779724f, 0.09012726694345474243f, 0.01506359037011861801f, -0.00227279588580131531f, 0.11373702436685562134f, -0.07166749238967895508f, -0.07131313532590866089f, -0.03231754899024963379f, 0.03854732215404510498f, -0.09750722348690032959f, -0.06063052266836166382f, 0.02284960262477397919f, -0.10514710843563079834f, 0.11409342288970947266f, 0.08795544505119323730f, -0.10803307592868804932f, 0.06984604895114898682f, -0.02744765579700469971f, 0.03499301150441169739f, -0.05754796788096427917f, -0.07462012767791748047f, -0.08987030386924743652f, 0.04076867550611495972f, 0.09151472151279449463f, 0.06492242962121963501f, 0.07761260867118835449f, 0.00901773385703563690f, -0.07641368359327316284f, -0.03810506686568260193f, -0.07934843003749847412f, -0.10594037920236587524f, -0.00303477235138416290f, -0.04707451537251472473f, -0.03034751117229461670f, 0.11532369256019592285f, 0.02999844960868358612f, -0.00274975271895527840f, 0.09427493810653686523f, -0.01172430533915758133f, 0.01888966560363769531f, 0.08449497073888778687f, -0.09587146341800689697f, 0.02934691309928894043f, 0.01899700611829757690f, 0.05477561429142951965f},
  {0.01373212225735187531f, -0.11754836142063140869f, -0.10496681928634643555f, 0.00803051143884658813f, -0.03107794374227523804f, 0.01854912936687469482f, 0.10872675478458404541f, -0.13569650053977966309f, 0.05573836714029312134f, 0.01686713658273220062f, 0.08681780099868774414f, 0.08074418455362319946f, -0.10390470176935195923f, 0.03738263249397277832f, -0.01715610176324844360f, -0.06116979196667671204f, 0.13125699758529663086f, -0.01919105276465415955f, -0.10114651173353195190f, 0.05642617493867874146f, -0.00628999853506684303f, -0.05490889400243759155f, -0.05621331557631492615f, 0.03614241629838943481f, -0.00579307135194540024f, 0.02579507045447826385f, 0.07464706152677536011f, 0.05556190758943557739f, 0.06447578966617584229f, 0.04625965282320976257f, -0.10165816545486450195f, -0.11066291481256484985f, 0.08781091868877410889f, 0.02582715451717376709f, 0.07971455901861190796f, 0.02331312932074069977f, 0.10274194180965423584f, 0.10471691936254501343f, 0.10885564237833023071f, 0.04516633227467536926f, 0.10352901369333267212f, -0.00357508682645857334f, -0.00602247333154082298f, -0.02757204510271549225f, -0.09610333293676376343f, -0.02416409924626350403f, -0.07737566530704498291f, -0.08613785356283187866f, -0.05799794942140579224f, 0.11272259056568145752f, 0.04087857156991958618f, -0.07979937642812728882f, -0.01392357796430587769f, -0.07198028266429901123f, -0.08473733067512512207f, -0.02396258153021335602f, 0.09604294598102569580f, 0.07131581753492355347f, 0.11678789556026458740f, 0.06999700516462326050f, 0.09907600283622741699f, 0.11830117553472518921f, 0.04422404617071151733f, 0.10206073522567749023f},
  {-0.10061214119195938110f, -0.08596350997686386108f, -0.10103707015514373779f, -0.03797443956136703491f, 0.04673418030142784119f, -0.05220162123441696167f, -0.00667737470939755440f, -0.13395833969116210938f, -0.10524664074182510376f, 0.06116077303886413574f, -0.11431489139795303345f, 0.14170113205909729004f, 0.00933844503015279770f, -0.07378291338682174683f, 0.11615123599767684937f, -0.01554811093956232071f, 0.00237698899582028389f, 0.05173067003488540649f, 0.13360862433910369873f, -0.11504232883453369141f, -0.05868761241436004639f, 0.11883550882339477539f, -0.11260065436363220215f, 0.11207097023725509644f, -0.04617444053292274475f, 0.06088531017303466797f, 0.01355238910764455795f, -0.02515627257525920868f, -0.08284005522727966309f, -0.12123878300189971924f, 0.01597556285560131073f, 0.08362255245447158813f, -0.00026874503237195313f, -0.06614605337381362915f, 0.11156687885522842407f, -0.02190192602574825287f, -0.13910907506942749023f, -0.11352536082267761230f, 0.04853402078151702881f, -0.11281289160251617432f, 0.10055530816316604614f, -0.03893427550792694092f, 0.09993960708379745483f, -0.02919152937829494476f, -0.06036867573857307434f, 0.08179027587175369263f, 0.09621370583772659302f, -0.03182066231966018677f, 0.04414489492774009705f, 0.12499491125345230103f, 0.07514210045337677002f, -0.05400561168789863586f, -0.01661274954676628113f, -0.05866732075810432434f, 0.00816192291676998138f, 0.01473889127373695374f, -0.08819112181663513184f, -0.15956190228462219238f, -0.02625489607453346252f, 0.11069077253341674805f, -0.07645943760871887207f, 0.07031560689210891724f, -0.00429826136678457260f, -0.08235538750886917114f},
  {0.00716082006692886353f, -0.12221562862396240234f, 0.09641857445240020752f, 0.03868686407804489136f, 0.00798374600708484650f, 0.08692059665918350220f, -0.05094011127948760986f, -0.12653198838233947754f, 0.03896430879831314087f, 0.10760843008756637573f, 0.10855760425329208374f, 0.08072093129158020020f, 0.00645827781409025192f, -0.11322373896837234497f, -0.09032200276851654053f, -0.04509699344635009766f, 0.06140944361686706543f, -0.04611695930361747742f, 0.01921622268855571747f, -0.13025134801864624023f, 0.02680773846805095673f, -0.08282202482223510742f, -0.02373368479311466217f, 0.00199068663641810417f, 0.07373138517141342163f, 0.09801093488931655884f, -0.09173708409070968628f, -0.10336696356534957886f, 0.04040369763970375061f, 0.11224330961704254150f, -0.00771921640262007713f, 0.08293373882770538330f, 0.09392211586236953735f, 0.04941529035568237305f, 0.07574810087680816650f, -0.03724017366766929626f, 0.09597157686948776245f, -0.05320622399449348450f, 0.05898872762918472290f, 0.07438725978136062622f, -0.09032558649778366089f, -0.02697153575718402863f, 0.03718401864171028137f, 0.08118680119514465332f, -0.07201003283262252808f, 0.01343035697937011719f, 0.04987088590860366821f, -0.06675241887569427490f, 0.03977920114994049072f, -0.08418988436460494995f, 0.05374651402235031128f, 0.07207757234573364258f, 0.01187705807387828827f, -0.02931628935039043427f, -0.10233283042907714844f, -0.09283471107482910156f, -0.08592081069946289062f, -0.13955727219581604004f, 0.02776676043868064880f, 0.09072335809469223022f, -0.10677691549062728882f, -0.10012409090995788574f, -0.07158599048852920532f, 0.02355229854583740234f},
  {-0.02955556288361549377f, 0.05750608071684837341f, -0.05261014029383659363f, -0.10227826237678527832f, -0.01689841598272323608f, 0.12216342985630035400f, -0.10189247876405715942f, -0.00007060380448820069f, -0.02565268427133560181f, -0.10682803392410278320f, 0.14828781783580780029f, -0.03624131903052330017f, 0.06926327198743820190f, 0.10951989889144897461f, -0.05950289592146873474f, 0.02648018859326839447f, -0.12372431159019470215f, -0.05064195767045021057f, -0.10037653893232345581f, 0.17560490965843200684f, 0.10411936789751052856f, 0.05152423679828643799f, 0.09523357450962066650f, -0.05573727190494537354f, 0.07651714980602264404f, -0.00479065300896763802f, -0.02538508549332618713f, -0.04045983403921127319f, -0.12736201286315917969f, 0.12206238508224487305f, -0.03033430688083171844f, -0.09790739417076110840f, 0.08934321999549865723f, 0.07695877552032470703f, 0.02896329574286937714f, -0.01366084534674882889f, -0.07585816830396652222f, 0.11450024694204330444f, -0.09271846711635589600f, 0.08794829994440078735f, -0.11379905790090560913f, -0.07157488912343978882f, -0.09767982363700866699f, 0.00588763877749443054f, 0.05386671051383018494f, -0.14084619283676147461f, 0.04922542348504066467f, 0.06434405595064163208f, -0.00468279141932725906f, -0.02193501219153404236f, -0.01859693229198455811f, -0.02240379899740219116f, -0.05466147139668464661f, 0.07219269126653671265f, -0.06153079494833946228f, -0.09452413022518157959f, 0.03937793895602226257f, 0.00241883471608161926f, 0.05380429327487945557f, 0.02233505435287952423f, 0.03235133737325668335f, -0.00473647424951195717f, -0.09453380852937698364f, 0.13724623620510101318f},
  {-0.06866890937089920044f, -0.02350284345448017120f, 0.12492802739143371582f, 0.01749379187822341919f, -0.05531621351838111877f, -0.00442112796008586884f, 0.00636969460174441338f, 0.01733374223113059998f, 0.06867904216051101685f, 0.10227417945861816406f, 0.05061041563749313354f, -0.01608001068234443665f, 0.09697243571281433105f, -0.03484675660729408264f, 0.02618126198649406433f, -0.02365442365407943726f, -0.06868279725313186646f, 0.05351559817790985107f, -0.01767935603857040405f, -0.14962835609912872314f, 0.08197267353534698486f, -0.04753730818629264832f, -0.03055609203875064850f, 0.12480878084897994995f, 0.13772965967655181885f, 0.05179166421294212341f, 0.11559461057186126709f, -0.12879540026187896729f, 0.12862363457679748535f, -0.12626601755619049072f, 0.00096633238717913628f, 0.09542940557003021240f, -0.05617747083306312561f, 0.00263256696052849293f, -0.03856261447072029114f, 0.12750437855720520020f, 0.07059958577156066895f, -0.02095037326216697693f, 0.09634606540203094482f, -0.11714622378349304199f, 0.01173703186213970184f, -0.04408288747072219849f, 0.02311688475310802460f, -0.00425822287797927856f, 0.06974627822637557983f, -0.03696995601058006287f, -0.03669671714305877686f, 0.01291084103286266327f, 0.06354928016662597656f, -0.13389012217521667480f, -0.12593759596347808838f, 0.02729151956737041473f, -0.05587920174002647400f, 0.08758138120174407959f, 0.09095307439565658569f, 0.05298317596316337585f, 0.07892310619354248047f, -0.12289781868457794189f, -0.09987716376781463623f, -0.13822010159492492676f, 0.06130557134747505188f, -0.13232907652854919434f, -0.11179263889789581299f, 0.02617381326854228973f},
  {0.00117181963287293911f, 0.00971288606524467468f, -0.01212783250957727432f, -0.12033092975616455078f, -0.09664364904165267944f, -0.03436674550175666809f, 0.02581031806766986847f, 0.09578993916511535645f, -0.05439840257167816162f, -0.12221404910087585449f, -0.15280255675315856934f, -0.04658320918679237366f, -0.00370537256821990013f, 0.10542679578065872192f, 0.09037212282419204712f, -0.05473602935671806335f, 0.10021150857210159302f, -0.01872551627457141876f, 0.12893085181713104248f, 0.03657667338848114014f, -0.02940058708190917969f, 0.05214503034949302673f, 0.07570827752351760864f, -0.11885880678892135620f, 0.06866706907749176025f, 0.03964076936244964600f, -0.10252805799245834351f, 0.10126150399446487427f, 0.06887051463127136230f, -0.01112114451825618744f, -0.04439498856663703918f, 0.09305743128061294556f, -0.00395716167986392975f, 0.06527866423130035400f, 0.08161965757608413696f, 0.07966940104961395264f, 0.05770083516836166382f, -0.09151653200387954712f, 0.07987967878580093384f, 0.11545676738023757935f, -0.08362002670764923096f, 0.06279294937849044800f, 0.08443745225667953491f, -0.12158661335706710815f, 0.09134193509817123413f, 0.06497799605131149292f, -0.00913661159574985504f, 0.00407432857900857925f, 0.12063532322645187378f, -0.03711213171482086182f, 0.07921442389488220215f, -0.11472008377313613892f, 0.04691438749432563782f, 0.07486338168382644653f, -0.05569969862699508667f, -0.08226989954710006714f, -0.10776082426309585571f, -0.07946021109819412231f, 0.06878858804702758789f, 0.12395658344030380249f, 0.02837441861629486084f, -0.01655932515859603882f, -0.12623082101345062256f, -0.04698170349001884460f},
  {-0.01801686733961105347f, 0.03230228647589683533f, -0.09953526407480239868f, 0.02817897498607635498f, 0.04721251130104064941f, 0.09156810492277145386f, -0.00484810210764408112f, 0.13352455198764801025f, 0.07012395560741424561f, -0.03871725499629974365f, 0.11347430944442749023f, -0.17023910582065582275f, 0.01214050315320491791f, 0.02825985103845596313f, -0.00949989445507526398f, -0.03965201601386070251f, -0.12668204307556152344f, 0.06523379683494567871f, 0.04179168492555618286f, 0.13998074829578399658f, -0.02175389975309371948f, -0.02654578909277915955f, -0.11615188419818878174f, 0.12318436801433563232f, -0.07026032358407974243f, -0.02324449643492698669f, -0.11084895581007003784f, -0.12361354380846023560f, -0.12852410972118377686f, 0.03586451709270477295f, 0.01868551224470138550f, -0.02919259667396545410f, 0.05021791532635688782f, 0.07297536730766296387f, -0.05830464884638786316f, -0.05737137421965599060f, 0.04210771247744560242f, 0.06021442264318466187f, -0.08911156654357910156f, 0.03945859149098396301f, 0.09449481219053268433f, -0.02556335180997848511f, 0.09426776319742202759f, 0.03935284167528152466f, -0.00032637195545248687f, 0.00563579238951206207f, -0.08860015869140625000f, 0.00427906028926372528f, -0.03708228468894958496f, -0.11697865277528762817f, -0.09469450265169143677f, 0.08994001895189285278f, 0.02103676088154315948f, -0.15663957595825195312f, 0.12014669179916381836f, -0.04508801177144050598f, -0.03221819549798965454f, -0.00963050033897161484f, -0.07980468869209289551f, -0.01680283620953559875f, -0.11641909182071685791f, -0.00295472354628145695f, 0.06427578628063201904f, 0.10787478089332580566f},
  {-0.03958966955542564392f, 0.07884946465492248535f, 0.09273716062307357788f, 0.09906224906444549561f, 0.08242212235927581787f, -0.05214940011501312256f, 0.12395488470792770386f, -0.00314751476980745792f, 0.00779610872268676758f, -0.10954327136278152466f, -0.02470547892153263092f, 0.10134387016296386719f, -0.02349570952355861664f, -0.11344440281391143799f, 0.06385844945907592773f, -0.10881880670785903931f, -0.07160047441720962524f, 0.05419623851776123047f, -0.02801955491304397583f, 0.02712218463420867920f, 0.09814660996198654175f, -0.10347165912389755249f, -0.04890470579266548157f, -0.10649170726537704468f, 0.15827912092208862305f, 0.00919658970087766647f, 0.10923288762569427490f, -0.08079542964696884155f, 0.05019972100853919983f, 0.11229296028614044189f, -0.09055228531360626221f, -0.09367150068283081055f, -0.06995686888694763184f, 0.10379116237163543701f, 0.06812497973442077637f, -0.12609721720218658447f, -0.03530506044626235962f, -0.02151887305080890656f, 0.12923832237720489502f, -0.11607807874679565430f, -0.04156470298767089844f, 0.01663776673376560211f, 0.02132655866444110870f, -0.06441410630941390991f, 0.01696411147713661194f, 0.09361644089221954346f, 0.03494677320122718811f, -0.04337915033102035522f, 0.06140946596860885620f, 0.06525099277496337891f, 0.05978545546531677246f, 0.00419102422893047333f, -0.07088784128427505493f, 0.10192523151636123657f, -0.03631074354052543640f, -0.09003055095672607422f, -0.02680504135787487030f, 0.00618129689246416092f, -0.11456789076328277588f, 0.06128510087728500366f, 0.08226657658815383911f, -0.05950027331709861755f, 0.09800470620393753052f, -0.02587010711431503296f},
  {0.10228366404771804810f, 0.08400283753871917725f, -0.04122678562998771667f, -0.08337485790252685547f, 0.07749410718679428101f, 0.03946628421545028687f, 0.06793396919965744019f, -0.07829356938600540161f, 0.09790706634521484375f, -0.10188885778188705444f, 0.07901155203580856323f, 0.00278425496071577072f, -0.01920427195727825165f, -0.01430622860789299011f, -0.02037072367966175079f, -0.05179233476519584656f, -0.02921917103230953217f, -0.08787883818149566650f, 0.12237821519374847412f, -0.10720770061016082764f, 0.04238589853048324585f, 0.02955460734665393829f, 0.01144192833453416824f, -0.09994331002235412598f, 0.13336841762065887451f, -0.06784952431917190552f, 0.11813199520111083984f, 0.02431325241923332214f, -0.01232003234326839447f, -0.09365336596965789795f, -0.04158107191324234009f, 0.04026688262820243835f, 0.08396133780479431152f, 0.03288250789046287537f, -0.05738109350204467773f, 0.07935435324907302856f, -0.12922100722789764404f, -0.08149833977222442627f, -0.09404306113719940186f, 0.06205571070313453674f, -0.10142487287521362305f, -0.12248907983303070068f, 0.04258252307772636414f, 0.02571609988808631897f, 0.07406087219715118408f, 0.10555757582187652588f, 0.02042580209672451019f, 0.06533275544643402100f, -0.00978845916688442230f, 0.09183257073163986206f, 0.05131468549370765686f, 0.02871826104819774628f, -0.08174241334199905396f, -0.05883844196796417236f, -0.11914469301700592041f, -0.12211172282695770264f, 0.00165163679048418999f, -0.01128458324819803238f, 0.01275321096181869507f, 0.03293520957231521606f, -0.04034357517957687378f, -0.05179873108863830566f, -0.09991472214460372925f, -0.11716394871473312378f},
  {-0.05031978711485862732f, -0.09585752338171005249f, 0.12281851470470428467f, 0.05365056172013282776f, -0.10128498077392578125f, -0.08576118201017379761f, 0.03118982166051864624f, -0.09233094751834869385f, -0.11673254519701004028f, -0.00746366381645202637f, -0.00859625916928052902f, 0.12581560015678405762f, 0.07432076334953308105f, -0.08680203557014465332f, 0.10824043303728103638f, 0.14423713088035583496f, 0.11802678555250167847f, -0.07718683779239654541f, 0.00063070608302950859f, -0.14963397383689880371f, -0.00071497593307867646f, 0.10416817665100097656f, -0.05028071254491806030f, 0.07966785877943038940f, 0.07221077382564544678f, 0.09997868537902832031f, 0.07712011784315109253f, 0.13053140044212341309f, -0.08043489605188369751f, 0.03808212652802467346f, -0.08840856701135635376f, 0.06232544034719467163f, -0.09163512289524078369f, 0.03623309358954429626f, 0.03718015179038047791f, -0.04403543472290039062f, -0.03905630856752395630f, -0.10181171447038650513f, 0.10819368064403533936f, -0.07103323936462402344f, -0.03452056646347045898f, 0.02939170598983764648f, -0.07749611884355545044f, -0.04902639985084533691f, 0.10055112838745117188f, 0.03618223965167999268f, -0.01335840858519077301f, 0.04904709011316299438f, 0.02316040359437465668f, 0.11629100143909454346f, -0.05417600274085998535f, -0.00394379906356334686f, -0.08754360675811767578f, 0.07876477390527725220f, -0.05063905566930770874f, -0.05125281587243080139f, 0.12942527234554290771f, -0.10791071504354476929f, 0.11077556014060974121f, -0.08575091511011123657f, -0.05925065279006958008f, -0.10350865870714187622f, 0.08580137789249420166f, 0.05267970636487007141f},
  {-0.02800457365810871124f, 0.00048078669351525605f, 0.03325729444622993469f, -0.10831456631422042847f, 0.12062720954418182373f, -0.02655506134033203125f, 0.12079811841249465942f, 0.00365928350947797298f, -0.08542812615633010864f, -0.08507539331912994385f, 0.03998466581106185913f, 0.05182446539402008057f, 0.01992784440517425537f, -0.02857059612870216370f, -0.07303006201982498169f, 0.07447024434804916382f, 0.01917432248592376709f, 0.08078437298536300659f, -0.01605136133730411530f, -0.05898283794522285461f, 0.12710352241992950439f, -0.07073368877172470093f, -0.09307136386632919312f, -0.07520460337400436401f, -0.17479184269905090332f, 0.08719255775213241577f, -0.07891014963388442993f, 0.01248878054320812225f, -0.12387980520725250244f, -0.05634879693388938904f, -0.02489824406802654266f, -0.01791075058281421661f, -0.00929142069071531296f, -0.06368204951286315918f, 0.00971136521548032761f, -0.03930765762925148010f, 0.01466128043830394745f, 0.06840197741985321045f, 0.09607879072427749634f, 0.04375666379928588867f, -0.10055963695049285889f, 0.07375366240739822388f, -0.10092113167047500610f, -0.11097151041030883789f, -0.11813119798898696899f, 0.03814863786101341248f, -0.04228702560067176819f, -0.06191915646195411682f, -0.08076283335685729980f, 0.03937774896621704102f, 0.00571471359580755234f, -0.03666831925511360168f, -0.02350672706961631775f, 0.02121156267821788788f, 0.05617038905620574951f, -0.11748234927654266357f, -0.05003290995955467224f, -0.03781643137335777283f, 0.00647300202399492264f, 0.10989458113908767700f, -0.12220118194818496704f, 0.07083000242710113525f, -0.02565841004252433777f, 0.09675974398851394653f},
  {-0.02777634933590888977f, -0.06611042469739913940f, -0.09416082501411437988f, 0.08875248581171035767f, 0.09184357523918151855f, 0.13936716318130493164f, -0.02069930173456668854f, -0.00945313833653926849f, -0.11483219265937805176f, 0.01385936886072158813f, 0.03542784228920936584f, -0.14090816676616668701f, -0.01065401639789342880f, -0.03620665147900581360f, 0.02080762013792991638f, -0.05850044637918472290f, -0.03365888074040412903f, -0.06409236788749694824f, 0.06848156452178955078f, 0.11059425771236419678f, -0.06586282700300216675f, 0.11261068284511566162f, 0.11454563587903976440f, 0.03031473048031330109f, -0.03279283642768859863f, 0.07287275046110153198f, -0.00806135591119527817f, 0.11028220504522323608f, -0.11624739319086074829f, 0.03350851312279701233f, 0.09446594119071960449f, -0.08992741256952285767f, -0.12804366648197174072f, 0.07114013284444808960f, -0.11317594349384307861f, -0.13285183906555175781f, -0.04617778211832046509f, 0.04248794168233871460f, -0.08365592360496520996f, 0.12484727054834365845f, 0.05760578811168670654f, -0.00734466174617409706f, -0.01027421839535236359f, -0.07035874575376510620f, 0.06819438189268112183f, 0.01129388436675071716f, 0.09700687974691390991f, -0.08524380624294281006f, -0.11454115062952041626f, 0.03970539942383766174f, -0.07468692958354949951f, -0.05982978641986846924f, 0.10010195523500442505f, 0.09741415083408355713f, 0.01140020787715911865f, -0.10949143022298812866f, -0.09581602364778518677f, -0.04050437361001968384f, -0.04279523342847824097f, 0.10923734307289123535f, 0.11068358272314071655f, 0.11644592136144638062f, 0.04376466944813728333f, 0.05795896425843238831f},
  {0.12951585650444030762f, -0.11761281639337539673f, 0.07950977981090545654f, 0.01572336070239543915f, -0.11436437070369720459f, -0.05691178888082504272f, 0.09249810129404067993f, 0.01428149547427892685f, 0.02056163176894187927f, -0.08072916418313980103f, 0.00395100377500057220f, 0.00447392929345369339f, 0.01141798496246337891f, -0.11045075953006744385f, -0.00605463096871972084f, 0.09672413766384124756f, -0.00321350828744471073f, 0.06433681398630142212f, 0.02134734578430652618f, -0.00607585581019520760f, 0.01038472261279821396f, -0.02870622277259826660f, -0.05942496657371520996f, -0.10284075886011123657f, -0.05496198683977127075f, 0.02149976789951324463f, -0.01632416434586048126f, 0.10742916166782379150f, -0.10683172941207885742f, 0.04044249653816223145f, -0.09259053319692611694f, 0.06219801306724548340f, 0.05363322421908378601f, 0.02034185826778411865f, 0.04403216019272804260f, -0.01370626501739025116f, -0.13501484692096710205f, 0.09172207117080688477f, -0.10977699607610702515f, -0.08688219636678695679f, -0.05733284354209899902f, 0.10702144354581832886f, -0.01793477497994899750f, -0.08944744616746902466f, -0.01457242574542760849f, 0.06236667558550834656f, -0.05926008149981498718f, -0.12205703556537628174f, -0.08775321394205093384f, 0.08517262339591979980f, 0.13092376291751861572f, -0.00528131285682320595f, -0.16977889835834503174f, 0.13394537568092346191f, -0.11049915850162506104f, 0.04244926944375038147f, -0.07892761379480361938f, 0.02501638606190681458f, 0.01146893948316574097f, 0.10268875956535339355f, -0.06679569184780120850f, 0.01445411983877420425f, -0.00626669451594352722f, -0.01190745364874601364f},
  {0.12232901155948638916f, -0.05933529511094093323f, -0.01744120381772518158f, -0.06055889278650283813f, 0.10523040592670440674f, 0.08204952627420425415f, 0.13891789317131042480f, 0.03756152838468551636f, -0.00192684237845242023f, -0.08121476322412490845f, -0.09597372263669967651f, 0.03662951290607452393f, 0.01762360706925392151f, 0.08176246285438537598f, 0.04641732200980186462f, -0.04980240389704704285f, 0.04923982918262481689f, -0.00109603465534746647f, -0.00150411075446754694f, 0.01996243186295032501f, -0.07841601222753524780f, 0.05572720617055892944f, -0.08916865289211273193f, 0.04081835970282554626f, -0.04076481983065605164f, -0.08643683046102523804f, 0.08995667845010757446f, -0.04889618977904319763f, -0.01333819236606359482f, 0.06564328074455261230f, 0.07918325811624526978f, 0.04196856170892715454f, 0.07936341315507888794f, 0.06959109753370285034f, -0.04004681482911109924f, -0.03995314240455627441f, -0.06447895616292953491f, 0.10080774128437042236f, 0.04879003763198852539f, -0.07275736331939697266f, 0.03245277330279350281f, -0.02894229441881179810f, -0.05565752089023590088f, -0.10665579140186309814f, -0.09560842067003250122f, 0.07281723618507385254f, -0.00493712769821286201f, -0.10638236999511718750f, -0.01636588945984840393f, 0.11234867572784423828f, -0.00673334067687392235f, 0.04438913986086845398f, -0.10205162316560745239f, 0.08545076847076416016f, -0.03762477263808250427f, -0.02436224929988384247f, 0.02456451393663883209f, -0.00331428460776805878f, -0.04650947451591491699f, 0.05553865805268287659f, -0.00629647495225071907f, 0.06442774832248687744f, 0.06339813023805618286f, 0.05723429843783378601f},
  {-0.02279603667557239532f, 0.09987179934978485107f, 0.01897469535470008850f, 0.00135692639742046595f, -0.09526271373033523560f, -0.00239418935962021351f, 0.01492991019040346146f, 0.09398373961448669434f, -0.11978273093700408936f, -0.09580231457948684692f, 0.03542488813400268555f, -0.06866345554590225220f, 0.05092502385377883911f, -0.00519482092931866646f, 0.13249450922012329102f, -0.02848255634307861328f, 0.07710839807987213135f, -0.11780394613742828369f, -0.10767444223165512085f, 0.06369832903146743774f, 0.01793281920254230499f, 0.05429011210799217224f, -0.09004746377468109131f, 0.00816701538860797882f, -0.07289916276931762695f, 0.07090664654970169067f, -0.06053034961223602295f, -0.07135965675115585327f, 0.03569605946540832520f, -0.08187189698219299316f, -0.05238720029592514038f, 0.00051841686945408583f, -0.13111881911754608154f, 0.02792771719396114349f, 0.06999007612466812134f, 0.00512515893206000328f, 0.07073663175106048584f, 0.06559765338897705078f, -0.11046776920557022095f, 0.07708141207695007324f, 0.06149840727448463440f, -0.00839517358690500259f, -0.10951407998800277710f, 0.10249956697225570679f, -0.11833508312702178955f, 0.05419573560357093811f, -0.00189327797852456570f, 0.03847650811076164246f, 0.06710513681173324585f, -0.06064169108867645264f, 0.03742309287190437317f, 0.09172561764717102051f, -0.03465102240443229675f, 0.10803816467523574829f, -0.06016305461525917053f, 0.09099989384412765503f, 0.01087265834212303162f, -0.07612375915050506592f, 0.10040278732776641846f, 0.00435206061229109764f, -0.10830871015787124634f, -0.08921342343091964722f, 0.00203131930902600288f, 0.09326842427253723145f},
  {-0.09117826074361801147f, -0.02788659743964672089f, 0.05393552407622337341f, -0.02294658683240413666f, -0.02920343726873397827f, 0.11004476249217987061f, -0.00734589481726288795f, 0.06465776264667510986f, -0.03963836655020713806f, 0.06536567211151123047f, -0.10095260292291641235f, 0.13323403894901275635f, 0.06275831907987594604f, 0.07283446192741394043f, 0.03007413819432258606f, -0.02350908145308494568f, 0.03767904639244079590f, -0.02034335210919380188f, 0.01659397408366203308f, 0.07607263326644897461f, -0.00643319869413971901f, 0.03287392482161521912f, 0.06626268476247787476f, -0.03929498791694641113f, 0.13268361985683441162f, 0.04226414486765861511f, 0.07787369191646575928f, 0.04124615713953971863f, -0.10636541247367858887f, 0.05802425369620323181f, 0.08104223757982254028f, -0.06857381761074066162f, 0.05198362469673156738f, -0.08911712467670440674f, -0.04219466447830200195f, 0.00465529551729559898f, 0.01277803629636764526f, 0.12834370136260986328f, -0.00831407029181718826f, -0.00832940358668565750f, -0.08246767520904541016f, 0.04301392287015914917f, -0.12207622081041336060f, -0.10716348886489868164f, -0.01180934254080057144f, -0.10823529958724975586f, 0.06604776531457901001f, -0.07114954292774200439f, 0.02773464284837245941f, -0.00049497728468850255f, 0.02910020388662815094f, -0.08909050375223159790f, -0.02044911123812198639f, -0.07813611626625061035f, 0.04492105171084403992f, -0.10451626032590866089f, -0.00126205594278872013f, -0.06976180523633956909f, -0.06479099392890930176f, -0.07930210977792739868f, 0.06570031493902206421f, -0.06465682387351989746f, 0.02349676936864852905f, -0.00571004115045070648f},
  {-0.04108956083655357361f, -0.05974882468581199646f, 0.05346024781465530396f, -0.06444612890481948853f, 0.08416435867547988892f, -0.14394110441207885742f, -0.02302370592951774597f, 0.02617489174008369446f, -0.01872510462999343872f, -0.08396060764789581299f, -0.13274890184402465820f, -0.00805786531418561935f, -0.08973012119531631470f, -0.10433109104633331299f, -0.01546324230730533600f, 0.00770903285592794418f, 0.19198930263519287109f, -0.03602498397231101990f, -0.01094424072653055191f, -0.15766470134258270264f, -0.12244915217161178589f, -0.12072779238224029541f, -0.06069220975041389465f, -0.01831390149891376495f, -0.05542960762977600098f, 0.08603307604789733887f, 0.09957820177078247070f, 0.03191608190536499023f, 0.08533607423305511475f, -0.01866759732365608215f, -0.10084695369005203247f, 0.09729217737913131714f, 0.05188793689012527466f, -0.01845870725810527802f, 0.06627508997917175293f, -0.06377250701189041138f, 0.09661421924829483032f, -0.05625226348638534546f, -0.09561001509428024292f, 0.02363071404397487640f, -0.07455636560916900635f, -0.06082674860954284668f, 0.03733358904719352722f, 0.08209026604890823364f, 0.03024929389357566833f, 0.09110019356012344360f, 0.01969897374510765076f, 0.08149873465299606323f, 0.11760036647319793701f, 0.02035183273255825043f, 0.05647215992212295532f, -0.01342162117362022400f, 0.00766168255358934402f, 0.10989160835742950439f, -0.04537361115217208862f, 0.00065286830067634583f, 0.07736706733703613281f, -0.14321236312389373779f, 0.01925277151167392731f, -0.07800535857677459717f, -0.07370715588331222534f, 0.00200992403551936150f, -0.03426921740174293518f, -0.12516508996486663818f},
  {-0.00167290109675377607f, -0.10339052975177764893f, 0.08640880137681961060f, 0.09417730569839477539f, -0.10477776080369949341f, -0.02785904332995414734f, 0.02713344432413578033f, 0.04478134587407112122f, -0.05322756618261337280f, -0.00106901908293366432f, 0.02690354362130165100f, -0.06200380623340606689f, -0.03949222341179847717f, -0.00157469033729285002f, -0.13215430080890655518f, 0.00957619585096836090f, 0.12937265634536743164f, -0.10648375749588012695f, -0.00582009740173816681f, -0.09219571202993392944f, -0.10345096886157989502f, -0.02290367148816585541f, 0.06899548321962356567f, -0.00325911981053650379f, -0.03857973963022232056f, -0.00103516306262463331f, 0.07599182426929473877f, -0.09605590254068374634f, 0.12543186545372009277f, -0.01936869136989116669f, 0.01066856179386377335f, -0.01890962384641170502f, 0.10210210084915161133f, 0.02430458553135395050f, 0.10480423271656036377f, -0.09256254881620407104f, 0.02409404329955577850f, 0.12326548993587493896f, -0.00471237394958734512f, 0.00416434323415160179f, -0.11541052162647247314f, 0.01392567716538906097f, 0.02440456114709377289f, -0.07820774614810943604f, -0.02934133447706699371f, 0.04572616890072822571f, -0.12813872098922729492f, -0.11846445500850677490f, -0.08606425672769546509f, -0.11861350387334823608f, -0.01361768972128629684f, -0.07843554019927978516f, -0.04308606684207916260f, -0.09956509619951248169f, -0.02322184853255748749f, 0.10046879202127456665f, 0.10947892814874649048f, -0.07486296445131301880f, 0.05667543783783912659f, 0.05058955773711204529f, 0.05597985163331031799f, 0.04184149950742721558f, 0.09263460338115692139f, -0.08420233428478240967f},
  {0.05191192403435707092f, 0.05245944112539291382f, 0.07392232120037078857f, -0.03321367874741554260f, 0.02084355428814888000f, -0.05781807005405426025f, -0.09856390208005905151f, 0.07202181220054626465f, -0.08173892647027969360f, 0.04504914209246635437f, 0.10672952234745025635f, -0.15598568320274353027f, -0.06131816655397415161f, 0.10141757130622863770f, 0.00859674252569675446f, -0.03888854756951332092f, -0.11409907788038253784f, 0.01754317805171012878f, -0.09415094554424285889f, 0.15037399530410766602f, -0.11809668689966201782f, -0.06257788836956024170f, 0.10814746469259262085f, -0.05213405936956405640f, 0.02159661240875720978f, 0.03286316618323326111f, -0.09003210812807083130f, 0.07328636199235916138f, -0.06083516031503677368f, -0.04789484664797782898f, -0.07553049176931381226f, 0.08601209521293640137f, 0.13293878734111785889f, 0.06309688836336135864f, -0.12656955420970916748f, -0.07285046577453613281f, -0.01552308443933725357f, -0.11996571719646453857f, 0.04252379387617111206f, 0.13306356966495513916f, -0.03155646845698356628f, -0.06344179064035415649f, 0.06756246834993362427f, 0.09943137317895889282f, 0.02764534205198287964f, 0.00352948298677802086f, -0.06879038363695144653f, 0.02696851454675197601f, -0.08918306231498718262f, -0.04360059648752212524f, -0.07619119435548782349f, 0.10231783986091613770f, 0.03591299429535865784f, -0.13932612538337707520f, -0.09661258012056350708f, 0.11362168937921524048f, -0.01146775018423795700f, -0.00727573689073324203f, -0.09567651152610778809f, 0.04613467305898666382f, -0.06946609914302825928f, 0.05385440587997436523f, -0.08333143591880798340f, 0.06540662050247192383f},
  {0.09256428480148315430f, 0.03580388054251670837f, -0.06689060479402542114f, 0.04204601421952247620f, -0.00073676556348800659f, -0.12262339144945144653f, 0.01951375044882297516f, 0.04624783620238304138f, 0.04679160192608833313f, 0.04386617988348007202f, -0.00201459787786006927f, 0.01813219860196113586f, 0.04416721314191818237f, -0.01157732587307691574f, 0.08065740764141082764f, 0.02365254797041416168f, 0.09641297906637191772f, 0.11048521846532821655f, 0.01974611729383468628f, 0.06187620759010314941f, 0.01304365228861570358f, 0.02325592376291751862f, 0.04769457876682281494f, 0.05419454723596572876f, -0.03615532070398330688f, -0.03607264533638954163f, 0.09174868464469909668f, 0.10204850882291793823f, 0.09570332616567611694f, -0.09558834880590438843f, 0.04848967865109443665f, 0.03470011055469512939f, -0.05164031311869621277f, 0.09317251294851303101f, -0.02947893179953098297f, -0.06060352176427841187f, -0.01664653420448303223f, -0.10710572451353073120f, -0.04857358336448669434f, -0.08262685686349868774f, -0.04429531842470169067f, -0.09557615220546722412f, 0.10117994248867034912f, 0.00808314140886068344f, 0.06733968853950500488f, 0.13081823289394378662f, 0.01671599783003330231f, 0.05667361244559288025f, 0.08620639145374298096f, -0.00743691204115748405f, -0.12218064069747924805f, -0.02962991781532764435f, 0.03564919531345367432f, 0.02866376563906669617f, 0.10261095315217971802f, 0.04925986379384994507f, 0.03597479313611984253f, 0.02745892666280269623f, 0.08039057254791259766f, -0.12221724539995193481f, 0.09069708734750747681f, -0.11472174525260925293f, 0.00569029990583658218f, 0.09652767330408096313f},
  {0.06022235006093978882f, 0.05944997444748878479f, -0.12315022200345993042f, -0.06746064871549606323f, -0.11864169687032699585f, -0.00306098232977092266f, -0.08873217552900314331f, -0.07262533158063888550f, -0.04510520771145820618f, -0.04754341393709182739f, 0.10237627476453781128f, -0.11877302080392837524f, 0.13435690104961395264f, -0.04411379620432853699f, -0.04949365928769111633f, -0.11539571732282638550f, -0.16615487635135650635f, 0.11228434741497039795f, 0.06798112392425537109f, 0.14648786187171936035f, 0.02188101783394813538f, -0.02034104801714420319f, 0.03977592661976814270f, -0.04571489244699478149f, 0.07897933572530746460f, -0.03337613493204116821f, 0.09926461428403854370f, -0.13115645945072174072f, 0.06739196926355361938f, -0.12719297409057617188f, -0.07517667859792709351f, 0.04937614500522613525f, 0.10020690411329269409f, -0.03471901640295982361f, -0.07487708330154418945f, 0.02482485398650169373f, 0.04285180568695068359f, 0.05683226883411407471f, 0.10491260886192321777f, 0.02944631129503250122f, -0.00174313876777887344f, 0.00380938802845776081f, -0.13075613975524902344f, -0.04356601834297180176f, 0.01743477769196033478f, 0.05215255916118621826f, -0.03467447310686111450f, -0.02021657861769199371f, -0.06695380806922912598f, 0.01325652934610843658f, -0.05657508224248886108f, 0.12234613299369812012f, 0.10448064655065536499f, -0.08879293501377105713f, 0.01376371551305055618f, 0.09677001833915710449f, 0.01353831589221954346f, -0.01897438988089561462f, -0.10084686428308486938f, 0.09482808411121368408f, -0.01173379737883806229f, -0.07865256071090698242f, -0.00343985250219702721f, 0.08237710595130920410f},
  {0.06802769005298614502f, -0.02033093385398387909f, -0.06860964000225067139f, -0.09064035117626190186f, -0.08367992937564849854f, -0.04496388137340545654f, 0.03271188959479331970f, 0.09392038732767105103f, 0.02274357713758945465f, -0.11730860173702239990f, -0.11817802488803863525f, 0.06459011137485504150f, -0.04137831181287765503f, -0.13638256490230560303f, 0.10726767033338546753f, -0.05481664091348648071f, 0.02033109217882156372f, -0.00080630718730390072f, -0.04618870094418525696f, 0.04961642250418663025f, 0.03341362997889518738f, -0.02987657673656940460f, -0.05544759705662727356f, -0.06604376435279846191f, 0.09322807192802429199f, 0.10506443679332733154f, 0.01039129588752985001f, -0.05696418508887290955f, 0.02208513393998146057f, 0.02302452176809310913f, -0.12156262248754501343f, 0.12678085267543792725f, 0.08585359156131744385f, -0.02672960795462131500f, 0.12681736052036285400f, -0.12364142388105392456f, -0.04353921115398406982f, -0.13033586740493774414f, 0.10400875657796859741f, -0.05874304473400115967f, 0.05771392211318016052f, -0.11537989974021911621f, 0.06657573580741882324f, 0.05995902791619300842f, 0.09384884685277938843f, -0.11455276608467102051f, 0.00817732885479927063f, 0.04440195113420486450f, -0.11855433136224746704f, -0.08450274914503097534f, 0.09256737679243087769f, -0.02617285959422588348f, -0.12043001502752304077f, -0.08115332573652267456f, -0.04436043277382850647f, -0.10221777856349945068f, -0.04171334579586982727f, 0.08985580503940582275f, 0.01010832004249095917f, -0.04827563464641571045f, 0.06982056051492691040f, 0.09894417971372604370f, 0.09784442186355590820f, 0.05829234421253204346f},
  {-0.00403690990060567856f, -0.01375557109713554382f, -0.04210830479860305786f, -0.03409938141703605652f, 0.11529888212680816650f, 0.08749179542064666748f, 0.05558053031563758850f, 0.12146762013435363770f, -0.06363737583160400391f, -0.07069100439548492432f, 0.12267816811800003052f, -0.09165552258491516113f, -0.11344276368618011475f, -0.03205525130033493042f, 0.01998006738722324371f, 0.06440351158380508423f, -0.08135240525007247925f, 0.03035288304090499878f, 0.06680381298065185547f, -0.05469411239027976990f, 0.01302083488553762436f, -0.08586094528436660767f, 0.13164353370666503906f, 0.08567336201667785645f, -0.08951243013143539429f, -0.03384614363312721252f, 0.07072319090366363525f, 0.11209703236818313599f, 0.02668746002018451691f, 0.12731730937957763672f, -0.04175681993365287781f, 0.04100767150521278381f, -0.04905273765325546265f, 0.08431543409824371338f, 0.00707568228244781494f, -0.00974226929247379303f, 0.03562702983617782593f, 0.08317687362432479858f, -0.09128934890031814575f, 0.13798820972442626953f, -0.04964157938957214355f, -0.03772204741835594177f, 0.10088717937469482422f, 0.03152896091341972351f, 0.05220307037234306335f, 0.02018597535789012909f, -0.10692243278026580811f, 0.04798980429768562317f, 0.00538672879338264465f, 0.08891056478023529053f, -0.11865015327930450439f, -0.01402608957141637802f, -0.09541503340005874634f, 0.09960761666297912598f, -0.00819936953485012054f, -0.06064172834157943726f, -0.00552312005311250687f, -0.01635018922388553619f, 0.11507598310708999634f, 0.04498224705457687378f, 0.09347179532051086426f, 0.06914197653532028198f, 0.07098923623561859131f, 0.01358647923916578293f},
