// This file is computer-generated by onnx2c 
// Command Line: onnx2c/build/onnx2c -d batch_size:1 --no-globals --func-name linket_decoder_forward out/models/m0_small/decoder.onnx

// onnx2c
// Git Branch: feature/func-name
// Git Commit: cfcce19

// ONNX Model
// Produced By: pytorch, version 2.10.0+cu130
// ONNX IR version: 20

#include <float.h>
#include <math.h>
#include <stdbool.h>
#include <stdint.h>
#include <string.h>
#include <stdlib.h>

#define MAX(X,Y) ( X > Y ? X : Y)
#define MIN(X,Y) ( X < Y ? X : Y)
#define CLIP(X,L) ( MAX(MIN(X,L), -L) )

#if __STDC_VERSION__ < 199901L
#define FUNC_PREFIX
#else
#define FUNC_PREFIX static inline
#endif

static const float tensor__Decoder__layers_0_weight[32][20] = 
{
  {0.35584503412246704102f, 0.04992005974054336548f, 0.24241353571414947510f, -0.19700093567371368408f, 0.16238655149936676025f, 0.03572686389088630676f, 0.04646673053503036499f, 0.30527547001838684082f, 0.04353284463286399841f, -0.02813823148608207703f, 0.27644485235214233398f, -0.06989990919828414917f, 0.03685811907052993774f, -0.16912870109081268311f, -0.02823380567133426666f, 0.11781821399927139282f, 0.21769729256629943848f, -0.38397729396820068359f, -0.09238563477993011475f, 0.05530536547303199768f},
  {0.10547284036874771118f, -0.00318455137312412262f, 0.28392818570137023926f, 0.10839846730232238770f, -0.09423812478780746460f, 0.13365335762500762939f, 0.18961268663406372070f, -0.02560152485966682434f, -0.05216758698225021362f, -0.18540979921817779541f, -0.26643094420433044434f, 0.08077035099267959595f, -0.15767630934715270996f, 0.07156135886907577515f, -0.00810624752193689346f, -0.26204055547714233398f, -0.22273933887481689453f, -0.07167050987482070923f, -0.07192023843526840210f, -0.06905066221952438354f},
  {0.19215317070484161377f, 0.08213518559932708740f, 0.03847793862223625183f, -0.19702652096748352051f, -0.04577379301190376282f, -0.06649481505155563354f, -0.06897149235010147095f, 0.12599602341651916504f, -0.09093573689460754395f, 0.15857569873332977295f, -0.05493133515119552612f, -0.02804188430309295654f, -0.02415912412106990814f, 0.01241583190858364105f, -0.00887741614133119583f, 0.26863119006156921387f, -0.09580170363187789917f, 0.14140100777149200439f, -0.24478064477443695068f, 0.21015204489231109619f},
  {-0.10282347351312637329f, 0.16166952252388000488f, -0.10700361430644989014f, 0.11159630119800567627f, 0.00384797411970794201f, 0.02291206642985343933f, 0.24802675843238830566f, 0.30419936776161193848f, 0.01037756633013486862f, 0.18627552688121795654f, -0.07133593410253524780f, -0.21703113615512847900f, -0.17715300619602203369f, 0.01993621513247489929f, -0.07415694743394851685f, 0.00252383062615990639f, 0.00179030618164688349f, 0.41860008239746093750f, -0.04950687661767005920f, 0.13795541226863861084f},
  {-0.24405767023563385010f, -0.03713731840252876282f, -0.10156834870576858521f, -0.09083404392004013062f, -0.08421386778354644775f, 0.21336127817630767822f, 0.07108519226312637329f, -0.24966463446617126465f, 0.05369140580296516418f, -0.02491561695933341980f, -0.13817690312862396240f, -0.15576443076133728027f, -0.01601374149322509766f, -0.12025901675224304199f, -0.14554463326930999756f, 0.21430736780166625977f, -0.14931866526603698730f, -0.06616158038377761841f, -0.17333012819290161133f, -0.22136148810386657715f},
  {-0.21354174613952636719f, -0.03955483064055442810f, 0.04328843578696250916f, -0.04385206475853919983f, -0.02269230037927627563f, -0.12084342539310455322f, 0.02054207213222980499f, 0.00731786200776696205f, 0.13485629856586456299f, -0.24095000326633453369f, -0.07926901429891586304f, -0.01658953912556171417f, 0.20771495997905731201f, 0.08688441663980484009f, 0.07163187116384506226f, 0.17673192918300628662f, -0.18623425066471099854f, -0.17270168662071228027f, -0.13108363747596740723f, -0.01358300261199474335f},
  {0.10307406634092330933f, 0.18547400832176208496f, 0.09392312169075012207f, -0.15672202408313751221f, -0.03084346838295459747f, 0.20660692453384399414f, 0.30570650100708007812f, 0.03103252872824668884f, -0.11840706318616867065f, -0.03969429433345794678f, -0.19159117341041564941f, 0.10075276345014572144f, -0.00532686011865735054f, -0.00392494117841124535f, 0.09215456247329711914f, -0.14936459064483642578f, 0.01844798587262630463f, -0.10310854017734527588f, -0.01486919075250625610f, -0.08029654622077941895f},
  {0.08769565820693969727f, -0.24632950127124786377f, 0.21073830127716064453f, -0.00870269071310758591f, -0.06536488980054855347f, 0.27331042289733886719f, 0.04538678005337715149f, -0.10599838942289352417f, -0.03855473175644874573f, 0.01992828957736492157f, -0.06697335094213485718f, -0.08117435127496719360f, -0.28491821885108947754f, -0.00737141957506537437f, 0.14342232048511505127f, 0.11446890234947204590f, -0.04607108235359191895f, 0.00446851691231131554f, -0.10562365502119064331f, -0.08351973444223403931f},
  {-0.14191888272762298584f, -0.21709115803241729736f, 0.31436449289321899414f, -0.00108145445119589567f, -0.13080984354019165039f, 0.32933154702186584473f, 0.04788462817668914795f, 0.05337725952267646790f, 0.22254411876201629639f, 0.21421104669570922852f, 0.03876616433262825012f, -0.08790605515241622925f, 0.28296771645545959473f, 0.04315900057554244995f, -0.12043212354183197021f, 0.00113086286000907421f, -0.08658839762210845947f, -0.29208546876907348633f, -0.14380609989166259766f, -0.09223888814449310303f},
  {-0.09179977327585220337f, -0.01355499960482120514f, -0.35738837718963623047f, -0.02208051458001136780f, -0.03543660789728164673f, 0.29210281372070312500f, 0.03341643884778022766f, -0.08470097184181213379f, -0.12187145650386810303f, 0.01026878319680690765f, 0.00154448207467794418f, -0.01472629699856042862f, 0.18003907799720764160f, -0.10013110190629959106f, 0.14544892311096191406f, 0.02428660914301872253f, -0.23908607661724090576f, 0.17308235168457031250f, -0.00038019279600121081f, 0.07759194076061248779f},
  {-0.28561714291572570801f, -0.13858404755592346191f, -0.11731336265802383423f, 0.22956664860248565674f, -0.09240651130676269531f, 0.17703408002853393555f, 0.01093973033130168915f, 0.48960280418395996094f, 0.13336917757987976074f, 0.10546229034662246704f, -0.19636677205562591553f, -0.10489413142204284668f, -0.17011146247386932373f, 0.03368205949664115906f, -0.05382538586854934692f, 0.01623538322746753693f, -0.04807178303599357605f, -0.19364702701568603516f, 0.16314981877803802490f, 0.07992084324359893799f},
  {0.11734582483768463135f, -0.21698538959026336670f, 0.18615308403968811035f, -0.13506340980529785156f, 0.07004552334547042847f, -0.29288661479949951172f, -0.06200162693858146667f, 0.09430361539125442505f, -0.05044952407479286194f, 0.06911260634660720825f, 0.08696231245994567871f, 0.15413506329059600830f, -0.15999999642372131348f, -0.21858040988445281982f, -0.00588998897001147270f, -0.32552346587181091309f, -0.44706103205680847168f, 0.10344506055116653442f, -0.12514439225196838379f, -0.12808810174465179443f},
  {-0.18164195120334625244f, 0.07014436274766921997f, 0.20706909894943237305f, 0.04067955166101455688f, -0.07041320949792861938f, 0.13371177017688751221f, -0.04091684892773628235f, -0.00837606843560934067f, -0.09981545805931091309f, -0.07942314445972442627f, 0.12448946386575698853f, 0.05568654462695121765f, -0.29423320293426513672f, 0.10413076728582382202f, 0.00829956680536270142f, -0.05107505246996879578f, -0.29437464475631713867f, 0.04793809354305267334f, 0.08913382887840270996f, 0.17248392105102539062f},
  {0.03426261991262435913f, -0.08937966823577880859f, -0.30872482061386108398f, 0.34882730245590209961f, -0.11016626656055450439f, 0.04263800755143165588f, -0.11655338108539581299f, -0.08727335184812545776f, -0.02703843079507350922f, -0.06011610478162765503f, -0.07407392561435699463f, 0.07422569394111633301f, 0.08578718453645706177f, 0.20095914602279663086f, -0.02586925774812698364f, 0.26701840758323669434f, 0.13331405818462371826f, -0.06648161262273788452f, -0.10564476996660232544f, -0.07381843030452728271f},
  {0.00667181378230452538f, -0.13742883503437042236f, 0.12152313441038131714f, 0.09815564006567001343f, -0.09728366136550903320f, 0.04595911130309104919f, 0.07394658774137496948f, 0.24466392397880554199f, 0.01297024171799421310f, 0.22356030344963073730f, -0.14909295737743377686f, -0.22471368312835693359f, 0.18323124945163726807f, -0.04934104532003402710f, -0.06630766391754150391f, -0.18845850229263305664f, -0.06716325134038925171f, 0.02883451431989669800f, -0.00478134443983435631f, 0.13567021489143371582f},
  {-0.06350748986005783081f, 0.01518311444669961929f, 0.20871108770370483398f, 0.08530932664871215820f, -0.15821185708045959473f, 0.13421854376792907715f, -0.02935219369828701019f, -0.00722084194421768188f, 0.07640083879232406616f, 0.29023325443267822266f, 0.14604550600051879883f, 0.22423139214515686035f, 0.22860699892044067383f, -0.06918880343437194824f, 0.08179730176925659180f, 0.09541330486536026001f, 0.05936142802238464355f, 0.13335606455802917480f, -0.04504352435469627380f, -0.06821051239967346191f},
  {0.08187548071146011353f, 0.07485132664442062378f, -0.16696237027645111084f, 0.26259949803352355957f, -0.10977026820182800293f, -0.19287461042404174805f, 0.16241419315338134766f, -0.13121131062507629395f, 0.19269537925720214844f, 0.18453527987003326416f, -0.09934655576944351196f, -0.02278189361095428467f, -0.29482045769691467285f, -0.13199062645435333252f, -0.00270682689733803272f, 0.15765857696533203125f, -0.24439218640327453613f, 0.02808858826756477356f, 0.02906149812042713165f, 0.05667667463421821594f},
  {-0.25637325644493103027f, 0.11434680968523025513f, -0.06498033553361892700f, -0.24297100305557250977f, -0.06948970258235931396f, 0.14646716415882110596f, 0.12018332630395889282f, 0.02245911769568920135f, -0.17217440903186798096f, 0.09387816488742828369f, 0.07565838098526000977f, 0.13313536345958709717f, 0.20819197595119476318f, 0.00377538171596825123f, -0.05269354209303855896f, 0.07557245343923568726f, -0.20411358773708343506f, -0.05183529481291770935f, 0.24256521463394165039f, 0.08686912804841995239f},
  {-0.23300132155418395996f, 0.01624298095703125000f, -0.03319869562983512878f, 0.07490044832229614258f, 0.16880841553211212158f, 0.18769612908363342285f, -0.13620053231716156006f, -0.49881073832511901855f, -0.03921038284897804260f, 0.48321589827537536621f, -0.00057760439813137054f, -0.10268629342317581177f, -0.12762668728828430176f, -0.02596047148108482361f, 0.01990295760333538055f, 0.03232355788350105286f, 0.18321113288402557373f, -0.05496127158403396606f, -0.16449807584285736084f, -0.00800268817692995071f},
  {0.04180607944726943970f, -0.14831522107124328613f, -0.08112945407629013062f, -0.03891877084970474243f, -0.00777427386492490768f, 0.13017122447490692139f, -0.06434679776430130005f, -0.12961724400520324707f, 0.06422693282365798950f, -0.01356059871613979340f, 0.26369059085845947266f, 0.18630254268646240234f, -0.26963886618614196777f, 0.11113926023244857788f, -0.08181003481149673462f, 0.07430327683687210083f, 0.03897072747349739075f, 0.16682842373847961426f, -0.16680593788623809814f, 0.20412936806678771973f},
  {-0.08597812801599502563f, -0.24039675295352935791f, -0.33036735653877258301f, 0.06416311860084533691f, 0.03298505395650863647f, -0.07411925494670867920f, 0.06010662019252777100f, -0.03250212594866752625f, -0.24818861484527587891f, 0.43056297302246093750f, 0.07514448463916778564f, 0.03873768448829650879f, -0.06495467573404312134f, 0.05104806646704673767f, -0.10006812959909439087f, -0.21469970047473907471f, 0.06095633283257484436f, -0.17023193836212158203f, 0.04324917867779731750f, -0.10229852050542831421f},
  {-0.08288232237100601196f, -0.13142459094524383545f, -0.17612744867801666260f, 0.03683366626501083374f, -0.02711054868996143341f, 0.12838461995124816895f, 0.15029397606849670410f, 0.04217488318681716919f, 0.12257181853055953979f, -0.09246186912059783936f, -0.01747421920299530029f, 0.15158759057521820068f, -0.10022418946027755737f, 0.04579733312129974365f, -0.02996181882917881012f, -0.20551186800003051758f, 0.08330693840980529785f, 0.23356221616268157959f, -0.19244495034217834473f, 0.13189764320850372314f},
  {-0.11033671349287033081f, 0.03459019213914871216f, 0.23211421072483062744f, -0.19669984281063079834f, 0.02785351127386093140f, -0.04976727068424224854f, 0.08601090312004089355f, -0.36405178904533386230f, 0.12625080347061157227f, -0.12951587140560150146f, -0.05613877996802330017f, -0.13639545440673828125f, 0.17153407633304595947f, -0.04982437193393707275f, 0.05110145732760429382f, -0.03642206266522407532f, -0.04066107049584388733f, 0.56850647926330566406f, 0.05475542321801185608f, 0.02698391862213611603f},
  {-0.21479433774948120117f, 0.10491514950990676880f, -0.05013869330286979675f, 0.07949958741664886475f, -0.13066363334655761719f, 0.00092040013987571001f, -0.11674191802740097046f, 0.11643717437982559204f, -0.04067752137780189514f, -0.22272145748138427734f, 0.09967448562383651733f, -0.12951730191707611084f, -0.10830278694629669189f, -0.16353939473628997803f, 0.07303363084793090820f, -0.12374862283468246460f, 0.14124761521816253662f, 0.08848984539508819580f, -0.17199528217315673828f, -0.04197982326149940491f},
  {-0.16938683390617370605f, -0.06651681661605834961f, -0.07732707262039184570f, -0.24410694837570190430f, -0.14646121859550476074f, -0.29004880785942077637f, 0.05914294347167015076f, 0.03200813010334968567f, -0.06619844585657119751f, 0.17587967216968536377f, 0.00781931262463331223f, -0.04864757508039474487f, -0.02812033146619796753f, 0.07880698889493942261f, 0.20931215584278106689f, -0.04794343560934066772f, 0.14532843232154846191f, 0.00630822172388434410f, 0.06130408495664596558f, 0.02954200096428394318f},
  {0.14561779797077178955f, 0.03393230587244033813f, -0.05932681635022163391f, 0.19171220064163208008f, 0.09834264218807220459f, -0.04909918084740638733f, 0.19640579819679260254f, 0.19775545597076416016f, -0.05193306133151054382f, 0.05153336003422737122f, 0.23668803274631500244f, -0.13160389661788940430f, 0.06410893052816390991f, 0.11139608919620513916f, 0.12235102057456970215f, 0.00938515085726976395f, -0.08154627680778503418f, 0.21894869208335876465f, -0.03352114558219909668f, -0.11426552385091781616f},
  {0.14127913117408752441f, -0.14609058201313018799f, 0.05670356005430221558f, 0.19243131577968597412f, -0.01767134107649326324f, -0.09499478340148925781f, 0.17924042046070098877f, -0.16414196789264678955f, -0.13772933185100555420f, -0.16326329112052917480f, 0.11526317149400711060f, -0.01119555626064538956f, 0.04712194576859474182f, -0.14548273384571075439f, 0.04918879643082618713f, 0.06553031504154205322f, 0.18205726146697998047f, -0.10851442813873291016f, 0.02529556863009929657f, 0.17612716555595397949f},
  {-0.06345584988594055176f, -0.08371672779321670532f, -0.13892763853073120117f, -0.21855109930038452148f, -0.12720516324043273926f, 0.20080408453941345215f, 0.36919826269149780273f, -0.00512671936303377151f, 0.05829341337084770203f, 0.04540601000189781189f, 0.29265627264976501465f, -0.10029310733079910278f, -0.13295930624008178711f, 0.02900610491633415222f, -0.15019840002059936523f, 0.14241392910480499268f, -0.06141698732972145081f, -0.00424665259197354317f, 0.00814001820981502533f, -0.03442136943340301514f},
  {-0.27711075544357299805f, -0.15245236456394195557f, 0.07348391413688659668f, 0.01726001873612403870f, 0.18977297842502593994f, -0.20777344703674316406f, 0.28450897336006164551f, -0.27417925000190734863f, -0.07868802547454833984f, 0.03417771682143211365f, 0.06158839538693428040f, 0.06686510890722274780f, 0.18313685059547424316f, 0.10750820487737655640f, 0.09385997802019119263f, -0.00756503874436020851f, -0.11100006103515625000f, -0.05928450822830200195f, -0.12281933426856994629f, 0.09171078354120254517f},
  {0.04304486140608787537f, -0.07209443300962448120f, -0.01609843224287033081f, -0.15474230051040649414f, 0.10901505500078201294f, 0.19298556447029113770f, -0.06987679004669189453f, 0.18384960293769836426f, 0.24579377472400665283f, -0.06678594648838043213f, 0.04926560819149017334f, -0.00847173109650611877f, -0.01154839806258678436f, -0.07735492289066314697f, 0.17625647783279418945f, 0.04120246320962905884f, 0.01330121140927076340f, 0.00203875149600207806f, 0.09646615386009216309f, 0.13536885380744934082f},
  {0.16883400082588195801f, -0.10507331788539886475f, -0.21200615167617797852f, -0.07594658434391021729f, 0.01093338988721370697f, -0.01299944799393415451f, -0.36164060235023498535f, -0.00660104816779494286f, -0.12225475162267684937f, -0.01845794543623924255f, -0.09746784716844558716f, -0.12196123600006103516f, -0.01907637715339660645f, 0.00002960414349217899f, -0.01637356355786323547f, 0.06964188069105148315f, 0.00487789791077375412f, 0.21337746083736419678f, 0.18114455044269561768f, -0.09182531386613845825f},
  {0.34001973271369934082f, 0.04117427393794059753f, -0.04024344682693481445f, -0.04941987618803977966f, -0.12011044472455978394f, 0.07986781001091003418f, -0.12277807295322418213f, -0.28467109799385070801f, 0.07506971061229705811f, 0.01172108389437198639f, 0.21082203090190887451f, -0.11453976482152938843f, 0.03763547539710998535f, 0.07355288416147232056f, 0.05901689827442169189f, -0.23635645210742950439f, -0.13712948560714721680f, -0.09788106381893157959f, -0.09324943274259567261f, 0.04115221649408340454f}
};
static const float tensor__Decoder__layers_0_bias[32] = 
{0.00396747142076492310f, -0.00013718126865569502f, -0.00447074649855494499f, -0.00974707957357168198f, 0.04396975785493850708f, 0.05648093298077583313f, -0.01674532145261764526f, 0.01824412867426872253f, 0.06608564406633377075f, -0.00495734531432390213f, -0.00431993184611201286f, 0.05517704039812088013f, 0.09890298545360565186f, 0.13616687059402465820f, 0.04096499830484390259f, -0.01716816797852516174f, 0.03848726674914360046f, 0.05985049530863761902f, 0.00270005664788186550f, 0.03366647288203239441f, 0.11701818555593490601f, 0.01199521776288747787f, 0.05741271004080772400f, 0.08694887906312942505f, -0.02613499946892261505f, -0.00609671697020530701f, 0.04970872402191162109f, 0.09248534590005874634f, -0.01775663159787654877f, -0.00992176681756973267f, 0.03476257249712944031f, 0.08015611767768859863f};
static const float tensor__Decoder__layers_1_l0_weight[32][32] = 
{
  {0.02671411633491516113f, 0.21753250062465667725f, 0.06948644667863845825f, 0.23628230392932891846f, 0.13413096964359283447f, -0.04887490719556808472f, -0.00000062787387378194f, 0.01139748096466064453f, 0.09696822613477706909f, -0.24360752105712890625f, 0.25350999832153320312f, 0.10926277935504913330f, 0.07049208134412765503f, -0.01087490003556013107f, 0.04448060691356658936f, -0.10404584556818008423f, 0.06679772585630416870f, -0.14945633709430694580f, -0.13356293737888336182f, 0.14295896887779235840f, 0.10139543563127517700f, 0.05959441512823104858f, -0.10811934620141983032f, -0.03561661019921302795f, -0.15849424898624420166f, -0.06691516935825347900f, 0.02063152007758617401f, 0.12398532778024673462f, 0.02539486251771450043f, -0.08755136281251907349f, -0.13258704543113708496f, -0.16439794003963470459f},
  {0.13572424650192260742f, -0.07915749400854110718f, 0.00763725722208619118f, -0.07295860350131988525f, -0.05482644587755203247f, 0.29132547974586486816f, 0.15393424034118652344f, -0.06447102874517440796f, 0.02593406289815902710f, -0.01502298004925251007f, -0.05468293651938438416f, -0.09478772431612014771f, -0.07497775554656982422f, 0.01759427785873413086f, -0.03196212276816368103f, -0.00619104225188493729f, -0.20375648140907287598f, -0.16703078150749206543f, -0.16761668026447296143f, -0.03643859177827835083f, -0.48809376358985900879f, 0.20555408298969268799f, 0.10232654958963394165f, 0.05385658890008926392f, 0.11015263199806213379f, 0.04682419449090957642f, -0.08771924674510955811f, 0.04480761662125587463f, 0.00397935369983315468f, 0.09664131700992584229f, 0.06071539595723152161f, 0.00903188902884721756f},
  {-0.08323114365339279175f, -0.29162299633026123047f, -0.11619173735380172729f, -0.07081247866153717041f, -0.07599181681871414185f, 0.40938594937324523926f, -0.19953542947769165039f, 0.09247147291898727417f, 0.05742171779274940491f, 0.00830181036144495010f, 0.05214069411158561707f, 0.13870383799076080322f, 0.15972417593002319336f, 0.21789427101612091064f, -0.25738778710365295410f, 0.15096245706081390381f, -0.08591259270906448364f, -0.24522115290164947510f, -0.00952655076980590820f, -0.16065548360347747803f, -0.10630276054143905640f, -0.13796189427375793457f, -0.18894858658313751221f, 0.19025184214115142822f, 0.12160961329936981201f, 0.39194294810295104980f, -0.13729983568191528320f, -0.34918943047523498535f, -0.00417527137324213982f, 0.11016518622636795044f, -0.08446352183818817139f, -0.14102998375892639160f},
  {-0.15013141930103302002f, -0.07514354586601257324f, -0.16580751538276672363f, -0.00262138596735894680f, 0.04520703107118606567f, -0.42884197831153869629f, -0.10767065733671188354f, 0.04114169999957084656f, -0.02591140009462833405f, -0.10609146952629089355f, 0.01472186669707298279f, -0.09271351993083953857f, 0.08750154078006744385f, -0.01977666281163692474f, -0.01158361788839101791f, -0.10485998541116714478f, -0.16875083744525909424f, -0.02355273999273777008f, 0.02828664705157279968f, -0.06350121647119522095f, 0.03904263675212860107f, -0.12540833652019500732f, 0.05477356538176536560f, -0.07983634620904922485f, -0.16537360846996307373f, -0.08569141477346420288f, -0.07610532641410827637f, -0.10662988573312759399f, -0.30983933806419372559f, -0.16652494668960571289f, 0.29031199216842651367f, 0.10304391384124755859f},
  {0.15065589547157287598f, -0.17488248646259307861f, 0.00164282403420656919f, 0.07305993139743804932f, 0.14940668642520904541f, -0.03850283101201057434f, -0.11072315275669097900f, -0.10318188369274139404f, -0.00030428869649767876f, -0.01242591347545385361f, -0.07868150621652603149f, -0.04593975096940994263f, 0.12715643644332885742f, -0.04487331956624984741f, -0.01039028260856866837f, 0.04188197851181030273f, -0.62754696607589721680f, 0.15069317817687988281f, 0.10551358014345169067f, 0.35179105401039123535f, -0.03073633089661598206f, 0.28482905030250549316f, 0.08679883927106857300f, 0.12704305350780487061f, 0.04022308811545372009f, 0.18643514811992645264f, -0.02826274372637271881f, 0.35555675625801086426f, 0.03497810661792755127f, -0.04452248290181159973f, -0.10743926465511322021f, 0.00994525570422410965f},
  {-0.01818322576582431793f, 0.16623789072036743164f, -0.13651846349239349365f, 0.21522450447082519531f, -0.14587511122226715088f, -0.17338488996028900146f, 0.14153999090194702148f, 0.05741856619715690613f, -0.06194942072033882141f, -0.08329586684703826904f, 0.01202710345387458801f, -0.03867189586162567139f, -0.03630651906132698059f, 0.08263597637414932251f, -0.01289464347064495087f, 0.07645080983638763428f, 0.01008937973529100418f, -0.05238538980484008789f, 0.08899744600057601929f, 0.09004087001085281372f, -0.05635228008031845093f, 0.22239482402801513672f, 0.06968498975038528442f, -0.18796750903129577637f, -0.15134610235691070557f, -0.02229933813214302063f, -0.15072576701641082764f, -0.46871522068977355957f, -0.02164894156157970428f, 0.16636535525321960449f, -0.02902593649923801422f, -0.03538813069462776184f},
  {-0.06241370737552642822f, -0.21584871411323547363f, -0.00865390710532665253f, -0.19297584891319274902f, 0.23683109879493713379f, -0.14837837219238281250f, -0.60577279329299926758f, 0.05466271564364433289f, -0.03510368242859840393f, 0.04370287060737609863f, -0.20351621508598327637f, 0.33912840485572814941f, -0.00349324056878685951f, 0.01084865443408489227f, 0.04770558699965476990f, 0.08895631134510040283f, -0.05132486298680305481f, -0.09399296343326568604f, 0.37251758575439453125f, -0.01548446621745824814f, 0.03478163853287696838f, -0.43176820874214172363f, -0.00366209493950009346f, -0.02572987228631973267f, -0.04024126753211021423f, 0.12352895736694335938f, -0.20653769373893737793f, -0.41414675116539001465f, -0.51230305433273315430f, 0.17094779014587402344f, 0.43066123127937316895f, 0.12943515181541442871f},
  {-0.10191649943590164185f, 0.29699394106864929199f, 0.17470946907997131348f, 0.06096892803907394409f, -0.06940195709466934204f, -0.03937681019306182861f, -0.20129822194576263428f, 0.20653486251831054688f, 0.24523484706878662109f, -0.18350499868392944336f, 0.01319408882409334183f, 0.15670993924140930176f, -0.06772865355014801025f, 0.33980610966682434082f, 0.19695642590522766113f, 0.03039078414440155029f, 0.10737558454275131226f, -0.16577655076980590820f, -0.36796361207962036133f, -0.01587396301329135895f, 0.06663762032985687256f, -0.17488248646259307861f, 0.09610986709594726562f, -0.39072728157043457031f, -0.05753064900636672974f, 0.17238825559616088867f, 0.25990617275238037109f, 0.21898566186428070068f, 0.01108635123819112778f, -0.20703314244747161865f, 0.17742662131786346436f, -0.03709477931261062622f},
  {0.10710656642913818359f, 0.02760023437440395355f, -0.89661258459091186523f, -0.12233060598373413086f, -0.01737320236861705780f, -0.00513862818479537964f, 0.21680484712123870850f, -0.17054471373558044434f, 0.18553785979747772217f, -0.01936868391931056976f, -0.28141614794731140137f, 0.10579606145620346069f, -0.60725468397140502930f, -0.34813988208770751953f, 0.01257431227713823318f, 0.24720107018947601318f, -0.07667068392038345337f, -0.14274126291275024414f, -0.18997031450271606445f, -0.48436459898948669434f, 0.09562684595584869385f, 0.13068228960037231445f, 0.32602971792221069336f, 0.06852144002914428711f, 0.16744126379489898682f, 0.07761343568563461304f, 0.21891312301158905029f, -0.09153809398412704468f, 0.02758014388382434845f, -0.11103853583335876465f, -0.16704146564006805420f, 0.32446342706680297852f},
  {-0.10365653783082962036f, -0.19306854903697967529f, 0.26996502280235290527f, 0.24612820148468017578f, 0.02126407995820045471f, 0.15032966434955596924f, -0.09684035181999206543f, -0.19359396398067474365f, 0.18625187873840332031f, -0.12175616621971130371f, -0.07565687596797943115f, 0.02915841899812221527f, 0.13919150829315185547f, 0.02421175874769687653f, 0.11423072963953018188f, -0.54125237464904785156f, -0.47457358241081237793f, -0.04629730805754661560f, -0.08158202469348907471f, 0.02676829695701599121f, 0.05581285804510116577f, 0.14348334074020385742f, -0.21762722730636596680f, 0.14684951305389404297f, 0.01722123473882675171f, -0.02532702684402465820f, -0.27855336666107177734f, -0.07201919704675674438f, 0.03130589053034782410f, -0.53768676519393920898f, 0.02309909649193286896f, 0.40870523452758789062f},
  {0.17193877696990966797f, 0.14743855595588684082f, -0.10604386776685714722f, -0.02973510511219501495f, 0.13357810676097869873f, 0.02036611549556255341f, 0.06806920468807220459f, -0.03326259553432464600f, 0.16068321466445922852f, 0.01522106770426034927f, 0.02936135418713092804f, 0.10366693884134292603f, -0.13202296197414398193f, -0.03783357143402099609f, 0.20489759743213653564f, -0.97995203733444213867f, -0.34454029798507690430f, -0.13282935321331024170f, -0.00917556695640087128f, 0.03018558397889137268f, 0.21429675817489624023f, 0.20640699565410614014f, -0.00457181455567479134f, -0.03677726164460182190f, -0.38990628719329833984f, 0.01728600077331066132f, -0.04616491124033927917f, -0.00996441859751939774f, 0.08773843944072723389f, 0.01236392930150032043f, 0.28900501132011413574f, 0.05598391592502593994f},
  {-0.27146241068840026855f, -0.37731069326400756836f, -0.06188610196113586426f, 0.02905689179897308350f, -0.11082269996404647827f, 0.18793734908103942871f, -0.38395100831985473633f, -0.14939552545547485352f, -0.01961923018097877502f, 0.27916455268859863281f, 0.40716266632080078125f, 0.08873713761568069458f, -0.14564476907253265381f, -0.36416313052177429199f, 0.36485266685485839844f, -0.42563700675964355469f, 0.25087198615074157715f, 0.12338239699602127075f, -0.20743381977081298828f, -0.06824339926242828369f, 0.00666930992156267166f, 0.37245973944664001465f, 0.34270891547203063965f, 0.02743766456842422485f, 0.00704347854480147362f, -0.32617512345314025879f, 0.04825574904680252075f, 0.09640136361122131348f, 0.02659712173044681549f, 0.32496035099029541016f, 0.23292958736419677734f, -0.41122987866401672363f},
  {-0.28986725211143493652f, 0.21867540478706359863f, -0.47039496898651123047f, 0.20239467918872833252f, 0.09982623159885406494f, -0.39435821771621704102f, -0.02701750583946704865f, 0.06287645548582077026f, -0.18417692184448242188f, -0.14218734204769134521f, 0.24787671864032745361f, 0.07659788429737091064f, 0.06518040597438812256f, 0.25008720159530639648f, -0.11046086251735687256f, 0.23040366172790527344f, 0.22740103304386138916f, -0.09203352034091949463f, 0.00251313485205173492f, 0.15270975232124328613f, 0.47669279575347900391f, 0.17580720782279968262f, -0.46130436658859252930f, 0.06411723792552947998f, 0.18520162999629974365f, -0.25628224015235900879f, -0.01193526387214660645f, 0.30852296948432922363f, -0.15841680765151977539f, -0.27130928635597229004f, -0.42620331048965454102f, -0.17131139338016510010f},
  {0.04326048493385314941f, 0.16168962419033050537f, 0.03792576864361763000f, -0.08823813498020172119f, -0.05959878116846084595f, 0.14604113996028900146f, 0.09567149728536605835f, -0.01476430520415306091f, 0.01693170517683029175f, 0.00084340292960405350f, -0.03807735070586204529f, 0.05839318409562110901f, 0.05462540686130523682f, 0.03601562976837158203f, -0.02566391788423061371f, 0.05442408844828605652f, 0.09244767576456069946f, -0.05901847779750823975f, 0.04959829151630401611f, 0.07142065465450286865f, 0.02736382931470870972f, 0.08036131411790847778f, -0.00610244367271661758f, 0.06276709586381912231f, 0.02769445814192295074f, 0.13651755452156066895f, -0.06664726883172988892f, 0.09962607920169830322f, 0.13445815443992614746f, 0.12882617115974426270f, 0.18514479696750640869f, -0.03796359524130821228f},
  {-0.03484563529491424561f, -0.15154074132442474365f, -0.03200198709964752197f, 0.00084432284347712994f, -0.04041573405265808105f, 0.13840019702911376953f, 0.16149370372295379639f, 0.02597459033131599426f, -0.08777538686990737915f, -0.04508996009826660156f, 0.05659371986985206604f, 0.10760120302438735962f, 0.03015195764601230621f, 0.04529606550931930542f, -0.02632683515548706055f, 0.00152624829206615686f, 0.00644358852878212929f, 0.02530111744999885559f, 0.05425995588302612305f, 0.01656066440045833588f, -0.11701025813817977905f, 0.07181816548109054565f, -0.05357121676206588745f, 0.00594852305948734283f, 0.06739013642072677612f, 0.09010574221611022949f, 0.02088688500225543976f, -0.00957711320370435715f, 0.12286429852247238159f, 0.08401338011026382446f, 0.12324785441160202026f, 0.02326600439846515656f},
  {0.12516234815120697021f, 0.06684643030166625977f, -0.05755936354398727417f, 0.13982798159122467041f, 0.05688209831714630127f, 0.05883186310529708862f, 0.16022306680679321289f, 0.02791537158191204071f, -0.00272740283980965614f, 0.04936925694346427917f, -0.08003814518451690674f, 0.09864838421344757080f, 0.02041862346231937408f, 0.12826919555664062500f, -0.00795801356434822083f, 0.00800962653011083603f, -0.02161039412021636963f, -0.01049959007650613785f, 0.07599259912967681885f, 0.02983680553734302521f, 0.15322051942348480225f, -0.00997508503496646881f, -0.04245636612176895142f, 0.01290280278772115707f, -0.06916721910238265991f, -0.12078377604484558105f, -0.07420041412115097046f, -0.30355763435363769531f, 0.24675007164478302002f, 0.26502242684364318848f, 0.05796123296022415161f, 0.04120154678821563721f},
  {0.01532980892807245255f, 0.08623699098825454712f, -0.14245469868183135986f, -0.16434566676616668701f, 0.07554261386394500732f, 0.05845513194799423218f, 0.00168041116558015347f, -0.00177167390938848257f, -0.07410247623920440674f, -0.01405411120504140854f, -0.07388391345739364624f, 0.16213355958461761475f, 0.12194512039422988892f, -0.19809190928936004639f, -0.23413433134555816650f, 0.06228452175855636597f, 0.07507891952991485596f, 0.04481647536158561707f, 0.16757477819919586182f, 0.06050325557589530945f, -0.12836250662803649902f, 0.06693490594625473022f, -0.02747481130063533783f, 0.00829646456986665726f, 0.01093508396297693253f, 0.01845593564212322235f, -0.13165558874607086182f, 0.19615316390991210938f, 0.08379770070314407349f, 0.13975767791271209717f, -0.02087248302996158600f, -0.08922417461872100830f},
  {0.08064463734626770020f, -0.15781119465827941895f, 0.14270640909671783447f, 0.00151089485734701157f, 0.25601994991302490234f, 0.24421061575412750244f, -0.30528855323791503906f, -0.18899944424629211426f, -0.29055222868919372559f, -0.07631886750459671021f, -0.16437219083309173584f, -0.03996104747056961060f, 0.20682393014430999756f, -0.00004926963083562441f, -0.16593557596206665039f, -0.13654488325119018555f, 0.02021748386323451996f, -0.01958796568214893341f, -0.00044942411477677524f, 0.09167785942554473877f, -0.82985413074493408203f, 0.03138122707605361938f, 0.16920541226863861084f, 0.20711523294448852539f, -0.02988234907388687134f, -0.63411968946456909180f, 0.02567363716661930084f, -0.19865725934505462646f, -0.06853222846984863281f, -0.17643594741821289062f, -0.24854710698127746582f, 0.01546131633222103119f},
  {0.10309521108865737915f, -0.01899624615907669067f, -0.04875621944665908813f, -0.38213735818862915039f, -0.54487806558609008789f, 0.08986479789018630981f, -0.22917732596397399902f, -0.01763431541621685028f, 0.27395582199096679688f, -0.09358140826225280762f, 0.10900609940290451050f, 0.02783137932419776917f, 0.16005080938339233398f, -0.08588094264268875122f, -0.05728036910295486450f, 0.11419714987277984619f, -0.16484741866588592529f, -0.01768776401877403259f, 0.09056728333234786987f, 0.22226114571094512939f, 0.09831727296113967896f, -0.11222887039184570312f, -0.16686441004276275635f, -0.03676750138401985168f, 0.06777274608612060547f, -0.33824700117111206055f, 0.11468829959630966187f, -0.38790151476860046387f, 0.08938420563936233521f, 0.09788125753402709961f, 0.04630042240023612976f, 0.10731099545955657959f},
  {0.27533057332038879395f, 0.15667162835597991943f, 0.27553939819335937500f, -0.17545376718044281006f, -0.67684417963027954102f, -0.61814540624618530273f, 0.37560823559761047363f, -0.03406104445457458496f, -0.34513476490974426270f, -0.11149282753467559814f, 0.00325704156421124935f, 0.14342275261878967285f, 0.10896717011928558350f, -0.19763457775115966797f, -0.05411605536937713623f, -0.29025170207023620605f, 0.08873880654573440552f, -0.17637833952903747559f, -0.25882753729820251465f, 0.20552302896976470947f, 0.06994526833295822144f, 0.27549347281455993652f, -0.28846886754035949707f, 0.07640341669321060181f, -0.05464257672429084778f, 0.43590384721755981445f, 0.13095724582672119141f, -0.00384743954055011272f, -0.17978069186210632324f, 0.19178692996501922607f, -0.30675533413887023926f, 0.14158061146736145020f},
  {0.11829829216003417969f, -0.14065779745578765869f, 0.04693458974361419678f, 0.14477369189262390137f, 0.05329611152410507202f, -0.23319290578365325928f, -0.00712232245132327080f, -0.15673896670341491699f, -0.00672601396217942238f, -0.07613730430603027344f, 0.05313426256179809570f, -0.41467425227165222168f, -0.08801396936178207397f, 0.01362773030996322632f, 0.04997897893190383911f, -0.05641731619834899902f, -0.00447926903143525124f, 0.15450526773929595947f, -0.16321736574172973633f, -0.02969383262097835541f, -0.05878166109323501587f, -0.36282250285148620605f, -0.11181799322366714478f, 0.02645341493189334869f, -0.01904152147471904755f, -0.28846827149391174316f, 0.16122247278690338135f, 0.17627149820327758789f, -0.30466365814208984375f, -0.08722575008869171143f, 0.03334885835647583008f, -0.06930311769247055054f},
  {-0.08336027711629867554f, -0.24125206470489501953f, 0.14818754792213439941f, 0.25526639819145202637f, -0.41462445259094238281f, -0.10041835159063339233f, -0.10873147100210189819f, -0.11779589205980300903f, 0.25312602519989013672f, -0.05832912772893905640f, 0.08879151940345764160f, -0.38494148850440979004f, 0.08052220940589904785f, -0.03928964212536811829f, 0.14960657060146331787f, 0.05928952246904373169f, 0.10360621660947799683f, -0.23035135865211486816f, 0.32060399651527404785f, -0.01211432740092277527f, -0.12112183123826980591f, 0.00316952192224562168f, 0.36522811651229858398f, -0.06361697614192962646f, 0.03742869943380355835f, 0.43706810474395751953f, -0.12952513992786407471f, -0.06909258663654327393f, 0.01690765656530857086f, 0.11529016494750976562f, -0.00331564480438828468f, 0.10132340341806411743f},
  {0.03419240191578865051f, 0.35411995649337768555f, 0.00770973460748791695f, 0.02021024003624916077f, 0.03856568783521652222f, -0.02411723136901855469f, 0.50049710273742675781f, -0.05179905518889427185f, -0.13768889009952545166f, -0.01085389312356710434f, -0.03597373887896537781f, -0.13712267577648162842f, 0.33365574479103088379f, -0.16219714283943176270f, 0.00367108569480478764f, -0.00229159300215542316f, -0.09056590497493743896f, 0.28806233406066894531f, -0.01803103834390640259f, -0.51668435335159301758f, -0.04559110850095748901f, -0.58457058668136596680f, -0.18096086382865905762f, 0.07369009405374526978f, 0.11794794350862503052f, -0.27797558903694152832f, -0.07252997159957885742f, -0.71727228164672851562f, 0.16459409892559051514f, -0.43701884150505065918f, -0.24526904523372650146f, -0.39512759447097778320f},
  {0.01438993774354457855f, 0.03695681691169738770f, -0.08148676156997680664f, -0.04307683557271957397f, -0.00870290864259004593f, 0.07627586275339126587f, 0.03930659964680671692f, 0.02268606051802635193f, -0.05015363544225692749f, 0.03763837739825248718f, 0.01001515332609415054f, 0.03305364027619361877f, -0.05130255594849586487f, -0.03227455914020538330f, -0.03123839385807514191f, 0.03636173158884048462f, 0.15137472748756408691f, -0.03239534422755241394f, 0.00955830048769712448f, -0.06800897419452667236f, 0.11060418188571929932f, 0.01898934878408908844f, 0.13077940046787261963f, -0.07203078269958496094f, 0.08894020318984985352f, -0.03276668116450309753f, -0.04210752993822097778f, -0.02531989291310310364f, -0.21259558200836181641f, 0.13498994708061218262f, -0.18329441547393798828f, 0.01759367436170578003f},
  {0.03282988443970680237f, 0.05878114700317382812f, 0.06953255087137222290f, 0.02798079885542392731f, 0.28925147652626037598f, 0.15253663063049316406f, 0.14100791513919830322f, 0.15374077856540679932f, -0.30002084374427795410f, 0.09322831034660339355f, -0.05299575626850128174f, -0.43599662184715270996f, -0.62569689750671386719f, 0.31266704201698303223f, -0.23027360439300537109f, -0.42996069788932800293f, 0.03086946532130241394f, -0.38190865516662597656f, 0.13837198913097381592f, -0.26392626762390136719f, 0.07643973827362060547f, -0.20728377997875213623f, -0.05532028153538703918f, 0.16893896460533142090f, -0.12543345987796783447f, 0.33192247152328491211f, 0.11079097539186477661f, 0.14115196466445922852f, -0.04283621907234191895f, -0.03604247421026229858f, 0.17230761051177978516f, -0.41247680783271789551f},
  {0.47783470153808593750f, -0.40637007355690002441f, 0.10190588980913162231f, 0.08782020211219787598f, 0.42981418967247009277f, 0.01551433559507131577f, -0.00396092934533953667f, -0.12585172057151794434f, -0.15896297991275787354f, 0.05343165993690490723f, -0.05653833597898483276f, 0.13693799078464508057f, -0.01033667288720607758f, -0.36457753181457519531f, 0.01731671579182147980f, -0.12654960155487060547f, 0.01213801093399524689f, 0.13497559726238250732f, 0.38498553633689880371f, 0.00787785835564136505f, 0.14603686332702636719f, -0.16255776584148406982f, -0.14839768409729003906f, 0.02836475335061550140f, 0.05259127914905548096f, -0.03727220743894577026f, 0.08202134072780609131f, 0.02517221495509147644f, 0.32622411847114562988f, 0.17237929999828338623f, -0.26047250628471374512f, -0.13732515275478363037f},
  {0.07555890083312988281f, -0.52310746908187866211f, 0.06341154128313064575f, 0.02195109613239765167f, -0.24592688679695129395f, 0.22256889939308166504f, -0.07985922694206237793f, -0.10807386040687561035f, 0.05950877815485000610f, 0.11692503094673156738f, 0.13843894004821777344f, -0.27377712726593017578f, -0.27608162164688110352f, 0.54627496004104614258f, -0.07467176020145416260f, 0.02948608994483947754f, -0.16105814278125762939f, 0.13745021820068359375f, -0.05869455635547637939f, 0.01141074392944574356f, 0.02636946924030780792f, 0.05004327744245529175f, -0.32781624794006347656f, 0.04504033178091049194f, -0.01297858729958534241f, 0.09349554032087326050f, 0.12387960404157638550f, 0.01466395240277051926f, 0.16454415023326873779f, 0.00768344616517424583f, -0.10989621281623840332f, -0.12035005539655685425f},
  {-0.16796058416366577148f, 0.16026556491851806641f, 0.20217370986938476562f, 0.23252514004707336426f, -0.16536793112754821777f, -0.29440933465957641602f, 0.32694882154464721680f, 0.14317667484283447266f, 0.20662769675254821777f, 0.04140040278434753418f, -0.25788816809654235840f, -0.60646754503250122070f, -0.17232631146907806396f, 0.03027443401515483856f, 0.02264899015426635742f, 0.12739446759223937988f, 0.16308175027370452881f, 0.07074963301420211792f, 0.33942338824272155762f, 0.26803040504455566406f, -0.01141985785216093063f, 0.03363199532032012939f, 0.03012834116816520691f, -0.25597414374351501465f, -0.18947242200374603271f, -0.99682325124740600586f, 0.07352686673402786255f, -0.02960559166967868805f, 0.03286892548203468323f, -0.00631502689793705940f, -0.00949436519294977188f, 0.21310769021511077881f},
  {0.38080626726150512695f, 0.19956728816032409668f, 0.12084003537893295288f, 0.13744446635246276855f, 0.16119873523712158203f, 0.17916226387023925781f, 0.00175833387766033411f, 0.03603461384773254395f, 0.63238108158111572266f, -0.07426556944847106934f, 0.42919209599494934082f, -0.01010342687368392944f, 0.09881654381752014160f, 0.21710790693759918213f, 0.26413905620574951172f, -0.06045203655958175659f, -0.01408839132636785507f, 0.02550931088626384735f, -0.35159653425216674805f, -0.14285798370838165283f, -0.14533448219299316406f, -0.22220404446125030518f, -0.44622287154197692871f, -0.07921060919761657715f, -0.18422101438045501709f, 0.11386361718177795410f, 0.03144282847642898560f, 0.29127386212348937988f, -0.37336605787277221680f, 0.24028372764587402344f, -0.16843856871128082275f, 0.08566731214523315430f},
  {-0.01123766880482435226f, 0.27087664604187011719f, 0.22643037140369415283f, -0.03655783832073211670f, -0.03212161362171173096f, 0.08251971006393432617f, -0.20880270004272460938f, 0.03244125097990036011f, 0.02044757828116416931f, 0.05563084036111831665f, -0.16167050600051879883f, 0.19473578035831451416f, 0.07142391055822372437f, -0.06857204437255859375f, 0.10133811086416244507f, -0.11540145426988601685f, 0.08420752733945846558f, 0.02939411066472530365f, -0.00169995916076004505f, 0.33825936913490295410f, -0.16241276264190673828f, -0.02463007718324661255f, -0.02894634939730167389f, -0.20070438086986541748f, -0.12416458129882812500f, 0.32760012149810791016f, 0.21339511871337890625f, -0.05122921243309974670f, 0.76206278800964355469f, -0.15769962966442108154f, 0.15143388509750366211f, 0.01164188981056213379f},
  {-0.45870125293731689453f, 0.44634014368057250977f, -0.21942065656185150146f, 0.08996170014142990112f, -0.16140982508659362793f, 0.01623782701790332794f, 0.33941140770912170410f, -0.00422702124342322350f, -0.23547194898128509521f, 0.23273766040802001953f, -0.03218519315123558044f, -0.28309592604637145996f, 0.19042418897151947021f, 0.08737074583768844604f, -0.32836520671844482422f, 0.03427094966173171997f, -0.30012342333793640137f, 0.54105353355407714844f, -0.27015557885169982910f, -0.05682645738124847412f, -0.23546060919761657715f, -0.45762532949447631836f, -0.12844236195087432861f, -0.09186398983001708984f, 0.14615322649478912354f, 0.20958791673183441162f, -0.18343880772590637207f, 0.21266193687915802002f, -0.14854936301708221436f, 0.03000324591994285583f, -0.06502372026443481445f, 0.27127534151077270508f},
  {0.29697623848915100098f, -0.24812169373035430908f, 0.23908460140228271484f, -0.33416455984115600586f, 0.18325823545455932617f, -0.36067438125610351562f, -0.05694482475519180298f, -0.11731550842523574829f, 0.01141402963548898697f, -0.08047131448984146118f, -0.19475045800209045410f, 0.14838719367980957031f, -0.22891156375408172607f, -0.04573482647538185120f, -0.06946775317192077637f, 0.16780906915664672852f, -0.02430225722491741180f, 0.33113384246826171875f, -0.41238281130790710449f, 0.13501402735710144043f, 0.17107875645160675049f, -0.19999848306179046631f, 0.09812547266483306885f, -0.00148329220246523619f, 0.12352807819843292236f, -0.20394508540630340576f, 0.24816502630710601807f, 0.47472640872001647949f, -0.20377732813358306885f, -0.41636061668395996094f, 0.07676881551742553711f, -0.36348015069961547852f}
};
static const float tensor__Decoder__layers_1_l0_bias[32] = 
{-0.20237746834754943848f, -0.01687568798661231995f, -0.11883460730314254761f, -0.05614073202013969421f, -0.00388998887501657009f, 0.02052947878837585449f, 0.03155032545328140259f, -0.05047310888767242432f, -0.03784859180450439453f, 0.05946834757924079895f, 0.12948574125766754150f, -0.05948702618479728699f, 0.06152585148811340332f, 0.00805607065558433533f, 0.09234758466482162476f, 0.00734684523195028305f, -0.02003390341997146606f, -0.01154797431081533432f, 0.03936427831649780273f, -0.04397439584136009216f, -0.10742847621440887451f, 0.03713507950305938721f, 0.09556935727596282959f, -0.00244708731770515442f, 0.08596234023571014404f, -0.01321159210056066513f, 0.03391692414879798889f, -0.03565208986401557922f, -0.04625435173511505127f, -0.00020688647055067122f, 0.03757591545581817627f, -0.01216684002429246902f};
static const float tensor__Decoder__layers_1_l1_weight[32][32] = 
{
  {-0.08518383651971817017f, -0.30425673723220825195f, -0.07341306656599044800f, 0.30367502570152282715f, -0.23437178134918212891f, 0.05289719253778457642f, -0.26372095942497253418f, -1.25299620628356933594f, 0.20372366905212402344f, 0.41752007603645324707f, -0.07647148519754409790f, -1.14278817176818847656f, 0.32648807764053344727f, -0.23524375259876251221f, -0.25468966364860534668f, -0.12830603122711181641f, -0.25503149628639221191f, -0.15802642703056335449f, -0.27836450934410095215f, -1.02746820449829101562f, 0.39036434888839721680f, -0.32152011990547180176f, -0.18555304408073425293f, -0.38220643997192382812f, -0.52638942003250122070f, -0.12014532834291458130f, -0.44967049360275268555f, -0.27673026919364929199f, -0.41788929700851440430f, 0.40009549260139465332f, 0.16730445623397827148f, -1.59274590015411376953f},
  {-0.40764027833938598633f, 0.13990435004234313965f, 0.11893665045499801636f, -0.10619816184043884277f, 0.05980603024363517761f, 0.11354842782020568848f, 0.04112230986356735229f, -0.30847311019897460938f, 0.00596634484827518463f, 0.25903442502021789551f, 0.15151245892047882080f, 0.20144785940647125244f, -0.34785872697830200195f, -0.06999859213829040527f, 0.15579350292682647705f, -0.05955285578966140747f, 0.03032113052904605865f, -0.27345657348632812500f, 0.00843343045562505722f, -0.06977844983339309692f, -0.09768440574407577515f, 0.32250306010246276855f, -0.27213132381439208984f, 0.03267272561788558960f, -0.13183315098285675049f, -0.04330449178814888000f, 0.52390283346176147461f, 0.08286868035793304443f, -0.37251269817352294922f, -0.24260695278644561768f, -0.27056235074996948242f, 0.44599118828773498535f},
  {-0.02524281665682792664f, 0.04719134047627449036f, 0.07540732622146606445f, 0.04448745772242546082f, 0.08212802559137344360f, 0.05836035683751106262f, 0.09512818604707717896f, 0.09378411620855331421f, 0.10696864873170852661f, 0.09248762577772140503f, 0.11104083806276321411f, 0.10943964868783950806f, 0.10851117223501205444f, 0.01870418153703212738f, 0.01747301965951919556f, 0.02925769984722137451f, 0.02925179898738861084f, 0.08469979465007781982f, 0.06484359502792358398f, 0.08304116874933242798f, 0.04253453761339187622f, 0.07282034307718276978f, 0.09234511852264404297f, 0.05378381535410881042f, 0.08408650010824203491f, 0.07525027543306350708f, 0.05404134467244148254f, 0.11385554075241088867f, 0.08373627811670303345f, 0.08005380630493164062f, 0.10229498147964477539f, 0.07581417262554168701f},
  {0.00812665652483701706f, 0.11538280546665191650f, -0.11549501121044158936f, -0.07386592775583267212f, 0.05558718740940093994f, -0.23110541701316833496f, 0.18043343722820281982f, -0.04996097832918167114f, -0.15367254614830017090f, -0.29803204536437988281f, 0.13644318282604217529f, 0.10937786102294921875f, -0.21821480989456176758f, 0.04719242826104164124f, 0.04701332002878189087f, -0.13498555123805999756f, -0.00494130095466971397f, -0.10906601697206497192f, -0.04287456721067428589f, 0.32685697078704833984f, -0.29682946205139160156f, 0.06169985607266426086f, 0.19210214912891387939f, 0.01704339683055877686f, -0.12209264934062957764f, -0.09455290436744689941f, -0.13210161030292510986f, -0.16070467233657836914f, -0.08537255972623825073f, -0.04501685127615928650f, -0.10912200808525085449f, 0.41565385460853576660f},
  {0.06515949964523315430f, -0.06129632517695426941f, 0.13124935328960418701f, 0.05186908692121505737f, 0.00779785774648189545f, -0.11232966929674148560f, -0.04356855526566505432f, 0.07989029586315155029f, 0.16642434895038604736f, 0.00335575663484632969f, 0.38993149995803833008f, 0.48856306076049804688f, -0.11079477518796920776f, 0.08129770308732986450f, -0.07110743969678878784f, -0.00673805922269821167f, -0.02218491956591606140f, -0.16090612113475799561f, 0.36872130632400512695f, 0.65617132186889648438f, -0.01786661893129348755f, 0.30410096049308776855f, 0.28568550944328308105f, 0.03508546948432922363f, -0.03107714839279651642f, -0.22276853024959564209f, 0.17630682885646820068f, 0.14344336092472076416f, -0.18312864005565643311f, 0.01532678306102752686f, 0.11805032938718795776f, 0.03845820948481559753f},
  {-0.03284065797924995422f, 0.08812455087900161743f, 0.11530070006847381592f, 0.07186584174633026123f, 0.11782606691122055054f, 0.07445517182350158691f, 0.15292805433273315430f, 0.16443310678005218506f, 0.17275300621986389160f, 0.13034646213054656982f, 0.17109797894954681396f, 0.16335922479629516602f, 0.17459335923194885254f, 0.04568592831492424011f, 0.00041064963443204761f, 0.05445783957839012146f, 0.04186290875077247620f, 0.13532347977161407471f, 0.08824899047613143921f, 0.13505543768405914307f, 0.09846939146518707275f, 0.11304768919944763184f, 0.15179741382598876953f, 0.03092364594340324402f, 0.12485088407993316650f, 0.11841920018196105957f, 0.08356342464685440063f, 0.17839984595775604248f, 0.13496497273445129395f, 0.12983201444149017334f, 0.17013224959373474121f, 0.11507439613342285156f},
  {-0.01425700914114713669f, 0.07224792987108230591f, 0.12210556119680404663f, 0.06375782191753387451f, 0.12859621644020080566f, 0.06471183896064758301f, 0.16613456606864929199f, 0.16943141818046569824f, 0.19736668467521667480f, 0.13835859298706054688f, 0.18046347796916961670f, 0.18595319986343383789f, 0.18128933012485504150f, 0.01963786408305168152f, -0.01360432896763086319f, 0.03429100289940834045f, 0.05113740637898445129f, 0.14376308023929595947f, 0.10274318605661392212f, 0.14783762395381927490f, 0.14058785140514373779f, 0.11127140372991561890f, 0.17710120975971221924f, 0.06580369174480438232f, 0.16211344301700592041f, 0.11000567674636840820f, 0.09937620908021926880f, 0.19195498526096343994f, 0.13597373664379119873f, 0.14350649714469909668f, 0.17894951999187469482f, 0.13185366988182067871f},
  {-0.00335872103460133076f, 0.02195633761584758759f, 0.03955209627747535706f, 0.01995749026536941528f, 0.04641320556402206421f, 0.00870676711201667786f, 0.05885062739253044128f, 0.06649231910705566406f, 0.07089474797248840332f, 0.06034828722476959229f, 0.05787232145667076111f, 0.06059632822871208191f, 0.07142236083745956421f, 0.08527305722236633301f, 0.03625260666012763977f, 0.01645015738904476166f, 0.02854542434215545654f, 0.05450414866209030151f, 0.03111501410603523254f, 0.04629875719547271729f, 0.02795293740928173065f, 0.04483416676521301270f, 0.05850623175501823425f, 0.00751076871529221535f, 0.05578429624438285828f, 0.02303995564579963684f, 0.03895521536469459534f, 0.06820845603942871094f, 0.04731763526797294617f, 0.05381639674305915833f, 0.06589899212121963501f, 0.02417835220694541931f},
  {-0.14433738589286804199f, 0.01781809888780117035f, 0.07468780875205993652f, 0.11964538693428039551f, -0.12304660677909851074f, -0.07267571985721588135f, -0.56843584775924682617f, -0.20499587059020996094f, 0.01729989051818847656f, -0.05870805308222770691f, -0.11076865345239639282f, 0.25400188565254211426f, -0.52566766738891601562f, 0.09789977967739105225f, 0.07088619470596313477f, 0.04194469749927520752f, 0.25578448176383972168f, -0.19250583648681640625f, 0.01190914120525121689f, 0.39964318275451660156f, -0.22932955622673034668f, -0.18539394438266754150f, 0.04126780480146408081f, 0.00072898541111499071f, 0.29318156838417053223f, 0.15387256443500518799f, -0.13287052512168884277f, -0.18362487852573394775f, -0.49906417727470397949f, 0.00184286828152835369f, 0.05244752392172813416f, -0.01391007937490940094f},
  {-0.00853981915861368179f, 0.02087171375751495361f, 0.03802579268813133240f, 0.01367874536663293839f, 0.04225909709930419922f, 0.03295198455452919006f, 0.05339425057172775269f, 0.03281270340085029602f, 0.06420475244522094727f, 0.04796957224607467651f, 0.04263184964656829834f, 0.06151347234845161438f, 0.05049266293644905090f, 0.01534858252853155136f, 0.09075659513473510742f, 0.02872597612440586090f, 0.02762967348098754883f, 0.03842505812644958496f, 0.03381578251719474792f, 0.04601650685071945190f, 0.02487236075103282928f, 0.04055808112025260925f, 0.05177746713161468506f, -0.02666024491190910339f, 0.05740245431661605835f, 0.05651917308568954468f, 0.03050557151436805725f, 0.06152900680899620056f, 0.03982941433787345886f, 0.04035667330026626587f, 0.05681396275758743286f, 0.05238990485668182373f},
  {-0.12037491053342819214f, -0.22613713145256042480f, -0.07791296392679214478f, 0.20197506248950958252f, -0.37785145640373229980f, -0.15867826342582702637f, -0.08450796455144882202f, 0.12603361904621124268f, -0.22040300071239471436f, -0.29562664031982421875f, 0.00311870733276009560f, -0.33421602845191955566f, -0.93501353263854980469f, -0.13723917305469512939f, -0.23847290873527526855f, -0.27667179703712463379f, -0.36462444067001342773f, 0.01459110807627439499f, -0.14293362200260162354f, 0.11515468358993530273f, -0.00857395958155393600f, -0.16385334730148315430f, 0.22536870837211608887f, -0.46596533060073852539f, -0.15143518149852752686f, -0.53695857524871826172f, 0.05687418952584266663f, 0.10662344098091125488f, -0.40663295984268188477f, -0.85510051250457763672f, -0.63816916942596435547f, 0.13968163728713989258f},
  {0.18081849813461303711f, 0.04364687204360961914f, 0.11219660192728042603f, -0.10219449549913406372f, 0.14295537769794464111f, 0.05646198242902755737f, 0.19457717239856719971f, 0.03619109466671943665f, 0.29112043976783752441f, 0.14938205480575561523f, 0.04928460344672203064f, 0.26984736323356628418f, 0.11645442247390747070f, 0.08004207909107208252f, 0.06471513956785202026f, 0.13665154576301574707f, 0.12422028183937072754f, 0.10241898894309997559f, 0.16732811927795410156f, 0.20598307251930236816f, 0.11998175829648971558f, 0.16488099098205566406f, 0.25479611754417419434f, 0.06901726126670837402f, 0.38529303669929504395f, 0.21513648331165313721f, 0.13676573336124420166f, 0.24688364565372467041f, 0.09149514883756637573f, 0.16410763561725616455f, 0.15541398525238037109f, 0.28765505552291870117f},
  {0.02452160976827144623f, 0.04731846228241920471f, 0.09486126899719238281f, 0.02768952585756778717f, 0.10852567851543426514f, 0.03749526292085647583f, 0.13715173304080963135f, 0.11113123595714569092f, 0.17879070341587066650f, 0.11424259096384048462f, 0.11603140830993652344f, 0.16744546592235565186f, 0.13753516972064971924f, 0.02281316742300987244f, 0.02248779311776161194f, 0.03633508831262588501f, 0.06263326853513717651f, 0.10496249049901962280f, 0.09639441221952438354f, 0.13498237729072570801f, 0.11402285844087600708f, 0.09778333455324172974f, 0.15390379726886749268f, 0.01649361848831176758f, 0.16344682872295379639f, 0.09893190115690231323f, 0.08597683906555175781f, 0.16276715695858001709f, 0.09652120620012283325f, 0.12184725701808929443f, 0.13975951075553894043f, 0.11436471343040466309f},
  {0.37049847841262817383f, 0.03660513833165168762f, 0.00549117848277091980f, -0.21999773383140563965f, 0.11839208006858825684f, -0.13011278212070465088f, 0.16249363124370574951f, -0.15962739288806915283f, 0.29192730784416198730f, -0.06292556226253509521f, -0.11960022896528244019f, 0.27288135886192321777f, -0.10963425785303115845f, 0.04253355041146278381f, 0.02106962539255619049f, 0.01326770149171352386f, 0.26362562179565429688f, -0.04637610539793968201f, 0.25141024589538574219f, 0.29243880510330200195f, 0.19576922059059143066f, 0.14750792086124420166f, 0.27811828255653381348f, -0.05952852591872215271f, 0.58506286144256591797f, 0.09483109414577484131f, 0.17337080836296081543f, 0.17958311736583709717f, 0.00097477063536643982f, 0.10337674617767333984f, 0.10057575255632400513f, 0.24932043254375457764f},
  {0.00494470819830894470f, 0.04219850152730941772f, 0.06786648184061050415f, 0.02857846207916736603f, 0.08468763530254364014f, 0.02981337718665599823f, 0.10274159163236618042f, 0.09411281347274780273f, 0.11960805207490921021f, 0.09367921948432922363f, 0.10548435151576995850f, 0.11394512653350830078f, 0.10857052356004714966f, -0.02001662738621234894f, 0.00641761068254709244f, 0.01523861754685640335f, 0.04882427677512168884f, 0.08915808796882629395f, 0.05979353934526443481f, 0.08040842413902282715f, 0.10447448492050170898f, 0.07294329255819320679f, 0.09475748986005783081f, 0.01535009313374757767f, 0.10597465187311172485f, 0.07358665764331817627f, 0.05988043919205665588f, 0.11921574175357818604f, 0.08334997296333312988f, 0.08187229186296463013f, 0.10429947078227996826f, 0.06843978166580200195f},
  {-0.03119319863617420197f, 0.04101461917161941528f, 0.09083194285631179810f, 0.07587797939777374268f, 0.09333865344524383545f, 0.07134114205837249756f, 0.12426454573869705200f, 0.14695867896080017090f, 0.13447271287441253662f, 0.10726674646139144897f, 0.14649434387683868408f, 0.13845250010490417480f, 0.14753438532352447510f, 0.00667831953614950180f, 0.03584157302975654602f, 0.01334545947611331940f, 0.03196638822555541992f, 0.10772678256034851074f, 0.07398271560668945312f, 0.11250837147235870361f, 0.07385464012622833252f, 0.08224415779113769531f, 0.12778811156749725342f, 0.04214357212185859680f, 0.09070745110511779785f, 0.06582418084144592285f, 0.06816782802343368530f, 0.14701661467552185059f, 0.10792542248964309692f, 0.10596106201410293579f, 0.13967908918857574463f, 0.11105176061391830444f},
  {-0.02652943320572376251f, 0.07479859143495559692f, 0.12688584625720977783f, 0.06994162499904632568f, 0.13209319114685058594f, 0.07254200428724288940f, 0.16951474547386169434f, 0.15354911983013153076f, 0.19354462623596191406f, 0.17078605294227600098f, 0.16080483794212341309f, 0.17622940242290496826f, 0.19428837299346923828f, 0.02965601906180381775f, 0.00696122832596302032f, 0.05341127887368202209f, 0.06568875163793563843f, 0.14900727570056915283f, 0.09777472913265228271f, 0.13178181648254394531f, 0.08516730368137359619f, 0.11727493256330490112f, 0.15505924820899963379f, 0.06759437173604965210f, 0.15123409032821655273f, 0.14343672990798950195f, 0.08977401256561279297f, 0.19583828747272491455f, 0.13585282862186431885f, 0.13762438297271728516f, 0.17718495428562164307f, 0.11593059450387954712f},
  {1.07339787483215332031f, -0.36706325411796569824f, -0.35993254184722900391f, 0.38274970650672912598f, -0.21249136328697204590f, -0.11268395185470581055f, -0.46376907825469970703f, -0.82973819971084594727f, 0.23343259096145629883f, 0.28880253434181213379f, -0.53470301628112792969f, -0.41542086005210876465f, 0.12528669834136962891f, -0.32049182057380676270f, -0.29723149538040161133f, -0.34395709633827209473f, -0.01784215681254863739f, -0.27698364853858947754f, -0.24450859427452087402f, -0.09477952867746353149f, 0.43425410985946655273f, -0.09616427868604660034f, -0.45715713500976562500f, -0.23460821807384490967f, 0.38825336098670959473f, -0.30776929855346679688f, -0.65584027767181396484f, 0.10525174438953399658f, -1.27136671543121337891f, -0.13372977077960968018f, -0.52993184328079223633f, -1.55771005153656005859f},
  {0.00559291196987032890f, 0.17151853442192077637f, 0.23787999153137207031f, 0.02852398343384265900f, 0.25336062908172607422f, 0.13524325191974639893f, 0.34775733947753906250f, 0.23343917727470397949f, 0.39618566632270812988f, 0.31032872200012207031f, 0.26120638847351074219f, 0.38453623652458190918f, 0.30193898081779479980f, 0.09027954190969467163f, 0.11238358914852142334f, 0.21853551268577575684f, 0.16855122148990631104f, 0.24839988350868225098f, 0.22384478151798248291f, 0.28938925266265869141f, 0.19952911138534545898f, 0.26050531864166259766f, 0.33736044168472290039f, -0.01722230203449726105f, 0.38702043890953063965f, 0.37906807661056518555f, 0.22556069493293762207f, 0.38106840848922729492f, 0.27150496840476989746f, 0.26131546497344970703f, 0.31061416864395141602f, 0.34161818027496337891f},
  {0.55292910337448120117f, -0.29248192906379699707f, -0.01899621635675430298f, 0.10056867450475692749f, -0.29368349909782409668f, -0.58629369735717773438f, 0.30817785859107971191f, -0.65769952535629272461f, 0.54220658540725708008f, 0.37035444378852844238f, 0.06989782303571701050f, 0.10592713952064514160f, -0.29066029191017150879f, -0.37267458438873291016f, -0.36114403605461120605f, -0.55359423160552978516f, -0.44292888045310974121f, -0.35744440555572509766f, -0.60081470012664794922f, 0.00638979487121105194f, -0.14631950855255126953f, -0.41502261161804199219f, -0.27347066998481750488f, -0.24842643737792968750f, 0.17143759131431579590f, -0.71862363815307617188f, -0.52337408065795898438f, -0.38944047689437866211f, -0.12318792939186096191f, -0.65359389781951904297f, -0.74071127176284790039f, 0.10384197533130645752f},
  {-0.11520339548587799072f, 0.48975291848182678223f, -0.16598270833492279053f, 0.33003863692283630371f, 0.20167700946331024170f, -0.28632554411888122559f, 0.36918470263481140137f, 0.35883533954620361328f, -0.07756988704204559326f, -1.06893503665924072266f, 0.32685282826423645020f, 0.04895419254899024963f, 0.04294221103191375732f, 0.00087783701019361615f, 0.16249002516269683838f, -0.16032353043556213379f, -0.15051048994064331055f, 0.49582606554031372070f, -0.02313615009188652039f, 0.27128157019615173340f, -0.22970615327358245850f, 0.07465559989213943481f, 0.28068745136260986328f, -0.39429900050163269043f, 0.04026692360639572144f, 0.24410267174243927002f, -0.12327771633863449097f, -0.08523786067962646484f, 0.36858651041984558105f, 0.27260893583297729492f, 0.08663056790828704834f, -0.39526167511940002441f},
  {-0.03665859997272491455f, 0.09152910858392715454f, 0.14664618670940399170f, 0.11650855839252471924f, 0.16558350622653961182f, 0.08420858532190322876f, 0.19643534719944000244f, 0.22505439817905426025f, 0.22261135280132293701f, 0.17478895187377929688f, 0.23546762764453887939f, 0.22004269063472747803f, 0.22898915410041809082f, 0.11732424795627593994f, 0.09347621351480484009f, 0.06370771676301956177f, 0.05938348546624183655f, 0.17784634232521057129f, 0.12464096397161483765f, 0.17025952041149139404f, 0.06310648471117019653f, 0.14858236908912658691f, 0.19237580895423889160f, 0.03267658129334449768f, 0.16283062100410461426f, 0.13224302232265472412f, 0.11205816268920898438f, 0.23463274538516998291f, 0.16672098636627197266f, 0.17367313802242279053f, 0.22056350111961364746f, 0.12843178212642669678f},
  {-0.02410071529448032379f, 0.09074503183364868164f, 0.13183189928531646729f, 0.07417334616184234619f, 0.15255570411682128906f, 0.06928450614213943481f, 0.17986378073692321777f, 0.19464205205440521240f, 0.21259438991546630859f, 0.15435622632503509521f, 0.18977600336074829102f, 0.18022873997688293457f, 0.21277847886085510254f, 0.06113362684845924377f, 0.06084685027599334717f, 0.03794017434120178223f, 0.05789900198578834534f, 0.17520168423652648926f, 0.10288712382316589355f, 0.14129252731800079346f, 0.10111881792545318604f, 0.13125617802143096924f, 0.19203731417655944824f, 0.03213031217455863953f, 0.17997579276561737061f, 0.13452321290969848633f, 0.10486691445112228394f, 0.20994284749031066895f, 0.15796621143817901611f, 0.17199511826038360596f, 0.20170661807060241699f, 0.13548226654529571533f},
  {-0.00619932450354099274f, 0.03535219654440879822f, 0.03389351814985275269f, 0.01903866045176982880f, 0.04069422185420989990f, 0.01742423884570598602f, 0.05242307484149932861f, 0.05062583833932876587f, 0.05185602977871894836f, 0.03173223137855529785f, 0.04429207369685173035f, 0.03725030645728111267f, 0.06136878952383995056f, -0.01279612910002470016f, -0.04295592755079269409f, 0.00437631784006953239f, 0.01398540660738945007f, 0.05622877180576324463f, 0.01838740147650241852f, 0.02286348864436149597f, 0.05714729428291320801f, 0.02615323849022388458f, 0.04574867337942123413f, 0.05430316925048828125f, 0.04938204213976860046f, 0.05531061068177223206f, 0.02190479822456836700f, 0.05013710260391235352f, 0.05168563500046730042f, 0.04612837731838226318f, 0.04993014410138130188f, 0.02757781185209751129f},
  {-0.01955836080014705658f, 0.02070175297558307648f, 0.03891621530055999756f, 0.01661374419927597046f, 0.03689471632242202759f, 0.03258022293448448181f, 0.05013752356171607971f, 0.04567088186740875244f, 0.05740549787878990173f, 0.04699672013521194458f, 0.05317815020680427551f, 0.05733708664774894714f, 0.05339914932847023010f, 0.06838571280241012573f, 0.07394063472747802734f, 0.03570685163140296936f, 0.01244456879794597626f, 0.03614179417490959167f, 0.03461530059576034546f, 0.04554307088255882263f, 0.00716884527355432510f, 0.03712234646081924438f, 0.05111580714583396912f, 0.03543971478939056396f, 0.04946386814117431641f, 0.03836454078555107117f, 0.02853685431182384491f, 0.05953536182641983032f, 0.03821294754743576050f, 0.04114123433828353882f, 0.05942795053124427795f, 0.04288035631179809570f},
  {-0.03954039886593818665f, 0.08496873825788497925f, 0.14525432884693145752f, 0.10665405541658401489f, 0.15245594084262847900f, 0.08830080181360244751f, 0.18298430740833282471f, 0.19209389388561248779f, 0.21173876523971557617f, 0.17212298512458801270f, 0.21438367664813995361f, 0.21134656667709350586f, 0.20476582646369934082f, 0.08601278066635131836f, 0.11928234249353408813f, 0.05256916210055351257f, 0.06271276623010635376f, 0.16164720058441162109f, 0.12519322335720062256f, 0.16743758320808410645f, 0.06380827724933624268f, 0.13991594314575195312f, 0.18026442825794219971f, 0.04600725322961807251f, 0.16812671720981597900f, 0.12659665942192077637f, 0.11067017912864685059f, 0.22156208753585815430f, 0.15000778436660766602f, 0.14802354574203491211f, 0.20202180743217468262f, 0.11923468858003616333f},
  {-0.00979463569819927216f, 0.01447078213095664978f, 0.03073252364993095398f, 0.02470765449106693268f, 0.02630148455500602722f, 0.04514991864562034607f, 0.03553974255919456482f, 0.02662494033575057983f, 0.03954194486141204834f, 0.03298681974411010742f, 0.05119654163718223572f, 0.05228338390588760376f, 0.02977779321372509003f, 0.01711628958582878113f, 0.03494551032781600952f, 0.03501649200916290283f, 0.00612235488370060921f, 0.01928944326937198639f, 0.03572743758559226990f, 0.04795224219560623169f, 0.01523830462247133255f, 0.03645084053277969360f, 0.04020462930202484131f, -0.00859128125011920929f, 0.02863663993775844574f, 0.03665481507778167725f, 0.02329634316265583038f, 0.04732951894402503967f, 0.02371028438210487366f, 0.02167440578341484070f, 0.03620287030935287476f, 0.04710239917039871216f},
  {0.03169031068682670593f, 0.08871427923440933228f, 0.13098530471324920654f, -0.00120712525676935911f, 0.15293756127357482910f, 0.15689483284950256348f, 0.21440757811069488525f, 0.12577310204505920410f, 0.23866416513919830322f, 0.18125171959400177002f, 0.12992565333843231201f, 0.19401773810386657715f, 0.19597157835960388184f, 0.03749068081378936768f, 0.02482041344046592712f, 0.09829510748386383057f, 0.08033759891986846924f, 0.15433579683303833008f, 0.11288504302501678467f, 0.12107741832733154297f, 0.19481132924556732178f, 0.12593534588813781738f, 0.20382189750671386719f, 0.03645449131727218628f, 0.25825947523117065430f, 0.23298278450965881348f, 0.11639235913753509521f, 0.24106408655643463135f, 0.16585177183151245117f, 0.15856891870498657227f, 0.19170856475830078125f, 0.26019671559333801270f},
  {-0.57698732614517211914f, -0.33229762315750122070f, -0.40680438280105590820f, 0.30108681321144104004f, -0.35310724377632141113f, -0.54724538326263427734f, 0.36482170224189758301f, 0.37098437547683715820f, -0.43520894646644592285f, 0.12754143774509429932f, -0.34518685936927795410f, 0.18855349719524383545f, -1.02938747406005859375f, -0.59016352891921997070f, -0.51291036605834960938f, -0.56675273180007934570f, -0.47012001276016235352f, -0.34795215725898742676f, -0.27440321445465087891f, 0.35400867462158203125f, -0.43981191515922546387f, -0.84640347957611083984f, -0.06918324530124664307f, -0.42724046111106872559f, 0.24175003170967102051f, -0.09724891185760498047f, -0.18071620166301727295f, 0.12175979465246200562f, -0.20487904548645019531f, -0.41385191679000854492f, -0.23119761049747467041f, -0.26865625381469726562f},
  {-0.00563168339431285858f, 0.09614812582731246948f, 0.12325198948383331299f, 0.03789982944726943970f, 0.13373763859272003174f, 0.06719566881656646729f, 0.16629463434219360352f, 0.13694171607494354248f, 0.20800013840198516846f, 0.14848840236663818359f, 0.16713312268257141113f, 0.20108896493911743164f, 0.17232023179531097412f, 0.05549358204007148743f, 0.10621479153633117676f, 0.05581636726856231689f, 0.07113488763570785522f, 0.13832589983940124512f, 0.12104717642068862915f, 0.16319006681442260742f, 0.12604911625385284424f, 0.12937778234481811523f, 0.17643024027347564697f, 0.09670081734657287598f, 0.18045276403427124023f, 0.14011047780513763428f, 0.09648560732603073120f, 0.19877311587333679199f, 0.13279861211776733398f, 0.14398038387298583984f, 0.17437040805816650391f, 0.12370465695858001709f},
  {-0.22219641506671905518f, 0.11729857325553894043f, 0.22249360382556915283f, 0.33778700232505798340f, 0.24922688305377960205f, 0.23339323699474334717f, 0.27064746618270874023f, 0.41417473554611206055f, 0.25955083966255187988f, 0.29014390707015991211f, 0.38883879780769348145f, 0.19744397699832916260f, 0.45876747369766235352f, -0.00372557598166167736f, -0.00965508632361888885f, -0.00320731289684772491f, 0.05048746243119239807f, 0.33555787801742553711f, 0.06881302595138549805f, 0.12151219695806503296f, 0.20759107172489166260f, 0.14481031894683837891f, 0.20683668553829193115f, 0.17820821702480316162f, 0.07471178472042083740f, 0.13903716206550598145f, 0.11904492974281311035f, 0.30589765310287475586f, 0.29760041832923889160f, 0.25960892438888549805f, 0.35433641076087951660f, 0.14539024233818054199f},
  {0.01021814905107021332f, 0.03965855389833450317f, 0.07720542699098587036f, 0.01898462511599063873f, 0.07949566096067428589f, 0.03145708143711090088f, 0.10903888195753097534f, 0.08304240554571151733f, 0.13826251029968261719f, 0.10119316726922988892f, 0.09963501244783401489f, 0.13723947107791900635f, 0.10459077358245849609f, 0.05804277211427688599f, 0.08383924514055252075f, 0.02835004962980747223f, 0.05554079264402389526f, 0.07978387922048568726f, 0.07154098898172378540f, 0.11624115705490112305f, 0.05334485694766044617f, 0.08297632634639739990f, 0.11677698045969009399f, 0.05634715408086776733f, 0.12874582409858703613f, 0.07396396249532699585f, 0.06334444880485534668f, 0.12601850926876068115f, 0.06651537120342254639f, 0.08930167555809020996f, 0.10614434629678726196f, 0.08354242891073226929f}
};
static const float tensor__Decoder__layers_1_l1_bias[32] = 
{-0.55631649494171142578f, -0.05718275532126426697f, 0.04185865446925163269f, -0.01171658933162689209f, 0.04150969162583351135f, 0.04302503541111946106f, 0.04239805415272712708f, 0.07631324976682662964f, -0.02611422352492809296f, 0.05547131225466728210f, -0.39454054832458496094f, 0.03402337431907653809f, 0.02048021741211414337f, 0.08089668303728103638f, 0.06410346925258636475f, 0.01844155788421630859f, -0.00209216750226914883f, -0.46184620261192321777f, 0.04488433897495269775f, -0.63428652286529541016f, 0.02148730680346488953f, 0.02825707942247390747f, 0.05892734229564666748f, 0.04571127891540527344f, 0.01762827485799789429f, 0.08048144727945327759f, 0.11748336255550384521f, 0.08321605622768402100f, -0.52047187089920043945f, 0.06828647851943969727f, 0.04948153346776962280f, 0.05263725295662879944f};
static const float tensor__Decoder__layers_2_l0_weight[32][32] = 
{
  {-0.04195950552821159363f, -0.03964092209935188293f, 0.02227961272001266479f, -0.03460537269711494446f, 0.06445541232824325562f, -0.18792571127414703369f, -0.01288372650742530823f, 0.10705435276031494141f, -0.14633800089359283447f, -0.05696052685379981995f, 0.33809044957160949707f, 0.07582083344459533691f, -0.08073820918798446655f, 0.21776930987834930420f, -0.01375780254602432251f, -0.08452552556991577148f, -0.06138714775443077087f, 0.04745831713080406189f, 0.13800930976867675781f, 0.25259140133857727051f, -0.19430918991565704346f, 0.05368098244071006775f, 0.12942643463611602783f, 0.01292999461293220520f, -0.01198914553970098495f, 0.00550358695909380913f, 0.01903002336621284485f, 0.43821206688880920410f, -0.05394475162029266357f, -0.11693786084651947021f, 0.07447906583547592163f, -0.06504096090793609619f},
  {-0.30817636847496032715f, -0.07388707995414733887f, 0.02878582105040550232f, -0.08789304643869400024f, -0.09546727687120437622f, 0.08301178365945816040f, -0.07322037965059280396f, -0.07967863976955413818f, 0.07509084045886993408f, 0.00625421339645981789f, -0.11805112659931182861f, 0.01553309429436922073f, 0.00316331326030194759f, -0.19247242808341979980f, 0.08209332823753356934f, -0.16915704309940338135f, 0.09007444977760314941f, -0.26419931650161743164f, 0.30569520592689514160f, -0.14813950657844543457f, 0.18439956009387969971f, -0.05038852989673614502f, -0.04919001087546348572f, 0.04065257683396339417f, -0.05604103952646255493f, 0.04673736914992332458f, 0.10120207816362380981f, -0.05635327473282814026f, -0.04800119996070861816f, 0.03975900262594223022f, 0.25479841232299804688f, -0.07291269302368164062f},
  {-0.03148718550801277161f, -0.32525178790092468262f, -0.07414927333593368530f, -0.05717305094003677368f, 0.33598485589027404785f, 0.22266894578933715820f, -0.02180287614464759827f, -0.17767646908760070801f, -0.17135633528232574463f, -0.06462956219911575317f, 0.20142787694931030273f, -0.12064249068498611450f, -0.03637244552373886108f, -0.03625914081931114197f, 0.05187362059950828552f, 0.01552980206906795502f, -0.11683165282011032104f, 0.08133142441511154175f, 0.22612699866294860840f, 0.06496048718690872192f, 0.16349780559539794922f, -0.06021830067038536072f, 0.05076730251312255859f, -0.07578399032354354858f, -0.11813857406377792358f, -0.07827812433242797852f, 0.01051139459013938904f, -0.16152018308639526367f, 0.16271124780178070068f, -0.00479327375069260597f, 0.08954995870590209961f, -0.21924862265586853027f},
  {-0.18128509819507598877f, 0.25307551026344299316f, -0.09857086092233657837f, 0.39608278870582580566f, 0.02372744493186473846f, 0.09880712628364562988f, -0.13754040002822875977f, 0.16101475059986114502f, -0.24759902060031890869f, -0.02477349899709224701f, 0.45198738574981689453f, 0.17070420086383819580f, -0.11774291098117828369f, -0.03619892150163650513f, -0.03340352326631546021f, -0.07998984307050704956f, -0.10222249478101730347f, 0.05902599543333053589f, 0.00547927943989634514f, 0.22811155021190643311f, 0.01907791756093502045f, 0.11464856564998626709f, -0.07970278710126876831f, 0.04931816458702087402f, -0.02626068331301212311f, -0.07132449746131896973f, -0.03238988667726516724f, 0.04639044776558876038f, 0.32221531867980957031f, -0.03849763423204421997f, 0.08610834181308746338f, 0.07905031740665435791f},
  {-0.00964802876114845276f, -0.26892378926277160645f, -0.06435967236757278442f, -0.16760590672492980957f, -0.14061976969242095947f, -0.02797898091375827789f, 0.24286106228828430176f, -0.02739451825618743896f, 0.20706732571125030518f, -0.18628984689712524414f, 0.11922232061624526978f, -0.20128938555717468262f, -0.03878175467252731323f, 0.21411441266536712646f, -0.15634441375732421875f, 0.18789950013160705566f, -0.47872346639633178711f, 0.00545024778693914413f, -0.28358316421508789062f, -0.04549367725849151611f, -0.04041257128119468689f, 0.29540425539016723633f, 0.24073451757431030273f, 0.31822672486305236816f, 0.07184354215860366821f, -0.16200479865074157715f, -0.20748817920684814453f, -0.24493874609470367432f, 0.13896770775318145752f, 0.18645508587360382080f, 0.12409502267837524414f, -0.03113825246691703796f},
  {-0.09177671372890472412f, 0.08867432922124862671f, 0.10745959728956222534f, -0.36279609799385070801f, -0.36296939849853515625f, -0.04012275487184524536f, -0.04809128120541572571f, 0.09605472534894943237f, 0.07206942886114120483f, 0.00196931092068552971f, -0.20332248508930206299f, -0.23895364999771118164f, -0.06958603113889694214f, 0.12491901218891143799f, 0.13814112544059753418f, 0.05986456945538520813f, 0.07744856178760528564f, -0.08385980129241943359f, -0.36491298675537109375f, -0.18840551376342773438f, 0.24796846508979797363f, -0.04844378307461738586f, 0.09289384633302688599f, -0.07911331206560134888f, -0.11974663287401199341f, 0.14130000770092010498f, -0.03982924297451972961f, -0.23319664597511291504f, 0.01067610457539558411f, -0.13626323640346527100f, 0.30946293473243713379f, -0.01553792878985404968f},
  {0.07652319967746734619f, -0.02108369581401348114f, 0.02493431977927684784f, 0.68464374542236328125f, -0.05729414895176887512f, 0.05531822517514228821f, 0.09961318969726562500f, 0.07392808794975280762f, -0.12426713109016418457f, -0.02054318785667419434f, 0.05600738525390625000f, -0.05888532102108001709f, 0.12012703716754913330f, -0.03818842396140098572f, 0.02234715037047863007f, 0.10921275615692138672f, -0.01157039217650890350f, 0.22735986113548278809f, 0.09556069225072860718f, 0.07115709781646728516f, -0.07813233882188796997f, 0.15331558883190155029f, 0.01389998476952314377f, -0.05365142971277236938f, -0.01208257209509611130f, 0.03873311355710029602f, -0.10299412161111831665f, 0.00208647712133824825f, 0.02943268977105617523f, -0.01232243143022060394f, -0.11221636831760406494f, 0.08645713329315185547f},
  {0.23496690392494201660f, -0.22813816368579864502f, -0.06469935178756713867f, -0.14380463957786560059f, 0.30257415771484375000f, 0.02406029775738716125f, 0.10639982670545578003f, 0.04806064814329147339f, 0.19790141284465789795f, -0.17825835943222045898f, 0.07682058215141296387f, -0.36217761039733886719f, 0.09756724536418914795f, -0.14863938093185424805f, -0.00647062528878450394f, -0.44296386837959289551f, 0.21592895686626434326f, 0.08931525796651840210f, -0.06454662233591079712f, 0.06706152856349945068f, 0.02373920567333698273f, -0.49049612879753112793f, -0.21749645471572875977f, 0.11849882453680038452f, 0.01893016509711742401f, 0.00508053740486502647f, 0.06819231063127517700f, 0.26465928554534912109f, 0.00945826247334480286f, 0.19210408627986907959f, 0.17360252141952514648f, 0.03985761851072311401f},
  {0.25684201717376708984f, -0.09065271914005279541f, 0.07262029498815536499f, -0.24138917028903961182f, -0.27729326486587524414f, 0.04456676170229911804f, -0.19141168892383575439f, 0.08993338793516159058f, 0.09304155409336090088f, 0.18762974441051483154f, -0.29842531681060791016f, 0.21647897362709045410f, -0.11420848965644836426f, -0.44389465451240539551f, 0.23464755713939666748f, -0.27066820859909057617f, 0.32467463612556457520f, 0.50116133689880371094f, 0.06256160885095596313f, 0.03670750185847282410f, 0.07135906070470809937f, -0.29110288619995117188f, -0.15428398549556732178f, -0.27333897352218627930f, -0.08666768670082092285f, 0.16131551563739776611f, 0.18554061651229858398f, 0.20293113589286804199f, 0.05327424779534339905f, -0.18069851398468017578f, -0.20373633503913879395f, -0.05342020094394683838f},
  {0.08795256167650222778f, -0.35750046372413635254f, -0.09551612287759780884f, -0.15506695210933685303f, -0.37770521640777587891f, 0.00789313670247793198f, 0.13425238430500030518f, -0.25476649403572082520f, -0.13749596476554870605f, 0.15561668574810028076f, -0.34997829794883728027f, 0.02949150465428829193f, -0.08241725713014602661f, -0.66313099861145019531f, -0.45252037048339843750f, -0.11294777691364288330f, -0.06210379302501678467f, -0.13133957982063293457f, 0.29629325866699218750f, -0.17103859782218933105f, 0.08750298619270324707f, 0.11896476149559020996f, 0.01820724084973335266f, 0.27603566646575927734f, 0.11451227217912673950f, -0.20781712234020233154f, 0.00290330266579985619f, 0.16393473744392395020f, -0.10262472182512283325f, 0.01054133288562297821f, -0.17936851084232330322f, -0.05312611162662506104f},
  {0.06462172418832778931f, 0.04428832232952117920f, 0.26576420664787292480f, 0.18635068833827972412f, -0.05312285199761390686f, -0.19896048307418823242f, -0.16756401956081390381f, -0.04436679929494857788f, -0.28565588593482971191f, -0.19957646727561950684f, 0.35348638892173767090f, -0.34434074163436889648f, 0.13946774601936340332f, -0.09415059536695480347f, 0.06597020477056503296f, 0.39290595054626464844f, 0.06634191423654556274f, -0.06436418741941452026f, 0.06259703636169433594f, 0.28243121504783630371f, -0.07414948195219039917f, -0.27902051806449890137f, 0.26462864875793457031f, -0.00445447349920868874f, 0.13027134537696838379f, 0.21319258213043212891f, -0.16950774192810058594f, 0.23625227808952331543f, -0.05981815233826637268f, -0.30457755923271179199f, -0.09025950729846954346f, -0.10740438103675842285f},
  {-0.65645289421081542969f, 0.53860998153686523438f, -0.11187390238046646118f, 0.22420234978199005127f, 0.18873634934425354004f, 0.34946480393409729004f, -0.15332564711570739746f, -0.03324729576706886292f, -0.14069919288158416748f, 0.03852184116840362549f, 0.49940311908721923828f, 0.11162783950567245483f, -0.08435090631246566772f, 0.15808427333831787109f, -0.31379935145378112793f, 0.10156838595867156982f, -0.18724372982978820801f, -0.05697492137551307678f, 0.03225843608379364014f, 0.21876578032970428467f, 0.01561964582651853561f, -0.03890892863273620605f, -0.17963698506355285645f, -0.05067173764109611511f, -0.00052346481243148446f, -0.25632590055465698242f, 0.13135175406932830811f, 0.11379787325859069824f, 0.41385066509246826172f, -0.00185076799243688583f, -0.08390345424413681030f, 0.14887125790119171143f},
  {0.15727020800113677979f, 0.05765021964907646179f, 0.02692468278110027313f, -0.38695120811462402344f, 0.12390881776809692383f, -0.10494884848594665527f, 0.12875664234161376953f, -0.07572019100189208984f, -0.37244513630867004395f, -0.00264593469910323620f, 0.09364343434572219849f, 0.24337081611156463623f, 0.02138868905603885651f, 0.02520921640098094940f, -0.06014236807823181152f, 0.05624288320541381836f, 0.06135405227541923523f, 0.08823893964290618896f, -0.46127319335937500000f, 0.01885082758963108063f, -0.47057119011878967285f, 0.15337938070297241211f, -0.01143321860581636429f, 0.13352081179618835449f, 0.02738210931420326233f, -0.40192210674285888672f, -0.03707763925194740295f, 0.23073180019855499268f, -0.23547990620136260986f, -0.19976577162742614746f, 0.18476256728172302246f, -0.12033601105213165283f},
  {0.50716471672058105469f, -0.30629891157150268555f, -0.19719809293746948242f, -0.25865483283996582031f, -0.06981052458286285400f, 0.11302678287029266357f, 0.20381313562393188477f, 0.15365864336490631104f, -0.05171631276607513428f, -0.12701289355754852295f, -0.09194381535053253174f, -0.21359832584857940674f, -0.09514147043228149414f, -0.14516912400722503662f, 0.28151953220367431641f, 0.07863874733448028564f, -0.21973928809165954590f, 0.14842641353607177734f, -0.15066607296466827393f, -0.01501385029405355453f, -0.02140959165990352631f, 0.32699739933013916016f, -0.29897630214691162109f, -0.06586571782827377319f, 0.15664352476596832275f, 0.19611129164695739746f, -0.07412082701921463013f, 0.32043549418449401855f, -0.06111091002821922302f, 0.12220347672700881958f, -0.27731207013130187988f, -0.21322683990001678467f},
  {-0.18011771142482757568f, 0.14209701120853424072f, -0.09103586524724960327f, 0.21665167808532714844f, 0.02776848711073398590f, 0.05375961586833000183f, -0.00820410717278718948f, 0.15106584131717681885f, 0.10016768425703048706f, -0.01928685419261455536f, 0.16024997830390930176f, 0.29180175065994262695f, -0.04422990605235099792f, -0.02620061300694942474f, 0.09690806269645690918f, -0.01242705062031745911f, 0.03618480265140533447f, 0.07990478724241256714f, -0.05279103294014930725f, 0.08525001257658004761f, -0.05429248511791229248f, 0.11474476009607315063f, 0.11133398115634918213f, 0.04786104336380958557f, -0.03176134824752807617f, 0.03716601803898811340f, -0.12296553701162338257f, -0.00046535470755770802f, 0.00568484840914607048f, -0.00738112255930900574f, -0.00937967188656330109f, -0.04919664561748504639f},
  {-0.14449173212051391602f, -0.14796340465545654297f, -0.06675186008214950562f, 0.12132505327463150024f, 0.08786536753177642822f, -0.03222985193133354187f, 0.03775924816727638245f, 0.08381768316030502319f, 0.10230688005685806274f, -0.00773802073672413826f, -0.06558354198932647705f, 0.11580326408147811890f, 0.05655606463551521301f, 0.07687637209892272949f, -0.00566358957439661026f, -0.06281784176826477051f, -0.06596446782350540161f, 0.10716599971055984497f, 0.15112520754337310791f, 0.01141784992069005966f, 0.01583169214427471161f, 0.08731047064065933228f, -0.09740884602069854736f, -0.00260004936717450619f, -0.01035949960350990295f, -0.06349253654479980469f, -0.00043493413249962032f, -0.09474427998065948486f, 0.00157027668319642544f, -0.00357288517989218235f, 0.12853059172630310059f, -0.05746565759181976318f},
  {0.19201648235321044922f, -0.18993054330348968506f, 0.06423052400350570679f, 0.03354376554489135742f, 0.09459853172302246094f, 0.09670487046241760254f, -0.18491068482398986816f, -0.01598721928894519806f, 0.21093830466270446777f, -0.02823108248412609100f, -0.26167702674865722656f, -0.00678601674735546112f, -0.25167444348335266113f, -0.35584849119186401367f, -0.22402682900428771973f, -0.04491059854626655579f, -0.08794150501489639282f, -0.05921862274408340454f, 0.47155815362930297852f, -0.14045484364032745361f, 0.47998762130737304688f, 0.02439694665372371674f, 0.09638176858425140381f, 0.10782685875892639160f, -0.04888315126299858093f, 0.10152296721935272217f, 0.11548627912998199463f, 0.03327376395463943481f, -0.01031227223575115204f, 0.00573836779221892357f, 0.06462857127189636230f, 0.00817569624632596970f},
  {-0.27639913558959960938f, 0.11044296622276306152f, -0.03444276750087738037f, 0.61117970943450927734f, 0.05488117039203643799f, 0.05041130632162094116f, -0.04204061627388000488f, 0.11618324369192123413f, 0.12327348440885543823f, -0.01668574288487434387f, 0.12648847699165344238f, 0.08379261940717697144f, -0.05480524897575378418f, -0.00600670743733644485f, -0.01539915055036544800f, -0.07668839395046234131f, -0.02915105596184730530f, 0.03226941451430320740f, 0.01337645482271909714f, 0.09919941425323486328f, 0.24825742840766906738f, 0.04046018421649932861f, -0.01535743009299039841f, -0.00680877920240163803f, -0.03552577272057533264f, -0.05186048895120620728f, 0.03947727754712104797f, -0.14333349466323852539f, 0.16906270384788513184f, 0.00893801450729370117f, 0.25940141081809997559f, -0.09154834598302841187f},
  {-0.10422435402870178223f, 0.03323352336883544922f, -0.39647683501243591309f, -0.09947492182254791260f, -0.07056269049644470215f, 0.04470887780189514160f, -0.39380848407745361328f, -0.07357638329267501831f, -0.21129147708415985107f, -0.00293478835374116898f, 0.29928246140480041504f, 0.18594275414943695068f, 0.33080068230628967285f, 0.23421117663383483887f, 0.06481754779815673828f, -0.16383905708789825439f, 0.02292272448539733887f, 0.09615454077720642090f, -0.02636167220771312714f, -0.02386764809489250183f, 0.08108264952898025513f, -0.03927571326494216919f, 0.25774717330932617188f, -0.21933287382125854492f, -0.07382492721080780029f, -0.02729626744985580444f, -0.06303853541612625122f, 0.00009454731480218470f, 0.25566729903221130371f, 0.53576982021331787109f, 0.02428952790796756744f, -0.61189430952072143555f},
  {0.36841571331024169922f, 0.04760315641760826111f, 0.02878518216311931610f, -0.03846010938286781311f, 0.03860310837626457214f, 0.01251906994730234146f, 0.11704232543706893921f, -0.01934572309255599976f, 0.15720012784004211426f, -0.02484037540853023529f, -0.21965229511260986328f, -0.15004119277000427246f, 0.05036456882953643799f, 0.00320251379162073135f, -0.03992400318384170532f, 0.16811743378639221191f, -0.00502736866474151611f, -0.01774835586547851562f, 0.34602126479148864746f, -0.08187872916460037231f, 0.16254308819770812988f, 0.03907063975930213928f, 0.00712404400110244751f, -0.02940861508250236511f, 0.00771753489971160889f, 0.10824852436780929565f, -0.08672901242971420288f, 0.02595961093902587891f, -0.08543838560581207275f, -0.04548456892371177673f, -0.17161965370178222656f, 0.08978226035833358765f},
  {0.13146468997001647949f, -0.21367576718330383301f, -0.04143664613366127014f, 0.19999344646930694580f, -0.33917388319969177246f, 0.09068758040666580200f, 0.08185262978076934814f, 0.08564360439777374268f, -0.03303040564060211182f, -0.04494583979249000549f, 0.15860892832279205322f, 0.01343317516148090363f, -0.02234264463186264038f, -0.24245211482048034668f, 0.06391610205173492432f, -0.03243207186460494995f, 0.00221903645433485508f, -0.26071637868881225586f, -0.14981806278228759766f, 0.17859432101249694824f, 0.19735905528068542480f, 0.15626025199890136719f, -0.03869982808828353882f, 0.09928819537162780762f, -0.07459723949432373047f, -0.06717395782470703125f, -0.06776312738656997681f, 0.10601815581321716309f, 0.00829649250954389572f, 0.00875434838235378265f, -0.17502468824386596680f, -0.07162572443485260010f},
  {-0.03596832230687141418f, -0.43550887703895568848f, -0.08204001188278198242f, 0.35411742329597473145f, 0.21360248327255249023f, -0.17484323680400848389f, -0.03449839726090431213f, 0.04219324514269828796f, -0.13973653316497802734f, -0.06927174329757690430f, 0.15056148171424865723f, 0.00565509125590324402f, 0.09520211815834045410f, -0.39240846037864685059f, -0.01016913913190364838f, -0.04094386845827102661f, -0.10314027965068817139f, 0.06614717841148376465f, -0.02868064865469932556f, 0.02731911279261112213f, 0.21053920686244964600f, 0.09579414874315261841f, 0.03492343798279762268f, 0.05100111663341522217f, 0.05453307926654815674f, -0.04602982476353645325f, -0.10186718404293060303f, -0.10141611844301223755f, 0.06895140558481216431f, -0.08980309963226318359f, 0.08363627642393112183f, 0.12290687859058380127f},
  {0.30879124999046325684f, -0.02501379512250423431f, 0.01891631074249744415f, -0.21377640962600708008f, -0.20861303806304931641f, -0.06360894441604614258f, 0.00807112082839012146f, 0.11298847943544387817f, 0.11362277716398239136f, 0.11129898577928543091f, -0.16660977900028228760f, 0.16859780251979827881f, -0.02818042412400245667f, 0.24679636955261230469f, -0.09320692718029022217f, -0.05089293792843818665f, -0.27116829156875610352f, 0.27904871106147766113f, -0.29862567782402038574f, 0.09183581173419952393f, -0.13890606164932250977f, -0.33348503708839416504f, 0.19344386458396911621f, -0.23533169925212860107f, -0.03830324113368988037f, 0.13838413357734680176f, -0.04506542533636093140f, 0.21562992036342620850f, 0.04169683903455734253f, 0.15039426088333129883f, 0.20444244146347045898f, -0.09230626374483108521f},
  {-0.43485793471336364746f, 0.46236556768417358398f, -0.04532046616077423096f, 0.44672280550003051758f, 0.07854710519313812256f, -0.05526344850659370422f, -0.12298158556222915649f, -0.15492025017738342285f, 0.04518932849168777466f, 0.00983050372451543808f, 0.26935249567031860352f, -0.05022383108735084534f, 0.18915703892707824707f, 0.20482185482978820801f, -0.02229360304772853851f, -0.07023619860410690308f, 0.07903901487588882446f, -0.01392255816608667374f, -0.08402932435274124146f, 0.06263561546802520752f, 0.05407749861478805542f, -0.04497725889086723328f, -0.04331987351179122925f, -0.01325460616499185562f, -0.02436329610645771027f, -0.17475242912769317627f, 0.11083582788705825806f, 0.09032168239355087280f, 0.12027661502361297607f, 0.05693316459655761719f, 0.16062135994434356689f, 0.08978040516376495361f},
  {0.43672138452529907227f, -0.04821677505970001221f, 0.18079002201557159424f, -0.09494041651487350464f, -0.07247360795736312866f, 0.22329214215278625488f, -0.21946904063224792480f, -0.09591692686080932617f, -0.08939602971076965332f, -0.14867472648620605469f, -0.04960297420620918274f, 0.14571452140808105469f, 0.06543524563312530518f, 0.04436822235584259033f, 0.24537581205368041992f, 0.12629412114620208740f, 0.35492897033691406250f, -0.21938093006610870361f, -0.07458654046058654785f, -0.06244294717907905579f, -0.03842164576053619385f, 0.13453269004821777344f, -0.04163206368684768677f, 0.16681206226348876953f, -0.39531245827674865723f, -0.17821684479713439941f, 0.13802570104598999023f, -0.03399464488029479980f, -0.23923203349113464355f, -0.18091201782226562500f, -0.18187071382999420166f, -0.11042697727680206299f},
  {0.08600597828626632690f, 0.19291305541992187500f, 0.04019258171319961548f, 0.08918552100658416748f, 0.00156474311370402575f, 0.00688291201367974281f, 0.03039318509399890900f, -0.07612961530685424805f, 0.00075803953222930431f, -0.03587767109274864197f, 0.04845184087753295898f, -0.01020177081227302551f, -0.01461578905582427979f, 0.14767490327358245850f, 0.03344009071588516235f, 0.10061863064765930176f, -0.01047608442604541779f, 0.11406514048576354980f, -0.23261514306068420410f, 0.04658606648445129395f, -0.75496554374694824219f, -0.05839185789227485657f, -0.04800355434417724609f, -0.04582725465297698975f, 0.04533448070287704468f, -0.01203708350658416748f, -0.00364576303400099277f, 0.02259633503854274750f, -0.02634305320680141449f, 0.03085566498339176178f, -0.26975673437118530273f, -0.00408994313329458237f},
  {-0.09023033827543258667f, 0.20724105834960937500f, -0.01279889978468418121f, -0.11235819011926651001f, -0.09145122766494750977f, -0.03458086773753166199f, -0.04205621778964996338f, -0.01005095057189464569f, -0.22689446806907653809f, -0.06776206195354461670f, 0.03187948837876319885f, -0.09318333119153976440f, 0.05057562887668609619f, 0.32780161499977111816f, 0.08031255006790161133f, -0.01639686524868011475f, 0.09847152233123779297f, -0.09004449844360351562f, 0.19538789987564086914f, 0.06642205268144607544f, -0.28764829039573669434f, 0.11178448051214218140f, -0.11387377232313156128f, 0.01571092940866947174f, 0.05136963725090026855f, 0.04726188629865646362f, -0.08549796044826507568f, 0.03512020409107208252f, -0.05271313712000846863f, 0.14129313826560974121f, 0.05647031962871551514f, 0.00365865672938525677f},
  {-0.05589671805500984192f, -0.00587611924856901169f, 0.05730355530977249146f, -0.18931318819522857666f, -0.08819682151079177856f, 0.06163810566067695618f, 0.03388389572501182556f, -0.07285249978303909302f, -0.29373589158058166504f, 0.03265230357646942139f, -0.15638938546180725098f, 0.04395856335759162903f, 0.03041188418865203857f, -0.10373111069202423096f, 0.07188016176223754883f, -0.02788332477211952209f, -0.00063296000007539988f, -0.16358080506324768066f, 0.35812410712242126465f, -0.01356386672705411911f, -0.29415977001190185547f, 0.21375554800033569336f, -0.06166019663214683533f, 0.00827975105494260788f, 0.02375041507184505463f, 0.13345772027969360352f, -0.00231836060993373394f, -0.18273147940635681152f, 0.06385147571563720703f, 0.05296253040432929993f, 0.05312867835164070129f, -0.08719372004270553589f},
  {0.17003408074378967285f, 0.87420111894607543945f, -0.03155974298715591431f, 0.56760942935943603516f, 0.44371041655540466309f, 0.02489847689867019653f, 0.02666448801755905151f, 0.07406907528638839722f, 0.20222353935241699219f, -0.19685254991054534912f, 0.19995971024036407471f, 0.12690296769142150879f, 0.12539000809192657471f, 0.05336288362741470337f, 0.02432198822498321533f, 0.21459098160266876221f, -0.13957093656063079834f, 0.63412243127822875977f, 0.17410570383071899414f, 0.16443127393722534180f, -0.05643425881862640381f, -0.04792311415076255798f, -0.04213892295956611633f, -0.00500238407403230667f, -0.01582232676446437836f, -0.12732484936714172363f, -0.04632806777954101562f, -0.15576000511646270752f, 0.36548635363578796387f, -0.01634657941758632660f, -0.14308375120162963867f, 0.11234242469072341919f},
  {0.03604838252067565918f, -0.02578290179371833801f, 0.01057561486959457397f, -0.06671942770481109619f, 0.03905004635453224182f, -0.02661965414881706238f, 0.04392542690038681030f, 0.01911897584795951843f, 0.14550885558128356934f, -0.01912333071231842041f, -0.02636563591659069061f, -0.25264814496040344238f, 0.11695715785026550293f, 0.00046736843069083989f, -0.00765861477702856064f, -0.04325215891003608704f, -0.03382505476474761963f, -0.05737607181072235107f, 0.22292169928550720215f, 0.04573202133178710938f, -0.03021953627467155457f, 0.02323858253657817841f, -0.01484741084277629852f, 0.00021560594905167818f, 0.03844918310642242432f, 0.02980623580515384674f, -0.06309655308723449707f, 0.08003921806812286377f, 0.01911818422377109528f, 0.02997193299233913422f, 0.22937661409378051758f, -0.02816763892769813538f},
  {0.03490119054913520813f, 0.07612977176904678345f, -0.08541701734066009521f, -0.00312903965823352337f, -0.07286286354064941406f, 0.07848241180181503296f, -0.14276151359081268311f, -0.46841073036193847656f, 0.30575424432754516602f, -0.16016083955764770508f, -0.12949903309345245361f, 0.00766741065308451653f, 0.07656987011432647705f, 0.03812634944915771484f, 0.21326154470443725586f, 0.02041947282850742340f, -0.10775623470544815063f, 0.19522583484649658203f, -0.06847054511308670044f, -0.08619771897792816162f, 0.18589901924133300781f, 0.31686389446258544922f, -0.02703288570046424866f, -0.19782455265522003174f, 0.05695303156971931458f, -0.04988710954785346985f, -0.07172582298517227173f, -0.07576067000627517700f, 0.01989898271858692169f, 0.06839551031589508057f, 0.11202370375394821167f, 0.00176463427487760782f},
  {0.22713203728199005127f, -0.44472149014472961426f, 0.09853969514369964600f, -0.34676399827003479004f, -0.06828984618186950684f, 0.01042769849300384521f, 0.05235780775547027588f, -0.20812466740608215332f, 0.12946580350399017334f, 0.03513031825423240662f, -0.01246195472776889801f, -0.02916132844984531403f, 0.07807935774326324463f, -0.03876996412873268127f, 0.08180480450391769409f, 0.14659795165061950684f, -0.11497456580400466919f, -0.18391013145446777344f, 0.08569827675819396973f, -0.14681608974933624268f, -0.11273089051246643066f, 0.18048675358295440674f, -0.04823743924498558044f, -0.11267881095409393311f, 0.02870398201048374176f, 0.04361107200384140015f, 0.06528095155954360962f, 0.00352134346030652523f, -0.09310025721788406372f, 0.06255717575550079346f, -0.15008890628814697266f, -0.03549680113792419434f}
};
static const float tensor__Decoder__layers_2_l0_bias[32] = 
{-0.04009427875280380249f, 0.01593304798007011414f, -0.00293851690366864204f, -0.01739784702658653259f, 0.03368026763200759888f, 0.02766690775752067566f, -0.02515275031328201294f, -0.00240302993915975094f, -0.02762416563928127289f, 0.07914394885301589966f, 0.04234949499368667603f, 0.02450085990130901337f, -0.08958490937948226929f, 0.03055758774280548096f, -0.04834644496440887451f, 0.00379368849098682404f, 0.02663697674870491028f, 0.01732903532683849335f, 0.03956689685583114624f, 0.02389759011566638947f, -0.05291389301419258118f, 0.05401851236820220947f, -0.00373219139873981476f, -0.01260317955166101456f, -0.09158732742071151733f, -0.02010263875126838684f, -0.03600792959332466125f, -0.00511307269334793091f, -0.00640450185164809227f, 0.02400163933634757996f, 0.04565594717860221863f, 0.00666037574410438538f};
static const float tensor__Decoder__layers_2_l1_weight[32][32] = 
{
