// This file is computer-generated by onnx2c 
// Command Line: onnx2c/build/onnx2c -d batch_size:1 --no-globals --func-name linket_decoder_forward out/models/m0_small/decoder.onnx

// onnx2c
// Git Branch: feature/func-name
// Git Commit: cfcce19

// ONNX Model
// Produced By: pytorch, version 2.10.0+cu130
// ONNX IR version: 20

#include <float.h>
#include <math.h>
#include <stdbool.h>
#include <stdint.h>
#include <string.h>
#include <stdlib.h>

#define MAX(X,Y) ( X > Y ? X : Y)
#define MIN(X,Y) ( X < Y ? X : Y)
#define CLIP(X,L) ( MAX(MIN(X,L), -L) )

#if __STDC_VERSION__ < 199901L
#define FUNC_PREFIX
#else
#define FUNC_PREFIX static inline
#endif

static const float tensor__Decoder__layers_0_weight[64][20] = 
{
  {-0.18487475812435150146f, -0.08080309629440307617f, -0.20923273265361785889f, 0.15480159223079681396f, -0.17853069305419921875f, -0.18316064774990081787f, 0.00663958117365837097f, -0.13316883146762847900f, 0.02146538347005844116f, 0.03476396575570106506f, 0.19100156426429748535f, -0.03364100307226181030f, -0.01429023593664169312f, 0.08980315923690795898f, -0.11434370279312133789f, -0.20284602046012878418f, -0.08903447538614273071f, -0.01001017540693283081f, 0.09105654060840606689f, -0.04657870531082153320f},
  {0.18144184350967407227f, -0.17317460477352142334f, -0.09412520378828048706f, -0.04771595820784568787f, 0.17026942968368530273f, -0.13280369341373443604f, 0.10372997075319290161f, 0.20939052104949951172f, -0.20126490294933319092f, -0.15565043687820434570f, -0.20121130347251892090f, -0.11953783035278320312f, -0.22427453100681304932f, 0.07426044344902038574f, -0.22937047481536865234f, -0.07386842370033264160f, 0.25567916035652160645f, -0.06599204242229461670f, -0.07448887079954147339f, -0.08747427910566329956f},
  {0.03491008654236793518f, -0.16959099471569061279f, -0.02391738072037696838f, 0.00921318959444761276f, 0.01875981315970420837f, -0.11639726161956787109f, -0.12602904438972473145f, -0.07646643370389938354f, -0.07205069065093994141f, 0.01663856394588947296f, -0.22874659299850463867f, -0.05025897920131683350f, -0.17472466826438903809f, -0.03116652369499206543f, -0.12268360704183578491f, 0.14601777493953704834f, -0.12232146412134170532f, 0.18672868609428405762f, 0.13719755411148071289f, -0.13655509054660797119f},
  {-0.11512183398008346558f, -0.01196836680173873901f, 0.05990504473447799683f, -0.17647129297256469727f, -0.14703488349914550781f, 0.16363202035427093506f, 0.21464812755584716797f, 0.12929004430770874023f, 0.14935560524463653564f, 0.15895263850688934326f, -0.12295720726251602173f, 0.16540682315826416016f, -0.01209952589124441147f, 0.06190374866127967834f, -0.22610087692737579346f, -0.05853098258376121521f, 0.19465284049510955811f, -0.01625981368124485016f, 0.10337119549512863159f, 0.15427912771701812744f},
  {-0.21330673992633819580f, -0.14695900678634643555f, 0.17445208132266998291f, -0.13066226243972778320f, 0.08401337265968322754f, 0.02706307731568813324f, 0.02689431793987751007f, -0.04062746465206146240f, -0.19209718704223632812f, 0.22860224545001983643f, -0.02935750409960746765f, -0.06945778429508209229f, 0.01786304265260696411f, 0.22900144755840301514f, 0.03613770380616188049f, -0.21541146934032440186f, -0.18481943011283874512f, -0.15698745846748352051f, -0.13387969136238098145f, -0.09934247285127639771f},
  {-0.02591690048575401306f, -0.02648221701383590698f, -0.13077896833419799805f, -0.19128280878067016602f, -0.07564569264650344849f, -0.06199334561824798584f, 0.12722766399383544922f, 0.10466299951076507568f, -0.11182710528373718262f, 0.00587244378402829170f, -0.07870115339756011963f, -0.00414266576990485191f, -0.02987934462726116180f, 0.10315327346324920654f, 0.17542983591556549072f, -0.11973606795072555542f, -0.21894235908985137939f, -0.15058489143848419189f, -0.08533660322427749634f, -0.02266571298241615295f},
  {0.08445335179567337036f, -0.16594104468822479248f, 0.32088083028793334961f, 0.22498531639575958252f, 0.03465038537979125977f, 0.01957765407860279083f, -0.06488171219825744629f, -0.11001939326524734497f, 0.10619056224822998047f, -0.15225538611412048340f, -0.20995391905307769775f, -0.07081566751003265381f, 0.16471123695373535156f, 0.06827775388956069946f, -0.03333123400807380676f, -0.09192100167274475098f, -0.03521466255187988281f, 0.25210636854171752930f, -0.09167909622192382812f, -0.11525753140449523926f},
  {-0.02842938713729381561f, 0.22067004442214965820f, 0.06382391601800918579f, 0.02870829217135906219f, -0.16680639982223510742f, 0.17840413749217987061f, -0.03811854869127273560f, 0.14184167981147766113f, -0.15754331648349761963f, -0.07825224846601486206f, 0.07682001590728759766f, -0.08206757158041000366f, 0.03681079298257827759f, -0.01202791184186935425f, 0.12774403393268585205f, -0.03443074971437454224f, -0.20422005653381347656f, 0.21419236063957214355f, -0.16734369099140167236f, 0.06222773343324661255f},
  {0.14199836552143096924f, 0.14246940612792968750f, -0.04967596009373664856f, 0.08700015395879745483f, 0.01267057657241821289f, 0.26343753933906555176f, 0.03126670792698860168f, -0.10385430604219436646f, -0.03763741627335548401f, 0.07101320475339889526f, 0.06076943501830101013f, 0.16128426790237426758f, 0.11772768199443817139f, -0.09094319492578506470f, 0.00076604116475209594f, 0.08535906672477722168f, -0.26528701186180114746f, 0.05657088384032249451f, -0.06243742257356643677f, -0.16150861978530883789f},
  {0.15933084487915039062f, -0.11900783330202102661f, -0.10925159603357315063f, 0.13194867968559265137f, 0.09158313274383544922f, 0.05552694201469421387f, -0.01612912118434906006f, -0.10645097494125366211f, 0.07225532084703445435f, 0.12744951248168945312f, -0.26765796542167663574f, -0.03017909079790115356f, 0.03493777662515640259f, -0.05179000645875930786f, -0.15204825997352600098f, -0.23752531409263610840f, 0.25579088926315307617f, -0.01053806487470865250f, -0.05486558750271797180f, -0.10503697395324707031f},
  {-0.20223604142665863037f, 0.12026380002498626709f, 0.07504045963287353516f, -0.03052565827965736389f, 0.13433375954627990723f, 0.09817134588956832886f, -0.13939774036407470703f, 0.09715271741151809692f, -0.17826382815837860107f, 0.19122210144996643066f, -0.29730316996574401855f, 0.12362736463546752930f, -0.13543580472469329834f, 0.07896503806114196777f, -0.17823673784732818604f, 0.20499207079410552979f, -0.08561141788959503174f, -0.05780147016048431396f, -0.05690030381083488464f, 0.12789969146251678467f},
  {0.03153946250677108765f, 0.21812151372432708740f, -0.04278736189007759094f, 0.11905845999717712402f, 0.08608809113502502441f, 0.20705163478851318359f, 0.21897649765014648438f, 0.04024688154458999634f, -0.00745467515662312508f, 0.09579262882471084595f, -0.02572491765022277832f, -0.10235723108053207397f, 0.21297758817672729492f, -0.17190568149089813232f, 0.13805192708969116211f, -0.09114709496498107910f, -0.00838912744075059891f, -0.03103402629494667053f, 0.11404574662446975708f, 0.18804706633090972900f},
  {-0.08333436399698257446f, 0.05567193031311035156f, 0.02494979836046695709f, 0.13718999922275543213f, -0.07416299730539321899f, -0.10606033354997634888f, -0.20385813713073730469f, 0.10155826807022094727f, 0.17135182023048400879f, -0.11340530961751937866f, -0.12920482456684112549f, 0.22742322087287902832f, -0.11831153184175491333f, -0.02628980763256549835f, 0.03510990738868713379f, -0.00060157733969390392f, 0.04257009178400039673f, 0.08076231181621551514f, -0.03716751933097839355f, -0.01530328858643770218f},
  {-0.22653207182884216309f, -0.02213802002370357513f, -0.00236479239538311958f, 0.10869900137186050415f, 0.05110926181077957153f, 0.19009819626808166504f, -0.12143201380968093872f, 0.13093549013137817383f, 0.18438565731048583984f, -0.14920215308666229248f, -0.25162860751152038574f, 0.05276488512754440308f, 0.03157129883766174316f, -0.19127413630485534668f, 0.22693973779678344727f, -0.09710285812616348267f, 0.16789487004280090332f, 0.16999065876007080078f, -0.08535108715295791626f, -0.19027665257453918457f},
  {0.18300282955169677734f, -0.07403957843780517578f, -0.05898354575037956238f, 0.01025252975523471832f, -0.10253334045410156250f, 0.22231793403625488281f, 0.08395481109619140625f, 0.10765520483255386353f, -0.00529439980164170265f, 0.04050154983997344971f, 0.15889775753021240234f, 0.00436815991997718811f, 0.12037549912929534912f, 0.21691501140594482422f, -0.16579432785511016846f, -0.23022347688674926758f, -0.04784207791090011597f, 0.13270460069179534912f, 0.01418658625334501266f, 0.16014602780342102051f},
  {0.05707683041691780090f, 0.11601645499467849731f, 0.12711538374423980713f, -0.14429256319999694824f, -0.14039589464664459229f, -0.04790726304054260254f, -0.09242283552885055542f, 0.04234310239553451538f, 0.12148502469062805176f, -0.14835961163043975830f, 0.01923167333006858826f, -0.10051331669092178345f, -0.11736818403005599976f, -0.03414941579103469849f, 0.01172335725277662277f, 0.14263093471527099609f, 0.20617595314979553223f, 0.12563879787921905518f, 0.16897308826446533203f, -0.06894843280315399170f},
  {0.15101701021194458008f, 0.08521021902561187744f, -0.15299147367477416992f, -0.21865443885326385498f, -0.13560830056667327881f, 0.01570301875472068787f, -0.20221136510372161865f, 0.13827456533908843994f, -0.05294127017259597778f, 0.15851274132728576660f, -0.18762476742267608643f, -0.03915929794311523438f, 0.08192744851112365723f, 0.21495483815670013428f, -0.02573103457689285278f, 0.02353449724614620209f, -0.01862106472253799438f, -0.02994957379996776581f, -0.19836546480655670166f, 0.10219012200832366943f},
  {0.15334093570709228516f, -0.13197517395019531250f, 0.18371556699275970459f, 0.04789875820279121399f, 0.21683585643768310547f, -0.00726950960233807564f, 0.05866510421037673950f, 0.27172380685806274414f, 0.22798237204551696777f, -0.05821511149406433105f, -0.15858590602874755859f, 0.11682324856519699097f, -0.14645978808403015137f, 0.17432595789432525635f, -0.12831602990627288818f, -0.06085666641592979431f, -0.19012860953807830811f, 0.04388855770230293274f, -0.07781150192022323608f, -0.23156327009201049805f},
  {-0.11274020373821258545f, 0.23373842239379882812f, 0.03038359060883522034f, 0.11061485111713409424f, -0.19177308678627014160f, 0.23685577511787414551f, 0.11052521318197250366f, -0.15544356405735015869f, -0.16798044741153717041f, 0.05816967785358428955f, -0.09817583113908767700f, -0.22112813591957092285f, -0.02963086962699890137f, -0.10875742882490158081f, -0.05297797918319702148f, 0.04343197494745254517f, -0.22910256683826446533f, -0.22531957924365997314f, 0.19670048356056213379f, -0.05451643466949462891f},
  {0.20512367784976959229f, -0.17557218670845031738f, -0.18725493550300598145f, 0.10092356801033020020f, -0.07415107637643814087f, 0.18138313293457031250f, 0.06947118788957595825f, 0.00581554742529988289f, 0.09352161735296249390f, 0.09124353528022766113f, -0.12409917265176773071f, -0.06106903031468391418f, -0.21147045493125915527f, -0.05181507393717765808f, -0.09122149646282196045f, -0.16095897555351257324f, -0.24634011089801788330f, -0.00137346435803920031f, 0.20891293883323669434f, -0.13193203508853912354f},
  {0.17584104835987091064f, 0.05092083290219306946f, 0.08070778101682662964f, 0.13781638443470001221f, -0.19586375355720520020f, 0.09322509914636611938f, -0.03479400277137756348f, -0.17884947359561920166f, -0.11820373684167861938f, 0.00045975329703651369f, -0.22585402429103851318f, 0.06189038977026939392f, -0.15724101662635803223f, 0.05287497863173484802f, -0.09445850551128387451f, -0.00670675002038478851f, 0.15722434222698211670f, -0.04631874337792396545f, -0.11188878118991851807f, -0.15272402763366699219f},
  {-0.04082625359296798706f, -0.07803479582071304321f, -0.16394747793674468994f, 0.07396297901868820190f, -0.00143165350891649723f, -0.11569210141897201538f, -0.08732168376445770264f, -0.07913853973150253296f, 0.10233143717050552368f, 0.02911659702658653259f, 0.01332544628530740738f, -0.20407794415950775146f, -0.10570564866065979004f, 0.11410418152809143066f, -0.21604065597057342529f, -0.01935327239334583282f, -0.17102982103824615479f, 0.02189593203365802765f, 0.09952197968959808350f, 0.02106031775474548340f},
  {0.06104328110814094543f, -0.12962388992309570312f, -0.01832663081586360931f, 0.19248528778553009033f, 0.17432126402854919434f, -0.11894615739583969116f, -0.01241531129926443100f, -0.10791967064142227173f, -0.31576049327850341797f, 0.04406368732452392578f, 0.12204578518867492676f, 0.07324081659317016602f, 0.17882700264453887939f, -0.09154333919286727905f, 0.14529913663864135742f, -0.12117646634578704834f, 0.20107397437095642090f, -0.09186369925737380981f, -0.05367654934525489807f, -0.04595856741070747375f},
  {0.02442173473536968231f, -0.07329238206148147583f, 0.14296749234199523926f, 0.13689365983009338379f, -0.04713667929172515869f, 0.20407535135746002197f, -0.19692379236221313477f, 0.22053197026252746582f, -0.25149372220039367676f, -0.03744023665785789490f, 0.13211920857429504395f, 0.07832587510347366333f, -0.19312182068824768066f, -0.18773446977138519287f, -0.13518771529197692871f, -0.20135980844497680664f, -0.04591849818825721741f, 0.00303843710571527481f, -0.05784087628126144409f, -0.15360604226589202881f},
  {-0.03382407873868942261f, -0.07538956403732299805f, 0.11054084450006484985f, -0.08842361718416213989f, 0.00771021470427513123f, -0.13605017960071563721f, 0.22339326143264770508f, -0.19028234481811523438f, -0.24240919947624206543f, 0.14293752610683441162f, -0.08065436780452728271f, 0.05961147695779800415f, -0.07979769259691238403f, 0.02245172113180160522f, 0.05124743655323982239f, -0.10302280634641647339f, 0.13835352659225463867f, 0.14934870600700378418f, 0.18836897611618041992f, 0.05022755637764930725f},
  {-0.05725157260894775391f, -0.01534113474190235138f, -0.02977352589368820190f, -0.09885532408952713013f, 0.17807215452194213867f, 0.11244068294763565063f, -0.03826738521456718445f, -0.12022496759891510010f, 0.16406504809856414795f, 0.02528064325451850891f, 0.22854180634021759033f, -0.16181330382823944092f, -0.04976112395524978638f, 0.04846255108714103699f, 0.00596029823645949364f, 0.02547172084450721741f, 0.20245291292667388916f, 0.17843443155288696289f, -0.09764429926872253418f, 0.16437584161758422852f},
  {0.00833225250244140625f, -0.11335039883852005005f, 0.04662175476551055908f, -0.05452928692102432251f, -0.20006398856639862061f, -0.16893784701824188232f, 0.23204392194747924805f, -0.07188206166028976440f, 0.04624117538332939148f, -0.18501499295234680176f, 0.03189674392342567444f, -0.12497889250516891479f, -0.01548018027096986771f, 0.15618212521076202393f, 0.17063479125499725342f, -0.11253362149000167847f, -0.18479123711585998535f, 0.05432808771729469299f, 0.18938674032688140869f, -0.06811904162168502808f},
  {-0.09434365481138229370f, -0.17911612987518310547f, 0.10048919171094894409f, -0.02436092123389244080f, 0.09495951980352401733f, 0.07804194092750549316f, -0.09902994334697723389f, -0.12164641171693801880f, 0.04039220139384269714f, 0.19220979511737823486f, -0.24362240731716156006f, -0.06082212924957275391f, 0.16002075374126434326f, -0.23393292725086212158f, 0.18568018078804016113f, -0.19950078427791595459f, -0.19333578646183013916f, 0.01727743819355964661f, -0.04202982410788536072f, 0.15884248912334442139f},
  {0.13305343687534332275f, -0.14096410572528839111f, -0.08060017228126525879f, -0.10806510597467422485f, -0.14927946031093597412f, 0.04203689098358154297f, 0.14631785452365875244f, -0.01467076502740383148f, 0.07683514803647994995f, 0.11144242435693740845f, 0.01043603569269180298f, -0.07942243665456771851f, 0.12289188057184219360f, -0.02858553268015384674f, -0.04480349645018577576f, 0.11473981291055679321f, 0.18994088470935821533f, 0.11203715950250625610f, -0.13356381654739379883f, 0.08181940764188766479f},
  {0.12341359257698059082f, -0.13139463961124420166f, 0.07392673939466476440f, 0.17887181043624877930f, 0.05707694590091705322f, -0.14980380237102508545f, -0.04633660614490509033f, 0.10930817574262619019f, 0.18639717996120452881f, 0.06145422905683517456f, 0.24901095032691955566f, 0.02783308178186416626f, 0.16761106252670288086f, 0.20756870508193969727f, 0.17404581606388092041f, 0.11352059990167617798f, 0.25329864025115966797f, -0.19714593887329101562f, 0.11046730726957321167f, -0.12624520063400268555f},
  {0.01032086089253425598f, 0.12662300467491149902f, 0.18370330333709716797f, -0.02649359777569770813f, 0.08985818177461624146f, 0.08094073086977005005f, -0.05965007096529006958f, 0.14724308252334594727f, 0.10938100516796112061f, -0.13009446859359741211f, 0.02818748354911804199f, 0.04294321686029434204f, 0.00566614326089620590f, -0.04104935005307197571f, 0.07457196712493896484f, 0.14142328500747680664f, -0.05351504683494567871f, 0.15006007254123687744f, 0.16564826667308807373f, 0.10139036178588867188f},
  {-0.22982066869735717773f, -0.10579579323530197144f, -0.13127838075160980225f, 0.23163703083992004395f, 0.16584795713424682617f, 0.14273020625114440918f, -0.09079165756702423096f, -0.07721288502216339111f, 0.01728457957506179810f, -0.12223005294799804688f, -0.27449089288711547852f, 0.09730163961648941040f, -0.13905090093612670898f, 0.05466042459011077881f, -0.03146284446120262146f, -0.19827450811862945557f, 0.12489626556634902954f, 0.07793428748846054077f, 0.20885334908962249756f, 0.16220326721668243408f},
  {0.11541797220706939697f, 0.08755482733249664307f, 0.17335824668407440186f, 0.04024620354175567627f, 0.12801609933376312256f, 0.06817114353179931641f, -0.10284888744354248047f, -0.00237380107864737511f, -0.28119862079620361328f, -0.04733720421791076660f, -0.00642841495573520660f, -0.08007053285837173462f, 0.00377278984524309635f, -0.00651194527745246887f, -0.06983926147222518921f, 0.11519060283899307251f, 0.05539264157414436340f, 0.11104542762041091919f, 0.00041601227712817490f, 0.08227504044771194458f},
  {0.14565411210060119629f, 0.12886165082454681396f, 0.23854257166385650635f, -0.03050869517028331757f, -0.00377308763563632965f, -0.11688099056482315063f, -0.20771409571170806885f, -0.16994304955005645752f, 0.07610648125410079956f, 0.16926147043704986572f, -0.10775306075811386108f, 0.07030036300420761108f, -0.13647505640983581543f, -0.15821447968482971191f, -0.20713785290718078613f, 0.14666445553302764893f, 0.10632999986410140991f, -0.10084419697523117065f, 0.05290463194251060486f, 0.14030830562114715576f},
  {0.08626526594161987305f, 0.07087662070989608765f, -0.20544572174549102783f, -0.16457986831665039062f, 0.08609987795352935791f, -0.04518176987767219543f, 0.20647186040878295898f, 0.09151264280080795288f, 0.14261904358863830566f, -0.07957194000482559204f, 0.11497355997562408447f, -0.02049339935183525085f, 0.13492825627326965332f, 0.22502338886260986328f, 0.22379717230796813965f, 0.14422988891601562500f, 0.12944568693637847900f, 0.01502014696598052979f, 0.01084505300968885422f, 0.12082263082265853882f},
  {0.06139631941914558411f, 0.01422110013663768768f, 0.16845846176147460938f, 0.10494758933782577515f, 0.22787114977836608887f, 0.02795204892754554749f, 0.20657587051391601562f, -0.22545173764228820801f, 0.14440341293811798096f, -0.14252546429634094238f, 0.03881665319204330444f, 0.02595428563654422760f, -0.16472536325454711914f, 0.06257089972496032715f, -0.14817500114440917969f, -0.10735429823398590088f, -0.19447135925292968750f, -0.18808816373348236084f, -0.11262264102697372437f, -0.17653873562812805176f},
  {0.17084433138370513916f, -0.05955422669649124146f, -0.09825976938009262085f, -0.19079764187335968018f, 0.21841931343078613281f, -0.11158689111471176147f, -0.18650007247924804688f, -0.13171254098415374756f, 0.16783410310745239258f, 0.18046300113201141357f, -0.02977103181183338165f, -0.00474258372560143471f, 0.19920091331005096436f, 0.02057067677378654480f, -0.17922033369541168213f, 0.07612772285938262939f, 0.14566862583160400391f, 0.00707489484921097755f, -0.13926492631435394287f, -0.17387458682060241699f},
  {-0.17991524934768676758f, 0.11030701547861099243f, 0.03519454225897789001f, -0.03033166751265525818f, -0.17019003629684448242f, 0.08751902729272842407f, 0.05448362976312637329f, -0.26818412542343139648f, -0.11311975866556167603f, -0.20580761134624481201f, 0.00134278472978621721f, 0.18240383267402648926f, 0.18799215555191040039f, 0.00587424356490373611f, 0.07138136029243469238f, 0.05355718731880187988f, -0.04042664170265197754f, -0.01563168317079544067f, -0.23200528323650360107f, 0.20860090851783752441f},
  {-0.11827047914266586304f, 0.22014804184436798096f, -0.12618330121040344238f, -0.05218398571014404297f, 0.16826900839805603027f, -0.11416828632354736328f, 0.05019752681255340576f, -0.04145734012126922607f, -0.21175867319107055664f, 0.17672011256217956543f, 0.09666880965232849121f, 0.24076417088508605957f, 0.14824976027011871338f, -0.14170131087303161621f, -0.02719580195844173431f, -0.13135959208011627197f, 0.16777414083480834961f, -0.09380757063627243042f, -0.20333822071552276611f, -0.00945719890296459198f},
  {-0.01532779261469841003f, -0.16624054312705993652f, 0.17748607695102691650f, 0.00113709445577114820f, -0.11272360384464263916f, 0.09260091930627822876f, -0.06688266247510910034f, -0.14432565867900848389f, 0.20375776290893554688f, -0.09875963628292083740f, 0.11084996163845062256f, -0.00375565490685403347f, -0.19833394885063171387f, 0.20317843556404113770f, 0.04221365228295326233f, -0.22222739458084106445f, -0.00843290425837039948f, 0.18335542082786560059f, 0.23929490149021148682f, -0.04497327655553817749f},
  {0.07519829273223876953f, -0.04867508262395858765f, -0.11878483742475509644f, 0.03511684015393257141f, 0.14020070433616638184f, -0.02029436640441417694f, 0.15901544690132141113f, -0.01649020053446292877f, -0.27534285187721252441f, -0.07669449597597122192f, -0.15337577462196350098f, 0.04972242936491966248f, -0.09214317053556442261f, -0.02213847450911998749f, -0.05108815059065818787f, -0.07736924290657043457f, -0.08735022693872451782f, 0.07465592771768569946f, 0.15100653469562530518f, -0.19296988844871520996f},
  {-0.18086609244346618652f, -0.16432644426822662354f, -0.17315733432769775391f, 0.05329009890556335449f, 0.21440351009368896484f, 0.20770530402660369873f, -0.19261218607425689697f, 0.17239987850189208984f, 0.01508250273764133453f, -0.19020390510559082031f, 0.16623280942440032959f, -0.17326681315898895264f, 0.23474092781543731689f, -0.03297035023570060730f, 0.14334875345230102539f, -0.12401225417852401733f, 0.06235953420400619507f, -0.05617006868124008179f, 0.02714155241847038269f, -0.06501951813697814941f},
  {-0.13025252521038055420f, -0.23574614524841308594f, -0.18753743171691894531f, -0.12327113747596740723f, 0.01315048895776271820f, 0.08095075190067291260f, -0.05202780663967132568f, -0.18262965977191925049f, -0.03671106696128845215f, 0.16171565651893615723f, -0.20738577842712402344f, 0.13210742175579071045f, 0.01617400161921977997f, -0.15166385471820831299f, -0.06926053017377853394f, 0.10372659564018249512f, -0.08965846896171569824f, 0.16685488820075988770f, 0.11909247189760208130f, -0.15951494872570037842f},
  {0.09286374598741531372f, 0.18879783153533935547f, -0.12275166064500808716f, 0.08411176502704620361f, -0.08906574547290802002f, 0.13158667087554931641f, -0.23390766978263854980f, -0.13726168870925903320f, 0.01455457136034965515f, -0.00891882367432117462f, -0.00687901489436626434f, 0.18222856521606445312f, 0.06753121316432952881f, 0.14389149844646453857f, -0.12445415556430816650f, -0.03712096810340881348f, 0.10712566971778869629f, -0.16419844329357147217f, -0.06625010073184967041f, -0.02064894698560237885f},
  {-0.09884857386350631714f, -0.14990171790122985840f, 0.17178073525428771973f, 0.02146269567310810089f, 0.17958711087703704834f, -0.22835344076156616211f, 0.02918029949069023132f, 0.15605282783508300781f, -0.13506391644477844238f, 0.01978493668138980865f, -0.14841771125793457031f, -0.19297210872173309326f, 0.24532204866409301758f, -0.08256095647811889648f, -0.16162890195846557617f, 0.19455747306346893311f, 0.09329960495233535767f, -0.17067733407020568848f, 0.20364795625209808350f, 0.03857752680778503418f},
  {-0.15297582745552062988f, 0.02317695319652557373f, 0.13589768111705780029f, -0.14161860942840576172f, 0.09056521207094192505f, 0.03593759238719940186f, -0.02863665670156478882f, -0.15344093739986419678f, -0.14855197072029113770f, 0.19541071355342864990f, 0.07439694553613662720f, -0.05454276129603385925f, 0.07079440355300903320f, 0.25085851550102233887f, -0.18654137849807739258f, 0.12700429558753967285f, -0.05707189068198204041f, -0.18921163678169250488f, 0.00034690476604737341f, 0.02837429381906986237f},
  {0.08171820640563964844f, 0.12791365385055541992f, 0.06522089987993240356f, 0.13855421543121337891f, 0.00373699935153126717f, -0.07601527869701385498f, -0.19601684808731079102f, 0.13610406219959259033f, -0.15738090872764587402f, -0.11215835809707641602f, -0.21301160752773284912f, 0.21011455357074737549f, -0.08007159084081649780f, 0.24204801023006439209f, 0.09857943654060363770f, -0.03151153028011322021f, -0.03681353107094764709f, 0.19664308428764343262f, -0.18249498307704925537f, 0.17567604780197143555f},
  {0.08543393760919570923f, 0.16957186162471771240f, -0.16484032571315765381f, -0.05489084869623184204f, 0.20701238512992858887f, 0.10938304662704467773f, 0.11106157302856445312f, -0.05239932611584663391f, -0.21803225576877593994f, -0.14197625219821929932f, 0.03686430305242538452f, 0.02751512639224529266f, -0.05687433108687400818f, -0.05125392228364944458f, -0.20808023214340209961f, -0.18540224432945251465f, 0.24054051935672760010f, 0.16669796407222747803f, -0.18121737241744995117f, -0.08868595957756042480f},
  {-0.22762468457221984863f, 0.08245657384395599365f, -0.11541106551885604858f, 0.18187239766120910645f, -0.17886735498905181885f, -0.14853446185588836670f, -0.00339275505393743515f, 0.10682552307844161987f, -0.03224624320864677429f, 0.20267395675182342529f, 0.17669048905372619629f, 0.18313346803188323975f, 0.14843156933784484863f, 0.14223091304302215576f, -0.16307672858238220215f, 0.13852129876613616943f, 0.01882795244455337524f, 0.05027271062135696411f, -0.18072684109210968018f, -0.09839358925819396973f},
  {-0.17150284349918365479f, -0.11647984385490417480f, -0.18718123435974121094f, -0.14660161733627319336f, 0.14514039456844329834f, 0.15596301853656768799f, -0.11295084655284881592f, -0.23809079825878143311f, 0.11951515823602676392f, 0.07961785048246383667f, 0.13989479839801788330f, -0.14525987207889556885f, -0.15342789888381958008f, 0.06990950554609298706f, 0.12535703182220458984f, 0.00987987965345382690f, -0.08950479328632354736f, -0.12789513170719146729f, -0.23594850301742553711f, 0.06540512293577194214f},
  {-0.11962359398603439331f, 0.00111366854980587959f, -0.15466092526912689209f, -0.00403736997395753860f, 0.10236734151840209961f, -0.03906076774001121521f, 0.18992231786251068115f, -0.12600801885128021240f, -0.20441012084484100342f, -0.23567010462284088135f, -0.03375634551048278809f, 0.17011991143226623535f, 0.20516194403171539307f, 0.02265419065952301025f, -0.16130799055099487305f, -0.09187212586402893066f, -0.19775329530239105225f, 0.05428487062454223633f, -0.06925951689481735229f, -0.14902374148368835449f},
  {0.08880056440830230713f, 0.18356035649776458740f, -0.08035229891538619995f, -0.03832327574491500854f, 0.10371813923120498657f, -0.18030463159084320068f, 0.18925014138221740723f, -0.13861423730850219727f, 0.06895518302917480469f, -0.05928816646337509155f, -0.17337323725223541260f, 0.21014918386936187744f, 0.13322880864143371582f, 0.13654752075672149658f, -0.12724402546882629395f, 0.15759764611721038818f, 0.07049589604139328003f, -0.14391379058361053467f, -0.03697592765092849731f, -0.02238497324287891388f},
  {0.15047071874141693115f, -0.19178916513919830322f, 0.03945436328649520874f, -0.12923656404018402100f, 0.18556162714958190918f, 0.21581177413463592529f, -0.10681843757629394531f, 0.13906534016132354736f, 0.07932604849338531494f, -0.17526771128177642822f, -0.21621225774288177490f, 0.06072241067886352539f, 0.20612369477748870850f, 0.02561456337571144104f, 0.11821284145116806030f, 0.19622419774532318115f, -0.21859678626060485840f, 0.12387607246637344360f, 0.09723363816738128662f, 0.09989936649799346924f},
  {0.18081411719322204590f, -0.06829577684402465820f, -0.10846797376871109009f, 0.00819189939647912979f, -0.08603683859109878540f, 0.21389715373516082764f, 0.06761305779218673706f, -0.07063349336385726929f, 0.12610790133476257324f, -0.10125280171632766724f, -0.05201758444309234619f, 0.20697253942489624023f, -0.04982776939868927002f, 0.03160987794399261475f, -0.02584472671151161194f, 0.06800714880228042603f, 0.05725532025098800659f, -0.13700698316097259521f, -0.06790095567703247070f, 0.21512731909751892090f},
  {-0.04659277945756912231f, -0.11531266570091247559f, 0.04686345532536506653f, -0.10664113610982894897f, 0.10626609623432159424f, 0.20197336375713348389f, -0.02249367907643318176f, -0.15762627124786376953f, -0.03295241296291351318f, -0.02106375619769096375f, -0.00945203378796577454f, 0.14414900541305541992f, -0.12627963721752166748f, 0.07960741221904754639f, 0.06862126290798187256f, 0.15267229080200195312f, 0.22343784570693969727f, -0.11178328841924667358f, -0.03314338997006416321f, -0.15791787207126617432f},
  {-0.02093863114714622498f, 0.00130146252922713757f, -0.23780731856822967529f, 0.04498648270964622498f, -0.15006989240646362305f, 0.15947517752647399902f, 0.13266234099864959717f, -0.24064996838569641113f, -0.24335350096225738525f, -0.13594028353691101074f, -0.03990710899233818054f, -0.16518516838550567627f, -0.08316743373870849609f, 0.15596108138561248779f, -0.06141955778002738953f, 0.03945741057395935059f, 0.06853602826595306396f, -0.02145578712224960327f, 0.02722797729074954987f, 0.03649903461337089539f},
  {-0.07726866751909255981f, 0.24159295856952667236f, -0.11906903982162475586f, 0.02895787730813026428f, 0.12931242585182189941f, 0.16407430171966552734f, -0.06143497675657272339f, 0.14102016389369964600f, -0.16704733669757843018f, 0.12623077630996704102f, -0.02960807643830776215f, -0.06022027134895324707f, 0.12965559959411621094f, -0.18273621797561645508f, 0.09534449875354766846f, -0.04171089828014373779f, -0.06668404489755630493f, -0.25084072351455688477f, 0.10328115522861480713f, -0.06251075863838195801f},
  {-0.01631992682814598083f, -0.02149230986833572388f, 0.06832211464643478394f, -0.19619993865489959717f, -0.04672902822494506836f, 0.19157554209232330322f, 0.09985808283090591431f, 0.06949940323829650879f, 0.29977279901504516602f, 0.12461893260478973389f, 0.09903022646903991699f, -0.09419509768486022949f, -0.05796948820352554321f, 0.05052522942423820496f, 0.15744745731353759766f, -0.24105501174926757812f, -0.14259026944637298584f, -0.07016011327505111694f, -0.04529354721307754517f, 0.12307402491569519043f},
  {-0.12848478555679321289f, -0.14650249481201171875f, -0.01412578020244836807f, -0.03444296494126319885f, -0.16493111848831176758f, 0.03661183267831802368f, -0.15605607628822326660f, 0.11375615000724792480f, -0.03185156360268592834f, -0.14106774330139160156f, 0.12528431415557861328f, 0.15460093319416046143f, -0.09883093833923339844f, -0.21105282008647918701f, -0.28903546929359436035f, -0.01098734512925148010f, 0.20864297449588775635f, -0.08014333993196487427f, -0.05404722318053245544f, 0.21251891553401947021f},
  {0.07393351197242736816f, -0.15888373553752899170f, -0.13886071741580963135f, -0.15235048532485961914f, 0.07171247899532318115f, -0.18206779658794403076f, -0.20755262672901153564f, 0.04320949688553810120f, -0.07916817069053649902f, -0.17717228829860687256f, -0.08982347697019577026f, 0.22085855901241302490f, 0.27979528903961181641f, 0.06447204947471618652f, -0.14909587800502777100f, -0.14335425198078155518f, -0.25089582800865173340f, -0.21496100723743438721f, 0.00568047119304537773f, -0.11692368984222412109f},
  {0.01112499553710222244f, 0.14888295531272888184f, -0.00006030981967342086f, 0.03481585904955863953f, -0.23300589621067047119f, 0.02050657570362091064f, 0.16471348702907562256f, 0.13655082881450653076f, -0.01545561850070953369f, -0.15999363362789154053f, 0.21286509931087493896f, -0.06656129658222198486f, -0.09518628567457199097f, -0.02629410661756992340f, -0.20603026449680328369f, 0.06528207659721374512f, 0.20940974354743957520f, -0.05114470049738883972f, 0.16938926279544830322f, -0.21121168136596679688f},
  {-0.19836093485355377197f, 0.11274352669715881348f, -0.07817734777927398682f, -0.02670031227171421051f, -0.03928797319531440735f, -0.21705140173435211182f, -0.13055527210235595703f, 0.07635321468114852905f, -0.10281895846128463745f, 0.05535469949245452881f, 0.20391568541526794434f, -0.10435678809881210327f, 0.14427728950977325439f, -0.09975944459438323975f, 0.04762704670429229736f, -0.21508985757827758789f, 0.05189404636621475220f, 0.21659556031227111816f, 0.14520870149135589600f, -0.14519931375980377197f},
  {0.16000734269618988037f, -0.25380191206932067871f, -0.14119565486907958984f, 0.05454974994063377380f, 0.14531694352626800537f, -0.09321521222591400146f, 0.19423174858093261719f, 0.02516260370612144470f, -0.12752231955528259277f, 0.01747529022395610809f, 0.20687107741832733154f, 0.12169963866472244263f, -0.08849603682756423950f, -0.10101954638957977295f, -0.08192908763885498047f, 0.11467222124338150024f, -0.17414742708206176758f, 0.21885326504707336426f, 0.05952207371592521667f, -0.10490282624959945679f},
  {-0.16770884394645690918f, 0.19856901466846466064f, 0.17543682456016540527f, 0.07508969306945800781f, -0.08690758794546127319f, -0.14496365189552307129f, 0.14398233592510223389f, -0.00873999949544668198f, -0.00046881882008165121f, -0.12568610906600952148f, 0.11772029846906661987f, 0.02564670145511627197f, -0.07302076369524002075f, -0.19507171213626861572f, -0.24207659065723419189f, 0.02452122606337070465f, 0.17850562930107116699f, -0.17087480425834655762f, 0.11303961277008056641f, 0.12879806756973266602f}
};
static const float tensor__Decoder__layers_0_bias[64] = 
{-0.11853210628032684326f, -0.07651709020137786865f, -0.06308543682098388672f, 0.11628766357898712158f, 0.01543967239558696747f, 0.07906669378280639648f, -0.14220631122589111328f, -0.19328624010086059570f, -0.04830381274223327637f, 0.12769994139671325684f, 0.10633579641580581665f, -0.10192234814167022705f, -0.07466106861829757690f, 0.12214521318674087524f, -0.08579442650079727173f, 0.17069891095161437988f, -0.10957041382789611816f, 0.01124710123986005783f, -0.12168490886688232422f, -0.08543206751346588135f, -0.18564018607139587402f, 0.10242573171854019165f, 0.17812696099281311035f, 0.04710932448506355286f, 0.08729011565446853638f, 0.01923780143260955811f, 0.09466155618429183960f, 0.17611496150493621826f, -0.17589233815670013428f, 0.04983813688158988953f, 0.11727460473775863647f, 0.11698941886425018311f, -0.19017945230007171631f, -0.00561030954122543335f, 0.07895755767822265625f, -0.15581205487251281738f, -0.12280783057212829590f, -0.03648245334625244141f, 0.12032859772443771362f, -0.05581599846482276917f, -0.12439720332622528076f, 0.10481930524110794067f, 0.17872452735900878906f, 0.11444036662578582764f, -0.07297141849994659424f, 0.09110563993453979492f, 0.12550628185272216797f, 0.13124205172061920166f, -0.12851278483867645264f, 0.18347327411174774170f, 0.15004324913024902344f, 0.02545513026416301727f, 0.01290648896247148514f, 0.16717018187046051025f, 0.08278402686119079590f, -0.04364389181137084961f, -0.11772771924734115601f, 0.16948974132537841797f, -0.05563138425350189209f, -0.14497682452201843262f, -0.24182195961475372314f, -0.07050853967666625977f, 0.03068828396499156952f, -0.12307397276163101196f};
static const float tensor__Decoder__layers_1_l0_weight[64][64] = 
{
  {0.04245636239647865295f, -0.03054789453744888306f, -0.05495248734951019287f, -0.05547057092189788818f, -0.06494906544685363770f, 0.11725392937660217285f, 0.03964067995548248291f, -0.02949262782931327820f, 0.13110768795013427734f, 0.00777718657627701759f, -0.09788877516984939575f, 0.08898320794105529785f, 0.07107951492071151733f, 0.07705348730087280273f, 0.02180145867168903351f, -0.04989758506417274475f, -0.09928443282842636108f, 0.04473208263516426086f, -0.02240902930498123169f, 0.15532393753528594971f, -0.07561788707971572876f, -0.03368832543492317200f, 0.02527440525591373444f, -0.07890005409717559814f, -0.02155536971986293793f, 0.05343858897686004639f, -0.01274834200739860535f, 0.11896779388189315796f, -0.03387664258480072021f, -0.04397377744317054749f, -0.00256859045475721359f, 0.06926996260881423950f, -0.05816516280174255371f, -0.02629398740828037262f, -0.13794556260108947754f, -0.01989945210516452789f, 0.11639185249805450439f, -0.10446163266897201538f, -0.00539588322862982750f, 0.01442976947873830795f, 0.14669260382652282715f, 0.09317170083522796631f, 0.02390540204942226410f, -0.00053741899318993092f, 0.03244771435856819153f, 0.02658876404166221619f, -0.09088981896638870239f, 0.07816281914710998535f, 0.03323157504200935364f, 0.00917080976068973541f, -0.07069656252861022949f, 0.01596435904502868652f, 0.05171658098697662354f, -0.14412996172904968262f, 0.02495283447206020355f, -0.09999199211597442627f, 0.04642621800303459167f, 0.00096079509239643812f, -0.13364718854427337646f, -0.02452035620808601379f, -0.09815903753042221069f, 0.14634019136428833008f, 0.04583632200956344604f, -0.10748379677534103394f},
  {-0.08228415995836257935f, 0.12966500222682952881f, -0.17056217789649963379f, 0.08744613826274871826f, -0.05327937752008438110f, -0.10652698576450347900f, -0.00603175815194845200f, 0.05090613663196563721f, -0.11648838222026824951f, 0.02120286040008068085f, 0.04887446761131286621f, -0.04959953203797340393f, -0.04623159021139144897f, -0.03177399933338165283f, 0.10216095298528671265f, 0.01189970877021551132f, 0.04672231152653694153f, -0.13670897483825683594f, -0.02111991867423057556f, -0.22476375102996826172f, -0.03736871480941772461f, -0.16225595772266387939f, -0.04364356026053428650f, 0.01679761335253715515f, -0.09755709022283554077f, -0.05240692570805549622f, -0.05224921554327011108f, -0.02295868471264839172f, 0.12746089696884155273f, -0.07459428906440734863f, -0.08870951831340789795f, -0.04515995830297470093f, 0.05978727340698242188f, 0.12547172605991363525f, -0.05992132797837257385f, -0.03257295489311218262f, 0.00162293040193617344f, -0.00614809803664684296f, 0.00799903832376003265f, 0.07372876256704330444f, -0.02967384643852710724f, -0.05676541477441787720f, -0.00559709966182708740f, 0.02564352191984653473f, 0.03782131150364875793f, 0.01359913125634193420f, -0.04490909725427627563f, 0.03288654983043670654f, -0.10513493418693542480f, -0.08300191164016723633f, -0.07637673616409301758f, -0.05178490281105041504f, -0.00013776577543467283f, 0.05177653208374977112f, -0.05892632529139518738f, -0.08814278244972229004f, -0.06810560077428817749f, -0.00142482016235589981f, 0.21727675199508666992f, 0.06743900477886199951f, -0.04342724382877349854f, -0.05093135312199592590f, -0.12751142680644989014f, -0.08795882761478424072f},
  {-0.07251955568790435791f, -0.17668968439102172852f, -0.03685523942112922668f, 0.14285221695899963379f, 0.07889211177825927734f, -0.04271287471055984497f, 0.07259522378444671631f, -0.01694477722048759460f, -0.07429108768701553345f, 0.02059761434793472290f, 0.02076316997408866882f, -0.00463750492781400681f, -0.06061706319451332092f, 0.05497901514172554016f, 0.00491279503330588341f, -0.07402590662240982056f, 0.09792754054069519043f, 0.07653356343507766724f, -0.03749297559261322021f, 0.11083787679672241211f, -0.08531779050827026367f, 0.13578762114048004150f, -0.11261036247014999390f, 0.02787846699357032776f, 0.10085194557905197144f, -0.11383332312107086182f, 0.07584515959024429321f, -0.05818346142768859863f, -0.06486757099628448486f, -0.09497521817684173584f, -0.04681427776813507080f, 0.00620288820937275887f, 0.08413349837064743042f, 0.08516706526279449463f, 0.01540314871817827225f, -0.01977848634123802185f, -0.13258588314056396484f, 0.01491480227559804916f, 0.11281725764274597168f, -0.09629187732934951782f, -0.07403580844402313232f, 0.05568297579884529114f, 0.12137367576360702515f, 0.05654080212116241455f, 0.07397460937500000000f, -0.03967521339654922485f, -0.10623398423194885254f, -0.00291379098780453205f, 0.11835849285125732422f, -0.06921264529228210449f, -0.06407963484525680542f, 0.04765448719263076782f, -0.10736693441867828369f, 0.13577227294445037842f, 0.07428660243749618530f, -0.04354451224207878113f, -0.11036112904548645020f, 0.11898196488618850708f, 0.05741060152649879456f, -0.01893612369894981384f, -0.08384861052036285400f, -0.02638028748333454132f, -0.06887817382812500000f, 0.04389598220586776733f},
  {0.01183237787336111069f, 0.08734442293643951416f, -0.07671225816011428833f, 0.07159020751714706421f, 0.07346646487712860107f, -0.02568675018846988678f, -0.05396229773759841919f, 0.06431795656681060791f, 0.02921060845255851746f, -0.06418140232563018799f, 0.02464951388537883759f, -0.06132331117987632751f, 0.07337440550327301025f, 0.02771637588739395142f, -0.08950705826282501221f, -0.06417044252157211304f, -0.08393040299415588379f, -0.03427946567535400391f, 0.01008928101509809494f, 0.03577787056565284729f, 0.04266618192195892334f, 0.06187099218368530273f, -0.03334330394864082336f, -0.01217838376760482788f, -0.00608186004683375359f, 0.01231687981635332108f, 0.02058031968772411346f, 0.00376293808221817017f, -0.08694791793823242188f, -0.01061613764613866806f, -0.03718316927552223206f, -0.06516220420598983765f, -0.09301457554101943970f, 0.08603011816740036011f, -0.05376525223255157471f, -0.00203729164786636829f, 0.00589423719793558121f, -0.11983320862054824829f, -0.08772768825292587280f, -0.06853142380714416504f, -0.21643258631229400635f, 0.09273767471313476562f, 0.04391876980662345886f, -0.03345627337694168091f, 0.04652091115713119507f, -0.08060205727815628052f, -0.19123828411102294922f, -0.05438601225614547729f, -0.05992360413074493408f, -0.09612104296684265137f, -0.13454298675060272217f, -0.14006607234477996826f, 0.01077018026262521744f, -0.05156421661376953125f, 0.08331816643476486206f, -0.05151362344622612000f, -0.09588500857353210449f, 0.02918129973113536835f, 0.01706366054713726044f, -0.14542886614799499512f, -0.05298213288187980652f, 0.08838647603988647461f, -0.07246639579534530640f, -0.05305138975381851196f},
  {-0.03355789184570312500f, 0.05156344920396804810f, 0.03188911452889442444f, 0.00255866744555532932f, 0.00631415378302335739f, -0.02874030545353889465f, 0.00083377858391031623f, -0.05992196872830390930f, 0.08299766480922698975f, 0.12810122966766357422f, 0.00261687650345265865f, 0.04700951650738716125f, 0.05371826887130737305f, 0.02413351833820343018f, 0.01759527809917926788f, 0.01118218526244163513f, -0.01224244665354490280f, -0.08853876590728759766f, -0.01989698968827724457f, 0.14703440666198730469f, -0.10429812967777252197f, -0.15153214335441589355f, -0.06606294959783554077f, 0.10969992727041244507f, -0.11271209269762039185f, -0.07783701270818710327f, 0.02158808521926403046f, -0.08396419137716293335f, -0.00106069014873355627f, -0.01443463750183582306f, 0.02345573157072067261f, 0.10501253604888916016f, -0.07227358222007751465f, -0.12927795946598052979f, 0.04497937485575675964f, -0.03564092889428138733f, -0.05905354022979736328f, 0.11308265477418899536f, 0.12496824562549591064f, 0.10646889358758926392f, 0.02842539921402931213f, -0.06231686100363731384f, -0.03574844449758529663f, 0.03815604746341705322f, -0.11841154098510742188f, -0.04881051927804946899f, -0.04443449527025222778f, 0.09648623317480087280f, 0.08797112107276916504f, -0.00675287609919905663f, 0.00410459330305457115f, 0.08668890595436096191f, 0.04816135019063949585f, 0.04279848560690879822f, -0.02066207118332386017f, 0.09075883775949478149f, 0.13614524900913238525f, 0.07363678514957427979f, 0.08771873265504837036f, 0.04103126749396324158f, -0.07042909413576126099f, 0.03046497143805027008f, -0.07664056867361068726f, -0.11696559935808181763f},
  {0.11453475058078765869f, 0.14994184672832489014f, -0.05160540342330932617f, 0.02436069212853908539f, -0.11062128841876983643f, -0.07470335811376571655f, 0.00205651810392737389f, -0.00805387366563081741f, -0.09669069945812225342f, 0.12217173725366592407f, 0.04922341555356979370f, -0.08565545827150344849f, -0.10716553777456283569f, -0.06103492155671119690f, -0.02888354472815990448f, 0.10454612970352172852f, 0.06277839839458465576f, -0.00560511648654937744f, -0.07836481183767318726f, 0.04352973401546478271f, -0.04375372454524040222f, -0.12924550473690032959f, -0.06441920250654220581f, 0.03217656910419464111f, 0.00539900735020637512f, -0.01253341138362884521f, -0.04076325893402099609f, -0.15356898307800292969f, -0.04228503629565238953f, 0.06821211427450180054f, -0.08801738917827606201f, 0.10606008768081665039f, 0.04028931260108947754f, -0.06353995203971862793f, 0.04534991830587387085f, 0.09757640957832336426f, 0.10136397182941436768f, -0.02200861833989620209f, 0.04377712681889533997f, 0.07809826731681823730f, -0.03948600590229034424f, -0.04530724138021469116f, 0.08848892897367477417f, 0.14442025125026702881f, 0.07112226635217666626f, 0.08737441897392272949f, -0.00760211376473307610f, 0.12763336300849914551f, 0.07874183356761932373f, -0.03017987124621868134f, 0.04073295742273330688f, -0.07082483172416687012f, 0.10603272169828414917f, 0.07681830227375030518f, -0.01592743024230003357f, -0.05057362467050552368f, 0.09268332272768020630f, 0.08286737650632858276f, 0.11092954874038696289f, -0.06324593722820281982f, -0.04830442368984222412f, -0.09377872943878173828f, -0.03434997051954269409f, 0.00457925535738468170f},
  {-0.11082160472869873047f, -0.04978713393211364746f, 0.03766651451587677002f, -0.03318021073937416077f, 0.11787810176610946655f, 0.13732521235942840576f, 0.02162265963852405548f, 0.10923713445663452148f, -0.11149144172668457031f, -0.06233812868595123291f, 0.01694437302649021149f, -0.02416971139609813690f, 0.13090991973876953125f, -0.09005855023860931396f, 0.02077859081327915192f, -0.10794480144977569580f, 0.08883075416088104248f, 0.05726124718785285950f, -0.12915682792663574219f, -0.04671294987201690674f, -0.00629545561969280243f, -0.07128623127937316895f, 0.11318861693143844604f, -0.06812208145856857300f, 0.02469466254115104675f, -0.05344995856285095215f, 0.03470115736126899719f, -0.07157175242900848389f, 0.07703359425067901611f, 0.04208120331168174744f, 0.12490718811750411987f, 0.04698245227336883545f, 0.05042310431599617004f, 0.04962746053934097290f, 0.03007241152226924896f, -0.05066680163145065308f, -0.06748721003532409668f, 0.12822376191616058350f, -0.11302445828914642334f, -0.05386652424931526184f, 0.01040151435881853104f, 0.08480565994977951050f, 0.05739787220954895020f, -0.11249297112226486206f, -0.10890202224254608154f, 0.00384861044585704803f, 0.07751004397869110107f, 0.08798720687627792358f, 0.12171719223260879517f, 0.06063616275787353516f, 0.10007745027542114258f, -0.13629589974880218506f, 0.03919503465294837952f, 0.06385514140129089355f, 0.01843543536961078644f, 0.02117932401597499847f, -0.03639306128025054932f, 0.13864216208457946777f, -0.08131996542215347290f, 0.06931725889444351196f, -0.12137965857982635498f, 0.03591837733983993530f, 0.12084079533815383911f, -0.09080877155065536499f},
  {0.01070370990782976151f, 0.08192113786935806274f, 0.04385847598314285278f, -0.10325063765048980713f, 0.06156014278531074524f, -0.01746824942529201508f, -0.11740420758724212646f, 0.06699983030557632446f, 0.13271923363208770752f, 0.07461579889059066772f, -0.10076056420803070068f, 0.06325238198041915894f, -0.05592359974980354309f, -0.09923139959573745728f, 0.06706896424293518066f, -0.03402603045105934143f, 0.01915613748133182526f, 0.07779764384031295776f, 0.05653145536780357361f, 0.13295146822929382324f, -0.00926408078521490097f, -0.08420674502849578857f, -0.06780661642551422119f, -0.00806538015604019165f, 0.03632114827632904053f, 0.16496688127517700195f, -0.06035332754254341125f, -0.11639460176229476929f, 0.00961637124419212341f, 0.02171845920383930206f, -0.04964058101177215576f, 0.05467971041798591614f, 0.06758747249841690063f, 0.02330585382878780365f, 0.13976235687732696533f, 0.03923951461911201477f, 0.01591802015900611877f, -0.02811516262590885162f, -0.11154609918594360352f, 0.02833137847483158112f, 0.09142187982797622681f, -0.01585430093109607697f, -0.03009015135467052460f, -0.02983560785651206970f, 0.04187321290373802185f, -0.13920973241329193115f, 0.00914521235972642899f, -0.09635977447032928467f, -0.11324496567249298096f, 0.11345099657773971558f, 0.02798968553543090820f, 0.04312825947999954224f, 0.05179888755083084106f, -0.03754281625151634216f, 0.09662622213363647461f, 0.01236303057521581650f, 0.01429023593664169312f, 0.06707480549812316895f, -0.02034017816185951233f, 0.00877190008759498596f, -0.12163761258125305176f, -0.07307215034961700439f, 0.12914603948593139648f, -0.00963036622852087021f},
  {0.05286091193556785583f, -0.18339906632900238037f, -0.04217799752950668335f, -0.11782059818506240845f, 0.07662782818078994751f, -0.01859156414866447449f, 0.03675147891044616699f, -0.10924557596445083618f, -0.06388288736343383789f, -0.10647920519113540649f, 0.05090129747986793518f, 0.11711835116147994995f, 0.07910718768835067749f, -0.03251475468277931213f, -0.01065112929791212082f, -0.06737589836120605469f, 0.03055313043296337128f, 0.09035929292440414429f, 0.03892835229635238647f, -0.09905102103948593140f, -0.05827464163303375244f, -0.01231308095157146454f, 0.04001549258828163147f, 0.11961955577135086060f, 0.01438833121210336685f, -0.08447465300559997559f, 0.11546277254819869995f, -0.08796582370996475220f, -0.10782107710838317871f, 0.08458594977855682373f, -0.04476061090826988220f, 0.11584568768739700317f, 0.08539510518312454224f, -0.06741824746131896973f, -0.05690459161996841431f, 0.02048476226627826691f, -0.06713727861642837524f, 0.11051723361015319824f, -0.11078271269798278809f, 0.04462983831763267517f, 0.00152791838627308607f, -0.01870793849229812622f, -0.05210877954959869385f, -0.11001598834991455078f, 0.04904813691973686218f, 0.02225010469555854797f, -0.09501065313816070557f, 0.05865580961108207703f, -0.04907901212573051453f, -0.07229230552911758423f, 0.07934732735157012939f, -0.07299634069204330444f, 0.12467978149652481079f, -0.03869333118200302124f, -0.04480740427970886230f, 0.01370209455490112305f, 0.02722431346774101257f, 0.10685488581657409668f, 0.08184086531400680542f, -0.00657701119780540466f, -0.00126469938550144434f, 0.00346041750162839890f, 0.08704347908496856689f, -0.07385721057653427124f},
  {-0.15544202923774719238f, 0.03867737576365470886f, 0.06689896434545516968f, -0.08455093950033187866f, 0.07182778418064117432f, 0.11773552745580673218f, -0.13878411054611206055f, -0.00924563407897949219f, -0.09534472972154617310f, 0.01667315699160099030f, 0.10834131389856338501f, 0.03663711622357368469f, -0.19371971487998962402f, 0.07746746391057968140f, 0.04393634572625160217f, 0.01182890869677066803f, 0.05595768988132476807f, 0.02155244536697864532f, -0.02938352711498737335f, 0.10215808451175689697f, 0.00776319298893213272f, -0.07815333455801010132f, -0.05097268894314765930f, -0.03659873455762863159f, 0.04021592810750007629f, 0.13501867651939392090f, 0.01497511472553014755f, 0.06147661432623863220f, 0.13170737028121948242f, -0.15141765773296356201f, 0.08965562283992767334f, 0.07651529461145401001f, 0.04669564217329025269f, -0.04587711393833160400f, -0.10602828860282897949f, 0.05516388639807701111f, 0.00633067404851317406f, -0.06410647928714752197f, -0.05603227019309997559f, -0.04137504100799560547f, -0.09543697535991668701f, -0.07411754131317138672f, 0.06592744588851928711f, -0.04438420757651329041f, 0.03393777459859848022f, -0.05349164828658103943f, 0.04870424047112464905f, 0.02074811235070228577f, -0.09177768975496292114f, 0.00827613472938537598f, -0.09129898250102996826f, -0.11437106877565383911f, 0.09822916239500045776f, -0.02140338532626628876f, -0.04593665525317192078f, 0.01881909742951393127f, 0.14445813000202178955f, -0.01954326219856739044f, 0.01151039637625217438f, -0.02813868038356304169f, -0.06128501147031784058f, 0.04207799583673477173f, 0.06472828239202499390f, -0.07976574450731277466f},
  {0.05816898122429847717f, -0.00331624411046504974f, -0.01460981462150812149f, 0.02427163533866405487f, -0.03376946970820426941f, -0.06651686877012252808f, 0.00760886352509260178f, 0.00012786559818778187f, -0.01523301657289266586f, -0.05026281252503395081f, -0.06077392399311065674f, 0.09685619920492172241f, -0.05317820236086845398f, 0.01733304001390933990f, 0.01975421607494354248f, 0.08465531468391418457f, 0.06100965291261672974f, -0.05830497667193412781f, -0.03412321582436561584f, 0.00370793021284043789f, -0.03072238154709339142f, 0.01190419960767030716f, 0.01297092717140913010f, -0.10762571543455123901f, -0.04780330508947372437f, -0.09458828717470169067f, -0.00116498058196157217f, -0.09027028083801269531f, 0.01057049725204706192f, 0.02033961378037929535f, 0.11506327241659164429f, -0.01127111259847879410f, 0.01466885674744844437f, -0.05722411349415779114f, -0.00711365183815360069f, -0.05711489170789718628f, -0.07710500061511993408f, 0.15188091993331909180f, 0.04792123287916183472f, -0.05878359451889991760f, 0.11569047719240188599f, -0.05816103890538215637f, 0.10582293570041656494f, -0.10358682274818420410f, -0.09242167323827743530f, -0.07509514689445495605f, 0.11740256845951080322f, 0.02849459089338779449f, -0.05494995787739753723f, -0.13281647861003875732f, 0.12872295081615447998f, 0.01669613271951675415f, 0.13933195173740386963f, 0.02874111756682395935f, -0.10463095456361770630f, 0.03762033581733703613f, -0.07011860609054565430f, -0.09452143311500549316f, 0.00226987618952989578f, 0.01254782453179359436f, 0.07509341835975646973f, 0.01553342957049608231f, -0.07551330327987670898f, -0.10330243408679962158f},
  {0.05866878107190132141f, -0.00537280179560184479f, 0.10446214675903320312f, -0.01379358116537332535f, 0.00646240217611193657f, -0.02350623719394207001f, 0.13036584854125976562f, 0.04104496166110038757f, -0.04820857942104339600f, -0.03707881271839141846f, 0.12484580278396606445f, -0.02093343995511531830f, 0.11646495014429092407f, 0.03054501861333847046f, -0.06730075925588607788f, 0.00173955166246742010f, -0.02414034307003021240f, 0.02416835539042949677f, -0.01273912563920021057f, 0.05305138975381851196f, 0.11906764656305313110f, -0.01581314392387866974f, -0.05073120072484016418f, -0.04492000490427017212f, -0.16530315577983856201f, 0.04610298201441764832f, 0.07067348808050155640f, 0.01962437294423580170f, -0.04391698911786079407f, 0.09144278615713119507f, -0.07368010282516479492f, -0.09104756265878677368f, -0.05742306262254714966f, 0.07862848043441772461f, -0.08190324902534484863f, 0.06502519547939300537f, 0.07810563594102859497f, 0.07336231321096420288f, -0.09158205240964889526f, -0.13490809500217437744f, -0.01177130453288555145f, -0.10874292254447937012f, 0.03885167092084884644f, -0.04757346957921981812f, -0.13753050565719604492f, 0.01117014419287443161f, -0.06802406907081604004f, 0.05388722941279411316f, 0.10384485870599746704f, 0.11892717331647872925f, 0.07131309807300567627f, 0.03236656263470649719f, 0.07433219999074935913f, 0.07139673084020614624f, 0.12338434159755706787f, -0.12749080359935760498f, -0.07553097605705261230f, -0.02846645750105381012f, -0.11045809835195541382f, -0.04754698276519775391f, 0.00596052734181284904f, -0.13848541676998138428f, 0.04576282948255538940f, 0.06124119833111763000f},
  {0.03392412513494491577f, -0.11922962963581085205f, -0.11562792956829071045f, 0.05346040055155754089f, -0.06191691756248474121f, 0.03643070161342620850f, -0.06675681471824645996f, 0.01419000420719385147f, -0.06241131573915481567f, -0.06497112661600112915f, -0.05853011086583137512f, 0.05039377138018608093f, -0.00153986050281673670f, 0.08119171112775802612f, 0.00472690584138035774f, -0.07135398685932159424f, -0.10323335975408554077f, 0.10491061210632324219f, -0.11577418446540832520f, -0.07912474125623703003f, -0.03111924976110458374f, -0.01605374924838542938f, 0.08755648136138916016f, 0.10539171844720840454f, -0.14261171221733093262f, -0.04295662418007850647f, -0.04893071949481964111f, -0.03142675012350082397f, 0.10467734187841415405f, -0.05670072883367538452f, 0.13105124235153198242f, 0.09441154450178146362f, -0.02907585911452770233f, 0.00165876746177673340f, -0.10891684889793395996f, -0.03033131919801235199f, -0.06678305566310882568f, 0.00683162128552794456f, 0.00723128300160169601f, 0.02578154392540454865f, 0.07606587558984756470f, 0.05317102372646331787f, -0.07277486473321914673f, -0.08323515206575393677f, -0.00175620953086763620f, 0.11307949572801589966f, -0.01033960282802581787f, 0.01909612119197845459f, -0.13192720711231231689f, -0.00396699598059058189f, 0.04231144860386848450f, 0.01497936528176069260f, -0.07264893501996994019f, 0.13317045569419860840f, -0.01179246604442596436f, -0.04159700497984886169f, -0.09806666523218154907f, 0.03393382579088211060f, 0.11554704606533050537f, 0.03421870619058609009f, -0.04262791201472282410f, 0.03918617591261863708f, -0.08441048115491867065f, 0.12332177907228469849f},
  {-0.07608876377344131470f, -0.07546868175268173218f, -0.09444238990545272827f, 0.07185579091310501099f, 0.02736525051295757294f, 0.07246706634759902954f, 0.02201858907938003540f, 0.09660515189170837402f, -0.13963665068149566650f, 0.05084544792771339417f, 0.08208956569433212280f, 0.12836077809333801270f, 0.08260665833950042725f, 0.04246017336845397949f, 0.01502771768718957901f, -0.08306319266557693481f, 0.10142986476421356201f, -0.00497301761060953140f, 0.00674899946898221970f, -0.03908156231045722961f, -0.09745941311120986938f, 0.08315721899271011353f, 0.02664329670369625092f, -0.07231894135475158691f, 0.04953047260642051697f, -0.07491890341043472290f, -0.08728509396314620972f, -0.04401812329888343811f, 0.09092580527067184448f, 0.09007363766431808472f, -0.11804053187370300293f, -0.08797803521156311035f, 0.08496864885091781616f, 0.04274228960275650024f, 0.01628184877336025238f, -0.08940219134092330933f, 0.03718433529138565063f, 0.09759337455034255981f, 0.01059887930750846863f, -0.11005679517984390259f, -0.03380189463496208191f, 0.05441724136471748352f, -0.05544553324580192566f, -0.12611351907253265381f, -0.03895391151309013367f, -0.01113114319741725922f, -0.07601426541805267334f, -0.05055490881204605103f, 0.08045230805873870850f, -0.12758335471153259277f, -0.00065504200756549835f, -0.06350255757570266724f, 0.09840835630893707275f, 0.07490624487400054932f, -0.11461989581584930420f, 0.09774841368198394775f, 0.03302048891782760620f, 0.08201563358306884766f, -0.03808434307575225830f, 0.01077078748494386673f, -0.06025173142552375793f, -0.13281281292438507080f, 0.07247734069824218750f, 0.04002914205193519592f},
  {0.06312522292137145996f, -0.17745521664619445801f, 0.05913817882537841797f, -0.02995267137885093689f, -0.10482793301343917847f, 0.03313567861914634705f, 0.08396229147911071777f, 0.11401267349720001221f, 0.09284716099500656128f, 0.06357549130916595459f, 0.06069984659552574158f, -0.05802219733595848083f, 0.09406197071075439453f, 0.07098361849784851074f, -0.03401194140315055847f, -0.01160814613103866577f, -0.02104055322706699371f, -0.10009635239839553833f, -0.13143004477024078369f, -0.08641886711120605469f, -0.03624043613672256470f, -0.10582050681114196777f, 0.10817364603281021118f, 0.00482751242816448212f, 0.09280014038085937500f, -0.15142197906970977783f, -0.05788195133209228516f, -0.06105119735002517700f, 0.03243704140186309814f, -0.07198107987642288208f, -0.06434743851423263550f, 0.00654165493324398994f, 0.03590181469917297363f, -0.04543894901871681213f, 0.09565854072570800781f, -0.08645440638065338135f, 0.03906390443444252014f, -0.03636776655912399292f, -0.11700150370597839355f, 0.14022159576416015625f, -0.03439813479781150818f, -0.07018445432186126709f, 0.10768393427133560181f, -0.08176302164793014526f, 0.02884061634540557861f, 0.03126501291990280151f, 0.02526309341192245483f, -0.02037191204726696014f, -0.08204179257154464722f, -0.02438872121274471283f, 0.02228238247334957123f, -0.04199636727571487427f, 0.07478190213441848755f, -0.07162742316722869873f, 0.10010425746440887451f, -0.10191611200571060181f, -0.12913273274898529053f, 0.09561002254486083984f, -0.15618799626827239990f, 0.00268543115817010403f, -0.11013571918010711670f, -0.14997908473014831543f, -0.09660495817661285400f, -0.11301292479038238525f},
  {0.03757248073816299438f, -0.16840010881423950195f, 0.04773960635066032410f, 0.11712007969617843628f, -0.09690161794424057007f, 0.01464811339974403381f, 0.02596267871558666229f, 0.02840925753116607666f, 0.17655278742313385010f, -0.02947729080915451050f, 0.06355912983417510986f, 0.05034502223134040833f, -0.04179539903998374939f, -0.00316693587228655815f, 0.10842743515968322754f, 0.02918456681072711945f, -0.11360622942447662354f, -0.04795638471841812134f, -0.01222172752022743225f, 0.12685149908065795898f, -0.07113887369632720947f, -0.02723507396876811981f, 0.07382845878601074219f, -0.02027994394302368164f, -0.02487005107104778290f, -0.01504024863243103027f, -0.03587284311652183533f, 0.04502623900771141052f, -0.10950404405593872070f, -0.14393202960491180420f, -0.08583030104637145996f, 0.10836099833250045776f, 0.03134461492300033569f, -0.11931045353412628174f, 0.04659335687756538391f, 0.11635794490575790405f, 0.03626234829425811768f, 0.10176382958889007568f, 0.09707619249820709229f, 0.02965315245091915131f, 0.03647454082965850830f, -0.00532563356682658195f, 0.00009712658356875181f, -0.08984349668025970459f, -0.09598504751920700073f, -0.12721487879753112793f, -0.00146669091191142797f, 0.02548761293292045593f, -0.08827199041843414307f, 0.07901191711425781250f, 0.03059440478682518005f, 0.15496706962585449219f, 0.08226057142019271851f, 0.11824814975261688232f, 0.05389492213726043701f, 0.07751491665840148926f, 0.10554575175046920776f, 0.10973346978425979614f, -0.13287237286567687988f, 0.10395522415637969971f, 0.00079396931687369943f, 0.04414252936840057373f, -0.06330084800720214844f, 0.03774762526154518127f},
  {0.11880091577768325806f, -0.07634942233562469482f, -0.02108810655772686005f, -0.12967640161514282227f, 0.02025300636887550354f, -0.02954400889575481415f, -0.11094249039888381958f, 0.09235562384128570557f, -0.00859745405614376068f, 0.03771440684795379639f, -0.07716000825166702271f, 0.05993508175015449524f, -0.04643015936017036438f, -0.09539207816123962402f, -0.05082784965634346008f, -0.12574771046638488770f, -0.10656472295522689819f, 0.12244448810815811157f, -0.06813652068376541138f, -0.04916968196630477905f, 0.00740761077031493187f, 0.00228664558380842209f, 0.07241359353065490723f, 0.10264781862497329712f, 0.08166548609733581543f, 0.04869386181235313416f, -0.03197560086846351624f, -0.00952617824077606201f, -0.05412336438894271851f, 0.01307807583361864090f, 0.08173787593841552734f, 0.12145712226629257202f, -0.10461851209402084351f, 0.03636995702981948853f, -0.09622278064489364624f, 0.13086770474910736084f, -0.04567499831318855286f, -0.09936244785785675049f, 0.04746532812714576721f, 0.04767652601003646851f, -0.10026597976684570312f, -0.07240235805511474609f, 0.02015145868062973022f, -0.01728843525052070618f, -0.06752811372280120850f, -0.03861080855131149292f, -0.05666660144925117493f, -0.04582966119050979614f, -0.03010079450905323029f, 0.11857455223798751831f, 0.06501023471355438232f, -0.00313009810633957386f, -0.11878795921802520752f, -0.06972885876893997192f, 0.04476144164800643921f, 0.07254423946142196655f, 0.04602993652224540710f, 0.01377337425947189331f, -0.11407849192619323730f, -0.08491066843271255493f, -0.06017403677105903625f, -0.07957407087087631226f, -0.00247180904261767864f, -0.02609227970242500305f},
  {0.07780816406011581421f, -0.07420193403959274292f, 0.02496878802776336670f, 0.03356027975678443909f, 0.00813885405659675598f, 0.10613372176885604858f, -0.00582218961790204048f, 0.11719453334808349609f, -0.07429721206426620483f, -0.08057204633951187134f, -0.05095890164375305176f, 0.02050928026437759399f, -0.11138086020946502686f, -0.07296261191368103027f, -0.08582055568695068359f, 0.01536846347153186798f, 0.07291619479656219482f, 0.09789057821035385132f, 0.01033367589116096497f, -0.14693428575992584229f, -0.04466584697365760803f, -0.06369980424642562866f, -0.05794621258974075317f, -0.03213169798254966736f, 0.01170708611607551575f, -0.00910155382007360458f, -0.07703562080860137939f, -0.04713616520166397095f, -0.06261063367128372192f, -0.15140889585018157959f, -0.05572840198874473572f, -0.14761438965797424316f, 0.01082274504005908966f, -0.06906079500913619995f, 0.08440614491701126099f, -0.04899986088275909424f, -0.06435101479291915894f, 0.09720649570226669312f, 0.03133041784167289734f, 0.00927479844540357590f, -0.05227774381637573242f, -0.07849181443452835083f, -0.05737404897809028625f, 0.05602071061730384827f, -0.00897945370525121689f, -0.02618040144443511963f, 0.05672486871480941772f, 0.02496774494647979736f, 0.00454556755721569061f, 0.12973853945732116699f, 0.06072651967406272888f, -0.09385369718074798584f, 0.09130129963159561157f, -0.02100842073559761047f, 0.03100050613284111023f, -0.02952896617352962494f, 0.07083246856927871704f, -0.02319774962961673737f, 0.05355891585350036621f, 0.08144720643758773804f, -0.00328022404573857784f, 0.08665397763252258301f, -0.10711003839969635010f, 0.09391065686941146851f},
  {0.01082436274737119675f, -0.05946421623229980469f, -0.10476159304380416870f, 0.02379631996154785156f, 0.02639389783143997192f, -0.00779559183865785599f, -0.10499763488769531250f, 0.02950726263225078583f, 0.06113264337182044983f, -0.03101381659507751465f, 0.06630586832761764526f, 0.06221866235136985779f, -0.01228570099920034409f, 0.09715352207422256470f, -0.06610669195652008057f, -0.01666928641498088837f, -0.07766184210777282715f, 0.07217204570770263672f, -0.02208580262959003448f, 0.12893885374069213867f, 0.10177641361951828003f, -0.00667140819132328033f, -0.09289800375699996948f, 0.09495173394680023193f, 0.02399687655270099640f, 0.08809235692024230957f, 0.05030866712331771851f, 0.06874540448188781738f, 0.09129027277231216431f, -0.09012980014085769653f, -0.06190438941121101379f, 0.07328246533870697021f, -0.13573315739631652832f, 0.09582760185003280640f, 0.03066657669842243195f, 0.01303420308977365494f, -0.04174973070621490479f, -0.02311548963189125061f, 0.04999926686286926270f, -0.01608772203326225281f, -0.07483895868062973022f, 0.06826870143413543701f, 0.02394616417586803436f, 0.03649799898266792297f, -0.14107117056846618652f, -0.06127818301320075989f, 0.07265980541706085205f, 0.03735621646046638489f, 0.02003147266805171967f, -0.09303034842014312744f, 0.02836463227868080139f, -0.05720204859972000122f, -0.03113870322704315186f, 0.13952174782752990723f, -0.04502906277775764465f, 0.04216522350907325745f, -0.05918581038713455200f, 0.10142048448324203491f, -0.05315892025828361511f, 0.05185942724347114563f, 0.07703296840190887451f, -0.15394799411296844482f, 0.14595259726047515869f, -0.08118698745965957642f},
  {-0.00990808755159378052f, -0.00798368267714977264f, 0.06435982882976531982f, -0.16873006522655487061f, -0.06728680431842803955f, -0.00801983196288347244f, 0.10021381825208663940f, 0.07605117559432983398f, -0.00171343435067683458f, -0.00761445332318544388f, -0.04132772237062454224f, 0.06642588227987289429f, -0.06392015516757965088f, 0.12310267984867095947f, 0.02876115590333938599f, -0.06706555187702178955f, -0.05257000029087066650f, -0.11288641393184661865f, -0.04441000521183013916f, 0.08035212010145187378f, 0.08535268902778625488f, -0.02067445032298564911f, 0.12486270070075988770f, -0.01807196997106075287f, 0.01420828513801097870f, 0.06712435185909271240f, 0.05431299284100532532f, 0.13265496492385864258f, -0.04820172116160392761f, -0.07266259193420410156f, 0.08277618139982223511f, -0.00598168279975652695f, -0.07388225942850112915f, 0.08576256036758422852f, -0.09007265418767929077f, 0.02162102237343788147f, -0.09826891124248504639f, 0.13955862820148468018f, 0.00814297050237655640f, -0.09903091192245483398f, 0.00462455488741397858f, 0.10132472217082977295f, 0.07513663172721862793f, 0.02550383284687995911f, 0.11941684037446975708f, 0.10873609036207199097f, 0.00457409443333745003f, -0.11976404488086700439f, 0.11520093679428100586f, -0.03100165724754333496f, -0.04694632813334465027f, -0.07563567906618118286f, 0.13323429226875305176f, -0.05010933056473731995f, 0.03816494718194007874f, -0.03811565041542053223f, 0.02188662998378276825f, -0.09078638255596160889f, -0.09362562745809555054f, 0.06832830607891082764f, -0.08202467113733291626f, -0.06519838422536849976f, -0.03949256986379623413f, -0.02679536491632461548f},
  {0.08767993748188018799f, -0.07008869200944900513f, 0.04703952744603157043f, -0.01445909868925809860f, 0.10369262844324111938f, 0.01796472072601318359f, 0.04990616813302040100f, -0.06026926264166831970f, -0.09527734667062759399f, -0.07632164657115936279f, 0.08468089252710342407f, 0.10252591967582702637f, -0.09761890023946762085f, 0.06283101439476013184f, -0.14403247833251953125f, 0.02276218123733997345f, -0.08601734787225723267f, 0.12875464558601379395f, 0.03363193199038505554f, -0.02524971403181552887f, -0.12372173368930816650f, 0.06227862089872360229f, 0.04993004351854324341f, -0.06364026665687561035f, -0.14734616875648498535f, 0.10650174319744110107f, -0.05689813196659088135f, -0.07338144630193710327f, -0.11833038181066513062f, 0.01709784567356109619f, 0.13371546566486358643f, 0.06926701962947845459f, -0.02373654581606388092f, 0.03696524724364280701f, -0.04881275072693824768f, 0.00020250790112186223f, -0.15154682099819183350f, 0.11153353750705718994f, 0.01452706381678581238f, -0.12929378449916839600f, 0.00449036573991179466f, 0.16402345895767211914f, -0.04733156785368919373f, 0.04816820472478866577f, -0.02809690311551094055f, -0.08971180766820907593f, 0.12332563102245330811f, 0.00173202122095972300f, -0.07729983329772949219f, -0.07637806236743927002f, 0.03637361153960227966f, -0.06916795670986175537f, 0.06536614149808883667f, 0.04746802151203155518f, 0.00042252230923622847f, 0.07967741787433624268f, 0.10491411387920379639f, 0.01289955619722604752f, 0.10173685848712921143f, -0.10416703671216964722f, -0.02286334708333015442f, -0.09010302275419235229f, -0.09562251716852188110f, 0.10398983210325241089f},
  {-0.02489743940532207489f, 0.13291880488395690918f, -0.02190472558140754700f, -0.06046082824468612671f, 0.07609991729259490967f, -0.00724516808986663818f, 0.04168217256665229797f, 0.02227513864636421204f, -0.05585321411490440369f, 0.08694157749414443970f, 0.04199982807040214539f, -0.03032847121357917786f, -0.06879365444183349609f, 0.03435109183192253113f, 0.10046828538179397583f, -0.08668635040521621704f, 0.14584386348724365234f, -0.02515631914138793945f, -0.03981306031346321106f, 0.12116736173629760742f, 0.03152516856789588928f, 0.05055109784007072449f, -0.10989181697368621826f, -0.08973467350006103516f, 0.00553640397265553474f, 0.08618623763322830200f, 0.07327342033386230469f, 0.05633199587464332581f, -0.07058229297399520874f, 0.06978915631771087646f, 0.06387391686439514160f, 0.07592126727104187012f, 0.04236725717782974243f, 0.07758159935474395752f, 0.06119164079427719116f, -0.00581088662147521973f, -0.07501745969057083130f, -0.06488012522459030151f, -0.09374970197677612305f, 0.01069319341331720352f, 0.01522339880466461182f, 0.10239039361476898193f, -0.04463863372802734375f, -0.07743859291076660156f, 0.04452648386359214783f, 0.00546531146392226219f, 0.09118132293224334717f, -0.07026679068803787231f, -0.06074824184179306030f, -0.04789656028151512146f, -0.01706638187170028687f, 0.10518576949834823608f, 0.06375255435705184937f, 0.09360319375991821289f, 0.10587032139301300049f, 0.09677973389625549316f, 0.08954931795597076416f, 0.02817657217383384705f, -0.04894284904003143311f, 0.08406656235456466675f, 0.02787616848945617676f, 0.00091894471552222967f, -0.02542822435498237610f, -0.07229094207286834717f},
  {0.10720338672399520874f, -0.07463957369327545166f, 0.00240495451726019382f, -0.00102802773471921682f, 0.04253650829195976257f, 0.11484285444021224976f, -0.06818259507417678833f, -0.01569784805178642273f, -0.05684730410575866699f, 0.03808794915676116943f, -0.01135647948831319809f, 0.03383901342749595642f, 0.03333387523889541626f, 0.00767074944451451302f, 0.08736020326614379883f, -0.07342421263456344604f, 0.03159175440669059753f, 0.01783923059701919556f, -0.00798203703016042709f, 0.08108280599117279053f, -0.05397581309080123901f, 0.05356734991073608398f, 0.00341994082555174828f, -0.02524021267890930176f, 0.01679620333015918732f, 0.04124853014945983887f, 0.03399619460105895996f, 0.03077168762683868408f, -0.05222548916935920715f, -0.00539605086669325829f, -0.01063289586454629898f, 0.09091843664646148682f, -0.07723218947649002075f, 0.01724456250667572021f, -0.05581033602356910706f, -0.02932552993297576904f, -0.11024034023284912109f, -0.04982834681868553162f, 0.01284593623131513596f, -0.01441045012325048447f, -0.09215202927589416504f, -0.04362108930945396423f, -0.07260977476835250854f, 0.08802217990159988403f, -0.05235919728875160217f, 0.06931060552597045898f, -0.08766560256481170654f, -0.02572498843073844910f, 0.10349378734827041626f, -0.04884390532970428467f, -0.08667839318513870239f, 0.03238965943455696106f, 0.00262167328037321568f, 0.01142432913184165955f, 0.08830934762954711914f, 0.01251689717173576355f, 0.01807630620896816254f, 0.11503835022449493408f, -0.01131653133779764175f, -0.05903151258826255798f, -0.05127510055899620056f, -0.06698986887931823730f, 0.03827588260173797607f, -0.11678601056337356567f},
  {-0.12169020622968673706f, 0.03770637884736061096f, 0.04808336123824119568f, -0.07391789555549621582f, -0.12052247673273086548f, -0.00482085905969142914f, -0.08560474961996078491f, -0.11198930442333221436f, -0.05173954740166664124f, -0.08314462751150131226f, -0.02218028344213962555f, -0.08780696243047714233f, -0.05998104065656661987f, -0.01839973218739032745f, 0.02402700483798980713f, -0.03200657665729522705f, -0.05606881156563758850f, 0.00837330613285303116f, 0.07977199554443359375f, -0.02666873857378959656f, -0.00101753009948879480f, 0.05864710733294487000f, 0.05699664726853370667f, -0.08069652318954467773f, -0.04497823119163513184f, -0.02439004182815551758f, 0.04393846541643142700f, -0.14111027121543884277f, -0.07953619211912155151f, -0.00625556893646717072f, -0.00067557848524302244f, -0.00121223682072013617f, -0.06236492469906806946f, 0.07366833835840225220f, 0.00772703625261783600f, 0.00184062821790575981f, -0.03080022148787975311f, 0.07902283966541290283f, -0.11358459293842315674f, 0.04625174775719642639f, 0.01836269535124301910f, -0.07278297841548919678f, -0.00460656499490141869f, 0.14868918061256408691f, -0.00713295815512537956f, -0.01074747834354639053f, 0.02226391993463039398f, 0.05284036695957183838f, -0.11665064096450805664f, 0.03740185126662254333f, -0.00507995113730430603f, 0.01604918204247951508f, -0.05553095042705535889f, 0.03533822298049926758f, 0.11199397593736648560f, 0.15125639736652374268f, -0.11592662334442138672f, -0.16199961304664611816f, 0.03792586177587509155f, -0.01197951287031173706f, -0.10654030740261077881f, -0.14590533077716827393f, -0.05531772598624229431f, 0.06854829937219619751f},
  {-0.07468738406896591187f, 0.13496494293212890625f, -0.03980651497840881348f, 0.05865506455302238464f, -0.06753123551607131958f, 0.02079598046839237213f, 0.00010667421884136274f, -0.12666763365268707275f, 0.08855901658535003662f, 0.06345611065626144409f, -0.04369834065437316895f, -0.04189168661832809448f, -0.06566263735294342041f, -0.04222439602017402649f, -0.03349961712956428528f, -0.09017076343297958374f, -0.01370182074606418610f, 0.05357561632990837097f, -0.12286148965358734131f, -0.14353774487972259521f, -0.08865728229284286499f, -0.16417160630226135254f, 0.07486160099506378174f, -0.04005682840943336487f, -0.14454270899295806885f, -0.04001405835151672363f, -0.09857831150293350220f, 0.08225329965353012085f, 0.05091861635446548462f, -0.08088323473930358887f, -0.08149461448192596436f, 0.03631491586565971375f, 0.01600916311144828796f, 0.02090343646705150604f, -0.10706496983766555786f, -0.11844732612371444702f, 0.08378360420465469360f, 0.15797594189643859863f, -0.04761262610554695129f, 0.04341090098023414612f, -0.02526221051812171936f, 0.13216976821422576904f, -0.12639397382736206055f, 0.06868274509906768799f, 0.08436816185712814331f, -0.03899264335632324219f, -0.12671451270580291748f, 0.05509601905941963196f, -0.02499585598707199097f, 0.09033802896738052368f, 0.03043325617909431458f, -0.04277535900473594666f, -0.00862631015479564667f, 0.00880943518131971359f, 0.13271340727806091309f, -0.01275647059082984924f, -0.15633946657180786133f, -0.04077903553843498230f, 0.09944242984056472778f, 0.09103665500879287720f, 0.05600198730826377869f, 0.06324189901351928711f, -0.08085879683494567871f, -0.06823757290840148926f},
  {-0.03659836947917938232f, -0.06666748970746994019f, -0.07093898952007293701f, 0.02024727128446102142f, -0.10173160582780838013f, -0.01961966045200824738f, -0.11198917776346206665f, -0.10123820602893829346f, -0.04064520075917243958f, -0.07588050514459609985f, -0.05159042403101921082f, -0.06201563403010368347f, 0.06058136373758316040f, 0.00096253940137103200f, -0.01321565732359886169f, 0.00858547631651163101f, 0.04273831844329833984f, 0.11649293452501296997f, -0.14262773096561431885f, -0.03017036803066730499f, 0.12027979642152786255f, -0.16861538589000701904f, 0.05468539521098136902f, 0.02733578719198703766f, -0.07473030686378479004f, -0.08090738952159881592f, 0.09227572381496429443f, 0.13987490534782409668f, 0.00825726334005594254f, -0.04632129892706871033f, -0.00730571523308753967f, 0.01771177910268306732f, 0.03455573692917823792f, -0.04576881229877471924f, -0.12834507226943969727f, -0.01868403702974319458f, -0.02536946721374988556f, 0.12601229548454284668f, 0.03014925122261047363f, -0.10238251835107803345f, -0.06415766477584838867f, -0.00555230537429451942f, 0.00735787767916917801f, -0.05642000213265419006f, -0.02013731747865676880f, -0.04884646087884902954f, -0.03375670313835144043f, -0.00290246238000690937f, 0.06906649470329284668f, -0.00159118231385946274f, -0.09267902374267578125f, -0.04375534877181053162f, 0.10007488727569580078f, -0.04172520339488983154f, -0.08483105152845382690f, -0.02304469794034957886f, -0.13713705539703369141f, 0.00914779026061296463f, 0.17689448595046997070f, 0.07183695584535598755f, -0.07093541324138641357f, -0.00020101295376662165f, 0.10098262876272201538f, -0.05912593007087707520f},
  {0.05900355800986289978f, -0.09632287919521331787f, 0.06254675984382629395f, 0.12146127223968505859f, 0.05912098288536071777f, 0.02044836245477199554f, -0.09894839674234390259f, 0.01671000942587852478f, -0.03712086752057075500f, 0.09388221800327301025f, -0.09976463764905929565f, -0.10100282728672027588f, 0.05018769204616546631f, 0.09019708633422851562f, -0.17071416974067687988f, -0.08408227562904357910f, -0.10014670342206954956f, -0.06613158434629440308f, 0.07752823084592819214f, 0.13984307646751403809f, -0.08032169938087463379f, -0.07497518509626388550f, -0.08853326737880706787f, 0.03041909635066986084f, 0.13738191127777099609f, -0.03658847883343696594f, 0.09622643142938613892f, 0.02771528623998165131f, 0.06667805463075637817f, 0.03281980752944946289f, -0.03523988649249076843f, -0.05015800520777702332f, 0.03008119389414787292f, -0.01528047677129507065f, 0.08779234439134597778f, -0.07328987866640090942f, -0.16179968416690826416f, -0.02587119303643703461f, -0.01566771417856216431f, 0.10960558801889419556f, 0.10871300846338272095f, -0.07709590345621109009f, 0.13492889702320098877f, 0.08802365511655807495f, 0.00715111661702394485f, -0.05347030237317085266f, -0.06510165333747863770f, -0.07626564800739288330f, 0.02943431213498115540f, -0.03796947374939918518f, 0.01518094260245561600f, -0.01972878724336624146f, -0.08600185811519622803f, -0.10676712542772293091f, 0.05246814712882041931f, 0.06734544783830642700f, 0.00733454339206218719f, -0.08330559730529785156f, 0.02473837137222290039f, 0.00344488909468054771f, -0.08844115585088729858f, 0.07047615200281143188f, -0.01479824353009462357f, -0.14424727857112884521f},
  {0.10492621362209320068f, 0.04549676179885864258f, -0.04881777614355087280f, 0.11511404067277908325f, 0.10339441150426864624f, -0.01278405264019966125f, -0.06587547063827514648f, -0.04780615866184234619f, 0.03111273422837257385f, 0.04041231796145439148f, -0.06522411853075027466f, -0.09566952288150787354f, -0.10497935116291046143f, 0.12595371901988983154f, 0.10207892954349517822f, -0.06069360673427581787f, -0.07615092396736145020f, -0.01067243516445159912f, 0.06637178361415863037f, -0.11985904723405838013f, -0.04804137349128723145f, -0.02942088246345520020f, 0.06268933415412902832f, -0.01199502870440483093f, -0.04432737827301025391f, 0.08459593355655670166f, -0.03052545711398124695f, -0.11220473051071166992f, 0.03164968267083168030f, 0.07470810413360595703f, 0.01155789103358983994f, -0.01776974461972713470f, 0.05430433154106140137f, 0.02467872202396392822f, 0.07836690545082092285f, 0.03847061097621917725f, 0.04639906063675880432f, 0.01012767758220434189f, -0.10239981114864349365f, -0.01493551768362522125f, -0.08112332969903945923f, 0.01163467112928628922f, 0.04928354918956756592f, 0.09063860028982162476f, 0.11555402725934982300f, -0.04052433371543884277f, 0.01455612294375896454f, -0.03839190676808357239f, 0.01558605488389730453f, -0.03724498674273490906f, 0.12422880530357360840f, 0.03799797222018241882f, -0.09344820678234100342f, 0.06530686467885971069f, 0.13611797988414764404f, -0.02634782344102859497f, -0.01321363355964422226f, 0.10111924260854721069f, 0.07293444126844406128f, 0.04760075733065605164f, 0.04120944812893867493f, -0.13006213307380676270f, -0.07665462046861648560f, 0.12913590669631958008f},
  {-0.06116921082139015198f, 0.05221692845225334167f, 0.09685053676366806030f, 0.07119622081518173218f, -0.06761575490236282349f, -0.05196264758706092834f, 0.09723960608243942261f, -0.06321964412927627563f, 0.02191667817533016205f, 0.01644705235958099365f, -0.09451483190059661865f, -0.06494573503732681274f, 0.05030496418476104736f, -0.07734262198209762573f, 0.07561185210943222046f, 0.12567001581192016602f, -0.00714343693107366562f, 0.01081381924450397491f, 0.01824813149869441986f, -0.07401796430349349976f, -0.09813974797725677490f, 0.12567229568958282471f, -0.12718728184700012207f, -0.07310263812541961670f, 0.09821996837854385376f, -0.07713212817907333374f, -0.04226942732930183411f, 0.12289454787969589233f, 0.06026442721486091614f, -0.09416367858648300171f, -0.04934709519147872925f, 0.07297267019748687744f, 0.13605169951915740967f, -0.08677466213703155518f, -0.06431739777326583862f, -0.17420101165771484375f, 0.03305141255259513855f, 0.01857976801693439484f, 0.01847360469400882721f, 0.11909972876310348511f, 0.02161673828959465027f, -0.03759063035249710083f, 0.01716876029968261719f, 0.09319569170475006104f, 0.15943670272827148438f, -0.09049828350543975830f, 0.02526545338332653046f, -0.08567483723163604736f, -0.02266479656100273132f, 0.06804728507995605469f, -0.03896819055080413818f, 0.00560080865398049355f, 0.08866866677999496460f, -0.01374942995607852936f, -0.10715216398239135742f, -0.05418295040726661682f, 0.11929785460233688354f, 0.11423928290605545044f, -0.01549423858523368835f, -0.13394379615783691406f, -0.13639256358146667480f, 0.16138696670532226562f, 0.02923021279275417328f, -0.10255116969347000122f},
  {0.03957565873861312866f, -0.09654103219509124756f, -0.09354851394891738892f, -0.07910957932472229004f, 0.10955403745174407959f, -0.09977287054061889648f, -0.03048614785075187683f, 0.11298049241304397583f, 0.06478603184223175049f, 0.10015211254358291626f, -0.11535236239433288574f, -0.11853596568107604980f, 0.00250347866676747799f, -0.08999499678611755371f, 0.07468567043542861938f, 0.09557579457759857178f, -0.07129179686307907104f, -0.04406349360942840576f, -0.12119649350643157959f, 0.05033506453037261963f, 0.11034711450338363647f, -0.14916415512561798096f, -0.00663501629605889320f, -0.06430816650390625000f, 0.00164747133385390043f, 0.13708752393722534180f, 0.09533848613500595093f, 0.14338618516921997070f, -0.12003833055496215820f, -0.07066658884286880493f, -0.03670183941721916199f, 0.11346669495105743408f, -0.12114191055297851562f, -0.00592588214203715324f, -0.06686253100633621216f, 0.09953220933675765991f, 0.08060504496097564697f, -0.11922103911638259888f, 0.00620597740635275841f, 0.06616941094398498535f, -0.03521263599395751953f, -0.04127965122461318970f, -0.10342974215745925903f, 0.02066297084093093872f, 0.03263385221362113953f, -0.09200986474752426147f, 0.08560214936733245850f, 0.05664480850100517273f, 0.04409163072705268860f, 0.15192791819572448730f, 0.11102671921253204346f, 0.02299530245363712311f, 0.01106329727917909622f, 0.07966286689043045044f, -0.10359787940979003906f, -0.00630591996014118195f, -0.10616884380578994751f, 0.08198054134845733643f, -0.02711023204028606415f, -0.11492094397544860840f, -0.03218240663409233093f, 0.05337024852633476257f, -0.06136098504066467285f, 0.06881719082593917847f},
  {-0.02750581316649913788f, 0.15190665423870086670f, -0.05517604947090148926f, -0.10422447323799133301f, 0.11062152683734893799f, -0.04190187901258468628f, 0.12158723920583724976f, 0.03173227980732917786f, -0.04202924668788909912f, 0.02584618330001831055f, -0.13952353596687316895f, 0.04821049794554710388f, 0.11659222841262817383f, -0.06682037562131881714f, 0.14348748326301574707f, 0.04088296368718147278f, 0.02635189518332481384f, 0.00801253505051136017f, -0.04939163848757743835f, -0.07633716613054275513f, 0.02090371772646903992f, 0.10659782588481903076f, 0.03046699799597263336f, 0.01280589122325181961f, -0.00875277444720268250f, 0.05946367606520652771f, 0.08928123116493225098f, 0.07973507791757583618f, -0.00788578856736421585f, -0.05600282177329063416f, -0.10393351316452026367f, 0.07404758781194686890f, 0.08717743307352066040f, 0.11041872203350067139f, -0.03355923295021057129f, -0.06354068964719772339f, -0.00257194554433226585f, -0.12456095963716506958f, -0.02164647169411182404f, -0.13832053542137145996f, -0.01977441273629665375f, -0.10445608943700790405f, -0.08476947247982025146f, 0.06932520866394042969f, 0.12457495182752609253f, -0.07925131171941757202f, -0.06413631141185760498f, -0.05980601534247398376f, -0.04046022519469261169f, -0.08562718331813812256f, 0.00048752460861578584f, 0.15928477048873901367f, 0.11353959143161773682f, 0.03918379172682762146f, -0.05577651783823966980f, 0.11887245625257492065f, -0.05559036508202552795f, 0.02772177755832672119f, -0.06920080631971359253f, 0.12746016681194305420f, 0.11927947402000427246f, 0.00318141211755573750f, -0.11426589637994766235f, 0.07996765524148941040f},
  {-0.06661629676818847656f, -0.13023735582828521729f, 0.13725246489048004150f, 0.06138299033045768738f, 0.04181481897830963135f, 0.00661806389689445496f, 0.00302453385666012764f, -0.06098100915551185608f, -0.04041180387139320374f, -0.04401174187660217285f, 0.09299239516258239746f, -0.13468579947948455811f, 0.09020981192588806152f, -0.04122804105281829834f, -0.11412411928176879883f, 0.03958839550614356995f, 0.10774853080511093140f, -0.12598890066146850586f, 0.12060885876417160034f, 0.14595854282379150391f, -0.10575142502784729004f, 0.03019323758780956268f, -0.14785417914390563965f, 0.03354254737496376038f, -0.17134289443492889404f, -0.00912369322031736374f, 0.00813207682222127914f, 0.04437469318509101868f, 0.04223324730992317200f, 0.10132030397653579712f, -0.08617389947175979614f, 0.06355740129947662354f, -0.12453162670135498047f, -0.10284522175788879395f, -0.10789685696363449097f, -0.04581698030233383179f, 0.00560421589761972427f, -0.11313097923994064331f, -0.09350349009037017822f, 0.10624240338802337646f, -0.07602808624505996704f, -0.11973911523818969727f, -0.11704883724451065063f, 0.04662953689694404602f, 0.05135022476315498352f, 0.01955245621502399445f, -0.02464063093066215515f, -0.15519902110099792480f, 0.07188080996274948120f, -0.03863895684480667114f, -0.10999713838100433350f, -0.11302124708890914917f, 0.08126331120729446411f, -0.05002843961119651794f, -0.03438660502433776855f, 0.06105268001556396484f, 0.07432179898023605347f, 0.06717571616172790527f, 0.09289904683828353882f, -0.04086100310087203979f, -0.00968529935926198959f, -0.01833514496684074402f, -0.04892595112323760986f, -0.07286598533391952515f},
  {0.04244903847575187683f, 0.01474979426711797714f, -0.08953927457332611084f, 0.11319173872470855713f, 0.05755608901381492615f, 0.04801797494292259216f, 0.01441618707031011581f, 0.09143626689910888672f, -0.04444482550024986267f, -0.02746220305562019348f, 0.08507654815912246704f, -0.08189302682876586914f, 0.09098328649997711182f, -0.01632719673216342926f, -0.03268555179238319397f, -0.11637660115957260132f, -0.05136015638709068298f, 0.10656030476093292236f, -0.06011189520359039307f, 0.12423470616340637207f, -0.01558891776949167252f, -0.04404306784272193909f, 0.12455485016107559204f, -0.02298796363174915314f, 0.15504905581474304199f, 0.03008559718728065491f, 0.11211990565061569214f, -0.04151808097958564758f, -0.09119679778814315796f, -0.05493463948369026184f, 0.08567136526107788086f, 0.00401660567149519920f, 0.02805250324308872223f, -0.02521765418350696564f, 0.02881368808448314667f, -0.10692252963781356812f, 0.03718771785497665405f, -0.04832771047949790955f, 0.08808688819408416748f, 0.07622928172349929810f, 0.08242635428905487061f, -0.03370990231633186340f, 0.02277866750955581665f, -0.01657887548208236694f, -0.07926134765148162842f, -0.06458367407321929932f, -0.02669987268745899200f, 0.14679287374019622803f, -0.02590756677091121674f, 0.05258942022919654846f, 0.08815187960863113403f, 0.11689773201942443848f, 0.08597826957702636719f, -0.03577801957726478577f, 0.13411104679107666016f, -0.00101386965252459049f, 0.03347546979784965515f, 0.05767074599862098694f, -0.12084997445344924927f, -0.09898779541254043579f, -0.05758197233080863953f, -0.03192360699176788330f, -0.12349734455347061157f, -0.12866580486297607422f},
  {0.10848090797662734985f, -0.08160248398780822754f, -0.05903499573469161987f, -0.07791641354560852051f, 0.04349851235747337341f, -0.00688332412391901016f, 0.10023405402898788452f, -0.07508846372365951538f, 0.06907596439123153687f, -0.01852416060864925385f, -0.05791965872049331665f, 0.08355437964200973511f, -0.05432707071304321289f, 0.08317796140909194946f, 0.02136873081326484680f, -0.07710553705692291260f, 0.10720038414001464844f, 0.07819155603647232056f, 0.11967542767524719238f, 0.16438448429107666016f, -0.01653788983821868896f, 0.09173101931810379028f, -0.06144370883703231812f, -0.09807100892066955566f, -0.02009272761642932892f, 0.02803757786750793457f, -0.05483089387416839600f, 0.09419099241495132446f, -0.03950768709182739258f, 0.13640099763870239258f, -0.06541474908590316772f, -0.04229332134127616882f, -0.03287222608923912048f, -0.11547340452671051025f, 0.10287180542945861816f, 0.00228692032396793365f, -0.05002379044890403748f, -0.03287436440587043762f, -0.08204299956560134888f, 0.11618664115667343140f, 0.03817940130829811096f, 0.02608664333820343018f, 0.00903081148862838745f, 0.07962925732135772705f, 0.09706657379865646362f, 0.03342796117067337036f, 0.01089549809694290161f, -0.04933987930417060852f, 0.07666803896427154541f, -0.01548790652304887772f, -0.01264849863946437836f, 0.04823458939790725708f, 0.03462580591440200806f, -0.12885709106922149658f, 0.12633500993251800537f, -0.06220314651727676392f, 0.10401135683059692383f, 0.07974614948034286499f, -0.04418451339006423950f, 0.03187635168433189392f, -0.01579657755792140961f, 0.07226358354091644287f, -0.08193093538284301758f, -0.13716763257980346680f},
  {0.04254743456840515137f, 0.09041990339756011963f, -0.13567908108234405518f, 0.15384463965892791748f, 0.14077980816364288330f, 0.07193307578563690186f, 0.08311038464307785034f, 0.07175526022911071777f, 0.01267883647233247757f, 0.05356426537036895752f, -0.06163549795746803284f, 0.07785878330469131470f, 0.07350872457027435303f, -0.07651217281818389893f, -0.07685202360153198242f, -0.11845381557941436768f, 0.09141285717487335205f, 0.06658898293972015381f, 0.03006987459957599640f, 0.09326606243848800659f, 0.11377976089715957642f, 0.05840338021516799927f, 0.10748343914747238159f, 0.08937422186136245728f, -0.01048018131405115128f, 0.02783309668302536011f, 0.01831652224063873291f, -0.15405146777629852295f, 0.07614236325025558472f, 0.02499625273048877716f, 0.01508632395416498184f, 0.13451041281223297119f, -0.02575572207570075989f, -0.00922353658825159073f, -0.08932720124721527100f, -0.06917130202054977417f, -0.08698331564664840698f, -0.10612200945615768433f, -0.04858005791902542114f, 0.07818153500556945801f, 0.13224932551383972168f, 0.09550167620182037354f, 0.05777385458350181580f, 0.12860444188117980957f, -0.11620730906724929810f, 0.09686240553855895996f, 0.06454341858625411987f, 0.10672385245561599731f, -0.01085691992193460464f, -0.08317966014146804810f, -0.01772382296621799469f, -0.08767455816268920898f, 0.04334993287920951843f, -0.04296925291419029236f, -0.07293897867202758789f, -0.01929357275366783142f, -0.00053224805742502213f, -0.03521229326725006104f, 0.04650601744651794434f, -0.07154318690299987793f, 0.15064842998981475830f, -0.12821422517299652100f, -0.08007028698921203613f, 0.05370486900210380554f},
  {0.02486026473343372345f, -0.17178413271903991699f, -0.00977331493049860001f, -0.00200707768090069294f, 0.08179952949285507202f, -0.07735115289688110352f, 0.04221373051404953003f, -0.14438040554523468018f, -0.10495088249444961548f, 0.04482979327440261841f, -0.04679513722658157349f, -0.10587935894727706909f, 0.10030939429998397827f, 0.10191538929939270020f, -0.09149465709924697876f, 0.02476768195629119873f, -0.03850495070219039917f, 0.11484855413436889648f, -0.00157047028187662363f, -0.12150858342647552490f, -0.05875423178076744080f, -0.01329058408737182617f, 0.13564622402191162109f, -0.00349931884557008743f, 0.05278761312365531921f, 0.10349275916814804077f, 0.06283938139677047729f, -0.08564925938844680786f, 0.08438289910554885864f, 0.11806560307741165161f, -0.09665398299694061279f, 0.03344228863716125488f, 0.04882689565420150757f, -0.09348577260971069336f, -0.09941801428794860840f, 0.00906456355005502701f, -0.10065757483243942261f, -0.10365299880504608154f, -0.06755639612674713135f, 0.02510321140289306641f, -0.12520317733287811279f, -0.06312330067157745361f, 0.05216844379901885986f, -0.10279425233602523804f, 0.03722367435693740845f, 0.10117489099502563477f, -0.03972085565328598022f, -0.10113823413848876953f, -0.05473893880844116211f, 0.06613788753747940063f, 0.06934739649295806885f, -0.06162260472774505615f, 0.08580224215984344482f, -0.04299328103661537170f, 0.01061872113496065140f, -0.11965565383434295654f, -0.09943937510251998901f, -0.01036528311669826508f, -0.03348006680607795715f, -0.06657502800226211548f, -0.10716080665588378906f, -0.14827276766300201416f, 0.01170857250690460205f, -0.08100458979606628418f},
  {0.12034694105386734009f, -0.05534458905458450317f, 0.02689912542700767517f, 0.12653382122516632080f, -0.10685444623231887817f, -0.07814410328865051270f, 0.01814599893987178802f, -0.12141283601522445679f, 0.10433234274387359619f, 0.05862456187605857849f, -0.02210645005106925964f, 0.02919817343354225159f, -0.02283386327326297760f, 0.09257096797227859497f, 0.12969605624675750732f, -0.10134677588939666748f, -0.09502086788415908813f, 0.03642549738287925720f, 0.11091919243335723877f, 0.16441826522350311279f, 0.05362960323691368103f, -0.01108210813254117966f, -0.04792138189077377319f, 0.11314077675342559814f, 0.11229310184717178345f, 0.05465979501605033875f, 0.09151062369346618652f, -0.00244251335971057415f, -0.04364890605211257935f, 0.02273479290306568146f, -0.09682313352823257446f, 0.07521264255046844482f, -0.11211684346199035645f, 0.03765290603041648865f, 0.05044912919402122498f, 0.07727707177400588989f, -0.08961255848407745361f, 0.07429699599742889404f, 0.02176706492900848389f, -0.10378068685531616211f, -0.09443877637386322021f, -0.04565619677305221558f, 0.04900263994932174683f, -0.10381806641817092896f, -0.10114844888448715210f, -0.04144633188843727112f, -0.07960169762372970581f, -0.00148040964268147945f, -0.07532084733247756958f, -0.08220508694648742676f, 0.02484955266118049622f, -0.06387918442487716675f, -0.04422522336244583130f, 0.09383264183998107910f, 0.08912867307662963867f, -0.00958661641925573349f, -0.09343124181032180786f, 0.11972765624523162842f, 0.05771853402256965637f, 0.11488615721464157104f, 0.06410881131887435913f, 0.01232433225959539413f, -0.05600568652153015137f, -0.08744955807924270630f},
  {0.03092749603092670441f, 0.09371969103813171387f, 0.10019650310277938843f, -0.08144936710596084595f, -0.07442875206470489502f, -0.09183788299560546875f, -0.08590247482061386108f, -0.02556959725916385651f, -0.05339004099369049072f, 0.08310694247484207153f, -0.13230597972869873047f, 0.03133307024836540222f, 0.11826982349157333374f, 0.06480415165424346924f, 0.04597834870219230652f, -0.00219947542063891888f, -0.02771654538810253143f, 0.06511960178613662720f, -0.01037783920764923096f, -0.13078568875789642334f, -0.03118055313825607300f, 0.10197999328374862671f, 0.06621983647346496582f, 0.04085234552621841431f, -0.03971797227859497070f, 0.10725218057632446289f, -0.02861431799829006195f, -0.04128469526767730713f, 0.10852665454149246216f, -0.04347729682922363281f, -0.01493267342448234558f, 0.00143278611358255148f, -0.10594466328620910645f, -0.05228438228368759155f, 0.07325471192598342896f, 0.07681421190500259399f, 0.02313173562288284302f, 0.06807488948106765747f, -0.10877352207899093628f, 0.11801030486822128296f, -0.12532144784927368164f, -0.01091607753187417984f, -0.10338637977838516235f, 0.02425988391041755676f, -0.10312470793724060059f, -0.00123142055235803127f, 0.08809545636177062988f, 0.12812398374080657959f, 0.12614525854587554932f, -0.02875609137117862701f, 0.04578108713030815125f, 0.05601550266146659851f, 0.00496563408523797989f, -0.12926536798477172852f, -0.04957322403788566589f, -0.05151842534542083740f, -0.00370370782911777496f, 0.05982059612870216370f, 0.07393638789653778076f, 0.04750452190637588501f, 0.03490620851516723633f, 0.06322593986988067627f, -0.11192490160465240479f, 0.01536374259740114212f},
  {0.08278528600931167603f, 0.07404973357915878296f, -0.04915727674961090088f, 0.01560547761619091034f, 0.03374942392110824585f, -0.07885086536407470703f, 0.04109982401132583618f, 0.06291738897562026978f, -0.09345557540655136108f, -0.02994473651051521301f, 0.01388490758836269379f, -0.06789561361074447632f, 0.06413363665342330933f, -0.06638406217098236084f, -0.10072853416204452515f, 0.09487173706293106079f, -0.11676691472530364990f, -0.03596324473619461060f, 0.08589707314968109131f, 0.15605655312538146973f, -0.05712222680449485779f, 0.07998441159725189209f, 0.01599022001028060913f, 0.07573564350605010986f, -0.05322971567511558533f, -0.00102441059425473213f, 0.00164989440236240625f, 0.00674059381708502769f, 0.02747056074440479279f, -0.03866847604513168335f, 0.03890760242938995361f, 0.10989833623170852661f, 0.07704740762710571289f, 0.02304309420287609100f, -0.10474149882793426514f, -0.04559034481644630432f, -0.01379310991615056992f, 0.14653058350086212158f, -0.09422178566455841064f, -0.05155893415212631226f, -0.13920192420482635498f, 0.01891860924661159515f, 0.05393185466527938843f, 0.04122619703412055969f, -0.01958631351590156555f, -0.02435889653861522675f, -0.05275101587176322937f, 0.12499216198921203613f, 0.09843333810567855835f, 0.09186828136444091797f, 0.07211965322494506836f, -0.14020511507987976074f, -0.13947142660617828369f, -0.00974936410784721375f, -0.06450402736663818359f, 0.09961513429880142212f, 0.02402030676603317261f, -0.13996590673923492432f, 0.13424943387508392334f, 0.02137520536780357361f, -0.03686708584427833557f, -0.00441837217658758163f, -0.00053585617570206523f, 0.00787814613431692123f},
