// This file is computer-generated by onnx2c 
// Command Line: onnx2c/build/onnx2c -d batch_size:1 --no-globals --func-name linket_encoder_forward out/models/m0_medium/encoder.onnx

// onnx2c
// Git Branch: feature/func-name
// Git Commit: cfcce19

// ONNX Model
// Produced By: pytorch, version 2.10.0+cu130
// ONNX IR version: 20

#include <float.h>
#include <math.h>
#include <stdbool.h>
#include <stdint.h>
#include <string.h>
#include <stdlib.h>

#define MAX(X,Y) ( X > Y ? X : Y)
#define MIN(X,Y) ( X < Y ? X : Y)
#define CLIP(X,L) ( MAX(MIN(X,L), -L) )

#if __STDC_VERSION__ < 199901L
#define FUNC_PREFIX
#else
#define FUNC_PREFIX static inline
#endif

static const float tensor_layers_0_weight[128][192] = 
{
  {0.11212955415248870850f, -0.02797171287238597870f, 0.04094424843788146973f, 0.07009654492139816284f, -0.00051706749945878983f, -0.03063129074871540070f, -0.05030772462487220764f, -0.15198005735874176025f, 0.03795392066240310669f, 0.01142296101897954941f, -0.01772803626954555511f, -0.01712376996874809265f, 0.01567453704774379730f, -0.00915625039488077164f, 0.06299301981925964355f, -0.02660605125129222870f, 0.04266213253140449524f, -0.05147880688309669495f, -0.08037799596786499023f, 0.00328116281889379025f, -0.04912396520376205444f, -0.06421013921499252319f, 0.08022464066743850708f, 0.01783514395356178284f, 0.10189730674028396606f, -0.01101065985858440399f, -0.08042751997709274292f, -0.01027275249361991882f, -0.09982276707887649536f, -0.09672021120786666870f, 0.03143769875168800354f, 0.05140716210007667542f, 0.12002358585596084595f, -0.00585708860307931900f, -0.03488776832818984985f, -0.06775287538766860962f, -0.11644551157951354980f, -0.08122590184211730957f, 0.08832328021526336670f, 0.06037259101867675781f, 0.09083650261163711548f, 0.07667495310306549072f, -0.00189832353498786688f, -0.08755335211753845215f, -0.16018167138099670410f, -0.01314820256084203720f, 0.00042607620707713068f, 0.03473827987909317017f, 0.09269931912422180176f, 0.09933052211999893188f, 0.14176854491233825684f, 0.02351087145507335663f, -0.01837972179055213928f, 0.03832891955971717834f, 0.16966690123081207275f, 0.05936848372220993042f, 0.03691216930747032166f, -0.00356859806925058365f, -0.01682799682021141052f, -0.04784011840820312500f, 0.02470419555902481079f, 0.03940235823392868042f, 0.12005580216646194458f, 0.07895170897245407104f, 0.06023528426885604858f, -0.02125691063702106476f, -0.08408297598361968994f, -0.00921057816594839096f, 0.03856033086776733398f, 0.06710756570100784302f, -0.08232468366622924805f, -0.16664822399616241455f, 0.10243401676416397095f, -0.07821654528379440308f, -0.01796123012900352478f, 0.01727855950593948364f, 0.12872350215911865234f, 0.04866942018270492554f, 0.03698343783617019653f, -0.08451769500970840454f, 0.08105860650539398193f, -0.14003166556358337402f, -0.06227460131049156189f, -0.04402699694037437439f, -0.01185863092541694641f, 0.02460946328938007355f, 0.01525094360113143921f, 0.02962130121886730194f, 0.07488814741373062134f, -0.05804397538304328918f, -0.08291500806808471680f, -0.05942048504948616028f, -0.03995659574866294861f, -0.07468688488006591797f, -0.00817084778100252151f, 0.03050701692700386047f, 0.05695994570851325989f, -0.02367629483342170715f, -0.07754899561405181885f, -0.04427372291684150696f, -0.12162863463163375854f, -0.05340245366096496582f, 0.02137294597923755646f, -0.02206838689744472504f, 0.03208861127495765686f, 0.02343305572867393494f, 0.02829494886100292206f, -0.11694908142089843750f, -0.10639258474111557007f, -0.11117640882730484009f, -0.00839855615049600601f, 0.00844973232597112656f, 0.01390277501195669174f, 0.03934698179364204407f, 0.01195704285055398941f, 0.01541689131408929825f, -0.06508871912956237793f, 0.01579901017248630524f, 0.15213938057422637939f, 0.03623064607381820679f, -0.09572469443082809448f, -0.12735646963119506836f, -0.06240569800138473511f, -0.08944609016180038452f, -0.05964044108986854553f, -0.00059496320318430662f, 0.00861113797873258591f, 0.00882619619369506836f, 0.04108237102627754211f, -0.02821110375225543976f, -0.01049555372446775436f, 0.00092525611398741603f, 0.02177564240992069244f, 0.00241904263384640217f, -0.04057565703988075256f, -0.16544041037559509277f, 0.09626725316047668457f, -0.05787385627627372742f, -0.12497335672378540039f, 0.06601902842521667480f, 0.05260700359940528870f, 0.07753740251064300537f, 0.00970625039190053940f, -0.07112090289592742920f, 0.10850797593593597412f, -0.00118425139226019382f, -0.04676331207156181335f, 0.07165846973657608032f, 0.07324867695569992065f, -0.04976196587085723877f, 0.06083493307232856750f, -0.00005306340608512983f, 0.12342103570699691772f, -0.02242095954716205597f, -0.04602748900651931763f, 0.05467190220952033997f, -0.06325483322143554688f, -0.08854754269123077393f, 0.09006576985120773315f, 0.03100740723311901093f, 0.07579502463340759277f, 0.05687008798122406006f, -0.02174451574683189392f, -0.06775008887052536011f, -0.03637431561946868896f, 0.00696932105347514153f, 0.01415345165878534317f, 0.07664363086223602295f, 0.07836247235536575317f, -0.00203493959270417690f, 0.03556827828288078308f, -0.08944685757160186768f, -0.14446470141410827637f, -0.04785824939608573914f, 0.09057357162237167358f, 0.03742488846182823181f, 0.05166736245155334473f, 0.03068142943084239960f, 0.12086503952741622925f, 0.08572869002819061279f, -0.03447318822145462036f, 0.01047147996723651886f, 0.04658319056034088135f, 0.01415812037885189056f, -0.01393835898488759995f, -0.04750571399927139282f, -0.00869764294475317001f, -0.06140999123454093933f, -0.02251558192074298859f, 0.06346265226602554321f, 0.09081973880529403687f, 0.11178934574127197266f},
  {-0.02688771300017833710f, -0.15119794011116027832f, -0.17549090087413787842f, -0.14424398541450500488f, -0.05653579905629158020f, -0.12523412704467773438f, -0.15636795759201049805f, -0.10809753835201263428f, -0.13171762228012084961f, -0.15727561712265014648f, -0.04769828170537948608f, -0.17864115536212921143f, -0.12198986858129501343f, -0.15915855765342712402f, -0.14630845189094543457f, -0.02248045057058334351f, -0.18563571572303771973f, -0.14165484905242919922f, 0.11630338430404663086f, 0.04836948961019515991f, -0.07324606925249099731f, -0.08817804604768753052f, -0.07850809395313262939f, -0.04902016371488571167f, 0.05268666520714759827f, -0.01673959381878376007f, 0.10307606309652328491f, 0.07568770647048950195f, 0.09757398068904876709f, 0.02279378101229667664f, -0.04385956376791000366f, -0.04526261985301971436f, 0.11495552957057952881f, 0.02532213740050792694f, -0.04929268360137939453f, -0.08909640461206436157f, 0.03517263382673263550f, 0.03725875914096832275f, 0.02508864924311637878f, -0.04276051744818687439f, 0.05530172958970069885f, -0.07027868181467056274f, 0.03234267234802246094f, 0.00990725215524435043f, 0.11788011342287063599f, 0.06753783673048019409f, 0.11604354530572891235f, 0.02929347753524780273f, 0.12327416986227035522f, 0.11694031953811645508f, 0.19064959883689880371f, 0.16018788516521453857f, 0.20479895174503326416f, 0.08686845749616622925f, 0.15027742087841033936f, 0.16030094027519226074f, 0.07775542140007019043f, -0.08189073204994201660f, 0.10291475802659988403f, 0.08185073733329772949f, 0.00217893393710255623f, 0.09575664252042770386f, 0.03366642817854881287f, 0.12806323170661926270f, 0.03549731522798538208f, -0.00835468899458646774f, 0.05129940435290336609f, 0.05321506410837173462f, 0.07735865563154220581f, -0.00459910975769162178f, -0.03536655753850936890f, 0.00969358626753091812f, 0.01708171330392360687f, -0.04969248175621032715f, 0.02975329943001270294f, 0.01136546302586793900f, -0.03923905640840530396f, 0.00172294594813138247f, 0.00388632691465318203f, -0.02087256312370300293f, -0.07163931429386138916f, -0.02037831768393516541f, 0.10309748351573944092f, 0.07360345125198364258f, -0.06330628693103790283f, -0.02903383225202560425f, -0.09558568894863128662f, -0.02067564986646175385f, -0.02298914454877376556f, 0.02431438863277435303f, 0.15573452413082122803f, 0.08599877357482910156f, 0.08451554179191589355f, 0.06652723252773284912f, -0.00478118611499667168f, -0.02341361716389656067f, 0.06951486319303512573f, -0.05481207743287086487f, -0.04528820514678955078f, -0.16542147099971771240f, -0.06704352796077728271f, 0.01955373957753181458f, -0.09284903854131698608f, -0.03150422126054763794f, 0.00457929400727152824f, -0.01501059997826814651f, -0.03942841663956642151f, -0.02865619957447052002f, -0.07116879522800445557f, 0.07944588363170623779f, 0.01713555492460727692f, 0.04775045812129974365f, 0.07651526480913162231f, 0.04039468616247177124f, 0.07313220202922821045f, 0.11975529044866561890f, 0.05091756954789161682f, -0.02341191470623016357f, -0.00846573803573846817f, 0.08205035328865051270f, -0.10055015236139297485f, -0.06661453098058700562f, -0.04603701829910278320f, -0.08233635127544403076f, -0.04482648149132728577f, -0.14300419390201568604f, -0.09560355544090270996f, 0.08171034604310989380f, 0.18170160055160522461f, 0.11626023799180984497f, 0.06415384262800216675f, 0.01832218654453754425f, 0.12002337723970413208f, 0.18261167407035827637f, 0.06685411185026168823f, 0.02922091074287891388f, 0.05367301031947135925f, 0.06503774225711822510f, 0.08772807568311691284f, 0.06365633755922317505f, -0.02835267223417758942f, -0.02100882679224014282f, 0.07675858587026596069f, 0.13112309575080871582f, -0.01469381712377071381f, -0.03940231725573539734f, 0.13982103765010833740f, 0.09943439811468124390f, 0.06179112941026687622f, -0.04762752354145050049f, -0.03977605327963829041f, 0.09932217001914978027f, 0.07619792222976684570f, 0.03764137998223304749f, 0.17172233760356903076f, 0.09568337351083755493f, 0.07454222440719604492f, 0.03677400574088096619f, 0.00510669825598597527f, 0.00869051460176706314f, 0.00999002251774072647f, -0.06733383238315582275f, -0.14098694920539855957f, -0.17051495611667633057f, -0.10159189254045486450f, -0.00193996692541986704f, -0.02869077399373054504f, -0.11561194062232971191f, -0.01429904904216527939f, -0.06902172416448593140f, -0.09521740674972534180f, -0.03101252019405364990f, -0.04389232397079467773f, 0.01334993075579404831f, -0.05773167684674263000f, -0.06022203341126441956f, 0.00662610074505209923f, -0.08188137412071228027f, 0.04063294827938079834f, 0.01907744444906711578f, -0.01830311119556427002f, -0.06018696725368499756f, -0.01322695426642894745f, 0.05967364087700843811f, -0.06707991659641265869f, -0.11207945644855499268f, -0.12640126049518585205f, -0.11092899739742279053f, -0.12655206024646759033f, -0.18429125845432281494f, -0.14601017534732818604f, -0.03383911773562431335f},
  {0.08873300254344940186f, 0.04893387109041213989f, -0.04720697551965713501f, -0.03053179755806922913f, -0.08909576386213302612f, -0.10951151698827743530f, -0.05403850972652435303f, -0.00181097257882356644f, 0.15561306476593017578f, 0.08057872205972671509f, 0.00361486570909619331f, 0.06381105631589889526f, -0.16967181861400604248f, -0.02588157169520854950f, 0.04580761864781379700f, 0.06583218276500701904f, 0.09248204529285430908f, -0.08042229712009429932f, -0.02299721352756023407f, 0.05586623027920722961f, -0.07302245497703552246f, -0.05458154529333114624f, 0.08588139712810516357f, 0.10633354634046554565f, 0.09340631961822509766f, -0.09110329300165176392f, -0.05603381991386413574f, 0.07918969541788101196f, -0.01448295544832944870f, -0.05125059932470321655f, -0.01064490433782339096f, 0.01251833047717809677f, 0.14943552017211914062f, 0.05695726722478866577f, 0.16318166255950927734f, 0.17537131905555725098f, 0.11814934015274047852f, 0.00636425148695707321f, 0.00581389339640736580f, -0.09534312784671783447f, 0.13431788980960845947f, 0.07028058171272277832f, 0.04168960452079772949f, -0.03179625421762466431f, 0.03187684342265129089f, -0.03934584558010101318f, -0.05214058235287666321f, -0.06828130781650543213f, 0.02580540254712104797f, -0.00820242147892713547f, 0.01590375788509845734f, -0.05086739733815193176f, -0.05352425575256347656f, 0.00804901681840419769f, -0.05440254881978034973f, -0.08269779384136199951f, 0.10728379338979721069f, -0.07611409574747085571f, -0.12005765736103057861f, -0.12026257812976837158f, -0.15031017363071441650f, -0.09051955491304397583f, -0.13769711554050445557f, -0.04939641803503036499f, 0.09453947842121124268f, -0.04851741343736648560f, 0.01734574511647224426f, 0.01280863862484693527f, -0.11023620516061782837f, -0.02295034565031528473f, -0.06279020011425018311f, -0.04754836112260818481f, 0.16288737952709197998f, 0.09468366205692291260f, 0.02646938525140285492f, 0.01924456655979156494f, -0.01878344453871250153f, 0.00996461324393749237f, 0.10555002838373184204f, 0.10006061941385269165f, 0.03018467314541339874f, -0.05104243382811546326f, -0.07277660816907882690f, 0.02236704714596271515f, -0.17274895310401916504f, -0.09841685742139816284f, -0.01379423867911100388f, 0.12659056484699249268f, -0.03499094024300575256f, -0.08301484584808349609f, -0.03441656008362770081f, 0.08227091282606124878f, -0.00410374766215682030f, 0.00298776081763207912f, 0.02616017498075962067f, 0.01618394441902637482f, 0.06952047348022460938f, 0.06703844666481018066f, 0.11893440783023834229f, 0.15336997807025909424f, 0.09219386428594589233f, -0.04413289949297904968f, 0.01332865376025438309f, 0.02596237696707248688f, 0.05469094216823577881f, 0.00845646858215332031f, 0.03776061534881591797f, 0.00806206930428743362f, -0.02529465965926647186f, 0.03765719011425971985f, -0.12188461422920227051f, -0.08275319635868072510f, 0.08181232213973999023f, -0.07635886222124099731f, -0.11824351549148559570f, -0.04534624144434928894f, -0.03237636387348175049f, 0.03710053116083145142f, 0.05463947728276252747f, -0.00029150315094739199f, 0.02635374106466770172f, -0.01724918372929096222f, -0.08687712252140045166f, -0.05245149508118629456f, -0.08359382301568984985f, -0.01018833555281162262f, 0.02705263718962669373f, -0.01485700532793998718f, -0.00945510528981685638f, -0.07087818533182144165f, -0.00121724756900221109f, -0.03832811862230300903f, -0.07109326124191284180f, -0.08105563372373580933f, -0.00319748907350003719f, 0.07203488796949386597f, 0.00420231837779283524f, -0.08332892507314682007f, 0.04878739267587661743f, 0.02412642538547515869f, -0.03813425824046134949f, -0.04022732749581336975f, 0.05818977206945419312f, 0.14289049804210662842f, -0.06249690055847167969f, -0.14005507528781890869f, -0.09569723904132843018f, -0.01226202212274074554f, -0.14133030176162719727f, -0.12454196810722351074f, 0.04668562486767768860f, 0.06493180245161056519f, -0.15897968411445617676f, -0.21377822756767272949f, -0.06943652778863906860f, 0.05625093728303909302f, 0.00552702648565173149f, -0.09824306517839431763f, -0.03781086578965187073f, 0.07696836441755294800f, 0.05704665556550025940f, -0.08842687308788299561f, 0.09182901680469512939f, 0.04700208827853202820f, 0.08409466594457626343f, 0.08709806948900222778f, -0.01802457869052886963f, 0.04329142346978187561f, -0.02032532729208469391f, -0.09988219290971755981f, 0.02147228270769119263f, 0.02345654182136058807f, 0.02085273154079914093f, -0.00879664905369281769f, -0.02951254695653915405f, -0.03001246415078639984f, 0.08008696883916854858f, -0.01593584008514881134f, -0.02813271991908550262f, -0.02832924574613571167f, 0.12275209277868270874f, 0.12328889220952987671f, 0.12217954546213150024f, 0.16954877972602844238f, -0.00276916101574897766f, -0.04573019221425056458f, 0.02831925824284553528f, -0.04352580383419990540f, -0.02249981090426445007f, 0.05115851387381553650f, 0.04151059687137603760f, 0.10461159795522689819f},
  {-0.03992626070976257324f, 0.13894586265087127686f, 0.16428984701633453369f, 0.05524126067757606506f, 0.00906061753630638123f, 0.04020011425018310547f, -0.02679446153342723846f, -0.10314844548702239990f, -0.16577643156051635742f, -0.07254347205162048340f, -0.03505013510584831238f, -0.01950360648334026337f, 0.06409087777137756348f, 0.04215873032808303833f, -0.08922406286001205444f, -0.03256090730428695679f, -0.21992030739784240723f, -0.07177451997995376587f, -0.13264752924442291260f, -0.11431761085987091064f, -0.03079137764871120453f, -0.01328743994235992432f, -0.02925071492791175842f, -0.02064452506601810455f, -0.01662460155785083771f, -0.02095532789826393127f, -0.08215464651584625244f, -0.04280710220336914062f, -0.01770891807973384857f, -0.01338068768382072449f, -0.14149540662765502930f, -0.02492451854050159454f, 0.05758029222488403320f, 0.10341042280197143555f, 0.03228009119629859924f, -0.03810415044426918030f, 0.08102906495332717896f, 0.14073471724987030029f, -0.00518377032130956650f, -0.05800486356019973755f, 0.09868998080492019653f, 0.01086121425032615662f, -0.02289870008826255798f, -0.06991941481828689575f, 0.03373220562934875488f, 0.05442122370004653931f, 0.02750251814723014832f, -0.04070597141981124878f, 0.08538278937339782715f, -0.01180156785994768143f, -0.04010435566306114197f, -0.08639444410800933838f, -0.09862822294235229492f, 0.03216615319252014160f, 0.08904160559177398682f, -0.02232366986572742462f, -0.01782530173659324646f, 0.07804267108440399170f, 0.01107114739716053009f, 0.02034335210919380188f, -0.05983717367053031921f, 0.02438912913203239441f, 0.08940082043409347534f, 0.02545953169465065002f, 0.02541923522949218750f, 0.14421907067298889160f, 0.16997347772121429443f, 0.04706354439258575439f, 0.02915398776531219482f, -0.05315443500876426697f, -0.06035137549042701721f, -0.07167705148458480835f, -0.15178230404853820801f, -0.04563851654529571533f, 0.05214878544211387634f, -0.00767992110922932625f, 0.00160602573305368423f, 0.00797648914158344269f, -0.01973274536430835724f, 0.01026112306863069534f, -0.12748602032661437988f, -0.14134790003299713135f, -0.09550035744905471802f, -0.09446810930967330933f, 0.04488025978207588196f, 0.00039124753675423563f, -0.00926261488348245621f, 0.05360474437475204468f, -0.05496655777096748352f, 0.04311511665582656860f, 0.02144423127174377441f, -0.09084945917129516602f, 0.05765695497393608093f, 0.06602254509925842285f, -0.04090937972068786621f, -0.01306247897446155548f, 0.13641713559627532959f, 0.16247774660587310791f, 0.12659813463687896729f, 0.08396672457456588745f, 0.18129496276378631592f, 0.19378839433193206787f, 0.04297444596886634827f, 0.02589492127299308777f, 0.05000290274620056152f, 0.12961210310459136963f, -0.00563936913385987282f, -0.01727025583386421204f, 0.06856967508792877197f, 0.08299578726291656494f, 0.03402775153517723083f, -0.02672416530549526215f, 0.01165744010359048843f, 0.05217773839831352234f, -0.01376219652593135834f, -0.10930696874856948853f, -0.07820168882608413696f, -0.03216018155217170715f, 0.05660622194409370422f, 0.04945756122469902039f, 0.03996593877673149109f, 0.03761945664882659912f, -0.04063050076365470886f, -0.05170680582523345947f, -0.07652618736028671265f, 0.03924562409520149231f, 0.06709661334753036499f, 0.02369313500821590424f, -0.00319984601810574532f, 0.10888475179672241211f, 0.12991626560688018799f, 0.06225213408470153809f, 0.07231229543685913086f, 0.04961749911308288574f, -0.06168615072965621948f, -0.05569009482860565186f, -0.16627801954746246338f, -0.02992344275116920471f, -0.04310723021626472473f, -0.07532842457294464111f, 0.05667527765035629272f, 0.03265208378434181213f, -0.05184875428676605225f, -0.05533154681324958801f, -0.15962101519107818604f, -0.02011149749159812927f, -0.05581268668174743652f, -0.05800255760550498962f, -0.03542162477970123291f, 0.02075538039207458496f, -0.04117017239332199097f, 0.03779332712292671204f, -0.00435023847967386246f, 0.07790538668632507324f, -0.01310743391513824463f, -0.01021279208362102509f, 0.06007339805364608765f, 0.06448018550872802734f, 0.01764648593962192535f, -0.03715913370251655579f, 0.05045497417449951172f, 0.14459727704524993896f, 0.04049339145421981812f, 0.09974779188632965088f, 0.18325854837894439697f, 0.12204280495643615723f, 0.00212651910260319710f, -0.07807204127311706543f, 0.03878581151366233826f, 0.14506570994853973389f, -0.03808634728193283081f, 0.01824772730469703674f, -0.00382516067475080490f, 0.05771685391664505005f, -0.03150430694222450256f, -0.09231704473495483398f, -0.04423217847943305969f, -0.02478320524096488953f, -0.09985405206680297852f, -0.07150580734014511108f, -0.14422948658466339111f, -0.10236395895481109619f, 0.02851232327520847321f, -0.00141814397647976875f, -0.04210798814892768860f, -0.04480620846152305603f, -0.11922997981309890747f, -0.12405490130186080933f, -0.03205483034253120422f, -0.05757072567939758301f, 0.06369392573833465576f, -0.00030301950755529106f},
  {0.08325988054275512695f, 0.08843439072370529175f, -0.01741714589297771454f, -0.03791280463337898254f, -0.02211935818195343018f, -0.05037361755967140198f, -0.05503074824810028076f, 0.02969577908515930176f, 0.08459696918725967407f, 0.04815167561173439026f, 0.04485212638974189758f, -0.02336248941719532013f, 0.03253829851746559143f, 0.07896447181701660156f, 0.03231422230601310730f, 0.07092753052711486816f, 0.04702332615852355957f, 0.05970098450779914856f, -0.06098643690347671509f, -0.06233995780348777771f, -0.04418617114424705505f, 0.04090064391493797302f, 0.00631816592067480087f, 0.15203401446342468262f, 0.01598076336085796356f, 0.06046565622091293335f, -0.09351539611816406250f, -0.08690641820430755615f, -0.06051697582006454468f, 0.04360391944646835327f, -0.00550889316946268082f, 0.08656771481037139893f, 0.05486802011728286743f, 0.06217228248715400696f, -0.06084548309445381165f, 0.00975411850959062576f, -0.06231835857033729553f, 0.08756802231073379517f, 0.00008613605314167216f, 0.11303698271512985229f, -0.00185598351527005434f, -0.04544962942600250244f, -0.00228265672922134399f, -0.00847795046865940094f, -0.09593408554792404175f, -0.04017935320734977722f, -0.08219476044178009033f, 0.05570422857999801636f, -0.16744670271873474121f, -0.09745553135871887207f, -0.04712938889861106873f, -0.02101836167275905609f, -0.04205912351608276367f, -0.09050200134515762329f, -0.10710527747869491577f, -0.03109481558203697205f, -0.11622870713472366333f, -0.13633124530315399170f, -0.08197170495986938477f, 0.03504064679145812988f, -0.12647449970245361328f, -0.06795531511306762695f, -0.03797918930649757385f, -0.07840447127819061279f, 0.08146136999130249023f, 0.11270771920680999756f, 0.03171739727258682251f, -0.07031413167715072632f, -0.04075258970260620117f, -0.06986423581838607788f, -0.05355376750230789185f, 0.00396086741238832474f, 0.03284965455532073975f, 0.07761755585670471191f, 0.04488933086395263672f, -0.02717340365052223206f, -0.07921181619167327881f, -0.01423587277531623840f, 0.01117705367505550385f, 0.10948381572961807251f, 0.03606066107749938965f, -0.00361290923319756985f, -0.09049797803163528442f, -0.04008528217673301697f, 0.00852635875344276428f, -0.04386533424258232117f, 0.02906776592135429382f, 0.09317175298929214478f, 0.00503649050369858742f, -0.03346342220902442932f, -0.02454293891787528992f, -0.13297152519226074219f, -0.12304557114839553833f, 0.01659908518195152283f, -0.01515408791601657867f, 0.10162016004323959351f, 0.05415420979261398315f, 0.08038637787103652954f, 0.04427727311849594116f, 0.01946762576699256897f, -0.01272169779986143112f, -0.01268766075372695923f, -0.03791800141334533691f, 0.08379042148590087891f, -0.02595212124288082123f, 0.03178175166249275208f, 0.03322210907936096191f, -0.01542768441140651703f, -0.09287536144256591797f, 0.01632377319037914276f, -0.03404495865106582642f, 0.04830907657742500305f, -0.05877676233649253845f, -0.07357819378376007080f, 0.02938924916088581085f, 0.00300273415632545948f, -0.05966956168413162231f, -0.08234430849552154541f, -0.07491665333509445190f, 0.07979078590869903564f, -0.09138455986976623535f, -0.03651870042085647583f, 0.00234146136790513992f, -0.03154627606272697449f, -0.03717308118939399719f, -0.01753974892199039459f, -0.03751112893223762512f, -0.00793450698256492615f, 0.11957910656929016113f, 0.07553645968437194824f, 0.00417680805549025536f, 0.03573874384164810181f, -0.01756495237350463867f, 0.06995427608489990234f, 0.00030972342938184738f, 0.07315322756767272949f, 0.16925898194313049316f, 0.09810616821050643921f, 0.03698603063821792603f, 0.06441611796617507935f, 0.02213804796338081360f, 0.05062162503600120544f, 0.09957093000411987305f, 0.04713148623704910278f, 0.03192639350891113281f, 0.03001661226153373718f, -0.11999619007110595703f, -0.08842165023088455200f, -0.10407503694295883179f, 0.02160838991403579712f, 0.05014533177018165588f, 0.09451714903116226196f, 0.03357147052884101868f, -0.04331902414560317993f, -0.08058268576860427856f, -0.05958669632673263550f, -0.09334453940391540527f, -0.04840512573719024658f, 0.07618158310651779175f, 0.13469479978084564209f, 0.07207007706165313721f, 0.06991376727819442749f, 0.00750890700146555901f, 0.03087994083762168884f, 0.02137321792542934418f, 0.06580802053213119507f, 0.00633171573281288147f, 0.13810548186302185059f, 0.02603685855865478516f, 0.05791236832737922668f, 0.02411456033587455750f, 0.04458197951316833496f, -0.06479132920503616333f, -0.06073275208473205566f, -0.01927329041063785553f, 0.01090037543326616287f, 0.00837065558880567551f, -0.00818160176277160645f, 0.08435152471065521240f, 0.02801537141203880310f, -0.05303001031279563904f, -0.00289307767525315285f, 0.01718706637620925903f, -0.01767631433904170990f, -0.09251452237367630005f, 0.00475526368245482445f, -0.02389208413660526276f, 0.04342899844050407410f, -0.01546374429017305374f, -0.02916885167360305786f, -0.01707945205271244049f, 0.03061066195368766785f},
  {-0.05671158805489540100f, 0.05673913657665252686f, -0.08309026807546615601f, -0.02786923013627529144f, -0.02737824618816375732f, 0.04253047332167625427f, 0.14553999900817871094f, 0.16871415078639984131f, 0.05055619776248931885f, 0.16397376358509063721f, -0.03365083038806915283f, -0.12358824908733367920f, -0.05898682400584220886f, -0.00347135774791240692f, 0.12816855311393737793f, 0.03219969570636749268f, 0.01584139652550220490f, 0.11071062088012695312f, -0.02098649181425571442f, -0.07624738663434982300f, -0.10212221741676330566f, 0.00358287943527102470f, -0.05006597936153411865f, -0.14290253818035125732f, -0.02184491604566574097f, 0.12407683581113815308f, 0.11262916773557662964f, 0.01277120225131511688f, -0.04052184894680976868f, 0.00158986612223088741f, -0.02278078533709049225f, -0.14862252771854400635f, 0.01550653390586376190f, 0.06788769364356994629f, 0.03135644271969795227f, 0.03215034678578376770f, 0.04018281400203704834f, 0.00191025040112435818f, 0.04849085584282875061f, -0.07925235480070114136f, -0.04538664966821670532f, 0.01644182950258255005f, -0.01245063263922929764f, -0.15945971012115478516f, -0.11027371883392333984f, -0.09779798984527587891f, 0.04971724376082420349f, -0.06362762302160263062f, -0.04645122960209846497f, 0.07166373729705810547f, -0.02769964560866355896f, -0.08604975789785385132f, -0.18088202178478240967f, 0.03181856498122215271f, 0.09387759119272232056f, 0.03739114478230476379f, 0.01545407250523567200f, 0.00913109816610813141f, -0.00740545568987727165f, -0.06404519081115722656f, -0.14701430499553680420f, 0.01936610974371433258f, 0.08763580769300460815f, -0.00936383754014968872f, -0.05989947542548179626f, -0.02188614010810852051f, -0.13742490112781524658f, -0.11407076567411422729f, -0.13924254477024078369f, -0.04818228632211685181f, 0.08963411301374435425f, 0.15004554390907287598f, -0.02106077224016189575f, 0.07520754635334014893f, -0.08226264268159866333f, -0.14899311959743499756f, -0.03471308201551437378f, 0.00876720715314149857f, 0.07897973060607910156f, 0.04459454864263534546f, 0.03805533796548843384f, 0.09210011363029479980f, -0.02001678943634033203f, -0.10479240119457244873f, -0.08517175912857055664f, -0.06522063910961151123f, 0.00555478502064943314f, -0.12802664935588836670f, 0.05141012743115425110f, 0.11235839128494262695f, 0.10545590519905090332f, 0.05852491408586502075f, -0.02848329953849315643f, -0.03521578758955001831f, 0.02328124828636646271f, -0.14704726636409759521f, -0.00994527246803045273f, 0.10144180059432983398f, 0.09314391016960144043f, 0.07832029461860656738f, 0.07941070944070816040f, 0.04420642182230949402f, 0.03700827062129974365f, -0.04041029140353202820f, -0.02261034771800041199f, 0.12699629366397857666f, -0.03169953078031539917f, -0.11696073412895202637f, -0.10330676287412643433f, -0.02447151765227317810f, 0.09215249866247177124f, 0.04146659001708030701f, -0.02237370051443576813f, 0.06694118678569793701f, 0.02748642675578594208f, -0.07968524843454360962f, -0.11604068428277969360f, 0.00956575945019721985f, 0.14022351801395416260f, 0.07690642029047012329f, 0.02538337558507919312f, 0.07104075700044631958f, 0.04228566214442253113f, -0.04191747680306434631f, 0.01708184741437435150f, 0.04490118846297264099f, 0.10126087814569473267f, 0.08470796793699264526f, -0.04535091668367385864f, -0.07441674917936325073f, -0.11749751120805740356f, -0.06136867403984069824f, -0.07134665548801422119f, -0.03540106490254402161f, 0.15914255380630493164f, 0.24813838303089141846f, -0.03453300520777702332f, 0.01053976081311702728f, -0.05232243239879608154f, -0.11303333193063735962f, -0.03302675113081932068f, 0.05190464481711387634f, 0.07533421367406845093f, 0.15159153938293457031f, 0.02546814829111099243f, 0.05001064017415046692f, -0.02277541905641555786f, -0.05762808024883270264f, -0.08640535920858383179f, 0.08690865337848663330f, 0.04690935835242271423f, -0.04961208626627922058f, -0.05392137542366981506f, 0.08057284355163574219f, 0.03015826083719730377f, -0.01424004882574081421f, 0.02496095374226570129f, 0.08761427551507949829f, 0.03776736557483673096f, -0.02736846171319484711f, -0.07376100122928619385f, 0.09715543687343597412f, 0.02602581307291984558f, 0.08762606978416442871f, 0.00518138846382498741f, 0.15557351708412170410f, 0.13393084704875946045f, -0.03511931374669075012f, -0.11490587145090103149f, 0.03677540272474288940f, 0.00441938731819391251f, -0.13958533108234405518f, -0.08291132003068923950f, 0.03966027498245239258f, 0.08495639264583587646f, -0.01282222382724285126f, -0.05100234970450401306f, 0.01342550944536924362f, -0.05501297488808631897f, -0.04186674579977989197f, -0.02989596314728260040f, 0.02545957081019878387f, 0.09145540744066238403f, 0.07735265791416168213f, -0.02729579806327819824f, 0.01593320071697235107f, -0.09711413830518722534f, -0.06410918384790420532f, -0.08130875229835510254f, 0.03881211206316947937f, 0.13924431800842285156f, -0.01433569937944412231f},
  {-0.01324502192437648773f, 0.03803094848990440369f, 0.02749503590166568756f, -0.01861129328608512878f, -0.13187295198440551758f, -0.02999534644186496735f, -0.04661317169666290283f, -0.08276315778493881226f, -0.04781903326511383057f, 0.02433337643742561340f, 0.05329998210072517395f, 0.09881202131509780884f, -0.09455847740173339844f, -0.04453074559569358826f, 0.03122914768755435944f, 0.00005294862421578728f, 0.03861919790506362915f, 0.13424076139926910400f, 0.13134916126728057861f, 0.20539782941341400146f, -0.00689077656716108322f, -0.07810025662183761597f, 0.01178655121475458145f, 0.03805065527558326721f, -0.02239631116390228271f, 0.13405176997184753418f, -0.02671031467616558075f, 0.17335443198680877686f, -0.00169561221264302731f, -0.03554414212703704834f, -0.02609612420201301575f, -0.02479314059019088745f, 0.03610066697001457214f, 0.01483298838138580322f, -0.11432977765798568726f, 0.12364852428436279297f, 0.09318178892135620117f, 0.04995412379503250122f, -0.00516978139057755470f, 0.13401530683040618896f, -0.06270677596330642700f, -0.11383637040853500366f, -0.14498941600322723389f, 0.11571757495403289795f, 0.04248772561550140381f, -0.00249042618088424206f, 0.00349951768293976784f, 0.04022773355245590210f, -0.04533915221691131592f, -0.05124736204743385315f, -0.02106934040784835815f, 0.09158195555210113525f, -0.04023892804980278015f, -0.04787914082407951355f, 0.01502269320189952850f, 0.01014913711696863174f, -0.06671650707721710205f, -0.01777028478682041168f, -0.04386496171355247498f, 0.00404286291450262070f, 0.03491370752453804016f, -0.00548745691776275635f, -0.10173329710960388184f, -0.08439780771732330322f, -0.03403785824775695801f, 0.01384859532117843628f, -0.04134926199913024902f, 0.02170474641025066376f, 0.01615293696522712708f, 0.01789300143718719482f, 0.03270095959305763245f, -0.07916615158319473267f, -0.07126379013061523438f, 0.07899972796440124512f, 0.09993805736303329468f, 0.10049018263816833496f, -0.01025960408151149750f, -0.06106246262788772583f, 0.02515717595815658569f, -0.02576925046741962433f, -0.03073661960661411285f, 0.02729558758437633514f, 0.01790067926049232483f, 0.09207854419946670532f, -0.02350501902401447296f, -0.00737953232601284981f, -0.02865847758948802948f, -0.00439480692148208618f, 0.03412978351116180420f, 0.07709530740976333618f, -0.06148963794112205505f, 0.03676330298185348511f, -0.03358664363622665405f, -0.07658104598522186279f, -0.06990608572959899902f, 0.03003326244652271271f, 0.05179277807474136353f, -0.00063798687187954783f, -0.13346034288406372070f, 0.05132643505930900574f, 0.00038819259498268366f, 0.01207259483635425568f, -0.01032236125320196152f, 0.08541216701269149780f, -0.06219288706779479980f, -0.07027681916952133179f, -0.18762680888175964355f, 0.06430508196353912354f, 0.13327480852603912354f, -0.03633176162838935852f, -0.00165148254018276930f, 0.13164035975933074951f, 0.00013303893501870334f, 0.05764955282211303711f, -0.05814867839217185974f, 0.06646230071783065796f, 0.09032117575407028198f, -0.02358918637037277222f, -0.02694873698055744171f, 0.01192054897546768188f, -0.08646138757467269897f, -0.06329955905675888062f, -0.10017076134681701660f, 0.03426870703697204590f, 0.06533232331275939941f, -0.02177460119128227234f, 0.00355197116732597351f, -0.07183135300874710083f, 0.01155325304716825485f, 0.06801591813564300537f, 0.01576798409223556519f, 0.02413441054522991180f, -0.08687587082386016846f, -0.02928891032934188843f, -0.01606570556759834290f, -0.03903740271925926208f, -0.10369740426540374756f, -0.03896300122141838074f, 0.00938063766807317734f, 0.04610087722539901733f, -0.03215943649411201477f, -0.03011958114802837372f, -0.00034393515670672059f, -0.02230243012309074402f, -0.01387981418520212173f, 0.16269960999488830566f, 0.09947382658720016479f, 0.17792239785194396973f, -0.03969966247677803040f, -0.01594591885805130005f, -0.05516025424003601074f, -0.02415140904486179352f, 0.08393180370330810547f, 0.04244486615061759949f, -0.04063509404659271240f, 0.08529863506555557251f, -0.07781979441642761230f, -0.12328831851482391357f, -0.07644136250019073486f, 0.03048576228320598602f, 0.04126730188727378845f, 0.01823959127068519592f, -0.10841105133295059204f, 0.12570752203464508057f, -0.02576662413775920868f, 0.01113771647214889526f, 0.04287488013505935669f, 0.01533795613795518875f, -0.05353962257504463196f, -0.05826875194907188416f, -0.14023889601230621338f, 0.04915143549442291260f, 0.01056162361055612564f, 0.01106065791100263596f, 0.00326335406862199306f, 0.10083999484777450562f, -0.05857807770371437073f, -0.04145086184144020081f, -0.05957428365945816040f, 0.09729839861392974854f, 0.07405012845993041992f, -0.01113459933549165726f, 0.01752170920372009277f, 0.01219326537102460861f, -0.06604588031768798828f, 0.03087374567985534668f, 0.00618584733456373215f, 0.04547578841447830200f, -0.04937247186899185181f, 0.05270224437117576599f, -0.06884597241878509521f, -0.02030646428465843201f},
  {-0.18774782121181488037f, -0.16687662899494171143f, -0.22012896835803985596f, -0.10848537087440490723f, -0.05987343192100524902f, -0.04226939007639884949f, -0.04075399041175842285f, -0.14074338972568511963f, 0.00946084503084421158f, 0.00383557076565921307f, -0.15630266070365905762f, 0.05575006827712059021f, 0.04369686916470527649f, -0.01629896648228168488f, 0.10808731615543365479f, -0.02767806872725486755f, 0.00203361152671277523f, 0.05520914867520332336f, -0.05745406821370124817f, 0.02316749095916748047f, -0.03070732951164245605f, -0.02828561700880527496f, -0.04572175070643424988f, 0.03268945962190628052f, 0.03768452629446983337f, 0.01050303597003221512f, -0.02227755263447761536f, 0.09509385377168655396f, 0.05904315784573554993f, -0.05447661504149436951f, 0.08675539493560791016f, 0.07392590492963790894f, -0.10609520226716995239f, -0.01732708700001239777f, -0.14485800266265869141f, -0.00065747724147513509f, 0.02976976335048675537f, 0.08053090423345565796f, 0.09672160446643829346f, 0.09139860421419143677f, 0.10557082295417785645f, 0.29007208347320556641f, 0.19930732250213623047f, 0.14143820106983184814f, 0.07363636791706085205f, 0.01010443177074193954f, 0.06424763053655624390f, -0.00099717709235846996f, -0.10252605378627777100f, 0.15473392605781555176f, 0.01916530542075634003f, -0.06510838121175765991f, -0.14725601673126220703f, -0.02910562418401241302f, 0.00578555883839726448f, -0.01458200998604297638f, -0.15713430941104888916f, -0.03877822309732437134f, -0.09825763851404190063f, -0.09250034391880035400f, -0.05577259510755538940f, 0.06299787014722824097f, 0.13778649270534515381f, 0.14551100134849548340f, 0.00591309648007154465f, -0.08190669864416122437f, -0.07983370125293731689f, -0.03830965235829353333f, 0.00177780608646571636f, 0.00244386703707277775f, 0.03350992128252983093f, -0.08630540966987609863f, 0.01894693821668624878f, 0.10859618335962295532f, -0.01755239255726337433f, 0.13843236863613128662f, 0.10014670342206954956f, 0.07904576510190963745f, 0.06047357618808746338f, 0.03108556754887104034f, 0.00056467356625944376f, 0.09558182209730148315f, -0.01670630089938640594f, 0.01759752817451953888f, -0.01931799948215484619f, -0.13485459983348846436f, 0.03918167948722839355f, -0.03461134433746337891f, -0.05814509093761444092f, 0.03906421735882759094f, -0.10468516498804092407f, -0.00553883565589785576f, 0.00846303999423980713f, -0.08805692940950393677f, 0.07346799224615097046f, 0.00244098668918013573f, -0.04930604621767997742f, -0.01013925857841968536f, -0.10652308911085128784f, -0.07658401876688003540f, -0.02146576531231403351f, -0.00253162509761750698f, -0.01836655475199222565f, -0.02276087366044521332f, -0.03452244773507118225f, 0.18632243573665618896f, 0.08240353316068649292f, 0.08608926832675933838f, 0.00037815599353052676f, -0.01108995079994201660f, 0.01918092742562294006f, 0.00975863449275493622f, 0.00066580739803612232f, 0.14909847080707550049f, 0.11726713180541992188f, -0.09722149372100830078f, -0.13619583845138549805f, -0.15208783745765686035f, -0.09567261487245559692f, 0.03636668995022773743f, -0.16518110036849975586f, -0.00116847245953977108f, -0.04292751848697662354f, -0.06016382575035095215f, -0.04669421166181564331f, 0.05037461593747138977f, 0.06354074180126190186f, 0.16990500688552856445f, 0.01962960511445999146f, 0.03066260740160942078f, -0.05425843968987464905f, 0.09815288335084915161f, 0.13087101280689239502f, 0.03543076664209365845f, 0.07353800535202026367f, -0.03397846221923828125f, 0.07076363265514373779f, 0.05544452369213104248f, 0.09869303554296493530f, 0.09158261120319366455f, 0.12299069762229919434f, 0.13493825495243072510f, 0.04734705388545989990f, 0.01103975996375083923f, 0.07853938639163970947f, 0.09473148733377456665f, -0.02707782387733459473f, 0.07597859948873519897f, -0.05294230580329895020f, -0.10257119685411453247f, -0.03079801425337791443f, -0.10212738811969757080f, 0.01686831004917621613f, 0.06853702664375305176f, -0.04364442825317382812f, 0.07308239489793777466f, -0.02685702964663505554f, -0.04195553064346313477f, -0.01073807105422019958f, -0.06599527597427368164f, -0.06474358588457107544f, -0.07115572690963745117f, -0.16998113691806793213f, -0.06967686861753463745f, -0.05344711989164352417f, -0.13124372065067291260f, -0.03663612529635429382f, -0.10106337815523147583f, -0.07054051011800765991f, 0.15511295199394226074f, 0.07495211064815521240f, -0.05218032747507095337f, -0.03212808072566986084f, -0.03035892732441425323f, -0.07885880768299102783f, -0.08975545316934585571f, 0.03578847646713256836f, 0.23377858102321624756f, 0.09013303369283676147f, -0.03652625158429145813f, -0.02861455827951431274f, -0.14167137444019317627f, -0.08612664788961410522f, -0.06833310425281524658f, -0.15468971431255340576f, -0.02021646685898303986f, -0.05882354080677032471f, 0.01537243742495775223f, 0.03581042215228080750f, 0.01475241314619779587f, 0.12796963751316070557f, 0.14485067129135131836f},
  {-0.05670262128114700317f, 0.04225656390190124512f, -0.08439469337463378906f, -0.07256527245044708252f, 0.00348402163945138454f, -0.04307509958744049072f, -0.00834599789232015610f, -0.08071209490299224854f, -0.00102564075496047735f, 0.16903360188007354736f, 0.03233686462044715881f, 0.07678540050983428955f, 0.04058266431093215942f, -0.08519695699214935303f, -0.04724504053592681885f, -0.05396056547760963440f, -0.18766069412231445312f, -0.10972023010253906250f, -0.13021305203437805176f, -0.05800917372107505798f, -0.05043380707502365112f, -0.12887996435165405273f, -0.00815086159855127335f, -0.05895483121275901794f, -0.09961953759193420410f, -0.02778895199298858643f, -0.19298905134201049805f, -0.05812323093414306641f, 0.02387881465256214142f, -0.09168471395969390869f, 0.03277972340583801270f, -0.03545896708965301514f, 0.12891076505184173584f, 0.12160260975360870361f, 0.01140075549483299255f, 0.05343715474009513855f, -0.07953734695911407471f, -0.06028052791953086853f, 0.01398993283510208130f, -0.06382711976766586304f, 0.16439539194107055664f, 0.12630169093608856201f, -0.02017419598996639252f, 0.08064782619476318359f, 0.06428445875644683838f, -0.02619818970561027527f, -0.02902709320187568665f, -0.09921605139970779419f, 0.00987262185662984848f, -0.05659119784832000732f, -0.08986030519008636475f, 0.09339935332536697388f, 0.12458032369613647461f, 0.07981427758932113647f, 0.22741460800170898438f, 0.05916801840066909790f, 0.14907667040824890137f, 0.08109787851572036743f, -0.01668634638190269470f, 0.03367002680897712708f, 0.06307357549667358398f, 0.04116950556635856628f, 0.09289264678955078125f, 0.02208920568227767944f, -0.05703491717576980591f, -0.00040269634337164462f, -0.10354243218898773193f, -0.07854207605123519897f, -0.09036222845315933228f, 0.01291186641901731491f, -0.03122902102768421173f, 0.00400345399975776672f, 0.02030011080205440521f, 0.17390473186969757080f, 0.04898710176348686218f, 0.11835517734289169312f, 0.02884700894355773926f, -0.10566172003746032715f, 0.01842241361737251282f, -0.01243643928319215775f, -0.09732607752084732056f, -0.12895660102367401123f, -0.19561602175235748291f, -0.02251021750271320343f, 0.06027368083596229553f, -0.04232707247138023376f, 0.02662253752350807190f, -0.12503938376903533936f, -0.00292767025530338287f, -0.02704415097832679749f, -0.09503003954887390137f, 0.03190577030181884766f, 0.05016242712736129761f, -0.02207258343696594238f, 0.09718731045722961426f, 0.05178142711520195007f, 0.11875429004430770874f, 0.19304853677749633789f, 0.01436413917690515518f, 0.04341341182589530945f, -0.01298361551016569138f, -0.12871435284614562988f, -0.03472460433840751648f, -0.01046179980039596558f, 0.09136317670345306396f, 0.12971973419189453125f, 0.00899898540228605270f, 0.12681280076503753662f, 0.04587297514081001282f, -0.07695634663105010986f, 0.03406663611531257629f, -0.01915086433291435242f, -0.02091492712497711182f, -0.08674557507038116455f, -0.07759360969066619873f, -0.04582793638110160828f, 0.09265010058879852295f, 0.08632397651672363281f, 0.02327418513596057892f, 0.02426293864846229553f, 0.00721525354310870171f, -0.04291025921702384949f, -0.09942652285099029541f, -0.03546988964080810547f, 0.05556388199329376221f, 0.05440317466855049133f, 0.06753147393465042114f, -0.01307169906795024872f, 0.01857106946408748627f, 0.07109495252370834351f, -0.04824272915720939636f, 0.02011713013052940369f, 0.00862890575081110001f, -0.02831532619893550873f, 0.11866249144077301025f, 0.02373955585062503815f, 0.08671966940164566040f, 0.16092067956924438477f, 0.11376629769802093506f, 0.14133556187152862549f, 0.09717699140310287476f, 0.06269208341836929321f, 0.05365801975131034851f, 0.08026969432830810547f, -0.13128022849559783936f, 0.00023625747417099774f, -0.05038286373019218445f, 0.03666996583342552185f, 0.07628826051950454712f, -0.03930683434009552002f, 0.01040617097169160843f, 0.06044969335198402405f, -0.04120480269193649292f, 0.01531357225030660629f, -0.12507657706737518311f, 0.04929996654391288757f, 0.09703864902257919312f, 0.05025930702686309814f, 0.19523732364177703857f, 0.03425993025302886963f, 0.14087153971195220947f, 0.18542444705963134766f, -0.01404021307826042175f, 0.00782227143645286560f, -0.00479531893506646156f, -0.09324967861175537109f, 0.01870685443282127380f, -0.00109494547359645367f, 0.08368045836687088013f, 0.10734848678112030029f, -0.02306401729583740234f, 0.09287236630916595459f, -0.01303365267813205719f, -0.14649848639965057373f, -0.01229500211775302887f, -0.03297634795308113098f, -0.07382460683584213257f, -0.07006632536649703979f, -0.23153623938560485840f, -0.08002588152885437012f, 0.00348841305822134018f, -0.03901601210236549377f, -0.02530910074710845947f, -0.10672128945589065552f, 0.01477027405053377151f, -0.04377345368266105652f, -0.18476644158363342285f, -0.12744422256946563721f, -0.12955366075038909912f, -0.13470333814620971680f, -0.04455213993787765503f, -0.13494013249874114990f},
  {0.03986184298992156982f, 0.00938838627189397812f, -0.01358856353908777237f, -0.01941955834627151489f, 0.00799175165593624115f, 0.01715298183262348175f, 0.04402679577469825745f, 0.07878106087446212769f, 0.02687196247279644012f, 0.00282774749211966991f, 0.02623146027326583862f, -0.03150977194309234619f, 0.00580044742673635483f, 0.04696652665734291077f, 0.08240047097206115723f, 0.08973164856433868408f, 0.06046574935317039490f, 0.03926325961947441101f, 0.05694936960935592651f, 0.04927014932036399841f, 0.04291046038269996643f, 0.12041157484054565430f, 0.13218267261981964111f, 0.08940259367227554321f, 0.01775510795414447784f, -0.05196722969412803650f, 0.00228010350838303566f, -0.01997624710202217102f, 0.07122208923101425171f, 0.02200921624898910522f, -0.02210011892020702362f, 0.09795922785997390747f, 0.00023516526562161744f, 0.00257962988689541817f, -0.02742167748510837555f, 0.03583250939846038818f, 0.02333048731088638306f, 0.10216076672077178955f, 0.07380220293998718262f, 0.08696610480546951294f, 0.03367890417575836182f, 0.01821304671466350555f, 0.04573006927967071533f, -0.03694535046815872192f, 0.06971758604049682617f, 0.16571964323520660400f, 0.12529999017715454102f, 0.08452050387859344482f, 0.06957489252090454102f, 0.03377824276685714722f, -0.01184119097888469696f, -0.02570611611008644104f, 0.07028331607580184937f, 0.06891939789056777954f, 0.08367543667554855347f, 0.05497477203607559204f, 0.09806012362241744995f, 0.07017756998538970947f, -0.06376760452985763550f, 0.04912401363253593445f, 0.07163495570421218872f, 0.07603105157613754272f, 0.01405827794224023819f, -0.03235702589154243469f, 0.02090331725776195526f, -0.04074677452445030212f, 0.04189340770244598389f, 0.03158444166183471680f, 0.04983075708150863647f, -0.06981123238801956177f, -0.02491758018732070923f, 0.03221827000379562378f, 0.01849433593451976776f, 0.05873234197497367859f, 0.07959189265966415405f, 0.04125239327549934387f, -0.03144419193267822266f, -0.01121528726071119308f, 0.05930586159229278564f, 0.04203195497393608093f, 0.04419160261750221252f, 0.02187808975577354431f, 0.05998587980866432190f, 0.07097771018743515015f, 0.05265313386917114258f, 0.03850333020091056824f, 0.02444536797702312469f, 0.10361013561487197876f, -0.03197419270873069763f, -0.04820426553487777710f, -0.03821477666497230530f, -0.05772381275892257690f, 0.02339934557676315308f, -0.01243186090141534805f, 0.07893931120634078979f, -0.04695205017924308777f, -0.01857139356434345245f, -0.03773070871829986572f, 0.03880717977881431580f, -0.05600530654191970825f, 0.01774405501782894135f, 0.07588264346122741699f, 0.06117501109838485718f, 0.06075617298483848572f, -0.00228179479017853737f, 0.03298313170671463013f, -0.03251053020358085632f, 0.00369274988770484924f, 0.03415847569704055786f, 0.06334189325571060181f, 0.11785511672496795654f, 0.05821226164698600769f, 0.04815748333930969238f, 0.03119752928614616394f, -0.06248885765671730042f, -0.07160282880067825317f, -0.01450331509113311768f, 0.07450632005929946899f, 0.03413607552647590637f, 0.00306677725166082382f, 0.06258244812488555908f, 0.00497722299769520760f, 0.02531079761683940887f, -0.07790808379650115967f, -0.05541366711258888245f, -0.02036261186003684998f, -0.03911108896136283875f, 0.00777269527316093445f, -0.00333136925473809242f, 0.01522893086075782776f, 0.01231692545115947723f, -0.05176095664501190186f, -0.04520041123032569885f, 0.03443255275487899780f, 0.01634931378066539764f, 0.03670212253928184509f, 0.08050950616598129272f, 0.00249352143146097660f, -0.00026035256450995803f, 0.03851917386054992676f, 0.05103077739477157593f, -0.04120380803942680359f, 0.02197641879320144653f, 0.03870733454823493958f, 0.01539277285337448120f, 0.10275120288133621216f, 0.09153068810701370239f, 0.00066747132223099470f, 0.01818924397230148315f, 0.03840030729770660400f, 0.09679350256919860840f, 0.06238174811005592346f, 0.00955795031040906906f, 0.00674755405634641647f, 0.03535663336515426636f, -0.03332059457898139954f, 0.01193350180983543396f, 0.02953284606337547302f, 0.04007702320814132690f, 0.02179346233606338501f, 0.03746045380830764771f, 0.01361172087490558624f, -0.04165399074554443359f, -0.01799119263887405396f, 0.05332991853356361389f, 0.07555133104324340820f, 0.01463432703167200089f, 0.04329946637153625488f, 0.08094699680805206299f, 0.05095845088362693787f, -0.02336812764406204224f, 0.02749830298125743866f, 0.10468895733356475830f, 0.12502636015415191650f, 0.10351709276437759399f, 0.06715820729732513428f, 0.06238625198602676392f, 0.05092085152864456177f, -0.02855819091200828552f, -0.01655685715377330780f, 0.03406994789838790894f, 0.01954137720167636871f, -0.00994673371315002441f, -0.01889015920460224152f, 0.04391971230506896973f, -0.01894268952310085297f, -0.01979702897369861603f, -0.05011581256985664368f, 0.03367342054843902588f, 0.06339082121849060059f, -0.02575253508985042572f, -0.07915698736906051636f},
  {0.25416168570518493652f, -0.01770346052944660187f, 0.08196153491735458374f, 0.17020680010318756104f, 0.03720510378479957581f, 0.01316976826637983322f, -0.02164390124380588531f, 0.05481578782200813293f, 0.11242274940013885498f, -0.16790269315242767334f, -0.02673530951142311096f, 0.08540428429841995239f, -0.04533968865871429443f, -0.09005429595708847046f, -0.10628566890954971313f, 0.03403929993510246277f, 0.17348159849643707275f, -0.16142792999744415283f, 0.07824623584747314453f, 0.22929680347442626953f, 0.14946714043617248535f, 0.05472159758210182190f, -0.02207739464938640594f, 0.05212473124265670776f, 0.15149465203285217285f, -0.20305813848972320557f, -0.04226034134626388550f, 0.11240601539611816406f, 0.00555878458544611931f, 0.03090379573404788971f, 0.01008076593279838562f, 0.06678029894828796387f, 0.07693004608154296875f, -0.11512751877307891846f, -0.04024456441402435303f, -0.02138237468898296356f, -0.03685313463211059570f, 0.03518760949373245239f, -0.04587252065539360046f, -0.00112582324072718620f, 0.16862347722053527832f, -0.06628734618425369263f, 0.03768610954284667969f, -0.01845392771065235138f, -0.11837756633758544922f, 0.08137496560811996460f, -0.02028050646185874939f, -0.03083224780857563019f, 0.02160102128982543945f, -0.08244033902883529663f, 0.01553611364215612411f, -0.05685879290103912354f, -0.14317312836647033691f, -0.00116039218846708536f, -0.03798225522041320801f, -0.16618867218494415283f, -0.07791984081268310547f, -0.20701608061790466309f, 0.00835075136274099350f, -0.03821027278900146484f, -0.15024825930595397949f, 0.03168464452028274536f, -0.02928305603563785553f, -0.14388783276081085205f, 0.15253216028213500977f, -0.06325477361679077148f, -0.00539022078737616539f, 0.02477416396141052246f, -0.09745244681835174561f, -0.08613462001085281372f, -0.06794957816600799561f, 0.00891429744660854340f, 0.13342437148094177246f, -0.28903001546859741211f, -0.12131235003471374512f, 0.12039043009281158447f, -0.05793452635407447815f, -0.18554303050041198730f, -0.17499074339866638184f, -0.04722549766302108765f, 0.05751905962824821472f, -0.18227542936801910400f, -0.06481999158859252930f, 0.17145854234695434570f, 0.08296563476324081421f, 0.04026928171515464783f, 0.03449307009577751160f, 0.01967586204409599304f, 0.08195958286523818970f, -0.26034149527549743652f, -0.03888908028602600098f, 0.10707768052816390991f, -0.02121249772608280182f, 0.04633276909589767456f, -0.02939125150442123413f, 0.01198744308203458786f, 0.15438747406005859375f, -0.18555170297622680664f, 0.04841275140643119812f, 0.01751230284571647644f, -0.11360877007246017456f, 0.05168859288096427917f, 0.08630063384771347046f, -0.01855254545807838440f, 0.21353745460510253906f, -0.08166462182998657227f, 0.08715365827083587646f, 0.04542684182524681091f, -0.07160165905952453613f, 0.05984620749950408936f, 0.01866151019930839539f, -0.04942620918154716492f, 0.12411612272262573242f, -0.06177502870559692383f, 0.12542973458766937256f, 0.06043586134910583496f, -0.07600282877683639526f, 0.09359636157751083374f, 0.03102398291230201721f, -0.01708267815411090851f, 0.04521760344505310059f, -0.10828448086977005005f, 0.05706045031547546387f, 0.07107741385698318481f, 0.06006651371717453003f, 0.15429554879665374756f, 0.06193475797772407532f, 0.00441097747534513474f, 0.17860580980777740479f, -0.10948032140731811523f, -0.02573600225150585175f, 0.12389995902776718140f, -0.00167845236137509346f, -0.07084055989980697632f, -0.03815086558461189270f, 0.01280413009226322174f, 0.15877327322959899902f, -0.23982074856758117676f, -0.04654914140701293945f, 0.13384695351123809814f, -0.01770501211285591125f, -0.08668888360261917114f, -0.12888319790363311768f, 0.00662932964041829109f, 0.17749431729316711426f, -0.29136043787002563477f, -0.04845482856035232544f, 0.16751925647258758545f, 0.07805716246366500854f, 0.02561749331653118134f, -0.06328774243593215942f, -0.02292942628264427185f, 0.08108918368816375732f, -0.23818582296371459961f, -0.06361755728721618652f, 0.04064026474952697754f, -0.05535314604640007019f, 0.08561083674430847168f, 0.02094072476029396057f, 0.00558701995760202408f, 0.09296678006649017334f, -0.17171181738376617432f, -0.08213941007852554321f, 0.01279241219162940979f, -0.08291499316692352295f, 0.01589636504650115967f, -0.01197073329240083694f, -0.01705662906169891357f, 0.14109466969966888428f, -0.05329877510666847229f, 0.01068131159991025925f, 0.00559064047411084175f, -0.04329386726021766663f, 0.12278216332197189331f, -0.00112081191036850214f, -0.05822181329131126404f, 0.07376554608345031738f, -0.01212815474718809128f, 0.11616332828998565674f, -0.06210382282733917236f, 0.01049011573195457458f, 0.11511537432670593262f, -0.01419070269912481308f, -0.00796644948422908783f, -0.09173056483268737793f, -0.12247920781373977661f, -0.00085011764895170927f, 0.01499205362051725388f, -0.03034144081175327301f, 0.13809464871883392334f, 0.03258798643946647644f, -0.05198262631893157959f},
  {0.18080371618270874023f, 0.00401633093133568764f, 0.01614407822489738464f, 0.11310529708862304688f, 0.15680214762687683105f, 0.05117228999733924866f, -0.06575889140367507935f, -0.10394567996263504028f, 0.07363294064998626709f, -0.07943592965602874756f, -0.04991643503308296204f, -0.00058395508676767349f, 0.06508884578943252563f, 0.02069707773625850677f, 0.09354062378406524658f, -0.00062289315974339843f, -0.00609752908349037170f, -0.09414348006248474121f, -0.08279514312744140625f, 0.04603219777345657349f, -0.05243975296616554260f, -0.10033504664897918701f, 0.06004761159420013428f, 0.12511844933032989502f, 0.03163365647196769714f, -0.03257605805993080139f, 0.15933386981487274170f, 0.15407431125640869141f, 0.02836745046079158783f, -0.14067357778549194336f, 0.03742495924234390259f, 0.04991480708122253418f, 0.03667092695832252502f, -0.00542628625407814980f, 0.00292662670835852623f, -0.00346824829466640949f, -0.06116266921162605286f, -0.18910701572895050049f, -0.09934439510107040405f, 0.06783182173967361450f, -0.11127905547618865967f, -0.07083199918270111084f, -0.06449343264102935791f, 0.00156385288573801517f, 0.02117803506553173065f, -0.10049423575401306152f, -0.14286281168460845947f, -0.08165432512760162354f, -0.04018247500061988831f, 0.04223759844899177551f, -0.02624299749732017517f, -0.00582719547674059868f, 0.06772354990243911743f, -0.05409757792949676514f, -0.01691666431725025177f, -0.10438573360443115234f, -0.07132603228092193604f, 0.00888877548277378082f, -0.07453214377164840698f, -0.11999182403087615967f, 0.02891251444816589355f, 0.00254888599738478661f, -0.04986658319830894470f, -0.03883219882845878601f, 0.13669826090335845947f, 0.03824090957641601562f, 0.05364330485463142395f, 0.10718465596437454224f, 0.05733631178736686707f, 0.03156248852610588074f, -0.10178358852863311768f, -0.17058126628398895264f, 0.02732142247259616852f, -0.11201176047325134277f, -0.05203871056437492371f, 0.04805587232112884521f, -0.03969348967075347900f, -0.02984975837171077728f, 0.07872606813907623291f, 0.03847653418779373169f, -0.03707132488489151001f, -0.03467234596610069275f, -0.05285074561834335327f, 0.03372439742088317871f, -0.11239480972290039062f, -0.08348064869642257690f, 0.09049369394779205322f, 0.10349981486797332764f, 0.07921113818883895874f, 0.06475462019443511963f, 0.13199545443058013916f, 0.10564689338207244873f, 0.01406907942146062851f, -0.10344342887401580811f, 0.10586418956518173218f, 0.13099354505538940430f, -0.05343386158347129822f, 0.04502484947443008423f, 0.09089217334985733032f, 0.07308279722929000854f, 0.09709028899669647217f, -0.16321411728858947754f, 0.01705138944089412689f, 0.06078252941370010376f, -0.01290618907660245895f, -0.06045654416084289551f, -0.00611825706437230110f, -0.02801495045423507690f, 0.14176949858665466309f, -0.15322409570217132568f, -0.01384584605693817139f, 0.00231663044542074203f, -0.05255493894219398499f, 0.05345474928617477417f, 0.02928214147686958313f, 0.02559909224510192871f, 0.14013606309890747070f, 0.03035854734480381012f, -0.05855187401175498962f, -0.06772247701883316040f, -0.05687959119677543640f, -0.06182415038347244263f, -0.04291823133826255798f, -0.07682228088378906250f, 0.05899165198206901550f, 0.06943824142217636108f, 0.03695951402187347412f, 0.02060975134372711182f, 0.05631374940276145935f, -0.05536330118775367737f, -0.07388886064291000366f, -0.01170610822737216949f, 0.09321703016757965088f, 0.00390308373607695103f, -0.14745578169822692871f, -0.17531080543994903564f, 0.07610523700714111328f, -0.12137636542320251465f, -0.17176364362239837646f, -0.01596470549702644348f, -0.03803241252899169922f, 0.02761450596153736115f, 0.07624202966690063477f, -0.05899943783879280090f, -0.09303157776594161987f, -0.14066854119300842285f, -0.00700515741482377052f, -0.05777382850646972656f, -0.09496565163135528564f, -0.15740218758583068848f, 0.15106460452079772949f, 0.04044457525014877319f, -0.05184112489223480225f, 0.00892527587711811066f, 0.13332325220108032227f, 0.15353015065193176270f, 0.09012657403945922852f, -0.05033116042613983154f, 0.05651077255606651306f, 0.09317526966333389282f, -0.02964621409773826599f, -0.01844435743987560272f, 0.03729151561856269836f, 0.10440088808536529541f, 0.04701342061161994934f, -0.12502104043960571289f, -0.06887765228748321533f, 0.00100930104963481426f, -0.06229345500469207764f, 0.03511533886194229126f, 0.03942810371518135071f, 0.08739892393350601196f, 0.04748171940445899963f, 0.01104691438376903534f, -0.05980479717254638672f, 0.00709646241739392281f, -0.04959441721439361572f, 0.05292881652712821960f, 0.04831643402576446533f, 0.02939048781991004944f, 0.21087862551212310791f, 0.06531870365142822266f, -0.04925015196204185486f, 0.02739329077303409576f, -0.07989598065614700317f, -0.03852242603898048401f, 0.02544710598886013031f, -0.02864095568656921387f, 0.12969733774662017822f, 0.12590992450714111328f, 0.01886355318129062653f, 0.06567130982875823975f},
  {0.08393324166536331177f, -0.15110987424850463867f, -0.16683928668498992920f, 0.01580335758626461029f, 0.13049735128879547119f, 0.05976692587137222290f, 0.00955700408667325974f, -0.01135002635419368744f, 0.10165692120790481567f, -0.02276321686804294586f, -0.19334672391414642334f, -0.06864351034164428711f, 0.05178629606962203979f, -0.17801007628440856934f, -0.07664186507463455200f, -0.17970210313796997070f, 0.11780197173357009888f, 0.09173778444528579712f, -0.05539900064468383789f, -0.02327506057918071747f, -0.02290553972125053406f, -0.20056433975696563721f, -0.03760181367397308350f, -0.08419520407915115356f, -0.01634451746940612793f, -0.07697909325361251831f, -0.12681108713150024414f, -0.05334477499127388000f, 0.07757703959941864014f, -0.01751900836825370789f, 0.10490196943283081055f, 0.02159159071743488312f, -0.01620426587760448456f, -0.03311964124441146851f, 0.00604207813739776611f, 0.03723343089222908020f, 0.07015920430421829224f, -0.07634023576974868774f, 0.16691367328166961670f, 0.03550367057323455811f, 0.14694678783416748047f, 0.02440026961266994476f, -0.00568394642323255539f, 0.14691664278507232666f, -0.01011650543659925461f, -0.08955219388008117676f, -0.02398146130144596100f, -0.14407773315906524658f, 0.19008497893810272217f, 0.12180932611227035522f, 0.04331081360578536987f, 0.05728219822049140930f, 0.01118286885321140289f, -0.02957353182137012482f, -0.00319705274887382984f, -0.15575252473354339600f, 0.03739773854613304138f, -0.01405295357108116150f, 0.00117169541772454977f, -0.02737372182309627533f, 0.08144737780094146729f, 0.02654911391437053680f, 0.11810407787561416626f, 0.02883703447878360748f, 0.01553046982735395432f, -0.06175557523965835571f, -0.18596991896629333496f, 0.08629162609577178955f, 0.29599350690841674805f, 0.06938637793064117432f, 0.02523046359419822693f, 0.05219645798206329346f, 0.18602317571640014648f, -0.02525354735553264618f, -0.11853261291980743408f, -0.00852929335087537766f, 0.02814081683754920959f, -0.13415323197841644287f, -0.12735395133495330811f, -0.05228562280535697937f, 0.11664249747991561890f, -0.01171279232949018478f, -0.08741462975740432739f, 0.01843970455229282379f, -0.02760549448430538177f, -0.07877777516841888428f, 0.01805198937654495239f, -0.01315947063267230988f, -0.11560801416635513306f, -0.13500037789344787598f, -0.16325879096984863281f, 0.00893459748476743698f, 0.05232192203402519226f, -0.02383199334144592285f, 0.11996342241764068604f, 0.08171441406011581421f, -0.05042461678385734558f, -0.00731127709150314331f, -0.05051308870315551758f, 0.04684824869036674500f, 0.08526570349931716919f, -0.05033016949892044067f, 0.18817989528179168701f, 0.00945311039686203003f, 0.05054639652371406555f, 0.00115172087680548429f, 0.02882918901741504669f, 0.00656244531273841858f, 0.01264636311680078506f, -0.16197784245014190674f, 0.04005302116274833679f, -0.16096967458724975586f, 0.11671829223632812500f, 0.07987549155950546265f, 0.02040899917483329773f, 0.06399702280759811401f, 0.09797662496566772461f, 0.02937134727835655212f, 0.11448791623115539551f, -0.13990843296051025391f, -0.04102215543389320374f, -0.07589711248874664307f, -0.08460947126150131226f, -0.06467235833406448364f, 0.00490619568154215813f, 0.08937402814626693726f, 0.19915832579135894775f, -0.05493016168475151062f, -0.00854383036494255066f, -0.04923689365386962891f, -0.12980069220066070557f, 0.04802762717008590698f, 0.30787733197212219238f, 0.15000392496585845947f, 0.13943555951118469238f, 0.04137720540165901184f, 0.08530355989933013916f, 0.07917133718729019165f, -0.10117341578006744385f, 0.01527987420558929443f, 0.12245339155197143555f, -0.10884053260087966919f, -0.05989915877580642700f, -0.03501391783356666565f, 0.09308040142059326172f, 0.05117026716470718384f, -0.06499704718589782715f, 0.01189004164189100266f, 0.12140730768442153931f, -0.09793316572904586792f, -0.04353623092174530029f, 0.03508568555116653442f, -0.02946577966213226318f, -0.12593945860862731934f, -0.10528814792633056641f, 0.03329312801361083984f, 0.09455265104770660400f, -0.01658637076616287231f, 0.26311695575714111328f, 0.15431794524192810059f, -0.05413958057761192322f, -0.13692599534988403320f, -0.08311285823583602905f, 0.05732074752449989319f, 0.07669108361005783081f, -0.01466481294482946396f, 0.19278080761432647705f, 0.05471402034163475037f, -0.00069955538492649794f, 0.07613267004489898682f, -0.04043323919177055359f, 0.01695244386792182922f, -0.02596796117722988129f, -0.09911672770977020264f, -0.04868622869253158569f, -0.15435530245304107666f, -0.06077518314123153687f, -0.10522019118070602417f, -0.09743635356426239014f, 0.00674596196040511131f, -0.04599641636013984680f, -0.01207577437162399292f, 0.07455880939960479736f, -0.14858478307723999023f, -0.10990420728921890259f, -0.09505862742662429810f, -0.15096975862979888916f, -0.09884659945964813232f, -0.04478666558861732483f, -0.00725719425827264786f, 0.08234655857086181641f, -0.15899820625782012939f},
  {0.17261545360088348389f, 0.06296104937791824341f, -0.08584166318178176880f, 0.01501636113971471786f, 0.00588343245908617973f, -0.07636436074972152710f, -0.03462447971105575562f, -0.03486253693699836731f, 0.01441192254424095154f, -0.01544725429266691208f, -0.15579582750797271729f, 0.00875943526625633240f, 0.00873718690127134323f, -0.09819382429122924805f, 0.12438637763261795044f, 0.11283719539642333984f, 0.00723083596676588058f, -0.11640174686908721924f, -0.12364345788955688477f, 0.07035297155380249023f, 0.01741697080433368683f, -0.12483454495668411255f, -0.03290117532014846802f, 0.03893546015024185181f, -0.01699674129486083984f, 0.02747420780360698700f, -0.12993918359279632568f, 0.03365001827478408813f, -0.03525815904140472412f, -0.17156025767326354980f, -0.15109695494174957275f, -0.02045703120529651642f, -0.04754764959216117859f, 0.04466120153665542603f, 0.00362879130989313126f, 0.01966030336916446686f, -0.03217829018831253052f, -0.03915383294224739075f, 0.00396899599581956863f, -0.05819326266646385193f, -0.09120484441518783569f, 0.02367336861789226532f, -0.00913410726934671402f, -0.08295701444149017334f, -0.02212897315621376038f, 0.13200697302818298340f, 0.12094497680664062500f, 0.00182616617530584335f, -0.13547967374324798584f, 0.02099129371345043182f, 0.00224016187712550163f, -0.10032518208026885986f, -0.02476271241903305054f, 0.06988617032766342163f, 0.05356033891439437866f, -0.15352000296115875244f, 0.01946731097996234894f, 0.11837552487850189209f, 0.10250009596347808838f, 0.06803856045007705688f, 0.04232547059655189514f, 0.06135325133800506592f, 0.08157172799110412598f, -0.13604050874710083008f, 0.16647952795028686523f, 0.14988197386264801025f, -0.03692329674959182739f, 0.08394528180360794067f, 0.00464355759322643280f, -0.05128346756100654602f, 0.05218384042382240295f, 0.07287015020847320557f, 0.11814665794372558594f, 0.02995945140719413757f, -0.07443261891603469849f, 0.10986120998859405518f, 0.11051307618618011475f, 0.05884546786546707153f, 0.13684892654418945312f, 0.11214565485715866089f, 0.02390958368778228760f, 0.02303690835833549500f, -0.11581203341484069824f, 0.06109884008765220642f, 0.07623645663261413574f, -0.03010257147252559662f, 0.07423881441354751587f, 0.10667740553617477417f, 0.01549442578107118607f, 0.05834794044494628906f, -0.03766443207859992981f, 0.09973878413438796997f, -0.01151996199041604996f, -0.12666782736778259277f, -0.06431851536035537720f, -0.05617310851812362671f, -0.02334272116422653198f, 0.11470804363489151001f, -0.02106820605695247650f, 0.01414177194237709045f, -0.01145538408309221268f, 0.01044253353029489517f, 0.01220989320427179337f, 0.02238623984158039093f, -0.06210318580269813538f, 0.08669311553239822388f, -0.02038038708269596100f, 0.00869793538004159927f, 0.01908089779317378998f, 0.06408520042896270752f, 0.10731436312198638916f, 0.05847001820802688599f, -0.15825808048248291016f, -0.03445275872945785522f, -0.06119380146265029907f, -0.14184723794460296631f, -0.11108918488025665283f, -0.00030704072560183704f, -0.02732791565358638763f, -0.11317329108715057373f, -0.05909717082977294922f, 0.10756036639213562012f, 0.07755195349454879761f, -0.04544834420084953308f, -0.02055686526000499725f, 0.05768366530537605286f, -0.03500947728753089905f, -0.16533091664314270020f, 0.12452358752489089966f, 0.00201678648591041565f, -0.06306546926498413086f, -0.04838066548109054565f, -0.05936147272586822510f, -0.11879898607730865479f, -0.06698179990053176880f, 0.02925653569400310516f, 0.00742845563217997551f, -0.12640437483787536621f, -0.17198972404003143311f, 0.03149203211069107056f, -0.02038779854774475098f, -0.04153359681367874146f, 0.00269341445527970791f, 0.05214832723140716553f, 0.03963186219334602356f, -0.09406000375747680664f, -0.17366382479667663574f, 0.02899104729294776917f, 0.07322697341442108154f, -0.07949186116456985474f, 0.02152129262685775757f, 0.03426632285118103027f, 0.01675475202500820160f, -0.03241577744483947754f, -0.09281971305608749390f, 0.12148546427488327026f, 0.00599749432876706123f, -0.13869841396808624268f, -0.08455853909254074097f, -0.05533251911401748657f, 0.03590684384107589722f, 0.08944539725780487061f, 0.04152043908834457397f, 0.03750358149409294128f, 0.07443025708198547363f, 0.01044899504631757736f, 0.04630243778228759766f, 0.01210298575460910797f, -0.05829591304063796997f, 0.08540134876966476440f, 0.04841847717761993408f, -0.01649041287600994110f, -0.01905701681971549988f, 0.11237015575170516968f, 0.21271136403083801270f, -0.00339569128118455410f, -0.08472222089767456055f, 0.03803593665361404419f, 0.05348724871873855591f, -0.08144378662109375000f, -0.06959193199872970581f, 0.02787034399807453156f, -0.01208801101893186569f, -0.11091042309999465942f, -0.08625057339668273926f, 0.09558922052383422852f, 0.08790887892246246338f, 0.10075069963932037354f, 0.07750348001718521118f, 0.08411511778831481934f, -0.02207222580909729004f, -0.12999832630157470703f},
  {-0.00826263148337602615f, 0.04694716259837150574f, -0.01659620739519596100f, -0.02303768694400787354f, -0.01721799932420253754f, 0.03146037086844444275f, 0.06551558524370193481f, 0.01773629896342754364f, -0.03156131878495216370f, 0.09511265903711318970f, 0.08643049001693725586f, 0.10577769577503204346f, 0.03494635224342346191f, 0.00348351569846272469f, 0.00684144347906112671f, 0.06268544495105743408f, 0.02546768449246883392f, 0.13962717354297637939f, 0.07754882425069808960f, 0.10215114802122116089f, 0.06729302555322647095f, 0.04596373066306114197f, 0.01508220657706260681f, 0.01550467684864997864f, -0.05833090469241142273f, 0.05814830213785171509f, 0.05950048565864562988f, 0.01432182360440492630f, -0.07447234541177749634f, 0.01612311229109764099f, -0.09854838997125625610f, -0.07620694488286972046f, -0.01862061582505702972f, 0.02779330871999263763f, 0.02088279463350772858f, -0.13004624843597412109f, 0.00264780013822019100f, -0.07206391543149948120f, -0.01058578956872224808f, -0.02212852984666824341f, 0.03294103965163230896f, 0.06633616238832473755f, -0.06342244148254394531f, -0.08397172391414642334f, -0.07929418981075286865f, -0.00015451580111403018f, -0.04162720590829849243f, 0.03913639485836029053f, 0.10616849362850189209f, 0.14972741901874542236f, -0.03678708523511886597f, -0.03850556910037994385f, 0.04487435519695281982f, 0.01206354983150959015f, -0.02136040106415748596f, -0.01463875081390142441f, 0.04651867970824241638f, 0.01693145558238029480f, -0.13753400743007659912f, -0.11365430057048797607f, -0.10692467540502548218f, -0.05806466937065124512f, -0.13450776040554046631f, -0.10396504402160644531f, -0.09033474326133728027f, 0.00051847042050212622f, -0.04071690514683723450f, 0.00266233622096478939f, -0.05355384573340415955f, -0.03763710707426071167f, 0.00317398016341030598f, -0.02441497519612312317f, -0.07858459651470184326f, 0.03160269930958747864f, 0.04756798967719078064f, -0.00704577052965760231f, -0.05604377761483192444f, -0.00736407935619354248f, -0.02042985334992408752f, 0.02823026478290557861f, -0.02749700658023357391f, 0.05302766337990760803f, 0.05199956148862838745f, 0.07896331697702407837f, -0.01955790258944034576f, -0.01243172865360975266f, -0.05748539417982101440f, -0.01751809567213058472f, -0.06892947107553482056f, 0.00752642704173922539f, 0.00925177522003650665f, -0.07220346480607986450f, -0.01929565519094467163f, -0.03040568716824054718f, -0.13051198422908782959f, -0.08491133898496627808f, -0.05303914472460746765f, 0.02013829536736011505f, -0.09177455306053161621f, -0.11578880995512008667f, -0.07616037130355834961f, -0.02773905359208583832f, -0.08340708166360855103f, -0.02033672854304313660f, 0.03924057632684707642f, 0.12604205310344696045f, -0.00781936105340719223f, -0.08709935843944549561f, -0.02641373872756958008f, 0.04245553165674209595f, -0.03348284587264060974f, 0.02450552582740783691f, 0.10761499404907226562f, 0.18024456501007080078f, 0.06692448258399963379f, -0.00472086993977427483f, 0.09852787852287292480f, 0.09191691875457763672f, 0.05214202404022216797f, 0.04467752948403358459f, 0.02986412681639194489f, 0.01041930727660655975f, -0.00793063733726739883f, -0.11342756450176239014f, 0.00591167528182268143f, 0.01967909932136535645f, -0.08113068342208862305f, -0.13918623328208923340f, -0.05431915447115898132f, -0.04031115397810935974f, -0.08917660266160964966f, -0.01566718704998493195f, -0.05639585480093955994f, -0.05175436660647392273f, -0.11098053306341171265f, -0.02668879367411136627f, -0.07667305320501327515f, 0.04917436838150024414f, 0.06328029185533523560f, 0.01618945784866809845f, -0.04971855506300926208f, 0.00120022264309227467f, -0.01027317997068166733f, -0.00731425965204834938f, -0.06830902397632598877f, 0.00594822969287633896f, 0.06989762932062149048f, 0.02788128703832626343f, 0.00888043083250522614f, -0.07515592873096466064f, 0.02899243310093879700f, -0.03901223093271255493f, -0.10669101029634475708f, 0.02820811420679092407f, -0.00283529842272400856f, 0.01717285625636577606f, -0.04539307579398155212f, -0.05791014805436134338f, 0.01595013774931430817f, -0.08694811910390853882f, -0.02460389211773872375f, 0.14822581410408020020f, 0.04047317057847976685f, -0.02657680585980415344f, -0.01042150985449552536f, -0.05793058127164840698f, -0.04831824079155921936f, -0.09299186617136001587f, 0.04639260843396186829f, 0.21830092370510101318f, 0.02136011980473995209f, -0.05247971042990684509f, 0.03509999066591262817f, 0.12145916372537612915f, 0.08469416946172714233f, 0.09918357431888580322f, 0.17629535496234893799f, 0.24900828301906585693f, 0.05108628422021865845f, 0.10651883482933044434f, 0.07248772680759429932f, 0.19517703354358673096f, 0.13584750890731811523f, 0.00399189721792936325f, 0.14377406239509582520f, 0.18515385687351226807f, -0.00487881759181618690f, 0.03711859509348869324f, 0.04288272932171821594f, 0.01430457644164562225f, -0.00382780889049172401f, -0.10193452984094619751f},
  {-0.05132223665714263916f, 0.04807621240615844727f, -0.01485285442322492599f, 0.00192501884885132313f, 0.07039521634578704834f, 0.03656142577528953552f, 0.09204549342393875122f, 0.01871576905250549316f, -0.06135961413383483887f, 0.05744011700153350830f, 0.06630254536867141724f, -0.05019518733024597168f, -0.00676554441452026367f, -0.05194053426384925842f, -0.02597030997276306152f, -0.04820033162832260132f, -0.07770642638206481934f, -0.05721813440322875977f, -0.04819605499505996704f, -0.04108027368783950806f, -0.07625409960746765137f, -0.05253036692738533020f, -0.05017917230725288391f, -0.06738990545272827148f, -0.09494690597057342529f, 0.01703085564076900482f, -0.01347084250301122665f, -0.05931125953793525696f, -0.02245181053876876831f, 0.08670895546674728394f, 0.07607531547546386719f, 0.04906281828880310059f, -0.03012715652585029602f, 0.03472070768475532532f, 0.03764853626489639282f, -0.06308399885892868042f, 0.00370454159565269947f, 0.03483363613486289978f, 0.08284191042184829712f, 0.08655627816915512085f, 0.05667659640312194824f, 0.13254071772098541260f, 0.05391358211636543274f, -0.05711981281638145447f, -0.04123219102621078491f, -0.02754976227879524231f, 0.00972490571439266205f, 0.06584779918193817139f, 0.04254580289125442505f, 0.03851478546857833862f, 0.02015407569706439972f, 0.01446885429322719574f, -0.04726710543036460876f, -0.07844330370426177979f, -0.10024712234735488892f, 0.02126285806298255920f, 0.07108011096715927124f, 0.08392845839262008667f, 0.12802939116954803467f, 0.13268215954303741455f, 0.13159993290901184082f, 0.05497642606496810913f, 0.07240429520606994629f, 0.02874115295708179474f, -0.08174949884414672852f, 0.04793318361043930054f, -0.00246604066342115402f, -0.06004175171256065369f, -0.07039703428745269775f, 0.04362610355019569397f, 0.10053671896457672119f, 0.11532407253980636597f, -0.12677790224552154541f, 0.05970691144466400146f, 0.00563151063397526741f, -0.05793855339288711548f, -0.02277512848377227783f, -0.02279912680387496948f, -0.03847064450383186340f, -0.04739962145686149597f, -0.15671616792678833008f, -0.03132740780711174011f, -0.03087110817432403564f, -0.10830689221620559692f, -0.04370241239666938782f, -0.08971745520830154419f, -0.09879808127880096436f, -0.01065424550324678421f, -0.14940768480300903320f, -0.08118263632059097290f, -0.01510354597121477127f, -0.12268688529729843140f, -0.06348251551389694214f, 0.01123248133808374405f, 0.05466832220554351807f, 0.11436615139245986938f, -0.06731992959976196289f, -0.00937255378812551498f, -0.04140588641166687012f, -0.10929692536592483521f, -0.05133678764104843140f, 0.00298359128646552563f, 0.04717754945158958435f, 0.04312894120812416077f, -0.05528553947806358337f, 0.02111547812819480896f, 0.04885985329747200012f, -0.04049789905548095703f, -0.07152730226516723633f, -0.05966819077730178833f, -0.02921128645539283752f, 0.04165634140372276306f, -0.05036333575844764709f, 0.02730466797947883606f, 0.07691898941993713379f, 0.01831221953034400940f, -0.04871532693505287170f, -0.02260222472250461578f, -0.09816633164882659912f, -0.03035559318959712982f, -0.04344301298260688782f, 0.00417294586077332497f, 0.09255524724721908569f, 0.12044750154018402100f, 0.11648862808942794800f, 0.08419387787580490112f, 0.06891261786222457886f, 0.14653614163398742676f, 0.06433507055044174194f, 0.08840741962194442749f, 0.14246955513954162598f, 0.08212753385305404663f, 0.11136243492364883423f, 0.07457832247018814087f, 0.09496159851551055908f, 0.15038010478019714355f, 0.03102746419608592987f, 0.07857158780097961426f, 0.13394436240196228027f, 0.06233105435967445374f, 0.05031138658523559570f, 0.03587697446346282959f, -0.04667147994041442871f, 0.01465726830065250397f, -0.00916670262813568115f, 0.02013699710369110107f, 0.01123333815485239029f, -0.00744544807821512222f, 0.06178171560168266296f, -0.00453669764101505280f, -0.00898786727339029312f, 0.03407882526516914368f, -0.08469837158918380737f, -0.03171576187014579773f, -0.04515799134969711304f, -0.01253077387809753418f, 0.06079858168959617615f, 0.04483868926763534546f, -0.00149945018347352743f, 0.08342132717370986938f, -0.06271932274103164673f, -0.04323053359985351562f, -0.02411361038684844971f, -0.12103012949228286743f, -0.00068043963983654976f, -0.02141226455569267273f, 0.06466150283813476562f, 0.03684151545166969299f, -0.08282233029603958130f, 0.03674387931823730469f, -0.01238446030765771866f, -0.16344754397869110107f, -0.09904383122920989990f, -0.12932968139648437500f, -0.02709044888615608215f, -0.03045971132814884186f, -0.06668407469987869263f, 0.02599178254604339600f, 0.05011350661516189575f, -0.04190622642636299133f, -0.10510849207639694214f, -0.16023841500282287598f, -0.09566298127174377441f, -0.03180995583534240723f, -0.08878838270902633667f, -0.01381663233041763306f, 0.09899248927831649780f, 0.04306647181510925293f, 0.01295737270265817642f, -0.05184034630656242371f, -0.00318444380536675453f, 0.03581312671303749084f},
  {-0.03576842322945594788f, -0.07151795178651809692f, -0.01707117818295955658f, -0.05894744396209716797f, -0.04164396598935127258f, 0.01744593307375907898f, -0.08123209327459335327f, -0.01969664543867111206f, -0.03936717659235000610f, -0.09836417436599731445f, -0.04049848020076751709f, -0.08970480412244796753f, 0.02060726471245288849f, -0.03146026656031608582f, -0.05717388540506362915f, -0.09416284412145614624f, -0.00012737602810375392f, -0.02775080129504203796f, -0.03544650226831436157f, -0.05821890756487846375f, 0.01453062612563371658f, 0.07823362946510314941f, 0.01305403374135494232f, -0.05779487267136573792f, 0.00093306659255176783f, -0.01488769054412841797f, -0.04750500619411468506f, -0.03636303171515464783f, 0.00505228480324149132f, 0.07416661828756332397f, -0.05962593480944633484f, -0.11418056488037109375f, 0.13545562326908111572f, -0.00393647421151399612f, 0.00669458042830228806f, 0.04120148345828056335f, 0.08515756577253341675f, 0.09525211900472640991f, -0.03464520722627639771f, -0.08842922747135162354f, 0.15234239399433135986f, -0.00632712198421359062f, 0.01235263701528310776f, 0.07598992437124252319f, 0.04670459032058715820f, 0.01817279495298862457f, -0.00613011838868260384f, -0.02955219522118568420f, 0.06593021750450134277f, -0.08140089362859725952f, -0.06462640315294265747f, -0.03299324214458465576f, -0.05444515496492385864f, 0.05398923903703689575f, 0.00471663847565650940f, -0.06004146486520767212f, 0.04815853759646415710f, -0.02102417498826980591f, 0.03347315266728401184f, 0.05258218944072723389f, 0.03333538025617599487f, 0.06212314590811729431f, 0.09623527526855468750f, 0.05768796801567077637f, 0.00216478132642805576f, -0.03779000416398048401f, -0.03870894387364387512f, -0.02127802558243274689f, 0.04057093709707260132f, 0.09137485176324844360f, -0.01835421286523342133f, -0.04166241735219955444f, -0.07468884438276290894f, -0.10707974433898925781f, 0.00590667780488729477f, -0.08203992247581481934f, 0.01769127696752548218f, 0.06837403029203414917f, -0.06287130713462829590f, -0.00866373255848884583f, 0.01952295564115047455f, -0.02990074455738067627f, -0.02024778537452220917f, -0.01234307419508695602f, 0.00401519006118178368f, 0.15249967575073242188f, 0.00760052492842078209f, -0.03011603094637393951f, 0.07159456610679626465f, -0.06566146016120910645f, -0.02844542637467384338f, -0.00872315838932991028f, 0.04538151994347572327f, 0.13944566249847412109f, -0.05311341583728790283f, -0.06764616072177886963f, 0.17237164080142974854f, 0.06332299858331680298f, -0.05901502445340156555f, 0.00775097357109189034f, 0.09128796309232711792f, 0.02548855356872081757f, -0.01367244496941566467f, -0.11068626493215560913f, 0.07139562070369720459f, -0.02345013990998268127f, -0.01395304594188928604f, -0.00622258335351943970f, 0.00384479411877691746f, 0.00860107131302356720f, -0.12134971469640731812f, -0.06270734220743179321f, -0.00214666780084371567f, -0.11137717962265014648f, -0.01701575890183448792f, -0.05070031806826591492f, 0.02679523453116416931f, -0.01023195777088403702f, -0.03265529870986938477f, -0.01722755096852779388f, 0.05269791930913925171f, -0.01570709049701690674f, -0.03567023575305938721f, 0.03489731997251510620f, 0.01719039864838123322f, 0.01545802317559719086f, 0.02819807454943656921f, -0.00051877141231670976f, 0.01953328587114810944f, -0.06923720985651016235f, -0.01076970249414443970f, 0.06977396458387374878f, 0.09728650748729705811f, 0.12022132426500320435f, 0.07990182936191558838f, 0.11010656505823135376f, -0.02590223401784896851f, -0.04157626256346702576f, 0.01199240330606698990f, -0.02779765427112579346f, -0.00304293888621032238f, 0.16732019186019897461f, 0.10564921051263809204f, 0.07953006774187088013f, 0.02776088565587997437f, -0.05443831905722618103f, -0.02149614691734313965f, 0.02863942831754684448f, 0.17134562134742736816f, 0.21949565410614013672f, 0.02309530973434448242f, 0.05408181622624397278f, 0.06247626990079879761f, 0.00905433855950832367f, -0.02190587855875492096f, 0.04251090437173843384f, 0.06432569026947021484f, 0.14370420575141906738f, 0.01098961569368839264f, -0.06333322823047637939f, 0.15037181973457336426f, 0.02078157290816307068f, 0.02032136730849742889f, 0.07642931491136550903f, 0.08395522832870483398f, 0.15267688035964965820f, -0.02406018041074275970f, -0.05013114213943481445f, 0.14297759532928466797f, -0.00941834319382905960f, -0.01513831410557031631f, 0.02639643289148807526f, 0.08512090146541595459f, 0.11735845357179641724f, -0.08101221919059753418f, 0.00459677679464221001f, -0.00452950689941644669f, -0.11268837004899978638f, -0.04569476842880249023f, -0.02191637083888053894f, -0.00020431875600479543f, 0.01407971791923046112f, -0.06208842620253562927f, -0.01220930367708206177f, -0.04322720691561698914f, -0.05993555486202239990f, -0.00327112618833780289f, 0.02527993731200695038f, 0.01803575642406940460f, 0.07880160212516784668f, -0.00292338221333920956f, 0.04426773637533187866f},
  {-0.05072522535920143127f, -0.09478171169757843018f, -0.03880604356527328491f, 0.04908674955368041992f, -0.00670891115441918373f, -0.04201085120439529419f, 0.02876690216362476349f, -0.16629575192928314209f, -0.01600152067840099335f, 0.00078072777250781655f, -0.03042322956025600433f, -0.05928142741322517395f, -0.12481319159269332886f, -0.07908400148153305054f, -0.05312588810920715332f, -0.12600795924663543701f, 0.02608684822916984558f, -0.06794624775648117065f, -0.14215989410877227783f, -0.04661206156015396118f, -0.02502240985631942749f, -0.04299766942858695984f, 0.04078983142971992493f, -0.00476067652925848961f, 0.06130086630582809448f, 0.00361651577986776829f, -0.11173282563686370850f, 0.10477566719055175781f, -0.01727766357362270355f, -0.02926747873425483704f, 0.01907926984131336212f, 0.01204059086740016937f, 0.09852600842714309692f, 0.05320362001657485962f, -0.10837546736001968384f, 0.11950348317623138428f, -0.05838948860764503479f, -0.21699766814708709717f, -0.11711173504590988159f, -0.07675905525684356689f, 0.11277974396944046021f, -0.04608504474163055420f, -0.02174515835940837860f, 0.13793481886386871338f, 0.08968874067068099976f, -0.02899511158466339111f, 0.11820386350154876709f, 0.07194194197654724121f, 0.02680054493248462677f, -0.04687461256980895996f, -0.12573160231113433838f, 0.07523879408836364746f, 0.10469470918178558350f, 0.13036896288394927979f, 0.14566497504711151123f, 0.09786190837621688843f, 0.17224210500717163086f, 0.12160581350326538086f, 0.02585404738783836365f, 0.08566506206989288330f, 0.07115771621465682983f, 0.00423538591712713242f, 0.01280368305742740631f, -0.10133818536996841431f, -0.07165028899908065796f, 0.01349039375782012939f, 0.02240410447120666504f, 0.08822865784168243408f, 0.02539119310677051544f, 0.06530269235372543335f, 0.04004263132810592651f, 0.04678794741630554199f, -0.06608922034502029419f, 0.04265554621815681458f, 0.00878013204783201218f, 0.09693463146686553955f, -0.00235139019787311554f, -0.03474386781454086304f, 0.04193409904837608337f, -0.01749377138912677765f, -0.01813158579170703888f, 0.05118740722537040710f, -0.05126342549920082092f, 0.05137876048684120178f, -0.04659995436668395996f, -0.04912322014570236206f, 0.09597744047641754150f, 0.01839487627148628235f, 0.03147441521286964417f, 0.00526576722040772438f, 0.00368859595619142056f, 0.02698833867907524109f, -0.02513130381703376770f, 0.03312829136848449707f, 0.13004389405250549316f, 0.01925518549978733063f, 0.06647443026304244995f, -0.01197625044733285904f, -0.08148043602705001831f, 0.12460342794656753540f, -0.14226515591144561768f, -0.17292238771915435791f, -0.10166487842798233032f, -0.18696193397045135498f, 0.00327164400368928909f, -0.01393989473581314087f, -0.09136824309825897217f, 0.17123469710350036621f, 0.11395168304443359375f, -0.03164314478635787964f, 0.11574569344520568848f, 0.07928222417831420898f, -0.02219672687351703644f, -0.09386185556650161743f, -0.12640735507011413574f, 0.09189282357692718506f, -0.06397230178117752075f, 0.05879185721278190613f, 0.14164130389690399170f, 0.04222806170582771301f, 0.04173374176025390625f, 0.01426541619002819061f, -0.01139031071215867996f, 0.01173444930464029312f, -0.07637678831815719604f, -0.04846235364675521851f, -0.10476695001125335693f, -0.13533273339271545410f, -0.06365683674812316895f, 0.05637958273291587830f, 0.01539397798478603363f, 0.11351048201322555542f, 0.13275550305843353271f, 0.03005822375416755676f, 0.00482984213158488274f, -0.01052417326718568802f, -0.02458587475121021271f, 0.08610845357179641724f, -0.04549804329872131348f, 0.10561738908290863037f, 0.02116420306265354156f, -0.03252666816115379333f, 0.07378918677568435669f, -0.04352053999900817871f, -0.01095409505069255829f, 0.09484922140836715698f, -0.05240024253726005554f, 0.05906535685062408447f, -0.03355087712407112122f, 0.05961410701274871826f, 0.13771682977676391602f, 0.01464253757148981094f, 0.03141120076179504395f, 0.07322817295789718628f, -0.08671985566616058350f, 0.04580759257078170776f, 0.01153074018657207489f, -0.02808871120214462280f, 0.00084833725122734904f, -0.00107078498695045710f, 0.11243553459644317627f, -0.05398587509989738464f, -0.11678609997034072876f, 0.04798310995101928711f, -0.11381977051496505737f, -0.12915468215942382812f, -0.12371796369552612305f, -0.10971720516681671143f, 0.07079179584980010986f, -0.10194631665945053101f, -0.01862492039799690247f, 0.18913750350475311279f, 0.09519492089748382568f, 0.08063669502735137939f, 0.12238422781229019165f, 0.01655303500592708588f, -0.07888728380203247070f, -0.10875122249126434326f, -0.17479763925075531006f, 0.03134725242853164673f, 0.02356096915900707245f, -0.04327224195003509521f, 0.01932617276906967163f, 0.00167888461146503687f, -0.01426928024739027023f, -0.00897844322025775909f, -0.08952364325523376465f, 0.05021560937166213989f, -0.14160934090614318848f, -0.08660347014665603638f, -0.06296049058437347412f, -0.03342023864388465881f},
  {0.11773817241191864014f, 0.02512638457119464874f, 0.06004229933023452759f, 0.14842726290225982666f, 0.11726273596286773682f, 0.02230550907552242279f, -0.05833201110363006592f, 0.03893545642495155334f, 0.07926478236913681030f, 0.03100281953811645508f, 0.10641790926456451416f, 0.16783663630485534668f, 0.08052392303943634033f, -0.01077244430780410767f, 0.07165483385324478149f, 0.20315331220626831055f, -0.00214381120167672634f, -0.09400426596403121948f, -0.08817896246910095215f, 0.06704378128051757812f, -0.01133111957460641861f, 0.01000952068716287613f, -0.00247381487861275673f, 0.08666594326496124268f, 0.04940377920866012573f, -0.04930295795202255249f, -0.00018898617418017238f, 0.10591225326061248779f, 0.08765511959791183472f, 0.07136370241641998291f, -0.01424836460500955582f, 0.11122978478670120239f, 0.12568753957748413086f, 0.09634786099195480347f, 0.01250778324902057648f, 0.02623843215405941010f, 0.04424801841378211975f, 0.03549046441912651062f, -0.03771784156560897827f, 0.05122246593236923218f, 0.09754990786314010620f, -0.06022965535521507263f, -0.07901980727910995483f, -0.04702538624405860901f, -0.00800623744726181030f, -0.03644292801618576050f, -0.11840069293975830078f, -0.00614949548617005348f, 0.02255011908710002899f, -0.01914134435355663300f, -0.07477112114429473877f, -0.04119889065623283386f, -0.06418588757514953613f, -0.02136854082345962524f, -0.10958141088485717773f, 0.03227293491363525391f, 0.11594674736261367798f, 0.04493188858032226562f, 0.04637290537357330322f, 0.00663385819643735886f, -0.00118691602256149054f, 0.00010395538265584037f, -0.06237209588289260864f, 0.07238945364952087402f, 0.06895184516906738281f, 0.02527373470366001129f, -0.02413564920425415039f, -0.01133170444518327713f, -0.07977928221225738525f, -0.05293748527765274048f, -0.06505695730447769165f, -0.06094862148165702820f, 0.05675465986132621765f, -0.09270263463258743286f, -0.04798317328095436096f, -0.00379015924409031868f, -0.01194531563669443130f, -0.00469061126932501793f, 0.00044076840276829898f, 0.16346322000026702881f, -0.04720228165388107300f, -0.06852374970912933350f, -0.09162985533475875854f, 0.04146245494484901428f, -0.04609743133187294006f, -0.00144643359817564487f, 0.01617142930626869202f, 0.05876189097762107849f, -0.04190568253397941589f, -0.03269181400537490845f, -0.01893562264740467072f, 0.05451423674821853638f, 0.01797317899763584137f, 0.03384909033775329590f, -0.09429553151130676270f, 0.13227225840091705322f, 0.05590165778994560242f, 0.01437324564903974533f, 0.00607387814670801163f, 0.05331851914525032043f, -0.02348520234227180481f, 0.04260284081101417542f, -0.05589623004198074341f, 0.01152501814067363739f, 0.00306177837774157524f, -0.07270581275224685669f, -0.08606387674808502197f, -0.09002225100994110107f, -0.00471386732533574104f, -0.10096806287765502930f, -0.12274807691574096680f, 0.02917582355439662933f, -0.09509231895208358765f, -0.09765213727951049805f, -0.10231789946556091309f, 0.01117519754916429520f, -0.06007922068238258362f, -0.04747492820024490356f, -0.07913169264793395996f, 0.05718547850847244263f, 0.03948091343045234680f, -0.00756089109927415848f, -0.06396696716547012329f, -0.00020047862199135125f, 0.03427749127149581909f, -0.03457562625408172607f, -0.07327391952276229858f, 0.02124636434018611908f, 0.05723701789975166321f, -0.08298940211534500122f, -0.02686370350420475006f, -0.00763822812587022781f, -0.01854065619409084320f, -0.14139391481876373291f, -0.16892395913600921631f, -0.04055502265691757202f, -0.05822457745671272278f, -0.07241214066743850708f, -0.00585323292762041092f, 0.01616411656141281128f, -0.03817886486649513245f, 0.00613405229523777962f, -0.00819325447082519531f, 0.07299776375293731689f, -0.05990204960107803345f, -0.18567934632301330566f, -0.02021574415266513824f, 0.00904897600412368774f, -0.06310083717107772827f, -0.04678033292293548584f, -0.05175055563449859619f, 0.15220840275287628174f, 0.05328204855322837830f, -0.05144285410642623901f, -0.07887554168701171875f, 0.06789135932922363281f, 0.03639342635869979858f, -0.03412038087844848633f, -0.02079199813306331635f, 0.07268812507390975952f, 0.11674851179122924805f, 0.00764951622113585472f, -0.01087102293968200684f, -0.02069475501775741577f, 0.05906049907207489014f, 0.02856638841331005096f, -0.10465307533740997314f, 0.04497509822249412537f, 0.03593457862734794617f, 0.02143713459372520447f, -0.05277672782540321350f, -0.03919175639748573303f, -0.09604483842849731445f, -0.00107972440309822559f, -0.13435082137584686279f, 0.04883044213056564331f, 0.02501023188233375549f, -0.09485379606485366821f, 0.01346716564148664474f, -0.04257194325327873230f, 0.03313646838068962097f, -0.07182922959327697754f, -0.09476529806852340698f, 0.07649708539247512817f, 0.10291823744773864746f, 0.06147376075387001038f, 0.02713279612362384796f, 0.08895925432443618774f, -0.00498706661164760590f, -0.02156216651201248169f, 0.01564541272819042206f, 0.10229982435703277588f},
  {-0.06385197490453720093f, -0.11521922051906585693f, -0.14133542776107788086f, -0.04846201092004776001f, -0.01214000768959522247f, -0.04667888581752777100f, -0.07316278666257858276f, -0.02442363277077674866f, -0.07552756369113922119f, -0.12989991903305053711f, -0.10623761266469955444f, 0.05203243345022201538f, 0.08125802129507064819f, 0.08653920888900756836f, -0.05600431933999061584f, -0.00282590207643806934f, -0.01026610750705003738f, -0.04767568409442901611f, -0.05244224891066551208f, 0.03592205047607421875f, 0.10123466700315475464f, 0.06399307399988174438f, 0.00832563452422618866f, 0.03705777972936630249f, 0.03793925046920776367f, -0.05350062996149063110f, -0.01892145164310932159f, -0.09206227958202362061f, -0.06153836101293563843f, -0.03009461425244808197f, -0.06523911654949188232f, -0.00636403542011976242f, 0.03138349577784538269f, 0.01470861770212650299f, -0.06143445894122123718f, -0.09117098152637481689f, -0.02602737210690975189f, -0.08542506396770477295f, 0.04162167757749557495f, -0.02129321917891502380f, 0.03356599807739257812f, 0.03920664265751838684f, 0.08818352967500686646f, 0.00751147326081991196f, 0.01562535203993320465f, 0.04033290594816207886f, 0.03307475522160530090f, 0.09183400124311447144f, -0.07172097265720367432f, 0.04091527685523033142f, 0.09808243811130523682f, 0.06351390480995178223f, 0.10904660820960998535f, -0.07545738667249679565f, -0.11864327639341354370f, 0.05591943487524986267f, -0.12089427560567855835f, 0.00974336080253124237f, 0.04467149451375007629f, 0.03620071336627006531f, 0.01832463219761848450f, 0.02429412491619586945f, -0.07227975130081176758f, 0.06315615773200988770f, -0.09358135610818862915f, -0.08292734622955322266f, -0.02041207626461982727f, 0.02419990487396717072f, 0.04736101254820823669f, -0.01551116071641445160f, 0.01401823945343494415f, 0.06214819848537445068f, -0.03051241114735603333f, -0.05086774379014968872f, -0.06916009634733200073f, 0.01471055112779140472f, 0.13971924781799316406f, 0.15676969289779663086f, 0.11911438405513763428f, 0.08987026661634445190f, 0.08973763138055801392f, 0.07452386617660522461f, 0.05914212763309478760f, 0.06890778243541717529f, 0.17261905968189239502f, 0.15704527497291564941f, 0.08320648223161697388f, 0.01047871541231870651f, 0.02324006333947181702f, 0.09889634698629379272f, -0.04233083128929138184f, -0.02067138254642486572f, -0.01970481686294078827f, -0.01035718340426683426f, -0.08028782159090042114f, 0.07105624675750732422f, -0.04872002452611923218f, 0.03493144735693931580f, -0.01916894689202308655f, -0.10492639988660812378f, -0.09432563185691833496f, -0.00495844054967164993f, 0.04813335835933685303f, 0.10729634016752243042f, 0.01724491454660892487f, 0.06933178007602691650f, 0.11861629784107208252f, 0.00473770732060074806f, 0.10044103860855102539f, -0.01175688952207565308f, 0.00294925784692168236f, 0.06675394624471664429f, -0.08440259099006652832f, 0.00936173647642135620f, 0.08349096029996871948f, 0.03294112160801887512f, 0.02831742726266384125f, -0.01246262248605489731f, -0.01946806535124778748f, 0.01136603765189647675f, -0.09917598962783813477f, -0.07762707769870758057f, 0.00762546295300126076f, 0.02838134206831455231f, 0.01383591257035732269f, -0.01314434316009283066f, -0.01939845271408557892f, 0.02940211817622184753f, -0.01979100145399570465f, -0.08028894662857055664f, -0.00294348993338644505f, -0.02857086248695850372f, 0.04772333428263664246f, 0.08594156801700592041f, 0.04047223925590515137f, 0.02805178612470626831f, -0.01994313299655914307f, -0.04310769215226173401f, -0.01264354214072227478f, 0.04503037035465240479f, 0.18520434200763702393f, 0.15110306441783905029f, 0.08601765334606170654f, 0.06251226365566253662f, 0.11005228757858276367f, 0.10936195403337478638f, 0.09506797045469284058f, 0.07951707392930984497f, 0.10434006899595260620f, 0.07585556805133819580f, 0.02467133477330207825f, 0.12031231075525283813f, 0.03049841709434986115f, -0.01344646140933036804f, -0.00052623130613937974f, -0.10223127156496047974f, -0.05323259904980659485f, -0.05463884025812149048f, -0.00980757083743810654f, -0.01804865524172782898f, 0.03720327466726303101f, -0.00480530317872762680f, -0.07120250910520553589f, -0.11207460612058639526f, -0.14260360598564147949f, -0.05068033188581466675f, -0.06411101669073104858f, 0.08999903500080108643f, -0.01571534015238285065f, 0.06376031786203384399f, 0.02445934899151325226f, -0.04588715732097625732f, -0.04564273357391357422f, -0.05597358569502830505f, 0.00851093698292970657f, 0.00472460687160491943f, -0.09674879163503646851f, -0.01339089218527078629f, 0.02287779189646244049f, 0.00013725427561439574f, -0.04549689590930938721f, -0.16042214632034301758f, -0.09674095362424850464f, -0.05147873237729072571f, -0.07766279578208923340f, -0.11615075916051864624f, -0.06443955749273300171f, -0.05535655468702316284f, 0.00233384128659963608f, -0.13244915008544921875f, -0.09531866014003753662f, -0.10049828886985778809f},
