// This file is computer-generated by onnx2c 
// Command Line: onnx2c/build/onnx2c -d batch_size:1 --func-name linket_decoder_forward out/decoder.onnx

// onnx2c
// Git Branch: feature/func-name
// Git Commit: cfcce19

// ONNX Model
// Produced By: pytorch, version 2.10.0+cu130
// ONNX IR version: 20

#include <float.h>
#include <math.h>
#include <stdbool.h>
#include <stdint.h>
#include <string.h>
#include <stdlib.h>

#define MAX(X,Y) ( X > Y ? X : Y)
#define MIN(X,Y) ( X < Y ? X : Y)
#define CLIP(X,L) ( MAX(MIN(X,L), -L) )

#if __STDC_VERSION__ < 199901L
#define FUNC_PREFIX
#else
#define FUNC_PREFIX static inline
#endif

static const float tensor__Decoder__layers_0_weight[128][8] = 
{
  {-0.07985428720712661743f, 0.39309963583946228027f, 0.20400632917881011963f, -0.05123806372284889221f, -0.43867203593254089355f, 0.33980011940002441406f, 0.26281213760375976562f, -0.24357715249061584473f},
  {0.16585980355739593506f, -0.25361081957817077637f, -0.26556795835494995117f, 0.00893310084939002991f, -0.32075870037078857422f, -0.10504454374313354492f, 0.07539155334234237671f, 0.22080127894878387451f},
  {0.16290268301963806152f, 0.25967764854431152344f, -0.20110216736793518066f, -0.02437051571905612946f, -0.23198944330215454102f, 0.08154510706663131714f, -0.19989874958992004395f, -0.33452978730201721191f},
  {-0.13412365317344665527f, -0.12197808921337127686f, -0.13323174417018890381f, -0.04827313125133514404f, -0.24372267723083496094f, 0.29659110307693481445f, 0.31085020303726196289f, -0.32149446010589599609f},
  {0.04355623573064804077f, 0.18600636720657348633f, 0.27871617674827575684f, -0.00746481399983167648f, -0.41109809279441833496f, -0.05993459746241569519f, 0.19606369733810424805f, 0.35603842139244079590f},
  {-0.29241311550140380859f, -0.05792370066046714783f, 0.03091990947723388672f, -0.09503476321697235107f, -0.15565907955169677734f, 0.00567279616370797157f, 0.12922051548957824707f, 0.22285141050815582275f},
  {-0.28349417448043823242f, -0.09102986007928848267f, -0.27179238200187683105f, 0.21458947658538818359f, -0.35314732789993286133f, 0.37559807300567626953f, -0.15127149224281311035f, -0.25649642944335937500f},
  {0.17245070636272430420f, -0.35379800200462341309f, 0.34490820765495300293f, 0.22535546123981475830f, -0.31399288773536682129f, 0.03568926081061363220f, -0.00790716521441936493f, -0.26349917054176330566f},
  {0.08125529438257217407f, -0.06854230165481567383f, -0.09966081380844116211f, -0.21822215616703033447f, -0.20463812351226806641f, 0.33504498004913330078f, -0.03159791603684425354f, 0.13382054865360260010f},
  {-0.24574860930442810059f, 0.03486743196845054626f, -0.12153469771146774292f, 0.38888391852378845215f, -0.17184151709079742432f, 0.01369306631386280060f, 0.22150282561779022217f, -0.19322821497917175293f},
  {-0.28586110472679138184f, 0.02024235948920249939f, 0.31880712509155273438f, -0.13486513495445251465f, -0.02019782550632953644f, -0.22025674581527709961f, -0.15307730436325073242f, -0.28918564319610595703f},
  {-0.12851537764072418213f, 0.05937021225690841675f, -0.09810939431190490723f, 0.36231741309165954590f, 0.10164790600538253784f, 0.09679212421178817749f, 0.00938415899872779846f, 0.04519294202327728271f},
  {-0.00818677898496389389f, 0.32770845293998718262f, 0.16883820295333862305f, 0.16842937469482421875f, -0.31592598557472229004f, -0.14725951850414276123f, -0.04435864090919494629f, 0.08867858350276947021f},
  {0.12573179602622985840f, 0.00179344275966286659f, 0.14244160056114196777f, -0.21252457797527313232f, 0.20493656396865844727f, 0.17823664844036102295f, -0.28222477436065673828f, -0.34620514512062072754f},
  {0.21656115353107452393f, 0.15229466557502746582f, -0.27048206329345703125f, 0.03415571525692939758f, -0.09901252388954162598f, 0.10309053957462310791f, -0.02891810424625873566f, 0.17861761152744293213f},
  {-0.01826125197112560272f, -0.04010919854044914246f, -0.05401704460382461548f, 0.08870503306388854980f, -0.10769579559564590454f, -0.13213658332824707031f, 0.34762105345726013184f, 0.18884776532649993896f},
  {-0.28277760744094848633f, 0.23013134300708770752f, -0.27309733629226684570f, 0.21566022932529449463f, -0.24300850927829742432f, 0.15734520554542541504f, 0.12456031888723373413f, 0.19904920458793640137f},
  {0.25226503610610961914f, 0.08613366633653640747f, -0.12092716991901397705f, -0.32647368311882019043f, 0.12142097949981689453f, 0.02512409351766109467f, 0.28224402666091918945f, -0.19278073310852050781f},
  {0.14914916455745697021f, 0.29353144764900207520f, -0.24809052050113677979f, -0.16339670121669769287f, 0.07585061341524124146f, 0.10073064267635345459f, -0.29913941025733947754f, 0.19488100707530975342f},
  {-0.13626438379287719727f, 0.11728644371032714844f, -0.16344735026359558105f, -0.13469013571739196777f, -0.21516072750091552734f, -0.22278706729412078857f, -0.04980437085032463074f, 0.05829160287976264954f},
  {-0.05765185877680778503f, 0.05324348062276840210f, 0.01299616973847150803f, -0.06256208568811416626f, 0.07960681617259979248f, -0.09336379915475845337f, 0.00340907322242856026f, -0.11761149019002914429f},
  {-0.16241130232810974121f, -0.05070441961288452148f, 0.24681013822555541992f, -0.14969056844711303711f, -0.05061494186520576477f, 0.24902410805225372314f, -0.01514640171080827713f, 0.19237110018730163574f},
  {-0.26329913735389709473f, 0.03351189568638801575f, -0.30111223459243774414f, 0.35478058457374572754f, -0.01354022696614265442f, -0.24068535864353179932f, 0.27644202113151550293f, 0.18318833410739898682f},
  {0.31851196289062500000f, 0.31274694204330444336f, -0.30439031124114990234f, -0.22682321071624755859f, 0.14486274123191833496f, -0.03551833704113960266f, -0.23112741112709045410f, 0.31134027242660522461f},
  {-0.08365713059902191162f, -0.04403175041079521179f, -0.09524903446435928345f, -0.08327237516641616821f, 0.01722190342843532562f, 0.24948428571224212646f, -0.07615925371646881104f, 0.05263886600732803345f},
  {0.03407059237360954285f, -0.03868859633803367615f, -0.12418992072343826294f, 0.06780583411455154419f, 0.09173975139856338501f, 0.03690393269062042236f, 0.12385990470647811890f, 0.08783315867185592651f},
  {-0.05157145485281944275f, -0.28483852744102478027f, -0.23409160971641540527f, 0.25879293680191040039f, 0.24799109995365142822f, -0.33341962099075317383f, 0.25695863366127014160f, -0.00790634565055370331f},
  {0.04583786055445671082f, -0.22213242948055267334f, 0.26338452100753784180f, 0.33257010579109191895f, 0.37402623891830444336f, -0.17377686500549316406f, -0.09875300526618957520f, -0.15179091691970825195f},
  {-0.16747845709323883057f, 0.09707532823085784912f, -0.29670494794845581055f, 0.13227152824401855469f, 0.26874694228172302246f, 0.28076955676078796387f, -0.29196357727050781250f, 0.19840018451213836670f},
  {0.18411603569984436035f, -0.00504389358684420586f, 0.31777328252792358398f, -0.11124929040670394897f, -0.00754588702693581581f, -0.06421694159507751465f, -0.12006550282239913940f, 0.11008374392986297607f},
  {0.13727612793445587158f, 0.30447718501091003418f, -0.17716778814792633057f, -0.12377267330884933472f, -0.20269553363323211670f, -0.30898219347000122070f, 0.25947064161300659180f, 0.39680504798889160156f},
  {-0.16500282287597656250f, -0.16955578327178955078f, 0.16562898457050323486f, -0.25358742475509643555f, 0.19749870896339416504f, 0.19933140277862548828f, 0.33199271559715270996f, -0.07318581640720367432f},
  {0.34473508596420288086f, -0.25036314129829406738f, 0.07067693769931793213f, 0.14976696670055389404f, -0.41463717818260192871f, 0.19507151842117309570f, 0.02084432356059551239f, -0.21723406016826629639f},
  {-0.18136903643608093262f, -0.22711376845836639404f, 0.33794736862182617188f, -0.03132617846131324768f, 0.21212880313396453857f, -0.23274828493595123291f, -0.06258093565702438354f, 0.05496507138013839722f},
  {-0.06837169080972671509f, 0.35738858580589294434f, -0.18198977410793304443f, 0.09183615446090698242f, -0.22998249530792236328f, -0.07279774546623229980f, -0.21056976914405822754f, 0.32556480169296264648f},
  {-0.23720909655094146729f, -0.05628241226077079773f, -0.06417954713106155396f, -0.17992144823074340820f, 0.13433876633644104004f, -0.15711453557014465332f, 0.31904932856559753418f, 0.11865226179361343384f},
  {-0.35311463475227355957f, -0.27547195553779602051f, 0.35003310441970825195f, 0.32173541188240051270f, -0.05163093656301498413f, -0.20923921465873718262f, 0.22638776898384094238f, 0.22573427855968475342f},
  {-0.06619732081890106201f, -0.15721316635608673096f, -0.22746899724006652832f, 0.24382649362087249756f, -0.06316363066434860229f, -0.28984752297401428223f, -0.05423884838819503784f, 0.28044253587722778320f},
  {-0.14308357238769531250f, -0.05256555974483489990f, -0.07728397101163864136f, -0.00039910181658342481f, -0.04952267557382583618f, 0.05959824472665786743f, -0.00434025702998042107f, -0.11437667906284332275f},
  {0.15732209384441375732f, 0.02038814686238765717f, 0.18359738588333129883f, -0.00309930718503892422f, -0.03190818801522254944f, 0.15575285255908966064f, -0.17262192070484161377f, 0.07150693237781524658f},
  {0.21750035881996154785f, 0.01773753762245178223f, 0.12747013568878173828f, -0.02998177707195281982f, -0.33859765529632568359f, 0.30930852890014648438f, 0.02099050767719745636f, 0.10956677794456481934f},
  {-0.25039321184158325195f, -0.39097228646278381348f, 0.16170449554920196533f, -0.35476231575012207031f, -0.20638245344161987305f, 0.07994963973760604858f, -0.24563471972942352295f, 0.34517425298690795898f},
  {-0.03887128457427024841f, 0.38402649760246276855f, 0.30006948113441467285f, -0.01671559549868106842f, -0.15479107201099395752f, -0.19207967817783355713f, 0.25044327974319458008f, -0.29298257827758789062f},
  {0.24500818550586700439f, -0.15387547016143798828f, 0.17901785671710968018f, -0.41282281279563903809f, 0.16146314144134521484f, 0.15900374948978424072f, 0.17155793309211730957f, 0.19549860060214996338f},
  {-0.06551713496446609497f, 0.20642355084419250488f, 0.40140077471733093262f, -0.16801518201828002930f, 0.03234343975782394409f, -0.04569435864686965942f, 0.04191811010241508484f, -0.13261735439300537109f},
  {-0.14907470345497131348f, -0.31189519166946411133f, 0.34801155328750610352f, 0.23980723321437835693f, -0.21133016049861907959f, 0.15327465534210205078f, -0.08046392351388931274f, 0.28179007768630981445f},
  {-0.05245945975184440613f, -0.09323500841856002808f, -0.09002633392810821533f, 0.16186413168907165527f, -0.16368113458156585693f, 0.08012038469314575195f, -0.32776221632957458496f, 0.31788632273674011230f},
  {0.05215426161885261536f, 0.25700044631958007812f, -0.34551173448562622070f, 0.24705632030963897705f, -0.34359472990036010742f, -0.41722297668457031250f, -0.16707977652549743652f, 0.10112420469522476196f},
  {-0.11961512267589569092f, -0.11061466485261917114f, 0.28761219978332519531f, -0.28047820925712585449f, 0.29583716392517089844f, -0.20306192338466644287f, 0.13821330666542053223f, -0.07604749500751495361f},
  {0.01191845908761024475f, -0.09678856283426284790f, -0.12488806247711181641f, -0.13301803171634674072f, 0.29317903518676757812f, 0.11967581510543823242f, -0.04238495230674743652f, 0.28167408704757690430f},
  {-0.02990772947669029236f, -0.22996871173381805420f, -0.05297028273344039917f, -0.18136881291866302490f, 0.11696913838386535645f, 0.32175293564796447754f, 0.17702873051166534424f, 0.00408289674669504166f},
  {-0.08389285206794738770f, -0.19943824410438537598f, -0.09433317184448242188f, -0.10211612284183502197f, 0.04270875081419944763f, 0.19325232505798339844f, -0.17328351736068725586f, -0.19744974374771118164f},
  {-0.19108988344669342041f, 0.23053552210330963135f, -0.28531777858734130859f, 0.06972717493772506714f, -0.11527829617261886597f, -0.20697331428527832031f, 0.28838217258453369141f, 0.29843243956565856934f},
  {0.32864412665367126465f, 0.21812456846237182617f, 0.12786839902400970459f, 0.20177564024925231934f, 0.11115479469299316406f, -0.26335883140563964844f, 0.24530802667140960693f, -0.33863157033920288086f},
  {-0.06767481565475463867f, 0.06303010135889053345f, 0.01126070972532033920f, 0.01871252246201038361f, -0.12612868845462799072f, -0.04370754212141036987f, 0.06330490112304687500f, -0.23473273217678070068f},
  {0.10406939685344696045f, 0.03327779099345207214f, 0.27199852466583251953f, -0.11434778571128845215f, 0.08874269574880599976f, 0.14328528940677642822f, -0.37638419866561889648f, -0.15011362731456756592f},
  {0.03930104896426200867f, 0.15527561306953430176f, 0.39168429374694824219f, 0.12137670069932937622f, -0.19668772816658020020f, -0.16688838601112365723f, -0.14567726850509643555f, -0.23411981761455535889f},
  {-0.07987413555383682251f, -0.08954939246177673340f, -0.34976053237915039062f, 0.25701642036437988281f, -0.33486002683639526367f, 0.22201029956340789795f, -0.05823036283254623413f, 0.17097699642181396484f},
  {0.00770811550319194794f, -0.18320930004119873047f, -0.09280783683061599731f, -0.18136467039585113525f, 0.39039888978004455566f, -0.06207147613167762756f, -0.17495304346084594727f, 0.17447416484355926514f},
  {0.06618307530879974365f, -0.10957856476306915283f, 0.16541419923305511475f, -0.14039798080921173096f, -0.04007713124155998230f, 0.09929911047220230103f, -0.30160859227180480957f, -0.31462177634239196777f},
  {-0.15541858971118927002f, 0.16083700954914093018f, -0.12436145544052124023f, -0.13349126279354095459f, -0.10540691018104553223f, 0.25441497564315795898f, 0.40582078695297241211f, 0.10985828191041946411f},
  {-0.00326968776062130928f, -0.18850170075893402100f, 0.14473082125186920166f, 0.08567267656326293945f, 0.25343817472457885742f, -0.32549256086349487305f, -0.31090459227561950684f, -0.22251304984092712402f},
  {-0.12712334096431732178f, -0.07198636978864669800f, 0.10017979890108108521f, -0.11964138597249984741f, -0.03733005374670028687f, 0.12292064726352691650f, -0.03965569287538528442f, 0.38402780890464782715f},
  {0.39312627911567687988f, 0.23532655835151672363f, 0.05033580958843231201f, 0.10489866882562637329f, -0.34887376427650451660f, -0.22346764802932739258f, 0.31190478801727294922f, 0.15923923254013061523f},
  {0.25408932566642761230f, 0.16137248277664184570f, 0.09247625619173049927f, 0.06412498652935028076f, -0.15045720338821411133f, -0.11845515668392181396f, 0.21909852325916290283f, -0.17087200284004211426f},
  {-0.28514114022254943848f, -0.10272203385829925537f, 0.03297720104455947876f, 0.19533234834671020508f, 0.14284828305244445801f, 0.29954084753990173340f, -0.19133427739143371582f, 0.26924556493759155273f},
  {-0.44259631633758544922f, -0.07350174337625503540f, 0.32552888989448547363f, 0.06821456551551818848f, -0.34064003825187683105f, 0.07393902540206909180f, -0.18346084654331207275f, -0.07269451767206192017f},
  {0.28826984763145446777f, -0.27330833673477172852f, 0.24543364346027374268f, 0.10561307519674301147f, 0.21068599820137023926f, -0.20913898944854736328f, -0.24161384999752044678f, 0.25326788425445556641f},
  {0.17181104421615600586f, -0.14089134335517883301f, -0.09247980266809463501f, 0.06391278654336929321f, 0.10528413951396942139f, -0.14589147269725799561f, -0.36708095669746398926f, -0.26824477314949035645f},
  {-0.23702922463417053223f, -0.18845102190971374512f, 0.06928075850009918213f, -0.07010515779256820679f, 0.41090428829193115234f, 0.07983502745628356934f, 0.03846991062164306641f, 0.04747100919485092163f},
  {0.30400833487510681152f, -0.02309624664485454559f, -0.08704947680234909058f, -0.04938835278153419495f, -0.18779107928276062012f, 0.02786551788449287415f, 0.01346823386847972870f, -0.17414924502372741699f},
  {0.03634662181138992310f, -0.05982069298624992371f, 0.02378729544579982758f, -0.35499873757362365723f, 0.33358836174011230469f, 0.32399120926856994629f, 0.29022207856178283691f, 0.19575458765029907227f},
  {0.04906925559043884277f, -0.10476224869489669800f, -0.11934448033571243286f, 0.26476943492889404297f, 0.24410904943943023682f, 0.39180669188499450684f, -0.13906341791152954102f, -0.19042034447193145752f},
  {-0.15845815837383270264f, -0.02627332136034965515f, 0.24423420429229736328f, -0.06695752590894699097f, 0.17290391027927398682f, 0.31615114212036132812f, -0.01923549547791481018f, -0.06685357540845870972f},
  {0.10283007472753524780f, 0.27938976883888244629f, 0.08315448462963104248f, -0.23425260186195373535f, 0.17234849929809570312f, 0.04028319567441940308f, -0.42967495322227478027f, 0.16967943310737609863f},
  {0.26498726010322570801f, -0.13439029455184936523f, -0.12736584246158599854f, -0.12683518230915069580f, -0.06253400444984436035f, 0.01301764138042926788f, -0.20988985896110534668f, 0.18665742874145507812f},
  {0.10712002217769622803f, -0.11667663604021072388f, -0.39343726634979248047f, -0.34309393167495727539f, -0.28101325035095214844f, 0.20434018969535827637f, 0.23304466903209686279f, 0.28575459122657775879f},
  {-0.02924310229718685150f, 0.32350379228591918945f, 0.03889285027980804443f, 0.38560870289802551270f, 0.37368234992027282715f, 0.11043056100606918335f, -0.06597931683063507080f, -0.09858945757150650024f},
  {0.11666727066040039062f, 0.20550519227981567383f, 0.04264852032065391541f, 0.03122667409479618073f, 0.37502425909042358398f, -0.25655102729797363281f, -0.21506534516811370850f, 0.37818863987922668457f},
  {-0.31503748893737792969f, 0.28850173950195312500f, 0.06107285246253013611f, -0.23214912414550781250f, -0.17981924116611480713f, -0.02052238024771213531f, 0.11136882752180099487f, -0.10026732832193374634f},
  {0.35610437393188476562f, -0.17410081624984741211f, -0.15072800219058990479f, -0.11727246642112731934f, 0.27070203423500061035f, 0.28078463673591613770f, -0.22338657081127166748f, -0.02559535205364227295f},
  {0.07437416166067123413f, 0.20550149679183959961f, -0.07602030038833618164f, 0.09516388922929763794f, -0.07264294475317001343f, -0.12620310485363006592f, -0.00487700803205370903f, -0.08319112658500671387f},
  {-0.11307083815336227417f, 0.26072770357131958008f, 0.13536611199378967285f, -0.11989007145166397095f, -0.09774543344974517822f, -0.10173641890287399292f, 0.03366643190383911133f, 0.11154457926750183105f},
  {-0.11272935569286346436f, -0.01952240057289600372f, 0.35649251937866210938f, 0.35199648141860961914f, 0.11031781136989593506f, -0.03370219096541404724f, -0.39175856113433837891f, 0.03650723770260810852f},
  {0.35340324044227600098f, 0.21688227355480194092f, -0.29628682136535644531f, 0.15659582614898681641f, 0.33385646343231201172f, -0.11249995976686477661f, -0.34495955705642700195f, 0.31031820178031921387f},
  {-0.16012288630008697510f, 0.33969950675964355469f, -0.07409469038248062134f, -0.29908317327499389648f, -0.34157499670982360840f, 0.24674662947654724121f, -0.02724891155958175659f, -0.02457442693412303925f},
  {0.12080980092287063599f, -0.35051867365837097168f, 0.10542152822017669678f, -0.23694530129432678223f, -0.38472330570220947266f, -0.03374881297349929810f, 0.33585003018379211426f, 0.03542392700910568237f},
  {0.10475260019302368164f, -0.19799895584583282471f, -0.25769945979118347168f, 0.31270182132720947266f, -0.14991277456283569336f, 0.33529862761497497559f, 0.23186828196048736572f, -0.25539052486419677734f},
  {0.10215415805578231812f, 0.20589959621429443359f, 0.32440683245658874512f, -0.13039536774158477783f, -0.31962466239929199219f, 0.16076642274856567383f, -0.13898546993732452393f, -0.04306321591138839722f},
  {0.28953507542610168457f, 0.02821288071572780609f, -0.35555168986320495605f, 0.28917625546455383301f, -0.18608511984348297119f, 0.27694767713546752930f, -0.32618325948715209961f, 0.20779363811016082764f},
  {0.13863889873027801514f, -0.21898871660232543945f, 0.25375008583068847656f, -0.05344111844897270203f, -0.00808527693152427673f, -0.10410088300704956055f, 0.01705313660204410553f, -0.08945697546005249023f},
  {-0.13228265941143035889f, -0.13656401634216308594f, 0.29031956195831298828f, 0.05690085142850875854f, -0.09703585505485534668f, -0.14364685118198394775f, -0.22623944282531738281f, 0.11091185361146926880f},
  {0.24807290732860565186f, 0.15353921055793762207f, 0.36446565389633178711f, 0.02766495384275913239f, 0.15481239557266235352f, -0.03606949374079704285f, 0.27853602170944213867f, 0.04003336280584335327f},
  {-0.18853546679019927979f, -0.09474465250968933105f, 0.05952935293316841125f, 0.19011534750461578369f, 0.18309450149536132812f, -0.19261291623115539551f, -0.06280165910720825195f, 0.10629624873399734497f},
  {-0.00539922202005982399f, -0.19577658176422119141f, -0.11916510015726089478f, -0.10342291742563247681f, -0.03982137516140937805f, -0.16987723112106323242f, 0.08207190781831741333f, 0.07867433130741119385f},
  {-0.26599112153053283691f, 0.32843294739723205566f, -0.30746468901634216309f, 0.37280583381652832031f, -0.27596181631088256836f, -0.15322968363761901855f, 0.30356314778327941895f, 0.05754827335476875305f},
  {0.28618711233139038086f, -0.00712038343772292137f, 0.27550810575485229492f, 0.09756544232368469238f, -0.21219807863235473633f, 0.22213163971900939941f, -0.35141190886497497559f, 0.06005533412098884583f},
  {-0.00968353636562824249f, -0.09226599335670471191f, -0.02401006408035755157f, -0.22687959671020507812f, 0.30410966277122497559f, -0.17022877931594848633f, -0.13649667799472808838f, 0.28380313515663146973f},
  {0.23102469742298126221f, -0.33618512749671936035f, 0.12366520613431930542f, 0.36825773119926452637f, 0.18067841231822967529f, 0.03722227737307548523f, 0.24751122295856475830f, -0.23927779495716094971f},
  {-0.00971384812146425247f, 0.37317788600921630859f, 0.12533150613307952881f, -0.01087594777345657349f, 0.26598215103149414062f, -0.31611153483390808105f, -0.23484285175800323486f, -0.06661616265773773193f},
  {-0.18523778021335601807f, -0.15663580596446990967f, 0.13790240883827209473f, -0.06739816069602966309f, 0.12134008109569549561f, 0.34582951664924621582f, -0.29240876436233520508f, 0.13845713436603546143f},
  {-0.08639135956764221191f, -0.17787076532840728760f, 0.06036802753806114197f, 0.15805022418498992920f, 0.06062577292323112488f, -0.33609768748283386230f, -0.08756399899721145630f, -0.12560419738292694092f},
  {0.17193956673145294189f, -0.14066840708255767822f, -0.07349818944931030273f, 0.12785297632217407227f, -0.29267591238021850586f, 0.32016786932945251465f, 0.21685998141765594482f, 0.29783910512924194336f},
  {-0.17782610654830932617f, 0.18195611238479614258f, 0.14088958501815795898f, -0.32002925872802734375f, 0.29959067702293395996f, -0.17217470705509185791f, -0.10810824483633041382f, -0.01161132473498582840f},
  {0.27716705203056335449f, -0.05836221948266029358f, 0.05105711147189140320f, -0.27106252312660217285f, 0.21193292737007141113f, -0.07743286341428756714f, -0.23208387196063995361f, -0.22913278639316558838f},
  {0.19047212600708007812f, 0.23498018085956573486f, -0.09779403358697891235f, 0.13835081458091735840f, -0.19443516433238983154f, 0.27525418996810913086f, -0.34398213028907775879f, -0.37608236074447631836f},
  {-0.08204471319913864136f, 0.40530535578727722168f, -0.27188760042190551758f, 0.07830657809972763062f, -0.03261797502636909485f, -0.01212637312710285187f, 0.34600207209587097168f, -0.27885103225708007812f},
  {-0.19913583993911743164f, -0.23328080773353576660f, -0.03609297424554824829f, -0.08316737413406372070f, 0.08496597409248352051f, -0.12815660238265991211f, -0.26270005106925964355f, 0.32487133145332336426f},
  {0.12723846733570098877f, -0.12889453768730163574f, 0.36908227205276489258f, 0.13817004859447479248f, -0.37690931558609008789f, -0.07348402589559555054f, -0.19319160282611846924f, 0.36524638533592224121f},
  {-0.05572594329714775085f, -0.21529309451580047607f, -0.24916766583919525146f, 0.27177345752716064453f, -0.25072702765464782715f, -0.10884841531515121460f, 0.04795881733298301697f, 0.19034816324710845947f},
  {0.23970110714435577393f, -0.32916703820228576660f, -0.08113092184066772461f, -0.06387656182050704956f, 0.27206125855445861816f, 0.22933880984783172607f, 0.32483288645744323730f, -0.19994929432868957520f},
  {0.40756312012672424316f, -0.27710825204849243164f, -0.00825135968625545502f, -0.10466352850198745728f, -0.18654642999172210693f, -0.28733316063880920410f, 0.10147318243980407715f, -0.00614918163046240807f},
  {-0.06697786599397659302f, -0.02415336295962333679f, 0.20752647519111633301f, -0.15475730597972869873f, 0.21341560781002044678f, -0.06000752002000808716f, 0.03949034586548805237f, -0.10678196698427200317f},
  {-0.10618931800127029419f, 0.29208004474639892578f, 0.12723594903945922852f, 0.23168341815471649170f, -0.03789338469505310059f, -0.03679610043764114380f, 0.28267905116081237793f, 0.33703294396400451660f},
  {0.37482759356498718262f, 0.05453905463218688965f, 0.35325291752815246582f, 0.06470908969640731812f, -0.04261066764593124390f, -0.21032968163490295410f, 0.06706400960683822632f, -0.13600942492485046387f},
  {0.02271845936775207520f, 0.25117263197898864746f, -0.25700461864471435547f, -0.26172888278961181641f, -0.07619608193635940552f, 0.38479435443878173828f, -0.27821132540702819824f, 0.28196129202842712402f},
  {-0.34112191200256347656f, 0.07360234111547470093f, 0.25047433376312255859f, 0.06944911926984786987f, -0.30662217736244201660f, -0.31638705730438232422f, 0.22179484367370605469f, 0.20592986047267913818f},
  {0.33093392848968505859f, -0.02358897775411605835f, -0.20660345256328582764f, -0.04909754917025566101f, 0.19224590063095092773f, -0.20668368041515350342f, 0.07564760744571685791f, -0.09719340503215789795f},
  {-0.16425530612468719482f, 0.23921531438827514648f, 0.33202451467514038086f, -0.30059191584587097168f, -0.34326106309890747070f, 0.25801098346710205078f, -0.14359486103057861328f, -0.27745395898818969727f},
  {-0.00286928098648786545f, 0.09956275671720504761f, 0.28677466511726379395f, -0.24253736436367034912f, 0.12268144637346267700f, -0.47040945291519165039f, -0.42055222392082214355f, 0.29688927531242370605f},
  {0.07229994982481002808f, -0.35538017749786376953f, 0.06391004472970962524f, 0.13751940429210662842f, -0.05631459131836891174f, 0.30524182319641113281f, -0.30124446749687194824f, 0.22230330109596252441f},
  {0.10058577358722686768f, 0.02240708470344543457f, -0.07473515719175338745f, 0.12825001776218414307f, -0.39193984866142272949f, -0.19543626904487609863f, -0.29318284988403320312f, 0.17889606952667236328f},
  {-0.02475298568606376648f, 0.24594292044639587402f, -0.22137780487537384033f, -0.10056083649396896362f, -0.11732398718595504761f, 0.23721666634082794189f, -0.12675854563713073730f, -0.18601548671722412109f},
  {0.27427697181701660156f, 0.01169068738818168640f, 0.28416356444358825684f, -0.27164849638938903809f, 0.40379747748374938965f, 0.02266330458223819733f, -0.14802660048007965088f, -0.22635070979595184326f},
  {-0.12172067165374755859f, 0.24447271227836608887f, -0.10347034782171249390f, -0.27205452322959899902f, 0.31175801157951354980f, 0.22928006947040557861f, -0.22162587940692901611f, -0.20613169670104980469f},
  {-0.05903764441609382629f, 0.00642456207424402237f, -0.09646573662757873535f, -0.01524217799305915833f, 0.16561891138553619385f, -0.35451388359069824219f, -0.03848779201507568359f, 0.27922326326370239258f},
  {-0.37725877761840820312f, 0.18813356757164001465f, 0.20289441943168640137f, 0.22956095635890960693f, -0.22973653674125671387f, -0.12651832401752471924f, -0.29906541109085083008f, -0.19816349446773529053f},
  {-0.22558318078517913818f, 0.12300251424312591553f, 0.27280178666114807129f, -0.21608921885490417480f, -0.23888480663299560547f, -0.02505684085190296173f, 0.23790587484836578369f, -0.07522006332874298096f}
};
static const float tensor__Decoder__layers_0_bias[128] = 
{0.11688918620347976685f, 0.21811379492282867432f, 0.17214046418666839600f, 0.19251720607280731201f, -0.14965842664241790771f, 0.17331078648567199707f, 0.28409880399703979492f, 0.21264150738716125488f, -0.07027423381805419922f, 0.04349375143647193909f, 0.29823514819145202637f, -0.22245787084102630615f, -0.04838243499398231506f, 0.04248562082648277283f, -0.17299892008304595947f, -0.21309058368206024170f, 0.06348193436861038208f, 0.02142733149230480194f, -0.12075514346361160278f, 0.33360984921455383301f, 0.08272822201251983643f, -0.13628137111663818359f, 0.01729182526469230652f, -0.21390126645565032959f, 0.02234010212123394012f, -0.15468610823154449463f, 0.29631230235099792480f, -0.20839223265647888184f, -0.13997052609920501709f, -0.13623243570327758789f, -0.15585887432098388672f, -0.09589402377605438232f, 0.10085819661617279053f, 0.14019291102886199951f, -0.05073678493499755859f, 0.14263789355754852295f, -0.16162024438381195068f, 0.10936444252729415894f, 0.16240450739860534668f, -0.23726058006286621094f, -0.19521990418434143066f, 0.38834145665168762207f, -0.06859240680932998657f, -0.11261495202779769897f, -0.19667172431945800781f, -0.28976705670356750488f, 0.02675174362957477570f, 0.31320133805274963379f, 0.05795180425047874451f, -0.13524545729160308838f, -0.03260726481676101685f, 0.30735293030738830566f, -0.08563881367444992065f, -0.25648394227027893066f, 0.16281324625015258789f, -0.02085155807435512543f, -0.17422364652156829834f, 0.18484540283679962158f, -0.02528370171785354614f, 0.21105891466140747070f, -0.19320607185363769531f, 0.29027634859085083008f, -0.14272037148475646973f, -0.28878736495971679688f, -0.26354607939720153809f, -0.10071298480033874512f, 0.31874573230743408203f, -0.34169203042984008789f, 0.27799528837203979492f, -0.07742068916559219360f, -0.16744907200336456299f, -0.20984333753585815430f, -0.26673987507820129395f, -0.23649249970912933350f, -0.05831644684076309204f, 0.14980429410934448242f, 0.19204896688461303711f, -0.32971847057342529297f, -0.20276537537574768066f, 0.19139385223388671875f, -0.15588608384132385254f, -0.03498520702123641968f, -0.09685478359460830688f, -0.05192468315362930298f, -0.29331141710281372070f, 0.13116537034511566162f, 0.22653624415397644043f, 0.01430640462785959244f, -0.14864374697208404541f, -0.02917935699224472046f, -0.05225693061947822571f, 0.15824480354785919189f, -0.31129461526870727539f, -0.09629602730274200439f, 0.22665658593177795410f, 0.13511411845684051514f, 0.25606369972229003906f, 0.01024196203798055649f, -0.13743838667869567871f, 0.01489146333187818527f, -0.05531582236289978027f, 0.31858655810356140137f, -0.30894318222999572754f, 0.24270786345005035400f, 0.15573935210704803467f, 0.25520029664039611816f, -0.18600217998027801514f, 0.24084271490573883057f, 0.03834573924541473389f, 0.09274744242429733276f, -0.22585581243038177490f, 0.16177055239677429199f, -0.04725662246346473694f, -0.39965629577636718750f, -0.26974847912788391113f, -0.09796546399593353271f, 0.18939316272735595703f, 0.03792090341448783875f, 0.12641763687133789062f, 0.26392465829849243164f, -0.01291834749281406403f, 0.30935844779014587402f, 0.06931247562170028687f, -0.19413025677204132080f, 0.10793079435825347900f, 0.10320248454809188843f, 0.18666392564773559570f, -0.08206214755773544312f};
static const float tensor__Decoder__layers_1_l0_weight[128][128] = 
{
  {-0.02166711911559104919f, -0.18200463056564331055f, -0.03195512294769287109f, 0.01317960303276777267f, -0.04093794897198677063f, -0.17320474982261657715f, -0.02952554449439048767f, -0.06649158895015716553f, 0.00654286006465554237f, 0.10184990614652633667f, -0.06645891070365905762f, 0.33985781669616699219f, 0.00886419508606195450f, -0.01912444457411766052f, 0.07044343650341033936f, 0.14831410348415374756f, 0.05462373420596122742f, -0.16409119963645935059f, 0.00913944281637668610f, -0.11628620326519012451f, 0.06072554364800453186f, -0.01366426609456539154f, 0.07293283939361572266f, 0.03737857565283775330f, -0.02924927696585655212f, 0.00000089525593693907f, -0.04280326142907142639f, 0.33585301041603088379f, 0.11651788651943206787f, 0.01338235288858413696f, -0.10869814455509185791f, -0.05944035202264785767f, 0.08432756364345550537f, 0.00643015885725617409f, -0.02301989868283271790f, -0.20095108449459075928f, 0.19323188066482543945f, 0.13506765663623809814f, 0.04003454372286796570f, 0.11678553372621536255f, 0.02194478362798690796f, -0.15853743255138397217f, 0.01010411232709884644f, -0.17083670198917388916f, -0.01655629090964794159f, 0.25621971487998962402f, 0.13775400817394256592f, 0.06876441091299057007f, -0.17232082784175872803f, -0.05075487121939659119f, -0.14420658349990844727f, -0.10636909306049346924f, 0.03634836897253990173f, 0.17137290537357330322f, -0.11394848674535751343f, -0.11143921315670013428f, 0.13563941419124603271f, 0.03345679864287376404f, 0.00727534713223576546f, -0.01835374906659126282f, 0.08545675873756408691f, -0.06300747394561767578f, -0.00502646761015057564f, 0.10179413855075836182f, 0.03832603245973587036f, 0.10912349820137023926f, -0.06475641578435897827f, 0.11868761479854583740f, -0.06552492082118988037f, 0.02796522527933120728f, 0.12080689519643783569f, -0.22902926802635192871f, 0.16102224588394165039f, 0.05638821423053741455f, -0.17435054481029510498f, -0.13647016882896423340f, -0.23485046625137329102f, 0.08076515048742294312f, -0.09064692258834838867f, -0.19930374622344970703f, 0.04745953157544136047f, 0.08132265508174896240f, 0.03796560689806938171f, 0.06693113595247268677f, 0.07829444110393524170f, -0.17952185869216918945f, -0.17141656577587127686f, 0.10828408598899841309f, 0.06122921407222747803f, 0.12187719345092773438f, 0.05955634266138076782f, 0.02493331767618656158f, 0.02113072760403156281f, 0.13166220486164093018f, -0.05283985286951065063f, 0.02996591851115226746f, -0.07702285051345825195f, -0.09828186780214309692f, 0.11761149764060974121f, 0.02577896602451801300f, -0.01241395808756351471f, -0.07340178638696670532f, 0.07539271563291549683f, -0.15722973644733428955f, -0.17360225319862365723f, -0.05750460550189018250f, -0.02935419045388698578f, 0.00887024495750665665f, -0.00447171088308095932f, 0.18843983113765716553f, -0.02229577302932739258f, -0.24883918464183807373f, 0.04870362952351570129f, 0.15151201188564300537f, 0.12318604439496994019f, -0.09972919523715972900f, -0.05865036323666572571f, -0.00034775404492393136f, -0.01874808594584465027f, -0.14667476713657379150f, 0.03131303936243057251f, -0.03971163555979728699f, -0.08459818363189697266f, 0.04326736181974411011f, -0.08294606953859329224f, -0.07027817517518997192f, 0.15046803653240203857f, -0.01504177041351795197f},
  {-0.13484796881675720215f, -0.05410879850387573242f, -0.15417100489139556885f, -0.14104245603084564209f, 0.12248314172029495239f, -0.05672968551516532898f, -0.04690457880496978760f, -0.01008173171430826187f, 0.02034109458327293396f, -0.01097303628921508789f, -0.01955413632094860077f, 0.02215127646923065186f, -0.04886682704091072083f, -0.09737847000360488892f, 0.04123175144195556641f, 0.10471686720848083496f, -0.00474876537919044495f, -0.13347673416137695312f, 0.11999260634183883667f, -0.07131541520357131958f, -0.08478014916181564331f, 0.11728893220424652100f, -0.01214284636080265045f, 0.06346918642520904541f, 0.00215001381002366543f, 0.05749856308102607727f, -0.11829736828804016113f, -0.00905415788292884827f, 0.15359246730804443359f, 0.02594804205000400543f, 0.11517346650362014771f, 0.04172466322779655457f, -0.12895189225673675537f, -0.03974469751119613647f, 0.12848526239395141602f, -0.03884289041161537170f, 0.23880751430988311768f, 0.07553328573703765869f, -0.04582000896334648132f, 0.07061793655157089233f, -0.01946115307509899139f, 0.07513930648565292358f, 0.01736699417233467102f, 0.04061001539230346680f, 0.05666822940111160278f, 0.14016973972320556641f, 0.05010425299406051636f, -0.02911917679011821747f, 0.01467533968389034271f, 0.07303319871425628662f, -0.07687959074974060059f, -0.20746508240699768066f, 0.16264013946056365967f, -0.05018977820873260498f, -0.22654658555984497070f, -0.10675758868455886841f, 0.10002053529024124146f, 0.04877989739179611206f, 0.02295728959143161774f, -0.19197441637516021729f, -0.03503897786140441895f, -0.14185997843742370605f, 0.10831382125616073608f, 0.17468267679214477539f, -0.04809813946485519409f, 0.01311010401695966721f, -0.12996256351470947266f, 0.17973743379116058350f, -0.18039901554584503174f, 0.08490548282861709595f, 0.01802266389131546021f, -0.00847799144685268402f, 0.00253545329906046391f, 0.04279435425996780396f, 0.01203424297273159027f, 0.02829179354012012482f, 0.05004119127988815308f, -0.02831167541444301605f, 0.00928084179759025574f, -0.12155868858098983765f, 0.07494136691093444824f, -0.10319095849990844727f, 0.04517199099063873291f, -0.03985259309411048889f, 0.07624274492263793945f, -0.05708926916122436523f, -0.01512962952256202698f, -0.07974919676780700684f, 0.16011460125446319580f, -0.00656334822997450829f, 0.04552322998642921448f, 0.00188159453682601452f, -0.03438167646527290344f, -0.00414664018899202347f, -0.01069181412458419800f, -0.06699867546558380127f, -0.05070797353982925415f, 0.01960956864058971405f, -0.01229712367057800293f, -0.02026364766061306000f, 0.02854202315211296082f, -0.20543198287487030029f, 0.16804292798042297363f, 0.01268969476222991943f, -0.21252442896366119385f, -0.13171011209487915039f, 0.06557393819093704224f, 0.00844931788742542267f, 0.10855413228273391724f, 0.07405791431665420532f, -0.02716478891670703888f, -0.15948811173439025879f, -0.04362777248024940491f, 0.03463519364595413208f, -0.02625039219856262207f, 0.15135593712329864502f, -0.02133181691169738770f, -0.01754606701433658600f, -0.03379893675446510315f, 0.01195977348834276199f, -0.03221138939261436462f, -0.05196670815348625183f, 0.02513542771339416504f, 0.01450408436357975006f, -0.12273474037647247314f, 0.02331648394465446472f, -0.09650874882936477661f, 0.09612434357404708862f},
  {-0.07065860182046890259f, -0.30486997961997985840f, -0.01101023610681295395f, -0.03317584842443466187f, 0.08091861754655838013f, -0.03075852617621421814f, -0.11482407152652740479f, -0.01516161020845174789f, -0.02545419707894325256f, -0.08269894868135452271f, 0.14317405223846435547f, 0.01349017210304737091f, -0.00723700784146785736f, 0.00017807344556786120f, -0.03188259527087211609f, 0.06109340116381645203f, -0.04982705041766166687f, -0.16090352833271026611f, -0.05119930580258369446f, -0.10273243486881256104f, -0.05129431933164596558f, 0.15519879758358001709f, -0.06831125915050506592f, 0.00581530714407563210f, -0.09629355370998382568f, 0.06286591291427612305f, -0.07346571236848831177f, 0.14031015336513519287f, -0.19562095403671264648f, 0.00180853728670626879f, -0.00972478464245796204f, 0.04287683218717575073f, 0.02153288945555686951f, 0.08489617705345153809f, 0.02421429008245468140f, -0.05706744268536567688f, 0.25049918889999389648f, -0.04623143374919891357f, -0.05974851921200752258f, 0.24108816683292388916f, 0.08250275999307632446f, 0.08034244924783706665f, 0.18361131846904754639f, 0.07556483149528503418f, 0.07621353864669799805f, 0.13435229659080505371f, -0.06333504617214202881f, -0.05857444182038307190f, 0.15875509381294250488f, 0.00664880173280835152f, -0.02672334946691989899f, -0.16822345554828643799f, -0.08798156678676605225f, 0.08636964857578277588f, 0.01550041884183883667f, 0.03976666182279586792f, 0.13163325190544128418f, -0.14671398699283599854f, -0.05680130049586296082f, -0.00552000105381011963f, 0.01541461516171693802f, 0.05593994259834289551f, 0.02913710661232471466f, 0.17330123484134674072f, 0.05418790876865386963f, 0.02305824682116508484f, -0.05468575656414031982f, 0.07450973987579345703f, -0.04909334331750869751f, 0.05120297148823738098f, -0.01746286079287528992f, -0.05653705447912216187f, 0.07096594572067260742f, 0.14397680759429931641f, 0.04093162342905998230f, -0.05899644270539283752f, -0.06443814188241958618f, 0.06777269393205642700f, -0.03908098861575126648f, 0.00894022174179553986f, 0.03077918104827404022f, -0.02783886529505252838f, 0.08049478381872177124f, 0.05424790829420089722f, -0.11713887751102447510f, -0.12096703052520751953f, -0.03472499176859855652f, -0.03559156507253646851f, 0.26262667775154113770f, -0.00828648079186677933f, 0.05276869237422943115f, -0.06848426908254623413f, -0.06261207908391952515f, 0.02882354520261287689f, -0.09915807843208312988f, -0.03972011432051658630f, -0.03619531914591789246f, -0.00753018399700522423f, 0.04887874051928520203f, -0.08069313317537307739f, 0.10380485653877258301f, -0.11331213265657424927f, 0.07604385167360305786f, 0.00609611440449953079f, -0.13158005475997924805f, 0.01261963136494159698f, 0.01853999868035316467f, -0.03372042253613471985f, 0.07235530018806457520f, 0.03055263869464397430f, -0.04733869060873985291f, -0.00797868613153696060f, 0.01545881107449531555f, 0.01383796334266662598f, 0.28895789384841918945f, -0.01165817119181156158f, 0.06041472405195236206f, -0.18612861633300781250f, 0.06364880502223968506f, 0.05864854902029037476f, -0.05311835557222366333f, -0.14577834308147430420f, -0.00693921558558940887f, 0.09962709993124008179f, -0.15721051394939422607f, -0.19944511353969573975f, 0.05329347774386405945f, 0.02933233231306076050f},
  {-0.01037873886525630951f, -0.13176128268241882324f, 0.23113305866718292236f, 0.04904063045978546143f, -0.20885063707828521729f, -0.19745704531669616699f, 0.10502504557371139526f, 0.08342596143484115601f, 0.08709710836410522461f, 0.02684671990573406219f, 0.28211671113967895508f, -0.09713838994503021240f, -0.05401341617107391357f, 0.07212818413972854614f, -0.10014695674180984497f, 0.09068726003170013428f, -0.15440119802951812744f, 0.06835763156414031982f, -0.00689446041360497475f, 0.12414051592350006104f, 0.06343060731887817383f, -0.18745075166225433350f, -0.13239642977714538574f, -0.03063360787928104401f, 0.01063476968556642532f, 0.06288980692625045776f, -0.11484504491090774536f, 0.02886410243809223175f, -0.01366481650620698929f, -0.11598160117864608765f, -0.05510604381561279297f, 0.08630068600177764893f, 0.07301721721887588501f, -0.06256932020187377930f, -0.12418051809072494507f, -0.18053103983402252197f, 0.04163380339741706848f, 0.05183703452348709106f, 0.16493149101734161377f, -0.00218385248444974422f, -0.01672416552901268005f, -0.14754629135131835938f, 0.04612255841493606567f, -0.21028386056423187256f, 0.06801988929510116577f, 0.03258799016475677490f, -0.07560215890407562256f, -0.08855716139078140259f, -0.05666652321815490723f, -0.12462091445922851562f, -0.09894697368144989014f, 0.15642602741718292236f, -0.00779703678563237190f, 0.02060982584953308105f, 0.11681555211544036865f, 0.01882296800613403320f, 0.17561334371566772461f, -0.09565154463052749634f, -0.05345996841788291931f, 0.20972031354904174805f, 0.05005801841616630554f, 0.08608920872211456299f, -0.06072729453444480896f, -0.11187322437763214111f, 0.18597120046615600586f, -0.22159406542778015137f, -0.05427250638604164124f, 0.07102102786302566528f, 0.21789877116680145264f, -0.03045351803302764893f, 0.08718027174472808838f, -0.17249590158462524414f, 0.01613700017333030701f, 0.07265433669090270996f, -0.06622082740068435669f, -0.12426897138357162476f, -0.04467649012804031372f, -0.09180873632431030273f, -0.24098698794841766357f, 0.10725884884595870972f, 0.02677311003208160400f, 0.19827453792095184326f, 0.03499003499746322632f, -0.05189764127135276794f, -0.00108243699651211500f, -0.02293366007506847382f, -0.02320958301424980164f, 0.06655517220497131348f, -0.05502607300877571106f, -0.19052428007125854492f, 0.14206349849700927734f, -0.06549236178398132324f, -0.14598169922828674316f, 0.09339771419763565063f, -0.07003388553857803345f, -0.02065719477832317352f, -0.12939053773880004883f, -0.10699343681335449219f, 0.04612683504819869995f, -0.03679849579930305481f, -0.04795188829302787781f, 0.05378719791769981384f, -0.21784298121929168701f, -0.08900991082191467285f, 0.13049916923046112061f, 0.07404764741659164429f, 0.13397458195686340332f, -0.07376059889793395996f, -0.23882481455802917480f, 0.07362703979015350342f, 0.14978620409965515137f, -0.02204434201121330261f, 0.07543839514255523682f, -0.22744154930114746094f, 0.03881036862730979919f, -0.10168576240539550781f, -0.07010717689990997314f, -0.06906148791313171387f, 0.16132456064224243164f, -0.13668364286422729492f, -0.08956783264875411987f, -0.12115897238254547119f, 0.14698788523674011230f, 0.00272418023087084293f, -0.00181915191933512688f, -0.07307782769203186035f, 0.04898631572723388672f, 0.00418951595202088356f},
  {0.04557890444993972778f, 0.08809716254472732544f, 0.17981226742267608643f, 0.02016391791403293610f, 0.03000890091061592102f, 0.01175258588045835495f, 0.14664889872074127197f, -0.04944200068712234497f, 0.05673961713910102844f, 0.02582254074513912201f, 0.04302329570055007935f, -0.05726516246795654297f, 0.07643333822488784790f, 0.13966068625450134277f, 0.05999187752604484558f, 0.04758696258068084717f, -0.03836353123188018799f, -0.04165864735841751099f, -0.00634680641815066338f, 0.07780572026968002319f, -0.01779420487582683563f, 0.09609473496675491333f, -0.13656423985958099365f, -0.05038929358124732971f, -0.00543686607852578163f, -0.08208640664815902710f, -0.14081941545009613037f, -0.02951845526695251465f, -0.08091999590396881104f, 0.05996226519346237183f, 0.04158876091241836548f, 0.05413664504885673523f, 0.06757884472608566284f, -0.01015107519924640656f, 0.03116084448993206024f, -0.11998375505208969116f, 0.01378231495618820190f, 0.05960625782608985901f, 0.10313160717487335205f, 0.08230863511562347412f, 0.06179671362042427063f, 0.07159841805696487427f, 0.11376149952411651611f, -0.00748538970947265625f, 0.13927413523197174072f, -0.00995374657213687897f, 0.15024113655090332031f, 0.02197588980197906494f, -0.06441941857337951660f, -0.00693248677998781204f, -0.10275970399379730225f, 0.01660728454589843750f, -0.09179940074682235718f, -0.10346048325300216675f, 0.09336158633232116699f, -0.02479727007448673248f, 0.12446163594722747803f, -0.01042112521827220917f, 0.03744429722428321838f, 0.09855915606021881104f, -0.05241557583212852478f, 0.02097935415804386139f, 0.02987648174166679382f, 0.08742639422416687012f, -0.00062878156313672662f, -0.16846697032451629639f, 0.07679060846567153931f, -0.00963546335697174072f, 0.14475506544113159180f, -0.01325489766895771027f, 0.01059751398861408234f, -0.02710826881229877472f, 0.06580670177936553955f, 0.01301710028201341629f, 0.00418255710974335670f, -0.00968754012137651443f, 0.08436819165945053101f, -0.18812833726406097412f, -0.16731908917427062988f, 0.11145532131195068359f, -0.00551697751507163048f, 0.07655870169401168823f, 0.00213273428380489349f, -0.10046385973691940308f, -0.08983005583286285400f, 0.05052875354886054993f, -0.00946800038218498230f, -0.03511926904320716858f, 0.20355597138404846191f, -0.00657951273024082184f, 0.02907005511224269867f, 0.07206346094608306885f, 0.03103105165064334869f, 0.02015797235071659088f, -0.02409534901380538940f, -0.11066331714391708374f, -0.06196667999029159546f, -0.11025840044021606445f, -0.11583811789751052856f, 0.01300280168652534485f, -0.05159091204404830933f, 0.02774239517748355865f, -0.03938297927379608154f, 0.00440170243382453918f, -0.01530928630381822586f, -0.03034242056310176849f, 0.01661746203899383545f, 0.02883413620293140411f, -0.04645997658371925354f, -0.03081012517213821411f, -0.09525465965270996094f, 0.28360527753829956055f, -0.00920998118817806244f, -0.16840948164463043213f, 0.15161265432834625244f, -0.01788344606757164001f, -0.07561270892620086670f, 0.00153766863513737917f, 0.05947500094771385193f, -0.01087409723550081253f, -0.09038302302360534668f, 0.03734870627522468567f, 0.10229174047708511353f, 0.00353326718322932720f, -0.10037890076637268066f, -0.12781086564064025879f, 0.08773691207170486450f, 0.02577825635671615601f},
  {-0.08882669359445571899f, 0.16797593235969543457f, 0.11669861525297164917f, 0.13352149724960327148f, -0.07486416399478912354f, -0.02438253164291381836f, 0.08580004423856735229f, 0.01926939375698566437f, 0.03627843037247657776f, -0.00512015959247946739f, 0.03567302599549293518f, 0.09106637537479400635f, -0.03596188873052597046f, 0.04041903093457221985f, 0.10797768831253051758f, 0.13112814724445343018f, 0.04201710969209671021f, -0.03444160148501396179f, 0.07781446725130081177f, 0.02819721028208732605f, 0.08906680345535278320f, 0.14338770508766174316f, -0.03720840811729431152f, -0.05201300978660583496f, -0.01384474709630012512f, 0.05571055784821510315f, -0.16736127436161041260f, -0.00015958788571879268f, -0.07462199032306671143f, 0.06292915344238281250f, 0.11743577569723129272f, -0.01198497693985700607f, -0.01686105318367481232f, -0.16356033086776733398f, 0.20174966752529144287f, -0.01773637160658836365f, -0.03458011522889137268f, 0.01851383596658706665f, -0.00171787012368440628f, -0.03767821565270423889f, -0.01687483116984367371f, 0.07142142206430435181f, -0.23455537855625152588f, -0.01218652352690696716f, 0.05387603864073753357f, 0.05617202073335647583f, 0.23417726159095764160f, 0.02977314591407775879f, -0.22200499475002288818f, 0.03139129281044006348f, -0.10899357497692108154f, -0.01588692516088485718f, 0.05944857373833656311f, -0.20530669391155242920f, 0.01497645489871501923f, -0.01111694518476724625f, 0.03759608790278434753f, 0.11240317672491073608f, -0.02774448879063129425f, -0.08697376400232315063f, -0.03079524636268615723f, -0.05466540157794952393f, 0.12491173297166824341f, 0.03317567706108093262f, 0.10459177941083908081f, 0.05316954478621482849f, -0.03941585868597030640f, 0.10318541526794433594f, -0.09063646942377090454f, -0.08323406428098678589f, 0.09518232196569442749f, -0.02741097472608089447f, 0.08172438293695449829f, -0.03470592573285102844f, -0.07155237346887588501f, -0.02144529484212398529f, 0.05810782313346862793f, -0.27111589908599853516f, -0.14691448211669921875f, -0.10818424075841903687f, -0.02744775079190731049f, 0.05174680426716804504f, 0.04686752334237098694f, -0.13391806185245513916f, -0.04070532694458961487f, -0.00396234123036265373f, 0.01681401394307613373f, 0.01298263762146234512f, 0.03336506709456443787f, 0.11914815753698348999f, 0.11265122890472412109f, -0.09252309054136276245f, -0.05659849569201469421f, 0.02825742959976196289f, 0.00041297342977486551f, 0.02512926235795021057f, 0.06140483170747756958f, -0.04568544030189514160f, -0.04831673949956893921f, -0.30894377827644348145f, 0.01668264903128147125f, -0.11283852159976959229f, 0.20544941723346710205f, -0.19291609525680541992f, -0.01997116766870021820f, 0.05000047385692596436f, -0.04108878597617149353f, 0.05184653028845787048f, -0.00780072342604398727f, 0.20818948745727539062f, -0.02402867935597896576f, 0.22309988737106323242f, -0.07595688104629516602f, -0.03877915069460868835f, -0.10989817976951599121f, 0.04020214825868606567f, -0.04928034543991088867f, -0.12090145051479339600f, 0.09742318838834762573f, -0.06060129404067993164f, -0.01031718309968709946f, 0.12342654913663864136f, -0.02345595136284828186f, -0.12990926206111907959f, -0.06123281642794609070f, -0.06280936300754547119f, 0.11586078256368637085f, 0.12281161546707153320f},
  {0.09650650620460510254f, -0.00982557050883769989f, 0.06960332393646240234f, 0.07536711543798446655f, 0.00018708061543293297f, 0.03192421421408653259f, -0.04017836228013038635f, -0.01432571560144424438f, -0.04625827819108963013f, -0.02967942506074905396f, 0.09067682176828384399f, -0.00830457359552383423f, -0.05173840746283531189f, -0.09593990445137023926f, 0.01641423441469669342f, -0.05832736194133758545f, 0.06494853645563125610f, 0.03162200376391410828f, 0.07420984655618667603f, 0.00732366275042295456f, 0.01048220694065093994f, -0.12993124127388000488f, -0.04469817504286766052f, -0.06295500695705413818f, 0.02057203464210033417f, 0.03705710545182228088f, 0.12605278193950653076f, 0.05139974504709243774f, -0.07911114394664764404f, 0.01574395038187503815f, -0.01917735114693641663f, -0.04479284957051277161f, 0.06865061819553375244f, -0.07285804301500320435f, 0.00171806628350168467f, -0.04362626373767852783f, 0.01649709418416023254f, 0.01116378791630268097f, 0.00965583883225917816f, -0.16260218620300292969f, -0.10712353885173797607f, 0.13164924085140228271f, -0.09090588241815567017f, 0.00919504370540380478f, -0.00834814738482236862f, -0.02704915776848793030f, 0.00042121074511669576f, 0.03522757813334465027f, 0.03512563928961753845f, -0.05458303168416023254f, -0.02117668837308883667f, 0.16084618866443634033f, -0.03863995522260665894f, -0.04945083707571029663f, 0.00504173012450337410f, 0.02107543125748634338f, -0.06070433184504508972f, 0.06613279879093170166f, 0.05021401494741439819f, 0.12407521903514862061f, -0.08933921158313751221f, 0.16755329072475433350f, -0.08294677734375000000f, -0.11543047428131103516f, -0.04900353401899337769f, 0.00570662925019860268f, 0.00450007431209087372f, -0.05418429523706436157f, 0.08051173388957977295f, -0.07226747274398803711f, 0.02788934484124183655f, -0.04288572818040847778f, 0.03173349797725677490f, 0.01737703196704387665f, -0.04226530715823173523f, 0.07220662385225296021f, 0.04165827110409736633f, -0.02198197133839130402f, -0.05269218608736991882f, 0.04207666963338851929f, 0.05347985774278640747f, 0.04436113685369491577f, 0.02178200520575046539f, 0.00664938194677233696f, -0.01734495908021926880f, -0.00457297731190919876f, 0.00403005024418234825f, 0.05510524287819862366f, -0.02806411124765872955f, -0.06627118587493896484f, -0.07566167414188385010f, -0.04166158661246299744f, -0.02013926394283771515f, -0.01570774428546428680f, -0.01772868819534778595f, -0.02744009718298912048f, 0.02284536510705947876f, 0.01206244621425867081f, -0.01915556006133556366f, -0.01202438957989215851f, 0.01934915781021118164f, 0.06014482676982879639f, -0.16655728220939636230f, 0.02166516706347465515f, 0.04192680120468139648f, 0.06566269695758819580f, -0.04011820629239082336f, -0.03016310743987560272f, -0.07335679978132247925f, 0.06497886776924133301f, -0.10700717568397521973f, 0.13537974655628204346f, -0.06843308359384536743f, 0.00149563187733292580f, -0.17836557328701019287f, -0.00123007071670144796f, 0.10774734616279602051f, 0.09953625500202178955f, -0.05018438771367073059f, -0.01818904280662536621f, -0.07412537187337875366f, 0.12574805319309234619f, 0.01889783889055252075f, 0.01943295635282993317f, 0.08632046729326248169f, -0.01927039586007595062f, -0.03605306893587112427f, 0.02478977292776107788f},
  {-0.23652839660644531250f, 0.13625152409076690674f, -0.01047476381063461304f, -0.02205619215965270996f, -0.01509585790336132050f, -0.10022317618131637573f, -0.09784352034330368042f, -0.03400726243853569031f, 0.05167745053768157959f, -0.11690265685319900513f, 0.20821389555931091309f, -0.00623476039618253708f, -0.05722349882125854492f, -0.04217669367790222168f, 0.05517344549298286438f, 0.03840607777237892151f, -0.19330914318561553955f, -0.06957094371318817139f, -0.11246325075626373291f, 0.18400003015995025635f, 0.02351944334805011749f, -0.11892269551753997803f, 0.12008573114871978760f, -0.03437123075127601624f, -0.14443196356296539307f, 0.06379583477973937988f, 0.05106174945831298828f, 0.14161780476570129395f, -0.23639097809791564941f, 0.08221632987260818481f, 0.15355433523654937744f, -0.02093931473791599274f, -0.10974622517824172974f, -0.00396600831300020218f, -0.02028118260204792023f, -0.01520199887454509735f, 0.10144338756799697876f, 0.09348656237125396729f, 0.00536914402619004250f, -0.02829704247415065765f, -0.17624625563621520996f, 0.16633015871047973633f, 0.10632834583520889282f, -0.12951560318470001221f, 0.00439996831119060516f, -0.04224333167076110840f, 0.08530687540769577026f, 0.12013796716928482056f, 0.14765676856040954590f, -0.13398528099060058594f, -0.12596242129802703857f, -0.03527905791997909546f, 0.02845651097595691681f, 0.12970943748950958252f, 0.10126172751188278198f, -0.16180694103240966797f, 0.10369913280010223389f, -0.12451005727052688599f, 0.12648162245750427246f, 0.06016557663679122925f, 0.02874818630516529083f, 0.19003203511238098145f, -0.01633485965430736542f, 0.00576390186324715614f, 0.09379334002733230591f, -0.14829306304454803467f, -0.06186904013156890869f, 0.32730427384376525879f, 0.21242898702621459961f, 0.00677355332300066948f, 0.00246492866426706314f, -0.26359257102012634277f, -0.09474270045757293701f, -0.01404141262173652649f, 0.04069067165255546570f, -0.02597763575613498688f, -0.09934534877538681030f, -0.00209392467513680458f, 0.05103861168026924133f, 0.11892292648553848267f, 0.00037749615148641169f, 0.13828042149543762207f, 0.10646347701549530029f, -0.06038780882954597473f, 0.02304492518305778503f, -0.01815447397530078888f, -0.00974254123866558075f, -0.11301825195550918579f, -0.03589531034231185913f, -0.28668743371963500977f, 0.05109564587473869324f, -0.06040635332465171814f, -0.08950325101613998413f, 0.11559076607227325439f, 0.12341141700744628906f, -0.10972593724727630615f, -0.14204739034175872803f, -0.02325905486941337585f, -0.06121348962187767029f, 0.06246642023324966431f, -0.15270848572254180908f, 0.07817889750003814697f, -0.11258042603731155396f, 0.02072665654122829437f, 0.03861508145928382874f, -0.10530691593885421753f, 0.06747654080390930176f, 0.14207336306571960449f, -0.02353976853191852570f, 0.05782905220985412598f, -0.09407810866832733154f, 0.29340490698814392090f, 0.07292345166206359863f, -0.09202557057142257690f, 0.11351773887872695923f, -0.04039929062128067017f, -0.05239743366837501526f, -0.02031137421727180481f, -0.03940093889832496643f, -0.06591645628213882446f, -0.17387717962265014648f, 0.04872611537575721741f, 0.02224314212799072266f, -0.07918933033943176270f, -0.23525922000408172607f, 0.03604585677385330200f, 0.05085914582014083862f, -0.03376144170761108398f},
  {-0.00836404412984848022f, -0.26414421200752258301f, -0.01016323547810316086f, 0.01036024931818246841f, -0.04379134252667427063f, -0.06580732017755508423f, -0.00154628348536789417f, -0.07069756835699081421f, 0.02892890013754367828f, 0.15237563848495483398f, 0.02651407755911350250f, 0.15666799247264862061f, 0.03449584543704986572f, 0.11270788311958312988f, -0.04850007221102714539f, 0.01188487000763416290f, 0.03316542506217956543f, 0.09018988907337188721f, -0.00063284073257818818f, -0.04324112832546234131f, -0.01359467767179012299f, 0.08143421262502670288f, -0.03743668645620346069f, 0.05066363140940666199f, -0.04253606498241424561f, -0.06877421587705612183f, 0.04564342275261878967f, 0.05185953527688980103f, 0.06104059144854545593f, 0.01152072194963693619f, -0.03634741529822349548f, 0.06555391848087310791f, -0.00100276421289891005f, 0.05808892846107482910f, -0.06450970470905303955f, 0.05849803984165191650f, 0.08405801653861999512f, -0.10238421708345413208f, -0.01789909973740577698f, -0.05747008696198463440f, 0.02034423500299453735f, -0.16824544966220855713f, 0.10256332159042358398f, 0.02918564714491367340f, 0.12402745336294174194f, -0.05011848732829093933f, -0.19964092969894409180f, -0.03924286738038063049f, 0.08448231965303421021f, -0.00260412436909973621f, -0.02939189411699771881f, -0.07987408339977264404f, -0.08168748766183853149f, 0.07270022481679916382f, 0.02760966308414936066f, 0.05034279450774192810f, 0.00858900323510169983f, -0.04230651631951332092f, 0.08885145932435989380f, -0.02881789021193981171f, 0.07319967448711395264f, -0.09951740503311157227f, 0.07015973329544067383f, 0.03109560161828994751f, 0.11178991198539733887f, 0.01057443488389253616f, 0.01349112018942832947f, -0.00185551622416824102f, -0.11726731806993484497f, -0.03245256468653678894f, 0.08195562660694122314f, 0.08381605893373489380f, 0.05920916423201560974f, 0.05730133876204490662f, -0.02497973106801509857f, -0.06545267254114151001f, -0.01825047656893730164f, -0.02451563626527786255f, 0.06315530836582183838f, -0.06799421459436416626f, 0.03398147597908973694f, -0.02708108723163604736f, -0.02566340565681457520f, 0.00021606430527754128f, -0.01120625529438257217f, -0.02621885389089584351f, -0.03361678868532180786f, 0.06713718175888061523f, -0.01369569264352321625f, -0.09066729992628097534f, -0.08351413905620574951f, -0.02235301025211811066f, -0.05784366652369499207f, -0.05052379891276359558f, -0.12324056774377822876f, -0.01644770428538322449f, 0.00069125345908105373f, 0.03930139541625976562f, -0.06141528859734535217f, 0.07172607630491256714f, -0.00566917844116687775f, -0.06246483698487281799f, 0.10339229553937911987f, -0.06005365774035453796f, -0.10931370407342910767f, 0.05466095358133316040f, 0.05577346310019493103f, 0.02707941830158233643f, -0.18615101277828216553f, -0.01788694597780704498f, 0.17930248379707336426f, -0.24207979440689086914f, 0.00057314237346872687f, 0.08163399249315261841f, -0.00119392387568950653f, -0.01284870691597461700f, -0.09518051892518997192f, -0.04354946687817573547f, 0.06071591749787330627f, -0.00630829017609357834f, -0.08561073988676071167f, -0.30741548538208007812f, 0.00778006482869386673f, -0.00681078992784023285f, 0.06241608783602714539f, -0.15464256703853607178f, -0.07698766142129898071f, -0.03870565071702003479f},
  {-0.08374035358428955078f, 0.19415439665317535400f, 0.14750470221042633057f, 0.07004078477621078491f, -0.00936015881597995758f, -0.02946246601641178131f, 0.02311894297599792480f, -0.09133791923522949219f, 0.03575237095355987549f, -0.06494648754596710205f, -0.06558056175708770752f, -0.00189177400898188353f, 0.00783217046409845352f, 0.03009967133402824402f, 0.01220257207751274109f, -0.00238449824973940849f, -0.07272421568632125854f, 0.06061375886201858521f, 0.05432049557566642761f, 0.05419178307056427002f, 0.02376566268503665924f, 0.07905302196741104126f, 0.01521561387926340103f, 0.00965384859591722488f, -0.03698072209954261780f, -0.05090000107884407043f, -0.03798790276050567627f, -0.09594059735536575317f, 0.00007921802171040326f, 0.01216151379048824310f, 0.09563071280717849731f, -0.02327387034893035889f, 0.10825966298580169678f, -0.06101644784212112427f, 0.03867514804005622864f, -0.13194403052330017090f, 0.01965266838669776917f, -0.02451822906732559204f, -0.04303912073373794556f, 0.07560140639543533325f, -0.04433721303939819336f, 0.08645062148571014404f, 0.06080404669046401978f, 0.02773077599704265594f, 0.08070702850818634033f, 0.09288457781076431274f, -0.07679314911365509033f, 0.01300808228552341461f, -0.10811350494623184204f, 0.04118545725941658020f, -0.08117184787988662720f, -0.00180126819759607315f, 0.07148879021406173706f, 0.00060252071125432849f, 0.03840778395533561707f, 0.01102584134787321091f, 0.02428609691560268402f, 0.05246751010417938232f, -0.02428376302123069763f, 0.01723841950297355652f, -0.06486996263265609741f, -0.10482955724000930786f, -0.00172828999347984791f, 0.05986561998724937439f, -0.00277089420706033707f, -0.02752915956079959869f, 0.01280958484858274460f, 0.03668855503201484680f, 0.00973493792116641998f, -0.04779871925711631775f, 0.03483075648546218872f, -0.10155559331178665161f, 0.06246622279286384583f, -0.00142166391015052795f, 0.07126290351152420044f, 0.03888881951570510864f, -0.06581826508045196533f, 0.01835454814136028290f, -0.17232860624790191650f, 0.05722833424806594849f, -0.01369908079504966736f, 0.07592098414897918701f, 0.08722055703401565552f, -0.05077344924211502075f, -0.11769013106822967529f, 0.06790818274021148682f, 0.10323599725961685181f, 0.05348816514015197754f, 0.10997026413679122925f, 0.02226740121841430664f, -0.02013373374938964844f, 0.00557741383090615273f, 0.05139262974262237549f, 0.02228318713605403900f, -0.04747593030333518982f, -0.02473471872508525848f, 0.00448582181707024574f, 0.06117746606469154358f, -0.02398635819554328918f, -0.00753783108666539192f, -0.06869623064994812012f, 0.01783272437751293182f, 0.14210399985313415527f, -0.07463721185922622681f, 0.03376090899109840393f, 0.06099277362227439880f, 0.00398495979607105255f, -0.04387331381440162659f, -0.07372625172138214111f, 0.09960878640413284302f, -0.03753131255507469177f, -0.00285206898115575314f, -0.00838391669094562531f, 0.01037271786481142044f, -0.02594562992453575134f, 0.02315430901944637299f, -0.11236749589443206787f, -0.02540023997426033020f, 0.10827740281820297241f, -0.01764976605772972107f, -0.06885524839162826538f, 0.00209006736986339092f, 0.07317771017551422119f, -0.04233591631054878235f, 0.06531829386949539185f, -0.12553457915782928467f, 0.13367012143135070801f, 0.07514189928770065308f},
  {-0.05069947242736816406f, 0.12402890622615814209f, -0.02684604562819004059f, -0.10942257195711135864f, -0.06376712769269943237f, 0.04393889009952545166f, 0.07635029405355453491f, -0.01075589284300804138f, 0.01686188951134681702f, -0.16240391135215759277f, 0.15056595206260681152f, -0.00104529142845422029f, -0.04659085720777511597f, 0.15225280821323394775f, 0.04108246788382530212f, -0.05833453685045242310f, 0.04883026704192161560f, 0.00607016915455460548f, 0.04610386490821838379f, -0.03915312513709068298f, 0.05673791468143463135f, 0.08978864550590515137f, -0.04735096544027328491f, 0.04679704084992408752f, -0.04088990017771720886f, -0.06635683029890060425f, 0.01762053184211254120f, -0.00532302819192409515f, -0.09619066119194030762f, -0.01338281854987144470f, -0.00575982546433806419f, -0.02482535317540168762f, 0.04964863881468772888f, 0.08035574853420257568f, 0.07229015231132507324f, -0.12035899609327316284f, -0.00238150032237172127f, 0.01740668341517448425f, 0.01677128672599792480f, 0.12141494452953338623f, 0.09981083869934082031f, 0.14898288249969482422f, 0.01419803034514188766f, -0.00120275549124926329f, 0.10986510664224624634f, 0.05533907562494277954f, 0.11377740651369094849f, 0.04156299307942390442f, 0.13642007112503051758f, -0.03919345885515213013f, -0.09141567349433898926f, 0.00880606193095445633f, -0.08270199596881866455f, -0.11117441207170486450f, -0.02529094181954860687f, 0.07547163963317871094f, 0.00072520563844591379f, 0.05151046067476272583f, 0.08786867558956146240f, 0.13704781234264373779f, 0.02044350281357765198f, 0.22220674157142639160f, 0.08138366043567657471f, -0.05450829118490219116f, -0.06683717668056488037f, 0.05545540153980255127f, 0.10186719149351119995f, 0.10231292992830276489f, 0.12058602273464202881f, 0.02614520117640495300f, 0.03043304383754730225f, -0.04598988965153694153f, 0.01907304488122463226f, 0.06728702038526535034f, 0.16113720834255218506f, -0.00336389034055173397f, -0.04557331651449203491f, 0.00259127165190875530f, -0.07150429487228393555f, 0.07068510353565216064f, 0.02095171809196472168f, 0.07254096120595932007f, 0.10361154377460479736f, 0.08187358081340789795f, -0.06088126823306083679f, -0.00366498134098947048f, 0.01570750027894973755f, -0.19094417989253997803f, 0.19116002321243286133f, 0.05935721844434738159f, -0.02576144598424434662f, 0.05925584211945533752f, 0.05868899077177047729f, 0.02175169065594673157f, -0.05445590242743492126f, -0.11792206019163131714f, -0.04011174291372299194f, -0.04030171781778335571f, -0.03936841711401939392f, -0.02726798318326473236f, 0.05344867706298828125f, 0.13008092343807220459f, -0.10022711008787155151f, -0.01882285997271537781f, 0.07823054492473602295f, -0.03810152411460876465f, -0.03893824294209480286f, 0.07861936092376708984f, -0.01099126227200031281f, -0.02588360756635665894f, -0.13746516406536102295f, 0.13576909899711608887f, 0.05891916155815124512f, -0.04593782126903533936f, -0.02280454896390438080f, 0.09814323484897613525f, 0.04426186159253120422f, -0.04129140079021453857f, 0.17718660831451416016f, 0.12122564017772674561f, 0.04758677631616592407f, 0.08422937989234924316f, 0.01721094921231269836f, -0.02468972839415073395f, 0.08315418660640716553f, -0.03441724553704261780f, 0.05115726590156555176f, -0.00319900852628052235f},
  {-0.06463320553302764893f, -0.00879162643104791641f, 0.06381821632385253906f, 0.10139195621013641357f, 0.04489329829812049866f, -0.03689436241984367371f, -0.07199218124151229858f, -0.11886473745107650757f, 0.08000088483095169067f, -0.15614809095859527588f, 0.03706391528248786926f, -0.16369217634201049805f, -0.11403570324182510376f, -0.00490125548094511032f, 0.03454799577593803406f, -0.00851363316178321838f, -0.06884884089231491089f, 0.05195374414324760437f, -0.01584652066230773926f, 0.14017339050769805908f, -0.01713640056550502777f, 0.08427926152944564819f, -0.09306427091360092163f, 0.04366735368967056274f, 0.04535223171114921570f, -0.02921061962842941284f, -0.10701518505811691284f, -0.02143563143908977509f, -0.16922816634178161621f, 0.03804117441177368164f, -0.00051050953334197402f, 0.02166852913796901703f, -0.13951385021209716797f, 0.07711330056190490723f, -0.12707296013832092285f, -0.02102599665522575378f, -0.04861496388912200928f, 0.03758483752608299255f, 0.07522456347942352295f, -0.11215354502201080322f, 0.07306925207376480103f, 0.12646208703517913818f, 0.05221273377537727356f, 0.03955163806676864624f, -0.04320031404495239258f, -0.02700394392013549805f, -0.16093996167182922363f, -0.12920850515365600586f, 0.28565871715545654297f, 0.11876690387725830078f, 0.08430036902427673340f, 0.11089362204074859619f, 0.08410330116748809814f, -0.06438782811164855957f, -0.03254170343279838562f, 0.02018700726330280304f, 0.03912832587957382202f, -0.06359937787055969238f, -0.00105816440191119909f, 0.03083386085927486420f, 0.02457615733146667480f, -0.11213796585798263550f, 0.00761646591126918793f, -0.00251967739313840866f, -0.06019184738397598267f, -0.10693044960498809814f, -0.04795203730463981628f, -0.00535473087802529335f, -0.10848525166511535645f, 0.02894680015742778778f, -0.05611867457628250122f, 0.09501704573631286621f, -0.12473421543836593628f, -0.04575651139020919800f, 0.06817026436328887939f, 0.09959438443183898926f, 0.06540780514478683472f, -0.15770456194877624512f, -0.03476829081773757935f, 0.14798578619956970215f, 0.03964648768305778503f, 0.02315217629075050354f, 0.05205350741744041443f, -0.20675167441368103027f, -0.19433201849460601807f, 0.17583127319812774658f, 0.10927087068557739258f, -0.18316450715065002441f, 0.03435680642724037170f, -0.17751626670360565186f, 0.05777858570218086243f, -0.02442904189229011536f, -0.07414329051971435547f, -0.08985202759504318237f, -0.02473528310656547546f, -0.01734570041298866272f, -0.11087735742330551147f, 0.15200835466384887695f, -0.14085379242897033691f, 0.00448837876319885254f, 0.08918537944555282593f, -0.03278545290231704712f, 0.00412959791719913483f, 0.05952868238091468811f, 0.07247918844223022461f, -0.08762466907501220703f, 0.05315844714641571045f, 0.08535782992839813232f, 0.05504057928919792175f, 0.01689585670828819275f, 0.06652058660984039307f, 0.12064056843519210815f, 0.05284392461180686951f, -0.03547655418515205383f, -0.02057091332972049713f, 0.10324810445308685303f, -0.04877761378884315491f, -0.03948501497507095337f, 0.05277489125728607178f, -0.06249449029564857483f, -0.10993706434965133667f, 0.01484309136867523193f, -0.00386744667775928974f, -0.02576758526265621185f, 0.14982490241527557373f, -0.00030882115243002772f, -0.14994210004806518555f, 0.03148916363716125488f},
  {-0.07542072981595993042f, -0.12738806009292602539f, -0.09398487955331802368f, -0.04928979650139808655f, 0.05955149605870246887f, 0.00590679841116070747f, 0.00314923864789307117f, -0.07001303881406784058f, -0.00131818349473178387f, -0.08273527026176452637f, -0.06277102977037429810f, -0.08005977421998977661f, 0.06897398084402084351f, -0.00162879645358771086f, -0.08050365000963211060f, 0.00234371819533407688f, 0.02367410808801651001f, -0.01123609859496355057f, -0.05132684484124183655f, -0.02751929312944412231f, 0.04014072194695472717f, 0.06979698687791824341f, 0.05193473771214485168f, 0.02546766214072704315f, -0.01684221066534519196f, -0.01057558227330446243f, -0.06488849222660064697f, 0.08674875646829605103f, -0.04179302230477333069f, 0.05432565510272979736f, -0.02665750496089458466f, 0.02602161280810832977f, 0.00992512237280607224f, 0.01203209254890680313f, 0.03452286496758460999f, 0.09062933921813964844f, -0.02847497537732124329f, -0.05502336472272872925f, -0.05590488761663436890f, 0.00214105355553328991f, 0.03041918948292732239f, -0.08595032989978790283f, 0.08916662633419036865f, 0.01963176019489765167f, -0.05955363437533378601f, 0.05753216519951820374f, -0.08946588635444641113f, -0.06652241945266723633f, 0.15149015188217163086f, 0.07582542300224304199f, 0.06915813684463500977f, 0.02812677621841430664f, -0.05935964733362197876f, 0.04593958333134651184f, -0.01931045018136501312f, 0.01614687964320182800f, -0.08938364684581756592f, 0.05305036157369613647f, 0.06663258373737335205f, -0.07323295623064041138f, 0.06590236723423004150f, 0.08924490213394165039f, 0.00380761595442891121f, -0.08119440823793411255f, -0.11061150580644607544f, 0.07158222794532775879f, 0.01894773542881011963f, -0.02927323803305625916f, -0.06752038002014160156f, -0.04818183556199073792f, -0.00540595781058073044f, 0.02427607215940952301f, -0.04834276810288429260f, 0.07284753024578094482f, -0.05994451791048049927f, 0.07645754516124725342f, -0.04382501915097236633f, 0.06814506649971008301f, 0.08754649013280868530f, -0.11149306595325469971f, 0.04291405156254768372f, -0.01623219065368175507f, 0.06549118459224700928f, 0.01963282190263271332f, 0.04575142264366149902f, 0.02004813402891159058f, -0.08704525232315063477f, -0.05400875210762023926f, -0.02890272997319698334f, -0.02125135250389575958f, -0.03049124404788017273f, 0.02864680252969264984f, -0.01206736825406551361f, -0.02604669146239757538f, -0.01606441289186477661f, 0.03887341171503067017f, 0.03591994568705558777f, -0.05045474320650100708f, 0.06057551503181457520f, 0.01710788719356060028f, 0.02844178676605224609f, 0.01425928901880979538f, -0.08328165858983993530f, 0.10468479245901107788f, -0.05220371112227439880f, -0.03287092223763465881f, -0.07732915133237838745f, -0.02099750749766826630f, -0.03332576155662536621f, -0.08279390633106231689f, 0.04856149479746818542f, -0.00232689059339463711f, 0.04791566357016563416f, 0.05469692125916481018f, -0.01717243343591690063f, -0.05813490971922874451f, 0.07778882980346679688f, 0.08447306603193283081f, -0.00429517356678843498f, 0.08957958966493606567f, -0.07659085094928741455f, -0.07058701664209365845f, -0.03996267169713973999f, 0.00873364415019750595f, -0.04951986297965049744f, 0.04730578884482383728f, -0.00918615143746137619f, 0.01524989306926727295f},
  {0.00608402909711003304f, -0.02596178464591503143f, 0.18304927647113800049f, 0.02905406616628170013f, -0.22367347776889801025f, -0.02876095101237297058f, 0.12708279490470886230f, -0.12164441496133804321f, -0.00605128845199942589f, 0.12389695644378662109f, -0.07927372306585311890f, 0.22372706234455108643f, -0.06523012369871139526f, -0.05522484332323074341f, -0.01605714298784732819f, 0.10287629067897796631f, 0.07404539734125137329f, 0.08642747253179550171f, 0.06399095803499221802f, 0.03520520776510238647f, 0.15853694081306457520f, -0.09256239235401153564f, 0.15335485339164733887f, 0.06439054012298583984f, -0.06495154649019241333f, 0.12967069447040557861f, 0.02366608195006847382f, -0.04649466276168823242f, 0.02957583218812942505f, -0.24175067245960235596f, 0.00789258349686861038f, 0.02800002321600914001f, -0.07446415722370147705f, -0.18214307725429534912f, 0.14386986196041107178f, 0.02695589698851108551f, -0.09124176949262619019f, 0.14681118726730346680f, -0.00395479006692767143f, -0.08896289020776748657f, -0.09106142818927764893f, -0.06505578011274337769f, 0.03866798058152198792f, -0.09762994945049285889f, 0.05932819843292236328f, 0.02918426692485809326f, -0.06218110769987106323f, 0.06464079022407531738f, -0.02838695794343948364f, 0.00784240663051605225f, -0.17108008265495300293f, -0.07973521947860717773f, 0.20538942515850067139f, -0.01128511410206556320f, 0.09921131283044815063f, -0.20553295314311981201f, 0.07094935327768325806f, 0.02539076842367649078f, 0.10528971999883651733f, -0.08560234308242797852f, 0.10682169348001480103f, 0.00674272142350673676f, 0.01808178052306175232f, 0.06430631875991821289f, 0.11585605889558792114f, -0.05834589526057243347f, -0.11847562342882156372f, -0.07398981600999832153f, 0.00249435123987495899f, -0.02236537262797355652f, 0.12561649084091186523f, -0.07088303565979003906f, 0.07855376601219177246f, -0.04375885799527168274f, -0.05634826049208641052f, -0.19748382270336151123f, -0.07516916841268539429f, -0.07770922780036926270f, -0.11046878993511199951f, 0.06405950337648391724f, -0.05148890987038612366f, 0.17320556938648223877f, 0.10925903916358947754f, -0.04760960489511489868f, 0.00118666584603488445f, 0.02047795243561267853f, -0.12872183322906494141f, 0.03367871418595314026f, -0.12719200551509857178f, -0.01279984042048454285f, -0.01174156460911035538f, -0.12099336832761764526f, -0.14487729966640472412f, -0.01187316235154867172f, -0.04306391999125480652f, -0.04367677494883537292f, -0.14000622928142547607f, -0.03520765528082847595f, 0.04589485749602317810f, 0.06120494380593299866f, -0.13353903591632843018f, -0.06579121202230453491f, -0.14078278839588165283f, -0.00120291800703853369f, -0.05947770550847053528f, -0.04439975693821907043f, 0.26118803024291992188f, 0.01855243556201457977f, -0.23457118868827819824f, 0.05178246274590492249f, -0.06894308328628540039f, -0.17931985855102539062f, 0.06002330780029296875f, -0.00488027557730674744f, -0.04892651364207267761f, 0.00949485599994659424f, -0.11545879393815994263f, -0.03030540235340595245f, -0.03344259411096572876f, -0.13918146491050720215f, -0.14169538021087646484f, -0.00538414483889937401f, 0.18593189120292663574f, -0.01772561855614185333f, 0.13519890606403350830f, 0.13866424560546875000f, 0.13007727265357971191f, 0.00354906753636896610f},
  {0.01344250421971082687f, -0.04073691368103027344f, -0.07001859694719314575f, 0.04361027479171752930f, 0.01923092268407344818f, 0.02695896103978157043f, 0.05186076089739799500f, 0.02743348851799964905f, 0.01566922664642333984f, 0.12914973497390747070f, 0.17361781001091003418f, -0.05967015773057937622f, 0.05246511101722717285f, -0.05272790417075157166f, -0.01820647343993186951f, -0.03544063121080398560f, 0.01337741129100322723f, -0.14212132990360260010f, 0.01845960877835750580f, -0.00773751083761453629f, 0.01409859489649534225f, 0.04823640733957290649f, -0.00371566531248390675f, -0.14676620066165924072f, -0.00256608100607991219f, 0.02410852164030075073f, 0.00839742459356784821f, 0.08962132036685943604f, -0.02443281747400760651f, 0.04407459869980812073f, 0.00960965920239686966f, -0.07313413172960281372f, -0.01759983226656913757f, -0.04008181393146514893f, 0.01225229632109403610f, 0.06386861950159072876f, -0.00328586623072624207f, 0.06973489373922348022f, 0.00696258572861552238f, -0.02105556987226009369f, -0.01580300554633140564f, 0.08048473298549652100f, 0.10202423483133316040f, 0.01586633548140525818f, -0.07805418223142623901f, -0.01309116277843713760f, 0.00455807801336050034f, -0.00436292542144656181f, 0.00873928703367710114f, -0.08074221760034561157f, -0.13944198191165924072f, 0.09508170187473297119f, 0.03259931877255439758f, -0.03951815143227577209f, -0.00017475399363320321f, 0.05413961037993431091f, 0.10609163343906402588f, 0.06148106977343559265f, 0.00351320113986730576f, 0.03408833593130111694f, 0.01679992675781250000f, 0.12139759957790374756f, -0.00510390475392341614f, 0.01628046855330467224f, -0.04198716208338737488f, 0.05440741777420043945f, 0.02967253699898719788f, -0.03613916411995887756f, 0.05640710517764091492f, 0.09299983829259872437f, 0.02486887760460376740f, -0.14361909031867980957f, -0.03102248162031173706f, -0.05185944959521293640f, 0.00952076166868209839f, -0.00320052797906100750f, -0.11633764952421188354f, 0.06407829374074935913f, -0.08566207438707351685f, 0.11935590952634811401f, -0.11338149756193161011f, -0.03647219762206077576f, -0.03825312107801437378f, 0.12107632309198379517f, -0.01127186790108680725f, -0.00862340535968542099f, -0.04467681795358657837f, 0.00776941468939185143f, -0.02830273285508155823f, 0.04743212834000587463f, -0.04331431165337562561f, 0.04932167753577232361f, -0.07900594174861907959f, -0.04481690004467964172f, 0.01552875339984893799f, 0.09470827877521514893f, 0.02706990949809551239f, 0.01906220987439155579f, 0.07524438202381134033f, 0.01583837717771530151f, 0.01010133605450391769f, 0.14447289705276489258f, -0.03977707400918006897f, 0.05539672449231147766f, 0.06545823812484741211f, -0.01718777790665626526f, 0.03995526582002639771f, 0.08060292154550552368f, 0.09487050771713256836f, -0.04880128055810928345f, -0.02460798248648643494f, -0.14281402528285980225f, 0.00559520302340388298f, -0.00399156892672181129f, 0.06125571578741073608f, -0.10826376080513000488f, -0.02330347709357738495f, -0.07433909922838211060f, 0.03020701371133327484f, -0.04165205359458923340f, -0.00656357733532786369f, -0.02476484887301921844f, -0.06272783130407333374f, -0.02410281635820865631f, -0.03464637324213981628f, -0.01856602728366851807f, 0.08918808400630950928f, 0.01051027048379182816f},
  {-0.05739977955818176270f, 0.15072244405746459961f, 0.04028802365064620972f, 0.07840795069932937622f, 0.03842711076140403748f, 0.04070121794939041138f, 0.00331758265383541584f, -0.01012345217168331146f, -0.02276319079101085663f, -0.08032483607530593872f, 0.07864140719175338745f, -0.10363741964101791382f, -0.00459309620782732964f, -0.06512995809316635132f, -0.12102250009775161743f, 0.04348675906658172607f, 0.07571816444396972656f, 0.01087803300470113754f, -0.06159992888569831848f, -0.02183040976524353027f, 0.03663998469710350037f, -0.01397726684808731079f, 0.07068808376789093018f, 0.07099326699972152710f, -0.04404433816671371460f, -0.05497907102108001709f, 0.04432193189859390259f, -0.11401463299989700317f, -0.04100110381841659546f, 0.05062047019600868225f, 0.03047762997448444366f, -0.07322917878627777100f, -0.05874501168727874756f, 0.03496485948562622070f, -0.01963671855628490448f, -0.03085523657500743866f, 0.05882422998547554016f, -0.05355846509337425232f, 0.05337579920887947083f, -0.01954938098788261414f, -0.02624671347439289093f, 0.09626118838787078857f, -0.04489442333579063416f, -0.08239517360925674438f, -0.03331628069281578064f, -0.00494416290894150734f, -0.03167502954602241516f, 0.05867512524127960205f, 0.07610261440277099609f, 0.03739682585000991821f, -0.01175647974014282227f, 0.07108341902494430542f, 0.03029941208660602570f, -0.07016127556562423706f, 0.02975731156766414642f, -0.10202386230230331421f, -0.01841958798468112946f, -0.06094152107834815979f, -0.04637807607650756836f, 0.00040387260378338397f, -0.02194412797689437866f, -0.03239232301712036133f, -0.07569544017314910889f, 0.04021774977445602417f, 0.04510948061943054199f, -0.08831591904163360596f, -0.05298865959048271179f, 0.00169266713783144951f, 0.08142485469579696655f, -0.08093279600143432617f, 0.03359075635671615601f, -0.06077386438846588135f, 0.03481180220842361450f, -0.06891511380672454834f, 0.03510576486587524414f, -0.05059729516506195068f, 0.05681366845965385437f, -0.02922701649367809296f, -0.02578892745077610016f, 0.12529842555522918701f, 0.00227132881991565228f, -0.04344671592116355896f, 0.04661387577652931213f, -0.07690635323524475098f, -0.03485104814171791077f, 0.12458413839340209961f, 0.07342573255300521851f, -0.05588165298104286194f, 0.00059241271810606122f, 0.02109802514314651489f, 0.02298689633607864380f, 0.00842039939016103745f, 0.07120840251445770264f, -0.06831846386194229126f, 0.01452786847949028015f, 0.07899107038974761963f, -0.01329189818352460861f, 0.03043662756681442261f, -0.02889501862227916718f, 0.00055033492390066385f, -0.10560395568609237671f, -0.00658531393855810165f, -0.04399784654378890991f, 0.04984894394874572754f, 0.09017804265022277832f, -0.01548925135284662247f, -0.05623028427362442017f, 0.04673050343990325928f, -0.00849142018705606461f, 0.01923624798655509949f, -0.07545911520719528198f, 0.08997233957052230835f, -0.04102919995784759521f, -0.08779995143413543701f, -0.09887105226516723633f, 0.04783970117568969727f, -0.07659434527158737183f, 0.07364811003208160400f, 0.06210108101367950439f, 0.01441538985818624496f, -0.04649946093559265137f, 0.09153513610363006592f, -0.00367480725981295109f, 0.05135839432477951050f, 0.00782501697540283203f, -0.01081436686217784882f, -0.04999691247940063477f, -0.00958838872611522675f},
  {0.06555103510618209839f, 0.02145667932927608490f, 0.17904005944728851318f, 0.03152791038155555725f, -0.04772587865591049194f, -0.12292834371328353882f, 0.02070245519280433655f, -0.08734567463397979736f, 0.02958504483103752136f, -0.06985363364219665527f, 0.02446575835347175598f, -0.07869751006364822388f, -0.05442290380597114563f, 0.08094263821840286255f, 0.09988986700773239136f, 0.08485855162143707275f, -0.10174421221017837524f, -0.07805985212326049805f, 0.03813709691166877747f, 0.05717111006379127502f, 0.09442079812288284302f, 0.00570057937875390053f, -0.04376036673784255981f, 0.07530158013105392456f, -0.10644483566284179688f, 0.05421763285994529724f, -0.16831301152706146240f, -0.02330841682851314545f, -0.22405081987380981445f, -0.03996119275689125061f, 0.32581734657287597656f, 0.05170732364058494568f, -0.01488565560430288315f, -0.19822016358375549316f, 0.04263652116060256958f, -0.22374068200588226318f, -0.07327969372272491455f, 0.05160475522279739380f, 0.01918184943497180939f, 0.13974246382713317871f, 0.00932810362428426743f, -0.18010745942592620850f, 0.18654955923557281494f, 0.06073819845914840698f, 0.02306680381298065186f, -0.00273325247690081596f, -0.00491087418049573898f, 0.07075759023427963257f, -0.07580102980136871338f, 0.00971849076449871063f, -0.12848497927188873291f, -0.23342700302600860596f, 0.01371393539011478424f, 0.01958546973764896393f, 0.01264510769397020340f, -0.02000700496137142181f, 0.17213648557662963867f, 0.00100843550171703100f, 0.03969447314739227295f, 0.00208534207195043564f, 0.05130275338888168335f, -0.14480346441268920898f, -0.03237272799015045166f, 0.30454361438751220703f, 0.23525334894657135010f, -0.22454167902469635010f, -0.02854032069444656372f, -0.01838865317404270172f, 0.02252000570297241211f, -0.01436153054237365723f, 0.06276316195726394653f, -0.15984541177749633789f, -0.04793314263224601746f, -0.02246388420462608337f, -0.00616928329691290855f, -0.09367526322603225708f, 0.05055269971489906311f, -0.01024048775434494019f, -0.03019641712307929993f, -0.05436846613883972168f, 0.05094585567712783813f, 0.01081445720046758652f, 0.11984916031360626221f, -0.16173471510410308838f, -0.05275580659508705139f, 0.07067211717367172241f, 0.05414301529526710510f, 0.00841820240020751953f, 0.25060456991195678711f, 0.01002988498657941818f, 0.06773743033409118652f, -0.06802152842283248901f, 0.06579317897558212280f, -0.04217730835080146790f, -0.06109963729977607727f, -0.01720780879259109497f, 0.03050480410456657410f, 0.01608223654329776764f, 0.03950660303235054016f, -0.08660567551851272583f, -0.21831348538398742676f, -0.13067537546157836914f, 0.14457312226295471191f, -0.05837642028927803040f, -0.04371832683682441711f, -0.07244556397199630737f, 0.03246260061860084534f, -0.06267079710960388184f, -0.00675516389310359955f, 0.05567437782883644104f, -0.01212432049214839935f, 0.17730808258056640625f, -0.00159452937077730894f, -0.05063387751579284668f, 0.29176902770996093750f, 0.10900775343179702759f, 0.02763976715505123138f, 0.00943471770733594894f, 0.01977293565869331360f, -0.01118404138833284378f, -0.16788023710250854492f, -0.01615060120820999146f, 0.08603391051292419434f, 0.12554688751697540283f, -0.12591725587844848633f, -0.18113218247890472412f, 0.03056484274566173553f, 0.12523683905601501465f},
  {-0.06269288063049316406f, 0.13932842016220092773f, -0.05263521894812583923f, 0.03492290526628494263f, -0.01008162833750247955f, 0.06698346883058547974f, 0.05696342140436172485f, -0.01125370711088180542f, 0.07412240654230117798f, -0.13373854756355285645f, 0.04393731430172920227f, -0.04027791693806648254f, 0.05171620100736618042f, -0.00971466768532991409f, -0.13890379667282104492f, 0.03593816608190536499f, -0.06824235618114471436f, -0.07909110188484191895f, -0.05521766468882560730f, 0.06718125939369201660f, 0.04490402713418006897f, 0.08625604957342147827f, -0.11151353269815444946f, -0.05098740011453628540f, -0.05727072432637214661f, -0.05013904720544815063f, 0.01616570726037025452f, 0.05696789920330047607f, -0.14539839327335357666f, 0.07020270079374313354f, 0.09326181560754776001f, 0.00665019499137997627f, -0.02306788228452205658f, -0.07351233065128326416f, -0.00957300979644060135f, 0.04913561791181564331f, 0.13814732432365417480f, 0.12243557721376419067f, -0.02177592553198337555f, 0.00362538383342325687f, 0.10420078784227371216f, 0.25976330041885375977f, 0.05118500813841819763f, -0.04605985432863235474f, 0.10952884703874588013f, 0.20650106668472290039f, 0.11919873207807540894f, -0.05280275270342826843f, 0.07138800621032714844f, -0.05081654340028762817f, -0.11306622624397277832f, 0.08558259159326553345f, -0.03003565408289432526f, -0.15842318534851074219f, 0.04343500360846519470f, 0.07752776890993118286f, 0.13149091601371765137f, 0.01269165705889463425f, 0.04496871307492256165f, 0.12312719225883483887f, 0.02340051718056201935f, 0.01846212334930896759f, 0.03955034539103507996f, 0.14610362052917480469f, 0.06684330105781555176f, -0.09236682206392288208f, 0.09368950873613357544f, 0.12801839411258697510f, 0.11269865930080413818f, -0.04970459640026092529f, 0.11075475811958312988f, -0.03880395367741584778f, 0.00894436798989772797f, 0.04851220920681953430f, -0.06304841488599777222f, -0.03738019615411758423f, 0.07277458161115646362f, -0.34824955463409423828f, -0.06029128283262252808f, 0.01750238426029682159f, 0.03366943821310997009f, -0.01726417243480682373f, -0.00241220113821327686f, -0.04399419203400611877f, -0.10908339917659759521f, 0.09501463174819946289f, 0.17436030507087707520f, -0.06671977043151855469f, 0.11744715273380279541f, -0.09759981185197830200f, 0.20468544960021972656f, 0.02522416412830352783f, -0.10306770354509353638f, 0.07231888175010681152f, 0.14971368014812469482f, -0.02724453806877136230f, 0.05727885663509368896f, 0.07730564475059509277f, 0.01656559109687805176f, -0.15654233098030090332f, 0.00973053462803363800f, 0.11206164211034774780f, 0.04218255728483200073f, 0.03238692879676818848f, 0.02878819033503532410f, 0.02072245441377162933f, 0.04971730336546897888f, 0.07571246474981307983f, 0.07022161781787872314f, 0.09969801455736160278f, -0.10963086038827896118f, 0.23672008514404296875f, 0.10732275992631912231f, -0.09359385073184967041f, -0.00098145985975861549f, -0.03674224391579627991f, -0.02043471485376358032f, -0.04072869196534156799f, 0.12627635896205902100f, -0.04456760361790657043f, -0.02452417835593223572f, 0.09825336933135986328f, -0.07530310004949569702f, 0.05648698285222053528f, -0.17053067684173583984f, -0.04646334424614906311f, -0.05175398290157318115f, 0.00496908742934465408f},
  {0.07583119720220565796f, 0.12306081503629684448f, 0.04795162007212638855f, 0.03229449689388275146f, -0.08341906964778900146f, -0.02099251002073287964f, -0.01510498113930225372f, 0.00788152217864990234f, 0.00337186176329851151f, 0.02961137890815734863f, 0.00382043863646686077f, 0.08107587695121765137f, 0.05888091400265693665f, 0.04476336017251014709f, 0.01821206696331501007f, -0.01997125335037708282f, -0.07113237679004669189f, -0.01927262544631958008f, 0.04694079235196113586f, -0.00294327316805720329f, -0.04718795046210289001f, -0.07041423767805099487f, 0.04885349422693252563f, 0.05401202291250228882f, -0.04330131411552429199f, 0.12873201072216033936f, 0.02819826081395149231f, 0.02445466257631778717f, 0.01459076255559921265f, -0.00873814243823289871f, 0.06149419397115707397f, 0.04556968435645103455f, -0.01248539797961711884f, 0.01954184100031852722f, -0.03327166289091110229f, 0.03313849866390228271f, 0.07298041135072708130f, 0.03211255744099617004f, 0.06862112134695053101f, 0.06380901485681533813f, 0.09801340103149414062f, -0.05546576157212257385f, -0.04523051902651786804f, -0.05720318853855133057f, 0.05654849112033843994f, -0.00246765790507197380f, 0.06755983829498291016f, 0.01736158691346645355f, -0.00025099489721469581f, -0.01086797937750816345f, 0.12520253658294677734f, 0.01020915154367685318f, 0.05627826228737831116f, -0.03905571997165679932f, 0.00154566741548478603f, 0.02511057257652282715f, 0.01628144644200801849f, -0.05975668504834175110f, -0.00455757742747664452f, -0.04172830656170845032f, 0.02207996696233749390f, 0.01529016904532909393f, -0.05059142038226127625f, -0.02080537751317024231f, -0.09600692242383956909f, -0.05823173001408576965f, -0.07174956053495407104f, 0.04281466826796531677f, 0.10524205863475799561f, -0.01471280585974454880f, -0.04926491901278495789f, 0.01151842344552278519f, -0.06665415316820144653f, 0.05746180564165115356f, 0.08515968173742294312f, -0.04714355245232582092f, 0.02048688754439353943f, -0.09883787482976913452f, 0.01526132971048355103f, -0.10625233501195907593f, -0.06930369138717651367f, -0.11009774357080459595f, -0.07167170196771621704f, -0.02261092700064182281f, -0.05826970562338829041f, 0.02172698080539703369f, 0.01112349145114421844f, -0.05759209766983985901f, 0.05267201736569404602f, 0.01466265227645635605f, 0.00732712307944893837f, -0.07544906437397003174f, -0.02303832583129405975f, 0.09684809297323226929f, -0.03054869733750820160f, -0.09227854758501052856f, -0.03203496709465980530f, -0.02964097820222377777f, 0.08758923411369323730f, 0.04100468009710311890f, 0.01749157346785068512f, -0.04749891161918640137f, 0.02920298278331756592f, -0.00679747434332966805f, -0.05733771249651908875f, 0.05534727126359939575f, 0.07749988138675689697f, -0.02275687828660011292f, 0.06106804311275482178f, 0.02285019494593143463f, -0.04289796203374862671f, 0.02610081061720848083f, -0.02984349615871906281f, 0.01780601032078266144f, 0.00321851717308163643f, -0.00199237791821360588f, 0.02387950383126735687f, -0.00062966265249997377f, 0.03404066339135169983f, 0.03033222816884517670f, -0.05730280280113220215f, -0.04993062093853950500f, 0.08173922449350357056f, -0.04679963737726211548f, -0.08537589013576507568f, 0.08647383749485015869f, -0.05373062938451766968f, 0.02283438108861446381f},
  {-0.05152693763375282288f, -0.22240665555000305176f, 0.11900795996189117432f, 0.00072926114080473781f, 0.04424411058425903320f, -0.11110807210206985474f, 0.11788980662822723389f, 0.00200593471527099609f, 0.01324581075459718704f, 0.07809809595346450806f, 0.05105185881257057190f, -0.04144775867462158203f, 0.08083745837211608887f, -0.00706815067678689957f, 0.14031900465488433838f, 0.00066375610185787082f, -0.00536353513598442078f, 0.02326964400708675385f, 0.05747431889176368713f, 0.03056384064257144928f, -0.05198346450924873352f, 0.06273714452981948853f, -0.09366767853498458862f, -0.01571887359023094177f, -0.03736786171793937683f, 0.05548437684774398804f, -0.37884253263473510742f, -0.05199434235692024231f, -0.00453562848269939423f, 0.02513952553272247314f, 0.07867822051048278809f, 0.00588418915867805481f, 0.03666051477193832397f, -0.20595310628414154053f, 0.09200384467840194702f, -0.11424000561237335205f, 0.04535515606403350830f, -0.01837385445833206177f, 0.03854127600789070129f, 0.09433839470148086548f, 0.12090950459241867065f, -0.09343317151069641113f, 0.06287679821252822876f, -0.08664801716804504395f, 0.22448967397212982178f, 0.12003398686647415161f, 0.00656352005898952484f, -0.14057262241840362549f, -0.05029626190662384033f, -0.01970772631466388702f, 0.02182281948626041412f, -0.04628071933984756470f, 0.08706129342317581177f, 0.06518365442752838135f, 0.05441174283623695374f, 0.09420362114906311035f, 0.09348053485155105591f, -0.01427116617560386658f, -0.04423243924975395203f, 0.01324164867401123047f, 0.05209125950932502747f, -0.14667569100856781006f, 0.00430519739165902138f, 0.06852156668901443481f, 0.15261389315128326416f, -0.00355898262932896614f, 0.08178263157606124878f, -0.00176801311317831278f, -0.18787711858749389648f, -0.06383114308118820190f, 0.05372092500329017639f, -0.11627732217311859131f, 0.09794978052377700806f, 0.12030528485774993896f, -0.00598509423434734344f, -0.15284903347492218018f, 0.01814222894608974457f, 0.05482301488518714905f, -0.04665786027908325195f, 0.11830656230449676514f, -0.02121161855757236481f, 0.01408452354371547699f, 0.08799219131469726562f, -0.10832425206899642944f, -0.07508189976215362549f, 0.16139072179794311523f, -0.03190544620156288147f, 0.02389543503522872925f, 0.12834174931049346924f, -0.10239840298891067505f, 0.07118757814168930054f, -0.02134544588625431061f, -0.01526477932929992676f, 0.06467567384243011475f, 0.01758843660354614258f, 0.00348912226036190987f, 0.01722100749611854553f, 0.02113419771194458008f, -0.19859810173511505127f, 0.05123667418956756592f, 0.05638669431209564209f, -0.14750555157661437988f, 0.04727808758616447449f, 0.02070244215428829193f, -0.05656066909432411194f, -0.00225295918062329292f, 0.14431063830852508545f, 0.03180151060223579407f, -0.09500285983085632324f, -0.03406399860978126526f, -0.04409047588706016541f, -0.22186313569545745850f, 0.08268751949071884155f, 0.07627989351749420166f, 0.06611197441816329956f, 0.14811082184314727783f, 0.03696100786328315735f, -0.20383290946483612061f, 0.08781081438064575195f, -0.15409561991691589355f, -0.02111013792455196381f, 0.00652565434575080872f, 0.26645383238792419434f, 0.03531108051538467407f, 0.01587373204529285431f, -0.04974547401070594788f, 0.12338006496429443359f, 0.17682389914989471436f},
  {0.04401681199669837952f, -0.02605364285409450531f, 0.04629930853843688965f, 0.05730476230382919312f, -0.01617291755974292755f, -0.07434767484664916992f, 0.10844141989946365356f, -0.06386886537075042725f, 0.09662861377000808716f, -0.02918097190558910370f, -0.02158271335065364838f, 0.01310340315103530884f, 0.08218228071928024292f, -0.04200282692909240723f, -0.01684897579252719879f, 0.03610482439398765564f, -0.06108876690268516541f, 0.07885698974132537842f, -0.06496202200651168823f, 0.02535219304263591766f, -0.06974092870950698853f, 0.07013136893510818481f, 0.06162919849157333374f, -0.05437362566590309143f, 0.04238473623991012573f, -0.01725983619689941406f, 0.04044324904680252075f, 0.03141563385725021362f, -0.04145549610257148743f, -0.02473850548267364502f, -0.07592096924781799316f, 0.01793868094682693481f, 0.10794509947299957275f, 0.03391081467270851135f, -0.02941045537590980530f, 0.04847497865557670593f, -0.00221862317994236946f, -0.03300990536808967590f, -0.01519268751144409180f, 0.03478075936436653137f, 0.07032080739736557007f, 0.02391650341451168060f, 0.06927469372749328613f, 0.06868164241313934326f, -0.02485922165215015411f, 0.00524440500885248184f, 0.02658932656049728394f, -0.03180785849690437317f, 0.00819818954914808273f, 0.00621906574815511703f, 0.01847890578210353851f, -0.00794350635260343552f, -0.07423692941665649414f, -0.07406868040561676025f, 0.01613916084170341492f, 0.05037941411137580872f, -0.03264753893017768860f, -0.00242171506397426128f, 0.00701134465634822845f, 0.03347201645374298096f, -0.05837219208478927612f, -0.09347970783710479736f, -0.03669729083776473999f, -0.08093754947185516357f, 0.00924938917160034180f, 0.00459554232656955719f, 0.00029513082699850202f, -0.02729799039661884308f, -0.13171239197254180908f, 0.07043325901031494141f, -0.03523170948028564453f, 0.07379538565874099731f, 0.03928124904632568359f, 0.07929962128400802612f, -0.04610389098525047302f, -0.04065711796283721924f, 0.00454298825934529305f, -0.01532867830246686935f, -0.06267196685075759888f, -0.03553563728928565979f, -0.05461562052369117737f, -0.04916833341121673584f, 0.03246938064694404602f, 0.06094914674758911133f, -0.13203117251396179199f, -0.04259259253740310669f, -0.00434328150004148483f, 0.01336724031716585159f, 0.03574908152222633362f, -0.07437741756439208984f, 0.01211305800825357437f, 0.07033568620681762695f, -0.04507080093026161194f, 0.07033046334981918335f, -0.05207122862339019775f, -0.04230279102921485901f, -0.07530622929334640503f, -0.07542435079813003540f, 0.01509875711053609848f, 0.03035781532526016235f, 0.09695021063089370728f, -0.00561579875648021698f, 0.05199801921844482422f, 0.03361397609114646912f, 0.00936800148338079453f, -0.03123370558023452759f, -0.04262551665306091309f, 0.05670096725225448608f, -0.07941658049821853638f, 0.07477281242609024048f, 0.02375797554850578308f, -0.03423641994595527649f, -0.06360222399234771729f, -0.04700966924428939819f, -0.16629908978939056396f, 0.02140609547495841980f, 0.00249640131369233131f, 0.01661642827093601227f, 0.07886829227209091187f, 0.00201056036166846752f, 0.05353448539972305298f, -0.10423055291175842285f, 0.02883184142410755157f, -0.04435712471604347229f, -0.02508749999105930328f, -0.06186158955097198486f, 0.00607941718772053719f, 0.04913318157196044922f},
