// This file is computer-generated by onnx2c 
// Command Line: onnx2c/build/onnx2c -d batch_size:1 --no-globals --func-name linket_decoder_forward out/models/m0_medium/decoder.onnx

// onnx2c
// Git Branch: feature/func-name
// Git Commit: cfcce19

// ONNX Model
// Produced By: pytorch, version 2.10.0+cu130
// ONNX IR version: 20

#include <float.h>
#include <math.h>
#include <stdbool.h>
#include <stdint.h>
#include <string.h>
#include <stdlib.h>

#define MAX(X,Y) ( X > Y ? X : Y)
#define MIN(X,Y) ( X < Y ? X : Y)
#define CLIP(X,L) ( MAX(MIN(X,L), -L) )

#if __STDC_VERSION__ < 199901L
#define FUNC_PREFIX
#else
#define FUNC_PREFIX static inline
#endif

static const float tensor__Decoder__layers_0_weight[128][20] = 
{
  {0.04411853477358818054f, 0.03832919523119926453f, -0.03346358239650726318f, 0.07079382985830307007f, 0.13419245183467864990f, 0.10196777433156967163f, -0.00950046628713607788f, -0.13969993591308593750f, 0.07766745239496231079f, 0.04875992238521575928f, 0.05826688930392265320f, -0.09847611188888549805f, -0.05784377455711364746f, 0.05333570018410682678f, 0.04308406263589859009f, -0.10926989465951919556f, 0.01497569680213928223f, -0.03301617130637168884f, -0.00086624501273036003f, -0.03547294065356254578f},
  {0.02739155292510986328f, 0.03109228052198886871f, 0.13918155431747436523f, -0.17247435450553894043f, -0.16745959222316741943f, -0.06042962148785591125f, 0.11372973024845123291f, -0.01223756279796361923f, -0.07844302058219909668f, 0.01019414979964494705f, 0.09734329581260681152f, -0.01923445425927639008f, -0.04318039491772651672f, 0.00615691253915429115f, 0.19880379736423492432f, -0.14652571082115173340f, -0.01878123730421066284f, 0.18979038298130035400f, 0.03567830845713615417f, -0.05149491131305694580f},
  {-0.02502100169658660889f, -0.04402132704854011536f, -0.05982282385230064392f, -0.18612056970596313477f, 0.07207841426134109497f, 0.13159450888633728027f, 0.02299269847571849823f, 0.18625861406326293945f, 0.12983943521976470947f, -0.03994548693299293518f, -0.04553270339965820312f, 0.12807276844978332520f, 0.03266713023185729980f, 0.00873901508748531342f, -0.11854062974452972412f, -0.07313248515129089355f, -0.04600895941257476807f, -0.02687757648527622223f, -0.07019626349210739136f, -0.08244019746780395508f},
  {-0.07436229288578033447f, -0.03683155402541160583f, 0.11011998355388641357f, -0.01492497790604829788f, 0.08817219734191894531f, 0.00689600221812725067f, -0.01040430739521980286f, 0.00789574906229972839f, 0.00276039005257189274f, 0.07194717228412628174f, 0.03817976266145706177f, 0.01316863391548395157f, 0.02924999594688415527f, -0.09743808209896087646f, -0.07631978392601013184f, -0.00270394678227603436f, 0.04543017968535423279f, 0.08163290470838546753f, -0.08100845664739608765f, -0.00814594794064760208f},
  {0.01957049779593944550f, -0.07441344857215881348f, 0.01000727619975805283f, -0.05696242675185203552f, 0.01943407580256462097f, -0.02062955684959888458f, 0.10635852813720703125f, 0.04555101320147514343f, -0.03594555333256721497f, -0.07156152278184890747f, 0.03497483581304550171f, -0.00500507047399878502f, 0.15532319247722625732f, 0.12288066744804382324f, 0.06525585800409317017f, 0.03721047565340995789f, 0.13708281517028808594f, -0.04900285974144935608f, -0.01986443437635898590f, 0.00909776892513036728f},
  {-0.13704073429107666016f, -0.08681618422269821167f, 0.06472730636596679688f, -0.19738246500492095947f, 0.23312568664550781250f, 0.00419596303254365921f, 0.14807225763797760010f, 0.18377086520195007324f, 0.05132439360022544861f, 0.01791214384138584137f, 0.13541176915168762207f, -0.00199156394228339195f, -0.06769192218780517578f, 0.13932073116302490234f, 0.04993317648768424988f, -0.22956854104995727539f, 0.06965901702642440796f, -0.10337802022695541382f, 0.16245982050895690918f, 0.13953855633735656738f},
  {0.10242308676242828369f, 0.03291165828704833984f, -0.15979221463203430176f, 0.06083878874778747559f, -0.05555834248661994934f, 0.02749863825738430023f, 0.03220243006944656372f, -0.05523156002163887024f, -0.00162891112267971039f, 0.12043330818414688110f, 0.15492147207260131836f, -0.09154376387596130371f, -0.14108058810234069824f, -0.13641987740993499756f, -0.18692393600940704346f, -0.02581330947577953339f, -0.00483799306675791740f, 0.05549104511737823486f, -0.11772572249174118042f, -0.01439963001757860184f},
  {0.00052251794841140509f, -0.04103628173470497131f, -0.05368848517537117004f, -0.03329702466726303101f, 0.11619681119918823242f, 0.00654602656140923500f, -0.08867034316062927246f, -0.15584303438663482666f, -0.10064867883920669556f, 0.16136796772480010986f, -0.15648102760314941406f, 0.11464187502861022949f, -0.05865299329161643982f, 0.03560233116149902344f, -0.17727822065353393555f, 0.05346657708287239075f, -0.01763525977730751038f, 0.03261424601078033447f, -0.00454371701925992966f, 0.09293425828218460083f},
  {-0.07438020408153533936f, -0.04977847635746002197f, -0.16128392517566680908f, -0.01815384812653064728f, -0.18372672796249389648f, -0.08849538862705230713f, -0.10051646828651428223f, -0.00581605732440948486f, -0.11803712695837020874f, 0.08568743616342544556f, 0.13358528912067413330f, -0.00980811286717653275f, 0.05618399009108543396f, 0.05930655449628829956f, 0.21619023382663726807f, -0.07136286050081253052f, -0.09784347563982009888f, 0.01609747670590877533f, 0.06967984884977340698f, 0.13445666432380676270f},
  {-0.12056176364421844482f, -0.01753393188118934631f, -0.05326841771602630615f, 0.11308403313159942627f, 0.16135947406291961670f, 0.08511703461408615112f, -0.07185132801532745361f, -0.02645393647253513336f, -0.03585464134812355042f, 0.11074654757976531982f, 0.05203119292855262756f, 0.10809118300676345825f, 0.04883114248514175415f, 0.01077628042548894882f, -0.03137778863310813904f, 0.07787013798952102661f, -0.04961062222719192505f, 0.05046779662370681763f, -0.06444237381219863892f, -0.02708628028631210327f},
  {0.03182307630777359009f, -0.06416478008031845093f, 0.10043644160032272339f, 0.09258875250816345215f, 0.01074035465717315674f, 0.02489880472421646118f, 0.00400494551286101341f, 0.17082524299621582031f, 0.00552796386182308197f, -0.17315095663070678711f, 0.12134971469640731812f, -0.07637789845466613770f, -0.06537356227636337280f, -0.07950367778539657593f, 0.04548878222703933716f, -0.13327640295028686523f, 0.05514339730143547058f, 0.13493697345256805420f, -0.15904012322425842285f, 0.03153001144528388977f},
  {-0.00794793572276830673f, -0.06924158334732055664f, 0.02865424193441867828f, 0.06040545180439949036f, -0.02468955330550670624f, -0.01243069116026163101f, 0.02701205946505069733f, 0.06847928464412689209f, -0.03232342749834060669f, -0.06887996941804885864f, 0.05994564667344093323f, 0.00749865034595131874f, -0.11196934431791305542f, -0.08611099421977996826f, -0.03888376057147979736f, 0.01329855248332023621f, 0.05013660714030265808f, -0.03907113522291183472f, 0.04329210147261619568f, -0.00925172585994005203f},
  {0.14644218981266021729f, 0.04768670350313186646f, -0.08949844539165496826f, 0.07051613181829452515f, 0.14008860290050506592f, -0.08335229009389877319f, -0.04482948780059814453f, 0.10213805735111236572f, 0.00939619261771440506f, -0.09524632245302200317f, -0.04131602868437767029f, -0.01951143145561218262f, -0.04902331903576850891f, 0.16446305811405181885f, -0.12417908757925033569f, 0.01314636413007974625f, -0.01756211183965206146f, -0.10205422341823577881f, 0.08815285563468933105f, -0.07422053813934326172f},
  {-0.10895571112632751465f, -0.11331464350223541260f, -0.01139859668910503387f, 0.12657395005226135254f, 0.05741612985730171204f, -0.07191958278417587280f, 0.00612701894715428352f, 0.11266533285379409790f, -0.15425200760364532471f, -0.03558792546391487122f, -0.10476429760456085205f, -0.05613183602690696716f, 0.03328623250126838684f, 0.03116092830896377563f, -0.07554111629724502563f, -0.10527423024177551270f, -0.00178468471858650446f, -0.12661515176296234131f, 0.09772940725088119507f, 0.06397378444671630859f},
  {-0.02562463097274303436f, -0.00758651411160826683f, 0.00522851292043924332f, -0.00098384695593267679f, -0.14302429556846618652f, -0.06995230168104171753f, -0.18051065504550933838f, 0.15138737857341766357f, 0.09616095572710037231f, -0.08065181970596313477f, -0.06274387985467910767f, -0.12400872260332107544f, -0.08226850628852844238f, 0.06557196378707885742f, -0.00590138137340545654f, 0.02752328664064407349f, -0.04596316441893577576f, 0.08301787078380584717f, -0.04739886149764060974f, -0.05443353578448295593f},
  {0.06471226364374160767f, -0.00405749445781111717f, 0.07097761332988739014f, 0.10602924972772598267f, 0.10020980238914489746f, 0.01380022615194320679f, -0.04059776663780212402f, 0.14413321018218994141f, 0.03969649970531463623f, -0.00114938954357057810f, -0.02181987836956977844f, 0.07205998152494430542f, 0.00639307126402854919f, 0.06507112085819244385f, 0.06334637850522994995f, -0.11036200076341629028f, 0.02178156562149524689f, 0.04656455293297767639f, 0.02326912246644496918f, -0.09465008229017257690f},
  {0.02461184933781623840f, 0.02943062968552112579f, 0.01664517261087894440f, -0.00737168220803141594f, 0.07389076799154281616f, -0.01321738120168447495f, -0.02850627526640892029f, 0.12558870017528533936f, -0.05598152428865432739f, -0.03735674545168876648f, 0.15051840245723724365f, -0.07892273366451263428f, -0.02903964184224605560f, -0.03612302616238594055f, 0.06375833600759506226f, 0.07243043184280395508f, 0.11849769204854965210f, 0.06776259094476699829f, 0.00840446725487709045f, 0.03262060135602951050f},
  {0.04834775254130363464f, 0.04413121566176414490f, -0.11897133290767669678f, -0.03870697319507598877f, -0.07579942792654037476f, 0.07873299717903137207f, 0.16574504971504211426f, 0.19909010827541351318f, 0.01214107498526573181f, -0.10503502190113067627f, -0.09593458473682403564f, -0.11226056516170501709f, -0.09631109982728958130f, 0.08990763127803802490f, -0.11667434126138687134f, -0.12905134260654449463f, -0.17839249968528747559f, 0.03444417938590049744f, 0.13957068324089050293f, -0.17750531435012817383f},
  {-0.15863704681396484375f, -0.16633924841880798340f, 0.04560477286577224731f, -0.18436166644096374512f, -0.02814845927059650421f, 0.02158734388649463654f, 0.03648739680647850037f, -0.17337109148502349854f, -0.00255180918611586094f, 0.21556508541107177734f, 0.02130925282835960388f, 0.06868474930524826050f, 0.05131479352712631226f, -0.03689523413777351379f, -0.14512628316879272461f, 0.19679111242294311523f, 0.13102288544178009033f, 0.19622910022735595703f, 0.00203299405984580517f, -0.06233121082186698914f},
  {0.12033028155565261841f, -0.08240236341953277588f, 0.04321192950010299683f, -0.02252721413969993591f, 0.00438036257401108742f, -0.05590165778994560242f, 0.10029900819063186646f, -0.03100262396037578583f, 0.08372818678617477417f, -0.05096716433763504028f, -0.06877234578132629395f, 0.05515769124031066895f, 0.04064932465553283691f, 0.07970941811800003052f, 0.05574240162968635559f, 0.12414490431547164917f, -0.08354152739048004150f, -0.15936966240406036377f, -0.15247812867164611816f, -0.22351747751235961914f},
  {0.05824600532650947571f, -0.10515204817056655884f, -0.00815417990088462830f, -0.01520245522260665894f, -0.00886599626392126083f, -0.06563354283571243286f, -0.08732018619775772095f, -0.09768947213888168335f, 0.11170206218957901001f, 0.02893772535026073456f, 0.10377371311187744141f, -0.02505116350948810577f, -0.03455108031630516052f, 0.04506506025791168213f, 0.00142587628215551376f, -0.05105206742882728577f, 0.07151366770267486572f, 0.00109118781983852386f, 0.02966017276048660278f, 0.00460433401167392731f},
  {-0.14366611838340759277f, -0.01891223154962062836f, 0.03878386691212654114f, 0.06724832206964492798f, -0.02933076955378055573f, -0.03830519318580627441f, -0.03880491852760314941f, 0.01256311032921075821f, 0.00993312336504459381f, -0.12748613953590393066f, 0.06009383872151374817f, 0.21418839693069458008f, 0.03355083987116813660f, -0.17506934702396392822f, -0.01866693980991840363f, -0.07604204863309860229f, 0.01941783726215362549f, -0.00075269798981025815f, 0.07604593783617019653f, 0.03242181986570358276f},
  {0.09041149169206619263f, 0.16132697463035583496f, 0.02913677319884300232f, -0.13387413322925567627f, 0.04705957323312759399f, -0.06494650244712829590f, 0.01275032479315996170f, 0.10875388979911804199f, -0.13992989063262939453f, -0.22221553325653076172f, -0.02017953991889953613f, -0.03854881227016448975f, 0.06974468380212783813f, 0.00073885510209947824f, -0.10173815488815307617f, -0.02137183584272861481f, 0.03080410510301589966f, 0.12890206277370452881f, 0.12220501154661178589f, -0.03568731620907783508f},
  {-0.00770918838679790497f, 0.09262524545192718506f, 0.05844363942742347717f, 0.07565151900053024292f, -0.06757256388664245605f, 0.06286424398422241211f, 0.02437347173690795898f, 0.00344090163707733154f, 0.03821856901049613953f, 0.12884417176246643066f, 0.10179252177476882935f, -0.06506468355655670166f, -0.03984924033284187317f, 0.02016562223434448242f, 0.06047471612691879272f, -0.06201665475964546204f, -0.01527983415871858597f, -0.02729419060051441193f, 0.08278800547122955322f, -0.01550246775150299072f},
  {0.02578342333436012268f, 0.10686875134706497192f, 0.11502515524625778198f, 0.01490550767630338669f, 0.10112001001834869385f, -0.17201815545558929443f, -0.07875715196132659912f, 0.01885560899972915649f, 0.13897633552551269531f, 0.00970348995178937912f, 0.08567712455987930298f, -0.04766019806265830994f, -0.06908940523862838745f, -0.17048358917236328125f, -0.10791671276092529297f, 0.01612715423107147217f, -0.09883970022201538086f, 0.06943649798631668091f, -0.11825463175773620605f, -0.05674447864294052124f},
  {0.00556415086612105370f, 0.01653251424431800842f, 0.04794818907976150513f, -0.10281793028116226196f, -0.01191355381160974503f, 0.06939399987459182739f, -0.01507659815251827240f, -0.09440150111913681030f, -0.10229803621768951416f, 0.08519366383552551270f, -0.13730879127979278564f, -0.07518201321363449097f, -0.10077947378158569336f, -0.19038641452789306641f, 0.13196092844009399414f, -0.17039459943771362305f, -0.08865565806627273560f, -0.05642056092619895935f, -0.04546470940113067627f, 0.09218943119049072266f},
  {0.06119827926158905029f, 0.10524319857358932495f, 0.09896994382143020630f, 0.02683039754629135132f, 0.11074133217334747314f, 0.05592238157987594604f, 0.09207677096128463745f, 0.19651286303997039795f, -0.07727046310901641846f, 0.15541973710060119629f, -0.13946641981601715088f, -0.16776992380619049072f, -0.04756095632910728455f, 0.03142770379781723022f, -0.17852868139743804932f, 0.08872438222169876099f, -0.12125510722398757935f, 0.18398101627826690674f, -0.20193876326084136963f, 0.01299264840781688690f},
  {0.07430166751146316528f, -0.05047255754470825195f, -0.09723117202520370483f, -0.01830935105681419373f, -0.04732568189501762390f, -0.03737831115722656250f, -0.02312632091343402863f, 0.08402939140796661377f, 0.13959628343582153320f, 0.04519067704677581787f, -0.05739406123757362366f, -0.16138049960136413574f, 0.11362713575363159180f, 0.06641606241464614868f, -0.05845988169312477112f, 0.04170938581228256226f, 0.08666450530290603638f, -0.14718300104141235352f, -0.08621326833963394165f, 0.07557708024978637695f},
  {0.09791546314954757690f, 0.12687341868877410889f, 0.10148407518863677979f, 0.11058127135038375854f, 0.03901420533657073975f, 0.04939423128962516785f, -0.02730792760848999023f, -0.12586455047130584717f, -0.07667534798383712769f, -0.19179408252239227295f, -0.03690008074045181274f, 0.00575595675036311150f, 0.02137649431824684143f, -0.06119944900274276733f, 0.07237320393323898315f, 0.08981745690107345581f, -0.03896434977650642395f, 0.02789644896984100342f, 0.05312408879399299622f, 0.11299826949834823608f},
  {-0.20066379010677337646f, -0.03370621427893638611f, 0.05208126828074455261f, -0.15944908559322357178f, -0.05231762304902076721f, -0.04790803790092468262f, 0.11270037293434143066f, -0.11692877858877182007f, -0.06764680147171020508f, 0.01657857559621334076f, -0.13005271553993225098f, 0.07363235950469970703f, -0.03425136208534240723f, 0.19849382340908050537f, -0.21564485132694244385f, 0.19187547266483306885f, 0.00735003734007477760f, -0.00271917204372584820f, -0.07895237207412719727f, -0.12404898554086685181f},
  {0.15801313519477844238f, -0.11105222254991531372f, -0.02034325711429119110f, -0.01223637443035840988f, 0.06779467314481735229f, 0.01605886220932006836f, 0.05957540124654769897f, -0.03132761269807815552f, -0.06275827437639236450f, -0.08400245755910873413f, 0.01779570989310741425f, 0.02028154581785202026f, 0.10990215092897415161f, 0.01885269209742546082f, -0.14179383218288421631f, 0.03104364871978759766f, -0.12953829765319824219f, 0.00849366933107376099f, -0.09000108391046524048f, 0.07899431884288787842f},
  {0.00809797924011945724f, 0.05615510791540145874f, -0.18381056189537048340f, -0.07298999279737472534f, -0.10109549760818481445f, 0.11009293049573898315f, 0.06250431388616561890f, 0.13359151780605316162f, 0.01978474296629428864f, -0.08018028736114501953f, 0.02310426719486713409f, 0.13982541859149932861f, 0.12733501195907592773f, -0.16082367300987243652f, -0.04648566246032714844f, 0.18093016743659973145f, -0.01469474285840988159f, 0.04552511498332023621f, -0.11684819310903549194f, 0.16970649361610412598f},
  {0.16574604809284210205f, 0.00790542177855968475f, -0.11052524298429489136f, 0.14068551361560821533f, -0.02998160757124423981f, -0.01833787187933921814f, 0.05761653557419776917f, 0.13085380196571350098f, 0.05497923865914344788f, 0.08116894960403442383f, 0.17408384382724761963f, 0.06432901322841644287f, -0.05657824873924255371f, 0.03762763366103172302f, 0.13039807975292205811f, -0.06828926503658294678f, 0.03997225314378738403f, -0.04879852011799812317f, 0.06639656424522399902f, 0.11218047142028808594f},
  {0.09393952041864395142f, -0.24819356203079223633f, 0.03409590572118759155f, 0.14013653993606567383f, -0.02932815626263618469f, -0.08739564567804336548f, 0.07231333106756210327f, -0.12886123359203338623f, 0.08788315951824188232f, -0.07997081428766250610f, -0.36953532695770263672f, -0.09071840345859527588f, -0.02469807118177413940f, -0.15939022600650787354f, -0.16250436007976531982f, 0.09878146648406982422f, 0.05204156041145324707f, 0.07611804455518722534f, 0.01477588620036840439f, 0.07714594155550003052f},
  {-0.11959547549486160278f, -0.11002533882856369019f, -0.15667907893657684326f, -0.17562122642993927002f, 0.09018125385046005249f, 0.13912676274776458740f, -0.10560199618339538574f, 0.10468411445617675781f, -0.15424296259880065918f, -0.04531138017773628235f, -0.06289292871952056885f, 0.00614159228280186653f, -0.07860480993986129761f, 0.11485280096530914307f, 0.02772777713835239410f, -0.03255783021450042725f, 0.12709297239780426025f, 0.10058551281690597534f, -0.15443167090415954590f, 0.06718593835830688477f},
  {0.06683523952960968018f, 0.13692890107631683350f, -0.08762598037719726562f, 0.01198867149651050568f, -0.12348055839538574219f, 0.06862557679414749146f, 0.06706946343183517456f, 0.11321679502725601196f, 0.07985941320657730103f, -0.14834946393966674805f, -0.04293905943632125854f, -0.06385666877031326294f, -0.08922421932220458984f, -0.09368654340505599976f, -0.04549113288521766663f, -0.11491250246763229370f, 0.16900180280208587646f, -0.07148896157741546631f, -0.09115491807460784912f, 0.12281199544668197632f},
  {0.04688464105129241943f, -0.01240594219416379929f, 0.10542251169681549072f, -0.15068346261978149414f, 0.11403813213109970093f, -0.01768678426742553711f, -0.07721538841724395752f, 0.11193740367889404297f, 0.00860603433102369308f, 0.10420441627502441406f, -0.03851259127259254456f, -0.01474579423666000366f, 0.02311215177178382874f, -0.10292763262987136841f, 0.05740443617105484009f, 0.12202110886573791504f, -0.13764600455760955811f, -0.01327542681246995926f, -0.01780411787331104279f, 0.13410227000713348389f},
  {-0.06910595297813415527f, -0.08105038106441497803f, -0.11891921609640121460f, 0.11364581435918807983f, 0.07690150290727615356f, 0.01655697263777256012f, 0.05167192965745925903f, -0.03066128492355346680f, 0.07296446710824966431f, 0.10031373053789138794f, -0.14916002750396728516f, 0.09237781912088394165f, 0.01022961642593145370f, -0.05732114240527153015f, -0.13015976548194885254f, 0.00606398098170757294f, 0.08162868022918701172f, -0.13858437538146972656f, -0.00781659502536058426f, 0.00954597722738981247f},
  {-0.07840229570865631104f, 0.01361640542745590210f, 0.04945243895053863525f, -0.00063716399017721415f, -0.06030494347214698792f, -0.12958581745624542236f, -0.05195569619536399841f, 0.07013223320245742798f, 0.03557856380939483643f, -0.04931642860174179077f, 0.03008503839373588562f, -0.02507338859140872955f, -0.12186387926340103149f, 0.06018177047371864319f, -0.11861697584390640259f, 0.08196213841438293457f, -0.03088023327291011810f, 0.03244949877262115479f, 0.03682700172066688538f, -0.05507348850369453430f},
  {0.02739320322871208191f, -0.15173219144344329834f, -0.04068513214588165283f, -0.02779146656394004822f, -0.01051711943000555038f, 0.00989094283431768417f, -0.06122518330812454224f, -0.05613744258880615234f, -0.10746836662292480469f, 0.01949731819331645966f, 0.03850460797548294067f, 0.00254345056600868702f, -0.07763681560754776001f, 0.00618950882926583290f, 0.06139463186264038086f, 0.02465351112186908722f, -0.06659686565399169922f, 0.04501186311244964600f, 0.03576841205358505249f, -0.11437758803367614746f},
  {0.10042246431112289429f, 0.03635742515325546265f, 0.02265246398746967316f, 0.08465866744518280029f, 0.00857393536716699600f, -0.03936200961470603943f, 0.00469494890421628952f, 0.03721781447529792786f, 0.00308231590315699577f, -0.01408832333981990814f, 0.16360983252525329590f, -0.18343083560466766357f, 0.03064903058111667633f, 0.12475501745939254761f, -0.15745164453983306885f, -0.19150960445404052734f, -0.00673001725226640701f, 0.04719636589288711548f, -0.06393685936927795410f, -0.04362597689032554626f},
  {0.16653694212436676025f, 0.08154655992984771729f, 0.07262044399976730347f, -0.12007413804531097412f, 0.02962744608521461487f, -0.06573965400457382202f, -0.05651544779539108276f, -0.00024752225726842880f, 0.13737662136554718018f, -0.06482803821563720703f, 0.11357761174440383911f, 0.01928644068539142609f, -0.00616367580369114876f, -0.03566991165280342102f, -0.08827098459005355835f, 0.12777723371982574463f, -0.20776975154876708984f, -0.01802610233426094055f, -0.13732482492923736572f, -0.05625257268548011780f},
  {0.09854215383529663086f, 0.01762582547962665558f, -0.05533441901206970215f, -0.06943234801292419434f, -0.04695875942707061768f, 0.09902238100767135620f, 0.17559236288070678711f, 0.13755953311920166016f, 0.14871308207511901855f, -0.05742173269391059875f, -0.00773090217262506485f, -0.09555628150701522827f, 0.00947762001305818558f, -0.06286004185676574707f, 0.14297099411487579346f, -0.04643550515174865723f, -0.13773719966411590576f, -0.10885912179946899414f, 0.10920415073633193970f, -0.08119252324104309082f},
  {-0.07348467409610748291f, 0.02436285652220249176f, 0.08969510346651077271f, -0.01483659446239471436f, -0.08445690572261810303f, 0.10010227560997009277f, 0.03148207813501358032f, 0.07103539258241653442f, -0.09140671789646148682f, -0.10036216676235198975f, 0.01778991147875785828f, 0.05914852768182754517f, 0.06967163085937500000f, -0.08457756042480468750f, 0.08318237960338592529f, -0.01891549304127693176f, 0.09287924319505691528f, -0.01540810801088809967f, 0.03045023046433925629f, -0.09446007758378982544f},
  {0.00620539113879203796f, 0.03727734833955764771f, -0.10973744094371795654f, 0.12979984283447265625f, 0.00329450634308159351f, 0.06243056803941726685f, 0.01592583581805229187f, 0.02921037748456001282f, -0.05225729942321777344f, -0.13118769228458404541f, 0.06144382804632186890f, -0.03372083231806755066f, 0.06180800870060920715f, -0.10471857339143753052f, -0.08771468698978424072f, 0.12547585368156433105f, -0.03739204630255699158f, 0.09401122480630874634f, 0.08935461193323135376f, -0.16045521199703216553f},
  {-0.17147366702556610107f, 0.07834797352552413940f, 0.05325700342655181885f, -0.10160510241985321045f, -0.12182764708995819092f, -0.08777997642755508423f, 0.00794189050793647766f, 0.24426302313804626465f, -0.08962716907262802124f, 0.11085833609104156494f, 0.13379167020320892334f, 0.06260991841554641724f, 0.01378645654767751694f, 0.12906081974506378174f, -0.11951028555631637573f, -0.20409764349460601807f, -0.05798447504639625549f, 0.04253627359867095947f, 0.00784201640635728836f, -0.08172836899757385254f},
  {-0.00467276107519865036f, -0.04531564563512802124f, -0.06128012016415596008f, -0.11775892227888107300f, 0.04858739674091339111f, -0.13514593243598937988f, -0.07035969942808151245f, -0.05163728073239326477f, 0.05885770544409751892f, 0.13382466137409210205f, 0.02618560381233692169f, -0.10002845525741577148f, -0.24604712426662445068f, 0.03761868923902511597f, -0.08665219694375991821f, 0.03732108697295188904f, 0.10106860846281051636f, 0.01896452344954013824f, -0.01920626126229763031f, -0.03409320488572120667f},
  {0.08841575682163238525f, 0.13851808011531829834f, 0.17846196889877319336f, -0.00141953094862401485f, 0.02575267851352691650f, 0.10824836045503616333f, -0.02717450633645057678f, 0.02629083953797817230f, 0.09821667522192001343f, -0.00999903026968240738f, 0.02436707541346549988f, 0.05264626070857048035f, -0.02212667837738990784f, -0.09377931803464889526f, 0.02344595454633235931f, -0.10229524970054626465f, -0.03542565926909446716f, -0.04408050701022148132f, -0.02742166444659233093f, 0.09032038599252700806f},
  {0.10749457776546478271f, -0.07757807523012161255f, -0.08154715597629547119f, 0.13842701911926269531f, -0.12667603790760040283f, -0.05892552435398101807f, 0.00616876129060983658f, 0.10186018794775009155f, -0.12487821280956268311f, 0.07729101926088333130f, -0.01717822812497615814f, -0.11751389503479003906f, -0.01115505397319793701f, -0.01590598560869693756f, -0.03694240748882293701f, -0.00574333453550934792f, -0.12022290378808975220f, 0.03313237428665161133f, 0.11941304802894592285f, -0.05667636170983314514f},
  {-0.16615597903728485107f, -0.13002783060073852539f, -0.13899560272693634033f, -0.00362815358676016331f, -0.02766068838536739349f, -0.19931599497795104980f, 0.07050437480211257935f, -0.04224068298935890198f, 0.05480104684829711914f, -0.02264216355979442596f, -0.05306825041770935059f, -0.04980346560478210449f, 0.04621092230081558228f, -0.14441469311714172363f, 0.23895390331745147705f, -0.01922832988202571869f, -0.01857034116983413696f, 0.14705890417098999023f, -0.03961083665490150452f, -0.01658529229462146759f},
  {0.09307353198528289795f, 0.02978612110018730164f, 0.09584568440914154053f, -0.03007490746676921844f, 0.17235079407691955566f, 0.07134902477264404297f, 0.11268514394760131836f, -0.11070265620946884155f, -0.02422660402953624725f, 0.07020640373229980469f, 0.00216983049176633358f, -0.12096623331308364868f, -0.02292334660887718201f, -0.00356009253300726414f, -0.12079572677612304688f, -0.02859280817210674286f, 0.08555605262517929077f, 0.07432401925325393677f, 0.01109508890658617020f, -0.08781673014163970947f},
  {-0.07046113163232803345f, -0.12602759897708892822f, 0.02787754312157630920f, 0.00848921760916709900f, 0.01592293009161949158f, 0.00694122444838285446f, -0.10628439486026763916f, -0.01504090335220098495f, 0.03477168455719947815f, -0.05072703212499618530f, 0.07180660218000411987f, -0.08549612760543823242f, -0.05991731956601142883f, -0.06900744140148162842f, 0.00106320169288665056f, -0.00056098616914823651f, 0.08499806374311447144f, -0.01977907121181488037f, -0.05520330369472503662f, -0.00003768846727325581f},
  {-0.17423017323017120361f, 0.15165807306766510010f, 0.04101275652647018433f, 0.08074595034122467041f, 0.07649283111095428467f, 0.07669185101985931396f, 0.08502523601055145264f, -0.02333215996623039246f, 0.15781326591968536377f, 0.05059919506311416626f, -0.04746205359697341919f, -0.00299769500270485878f, 0.07383755594491958618f, -0.03310962021350860596f, 0.08880076557397842407f, 0.10137688368558883667f, -0.14800095558166503906f, 0.05394423753023147583f, 0.08080253005027770996f, 0.11941668391227722168f},
  {0.10959808528423309326f, 0.02307847142219543457f, -0.12735420465469360352f, -0.03453806042671203613f, -0.06920649111270904541f, -0.16016013920307159424f, -0.02827597036957740784f, 0.14828771352767944336f, 0.05575571954250335693f, -0.01135716587305068970f, 0.05297539755702018738f, -0.01345598418265581131f, 0.09104989469051361084f, -0.03327384591102600098f, 0.02619007043540477753f, 0.10502067208290100098f, -0.04760363325476646423f, 0.00259071099571883678f, -0.07558268308639526367f, 0.09362948685884475708f},
  {0.05719594657421112061f, 0.14521254599094390869f, -0.14051756262779235840f, 0.04440465196967124939f, 0.08793814480304718018f, -0.05040889605879783630f, -0.06429593265056610107f, 0.02918837405741214752f, -0.02469484880566596985f, -0.17818850278854370117f, 0.09403414279222488403f, -0.02498113736510276794f, 0.10361139476299285889f, 0.02237931452691555023f, -0.05350730568170547485f, 0.00588066689670085907f, -0.03567897900938987732f, -0.08684737980365753174f, -0.12159354239702224731f, -0.05165561288595199585f},
  {-0.09264472126960754395f, 0.20219117403030395508f, -0.11378672719001770020f, -0.13635487854480743408f, 0.02852173335850238800f, 0.04625573381781578064f, -0.02406719140708446503f, -0.12089211493730545044f, 0.04885657504200935364f, -0.06907388567924499512f, 0.03129664808511734009f, -0.16546440124511718750f, -0.10906753689050674438f, -0.11033313721418380737f, 0.14447505772113800049f, -0.18310758471488952637f, 0.09236852824687957764f, -0.02784832380712032318f, -0.09726867824792861938f, -0.07021103054285049438f},
  {-0.09078043699264526367f, 0.03291226550936698914f, -0.09033331274986267090f, 0.01204235386103391647f, -0.14944067597389221191f, 0.04707234725356101990f, 0.06865143775939941406f, -0.16767965257167816162f, 0.00953749846667051315f, 0.00187141611240804195f, -0.04177704453468322754f, 0.09367341548204421997f, 0.06590041518211364746f, 0.05863781645894050598f, 0.10614194720983505249f, -0.11422832310199737549f, -0.08033510297536849976f, 0.01398848369717597961f, 0.00467277737334370613f, 0.05572446808218955994f},
  {0.12097590416669845581f, -0.16147972643375396729f, -0.01060861162841320038f, -0.09995837509632110596f, 0.09763001650571823120f, 0.09617669135332107544f, -0.12298902124166488647f, 0.14075064659118652344f, -0.05529538169503211975f, 0.05369280651211738586f, 0.06831125169992446899f, -0.05320939421653747559f, -0.05192653834819793701f, -0.05778389051556587219f, 0.13299788534641265869f, -0.15549696981906890869f, -0.06371378153562545776f, -0.11179718375205993652f, 0.07168215513229370117f, 0.05374387279152870178f},
  {0.09844864904880523682f, -0.01985404081642627716f, 0.03767958283424377441f, -0.06521336734294891357f, -0.11501618474721908569f, 0.08528202772140502930f, 0.00915320217609405518f, 0.18067584931850433350f, 0.06641744077205657959f, 0.12637278437614440918f, 0.04897522553801536560f, 0.02903006784617900848f, -0.09716643393039703369f, -0.01691362075507640839f, -0.01140978187322616577f, 0.21577623486518859863f, 0.14737918972969055176f, 0.22923633456230163574f, 0.13000912964344024658f, -0.14734502136707305908f},
  {0.00820783711969852448f, 0.15026243031024932861f, 0.08181226253509521484f, 0.08177258074283599854f, -0.06859621405601501465f, -0.00256390729919075966f, 0.01863405853509902954f, 0.10542164742946624756f, 0.13524152338504791260f, -0.01223375089466571808f, -0.02629919722676277161f, 0.07210477441549301147f, -0.04247149825096130371f, -0.10997777432203292847f, -0.05079438164830207825f, -0.03296009078621864319f, 0.09361469000577926636f, -0.01915315911173820496f, -0.04758596047759056091f, 0.10282814502716064453f},
  {0.09596733748912811279f, 0.04148795083165168762f, 0.03799534589052200317f, -0.01514973677694797516f, 0.06153985112905502319f, 0.06781164556741714478f, 0.17490895092487335205f, 0.10070005059242248535f, -0.22776427865028381348f, -0.07772187143564224243f, -0.01778879575431346893f, 0.09343050420284271240f, -0.10104140639305114746f, -0.04385057836771011353f, 0.07598314434289932251f, 0.07148959487676620483f, 0.02696438878774642944f, -0.07881562411785125732f, -0.18381744623184204102f, -0.14779372513294219971f},
  {0.08252995461225509644f, -0.01196339447051286697f, -0.16662229597568511963f, 0.08049441128969192505f, 0.15737421810626983643f, 0.14399382472038269043f, 0.04487546905875205994f, 0.03182495757937431335f, 0.05709461867809295654f, -0.07189337909221649170f, -0.08134790509939193726f, 0.03124557249248027802f, 0.05940908938646316528f, -0.05641518905758857727f, 0.09296088665723800659f, -0.01883316785097122192f, -0.09519638866186141968f, 0.18842023611068725586f, -0.02656036429107189178f, 0.09785125404596328735f},
  {0.05172704160213470459f, -0.01891141571104526520f, 0.00987570360302925110f, 0.04655515030026435852f, -0.02175505086779594421f, -0.07399966567754745483f, 0.11413253843784332275f, 0.07687319815158843994f, -0.05579584091901779175f, 0.07150592654943466187f, 0.07640003412961959839f, 0.11329838633537292480f, -0.12330862134695053101f, -0.00165124691557139158f, 0.06333410739898681641f, -0.02870136313140392303f, -0.13460265100002288818f, 0.06893190741539001465f, -0.07622153311967849731f, 0.05092638358473777771f},
  {-0.00849679019302129745f, 0.00746647128835320473f, -0.09960693866014480591f, -0.10316196829080581665f, 0.15892280638217926025f, -0.03280116245150566101f, 0.08320847153663635254f, 0.18352195620536804199f, -0.02963113039731979370f, 0.01409337390214204788f, 0.05947110056877136230f, -0.03414370864629745483f, 0.07787857204675674438f, -0.12996447086334228516f, -0.14212080836296081543f, 0.08559786528348922729f, 0.10497577488422393799f, 0.03796363621950149536f, 0.17623552680015563965f, 0.04594120383262634277f},
  {-0.12781096994876861572f, 0.15887905657291412354f, 0.21550881862640380859f, 0.02676345594227313995f, -0.08741884678602218628f, 0.05934320762753486633f, -0.13488510251045227051f, 0.00558948982506990433f, 0.10575176775455474854f, 0.00421825982630252838f, -0.04652889817953109741f, -0.06123348698019981384f, 0.03594808652997016907f, -0.07552358508110046387f, -0.14145074784755706787f, 0.06014587357640266418f, 0.05644883587956428528f, -0.07376960664987564087f, 0.15052735805511474609f, -0.10966183245182037354f},
  {-0.03857596963644027710f, 0.16019974648952484131f, -0.05136508867144584656f, 0.08205488324165344238f, -0.00014807075785938650f, -0.10006937384605407715f, -0.01821174472570419312f, 0.09086900949478149414f, -0.17538072168827056885f, 0.01513436529785394669f, -0.15629339218139648438f, 0.06121233850717544556f, -0.03830402716994285583f, -0.04305630922317504883f, -0.01344019640237092972f, 0.11533940583467483521f, 0.05400659143924713135f, 0.09004954993724822998f, -0.09515242278575897217f, -0.09063975512981414795f},
  {0.14407314360141754150f, 0.07577279210090637207f, -0.03565375506877899170f, -0.09588180482387542725f, 0.10951308161020278931f, 0.01828686334192752838f, -0.00911154504865407944f, -0.10775391757488250732f, -0.09101030230522155762f, -0.02896619401872158051f, -0.07242691516876220703f, -0.25398480892181396484f, 0.14549401402473449707f, -0.16355498135089874268f, 0.07670325040817260742f, -0.17889557778835296631f, 0.17605185508728027344f, 0.11687219887971878052f, -0.04193199425935745239f, -0.07227260619401931763f},
  {-0.02189438790082931519f, -0.16400963068008422852f, -0.18651454150676727295f, -0.09053064882755279541f, 0.04734469205141067505f, -0.07645171880722045898f, -0.27413845062255859375f, -0.13126052916049957275f, 0.02909159474074840546f, 0.03605323657393455505f, -0.00768550392240285873f, 0.01925911381840705872f, -0.17508526146411895752f, -0.08925190567970275879f, 0.14097943902015686035f, 0.01265926845371723175f, 0.31561094522476196289f, -0.05488544702529907227f, -0.12862943112850189209f, -0.12476614117622375488f},
  {0.06505957245826721191f, -0.07421816885471343994f, 0.03832251206040382385f, -0.08536670356988906860f, -0.07064798474311828613f, 0.03225172683596611023f, -0.14711703360080718994f, 0.03676616027951240540f, -0.05581467598676681519f, -0.21827900409698486328f, 0.05701069533824920654f, 0.04479980096220970154f, 0.18478615581989288330f, 0.10857067257165908813f, 0.03761594742536544800f, 0.09821143001317977905f, 0.04504789039492607117f, -0.06127703189849853516f, 0.06716043502092361450f, -0.09087105095386505127f},
  {-0.05494827777147293091f, -0.01429142151027917862f, -0.03791901469230651855f, -0.06110211461782455444f, 0.07420809566974639893f, -0.02986170724034309387f, -0.02194013819098472595f, -0.00642903894186019897f, -0.04439089819788932800f, 0.05141077563166618347f, 0.03089884482324123383f, -0.01441208459436893463f, -0.00356121524237096310f, -0.10623480379581451416f, 0.01263623684644699097f, 0.02557756192982196808f, 0.05218548327684402466f, -0.07821307331323623657f, -0.05307193845510482788f, 0.06422356516122817993f},
  {-0.00754019804298877716f, 0.10129809379577636719f, -0.13155099749565124512f, 0.00501373969018459320f, 0.02533636614680290222f, -0.12161974608898162842f, 0.03644469752907752991f, 0.13907399773597717285f, -0.12372443079948425293f, -0.03030930832028388977f, 0.09633506834506988525f, 0.00554529577493667603f, -0.14649380743503570557f, -0.08970127254724502563f, 0.07351107895374298096f, 0.00186171720270067453f, 0.01084130629897117615f, 0.03831839188933372498f, -0.03180770576000213623f, 0.03649199008941650391f},
  {0.04966289550065994263f, -0.09385769814252853394f, -0.09167430549860000610f, 0.10693199187517166138f, 0.06723085790872573853f, 0.05214330181479454041f, 0.05894042178988456726f, 0.04136981442570686340f, -0.00604783790186047554f, 0.01152835227549076080f, -0.04429131373763084412f, -0.00550864590331912041f, -0.02199979498982429504f, -0.02951869927346706390f, -0.00504567706957459450f, 0.08575806021690368652f, -0.07758155465126037598f, 0.01051847729831933975f, 0.03501622378826141357f, -0.13912875950336456299f},
  {0.15233437716960906982f, -0.05004919320344924927f, -0.01277837157249450684f, -0.13434083759784698486f, -0.03828154876828193665f, -0.12188278138637542725f, -0.23502187430858612061f, -0.04373564571142196655f, -0.27835935354232788086f, 0.06792599707841873169f, 0.06010539084672927856f, -0.07938349992036819458f, -0.00117602432146668434f, 0.08219180256128311157f, -0.14613239467144012451f, 0.07294727116823196411f, 0.04164017736911773682f, -0.08091545104980468750f, 0.03872639313340187073f, -0.08685185760259628296f},
  {0.17558464407920837402f, -0.07901486754417419434f, 0.02094611153006553650f, -0.13069055974483489990f, 0.11547677218914031982f, -0.04042228311300277710f, -0.20319926738739013672f, 0.06061248108744621277f, 0.12121218442916870117f, 0.02604950219392776489f, -0.12339639663696289062f, 0.03655857592821121216f, 0.02444358915090560913f, -0.06947499513626098633f, -0.07398280501365661621f, -0.17096863687038421631f, -0.03121714666485786438f, 0.07527814805507659912f, -0.00643700826913118362f, -0.05076640099287033081f},
  {-0.00335416570305824280f, 0.17356345057487487793f, -0.03302920237183570862f, -0.16483281552791595459f, -0.11844423413276672363f, 0.02373477816581726074f, -0.05160983279347419739f, 0.12542064487934112549f, -0.13007020950317382812f, 0.03243272379040718079f, 0.14989867806434631348f, 0.15005345642566680908f, -0.04399330168962478638f, -0.00499091483652591705f, -0.00737669598311185837f, -0.01415834575891494751f, 0.00143377238418906927f, -0.03742831200361251831f, -0.11735863238573074341f, -0.06686177849769592285f},
  {-0.04937263950705528259f, -0.03818804398179054260f, 0.01230447646230459213f, -0.05417075380682945251f, -0.02759617380797863007f, 0.01590414158999919891f, -0.01688208989799022675f, 0.02548743970692157745f, -0.00177505810279399157f, 0.08976863324642181396f, -0.00719924084842205048f, -0.04006150364875793457f, 0.05741300433874130249f, -0.04676682502031326294f, 0.09466847032308578491f, 0.04541500285267829895f, -0.07901597023010253906f, -0.05753834545612335205f, 0.05911949649453163147f, 0.03527371957898139954f},
  {-0.16346658766269683838f, -0.05498157069087028503f, 0.02194711752235889435f, 0.10581117123365402222f, -0.02231796644628047943f, 0.04644488915801048279f, 0.05280940234661102295f, -0.05034371092915534973f, 0.10299819707870483398f, 0.02461542189121246338f, 0.02733242698013782501f, -0.00777297234162688255f, 0.02533856406807899475f, -0.16173702478408813477f, -0.17488625645637512207f, -0.01415193546563386917f, -0.09511854499578475952f, 0.04773986339569091797f, 0.14929650723934173584f, 0.03750449046492576599f},
  {0.05019447207450866699f, -0.07262775301933288574f, -0.07512196898460388184f, -0.15346041321754455566f, 0.19792063534259796143f, 0.06963202357292175293f, -0.02158960141241550446f, 0.02883065119385719299f, 0.19280713796615600586f, 0.21863934397697448730f, -0.00341410632245242596f, -0.04684849083423614502f, -0.12049062550067901611f, -0.04831856116652488708f, -0.03030963428318500519f, 0.02596447058022022247f, 0.10536306351423263550f, -0.16189536452293395996f, 0.07144558429718017578f, 0.03183283284306526184f},
  {-0.05441655218601226807f, 0.06549176573753356934f, -0.09213513135910034180f, -0.04745800048112869263f, -0.11413969099521636963f, -0.00398147711530327797f, -0.10791769623756408691f, 0.00726357800886034966f, -0.14564372599124908447f, 0.11299836635589599609f, -0.05813460424542427063f, -0.01945443823933601379f, 0.07045595347881317139f, 0.08777343481779098511f, 0.05602924153208732605f, -0.11301483958959579468f, 0.09539847820997238159f, -0.09210969507694244385f, 0.03218428418040275574f, -0.02379821054637432098f},
  {-0.17556196451187133789f, -0.03651712834835052490f, -0.14862950146198272705f, 0.00715480837970972061f, 0.15894864499568939209f, -0.18578645586967468262f, 0.06883732974529266357f, 0.15092462301254272461f, 0.09879637509584426880f, 0.09830728173255920410f, 0.01300470437854528427f, 0.14590358734130859375f, 0.15154941380023956299f, -0.11735738068819046021f, 0.04574386775493621826f, -0.07686114311218261719f, 0.00166965974494814873f, 0.09827186912298202515f, 0.01555428188294172287f, -0.11119826138019561768f},
  {0.01146510336548089981f, 0.00514470366761088371f, -0.03439984470605850220f, -0.13685181736946105957f, -0.12230924516916275024f, -0.11987262964248657227f, 0.01246329955756664276f, 0.06549607217311859131f, 0.08508528023958206177f, -0.13266895711421966553f, 0.01240947004407644272f, -0.04725969210267066956f, 0.04112363979220390320f, 0.00495472410693764687f, -0.05119634419679641724f, 0.03917334973812103271f, 0.04848639294505119324f, 0.00378496991470456123f, 0.09744434058666229248f, -0.06015808880329132080f},
  {-0.00264204409904778004f, 0.01230702456086874008f, -0.00386170251294970512f, 0.07718040794134140015f, -0.09424731135368347168f, 0.00196727085858583450f, 0.13332138955593109131f, 0.07047808170318603516f, 0.05586273968219757080f, 0.04992529749870300293f, 0.13687722384929656982f, -0.06282171607017517090f, -0.03123339451849460602f, 0.12186416238546371460f, 0.00209427811205387115f, -0.08056897670030593872f, 0.07353484630584716797f, -0.00806822068989276886f, -0.11916745454072952271f, 0.14012853801250457764f},
  {-0.07244317233562469482f, 0.06679139286279678345f, 0.05400529131293296814f, 0.08609854429960250854f, 0.06406498700380325317f, 0.02982166968286037445f, -0.12307860702276229858f, 0.20098491013050079346f, -0.10268074274063110352f, -0.05612001568078994751f, 0.00038846518145874143f, -0.11951269954442977905f, -0.00412303255870938301f, -0.04479051753878593445f, -0.00581326149404048920f, 0.13271437585353851318f, 0.10734285414218902588f, -0.01157543156296014786f, -0.04234281927347183228f, -0.03006811812520027161f},
  {-0.06048820912837982178f, -0.00623903702944517136f, -0.07255040854215621948f, -0.13985575735569000244f, -0.08541557192802429199f, 0.15030911564826965332f, 0.20032125711441040039f, -0.04264458268880844116f, 0.04431837424635887146f, 0.07178094983100891113f, 0.06552298367023468018f, 0.06166549399495124817f, 0.03181884437799453735f, 0.04980833828449249268f, -0.05524845793843269348f, -0.04285816848278045654f, 0.01495072152465581894f, -0.11573669314384460449f, 0.08293219655752182007f, -0.07950781285762786865f},
  {-0.00779374316334724426f, 0.03141297772526741028f, 0.01392814982682466507f, -0.07145434617996215820f, -0.05996068194508552551f, 0.00271894782781600952f, -0.06572850048542022705f, 0.02585210464894771576f, -0.08613820374011993408f, -0.12107656896114349365f, -0.04746194928884506226f, 0.05250880494713783264f, -0.04524005576968193054f, 0.07631769031286239624f, 0.05222682282328605652f, -0.00114272139035165310f, 0.01971079409122467041f, 0.02682776376605033875f, 0.00976554024964570999f, -0.03261154517531394958f},
  {0.11027190834283828735f, -0.03122653253376483917f, -0.04287318885326385498f, 0.01433387398719787598f, -0.10126831382513046265f, -0.10543302446603775024f, -0.07463619112968444824f, 0.00732793333008885384f, -0.03255515173077583313f, 0.01954682916402816772f, 0.04272483661770820618f, 0.09466831386089324951f, -0.10807894915342330933f, -0.08474703133106231689f, 0.03364387527108192444f, -0.07999458909034729004f, 0.04308889806270599365f, -0.16412317752838134766f, 0.12054161727428436279f, -0.18241573870182037354f},
  {0.00719138979911804199f, -0.03941143676638603210f, 0.01873525232076644897f, -0.03707739710807800293f, 0.02610157616436481476f, 0.00459705339744687080f, -0.03101060912013053894f, -0.05974310263991355896f, -0.01321427337825298309f, 0.01027077622711658478f, -0.03948649019002914429f, 0.01173704396933317184f, 0.01236345618963241577f, 0.05020854622125625610f, 0.00804386474192142487f, 0.00710001494735479355f, 0.01373666711151599884f, -0.00925308279693126678f, -0.01783800870180130005f, 0.00191742077004164457f},
  {-0.06422171741724014282f, -0.07368773221969604492f, 0.03933336213231086731f, 0.12388221174478530884f, 0.03247767686843872070f, 0.07022469490766525269f, 0.00830012094229459763f, 0.07551841437816619873f, 0.01961785741150379181f, -0.07048494368791580200f, -0.01360896043479442596f, 0.05014007911086082458f, -0.12469244003295898438f, 0.12712377309799194336f, 0.00521441223099827766f, 0.06384937465190887451f, -0.07815961539745330811f, -0.14168970286846160889f, -0.14147351682186126709f, -0.03516696393489837646f},
  {-0.13755424320697784424f, 0.10892848670482635498f, -0.01475717686116695404f, 0.08637507259845733643f, 0.05349450930953025818f, 0.16306053102016448975f, -0.09933817386627197266f, 0.05025413632392883301f, 0.06352981179952621460f, 0.00455407705157995224f, 0.08156102150678634644f, 0.06646740436553955078f, -0.09330891817808151245f, 0.06927932053804397583f, -0.10708045214414596558f, 0.14146283268928527832f, -0.05357675254344940186f, 0.07608558237552642822f, 0.06485264748334884644f, 0.11339673399925231934f},
  {-0.05405967310070991516f, 0.07708892971277236938f, 0.09042825549840927124f, -0.14236070215702056885f, 0.03621625527739524841f, -0.01740138046443462372f, 0.09933962672948837280f, 0.14139927923679351807f, 0.02909944206476211548f, 0.05020772293210029602f, -0.09760684520006179810f, -0.12981729209423065186f, -0.10623682290315628052f, 0.02494430541992187500f, 0.13339298963546752930f, 0.11738944053649902344f, -0.01097222417593002319f, -0.01848431862890720367f, -0.04791627079248428345f, 0.12548662722110748291f},
  {0.00551742035895586014f, 0.06968992203474044800f, -0.10007385909557342529f, -0.07351153343915939331f, 0.07165460288524627686f, 0.10324367135763168335f, -0.14576771855354309082f, -0.18602365255355834961f, -0.06444115191698074341f, -0.08696923404932022095f, -0.07844962924718856812f, -0.08653613179922103882f, -0.19161638617515563965f, 0.06641392409801483154f, 0.03313757479190826416f, -0.18053908646106719971f, -0.15020999312400817871f, -0.09646025300025939941f, 0.04816447570919990540f, 0.04854560643434524536f},
  {-0.00641218479722738266f, -0.06601504236459732056f, -0.05073937028646469116f, 0.07350859791040420532f, 0.07128657400608062744f, 0.03110577538609504700f, 0.01381585840135812759f, 0.00257334066554903984f, 0.05890275165438652039f, -0.12722639739513397217f, 0.01148163434118032455f, -0.03715901076793670654f, -0.10483440756797790527f, -0.01946613192558288574f, 0.00195420277304947376f, 0.00465721264481544495f, -0.14403115212917327881f, -0.02984139695763587952f, 0.05735816434025764465f, 0.01469209045171737671f},
  {0.10718382149934768677f, -0.04098354652523994446f, 0.03188940137624740601f, -0.07994784414768218994f, -0.02631085552275180817f, -0.07782698422670364380f, -0.02007390372455120087f, 0.00410438049584627151f, -0.14383992552757263184f, 0.08609715104103088379f, 0.01755447313189506531f, 0.21038126945495605469f, -0.15760573744773864746f, 0.11552952229976654053f, -0.17651627957820892334f, -0.22060602903366088867f, 0.08265893906354904175f, 0.07637619227170944214f, 0.01015785522758960724f, 0.24091477692127227783f},
  {0.00092598615447059274f, 0.05317260697484016418f, 0.01283868495374917984f, 0.06880281120538711548f, -0.04660181701183319092f, 0.12657231092453002930f, -0.03742505982518196106f, -0.01907596737146377563f, 0.15087570250034332275f, 0.08552015572786331177f, -0.03330524638295173645f, -0.02241144888103008270f, -0.02225203625857830048f, -0.20437465608119964600f, 0.04593583196401596069f, -0.07470197230577468872f, -0.08225192874670028687f, -0.06916343420743942261f, 0.03573574498295783997f, -0.02649806067347526550f},
  {0.00309048965573310852f, -0.04988070204854011536f, 0.06312905997037887573f, -0.09943342953920364380f, 0.02788231708109378815f, 0.06461628526449203491f, 0.02055823430418968201f, -0.13943746685981750488f, 0.02090970613062381744f, -0.05882822722196578979f, 0.03037193045020103455f, -0.02020159922540187836f, -0.07389977574348449707f, 0.02028243243694305420f, 0.03688205033540725708f, -0.06736135482788085938f, -0.00150107266381382942f, 0.08181515336036682129f, -0.03168840333819389343f, 0.03567679598927497864f},
  {-0.09698490798473358154f, -0.04876897484064102173f, -0.13444942235946655273f, -0.08103001862764358521f, -0.00025432198890484869f, 0.08151233196258544922f, 0.12926426529884338379f, -0.13420131802558898926f, 0.05820408090949058533f, 0.09477245062589645386f, 0.00624776259064674377f, -0.06801947206258773804f, 0.02251512557268142700f, -0.08702077716588973999f, -0.10159280151128768921f, -0.05047818273305892944f, 0.02469225227832794189f, 0.02532090805470943451f, -0.02879898436367511749f, -0.09936148673295974731f},
  {-0.11221348494291305542f, -0.04591910913586616516f, 0.07858785241842269897f, 0.05957215279340744019f, 0.07131487131118774414f, -0.11727570742368698120f, 0.13420052826404571533f, 0.06481382250785827637f, 0.02127017080783843994f, 0.08279705047607421875f, -0.08875709772109985352f, 0.11657036840915679932f, -0.00580229703336954117f, 0.14707645773887634277f, 0.11974657326936721802f, -0.14403387904167175293f, 0.14145734906196594238f, -0.02549169771373271942f, -0.10211490839719772339f, -0.13851720094680786133f},
  {-0.08793123811483383179f, -0.00909165665507316589f, -0.06168951094150543213f, 0.06463735550642013550f, 0.05446875467896461487f, 0.05681593343615531921f, -0.05794634670019149780f, -0.11291641741991043091f, -0.08034557104110717773f, 0.03702643886208534241f, 0.00825026910752058029f, -0.09474339336156845093f, -0.03611704334616661072f, 0.08869868516921997070f, -0.05464835464954376221f, -0.08986606448888778687f, 0.05484788119792938232f, 0.00850581191480159760f, 0.03932655975222587585f, -0.13737526535987854004f},
  {-0.03665823116898536682f, 0.06363752484321594238f, 0.02919883467257022858f, -0.02967094071209430695f, -0.00419683801010251045f, 0.02340905368328094482f, 0.10815423727035522461f, -0.12499839812517166138f, -0.10585162788629531860f, 0.08245558291673660278f, 0.05814759805798530579f, -0.03035584650933742523f, 0.03991066664457321167f, -0.01402455475181341171f, -0.05205355584621429443f, -0.00189902761485427618f, -0.02336968481540679932f, -0.12390696257352828979f, -0.01499185618013143539f, -0.02827330678701400757f},
  {-0.00312252948060631752f, 0.11036781221628189087f, 0.01150444988161325455f, -0.04767838120460510254f, 0.13947188854217529297f, -0.09306764602661132812f, -0.14164441823959350586f, -0.14203375577926635742f, -0.01842101104557514191f, -0.04883167892694473267f, -0.04651313275098800659f, 0.10867947340011596680f, 0.05252737179398536682f, 0.08098769187927246094f, 0.11148589849472045898f, -0.05673188343644142151f, -0.22226098179817199707f, -0.12122329324483871460f, 0.14630006253719329834f, -0.16417957842350006104f},
  {0.00715741887688636780f, 0.02650497294962406158f, -0.10763340443372726440f, 0.11281862854957580566f, -0.03126855939626693726f, -0.06851821392774581909f, 0.08510708808898925781f, -0.03522845730185508728f, 0.10848087817430496216f, 0.00841211620718240738f, -0.03956679254770278931f, 0.09870758652687072754f, 0.06840607523918151855f, -0.12728099524974822998f, -0.00261018145829439163f, 0.15676371753215789795f, 0.02746448107063770294f, -0.10771516710519790649f, -0.01282934099435806274f, 0.00590649293735623360f},
  {0.05802996084094047546f, -0.01039332710206508636f, 0.03844096884131431580f, -0.07509684562683105469f, -0.08547095954418182373f, -0.01002263557165861130f, -0.08248980343341827393f, 0.08759048581123352051f, -0.07594057917594909668f, -0.02706319279968738556f, -0.03500770404934883118f, 0.04128460958600044250f, -0.05203492939472198486f, -0.05389381200075149536f, 0.01750584505498409271f, 0.04245447739958763123f, 0.00042477756505832076f, -0.05526800826191902161f, 0.00389446457847952843f, -0.01360319089144468307f},
  {-0.04291297122836112976f, 0.15295009315013885498f, -0.11908855289220809937f, -0.00177820574026554823f, -0.14666149020195007324f, -0.10468739271163940430f, -0.06645685434341430664f, -0.02472908049821853638f, 0.05276975408196449280f, 0.06337372958660125732f, 0.00093278056010603905f, -0.00248390319757163525f, -0.06051726639270782471f, -0.06127149984240531921f, 0.02008464746177196503f, -0.07596053183078765869f, -0.01036421488970518112f, 0.09985472261905670166f, 0.13782940804958343506f, -0.02721186541020870209f},
  {0.02789321728050708771f, -0.02632135152816772461f, -0.01952254772186279297f, 0.05446114391088485718f, -0.10316044837236404419f, -0.01428318116813898087f, -0.01942106895148754120f, 0.11592329293489456177f, 0.04465681314468383789f, 0.03256371244788169861f, -0.05126415565609931946f, 0.07674946635961532593f, 0.08644206076860427856f, -0.09752494096755981445f, -0.02854333072900772095f, 0.05917666479945182800f, -0.00191671168431639671f, -0.07054992765188217163f, -0.01027312222868204117f, 0.00105642026755958796f},
  {-0.03958176076412200928f, 0.07863138616085052490f, -0.04531122371554374695f, 0.00179218442644923925f, 0.01319597195833921432f, 0.19863124191761016846f, 0.02678829059004783630f, 0.30831986665725708008f, 0.12980118393898010254f, -0.07425069063901901245f, -0.04442443326115608215f, 0.12000247091054916382f, -0.16810415685176849365f, -0.13019508123397827148f, 0.04558422788977622986f, 0.03938764706254005432f, -0.15497577190399169922f, -0.01904659532010555267f, -0.05698115378618240356f, -0.11561459302902221680f},
  {-0.06217898800969123840f, -0.03489146009087562561f, 0.01900825276970863342f, -0.12980177998542785645f, -0.10122992843389511108f, 0.04711714014410972595f, -0.09841065853834152222f, 0.13444590568542480469f, 0.07087092846632003784f, 0.06539245694875717163f, 0.03571814298629760742f, -0.00068257929524406791f, 0.04777743294835090637f, -0.17513929307460784912f, -0.14271537959575653076f, -0.02042741514742374420f, 0.09539182484149932861f, 0.07196659594774246216f, -0.00771462591364979744f, -0.07045145332813262939f},
  {-0.01299817860126495361f, -0.12909944355487823486f, 0.00696719996631145477f, 0.01458465773612260818f, -0.16831049323081970215f, -0.09805472940206527710f, 0.10952910780906677246f, 0.09384939074516296387f, -0.00135424721520394087f, -0.09905444830656051636f, 0.16655650734901428223f, 0.03562045097351074219f, 0.09112650901079177856f, 0.04163874685764312744f, -0.15406037867069244385f, -0.06951076537370681763f, -0.04888110235333442688f, -0.09441071003675460815f, 0.01585984602570533752f, 0.14676001667976379395f},
  {-0.11180656403303146362f, -0.03894718363881111145f, -0.03490416705608367920f, -0.08963539451360702515f, 0.00824933964759111404f, -0.02422634325921535492f, -0.15898080170154571533f, -0.09166505187749862671f, 0.18436236679553985596f, 0.00779466656967997551f, -0.02170891873538494110f, -0.02199156209826469421f, -0.11243056505918502808f, 0.15035840868949890137f, 0.09256324172019958496f, 0.07235635817050933838f, -0.11476254463195800781f, 0.10887177288532257080f, 0.03121556900441646576f, 0.03461950644850730896f},
  {-0.04745009541511535645f, -0.15580146014690399170f, -0.10775907337665557861f, -0.08084855973720550537f, 0.03552938997745513916f, 0.06480921059846878052f, -0.00408376613631844521f, -0.14596480131149291992f, 0.01751851290464401245f, -0.12205202877521514893f, 0.01203136332333087921f, -0.02819738350808620453f, 0.04548274353146553040f, 0.02198788151144981384f, -0.09913551062345504761f, 0.00995034445077180862f, 0.07783374935388565063f, 0.09796722978353500366f, 0.03289975598454475403f, -0.06609019637107849121f},
  {0.00886064115911722183f, 0.04956943169236183167f, 0.03646115213632583618f, -0.15415585041046142578f, -0.15287306904792785645f, 0.14243219792842864990f, -0.01902468875050544739f, -0.07824055850505828857f, 0.02194670587778091431f, 0.07516917586326599121f, 0.06357885152101516724f, -0.00949901342391967773f, 0.10876260697841644287f, 0.07304874062538146973f, 0.05770795792341232300f, -0.09433188289403915405f, 0.07557485997676849365f, -0.13650873303413391113f, 0.04557547718286514282f, 0.03874380141496658325f},
  {-0.00239413883537054062f, 0.04280068352818489075f, -0.01296059787273406982f, -0.01654995791614055634f, 0.14638312160968780518f, 0.02028460614383220673f, -0.03749857842922210693f, -0.11762047559022903442f, 0.12874859571456909180f, 0.09309852123260498047f, -0.09303829073905944824f, -0.04943647235631942749f, -0.06395724415779113770f, 0.10691883414983749390f, 0.05819609761238098145f, 0.08426604419946670532f, 0.00482155987992882729f, -0.02214724943041801453f, 0.11668971925973892212f, -0.02365125343203544617f},
  {-0.06493377685546875000f, 0.11907786875963211060f, 0.24136750400066375732f, -0.21506777405738830566f, -0.11554580181837081909f, -0.04427060112357139587f, -0.09654615819454193115f, 0.06476814299821853638f, -0.03009518235921859741f, -0.08157759904861450195f, 0.02905510365962982178f, -0.01103287469595670700f, -0.07847444713115692139f, -0.03793901205062866211f, 0.01865497417747974396f, -0.09725013375282287598f, 0.06901217252016067505f, 0.08170498162508010864f, 0.03842569887638092041f, 0.00807144958525896072f},
  {0.01808381453156471252f, 0.15917728841304779053f, -0.02726342529058456421f, 0.11146105080842971802f, -0.02792418561875820160f, 0.03788562864065170288f, -0.14981429278850555420f, 0.15417113900184631348f, -0.09764777123928070068f, 0.08961293101310729980f, -0.01932694762945175171f, 0.01463823672384023666f, 0.01680464297533035278f, 0.03105782903730869293f, -0.03214121237397193909f, 0.10852083563804626465f, 0.02964122779667377472f, -0.08794640749692916870f, 0.10373224318027496338f, -0.04124706611037254333f},
  {-0.12179674953222274780f, 0.04032375290989875793f, 0.09489165991544723511f, 0.11673986166715621948f, -0.05593987554311752319f, -0.10025908052921295166f, 0.10639756917953491211f, 0.07733710110187530518f, -0.05805092677474021912f, -0.08960473537445068359f, -0.14146173000335693359f, -0.08023265004158020020f, -0.02260627411305904388f, -0.07070388644933700562f, -0.03863639757037162781f, 0.06688057631254196167f, 0.00370966177433729172f, -0.03827813640236854553f, -0.08143647760152816772f, -0.16583281755447387695f},
  {-0.08324525505304336548f, -0.01956431381404399872f, 0.06115685030817985535f, -0.11964526027441024780f, 0.12051410973072052002f, -0.06019795313477516174f, 0.09182539582252502441f, -0.02956913597881793976f, -0.08685432374477386475f, -0.02749324031174182892f, 0.11899105459451675415f, -0.10937908291816711426f, -0.07769216597080230713f, 0.03163364902138710022f, -0.10533449798822402954f, 0.13558444380760192871f, -0.02113553695380687714f, -0.08287201821804046631f, -0.08450739830732345581f, -0.05778964608907699585f},
  {-0.00391832645982503891f, -0.05521259084343910217f, 0.06592866778373718262f, -0.05224490538239479065f, -0.12820652127265930176f, -0.08484441041946411133f, -0.08143710345029830933f, 0.15281353890895843506f, -0.04232275485992431641f, -0.04386256262660026550f, 0.06329084187746047974f, -0.07950882613658905029f, 0.09333510696887969971f, 0.00528387818485498428f, -0.03828508034348487854f, 0.01363361906260251999f, -0.09152070432901382446f, -0.03860718011856079102f, -0.05683995038270950317f, -0.06863414496183395386f},
  {0.17209921777248382568f, -0.01344175543636083603f, 0.21373626589775085449f, 0.08292385935783386230f, 0.05438086763024330139f, 0.04647315293550491333f, -0.01548784319311380386f, 0.00256432173773646355f, 0.18107225000858306885f, -0.01762808486819267273f, 0.15661771595478057861f, 0.14464230835437774658f, 0.02444023452699184418f, 0.04851507395505905151f, 0.07344152033329010010f, 0.06962992250919342041f, -0.06160960346460342407f, -0.11230891942977905273f, 0.02014159038662910461f, -0.11994328349828720093f},
  {0.14506968855857849121f, -0.07971744984388351440f, -0.03025539778172969818f, -0.07812712341547012329f, -0.22241099178791046143f, -0.04574246704578399658f, 0.14485524594783782959f, 0.00899933557957410812f, 0.00322910305112600327f, -0.00044950659503228962f, 0.02961266413331031799f, -0.09491187334060668945f, 0.09788611531257629395f, 0.00303461216390132904f, -0.02089053019881248474f, -0.08988529443740844727f, 0.21485611796379089355f, -0.07023566961288452148f, -0.11946861445903778076f, -0.04658648744225502014f},
  {0.06043460220098495483f, -0.00076635624282062054f, 0.03220978751778602600f, 0.02375610545277595520f, -0.04721035808324813843f, -0.03247574344277381897f, -0.04067753627896308899f, 0.00843547657132148743f, 0.01945900171995162964f, 0.00363473687320947647f, 0.07896308600902557373f, 0.06567302346229553223f, -0.04771442711353302002f, 0.03226816281676292419f, 0.11096938699483871460f, -0.03242586553096771240f, -0.02273212186992168427f, -0.04026873409748077393f, 0.11626978218555450439f, -0.09030292183160781860f},
  {0.04952196404337882996f, 0.03083985112607479095f, -0.00473497482016682625f, -0.08990926295518875122f, 0.02052899263799190521f, 0.07540047168731689453f, -0.04116467013955116272f, -0.04821880534291267395f, -0.16592092812061309814f, -0.07577629387378692627f, 0.03452204167842864990f, 0.03176777064800262451f, -0.03735584393143653870f, -0.00321734580211341381f, -0.01089893840253353119f, -0.10548306256532669067f, -0.02969618141651153564f, 0.04010191559791564941f, 0.02506904676556587219f, -0.03757419809699058533f},
  {0.03593836352229118347f, -0.13086077570915222168f, 0.13320378959178924561f, -0.20577399432659149170f, -0.10930323600769042969f, -0.00208814162760972977f, 0.02683677710592746735f, -0.04213373735547065735f, -0.02218653634190559387f, -0.16081072390079498291f, 0.02610018290579319000f, 0.06259650737047195435f, 0.05989081412553787231f, -0.12104264646768569946f, 0.20242385566234588623f, -0.00074389763176441193f, -0.15023022890090942383f, -0.07506167143583297729f, -0.08302136510610580444f, -0.02479737438261508942f},
  {0.06681417673826217651f, -0.02320055104792118073f, -0.06175279244780540466f, 0.01683643087744712830f, 0.05064892023801803589f, 0.13038855791091918945f, 0.01572071574628353119f, 0.05203663930296897888f, 0.00198570406064391136f, 0.00167495768982917070f, 0.05098541453480720520f, 0.05976747348904609680f, -0.12516704201698303223f, 0.07382149249315261841f, 0.01857942901551723480f, 0.07709717005491256714f, 0.00080814270768314600f, 0.12110123783349990845f, 0.00901567284017801285f, -0.07707735896110534668f},
  {0.02546606399118900299f, 0.16856856644153594971f, -0.07770096510648727417f, -0.03804140537977218628f, 0.15997147560119628906f, 0.14126242697238922119f, -0.03973163664340972900f, -0.02319913543760776520f, 0.01924311369657516479f, 0.00487212883308529854f, 0.05002408847212791443f, -0.15963765978813171387f, 0.13281390070915222168f, -0.02417256496846675873f, -0.04697803407907485962f, -0.10166819393634796143f, -0.11208553612232208252f, 0.01153949182480573654f, 0.04711696505546569824f, -0.07533096522092819214f},
  {-0.07010778039693832397f, 0.04296886920928955078f, 0.04462292790412902832f, -0.02520680055022239685f, 0.06283780187368392944f, -0.03747015073895454407f, 0.04512121528387069702f, -0.06073069572448730469f, -0.06837756186723709106f, -0.05020350217819213867f, 0.03915296867489814758f, -0.12768617272377014160f, 0.01075529213994741440f, 0.03967479616403579712f, -0.01275412365794181824f, -0.11459194123744964600f, 0.05323612689971923828f, 0.07726891338825225830f, -0.08445408940315246582f, 0.02719742059707641602f},
  {-0.00812304113060235977f, -0.09838837385177612305f, 0.05502696707844734192f, -0.02220912650227546692f, 0.11518095433712005615f, 0.10332813858985900879f, 0.14354184269905090332f, -0.14488846063613891602f, 0.05795796588063240051f, -0.12257488071918487549f, -0.06337569653987884521f, -0.07488129287958145142f, -0.01654469035565853119f, 0.00312336930073797703f, 0.05381146818399429321f, -0.15260253846645355225f, 0.06826939433813095093f, 0.04156403616070747375f, -0.11705175787210464478f, -0.00493640080094337463f},
  {0.00595197873190045357f, -0.12643460929393768311f, 0.01687446609139442444f, -0.02924376167356967926f, 0.05221569910645484924f, -0.08739675581455230713f, -0.02360136993229389191f, 0.00907974410802125931f, 0.15251666307449340820f, 0.04778321087360382080f, 0.02625872939825057983f, -0.02194437757134437561f, 0.03730938583612442017f, -0.02154273539781570435f, 0.07630477845668792725f, 0.02909825183451175690f, 0.10003805160522460938f, 0.02925747632980346680f, -0.00011298715980956331f, 0.00097051152260974050f},
  {-0.05365423113107681274f, -0.09382697939872741699f, -0.04050150141119956970f, -0.05556815862655639648f, 0.10765289515256881714f, -0.08488852530717849731f, 0.04065195843577384949f, -0.00486627407371997833f, 0.02969280816614627838f, -0.03820856660604476929f, 0.00616051675751805305f, 0.08457304537296295166f, 0.04366229474544525146f, -0.09172242134809494019f, 0.05164344236254692078f, -0.08825119584798812866f, -0.03401324525475502014f, 0.01853921636939048767f, 0.06835159659385681152f, -0.03608744591474533081f},
  {0.04197277501225471497f, 0.13768085837364196777f, 0.05856129154562950134f, -0.02291606552898883820f, -0.06622262299060821533f, -0.05763988196849822998f, 0.01080446131527423859f, 0.03835319727659225464f, 0.02527528814971446991f, -0.12214048951864242554f, -0.18080516159534454346f, 0.03762743249535560608f, 0.06920581310987472534f, 0.13059969246387481689f, 0.01854258030652999878f, -0.08944010734558105469f, 0.12517257034778594971f, 0.08098948746919631958f, 0.02044989168643951416f, 0.06056883186101913452f}
};
static const float tensor__Decoder__layers_0_bias[128] = 
{0.08814036101102828979f, 0.00494526373222470284f, 0.17310583591461181641f, -0.06379310786724090576f, -0.04589187726378440857f, 0.01823669672012329102f, 0.08732382953166961670f, 0.17762623727321624756f, 0.07734327018260955811f, 0.07599525153636932373f, -0.08749005943536758423f, -0.03997967764735221863f, -0.05896633490920066833f, 0.09233457595109939575f, 0.09939233958721160889f, 0.05289259925484657288f, -0.10323856770992279053f, 0.03662385046482086182f, 0.18083582818508148193f, 0.09053599834442138672f, 0.11160327494144439697f, -0.04999637231230735779f, -0.07122799009084701538f, 0.01022169366478919983f, -0.05051017925143241882f, 0.10465353727340698242f, -0.12420668452978134155f, 0.12589290738105773926f, 0.14715866744518280029f, -0.00910500157624483109f, 0.01292190980166196823f, 0.01141146756708621979f, 0.03299627080559730530f, 0.09887463599443435669f, -0.10695470124483108521f, -0.08025215566158294678f, -0.03645250201225280762f, 0.05798782408237457275f, -0.06680291891098022461f, 0.07693628966808319092f, 0.01901168562471866608f, 0.00181132974103093147f, -0.03848840668797492981f, 0.04554568603634834290f, 0.00573269976302981377f, 0.07783342897891998291f, 0.11170108616352081299f, 0.05355470627546310425f, -0.03185398504137992859f, 0.06048913300037384033f, 0.11140887439250946045f, 0.05867367982864379883f, 0.15398527681827545166f, -0.10142608731985092163f, -0.01592126302421092987f, 0.07630062103271484375f, 0.12039633095264434814f, -0.06035494431853294373f, -0.03751103207468986511f, -0.03296659886837005615f, -0.10183861106634140015f, -0.06729650497436523438f, -0.02528990060091018677f, -0.10908939689397811890f, -0.02097238600254058838f, 0.13617801666259765625f, 0.10722851753234863281f, 0.02307961881160736084f, -0.02083712257444858551f, -0.04691636934876441956f, 0.05447235703468322754f, -0.07675755769014358521f, 0.14041556417942047119f, -0.10279126465320587158f, 0.08392911404371261597f, -0.03834690153598785400f, -0.04124793782830238342f, -0.19617494940757751465f, 0.08631880581378936768f, -0.07813154160976409912f, -0.02392301149666309357f, -0.01343727670609951019f, -0.00198440579697489738f, -0.09474227577447891235f, -0.06150142848491668701f, 0.16577982902526855469f, 0.04440860822796821594f, -0.03834990784525871277f, -0.05822096765041351318f, 0.01172283757477998734f, 0.14117789268493652344f, 0.02884455397725105286f, -0.05678466334939002991f, -0.05957411229610443115f, 0.09819610416889190674f, 0.04631470143795013428f, 0.04946381598711013794f, 0.11831334233283996582f, 0.09310667961835861206f, 0.03392358496785163879f, 0.15330883860588073730f, -0.06481282413005828857f, 0.06238346174359321594f, -0.03395153954625129700f, -0.07140958309173583984f, -0.09811065346002578735f, -0.09845636039972305298f, 0.13319684565067291260f, -0.00740822777152061462f, 0.14865089952945709229f, 0.13432514667510986328f, -0.15168140828609466553f, 0.00474784197285771370f, -0.06760125607252120972f, -0.08715648949146270752f, -0.03663567826151847839f, 0.08829258382320404053f, 0.02763837762176990509f, 0.05109971389174461365f, 0.01991858892142772675f, 0.10674374550580978394f, -0.07209336012601852417f, 0.05196994543075561523f, -0.04018574580550193787f, 0.00238551571965217590f, -0.06543207168579101562f, -0.09926585853099822998f, 0.09848820418119430542f};
static const float tensor__Decoder__layers_1_l0_weight[128][128] = 
{
  {0.08323448151350021362f, -0.01487122289836406708f, -0.04855559393763542175f, -0.04362177476286888123f, -0.01493801549077033997f, 0.00173801288474351168f, -0.01132917404174804688f, 0.00100295688025653362f, 0.03846524283289909363f, 0.14353457093238830566f, 0.05908331274986267090f, 0.06395340710878372192f, 0.08227978646755218506f, -0.03780768439173698425f, 0.00961367506533861160f, -0.07539030164480209351f, 0.07503198832273483276f, -0.08189284801483154297f, 0.00753986788913607597f, 0.02931441366672515869f, 0.03061497583985328674f, 0.11967681348323822021f, 0.01838119141757488251f, -0.00009990729449782521f, -0.13995629549026489258f, -0.27144730091094970703f, -0.10518438369035720825f, -0.09857329726219177246f, 0.02174112014472484589f, -0.02538664452731609344f, 0.05383661761879920959f, -0.07197161018848419189f, -0.05564231052994728088f, -0.00166480289772152901f, -0.09548404812812805176f, -0.17785248160362243652f, -0.22074417769908905029f, -0.08022123575210571289f, -0.01162854954600334167f, -0.01209667418152093887f, 0.02429806068539619446f, -0.14574296772480010986f, -0.10709803551435470581f, 0.00731149502098560333f, 0.22381944954395294189f, 0.02323459833860397339f, -0.05713953450322151184f, -0.21573908627033233643f, 0.05657041072845458984f, 0.03475042060017585754f, -0.04385713115334510803f, 0.11797510832548141479f, -0.02185914292931556702f, -0.09657550603151321411f, 0.10799173265695571899f, -0.17507742345333099365f, -0.08345185965299606323f, -0.09697640687227249146f, -0.03112483769655227661f, -0.00817461032420396805f, 0.09740801155567169189f, 0.01688071154057979584f, 0.00089760526316240430f, 0.02967100031673908234f, -0.07513811439275741577f, -0.06312736123800277710f, -0.06279063224792480469f, 0.06591779738664627075f, 0.18697881698608398438f, -0.03067184984683990479f, 0.02720126882195472717f, 0.03408994525671005249f, 0.07441504299640655518f, -0.20424383878707885742f, -0.15540198981761932373f, 0.04581752046942710876f, 0.02426270768046379089f, -0.10464542359113693237f, -0.02852072380483150482f, -0.08635337650775909424f, 0.05428060516715049744f, -0.06081322208046913147f, -0.01787745207548141479f, 0.05089151486754417419f, 0.04926270246505737305f, 0.04633158445358276367f, -0.04037923738360404968f, 0.00477907806634902954f, 0.09754060953855514526f, -0.21522980928421020508f, -0.13622543215751647949f, 0.07691681385040283203f, -0.09453847259283065796f, -0.09511347860097885132f, -0.00630737934261560440f, 0.04885092377662658691f, -0.07296130806207656860f, 0.09028103202581405640f, -0.03624157235026359558f, 0.03718180954456329346f, 0.07595735788345336914f, 0.07621482014656066895f, -0.14529347419738769531f, -0.00028077419847249985f, -0.04983421042561531067f, -0.09785448759794235229f, 0.06452292948961257935f, 0.05797171220183372498f, 0.14787301421165466309f, 0.02422049455344676971f, 0.02102788165211677551f, -0.15382459759712219238f, 0.10156179219484329224f, 0.05801609158515930176f, 0.10990597307682037354f, -0.13698917627334594727f, 0.08716136217117309570f, 0.05587973073124885559f, 0.10041923075914382935f, 0.02606353163719177246f, -0.09113759547472000122f, 0.01607600972056388855f, 0.05018066614866256714f, 0.00706119043752551079f, 0.09814905375242233276f, -0.00387365231290459633f, -0.02387967891991138458f, -0.11405587196350097656f},
  {0.02118865773081779480f, 0.01958480104804039001f, -0.09677632898092269897f, -0.07885333895683288574f, 0.00856062490493059158f, -0.06901375204324722290f, 0.05492393299937248230f, -0.08034873008728027344f, 0.02825637161731719971f, -0.10839204490184783936f, -0.01756419613957405090f, -0.01119863148778676987f, 0.13528597354888916016f, 0.02238896302878856659f, 0.05416249111294746399f, -0.01072420552372932434f, 0.02682651393115520477f, -0.00634021591395139694f, -0.11058235168457031250f, 0.03827342391014099121f, 0.13264656066894531250f, 0.00843997579067945480f, -0.01835271343588829041f, 0.13660712540149688721f, 0.04063863307237625122f, -0.06342131644487380981f, -0.15740504860877990723f, -0.07000119984149932861f, 0.16606485843658447266f, -0.12544268369674682617f, -0.00037860620068386197f, -0.08619388937950134277f, 0.11284243315458297729f, 0.02715845406055450439f, -0.19572885334491729736f, 0.02175980620086193085f, -0.01410232111811637878f, -0.08290382474660873413f, 0.02300275675952434540f, -0.11491557210683822632f, -0.02279659174382686615f, -0.04950169473886489868f, -0.04421280324459075928f, -0.01964573934674263000f, 0.00734864501282572746f, -0.04957161843776702881f, 0.07434012740850448608f, 0.07058896124362945557f, 0.05843001976609230042f, -0.00040045008063316345f, 0.00202427082695066929f, 0.00599719770252704620f, -0.00250271940603852272f, 0.20192959904670715332f, 0.01464407611638307571f, -0.19284787774085998535f, -0.05432308092713356018f, 0.02650904096662998199f, 0.05936273559927940369f, 0.09737693518400192261f, 0.05028079077601432800f, -0.12606965005397796631f, 0.07623732089996337891f, 0.01435145270079374313f, 0.03661404550075531006f, -0.02973349206149578094f, -0.04033411666750907898f, -0.03726046904921531677f, 0.01546895969659090042f, 0.02460072748363018036f, -0.04229492321610450745f, -0.13282428681850433350f, 0.09375967830419540405f, -0.12055942416191101074f, -0.02848364599049091339f, 0.03121809102594852448f, -0.13033509254455566406f, 0.08096212148666381836f, -0.12622243165969848633f, -0.06118704006075859070f, 0.04272957518696784973f, 0.10170577466487884521f, -0.09607646614313125610f, -0.12342897802591323853f, -0.02943007275462150574f, -0.01951343007385730743f, 0.06549055129289627075f, 0.03812687471508979797f, -0.08539368957281112671f, -0.02940806560218334198f, -0.13222195208072662354f, -0.03295721113681793213f, 0.08792878687381744385f, -0.00564321223646402359f, -0.05876721069216728210f, -0.19877874851226806641f, -0.10840858519077301025f, -0.07694479823112487793f, -0.06620559841394424438f, 0.03723454475402832031f, -0.01242084987461566925f, 0.06123438104987144470f, 0.13905172049999237061f, 0.09064824879169464111f, -0.09084507822990417480f, -0.17227315902709960938f, 0.00674388092011213303f, -0.08835715055465698242f, -0.02873914316296577454f, -0.05747609212994575500f, 0.16897183656692504883f, -0.00370890484191477299f, -0.00977875757962465286f, -0.07573512196540832520f, -0.00806871615350246429f, 0.00481783179566264153f, 0.07032544165849685669f, 0.02574498578906059265f, 0.15013283491134643555f, -0.10755751281976699829f, 0.03981271758675575256f, -0.04922489821910858154f, -0.08124991506338119507f, -0.00189096061512827873f, -0.10619734972715377808f, 0.05781033262610435486f, -0.02650359086692333221f, 0.04964784532785415649f},
  {-0.06019868701696395874f, -0.00716584967449307442f, -0.02728168852627277374f, -0.04945134371519088745f, 0.01295021176338195801f, -0.10279964655637741089f, 0.03582609072327613831f, -0.02716901712119579315f, -0.07194581627845764160f, -0.07445766031742095947f, 0.04051080346107482910f, 0.03256095200777053833f, 0.13746085762977600098f, -0.02192075364291667938f, 0.01815026067197322845f, -0.13574874401092529297f, 0.02372353523969650269f, -0.10175496339797973633f, -0.03957925364375114441f, 0.03690107539296150208f, 0.10889567434787750244f, 0.01131915859878063202f, 0.04218974709510803223f, -0.06431369483470916748f, 0.05263592675328254700f, 0.14340807497501373291f, 0.05879028514027595520f, -0.01855721138417720795f, -0.06215044483542442322f, -0.03392753005027770996f, 0.03338917344808578491f, 0.01930723898112773895f, -0.05039068311452865601f, 0.03517111018300056458f, -0.03751555085182189941f, 0.02323309518396854401f, -0.03204980865120887756f, 0.01406832784414291382f, 0.05228558182716369629f, 0.06214044243097305298f, -0.05007811263203620911f, 0.06784506887197494507f, 0.06406605243682861328f, -0.09709648787975311279f, 0.06083848699927330017f, -0.03601620346307754517f, -0.02571935206651687622f, 0.10032004863023757935f, 0.01744262315332889557f, -0.08926287293434143066f, -0.03796194866299629211f, -0.04490921273827552795f, 0.01051740720868110657f, -0.06856882572174072266f, 0.00168019114062190056f, -0.08782876282930374146f, -0.14447510242462158203f, 0.01829192601144313812f, 0.05510850623250007629f, 0.09674646705389022827f, 0.02017917297780513763f, 0.01456892676651477814f, -0.04750195145606994629f, -0.01206393726170063019f, 0.05008268356323242188f, -0.07046121358871459961f, -0.06988938152790069580f, 0.02683539129793643951f, 0.01543789170682430267f, 0.03667094185948371887f, 0.06521303206682205200f, 0.07531431317329406738f, 0.12392921000719070435f, 0.08944270014762878418f, -0.01450934261083602905f, 0.06898707151412963867f, 0.07696675509214401245f, 0.08180849254131317139f, -0.06693029403686523438f, -0.12767471373081207275f, -0.07749973982572555542f, -0.00600212346762418747f, 0.01437655836343765259f, 0.06001763790845870972f, 0.00679371552541851997f, -0.02153188362717628479f, -0.05296114087104797363f, -0.04997105151414871216f, -0.00354605843313038349f, 0.03293032944202423096f, -0.02094638347625732422f, -0.01881552673876285553f, -0.07319495826959609985f, 0.01385948061943054199f, -0.03843732178211212158f, -0.00028029363602399826f, -0.11214386671781539917f, 0.02004770003259181976f, 0.00587405683472752571f, -0.00428550690412521362f, 0.05310106277465820312f, 0.04130295291543006897f, -0.06711256504058837891f, 0.03195378184318542480f, -0.00557127222418785095f, 0.07091590762138366699f, -0.05820792913436889648f, -0.03946975246071815491f, 0.02826528251171112061f, -0.07227455824613571167f, -0.04610033705830574036f, -0.01773252151906490326f, -0.06927211582660675049f, 0.06533818691968917847f, 0.01275825407356023788f, -0.02748942002654075623f, -0.14111404120922088623f, -0.02835177443921566010f, 0.08073063939809799194f, -0.02399300597608089447f, -0.05010589212179183960f, 0.05523161962628364563f, 0.05906861647963523865f, -0.00861026253551244736f, -0.01191564928740262985f, 0.01840993389487266541f, -0.06759471446275711060f, 0.00788563583046197891f},
  {-0.10661652684211730957f, -0.01879311539232730865f, 0.04119750484824180603f, 0.03003349527716636658f, -0.10053640604019165039f, 0.02302098833024501801f, -0.03461729735136032104f, 0.04350442066788673401f, -0.07748087495565414429f, 0.02203223668038845062f, -0.02092658914625644684f, 0.07159043103456497192f, -0.17827199399471282959f, -0.05026144906878471375f, -0.11641359329223632812f, 0.04987217485904693604f, -0.00456005567684769630f, 0.08206497132778167725f, 0.17416308820247650146f, -0.12972168624401092529f, -0.03144667670130729675f, 0.28367334604263305664f, 0.02846776507794857025f, -0.01848226226866245270f, -0.18085069954395294189f, 0.10503439605236053467f, -0.08526432514190673828f, -0.14906276762485504150f, 0.02475451119244098663f, 0.01430105976760387421f, 0.07241483777761459351f, 0.10286356508731842041f, 0.02593223378062248230f, 0.06765799969434738159f, 0.14220337569713592529f, -0.03321646153926849365f, -0.10220483690500259399f, 0.12339968979358673096f, -0.05580960959196090698f, 0.06619451940059661865f, -0.09090849757194519043f, -0.20724077522754669189f, 0.09623248875141143799f, 0.16497440636157989502f, 0.10201172530651092529f, 0.07344326376914978027f, -0.11847457289695739746f, -0.04972378164529800415f, -0.09734884649515151978f, 0.00413523707538843155f, -0.05621473491191864014f, 0.02331383526325225830f, -0.05336401239037513733f, -0.08348677307367324829f, -0.15010611712932586670f, 0.08988574892282485962f, 0.16034175455570220947f, 0.06053912267088890076f, -0.00563520193099975586f, -0.03915023803710937500f, 0.06511541455984115601f, -0.08355101943016052246f, -0.03802886605262756348f, 0.05131731927394866943f, 0.13267624378204345703f, 0.03604678809642791748f, -0.01305830851197242737f, 0.02808468230068683624f, -0.04971715435385704041f, 0.04165610671043395996f, -0.00920837651938199997f, 0.07542665302753448486f, -0.04453532770276069641f, -0.08190824836492538452f, 0.07757411152124404907f, 0.03861498087644577026f, 0.18052992224693298340f, 0.04746297374367713928f, 0.11707542091608047485f, -0.06629131734371185303f, 0.04620170593261718750f, -0.07245127856731414795f, 0.05060534924268722534f, 0.12198627740144729614f, 0.07056156545877456665f, 0.05921820923686027527f, -0.00331651745364069939f, 0.03256361931562423706f, 0.02016635239124298096f, -0.07670021057128906250f, 0.14899799227714538574f, -0.04010862484574317932f, -0.07070592790842056274f, 0.05514712259173393250f, 0.02090045250952243805f, 0.13462942838668823242f, -0.13091272115707397461f, -0.08668512850999832153f, 0.10868441313505172729f, -0.00433655502274632454f, 0.10260362178087234497f, -0.03741725906729698181f, 0.04128007590770721436f, 0.05984624102711677551f, 0.08491876721382141113f, 0.03781226649880409241f, -0.01309274043887853622f, -0.05717650055885314941f, 0.06641186028718948364f, 0.07083206623792648315f, -0.15660670399665832520f, 0.00403833528980612755f, 0.02205605059862136841f, -0.10570199787616729736f, -0.10358446091413497925f, -0.11390092968940734863f, -0.01788410544395446777f, 0.01577254384756088257f, 0.04532481357455253601f, 0.11624107509851455688f, 0.05546294897794723511f, 0.05156589671969413757f, -0.04070634767413139343f, -0.11511183530092239380f, 0.00508735654875636101f, -0.09593920409679412842f, 0.05215243995189666748f, -0.12731553614139556885f},
  {-0.15780420601367950439f, 0.13072220981121063232f, -0.02003991603851318359f, 0.09058106690645217896f, -0.00662759458646178246f, -0.02980381809175014496f, -0.02382043749094009399f, -0.08954804390668869019f, 0.06615019589662551880f, -0.07296518981456756592f, 0.07793532311916351318f, 0.18410761654376983643f, -0.01000257115811109543f, 0.11728488653898239136f, 0.13269974291324615479f, 0.05119897425174713135f, 0.00439511705189943314f, -0.03376334533095359802f, 0.01503196544945240021f, -0.11791557818651199341f, 0.02776252105832099915f, 0.04022302106022834778f, -0.00267177401110529900f, -0.00224887952208518982f, 0.01680517382919788361f, 0.13661819696426391602f, 0.00846087560057640076f, 0.12839521467685699463f, -0.06441016495227813721f, -0.03854335471987724304f, 0.07313346117734909058f, -0.02203334495425224304f, 0.02587466500699520111f, 0.31957888603210449219f, -0.02718631550669670105f, -0.03404981270432472229f, 0.12360459566116333008f, 0.11024215072393417358f, -0.06249882653355598450f, 0.07056368887424468994f, 0.14208373427391052246f, -0.13395832479000091553f, 0.02695972844958305359f, -0.03849901258945465088f, -0.00696888053789734840f, -0.07638305425643920898f, 0.03651434183120727539f, -0.00845985487103462219f, 0.17397215962409973145f, 0.09588469564914703369f, 0.10293905436992645264f, 0.07977558672428131104f, -0.08204001188278198242f, 0.00149351544678211212f, -0.02908727712929248810f, -0.17884567379951477051f, 0.04867816716432571411f, 0.09637273848056793213f, 0.00408815778791904449f, 0.02145594358444213867f, 0.01988647133111953735f, 0.05554105341434478760f, 0.00077122519724071026f, 0.06592546403408050537f, -0.12359223514795303345f, -0.01909390464425086975f, -0.03707008063793182373f, -0.04667571932077407837f, 0.01156522054225206375f, 0.04262293875217437744f, -0.03445709869265556335f, 0.01293086539953947067f, 0.08301541209220886230f, -0.05919129773974418640f, -0.03609946742653846741f, 0.10312977433204650879f, 0.04486105218529701233f, -0.00855650845915079117f, -0.07728776335716247559f, -0.00397995393723249435f, -0.01651166751980781555f, -0.02965812198817729950f, 0.07033573091030120850f, -0.04515141248703002930f, 0.02665628306567668915f, -0.10427819192409515381f, -0.03870719671249389648f, -0.06703709065914154053f, -0.13413354754447937012f, 0.00414740201085805893f, -0.06895463168621063232f, -0.03343508392572402954f, -0.00038559111999347806f, 0.09129101037979125977f, -0.02080060727894306183f, 0.04945662617683410645f, -0.10974757373332977295f, 0.03237513825297355652f, -0.03329838439822196960f, -0.06616317480802536011f, -0.05923891440033912659f, -0.02291863411664962769f, -0.04620116949081420898f, 0.04906848445534706116f, -0.02637758292257785797f, 0.10725983977317810059f, 0.16810838878154754639f, -0.11734938621520996094f, 0.09804157912731170654f, -0.02571087889373302460f, -0.07895509898662567139f, 0.00032472590100951493f, 0.03471153229475021362f, 0.14301539957523345947f, -0.01871351711452007294f, 0.10823500156402587891f, -0.17565491795539855957f, 0.12716311216354370117f, -0.06465080380439758301f, -0.03887635841965675354f, 0.08190437406301498413f, -0.06680624186992645264f, -0.08884011954069137573f, -0.02428118139505386353f, -0.05171086266636848450f, -0.02171442098915576935f, -0.07925655692815780640f, -0.06020904332399368286f},
  {0.01469207089394330978f, 0.04141156375408172607f, 0.00644015474244952202f, -0.04465749859809875488f, 0.04911367967724800110f, 0.00207780394703149796f, 0.09163805842399597168f, 0.00502813654020428658f, 0.03010812588036060333f, -0.08275530487298965454f, -0.02027671225368976593f, -0.02065518125891685486f, 0.11836929619312286377f, 0.00102031929418444633f, -0.01925686188042163849f, 0.03298518061637878418f, 0.01266363169997930527f, 0.07726804167032241821f, 0.07116884738206863403f, 0.08090510964393615723f, 0.00487586716189980507f, 0.02333565987646579742f, 0.06881267577409744263f, -0.02190224081277847290f, 0.00031871863757260144f, -0.22930839657783508301f, 0.00095196603797376156f, 0.01645668223500251770f, 0.04893279075622558594f, 0.04472039639949798584f, 0.06711823493242263794f, 0.10863661766052246094f, 0.07060393691062927246f, 0.01877991110086441040f, 0.01366264838725328445f, 0.05863839387893676758f, -0.14979900419712066650f, 0.06559919565916061401f, 0.07912830263376235962f, -0.05714806541800498962f, 0.00213058409281075001f, 0.08265127241611480713f, -0.05709783732891082764f, 0.01078065484762191772f, 0.03888266161084175110f, 0.03919846192002296448f, -0.01130799949169158936f, -0.13671635091304779053f, 0.01082360465079545975f, 0.11046883463859558105f, 0.02777186222374439240f, 0.01693965867161750793f, 0.08113799989223480225f, 0.10088764876127243042f, 0.01193126477301120758f, 0.04804243892431259155f, 0.06126724183559417725f, -0.07410321384668350220f, 0.07208884507417678833f, 0.10528483241796493530f, -0.02530656382441520691f, 0.04061108082532882690f, -0.03957631811499595642f, -0.00179382425267249346f, 0.00419322494417428970f, 0.16539968550205230713f, -0.07628682255744934082f, 0.03249782696366310120f, -0.01664599403738975525f, -0.01842007227241992950f, 0.07539007067680358887f, 0.03423117101192474365f, 0.01514834444969892502f, -0.09202975779771804810f, 0.11614410579204559326f, -0.11123576760292053223f, -0.00500640738755464554f, 0.02021008729934692383f, 0.06515882909297943115f, 0.05582822486758232117f, 0.10257834941148757935f, 0.01406772807240486145f, -0.03264145553112030029f, -0.00897775962948799133f, -0.05745245888829231262f, -0.06490187346935272217f, -0.08042299002408981323f, 0.03115422464907169342f, 0.03749841079115867615f, -0.08817024528980255127f, -0.14184197783470153809f, 0.02343394234776496887f, 0.04104388132691383362f, -0.09502732753753662109f, -0.08684728294610977173f, 0.08381101489067077637f, -0.11518389731645584106f, 0.05014314875006675720f, -0.04022172838449478149f, -0.13483923673629760742f, 0.07176373153924942017f, -0.01594450697302818298f, 0.06175532564520835876f, 0.05494091287255287170f, -0.03555526956915855408f, 0.04571017250418663025f, 0.04774690791964530945f, -0.04471781477332115173f, 0.11023151874542236328f, -0.05969879403710365295f, -0.06575271487236022949f, -0.01916532218456268311f, 0.08484072238206863403f, 0.08698309957981109619f, 0.00033746557892300189f, -0.01694430038332939148f, -0.10681237280368804932f, 0.01753235235810279846f, -0.05976952239871025085f, 0.02130157127976417542f, -0.09013559669256210327f, 0.09783149510622024536f, -0.04997979104518890381f, -0.01723280176520347595f, -0.03797428309917449951f, -0.05030385404825210571f, -0.06817716360092163086f, 0.04776027798652648926f},
  {0.11989311128854751587f, -0.10367839038372039795f, -0.20303696393966674805f, 0.15366329252719879150f, -0.17527239024639129639f, -0.07781528681516647339f, -0.03621520102024078369f, 0.04853856191039085388f, 0.07018308341503143311f, 0.09921842813491821289f, 0.12819695472717285156f, -0.00257100164890289307f, -0.02784163318574428558f, -0.10558881610631942749f, 0.03961412608623504639f, -0.06672584265470504761f, 0.08776095509529113770f, -0.32752835750579833984f, 0.10273800045251846313f, -0.09400311857461929321f, 0.06218156218528747559f, 0.07954112440347671509f, -0.00218177214264869690f, -0.08932258188724517822f, 0.13761352002620697021f, 0.05704759433865547180f, -0.06355534493923187256f, -0.08112253248691558838f, 0.04199959337711334229f, -0.00283622182905673981f, 0.03121505677700042725f, -0.17039974033832550049f, -0.02725649997591972351f, -0.06965882331132888794f, -0.02224840223789215088f, -0.04516186565160751343f, 0.04806260764598846436f, -0.06251534819602966309f, 0.16406314074993133545f, 0.08659268915653228760f, 0.07506852596998214722f, 0.10134278237819671631f, -0.33817419409751892090f, -0.05027849599719047546f, -0.10210333764553070068f, 0.05799059942364692688f, 0.08067626506090164185f, -0.04533182457089424133f, -0.12378603965044021606f, 0.04443808272480964661f, -0.18963553011417388916f, 0.08715942502021789551f, -0.11610759049654006958f, -0.01979460008442401886f, 0.08247819542884826660f, 0.09541659057140350342f, -0.02293435297906398773f, -0.07443998754024505615f, -0.16543705761432647705f, 0.03522879630327224731f, -0.03095163218677043915f, 0.02495301142334938049f, 0.00844171829521656036f, -0.17880138754844665527f, -0.06053309515118598938f, -0.02124910429120063782f, 0.04269408434629440308f, 0.11184453219175338745f, 0.03965970501303672791f, 0.19782498478889465332f, -0.06449463963508605957f, -0.08879996836185455322f, 0.10142146795988082886f, 0.11477044224739074707f, 0.03544651716947555542f, -0.00551056535914540291f, -0.00415759719908237457f, -0.03436713665723800659f, 0.04266757518053054810f, -0.04096456989645957947f, -0.03641508519649505615f, 0.03504220023751258850f, 0.09558381140232086182f, -0.12983453273773193359f, 0.00050540571101009846f, 0.10190904140472412109f, 0.10144646465778350830f, 0.03953194245696067810f, -0.01216506958007812500f, -0.08592285215854644775f, 0.04322329908609390259f, -0.11111921072006225586f, 0.14185152947902679443f, -0.02203209511935710907f, 0.01408698130398988724f, -0.24168102443218231201f, -0.00606288015842437744f, 0.12407569587230682373f, -0.10925182700157165527f, 0.02179711684584617615f, -0.14363390207290649414f, 0.09440155327320098877f, -0.01499927882105112076f, -0.08476537466049194336f, -0.14174853265285491943f, -0.00851321034133434296f, -0.02340724132955074310f, 0.03700768947601318359f, -0.02922169864177703857f, -0.08966593444347381592f, 0.03351933136582374573f, -0.02730467915534973145f, -0.04215004667639732361f, 0.04896128177642822266f, 0.08268649876117706299f, 0.01916598714888095856f, -0.17731708288192749023f, -0.13938157260417938232f, -0.00593618489801883698f, 0.05912636965513229370f, -0.10480166226625442505f, -0.09901888668537139893f, -0.15747828781604766846f, 0.09509517252445220947f, 0.02980537340044975281f, 0.07101751118898391724f, -0.14193455874919891357f, -0.07703617960214614868f},
  {0.06746201962232589722f, 0.16281962394714355469f, -0.05848539248108863831f, -0.04651142284274101257f, 0.05258829891681671143f, -0.04858342930674552917f, -0.06172505393624305725f, -0.06335559487342834473f, 0.11608463525772094727f, -0.13517442345619201660f, 0.14744792878627777100f, 0.11802067607641220093f, -0.02839351445436477661f, 0.06446312367916107178f, 0.00472497753798961639f, -0.00967613141983747482f, -0.07813473790884017944f, -0.10197085142135620117f, -0.05861173942685127258f, 0.06844973564147949219f, -0.05108787119388580322f, 0.14848360419273376465f, -0.09910009056329727173f, 0.15445514023303985596f, -0.11308793723583221436f, -0.00242400728166103363f, -0.14844866096973419189f, -0.02386241964995861053f, 0.11189161241054534912f, -0.02484844997525215149f, -0.06762968748807907104f, -0.10877585411071777344f, -0.00335669261403381824f, -0.01299806870520114899f, -0.06486844271421432495f, 0.07135958969593048096f, -0.09653007239103317261f, -0.11995273083448410034f, -0.06081327795982360840f, -0.00123544456437230110f, 0.01066009886562824249f, -0.13886685669422149658f, -0.02014505490660667419f, 0.02098970860242843628f, 0.03079748153686523438f, -0.11589914560317993164f, 0.12553587555885314941f, -0.14647805690765380859f, -0.03947654366493225098f, 0.09675820171833038330f, -0.13359050452709197998f, -0.02059129811823368073f, 0.11600657552480697632f, -0.08492006361484527588f, -0.03114748559892177582f, 0.06490006297826766968f, 0.03816990181803703308f, -0.07718273252248764038f, -0.06618487089872360229f, -0.09003950655460357666f, 0.00787982158362865448f, -0.14586015045642852783f, -0.01909966766834259033f, 0.00654265703633427620f, -0.02569111809134483337f, -0.08368275314569473267f, 0.07362304627895355225f, 0.03351797908544540405f, 0.06725015491247177124f, -0.03473846986889839172f, 0.11948198080062866211f, 0.04207044467329978943f, 0.00206912215799093246f, -0.25631400942802429199f, -0.04842878505587577820f, -0.02086132578551769257f, 0.00430991780012845993f, -0.01358015835285186768f, -0.10552772134542465210f, 0.04545935615897178650f, 0.03596187382936477661f, 0.08528497070074081421f, -0.09901174902915954590f, 0.12482514232397079468f, -0.02841543406248092651f, 0.01463502272963523865f, -0.05662703886628150940f, -0.03894977644085884094f, -0.07994379103183746338f, 0.03344980254769325256f, 0.02064895816147327423f, 0.14395831525325775146f, -0.05279792472720146179f, 0.05632090196013450623f, -0.02044631913304328918f, 0.01041785534471273422f, 0.03273996710777282715f, 0.04006426408886909485f, -0.09360513836145401001f, 0.11684035509824752808f, 0.07720320671796798706f, 0.05837342143058776855f, 0.09944564849138259888f, -0.05906929075717926025f, -0.11893515288829803467f, 0.02004259265959262848f, 0.09279242902994155884f, 0.06293779611587524414f, 0.06523841619491577148f, 0.06258042156696319580f, 0.06825907528400421143f, 0.05951054394245147705f, -0.10697461664676666260f, 0.02691151387989521027f, -0.03941271081566810608f, -0.04210007190704345703f, 0.12050829827785491943f, 0.03422179818153381348f, 0.06724963337182998657f, -0.10404848307371139526f, 0.03435173630714416504f, -0.01985125057399272919f, -0.10699674487113952637f, 0.02811988629400730133f, 0.19323064386844635010f, 0.07241722941398620605f, 0.03361136838793754578f, -0.05321970209479331970f},
  {-0.07213073223829269409f, -0.03890044614672660828f, 0.07157278805971145630f, 0.01429915800690650940f, -0.05627821385860443115f, -0.02814751677215099335f, 0.06636334210634231567f, 0.01787893287837505341f, -0.02464243210852146149f, 0.03588721901178359985f, -0.02903797291219234467f, -0.02206545695662498474f, 0.00841267127543687820f, -0.07440078258514404297f, -0.03077356331050395966f, -0.01135765761137008667f, -0.01897818222641944885f, 0.06095180287957191467f, -0.02356460317969322205f, 0.02811689116060733795f, 0.01108358521014451981f, 0.01575249060988426208f, -0.02976599708199501038f, -0.05534980818629264832f, 0.00266966945491731167f, 0.02434780821204185486f, 0.02632102556526660919f, 0.06817612051963806152f, -0.05025205016136169434f, -0.01440125331282615662f, -0.01938596181571483612f, -0.00741178123280405998f, 0.00940796919167041779f, -0.01253548357635736465f, -0.00624201027676463127f, 0.07462566345930099487f, -0.08863870799541473389f, -0.03324987366795539856f, -0.04499930143356323242f, 0.03279157727956771851f, 0.04018111526966094971f, 0.07206507772207260132f, -0.10382324457168579102f, -0.00050093693425878882f, -0.05502316728234291077f, -0.02986821345984935760f, 0.05750099942088127136f, -0.03564269468188285828f, -0.09811192750930786133f, 0.01991698890924453735f, 0.04910133033990859985f, 0.02853369526565074921f, 0.09399707615375518799f, -0.10456710308790206909f, 0.02147900313138961792f, -0.01993196085095405579f, 0.07956536114215850830f, -0.06789395213127136230f, -0.06122333556413650513f, 0.03450748696923255920f, -0.03033306449651718140f, -0.01480886153876781464f, -0.03519116714596748352f, -0.05494197085499763489f, 0.01574868708848953247f, 0.09009942412376403809f, 0.00289396429434418678f, 0.01978654414415359497f, -0.10722604393959045410f, 0.02839892171323299408f, -0.02893957123160362244f, -0.03451560065150260925f, 0.05530612543225288391f, 0.02687990665435791016f, -0.02972141839563846588f, -0.05913772433996200562f, -0.02118885889649391174f, -0.06412366032600402832f, -0.01363776344805955887f, -0.12243957072496414185f, 0.02229395136237144470f, 0.00976103823632001877f, 0.05877767503261566162f, -0.01035052444785833359f, 0.02506411820650100708f, -0.02921568788588047028f, -0.00177459639962762594f, -0.12755809724330902100f, 0.06096949428319931030f, 0.10168991982936859131f, 0.02489729784429073334f, -0.00711530819535255432f, -0.06050684675574302673f, -0.00540117733180522919f, 0.03274551406502723694f, 0.04053561016917228699f, -0.05782433971762657166f, -0.05156363174319267273f, 0.07121607661247253418f, -0.07327209413051605225f, -0.06202379986643791199f, 0.04661155492067337036f, -0.03144843131303787231f, 0.01160994078963994980f, 0.03729981929063796997f, -0.05630071088671684265f, 0.00904447492212057114f, -0.03424669057130813599f, -0.09997145086526870728f, -0.03796662762761116028f, -0.02497875131666660309f, -0.02918487787246704102f, 0.03646609187126159668f, -0.03647972643375396729f, -0.01557999011129140854f, 0.03613164275884628296f, -0.04742291569709777832f, -0.02852122299373149872f, -0.08801089972257614136f, -0.01547922287136316299f, 0.01351441908627748489f, -0.02200295962393283844f, 0.08253391087055206299f, 0.08106642961502075195f, 0.02383190393447875977f, -0.07628479599952697754f, -0.05383857339620590210f, 0.01099362410604953766f},
