// This file is computer-generated by onnx2c 
// Command Line: onnx2c/build/onnx2c -d batch_size:1 --no-globals --func-name linket_encoder_forward out/models/m0_small/encoder.onnx

// onnx2c
// Git Branch: feature/func-name
// Git Commit: cfcce19

// ONNX Model
// Produced By: pytorch, version 2.10.0+cu130
// ONNX IR version: 20

#include <float.h>
#include <math.h>
#include <stdbool.h>
#include <stdint.h>
#include <string.h>
#include <stdlib.h>

#define MAX(X,Y) ( X > Y ? X : Y)
#define MIN(X,Y) ( X < Y ? X : Y)
#define CLIP(X,L) ( MAX(MIN(X,L), -L) )

#if __STDC_VERSION__ < 199901L
#define FUNC_PREFIX
#else
#define FUNC_PREFIX static inline
#endif

static const float tensor_layers_0_weight[64][192] = 
{
  {0.05474221706390380859f, 0.01405428256839513779f, 0.02264339663088321686f, -0.01471054740250110626f, 0.01970886439085006714f, -0.08416789770126342773f, -0.13203962147235870361f, -0.02566581033170223236f, 0.03391798958182334900f, -0.03432523459196090698f, -0.01122443843632936478f, -0.02916344255208969116f, 0.03941434994339942932f, -0.07166608422994613647f, -0.08847177028656005859f, -0.07539510726928710938f, -0.00193954748101532459f, 0.02885291352868080139f, 0.04635829105973243713f, 0.00666832504794001579f, 0.06424253433942794800f, 0.03828537091612815857f, 0.05765350908041000366f, 0.00265248096548020840f, 0.05498350039124488831f, 0.00757703324779868126f, -0.01440106518566608429f, -0.03656993433833122253f, -0.02924320846796035767f, -0.02571743167936801910f, 0.08145705610513687134f, 0.10784983634948730469f, 0.04316172748804092407f, 0.02937971986830234528f, -0.06452100723981857300f, 0.06734762340784072876f, -0.00703541561961174011f, -0.00924420170485973358f, 0.03610332310199737549f, 0.01780198328197002411f, 0.01610563509166240692f, -0.06531245261430740356f, -0.03034000843763351440f, 0.00366313429549336433f, -0.00292539037764072418f, -0.06949590146541595459f, 0.06694379448890686035f, 0.07912494242191314697f, 0.02319960296154022217f, -0.00494420388713479042f, -0.06382823735475540161f, -0.01200858410447835922f, -0.00968818739056587219f, -0.03793484345078468323f, 0.04925896972417831421f, 0.08606038242578506470f, 0.05522464588284492493f, -0.06713890284299850464f, 0.03300024569034576416f, -0.04270936921238899231f, -0.05037788301706314087f, 0.00269108079373836517f, -0.08271642029285430908f, -0.01558448933064937592f, 0.00055802578572183847f, -0.01658888906240463257f, 0.00021590592223219573f, 0.04310296848416328430f, -0.05718150734901428223f, -0.08370635658502578735f, -0.15526913106441497803f, -0.05996523424983024597f, 0.07894136756658554077f, 0.08392285555601119995f, 0.03261189162731170654f, -0.03807490319013595581f, -0.05052366852760314941f, -0.09601131081581115723f, -0.02503902092576026917f, -0.07248523831367492676f, 0.08468934148550033569f, 0.06072975322604179382f, 0.00672003161162137985f, 0.05674809962511062622f, -0.03349315747618675232f, 0.02769627422094345093f, -0.03762961179018020630f, 0.00680006062611937523f, 0.02937492541968822479f, -0.03296683356165885925f, -0.08745434135198593140f, -0.00352182169444859028f, -0.05796199291944503784f, -0.01794453337788581848f, -0.04096174240112304688f, 0.03644910082221031189f, 0.04284247383475303650f, 0.02359033003449440002f, -0.03286353498697280884f, 0.07015898078680038452f, -0.02053317800164222717f, 0.01832324825227260590f, 0.06123074144124984741f, 0.10114002972841262817f, 0.05865172669291496277f, 0.00850196648389101028f, -0.03827596083283424377f, -0.02006277814507484436f, -0.08675994724035263062f, 0.01067576650530099869f, 0.04136434197425842285f, 0.05347042158246040344f, 0.05990505218505859375f, 0.02862681262195110321f, -0.00333764753304421902f, 0.05004182085394859314f, 0.01499707810580730438f, -0.07344210147857666016f, -0.02455618232488632202f, 0.04474277421832084656f, 0.04449040442705154419f, -0.06291709840297698975f, -0.01482562813907861710f, -0.07207588851451873779f, -0.01946329697966575623f, -0.02034781873226165771f, -0.05067307874560356140f, 0.01472632959485054016f, 0.02398908883333206177f, 0.01581254228949546814f, -0.01895477063953876495f, 0.02830940298736095428f, -0.04088120535016059875f, -0.10222980380058288574f, -0.16024096310138702393f, -0.08543522655963897705f, 0.03025041706860065460f, 0.01089750695973634720f, 0.01739738509058952332f, 0.05434321239590644836f, -0.02237997017800807953f, -0.02519392594695091248f, -0.04647652059793472290f, 0.02255981788039207458f, 0.00369024556130170822f, 0.03936620801687240601f, 0.01568547822535037994f, 0.02480962313711643219f, 0.07415775954723358154f, -0.07215696573257446289f, 0.05266019701957702637f, -0.01320589240640401840f, 0.05603072047233581543f, 0.03979933261871337891f, -0.03296281397342681885f, -0.02630129456520080566f, 0.02763183601200580597f, -0.00338696129620075226f, 0.00560264289379119873f, 0.02631250396370887756f, 0.06466994434595108032f, -0.02919477410614490509f, -0.00361249875277280807f, -0.04577144980430603027f, -0.03199019655585289001f, 0.07839907705783843994f, 0.09671048074960708618f, 0.05091052874922752380f, 0.05351991578936576843f, -0.04387905448675155640f, -0.05876914411783218384f, -0.03287943825125694275f, 0.03004417195916175842f, -0.00349788577295839787f, 0.01136739924550056458f, 0.07708776742219924927f, -0.01462769042700529099f, 0.06989956647157669067f, -0.03517806902527809143f, 0.00507191196084022522f, -0.03585232794284820557f, 0.01366962864995002747f, -0.06755954027175903320f, -0.02148162387311458588f, 0.00688974140211939812f, -0.04883431270718574524f, 0.04148251563310623169f, -0.01798489131033420563f, -0.01864682137966156006f, -0.08300578594207763672f, -0.07918598502874374390f, -0.03260604664683341980f},
  {0.05817520990967750549f, -0.01138538122177124023f, -0.01849058456718921661f, 0.05176051706075668335f, 0.03332012891769409180f, -0.01862107776105403900f, 0.00763222808018326759f, 0.04812048748135566711f, 0.06759220361709594727f, 0.09396053850650787354f, 0.08377940207719802856f, 0.06099800392985343933f, -0.00731113599613308907f, 0.06531520187854766846f, -0.01661026291549205780f, -0.02707120403647422791f, 0.02333918772637844086f, 0.10557466745376586914f, 0.04278592765331268311f, 0.09432249516248703003f, 0.09569010138511657715f, 0.06730871647596359253f, 0.04174632579088211060f, -0.03620669618248939514f, -0.00720199756324291229f, 0.07206941395998001099f, 0.08760101348161697388f, -0.00095831282669678330f, 0.00794012565165758133f, 0.00338661437854170799f, 0.01651846431195735931f, -0.02701182849705219269f, 0.02756068482995033264f, 0.03865072876214981079f, 0.00562727125361561775f, 0.05694719403982162476f, 0.02858866378664970398f, 0.00807998608797788620f, -0.04172329604625701904f, 0.02310874126851558685f, 0.05343003943562507629f, 0.04952688142657279968f, 0.07089845091104507446f, 0.05720656737685203552f, -0.07377448678016662598f, 0.01109861675649881363f, 0.05320860445499420166f, -0.02031566016376018524f, -0.00775241060182452202f, 0.10458609461784362793f, 0.12010120600461959839f, -0.02743680402636528015f, -0.00478206528350710869f, -0.04723536595702171326f, -0.01001846417784690857f, -0.01613575592637062073f, 0.01460009161382913589f, 0.00570714846253395081f, 0.00870279408991336823f, 0.06108907982707023621f, -0.06948854029178619385f, -0.01058734860271215439f, 0.01307122968137264252f, -0.00643957220017910004f, -0.01542233396321535110f, 0.03494155406951904297f, 0.00372469727881252766f, -0.09413310885429382324f, 0.00468927575275301933f, -0.03121425211429595947f, 0.04804861173033714294f, 0.00187835074029862881f, 0.04418660700321197510f, -0.04716497659683227539f, 0.06896004080772399902f, 0.05399333685636520386f, 0.04931792989373207092f, 0.04152781888842582703f, 0.06126975640654563904f, -0.03838353231549263000f, 0.05434888228774070740f, 0.03990066051483154297f, 0.03989350795745849609f, -0.02506649866700172424f, 0.05288156121969223022f, 0.04915088415145874023f, -0.04574172198772430420f, -0.05386102199554443359f, -0.07411003857851028442f, 0.06603911519050598145f, 0.02996088005602359772f, -0.01173618715256452560f, -0.02613246068358421326f, -0.02139291167259216309f, -0.05206714943051338196f, -0.06436981260776519775f, -0.04568694531917572021f, 0.01756778173148632050f, -0.02109557390213012695f, 0.04822631925344467163f, -0.09652548283338546753f, -0.01060232706367969513f, -0.04426055401563644409f, -0.00865499768406152725f, 0.02766650170087814331f, 0.03206208720803260803f, 0.08187229931354522705f, -0.04688125476241111755f, 0.01777038909494876862f, -0.08182688057422637939f, -0.02304532937705516815f, 0.03493558615446090698f, 0.06229225173592567444f, 0.03919630125164985657f, 0.10082040727138519287f, 0.05177801102399826050f, -0.00336258509196341038f, -0.00646397285163402557f, 0.04188428074121475220f, 0.05261095985770225525f, 0.00057366909459233284f, 0.09899432212114334106f, 0.03447652235627174377f, -0.00574056804180145264f, -0.00623704493045806885f, -0.06987632811069488525f, 0.06878919154405593872f, 0.11425586789846420288f, 0.01524773705750703812f, -0.01818813197314739227f, -0.05034860968589782715f, -0.07515311241149902344f, -0.00211248174309730530f, -0.01425364241003990173f, -0.03444018959999084473f, -0.00374798290431499481f, -0.04411337524652481079f, 0.02727997675538063049f, -0.02532880380749702454f, -0.04328240081667900085f, 0.01902789808809757233f, 0.01443833857774734497f, -0.00549774197861552238f, -0.01731810532510280609f, -0.02989999577403068542f, 0.05155444517731666565f, -0.03050017543137073517f, 0.08543633669614791870f, 0.04862101376056671143f, 0.02133855223655700684f, 0.03474242240190505981f, 0.03999532014131546021f, -0.04851142689585685730f, -0.01731984131038188934f, -0.01525304000824689865f, -0.01960433460772037506f, -0.03642677888274192810f, -0.05528245866298675537f, -0.00830915104597806931f, 0.01532708946615457535f, -0.00836930330842733383f, -0.00568061042577028275f, -0.03696955367922782898f, -0.04902412369847297668f, -0.02665312215685844421f, -0.04153501987457275391f, -0.04485538229346275330f, 0.02445091307163238525f, -0.02441073395311832428f, 0.01924183592200279236f, -0.00897099915891885757f, 0.01389236282557249069f, 0.02211370505392551422f, -0.01706177555024623871f, 0.00077296857489272952f, 0.00830490887165069580f, -0.01939218863844871521f, 0.10518345236778259277f, 0.06014654412865638733f, 0.02368403784930706024f, -0.10150359570980072021f, -0.03417484462261199951f, 0.00320562813431024551f, 0.09533601254224777222f, -0.03865565732121467590f, 0.10124269872903823853f, 0.08452950417995452881f, -0.04290385544300079346f, -0.07359733432531356812f, -0.00894858501851558685f, 0.00488788913935422897f, -0.00732094608247280121f},
  {-0.02102489396929740906f, 0.05971031635999679565f, -0.02823237515985965729f, 0.05820350721478462219f, -0.04210279509425163269f, -0.03214527666568756104f, -0.02671402134001255035f, 0.03905014693737030029f, 0.04726690798997879028f, -0.05706566199660301208f, -0.01141115091741085052f, 0.03122824244201183319f, -0.00114154757466167212f, -0.07536537945270538330f, -0.00837504304945468903f, 0.04714686051011085510f, -0.03364279866218566895f, -0.00977455824613571167f, 0.07375152409076690674f, -0.01377494074404239655f, 0.06815208494663238525f, 0.01811925508081912994f, 0.04045171290636062622f, 0.03305225819349288940f, -0.00422509294003248215f, -0.00367814209312200546f, -0.00340464967302978039f, 0.02731168270111083984f, 0.01144700497388839722f, 0.11400280892848968506f, 0.15998703241348266602f, 0.09124501794576644897f, 0.00188262213487178087f, -0.02170038968324661255f, 0.00157723785378038883f, -0.04780832305550575256f, 0.02688714303076267242f, 0.00915356259793043137f, -0.03572016209363937378f, -0.01038791052997112274f, 0.08526917546987533569f, 0.05383010953664779663f, 0.04153319075703620911f, -0.02289221063256263733f, -0.01413121353834867477f, 0.04139954969286918640f, -0.06913927942514419556f, 0.02773289941251277924f, 0.00336502352729439735f, 0.01087787002325057983f, -0.01829959452152252197f, 0.10136510431766510010f, 0.11995133757591247559f, -0.03053915128111839294f, 0.04826816171407699585f, 0.02854567766189575195f, 0.00291176768951117992f, 0.03282729163765907288f, -0.07047106325626373291f, 0.01778019033372402191f, 0.01772911287844181061f, 0.05920857563614845276f, 0.00387094425968825817f, 0.04807266220450401306f, -0.02232045121490955353f, 0.07110159844160079956f, 0.06641676276922225952f, 0.04749573767185211182f, -0.03765307366847991943f, 0.04275475069880485535f, -0.01492521166801452637f, -0.00631370255723595619f, -0.04325851052999496460f, -0.06934703886508941650f, 0.02605043724179267883f, -0.07641236484050750732f, -0.04060691967606544495f, -0.00609272113069891930f, -0.04045294225215911865f, -0.06432232260704040527f, -0.03661519661545753479f, -0.06852034479379653931f, 0.03300336375832557678f, 0.08042477071285247803f, 0.07638433575630187988f, 0.02647841349244117737f, -0.00073757604695856571f, 0.09324342012405395508f, 0.00382684729993343353f, 0.04061675071716308594f, -0.01659982092678546906f, 0.04346674308180809021f, 0.10372717678546905518f, 0.11747917532920837402f, 0.11941947042942047119f, 0.06179125607013702393f, 0.02226216159760951996f, -0.09935522079467773438f, -0.09240505099296569824f, -0.07734088599681854248f, -0.09343019127845764160f, 0.02835410460829734802f, -0.00118299387395381927f, -0.00886881072074174881f, -0.05166954174637794495f, 0.02342969179153442383f, -0.05404694378376007080f, -0.07768023759126663208f, 0.01427142322063446045f, -0.05568229407072067261f, -0.01591558754444122314f, -0.00984027050435543060f, 0.03673653304576873779f, -0.00315212924033403397f, 0.00263102888129651546f, -0.01922255381941795349f, 0.05242078006267547607f, 0.04619599878787994385f, -0.04814165458083152771f, -0.03339035063982009888f, 0.02629361487925052643f, -0.03950116410851478577f, -0.10272191464900970459f, 0.00004866974632022902f, 0.02453513443470001221f, -0.01081271655857563019f, -0.08017461746931076050f, -0.01332118362188339233f, 0.04987496137619018555f, 0.04277529940009117126f, 0.04223270341753959656f, 0.07450595498085021973f, -0.02690532803535461426f, -0.04255762696266174316f, 0.09223640710115432739f, 0.01722004637122154236f, 0.02581859007477760315f, 0.04884720966219902039f, -0.02225514315068721771f, 0.05641103908419609070f, 0.01708869263529777527f, -0.01573550142347812653f, -0.00355894747190177441f, -0.02472906559705734253f, 0.02707948721945285797f, 0.01194130722433328629f, -0.02704868465662002563f, 0.04578918963670730591f, 0.05207312852144241333f, 0.12747393548488616943f, 0.08931145817041397095f, 0.03079004399478435516f, 0.08589071035385131836f, 0.03636668249964714050f, 0.02081578597426414490f, 0.06551174819469451904f, 0.02868950553238391876f, 0.10523566603660583496f, 0.14402666687965393066f, 0.08073291927576065063f, -0.04706916958093643188f, -0.01244383025914430618f, -0.00099096016492694616f, -0.03919113799929618835f, 0.02120929770171642303f, -0.06227434426546096802f, -0.01119479443877935410f, 0.05595224350690841675f, 0.06148077175021171570f, 0.01414317265152931213f, 0.00933297816663980484f, 0.03467575833201408386f, -0.01950886286795139313f, -0.04250301420688629150f, 0.02631469443440437317f, 0.00633908156305551529f, 0.04382023587822914124f, -0.05558792874217033386f, -0.06292919069528579712f, 0.04248872771859169006f, 0.06490778923034667969f, 0.03998357430100440979f, -0.03170146420598030090f, 0.01397877838462591171f, -0.01005904097110033035f, -0.09741904586553573608f, -0.04476581141352653503f, 0.01350832358002662659f, -0.02346449159085750580f, 0.01088451407849788666f, 0.00815498456358909607f, -0.00185176206286996603f},
  {0.00011144355812575668f, 0.02144771628081798553f, 0.03798696026206016541f, 0.04350889474153518677f, -0.06227381527423858643f, -0.01088250055909156799f, -0.00426373351365327835f, 0.10363749414682388306f, 0.01766448467969894409f, -0.02777779474854469299f, 0.04085324332118034363f, -0.00337903248146176338f, 0.06211354210972785950f, 0.00310266111046075821f, -0.02757438831031322479f, 0.09692054986953735352f, 0.03034701012074947357f, 0.02596267312765121460f, 0.01458206865936517715f, 0.05313950404524803162f, 0.00163367879576981068f, 0.07237830758094787598f, -0.03841574117541313171f, 0.06976491957902908325f, -0.04793671518564224243f, -0.04326738417148590088f, 0.07468871027231216431f, 0.04741631820797920227f, -0.06370815634727478027f, 0.01257550250738859177f, 0.01204810477793216705f, 0.00217688549309968948f, -0.06973651051521301270f, 0.03562329709529876709f, 0.00612422265112400055f, -0.10775494575500488281f, 0.03237027674913406372f, -0.07004651427268981934f, 0.00408454472199082375f, 0.02527139335870742798f, 0.03470865264534950256f, 0.07724196463823318481f, 0.07380650937557220459f, -0.04071842133998870850f, -0.06588352471590042114f, -0.00827163923531770706f, 0.04675722867250442505f, 0.02519218623638153076f, -0.01834899187088012695f, -0.00456662895157933235f, -0.01393244694918394089f, 0.03669456765055656433f, -0.09911463409662246704f, -0.04083627462387084961f, 0.06989350914955139160f, 0.02826119214296340942f, -0.10091938078403472900f, -0.06369763612747192383f, -0.01189947221428155899f, 0.02547895349562168121f, -0.12266767770051956177f, -0.12523740530014038086f, -0.01822773925960063934f, -0.05799496546387672424f, -0.03081005811691284180f, -0.05590941011905670166f, 0.00136933894827961922f, 0.04624138772487640381f, 0.02690489962697029114f, -0.00690994458273053169f, -0.00091862928820773959f, -0.02561743929982185364f, -0.06046198680996894836f, -0.00489072967320680618f, 0.00124020536895841360f, -0.00968410633504390717f, -0.06241547316312789917f, 0.01362012885510921478f, -0.00738033093512058258f, 0.06747506558895111084f, -0.01161391660571098328f, -0.09673154354095458984f, 0.01848826743662357330f, -0.00022278251708485186f, -0.02156591601669788361f, -0.06871763616800308228f, -0.01613735966384410858f, -0.03013569489121437073f, -0.09403243660926818848f, -0.01509557384997606277f, 0.04802262410521507263f, 0.06086064130067825317f, -0.02763967029750347137f, -0.03187147900462150574f, -0.06392853707075119019f, 0.02276661247014999390f, -0.03532143682241439819f, 0.04865023866295814514f, -0.07975927740335464478f, 0.02617403119802474976f, -0.09325569868087768555f, -0.11931158602237701416f, -0.06868880242109298706f, 0.03970475122332572937f, -0.03493911772966384888f, -0.00143789837602525949f, -0.00907812174409627914f, 0.05370345339179039001f, 0.04192432761192321777f, 0.02718695253133773804f, -0.01156045868992805481f, 0.01097243372350931168f, -0.04598511010408401489f, 0.00625919736921787262f, -0.03830505535006523132f, -0.00001542844074720051f, -0.00718491431325674057f, -0.04552260041236877441f, -0.03659184649586677551f, 0.04393790662288665771f, -0.08483046293258666992f, 0.00150106032378971577f, -0.03100605681538581848f, -0.05463906377553939819f, -0.00644385954365134239f, -0.01602223888039588928f, 0.00307870958931744099f, 0.06689585745334625244f, 0.05352985486388206482f, -0.09532867372035980225f, 0.02435437589883804321f, -0.00321093969978392124f, -0.04384669661521911621f, 0.02358440496027469635f, 0.01487467810511589050f, -0.00577450497075915337f, -0.05825534090399742126f, -0.00264414050616323948f, -0.03262628242373466492f, -0.09366606920957565308f, -0.00205215369351208210f, 0.04544130712747573853f, -0.05760403349995613098f, 0.02308422513306140900f, -0.11709874123334884644f, -0.11643798649311065674f, 0.00026950563187710941f, 0.04570194706320762634f, 0.03683837503194808960f, 0.04882819578051567078f, -0.03580395132303237915f, -0.06247102469205856323f, -0.03356080129742622375f, 0.00710165919736027718f, 0.01542150415480136871f, 0.05085722357034683228f, 0.03107455372810363770f, 0.04353368654847145081f, -0.01743528060615062714f, -0.06382501125335693359f, 0.06411280483007431030f, 0.04979786276817321777f, -0.04751287773251533508f, 0.04941335320472717285f, -0.01029699109494686127f, -0.01383792608976364136f, 0.04570267349481582642f, 0.06897258013486862183f, 0.05716199800372123718f, 0.02343725040555000305f, 0.03958078846335411072f, -0.01807901263236999512f, -0.00240129348821938038f, 0.03140836581587791443f, 0.04952498152852058411f, -0.02062148600816726685f, 0.06882440298795700073f, 0.03782612830400466919f, 0.05100903287529945374f, -0.00186145305633544922f, 0.03027271665632724762f, 0.04076589271426200867f, 0.11289834976196289062f, 0.07427319884300231934f, 0.03136501461267471313f, -0.03578604385256767273f, 0.01136173307895660400f, -0.00176152680069208145f, -0.00294037023559212685f, -0.01206546183675527573f, 0.04641245305538177490f, 0.07834352552890777588f},
  {0.03348295018076896667f, 0.07407700270414352417f, 0.04555542394518852234f, 0.05180810764431953430f, 0.02110110409557819366f, 0.02973678335547447205f, 0.05665933713316917419f, -0.00608227774500846863f, 0.08078232407569885254f, 0.00387805374339222908f, -0.07179111242294311523f, 0.02908885851502418518f, 0.05180409923195838928f, 0.02693176269531250000f, 0.02664429135620594025f, 0.07694672048091888428f, 0.07847390323877334595f, -0.03452613204717636108f, -0.00061680871294811368f, 0.01797076687216758728f, 0.03031841851770877838f, -0.02219726331532001495f, -0.04545272514224052429f, 0.09533102810382843018f, -0.02628742717206478119f, -0.05692604184150695801f, -0.05982926860451698303f, -0.04875912517309188843f, 0.01927883550524711609f, -0.02056713402271270752f, 0.01843239553272724152f, 0.12348683923482894897f, -0.00053441285854205489f, -0.06179165095090866089f, -0.00201981607824563980f, -0.00530935171991586685f, 0.09487651288509368896f, 0.04006205871701240540f, 0.05637994781136512756f, 0.02002738788723945618f, 0.03514064848423004150f, -0.06346531212329864502f, 0.07851364463567733765f, 0.08248054236173629761f, 0.04620406776666641235f, 0.04565905034542083740f, -0.02671908587217330933f, 0.07958158850669860840f, -0.03913637995719909668f, 0.04433199018239974976f, 0.03200193122029304504f, 0.13476699590682983398f, 0.01865990273654460907f, -0.02325944416224956512f, -0.04422580450773239136f, 0.05112105607986450195f, 0.02454373612999916077f, 0.05904495716094970703f, 0.06201597675681114197f, 0.09177740663290023804f, -0.02429914101958274841f, 0.04531076550483703613f, 0.01325673237442970276f, -0.05666145309805870056f, 0.06616637110710144043f, 0.08361413329839706421f, 0.01688433066010475159f, -0.00943218450993299484f, -0.01871489174664020538f, 0.00977264065295457840f, 0.01092057675123214722f, 0.00530720874667167664f, 0.03887255117297172546f, -0.05383569374680519104f, -0.07458380609750747681f, -0.04322468116879463196f, 0.01617982983589172363f, 0.01420650351792573929f, -0.08006750792264938354f, 0.01447207108139991760f, -0.04944782704114913940f, -0.05951305851340293884f, -0.02792995423078536987f, 0.01187742874026298523f, 0.06420367956161499023f, 0.00852725841104984283f, -0.06404159963130950928f, 0.03530339896678924561f, 0.03400874882936477661f, 0.01857697591185569763f, -0.00790070462971925735f, -0.00980214495211839676f, 0.07222746312618255615f, 0.01731492951512336731f, -0.08189535140991210938f, 0.08644358813762664795f, -0.02360210940241813660f, 0.03009752929210662842f, -0.04586697742342948914f, -0.04192008078098297119f, 0.01007980760186910629f, -0.04060561209917068481f, 0.00301398849114775658f, 0.08443649113178253174f, -0.07728295028209686279f, 0.02340299449861049652f, 0.04737434163689613342f, 0.03108522295951843262f, 0.02956359833478927612f, -0.02778319083154201508f, -0.01110990531742572784f, 0.04975867271423339844f, 0.00054376211483031511f, -0.02259262837469577789f, 0.12063798308372497559f, 0.00887066870927810669f, 0.02659691683948040009f, 0.03640062734484672546f, 0.03718832507729530334f, 0.07832451164722442627f, 0.00269710808061063290f, -0.01017101854085922241f, 0.06589577347040176392f, 0.00671101687476038933f, -0.02586208656430244446f, -0.08283036947250366211f, -0.08927285671234130859f, 0.03282696381211280823f, 0.09257838875055313110f, 0.09980998188257217407f, -0.00647076591849327087f, 0.00782438553869724274f, 0.03493039309978485107f, -0.04067030549049377441f, -0.01977721787989139557f, -0.01602037996053695679f, 0.03268952667713165283f, 0.00992040149867534637f, -0.06706868112087249756f, -0.05787138268351554871f, -0.01691303215920925140f, -0.06063643470406532288f, -0.04231169447302818298f, -0.00583507865667343140f, 0.07898625731468200684f, -0.08621381968259811401f, -0.05232423916459083557f, 0.04554883018136024475f, 0.04686485975980758667f, -0.04737959057092666626f, -0.03866830468177795410f, -0.04215642064809799194f, 0.02427382394671440125f, 0.01051382254809141159f, -0.11664316058158874512f, -0.01911393180489540100f, -0.03061809390783309937f, -0.07590802013874053955f, -0.04034964740276336670f, 0.03226338699460029602f, 0.00467104092240333557f, -0.02755451388657093048f, 0.02189503982663154602f, 0.02355337888002395630f, 0.05981920659542083740f, -0.06744997203350067139f, -0.00881726760417222977f, -0.04077015072107315063f, 0.02925467863678932190f, -0.02133879624307155609f, -0.04995234310626983643f, -0.05019266903400421143f, -0.00671508116647601128f, -0.03188049420714378357f, -0.07454235106706619263f, 0.03706403821706771851f, 0.05416975170373916626f, 0.03179675713181495667f, 0.03191196545958518982f, 0.04013324901461601257f, 0.05745491385459899902f, -0.05910542234778404236f, -0.08732664585113525391f, 0.04177884757518768311f, 0.08805712312459945679f, 0.01026482600718736649f, 0.02533933706581592560f, 0.00730709545314311981f, 0.02190930955111980438f, -0.03025207668542861938f, 0.01138168387115001678f, -0.07028950005769729614f},
  {-0.00161783269140869379f, 0.01125064678490161896f, 0.07786252349615097046f, -0.02067079208791255951f, 0.04666928946971893311f, -0.00585409160703420639f, -0.01916959322988986969f, -0.02005142718553543091f, 0.08141024410724639893f, 0.03924598172307014465f, 0.05131937935948371887f, 0.01424386724829673767f, -0.04255697503685951233f, 0.00207848171703517437f, 0.00309532228857278824f, -0.03504643216729164124f, -0.05689803138375282288f, -0.00073127285577356815f, 0.07834476232528686523f, -0.04032230004668235779f, 0.04914363846182823181f, 0.09038348495960235596f, 0.10597100108861923218f, 0.07854543626308441162f, -0.00781260244548320770f, 0.03237579390406608582f, 0.00484885321930050850f, 0.08977165073156356812f, -0.02462306059896945953f, 0.03242654725909233093f, 0.07888135313987731934f, -0.00475648697465658188f, -0.02615323476493358612f, 0.06502943485975265503f, 0.08134345710277557373f, -0.00096763012697920203f, 0.01638618297874927521f, -0.03544032946228981018f, 0.03329935297369956970f, 0.03122943267226219177f, -0.00100697425659745932f, 0.08059360831975936890f, 0.08451209962368011475f, 0.05393570661544799805f, 0.06224184483289718628f, 0.05483243241906166077f, 0.04608328640460968018f, 0.01823834888637065887f, -0.01416970323771238327f, -0.01816090010106563568f, 0.06653080135583877563f, 0.03414141759276390076f, -0.04604236781597137451f, 0.04290840774774551392f, 0.04756683856248855591f, 0.06682241708040237427f, 0.08083614706993103027f, 0.00220728316344320774f, 0.02704828977584838867f, -0.02417241036891937256f, 0.01003686804324388504f, -0.03753128275275230408f, 0.00705884583294391632f, -0.00481618894264101982f, 0.00058652705047279596f, -0.04600868001580238342f, 0.01934763789176940918f, -0.02572529576718807220f, -0.09203919768333435059f, -0.02832036092877388000f, -0.02712268941104412079f, 0.01801147498190402985f, -0.07486919313669204712f, -0.00657973438501358032f, -0.01824498735368251801f, 0.02213937975466251373f, 0.03755180910229682922f, 0.02458571642637252808f, 0.03108750469982624054f, -0.00599950272589921951f, -0.03978477045893669128f, -0.01758245564997196198f, 0.06815817952156066895f, 0.07992886006832122803f, -0.03186491504311561584f, 0.06882818788290023804f, 0.05023695528507232666f, -0.00712636299431324005f, -0.07930755615234375000f, 0.01938979513943195343f, 0.03928186744451522827f, -0.03682569041848182678f, 0.07925841212272644043f, 0.00128909025806933641f, -0.05666259676218032837f, -0.03433324769139289856f, 0.01352930814027786255f, 0.04896256700158119202f, 0.08469891548156738281f, 0.01995980925858020782f, 0.06896244734525680542f, -0.04623645544052124023f, -0.02448654919862747192f, -0.00114373455289751291f, 0.04811492189764976501f, -0.02494110725820064545f, 0.04676534608006477356f, 0.02782639488577842712f, 0.02239801548421382904f, -0.05657751113176345825f, 0.03835212066769599915f, -0.03763035312294960022f, -0.03586527332663536072f, -0.04396463185548782349f, 0.06599137932062149048f, -0.00533801410347223282f, 0.00677515612915158272f, 0.00967230461537837982f, 0.04123798385262489319f, 0.02951051481068134308f, -0.05975326895713806152f, -0.07036900520324707031f, -0.07013312727212905884f, -0.04793708771467208862f, -0.07183519750833511353f, 0.02318738400936126709f, 0.02485466189682483673f, -0.03826937079429626465f, -0.02938532270491123199f, -0.01841258443892002106f, 0.06296057999134063721f, 0.04430482536554336548f, -0.02267127297818660736f, 0.00180715043097734451f, 0.00401980243623256683f, -0.05723097175359725952f, -0.02826838567852973938f, 0.04511701688170433044f, 0.05726490542292594910f, 0.00012733455514535308f, -0.03144168108701705933f, 0.01149843540042638779f, 0.00975655671209096909f, 0.03630035743117332458f, -0.07545674592256546021f, 0.03853020444512367249f, 0.07431044429540634155f, 0.02879725769162178040f, -0.01194061338901519775f, 0.09538245201110839844f, 0.09109839797019958496f, 0.04455105960369110107f, -0.00391494482755661011f, -0.04198779165744781494f, 0.09409213066101074219f, 0.08887275308370590210f, 0.01718926057219505310f, 0.07399020344018936157f, 0.01801260001957416534f, -0.03034381568431854248f, -0.05818836763501167297f, 0.05133764818310737610f, 0.01408722531050443649f, 0.08196569234132766724f, 0.03800319880247116089f, 0.00859948061406612396f, 0.03789707645773887634f, -0.06099858134984970093f, 0.04665452241897583008f, 0.03712546080350875854f, 0.05864731594920158386f, 0.00882239267230033875f, 0.04992906749248504639f, 0.01405100058764219284f, -0.08749245852231979370f, 0.00499068386852741241f, -0.01087534707039594650f, 0.03349231928586959839f, -0.04414961859583854675f, 0.03825770691037178040f, -0.01879441179335117340f, -0.07471505552530288696f, 0.06802165508270263672f, 0.01715245656669139862f, -0.02445378899574279785f, -0.02958569303154945374f, -0.05094021186232566833f, -0.01277869381010532379f, -0.00809731800109148026f, -0.00008086508023552597f, 0.06865107268095016479f, 0.00383275863714516163f},
  {-0.04467961937189102173f, 0.01908530481159687042f, -0.04813059791922569275f, 0.04285435751080513000f, -0.03909706696867942810f, 0.02606645040214061737f, 0.03348233550786972046f, 0.02435886301100254059f, 0.02216227911412715912f, -0.04911638423800468445f, -0.04582621157169342041f, -0.03187308460474014282f, 0.07216067612171173096f, 0.04444706812500953674f, 0.02475880645215511322f, -0.00919111352413892746f, -0.02613110840320587158f, -0.02486486360430717468f, 0.04441582038998603821f, 0.02801986224949359894f, 0.10071628540754318237f, 0.00150110560934990644f, 0.05416302755475044250f, -0.02719628438353538513f, -0.04343390837311744690f, -0.06989850103855133057f, 0.05851300060749053955f, 0.06930205225944519043f, 0.07817680388689041138f, 0.04467009380459785461f, -0.06982161849737167358f, -0.05833153799176216125f, -0.01793625578284263611f, -0.03501657396554946899f, -0.00513141276314854622f, 0.03389189019799232483f, 0.03267502412199974060f, 0.01233085151761770248f, -0.07846516370773315430f, -0.06996938586235046387f, 0.03795358166098594666f, 0.02082222700119018555f, 0.05235830694437026978f, 0.08307391405105590820f, -0.04521833732724189758f, -0.02069596946239471436f, -0.03941831365227699280f, -0.03997717052698135376f, -0.01381585374474525452f, 0.01132556144148111343f, 0.08101991564035415649f, 0.00288383779115974903f, 0.08098749816417694092f, 0.01666152477264404297f, -0.01798272505402565002f, -0.05104753375053405762f, -0.00689368415623903275f, -0.00067837693495675921f, 0.00898992083966732025f, 0.07211621850728988647f, 0.01968389190733432770f, 0.04963995143771171570f, 0.02736272290349006653f, -0.05701579898595809937f, 0.05467298254370689392f, 0.00731575721874833107f, 0.00271756388247013092f, 0.04707607999444007874f, 0.01054745819419622421f, 0.05582704395055770874f, -0.03670239076018333435f, -0.00513672642409801483f, -0.04927795007824897766f, -0.00689464248716831207f, -0.02359234169125556946f, 0.10315382480621337891f, 0.08659825474023818970f, 0.05707535147666931152f, 0.05208488181233406067f, 0.06809508800506591797f, -0.03368002548813819885f, 0.02998377941548824310f, 0.03885085880756378174f, 0.05983468890190124512f, 0.10952357947826385498f, 0.09138547629117965698f, 0.00656542228534817696f, 0.04768076911568641663f, -0.01862312294542789459f, 0.02877067402005195618f, 0.02703139930963516235f, 0.01395366899669170380f, 0.02612212114036083221f, 0.07042191922664642334f, -0.04502026364207267761f, 0.03590869903564453125f, -0.00883747823536396027f, 0.06813103705644607544f, 0.02205081842839717865f, 0.08928814530372619629f, 0.04793103039264678955f, 0.02035806328058242798f, 0.03349128738045692444f, -0.04728959128260612488f, -0.03617310523986816406f, 0.06268247961997985840f, 0.07915361970663070679f, 0.06624136865139007568f, 0.02107200771570205688f, 0.03811570256948471069f, -0.03046720847487449646f, -0.07419459521770477295f, -0.05894046276807785034f, 0.06534948945045471191f, 0.07558004558086395264f, 0.15426848828792572021f, -0.00202629435807466507f, 0.09411438554525375366f, 0.03971919044852256775f, -0.05646809190511703491f, -0.02077123336493968964f, 0.03629229590296745300f, 0.08008348196744918823f, 0.06120905280113220215f, 0.06777828931808471680f, 0.07162619382143020630f, 0.06261578947305679321f, -0.00772113865241408348f, -0.04853696376085281372f, -0.06427244096994400024f, 0.02731658890843391418f, -0.04614346474409103394f, -0.04472203552722930908f, 0.01780216395854949951f, -0.01493124570697546005f, -0.04288367554545402527f, 0.00986310280859470367f, 0.00468465220183134079f, 0.01707630231976509094f, -0.03445031866431236267f, 0.03713718056678771973f, 0.00865995604544878006f, 0.06834492832422256470f, 0.03077249415218830109f, -0.01471449527889490128f, -0.07387296855449676514f, 0.04281970858573913574f, 0.00819534435868263245f, 0.04142233356833457947f, -0.00658490275964140892f, 0.00534388143569231033f, -0.01781189069151878357f, 0.03747253119945526123f, 0.00363527843728661537f, -0.01085178554058074951f, -0.01245224010199308395f, 0.07733646035194396973f, 0.01530123874545097351f, -0.00144014577381312847f, -0.06796710193157196045f, -0.00962845608592033386f, -0.00442898040637373924f, 0.01867904141545295715f, -0.02214672788977622986f, 0.02324705570936203003f, 0.03542670607566833496f, -0.00634387135505676270f, -0.07159566879272460938f, -0.08228359371423721313f, 0.03265025466680526733f, 0.02907692454755306244f, 0.10091518610715866089f, 0.06248855218291282654f, 0.01872282102704048157f, 0.01671916432678699493f, -0.05384656414389610291f, -0.05807286873459815979f, 0.04489354416728019714f, 0.04801242053508758545f, 0.09075795114040374756f, 0.10291866213083267212f, 0.09655060619115829468f, -0.00360405514948070049f, 0.00470063043758273125f, -0.02438848093152046204f, -0.03126648068428039551f, 0.05774012207984924316f, 0.01969302818179130554f, 0.02117047272622585297f, 0.02089121565222740173f, -0.01975126191973686218f, 0.03629476577043533325f},
  {-0.02364166826009750366f, 0.02185106091201305389f, -0.03107350878417491913f, 0.00443719886243343353f, -0.09406694769859313965f, -0.07558765262365341187f, -0.11263315379619598389f, -0.08164668828248977661f, 0.11414642632007598877f, -0.00632257014513015747f, 0.02406493946909904480f, -0.00168669095728546381f, -0.00687530683353543282f, 0.01523322798311710358f, 0.04602532833814620972f, 0.00194768945220857859f, 0.00937409605830907822f, -0.01325936708599328995f, 0.03598954156041145325f, 0.00229761120863258839f, 0.07181501388549804688f, -0.01109313964843750000f, 0.00707989418879151344f, 0.00370089546777307987f, -0.07220605760812759399f, 0.01755704917013645172f, -0.03406012430787086487f, -0.00406633783131837845f, 0.00271405698731541634f, -0.00488808471709489822f, -0.01210508868098258972f, -0.06063466891646385193f, -0.05627926439046859741f, -0.02325011789798736572f, -0.03346807882189750671f, 0.07270324230194091797f, 0.01979806460440158844f, -0.01375115290284156799f, -0.07954881340265274048f, -0.03623960912227630615f, 0.00054189545335248113f, 0.02142403274774551392f, 0.00396389001980423927f, 0.00174653704743832350f, 0.07740498334169387817f, 0.02056026645004749298f, 0.00516532082110643387f, 0.00806674733757972717f, -0.07478471100330352783f, -0.03082673810422420502f, 0.01635604910552501678f, 0.03458771109580993652f, -0.02212753891944885254f, 0.03862572461366653442f, 0.06126990541815757751f, 0.02269812487065792084f, 0.02186623960733413696f, 0.05272156372666358948f, -0.02349764108657836914f, 0.03201818466186523438f, 0.01026016939431428909f, 0.08390476554632186890f, -0.01486519537866115570f, 0.06581579148769378662f, 0.02983567863702774048f, 0.02493096888065338135f, -0.06827852129936218262f, -0.08455872535705566406f, -0.07373613864183425903f, -0.09120619297027587891f, -0.05375288054347038269f, -0.09547626972198486328f, 0.04197698086500167847f, -0.00246969237923622131f, 0.03348099812865257263f, 0.00662482669577002525f, 0.00407854933291673660f, 0.05035959929227828979f, -0.05699038133025169373f, 0.04619963467121124268f, 0.09513068199157714844f, -0.01000987458974123001f, -0.05010972172021865845f, -0.01399495918303728104f, -0.02034226618707180023f, 0.05142502114176750183f, 0.02250235900282859802f, -0.04037759080529212952f, -0.06571969389915466309f, -0.00613964861258864403f, 0.01299528125673532486f, -0.05149793624877929688f, 0.03248525410890579224f, -0.02351110056042671204f, -0.02076314948499202728f, -0.02838948182761669159f, 0.00369299808517098427f, 0.02466327138245105743f, 0.01521802321076393127f, -0.05447530001401901245f, 0.08033699542284011841f, -0.01962482742965221405f, -0.05033994838595390320f, -0.03271466493606567383f, -0.01202508620917797089f, -0.02926682680845260620f, -0.03918688371777534485f, 0.07144572585821151733f, -0.02904868870973587036f, -0.01768467016518115997f, 0.03076255135238170624f, -0.04007774963974952698f, 0.00960400328040122986f, -0.02404546551406383514f, -0.02737567946314811707f, 0.01633632741868495941f, 0.03534834459424018860f, 0.01714998669922351837f, 0.05044124647974967957f, 0.03869123756885528564f, -0.01001859828829765320f, 0.02140717022120952606f, -0.01039386726915836334f, -0.04183152690529823303f, 0.06866050511598587036f, -0.06177419424057006836f, 0.09377819299697875977f, 0.01443718466907739639f, 0.00697013316676020622f, 0.07193662971258163452f, -0.04189417883753776550f, 0.03348874300718307495f, -0.06354179978370666504f, -0.03748274967074394226f, -0.03906994313001632690f, 0.02885932847857475281f, 0.06839095056056976318f, 0.07493265718221664429f, 0.00019873722339980304f, -0.00448005180805921555f, 0.07822570949792861938f, 0.03228010982275009155f, 0.03413676470518112183f, 0.02515940926969051361f, 0.12071030586957931519f, -0.01039584912359714508f, 0.05987801402807235718f, 0.04142201691865921021f, 0.06719794124364852905f, 0.02633691951632499695f, -0.00788217596709728241f, -0.04417836666107177734f, 0.00351674458943307400f, -0.00192342558875679970f, -0.00746313575655221939f, -0.00597163755446672440f, 0.04676184058189392090f, 0.05233030766248703003f, -0.00253103766590356827f, -0.03908814117312431335f, 0.03926581889390945435f, -0.00588165409862995148f, 0.00599968060851097107f, 0.04954198375344276428f, 0.08029498904943466187f, -0.00395518727600574493f, -0.06804542988538742065f, -0.06528136134147644043f, 0.05559662356972694397f, -0.01311128493398427963f, 0.07311970740556716919f, 0.08689743280410766602f, 0.03728317841887474060f, -0.00533734727650880814f, -0.03684227168560028076f, 0.02427583001554012299f, 0.06238275021314620972f, 0.00670536328107118607f, 0.03724142909049987793f, 0.02234980091452598572f, 0.07593269646167755127f, -0.00419461028650403023f, 0.04008596017956733704f, 0.08674909919500350952f, -0.02893264964222908020f, -0.01208952162414789200f, 0.00930339843034744263f, 0.04450859874486923218f, 0.11845058947801589966f, 0.10884566605091094971f, 0.07652983069419860840f, 0.03465196117758750916f},
  {-0.00502498913556337357f, 0.00298990542069077492f, -0.02595372498035430908f, 0.02973332814872264862f, 0.05886125937104225159f, 0.04492261633276939392f, 0.01628207415342330933f, -0.07519755512475967407f, 0.05887244269251823425f, 0.02948954701423645020f, -0.01811033673584461212f, 0.07760600745677947998f, -0.04597259685397148132f, 0.06755527108907699585f, -0.03618323802947998047f, -0.02746125869452953339f, -0.00096600368851795793f, -0.05366826429963111877f, -0.07454032450914382935f, 0.01078137848526239395f, -0.05316461622714996338f, -0.04303291812539100647f, 0.01681793481111526489f, -0.13842941820621490479f, 0.00460210023447871208f, -0.07004819065332412720f, -0.05182126909494400024f, -0.08827811479568481445f, -0.14311151206493377686f, 0.05569330230355262756f, -0.00162735243793576956f, -0.00837713107466697693f, 0.10273151844739913940f, 0.08525436371564865112f, 0.03601092100143432617f, -0.09312598407268524170f, -0.00993721932172775269f, 0.03188325837254524231f, 0.05949583277106285095f, 0.03627733886241912842f, 0.10160122811794281006f, 0.02244248427450656891f, -0.06149415299296379089f, -0.05231119319796562195f, -0.05324674025177955627f, -0.01310114376246929169f, -0.04417505860328674316f, -0.05012452974915504456f, -0.07968240231275558472f, -0.04571701586246490479f, -0.05151571333408355713f, -0.05601494014263153076f, -0.01099692471325397491f, -0.03296380862593650818f, 0.02485753223299980164f, -0.11348403245210647583f, -0.10457499325275421143f, -0.05447857826948165894f, -0.09410189837217330933f, -0.10186256468296051025f, -0.09144677966833114624f, -0.09250113368034362793f, -0.07176595181226730347f, -0.20843341946601867676f, -0.10096582025289535522f, 0.03968132659792900085f, -0.00868657603859901428f, 0.07971996814012527466f, -0.02512795105576515198f, 0.06257642060518264771f, 0.00034487844095565379f, -0.03771349415183067322f, -0.04805183410644531250f, -0.06160277500748634338f, -0.01817663758993148804f, 0.00083041150355711579f, -0.05789985507726669312f, 0.06723935157060623169f, -0.01666192337870597839f, -0.03954083099961280823f, 0.07546759396791458130f, 0.02087823301553726196f, -0.06766252219676971436f, -0.02970587089657783508f, -0.06339774280786514282f, 0.05554266273975372314f, -0.06136767566204071045f, -0.08303171396255493164f, 0.08875530958175659180f, 0.01975539326667785645f, -0.08438649773597717285f, -0.08469270914793014526f, -0.03232109919190406799f, 0.00509921042248606682f, -0.02245953865349292755f, -0.08370416611433029175f, 0.06577841192483901978f, 0.00032822426874190569f, -0.02901395969092845917f, -0.03111449070274829865f, -0.03935848549008369446f, -0.01179399620741605759f, 0.06056777015328407288f, -0.03771440312266349792f, -0.01640987768769264221f, -0.05086955800652503967f, 0.00242654024623334408f, -0.02331501059234142303f, -0.00750501966103911400f, -0.01444797124713659286f, -0.00808943063020706177f, -0.00238463375717401505f, -0.06681525707244873047f, -0.03404053300619125366f, -0.03397000581026077271f, -0.10394379496574401855f, -0.00366055639460682869f, 0.08158405870199203491f, -0.04113879427313804626f, 0.02130334265530109406f, 0.00324416020885109901f, -0.00574598880484700203f, -0.05599758028984069824f, -0.08537422120571136475f, -0.05059463530778884888f, -0.04473491013050079346f, -0.02488232776522636414f, -0.00628345971927046776f, -0.00076776486821472645f, -0.09072169661521911621f, -0.08470357209444046021f, 0.04956211522221565247f, -0.06891415268182754517f, -0.00958014559000730515f, -0.07284884154796600342f, -0.11613157391548156738f, -0.06367385387420654297f, 0.01762879267334938049f, 0.04665871709585189819f, -0.03208040446043014526f, 0.02156035415828227997f, 0.04132818803191184998f, -0.01960165426135063171f, -0.10488171875476837158f, 0.01694807223975658417f, -0.11582777649164199829f, -0.01713923551142215729f, -0.10524890571832656860f, -0.06846696883440017700f, -0.03236106038093566895f, -0.04333661496639251709f, -0.05081531405448913574f, 0.02547332644462585449f, 0.01724924333393573761f, -0.11309408396482467651f, -0.06755706667900085449f, -0.10355525463819503784f, 0.07096642255783081055f, 0.02264001406729221344f, -0.10776714235544204712f, 0.06966524571180343628f, 0.01910656318068504333f, -0.03926931694149971008f, 0.01483959984034299850f, -0.03277591615915298462f, 0.08713638037443161011f, 0.03141402080655097961f, 0.09448900073766708374f, 0.09345259517431259155f, -0.02513948269188404083f, 0.03938060626387596130f, 0.05141060426831245422f, 0.04103298112750053406f, 0.06375092267990112305f, 0.04896422103047370911f, -0.04148928076028823853f, 0.00212473096325993538f, 0.01699590310454368591f, 0.06531853228807449341f, -0.03221875056624412537f, 0.01468042843043804169f, 0.04302158579230308533f, 0.04195824265480041504f, 0.05149389058351516724f, -0.05610035732388496399f, -0.02727834694087505341f, 0.01838744059205055237f, -0.02798074483871459961f, 0.06235158070921897888f, 0.01106925774365663528f, 0.03083399124443531036f, -0.04634200781583786011f},
  {-0.01827349700033664703f, -0.00226482818834483624f, 0.05765813589096069336f, -0.03958947584033012390f, 0.00646821735426783562f, 0.00181867717765271664f, 0.00640101404860615730f, -0.01754577271640300751f, 0.08188442140817642212f, 0.10749326646327972412f, 0.06130899488925933838f, 0.11226817965507507324f, -0.03729105740785598755f, 0.01573765836656093597f, 0.00935343652963638306f, -0.00768091389909386635f, 0.03261119127273559570f, 0.01382722705602645874f, 0.00118049001321196556f, 0.05054618045687675476f, 0.08106765151023864746f, -0.01996538788080215454f, 0.09281828999519348145f, 0.05956185981631278992f, -0.04462184384465217590f, -0.05204373598098754883f, 0.00811067130416631699f, 0.01587274856865406036f, 0.00526278326287865639f, 0.04511740803718566895f, -0.01584629528224468231f, -0.02565614320337772369f, 0.03709990158677101135f, -0.08058514446020126343f, 0.01775819063186645508f, -0.02740721777081489563f, -0.03290789946913719177f, 0.04823741316795349121f, 0.02538646385073661804f, -0.02905114181339740753f, 0.05944877862930297852f, -0.05098719522356987000f, -0.03719063475728034973f, 0.00364413321949541569f, 0.06383114308118820190f, 0.04186299443244934082f, 0.00001534016882942524f, -0.06612371653318405151f, 0.08932618796825408936f, 0.02269555628299713135f, -0.01448720134794712067f, 0.00629528006538748741f, 0.02551939710974693298f, -0.03960750252008438110f, -0.04165717959403991699f, -0.03560251370072364807f, -0.06688172370195388794f, -0.09357671439647674561f, -0.08179182559251785278f, -0.01655669137835502625f, -0.05266758054494857788f, -0.07719179987907409668f, -0.02993293106555938721f, -0.12249073386192321777f, 0.02343771234154701233f, -0.04063314199447631836f, -0.00291847856715321541f, 0.06546521186828613281f, 0.01114973518997430801f, -0.02536625601351261139f, -0.07368658483028411865f, -0.04629669338464736938f, 0.03248740732669830322f, 0.09160468727350234985f, 0.05249655619263648987f, 0.05939607694745063782f, 0.01069847494363784790f, -0.03310465067625045776f, 0.03257654607295989990f, -0.02106320299208164215f, -0.00415162136778235435f, -0.00030683318618685007f, 0.08018958568572998047f, 0.04371882602572441101f, 0.05287932604551315308f, -0.02285940758883953094f, -0.00304934941232204437f, -0.00252254609949886799f, 0.03169354423880577087f, 0.03193420544266700745f, -0.03526657447218894958f, 0.03800218552350997925f, -0.01679677143692970276f, 0.02014508843421936035f, 0.06659960746765136719f, 0.05215680599212646484f, 0.04158256202936172485f, 0.00780712813138961792f, 0.02091423235833644867f, 0.06099764257669448853f, 0.05536577478051185608f, 0.03573486953973770142f, 0.04873707517981529236f, -0.06328140944242477417f, 0.11496259272098541260f, 0.02481366880238056183f, -0.02588135004043579102f, 0.08238923549652099609f, 0.07074709981679916382f, 0.09015964716672897339f, 0.01446122489869594574f, 0.06614681333303451538f, 0.05433161184191703796f, 0.00352277723141014576f, -0.06058866530656814575f, -0.01854201406240463257f, 0.04198592156171798706f, 0.05234586074948310852f, -0.03525104373693466187f, -0.10075292736291885376f, 0.05629604682326316833f, -0.08407181501388549805f, -0.04489665478467941284f, -0.00468704244121909142f, 0.02398245409131050110f, -0.00880744867026805878f, -0.10289669781923294067f, -0.02213734947144985199f, -0.01006828900426626205f, -0.01670509576797485352f, 0.02120063081383705139f, 0.01969296671450138092f, -0.03224951028823852539f, -0.00445917807519435883f, -0.03833844885230064392f, -0.01568348519504070282f, 0.06075540184974670410f, 0.00575864361599087715f, 0.00676224986091256142f, 0.06858675926923751831f, -0.02756680548191070557f, -0.01248335465788841248f, 0.02012749947607517242f, -0.03629930317401885986f, -0.03168168291449546814f, 0.01983211375772953033f, 0.03194428980350494385f, -0.00335953454487025738f, -0.04535643011331558228f, 0.00196118606254458427f, 0.04271150380373001099f, -0.00502408482134342194f, 0.04325199872255325317f, -0.03272143006324768066f, -0.03163006156682968140f, 0.07611735165119171143f, 0.02723315358161926270f, 0.07053273916244506836f, 0.06163491308689117432f, 0.01615685410797595978f, 0.00176308664958924055f, -0.03637967258691787720f, 0.04794950038194656372f, -0.03820950165390968323f, 0.08955079317092895508f, 0.02397641539573669434f, -0.01570350304245948792f, 0.00795473530888557434f, 0.06520357728004455566f, 0.06443922221660614014f, 0.06640328466892242432f, 0.05487228929996490479f, 0.10691276937723159790f, 0.11325531452894210815f, 0.04149773344397544861f, 0.00134752923622727394f, 0.12619759142398834229f, 0.03443302586674690247f, 0.02339626848697662354f, 0.07810020446777343750f, 0.13862463831901550293f, 0.01791431196033954620f, 0.01654776185750961304f, -0.07359009981155395508f, 0.05685447156429290771f, -0.04476229101419448853f, 0.01956654712557792664f, -0.02033835649490356445f, 0.02584582194685935974f, -0.03195976465940475464f, -0.02189793810248374939f, -0.01604545116424560547f},
  {-0.02614463306963443756f, -0.00179868459235876799f, 0.00162781542167067528f, 0.01356300525367259979f, -0.07293010503053665161f, -0.09887120127677917480f, -0.00462609762325882912f, 0.09804999083280563354f, 0.07662817090749740601f, 0.01422291435301303864f, -0.04155953601002693176f, -0.00021162243501748890f, -0.03404530137777328491f, -0.03840169683098793030f, 0.02969536371529102325f, 0.01218283548951148987f, 0.11893340945243835449f, -0.03445296362042427063f, -0.02027008496224880219f, 0.02941361814737319946f, 0.06967395544052124023f, -0.00256095733493566513f, 0.00078508519800379872f, 0.06854104995727539062f, 0.06949424743652343750f, 0.07292632013559341431f, 0.06404987722635269165f, 0.09445054829120635986f, 0.10224234312772750854f, 0.00309195090085268021f, 0.04004503786563873291f, 0.04652260616421699524f, 0.06251424551010131836f, 0.04497396573424339294f, -0.01782454922795295715f, -0.01845346018671989441f, -0.01210059132426977158f, 0.00424345443025231361f, -0.02992970310151576996f, 0.08616916090250015259f, 0.01349863596260547638f, 0.03437972441315650940f, -0.03741786628961563110f, 0.06974952667951583862f, 0.05197870731353759766f, -0.01893049478530883789f, -0.00110476661939173937f, 0.06099548935890197754f, 0.12512180209159851074f, 0.02236626110970973969f, 0.03284350410103797913f, 0.02264647372066974640f, -0.02483700774610042572f, -0.00539984926581382751f, 0.01694060117006301880f, 0.04457677528262138367f, 0.09949582070112228394f, 0.03077251277863979340f, 0.04196711629629135132f, -0.01117630023509263992f, 0.05661183223128318787f, 0.03313236683607101440f, 0.05330623686313629150f, 0.07744026184082031250f, -0.03406668454408645630f, -0.09589616954326629639f, -0.02601385116577148438f, -0.04193407297134399414f, 0.02870572544634342194f, -0.03990696370601654053f, -0.08869951963424682617f, 0.09110064804553985596f, -0.05260982364416122437f, 0.01230774912983179092f, -0.01761972904205322266f, -0.02594493888318538666f, -0.02235846593976020813f, 0.01263275649398565292f, -0.01004143524914979935f, 0.07290454953908920288f, 0.04809520021080970764f, 0.02877035178244113922f, -0.01051364187151193619f, 0.08420560508966445923f, 0.00867722090333700180f, -0.09090188890695571899f, -0.01095890905708074570f, 0.00534186046570539474f, 0.08090872317552566528f, -0.02203946746885776520f, -0.00390562112443149090f, 0.03352228552103042603f, -0.02988953888416290283f, -0.01433262694627046585f, -0.06791174411773681641f, 0.08924254029989242554f, 0.04092979803681373596f, -0.00471871718764305115f, -0.01817762665450572968f, 0.02342619374394416809f, 0.02403954230248928070f, -0.02693122439086437225f, -0.01780060864984989166f, -0.03363432735204696655f, 0.00941844563931226730f, -0.02993123047053813934f, -0.05399341136217117310f, -0.01795070990920066833f, -0.05249586328864097595f, -0.01909865252673625946f, -0.07646842300891876221f, -0.03625339642167091370f, 0.05983741581439971924f, 0.00959250330924987793f, -0.06598237901926040649f, -0.03457113727927207947f, -0.06101724505424499512f, -0.02790598012506961823f, -0.09148260205984115601f, -0.03996972367167472839f, 0.07086383551359176636f, 0.09363934397697448730f, 0.02589578554034233093f, 0.06633961945772171021f, 0.07911857962608337402f, -0.05876774713397026062f, -0.06865838170051574707f, -0.01202718727290630341f, 0.01293844543397426605f, -0.07209006696939468384f, -0.06161840260028839111f, -0.02874234877526760101f, -0.11138049513101577759f, -0.04508820921182632446f, -0.00077476323349401355f, 0.04501290619373321533f, 0.02364165335893630981f, 0.04984211176633834839f, 0.03023863397538661957f, -0.02479974739253520966f, 0.01803408190608024597f, -0.07304411381483078003f, 0.00344917294569313526f, 0.09997989982366561890f, 0.04838756099343299866f, -0.03036304563283920288f, -0.00419622939079999924f, -0.02298588305711746216f, 0.00929880049079656601f, -0.07329781353473663330f, 0.01828078553080558777f, -0.02722194418311119080f, 0.09372673928737640381f, 0.09210468828678131104f, 0.04803729802370071411f, -0.03385598585009574890f, 0.08775566518306732178f, 0.00554239796474575996f, -0.05233495309948921204f, -0.01720463857054710388f, 0.02153649739921092987f, -0.06080676987767219543f, 0.00009720382513478398f, 0.05511008575558662415f, 0.03812637925148010254f, -0.04774344339966773987f, -0.04128332808613777161f, 0.00927221961319446564f, -0.03667462617158889771f, 0.02241628430783748627f, 0.01933822594583034515f, -0.01069866120815277100f, -0.02057107537984848022f, -0.06814084947109222412f, -0.04784664139151573181f, 0.02035433053970336914f, -0.01832877472043037415f, 0.02356574311852455139f, 0.00666625471785664558f, -0.03032738529145717621f, -0.00957102421671152115f, -0.01156942546367645264f, -0.01787244342267513275f, -0.07775818556547164917f, 0.04904884099960327148f, -0.04797721654176712036f, 0.04503377154469490051f, 0.03186724334955215454f, -0.05449279397726058960f, 0.00630482798442244530f, 0.01750559173524379730f, -0.04141225293278694153f},
  {-0.00491308234632015228f, -0.07567106932401657104f, 0.02310577221214771271f, 0.07303648442029953003f, 0.01976291649043560028f, 0.05852361023426055908f, 0.01373043935745954514f, 0.06711412966251373291f, 0.01209153886884450912f, 0.01611514948308467865f, -0.05701803416013717651f, 0.05112709850072860718f, 0.08722492307424545288f, 0.04012430459260940552f, -0.01733362488448619843f, -0.08490555733442306519f, 0.05542651936411857605f, 0.03054195083677768707f, 0.04573770239949226379f, -0.02669051662087440491f, 0.05320119485259056091f, -0.07303249835968017578f, -0.01986403763294219971f, -0.04470549896359443665f, 0.07637300342321395874f, 0.05381626635789871216f, -0.02462116442620754242f, -0.00654291035607457161f, 0.02147100865840911865f, 0.00481991842389106750f, -0.08723935484886169434f, -0.05718691647052764893f, 0.10255698114633560181f, 0.00711861858144402504f, 0.03570237383246421814f, 0.08341296017169952393f, -0.01406361162662506104f, 0.01051367912441492081f, 0.03432106226682662964f, -0.07364440709352493286f, 0.09922865778207778931f, 0.07504390180110931396f, 0.02535643614828586578f, 0.04429632797837257385f, -0.00981481559574604034f, 0.02722413651645183563f, 0.04604313150048255920f, 0.06812264770269393921f, 0.12821963429450988770f, 0.10245930403470993042f, 0.09377503395080566406f, 0.01174816396087408066f, 0.00497956667095422745f, 0.03029351495206356049f, -0.01493801269680261612f, 0.06484444439411163330f, 0.09465654939413070679f, 0.09791566431522369385f, 0.06911586970090866089f, -0.00847524031996726990f, 0.04765874892473220825f, -0.01810732670128345490f, -0.02910878695547580719f, 0.03733766824007034302f, -0.06113888323307037354f, -0.07459750026464462280f, -0.07287891209125518799f, 0.05590713396668434143f, 0.08105341345071792603f, 0.03617975860834121704f, 0.05264507606625556946f, 0.01657447032630443573f, -0.01557877101004123688f, -0.00536330183967947960f, -0.07598135620355606079f, 0.00120976823382079601f, 0.07449188828468322754f, 0.01662871241569519043f, 0.01873600296676158905f, 0.03402522578835487366f, -0.00446347845718264580f, -0.00460243271663784981f, -0.05842606723308563232f, -0.00579011114314198494f, 0.04508264735341072083f, -0.01207236014306545258f, -0.05866989120841026306f, -0.04965009540319442749f, -0.02657747082412242889f, -0.03603151440620422363f, -0.08249243348836898804f, -0.00541964452713727951f, 0.02348394133150577545f, -0.02933965250849723816f, 0.00390588073059916496f, 0.03021847642958164215f, -0.01282800920307636261f, -0.01243907492607831955f, -0.00381468934938311577f, -0.02818431518971920013f, -0.07043543457984924316f, -0.01653227582573890686f, -0.03956711664795875549f, 0.04230573400855064392f, 0.04009337723255157471f, 0.09100683778524398804f, 0.05484297499060630798f, 0.00348131381906569004f, 0.01647729426622390747f, -0.01117846276611089706f, 0.03834498301148414612f, 0.06285052001476287842f, 0.09448999911546707153f, 0.02458828315138816833f, 0.04539095610380172729f, 0.05096770450472831726f, 0.05442822352051734924f, 0.01046877168118953705f, 0.05929153785109519958f, -0.05784857645630836487f, 0.07758808135986328125f, 0.06143972277641296387f, -0.01358464267104864120f, -0.05833940580487251282f, -0.05505862459540367126f, -0.00156392459757626057f, -0.02673179656267166138f, 0.05270915850996971130f, -0.01989584416151046753f, -0.00185504462569952011f, 0.02819317393004894257f, 0.07678152620792388916f, 0.10783316940069198608f, 0.08776627480983734131f, 0.12933950126171112061f, 0.04824528098106384277f, -0.04604301229119300842f, -0.09048803150653839111f, 0.02013296633958816528f, 0.06152850762009620667f, 0.02457291260361671448f, 0.07507311552762985229f, 0.02537526190280914307f, -0.00368976430036127567f, 0.02290576137602329254f, -0.01874120719730854034f, -0.00212801480665802956f, 0.01457583811134099960f, -0.03915820643305778503f, 0.03341567516326904297f, -0.02221919782459735870f, -0.05178000032901763916f, -0.03026526048779487610f, -0.08487161993980407715f, 0.02866598218679428101f, -0.02239695005118846893f, 0.01941327750682830811f, 0.08434665203094482422f, 0.05061404779553413391f, 0.02146680094301700592f, -0.02593014389276504517f, 0.00548115139827132225f, -0.05520811304450035095f, -0.04369953274726867676f, 0.00371167366392910480f, 0.03668833151459693909f, 0.02440704591572284698f, 0.07942923158407211304f, 0.06144609302282333374f, 0.00684616761282086372f, -0.01605429127812385559f, 0.06971853971481323242f, -0.05867626890540122986f, 0.03446836769580841064f, 0.04769743978977203369f, 0.08922458440065383911f, 0.05577578768134117126f, 0.07256042957305908203f, -0.06609691679477691650f, 0.06927361339330673218f, 0.02532321400940418243f, -0.01088313199579715729f, -0.01372314430773258209f, 0.07455500215291976929f, 0.06874530017375946045f, -0.07443996518850326538f, -0.07071811705827713013f, 0.03320675715804100037f, -0.05948895961046218872f, 0.03328754007816314697f, -0.03132542595267295837f, 0.03947098553180694580f},
  {-0.09850253164768218994f, -0.02616498805582523346f, -0.02379732206463813782f, -0.01659243926405906677f, -0.00696961814537644386f, -0.05270396545529365540f, -0.06478750705718994141f, 0.00844452343881130219f, -0.00757616711780428886f, -0.02048793248832225800f, 0.03580500185489654541f, -0.04182524234056472778f, 0.00812910497188568115f, -0.04679420962929725647f, -0.02349158003926277161f, 0.05768036842346191406f, -0.05849629268050193787f, 0.00575945293530821800f, 0.01251758076250553131f, 0.01915288344025611877f, -0.03884633630514144897f, -0.01835609041154384613f, -0.03664196282625198364f, 0.05797839537262916565f, -0.02128791809082031250f, 0.05298724770545959473f, 0.03549644351005554199f, -0.04826691374182701111f, -0.05987881869077682495f, 0.05777553096413612366f, -0.00830213166773319244f, 0.06039312854409217834f, 0.02125484682619571686f, -0.08146382123231887817f, -0.06659936159849166870f, -0.05120667070150375366f, 0.08247321099042892456f, -0.00236838567070662975f, -0.00587984966114163399f, 0.02880374714732170105f, -0.07888580858707427979f, -0.02493658848106861115f, -0.01232545636594295502f, -0.00300250924192368984f, -0.01946572400629520416f, 0.09841366857290267944f, 0.05648241192102432251f, 0.09414296597242355347f, 0.03911975398659706116f, 0.01057401672005653381f, 0.00369370891712605953f, 0.01589375920593738556f, 0.10117223858833312988f, 0.01871442236006259918f, 0.02112035267055034637f, 0.08545669168233871460f, 0.02511146478354930878f, 0.00461812689900398254f, -0.02527795173227787018f, 0.00326219620183110237f, 0.00169154861941933632f, 0.05782652273774147034f, -0.02666359394788742065f, 0.05820686742663383484f, -0.05934376269578933716f, -0.08819038420915603638f, -0.03053754195570945740f, 0.05495648086071014404f, 0.03545178100466728210f, 0.00227798195555806160f, 0.00477926479652523994f, 0.01929700560867786407f, -0.04275796189904212952f, -0.03588122129440307617f, 0.06075605005025863647f, -0.01623709313571453094f, 0.01317899860441684723f, -0.07318697869777679443f, -0.07230880856513977051f, -0.03978056460618972778f, -0.03051393851637840271f, 0.08443943411111831665f, 0.01260931603610515594f, 0.05550599470734596252f, -0.04839409515261650085f, 0.01566527038812637329f, 0.00442474614828824997f, -0.02868446893990039825f, -0.05545054376125335693f, 0.01890969090163707733f, 0.00404987903311848640f, 0.02563801966607570648f, -0.03894037380814552307f, -0.00313121709041297436f, 0.03073509968817234039f, -0.01913528703153133392f, 0.01665804535150527954f, -0.00897463224828243256f, -0.03538580238819122314f, -0.07845875620841979980f, 0.01126849185675382614f, 0.04572913423180580139f, 0.07221144437789916992f, -0.02267465740442276001f, -0.05848553776741027832f, -0.02768275886774063110f, 0.01527451258152723312f, -0.04277063161134719849f, 0.10124901682138442993f, 0.09260127693414688110f, 0.03582250699400901794f, -0.04295697063207626343f, -0.01615090668201446533f, 0.03105514124035835266f, -0.05868612229824066162f, 0.06005260720849037170f, 0.01112977880984544754f, 0.02046980522572994232f, -0.01243539527058601379f, 0.02697949111461639404f, -0.03278484195470809937f, 0.08119984716176986694f, 0.04051649570465087891f, -0.05079499632120132446f, 0.00972761306911706924f, -0.01207786053419113159f, -0.07360170781612396240f, 0.02596686035394668579f, 0.00363036361522972584f, -0.03936944156885147095f, -0.01545030437409877777f, 0.00408297311514616013f, 0.03518129140138626099f, -0.05110657215118408203f, 0.02848885208368301392f, 0.00403214385733008385f, -0.09001570940017700195f, -0.06170583888888359070f, 0.04190026223659515381f, 0.06250554323196411133f, -0.06558061391115188599f, -0.01575400121510028839f, 0.00579615170136094093f, 0.04069411382079124451f, -0.07629616558551788330f, 0.06619011610746383667f, -0.05059431120753288269f, 0.01190195977687835693f, 0.04717675596475601196f, -0.05769464373588562012f, 0.02468753233551979065f, 0.06839679926633834839f, -0.03568017855286598206f, -0.00249376171268522739f, 0.00025024687056429684f, -0.05511526018381118774f, 0.03077585808932781219f, 0.02153275161981582642f, 0.05279603227972984314f, 0.01157026365399360657f, 0.02271570637822151184f, -0.04235392808914184570f, 0.00572005379945039749f, -0.08206521719694137573f, -0.04471549764275550842f, -0.04163166508078575134f, -0.07758998125791549683f, 0.07264754176139831543f, -0.02938364818692207336f, 0.08336920291185379028f, -0.04824573546648025513f, 0.06121234595775604248f, 0.03109416738152503967f, 0.07404993474483489990f, -0.01558549329638481140f, -0.05250072479248046875f, -0.03098050691187381744f, -0.01372955553233623505f, 0.01220134273171424866f, -0.01003674976527690887f, 0.02398987300693988800f, -0.00806168932467699051f, 0.05890656262636184692f, 0.06184670329093933105f, 0.01291385851800441742f, -0.03026621975004673004f, 0.04267945140600204468f, -0.06048412621021270752f, -0.05295805260539054871f, 0.06675186008214950562f, -0.04763526096940040588f, -0.06918603181838989258f},
  {-0.04450391232967376709f, -0.07369858771562576294f, -0.01595287397503852844f, 0.02940907701849937439f, 0.01876498945057392120f, -0.04904099926352500916f, 0.06232152879238128662f, 0.07720378041267395020f, 0.04261094331741333008f, -0.04164443910121917725f, 0.05546301230788230896f, 0.01871522329747676849f, -0.01156509667634963989f, 0.02124480530619621277f, 0.00692604249343276024f, 0.01948071084916591644f, 0.02469067461788654327f, -0.00239598099142313004f, 0.02383173629641532898f, 0.02316016331315040588f, -0.04371331259608268738f, -0.01876330561935901642f, -0.01740328408777713776f, 0.06747841835021972656f, 0.02316001243889331818f, 0.02035875059664249420f, 0.04929959774017333984f, -0.04971988871693611145f, 0.03528388962149620056f, 0.00822565145790576935f, -0.04808048531413078308f, 0.08233895152807235718f, -0.05131216347217559814f, -0.00183367927093058825f, 0.07821201533079147339f, 0.06373771280050277710f, 0.03107254393398761749f, -0.01779290102422237396f, 0.00164437713101506233f, 0.06445910781621932983f, -0.03222882375121116638f, -0.05905956402420997620f, -0.06913568079471588135f, 0.07088056951761245728f, -0.03113919682800769806f, -0.03237667307257652283f, 0.00915575306862592697f, 0.00761833135038614273f, 0.04433497786521911621f, -0.02831111289560794830f, -0.07748010009527206421f, -0.05390063673257827759f, -0.07896742224693298340f, -0.06962159276008605957f, -0.04501215368509292603f, -0.00331762898713350296f, 0.04820781573653221130f, 0.03149640560150146484f, 0.03312186151742935181f, 0.01176212541759014130f, 0.00690373731777071953f, -0.01823981292545795441f, -0.03806416690349578857f, 0.03118347562849521637f, 0.02808887884020805359f, -0.08409911394119262695f, -0.00011545228335307911f, -0.04657791182398796082f, -0.08990772813558578491f, -0.03340554237365722656f, 0.01132416073232889175f, 0.03854241222143173218f, 0.00765558006241917610f, -0.05520476028323173523f, 0.05786824226379394531f, 0.05672075599431991577f, 0.05991703644394874573f, -0.01876830309629440308f, 0.07880304008722305298f, 0.10257628560066223145f, 0.02858040481805801392f, 0.04830501228570938110f, 0.00749223073944449425f, -0.00749184843152761459f, -0.00414758641272783279f, -0.06133050099015235901f, -0.06466101109981536865f, 0.00705044716596603394f, 0.01729549467563629150f, -0.06021036952733993530f, -0.04350263625383377075f, 0.03471706807613372803f, -0.06164558231830596924f, -0.07064612209796905518f, -0.08533294498920440674f, -0.05016976594924926758f, 0.04878598824143409729f, -0.03211988508701324463f, -0.06036531552672386169f, 0.03263165801763534546f, 0.01709326729178428650f, 0.05774018168449401855f, 0.01540739368647336960f, 0.01083130668848752975f, 0.01030350755900144577f, -0.06771586090326309204f, -0.03410339727997779846f, -0.05741408094763755798f, 0.03642709180712699890f, 0.05826123058795928955f, 0.00628775171935558319f, -0.00980052258819341660f, -0.05615951865911483765f, -0.06335087120532989502f, -0.03228686749935150146f, -0.04428680986166000366f, -0.04536389932036399841f, -0.08933290094137191772f, -0.08926560729742050171f, 0.01393893174827098846f, 0.04838195815682411194f, 0.03965026140213012695f, 0.03886795789003372192f, 0.06546364724636077881f, 0.01371999271214008331f, -0.00965027324855327606f, -0.05022093281149864197f, -0.01013797242194414139f, -0.04181925207376480103f, -0.00612889043986797333f, 0.01094285678118467331f, -0.02499980106949806213f, 0.05800420418381690979f, -0.00560561288148164749f, 0.06149549782276153564f, 0.08795957267284393311f, 0.07284155488014221191f, 0.01630135066807270050f, -0.01212485041469335556f, 0.11401168256998062134f, 0.09074292331933975220f, 0.04683132097125053406f, 0.10385861247777938843f, 0.15154507756233215332f, 0.03886505961418151855f, 0.07589854300022125244f, 0.07215258479118347168f, 0.04460205882787704468f, 0.05033056437969207764f, 0.02391707338392734528f, 0.06932132691144943237f, 0.07240919768810272217f, -0.01793102733790874481f, 0.05206504464149475098f, 0.04692935571074485779f, 0.00137766788247972727f, 0.05697743594646453857f, -0.04162042960524559021f, 0.02955549582839012146f, 0.02489980682730674744f, 0.09286375343799591064f, 0.03710841387510299683f, 0.00879263319075107574f, 0.03186448290944099426f, 0.11130325496196746826f, 0.10141272097826004028f, 0.06029347702860832214f, 0.00392805598676204681f, -0.02746363729238510132f, -0.02611372806131839752f, -0.04443483799695968628f, 0.00187619635835289955f, 0.01794339530169963837f, 0.02296713367104530334f, 0.03889094293117523193f, -0.02112500555813312531f, 0.04992231354117393494f, 0.02400503866374492645f, 0.02720176614820957184f, -0.00068612239556387067f, -0.05136601626873016357f, 0.03295195475220680237f, 0.01742871478199958801f, 0.00328054395504295826f, 0.03029005043208599091f, 0.04949738830327987671f, 0.00137245643418282270f, 0.02798760868608951569f, -0.02589336968958377838f, -0.04937426373362541199f, -0.01086032576858997345f, 0.01869240403175354004f},
  {0.01254310458898544312f, 0.01146771106868982315f, 0.06293430179357528687f, 0.07180991023778915405f, 0.12013454735279083252f, 0.08267182856798171997f, -0.06017439439892768860f, -0.00945287290960550308f, 0.02287826873362064362f, 0.01686529628932476044f, 0.03712311387062072754f, 0.07138445228338241577f, 0.00995021034032106400f, 0.01819148845970630646f, -0.03686028718948364258f, -0.01269371714442968369f, -0.06093146279454231262f, 0.00377668743021786213f, -0.02868759259581565857f, 0.03099673241376876831f, 0.04240284115076065063f, 0.06208806112408638000f, -0.01988430693745613098f, 0.01698356308043003082f, 0.00714794499799609184f, -0.02682653442025184631f, 0.05304180830717086792f, 0.05289988219738006592f, -0.04271279647946357727f, 0.04137361794710159302f, -0.03907722607254981995f, 0.00299014733172953129f, -0.03182587027549743652f, 0.04232626408338546753f, -0.05142339318990707397f, 0.02241730131208896637f, 0.01570447906851768494f, -0.03281401842832565308f, 0.05096494406461715698f, 0.05492509901523590088f, -0.04420452192425727844f, 0.03276157006621360779f, -0.07701548188924789429f, -0.04939058795571327209f, -0.02008628472685813904f, 0.03231403976678848267f, 0.01564771309494972229f, -0.03700715303421020508f, -0.03997192531824111938f, -0.04743706062436103821f, -0.07011692225933074951f, -0.05197861790657043457f, -0.08477246016263961792f, -0.06855538487434387207f, 0.02211800962686538696f, -0.05262714251875877380f, 0.06433317065238952637f, -0.03142211958765983582f, -0.02591794915497303009f, 0.05545553937554359436f, 0.01604034937918186188f, 0.03981772437691688538f, -0.04924985393881797791f, -0.06944808363914489746f, 0.01413836609572172165f, 0.04607300087809562683f, 0.04706218466162681580f, 0.06442908197641372681f, -0.00730836717411875725f, -0.02832406572997570038f, -0.03755204007029533386f, -0.03378214687108993530f, 0.03357737138867378235f, -0.01875334419310092926f, 0.01865345984697341919f, 0.02983858063817024231f, 0.05234225466847419739f, 0.11039976775646209717f, 0.05365098640322685242f, -0.04471887648105621338f, -0.02707736007869243622f, 0.05359657853841781616f, -0.02872794866561889648f, 0.05219133570790290833f, 0.02307252213358879089f, 0.08783683180809020996f, -0.05174642428755760193f, 0.01907133869826793671f, 0.06010734662413597107f, 0.04369409009814262390f, 0.03389751538634300232f, -0.02144554443657398224f, -0.02923084050416946411f, -0.00835494417697191238f, 0.06324961036443710327f, -0.00236563547514379025f, 0.09179556369781494141f, 0.05833321437239646912f, 0.04125221073627471924f, -0.03513312712311744690f, 0.07549678534269332886f, 0.06044674292206764221f, -0.06647182255983352661f, -0.01547475624829530716f, 0.01980175264179706573f, 0.01899156719446182251f, -0.03949614986777305603f, 0.04820144921541213989f, 0.00185206870082765818f, -0.06003604084253311157f, 0.03593429923057556152f, 0.01531638763844966888f, 0.07773232460021972656f, -0.02832917682826519012f, 0.03442260250449180603f, 0.00224643549881875515f, 0.04365193471312522888f, 0.03087967820465564728f, -0.02367146499454975128f, -0.00605854904279112816f, 0.07571972906589508057f, 0.03205130621790885925f, 0.08636669069528579712f, 0.03927143290638923645f, 0.05497590824961662292f, 0.11555384099483489990f, 0.08172570168972015381f, 0.00896702893078327179f, -0.02808135747909545898f, 0.03206254541873931885f, 0.07107927650213241577f, -0.01351495645940303802f, -0.05116025730967521667f, 0.03730614483356475830f, -0.03837881237268447876f, -0.02433438599109649658f, -0.03496843576431274414f, -0.02441410720348358154f, 0.01944182813167572021f, -0.01128634344786405563f, 0.07333482056856155396f, -0.04479706659913063049f, -0.08275311440229415894f, -0.02508447133004665375f, 0.02857621759176254272f, -0.03106892481446266174f, 0.03640953451395034790f, -0.06477734446525573730f, -0.04161046072840690613f, 0.00863432977348566055f, -0.07096490263938903809f, -0.11747873574495315552f, 0.03765471279621124268f, -0.05659222230315208435f, 0.01714591309428215027f, 0.06601832807064056396f, 0.02613416686654090881f, -0.00266412156634032726f, -0.01741111651062965393f, -0.01228209584951400757f, 0.03075071424245834351f, 0.10839202255010604858f, -0.01464143116027116776f, 0.06751107424497604370f, 0.04276188835501670837f, 0.00005833125396748073f, -0.00282988278195261955f, 0.01098434068262577057f, 0.10639744251966476440f, -0.00860633421689271927f, -0.01608485914766788483f, -0.04786938801407814026f, -0.06431287527084350586f, -0.00966636929661035538f, -0.01231131050735712051f, -0.04031160101294517517f, 0.02906189486384391785f, 0.07558032125234603882f, 0.05130709335207939148f, -0.00773019110783934593f, 0.05944699048995971680f, -0.06559889763593673706f, -0.04209477454423904419f, -0.01509076543152332306f, 0.13404206931591033936f, 0.07463990151882171631f, 0.06544061750173568726f, 0.12126191705465316772f, 0.03248930722475051880f, 0.01567374169826507568f, 0.06053496152162551880f, 0.01669634878635406494f},
  {-0.02920531481504440308f, -0.05151234194636344910f, -0.11535981297492980957f, 0.00686622597277164459f, -0.04272886738181114197f, -0.01788760907948017120f, 0.03289824351668357849f, -0.06075866892933845520f, 0.06834084540605545044f, -0.02786127291619777679f, -0.06734960526227951050f, -0.02863286621868610382f, -0.03636824712157249451f, 0.04724122956395149231f, 0.01190384104847908020f, -0.04046193510293960571f, -0.01247198507189750671f, 0.03173417970538139343f, -0.03824264556169509888f, -0.04905930534005165100f, -0.00808497797697782516f, -0.00227999570779502392f, -0.05042494833469390869f, -0.03935451433062553406f, 0.03745541349053382874f, 0.01815471611917018890f, 0.01399057544767856598f, -0.03507228568196296692f, 0.03635927662253379822f, 0.03105710074305534363f, 0.00528142787516117096f, -0.02972351759672164917f, 0.08962392807006835938f, 0.04487912729382514954f, -0.05422994866967201233f, -0.04498533159494400024f, -0.01505522709339857101f, -0.01629482582211494446f, 0.03267660737037658691f, -0.05101428180932998657f, 0.11841858178377151489f, 0.01061099488288164139f, 0.00855276267975568771f, -0.05039281025528907776f, 0.04643630981445312500f, 0.01173400785773992538f, -0.02174063399434089661f, -0.05246794223785400391f, 0.09104028344154357910f, 0.07370336353778839111f, -0.07021569460630416870f, -0.02253931388258934021f, 0.00966660398989915848f, -0.03705777600407600403f, -0.03890909999608993530f, -0.03302523493766784668f, 0.09052003920078277588f, 0.05873860046267509460f, -0.01679874956607818604f, 0.01657301932573318481f, -0.00439369818195700645f, 0.04017661511898040771f, 0.02084892243146896362f, 0.05324081331491470337f, 0.03507687896490097046f, 0.01036367658525705338f, -0.05285863205790519714f, -0.10084246098995208740f, -0.06681207567453384399f, 0.07691776007413864136f, 0.04674689099192619324f, -0.01213662791997194290f, 0.03227386251091957092f, 0.01512333936989307404f, -0.06325296312570571899f, -0.03593804687261581421f, 0.03403655439615249634f, -0.04267152771353721619f, -0.00064596266020089388f, 0.00007343198376474902f, 0.06076898053288459778f, 0.03691811487078666687f, -0.00819446705281734467f, 0.02054361626505851746f, 0.06497357785701751709f, 0.05976973474025726318f, -0.02313584275543689728f, -0.03225130215287208557f, -0.03018364869058132172f, 0.08074111491441726685f, 0.00871583819389343262f, -0.01230006478726863861f, 0.09455909579992294312f, 0.00639756023883819580f, 0.02478452026844024658f, -0.07319595664739608765f, 0.02427632361650466919f, -0.03598292544484138489f, 0.03364157304167747498f, 0.02110067196190357208f, 0.06364780664443969727f, -0.02489602193236351013f, -0.02199243009090423584f, 0.00975862983614206314f, 0.05127896741032600403f, 0.05769263580441474915f, -0.05060949549078941345f, 0.01701956242322921753f, 0.03645476698875427246f, 0.00439236918464303017f, 0.05951536819338798523f, 0.00791269075125455856f, 0.11967433989048004150f, 0.00600174441933631897f, 0.01545996312052011490f, -0.02927980199456214905f, -0.08276624977588653564f, -0.04558005556464195251f, 0.06886813789606094360f, 0.03642889484763145447f, 0.08585505932569503784f, 0.07689954340457916260f, -0.04462330043315887451f, -0.02423979528248310089f, -0.08586312830448150635f, -0.04185383394360542297f, 0.00056758796563372016f, 0.00606584409251809120f, -0.05269687995314598083f, -0.05432569608092308044f, -0.03574180975556373596f, -0.03920781612396240234f, -0.04357467591762542725f, -0.00471614534035325050f, -0.01003473717719316483f, 0.00925300363451242447f, -0.02232468873262405396f, 0.00131293479353189468f, 0.03029050119221210480f, -0.02689125761389732361f, 0.00788169074803590775f, 0.02126856520771980286f, 0.00714501319453120232f, 0.07958029210567474365f, 0.06444464623928070068f, -0.01762480288743972778f, -0.01212685275822877884f, -0.01062530744820833206f, -0.00358719308860599995f, 0.00090039434144273400f, -0.00780274253338575363f, 0.00274569145403802395f, 0.04980817437171936035f, -0.04175746813416481018f, 0.00042157029383815825f, 0.00149011809844523668f, 0.01769986003637313843f, -0.00462642265483736992f, 0.07320011407136917114f, 0.00846680253744125366f, 0.08500481396913528442f, 0.00699513312429189682f, -0.01540284138172864914f, -0.01322105526924133301f, 0.02348945103585720062f, 0.00064058345742523670f, 0.00545506877824664116f, 0.07025635242462158203f, 0.05470438301563262939f, 0.00494134286418557167f, -0.03843152895569801331f, 0.02671638317406177521f, 0.02487966604530811310f, 0.00292448862455785275f, -0.03421439975500106812f, 0.05061523988842964172f, 0.09132377058267593384f, 0.07547002285718917847f, -0.06001259759068489075f, 0.01417321432381868362f, -0.07603075355291366577f, -0.01733665168285369873f, 0.04474988207221031189f, 0.04250030964612960815f, 0.11491210758686065674f, 0.09299201518297195435f, 0.01610126718878746033f, -0.06101186200976371765f, 0.03573619946837425232f, -0.02654968760907649994f, -0.00754080992192029953f, -0.01737345941364765167f},
  {0.01092925574630498886f, 0.07125639915466308594f, -0.05281107500195503235f, 0.00261530559509992599f, 0.05470284447073936462f, -0.02014365978538990021f, -0.03370731696486473083f, -0.02893140539526939392f, -0.03958741575479507446f, -0.00475109880790114403f, -0.02977652102708816528f, 0.00968812126666307449f, -0.07439711689949035645f, -0.04580351337790489197f, 0.02702215313911437988f, 0.01715868711471557617f, -0.05349486693739891052f, -0.07067544758319854736f, 0.00929261371493339539f, -0.07280229032039642334f, 0.03442452102899551392f, -0.01843298785388469696f, -0.05006516352295875549f, 0.06000410392880439758f, -0.07755739986896514893f, -0.05230782553553581238f, -0.02151575312018394470f, -0.03470766916871070862f, -0.07579936832189559937f, -0.07950732111930847168f, 0.03634646162390708923f, 0.01285463105887174606f, 0.04365381971001625061f, 0.03533584624528884888f, 0.00137549825012683868f, -0.05945904552936553955f, 0.01200026646256446838f, -0.04120384529232978821f, -0.09444588422775268555f, -0.08311709761619567871f, 0.06253498792648315430f, -0.00148662843275815248f, -0.02911430224776268005f, -0.04729908332228660583f, -0.03939974680542945862f, -0.10958298295736312866f, -0.01729732006788253784f, -0.09455396234989166260f, 0.02875248901546001434f, -0.07163409888744354248f, -0.05504494160413742065f, 0.03451680392026901245f, -0.07885285466909408569f, -0.01941598020493984222f, 0.03474047034978866577f, -0.06735552847385406494f, -0.06379557400941848755f, 0.01143975555896759033f, -0.09602134674787521362f, -0.09399197250604629517f, 0.03185883164405822754f, -0.09468156099319458008f, -0.08628446608781814575f, 0.00740012433379888535f, 0.07474048435688018799f, -0.04455859959125518799f, 0.09166905283927917480f, 0.04457982629537582397f, 0.05709044262766838074f, -0.03115268424153327942f, 0.01974967308342456818f, 0.01870515942573547363f, 0.04265176504850387573f, -0.03457961976528167725f, 0.05746259912848472595f, 0.01500659156590700150f, 0.04935935139656066895f, -0.07174802571535110474f, -0.01616114564239978790f, 0.03737033158540725708f, -0.06722750514745712280f, 0.03055477887392044067f, 0.05078811198472976685f, 0.05285838246345520020f, -0.04709451273083686829f, -0.03190066292881965637f, 0.01626685447990894318f, 0.08101177215576171875f, 0.00939699355512857437f, 0.05863280594348907471f, 0.01071695331484079361f, -0.02985986508429050446f, 0.04368270188570022583f, 0.00626918533816933632f, -0.04127060249447822571f, -0.00497463624924421310f, -0.00674641784280538559f, 0.05026836693286895752f, 0.06897792220115661621f, -0.01279117073863744736f, -0.05905942618846893311f, 0.02995804511010646820f, -0.04456954076886177063f, 0.03870051354169845581f, -0.00471181655302643776f, 0.07676592469215393066f, 0.09324941784143447876f, 0.05756083130836486816f, 0.01864183321595191956f, -0.10512530058622360229f, -0.07032810151576995850f, -0.00850316789001226425f, -0.00451016426086425781f, 0.02749072201550006866f, -0.04889471828937530518f, 0.07165005058050155640f, -0.03389266878366470337f, 0.07143662869930267334f, -0.00815738271921873093f, -0.00259388657286763191f, 0.01177212689071893692f, 0.01736469194293022156f, 0.02230433747172355652f, -0.03674340620636940002f, 0.03765606507658958435f, -0.05792233720421791077f, 0.02478978037834167480f, -0.02468339912593364716f, 0.05164465680718421936f, -0.02714940719306468964f, 0.04589796066284179688f, 0.00880977883934974670f, 0.01349866669625043869f, -0.03815166652202606201f, -0.00426252093166112900f, 0.03163723647594451904f, 0.03635294362902641296f, -0.08743575960397720337f, -0.01423908397555351257f, -0.00715189799666404724f, -0.04229863360524177551f, -0.04763706028461456299f, -0.06625341624021530151f, 0.06749864667654037476f, -0.00118613941594958305f, -0.04588476568460464478f, -0.02879771962761878967f, -0.06243366748094558716f, -0.00624607037752866745f, -0.04412153735756874084f, -0.03624008968472480774f, 0.01848864927887916565f, 0.01491197571158409119f, -0.00704522430896759033f, -0.02014901116490364075f, -0.05444850027561187744f, -0.01212616637349128723f, 0.03418533504009246826f, 0.04374168813228607178f, -0.03118764795362949371f, -0.03610884398221969604f, 0.04670290276408195496f, -0.03367145732045173645f, -0.01170545443892478943f, 0.02367007918655872345f, -0.07864781469106674194f, -0.02384909801185131073f, -0.01338495872914791107f, 0.00599593995139002800f, 0.05709877610206604004f, -0.05322399362921714783f, -0.03449591621756553650f, 0.01139363460242748260f, -0.09794667363166809082f, 0.04021244123578071594f, 0.02190422825515270233f, 0.07665141671895980835f, 0.06030964851379394531f, -0.05506426095962524414f, 0.01435992214828729630f, 0.02128069475293159485f, 0.04097766429185867310f, -0.05740729346871376038f, -0.02019795030355453491f, 0.08578151464462280273f, 0.02576382458209991455f, -0.05065413191914558411f, -0.00461308564990758896f, -0.00594015000388026237f, 0.00575129361823201180f, 0.03029264882206916809f, -0.01186580862849950790f},
  {0.01643650792539119720f, 0.00378344533964991570f, 0.00970174651592969894f, -0.08419135212898254395f, -0.04713626950979232788f, 0.00272527639754116535f, 0.00331775308586657047f, -0.00825959350913763046f, 0.13582746684551239014f, 0.07860988378524780273f, 0.01667242497205734253f, 0.03547877073287963867f, 0.02907049469649791718f, 0.06441331654787063599f, 0.01501283142715692520f, 0.02274906076490879059f, 0.09258628636598587036f, -0.01592258550226688385f, -0.00748178595677018166f, -0.02397358231246471405f, 0.00924452114850282669f, 0.06586734950542449951f, 0.03181556239724159241f, -0.06634299457073211670f, -0.02907411009073257446f, -0.01564469374716281891f, -0.07668780535459518433f, -0.04237698763608932495f, -0.08754666894674301147f, -0.07729238271713256836f, -0.06444735080003738403f, -0.11165382713079452515f, 0.03164168447256088257f, -0.02313282527029514313f, -0.07270317524671554565f, -0.00336112640798091888f, -0.04761492088437080383f, 0.01882697455585002899f, -0.03734870627522468567f, -0.05885584279894828796f, 0.00509601272642612457f, -0.04499723017215728760f, 0.01215620897710323334f, 0.03240364044904708862f, -0.01692131906747817993f, -0.03301465511322021484f, -0.00448654219508171082f, -0.00941331684589385986f, 0.03528283908963203430f, -0.01201973017305135727f, -0.04365621507167816162f, 0.00978524796664714813f, -0.04909085482358932495f, -0.01939928717911243439f, 0.03703730925917625427f, 0.01101917959749698639f, 0.09166023880243301392f, -0.01653528586030006409f, 0.07439505308866500854f, -0.05583354830741882324f, -0.02000050805509090424f, 0.06893352419137954712f, 0.04153787344694137573f, -0.00434929458424448967f, 0.03354632109403610229f, 0.00338541716337203979f, -0.08066265285015106201f, -0.06418570876121520996f, -0.05774996802210807800f, 0.02804830484092235565f, 0.06809275597333908081f, 0.07959554344415664673f, -0.00354695599526166916f, 0.02194900810718536377f, -0.01712898351252079010f, 0.02427489496767520905f, 0.00594355212524533272f, 0.11673539876937866211f, 0.06521862745285034180f, 0.03962143510580062866f, 0.02586618624627590179f, 0.00230472278781235218f, 0.03771858662366867065f, 0.02454396523535251617f, 0.05758709833025932312f, 0.09096603840589523315f, 0.04161631315946578979f, 0.01696437038481235504f, 0.00905195437371730804f, -0.02999669313430786133f, -0.06437972187995910645f, -0.06263289600610733032f, 0.02973495982587337494f, 0.03365570306777954102f, -0.04980806633830070496f, -0.05173813179135322571f, 0.01109558809548616409f, -0.05495217442512512207f, -0.01441667042672634125f, -0.00363721209578216076f, 0.04334537312388420105f, 0.03417548164725303650f, 0.05599084123969078064f, -0.01668576709926128387f, 0.06446488201618194580f, -0.09819833934307098389f, -0.05905047059059143066f, -0.00448993174359202385f, -0.03510037437081336975f, 0.01638718880712985992f, -0.01071152463555335999f, -0.05330953374505043030f, -0.02728577703237533569f, -0.01759069971740245819f, -0.03881434723734855652f, -0.07421965897083282471f, -0.03501884266734123230f, 0.01636781543493270874f, 0.08809541910886764526f, 0.03636705130338668823f, 0.07701562345027923584f, -0.01310223527252674103f, -0.00875923968851566315f, 0.01225004717707633972f, 0.02128619514405727386f, 0.12099146842956542969f, 0.12567614018917083740f, 0.06304065138101577759f, -0.05244930461049079895f, 0.00543306628242135048f, -0.03506055846810340881f, -0.08737792819738388062f, -0.05096300318837165833f, -0.01072208676487207413f, 0.06214210763573646545f, 0.05165879800915718079f, 0.06763079762458801270f, 0.03434986621141433716f, -0.02014617249369621277f, 0.02099068835377693176f, -0.01541667431592941284f, 0.07236752659082412720f, 0.13509288430213928223f, 0.04421403631567955017f, 0.04755851998925209045f, -0.03872286528348922729f, -0.03195141628384590149f, 0.02985031902790069580f, 0.04359158128499984741f, 0.09663840383291244507f, 0.05565406754612922668f, -0.02126500196754932404f, -0.00279402313753962517f, -0.08368957042694091797f, -0.10132417827844619751f, -0.02723971009254455566f, -0.01820700988173484802f, 0.00656842300668358803f, 0.02110143192112445831f, -0.02814644388854503632f, -0.07060213387012481689f, -0.02684733644127845764f, 0.04453778639435768127f, -0.00494989659637212753f, 0.02905250899493694305f, 0.06304699927568435669f, 0.06516931205987930298f, -0.00725195603445172310f, 0.00767596950754523277f, -0.01171117369085550308f, -0.08682517707347869873f, -0.00794509518891572952f, -0.00175309728365391493f, -0.03974528610706329346f, 0.01136566605418920517f, 0.03158165514469146729f, -0.06216856464743614197f, -0.08077004551887512207f, -0.07986041158437728882f, 0.00593136390671133995f, -0.00856838375329971313f, -0.00176942080724984407f, 0.04275547713041305542f, 0.07074724882841110229f, 0.02479056082665920258f, -0.02811960317194461823f, -0.04878742620348930359f, -0.01338804420083761215f, 0.00626356014981865883f, 0.04260680079460144043f, 0.15444709360599517822f, 0.05748830363154411316f},
  {0.00259600463323295116f, -0.02076069265604019165f, 0.00839550234377384186f, -0.02943222038447856903f, 0.06842975318431854248f, 0.04943476989865303040f, -0.00525271939113736153f, -0.00541912671178579330f, 0.06296345591545104980f, 0.09071821719408035278f, 0.04610371589660644531f, -0.00642755720764398575f, 0.03103093616664409637f, 0.02435023523867130280f, -0.02326921746134757996f, -0.04031191021203994751f, -0.01366114150732755661f, 0.03413354605436325073f, 0.03318880498409271240f, 0.03312592208385467529f, -0.04498946666717529297f, -0.07041138410568237305f, -0.02992770634591579437f, 0.06513158231973648071f, -0.02601370587944984436f, 0.01823606714606285095f, -0.01379760075360536575f, 0.01338867470622062683f, -0.07347308099269866943f, 0.00745791941881179810f, -0.01588336192071437836f, 0.00889509916305541992f, 0.03781379014253616333f, -0.03537251427769660950f, 0.07513568550348281860f, 0.01041758339852094650f, -0.01026890520006418228f, -0.03043967857956886292f, -0.06926777213811874390f, -0.09529151022434234619f, 0.11391089111566543579f, 0.02582843601703643799f, -0.03618245571851730347f, -0.05021600425243377686f, -0.04131414741277694702f, -0.11170420050621032715f, -0.07271961867809295654f, -0.09237254410982131958f, 0.09054038673639297485f, -0.00463571678847074509f, 0.10913236439228057861f, -0.01866229809820652008f, 0.05584480985999107361f, -0.03247711807489395142f, -0.04539848864078521729f, -0.02284145914018154144f, 0.04266396909952163696f, 0.02000218071043491364f, 0.06191171333193778992f, 0.01476069726049900055f, -0.00288982526399195194f, 0.02230395749211311340f, -0.00005179647632758133f, 0.06172825768589973450f, 0.00027754713664762676f, -0.04871931672096252441f, -0.00361694977618753910f, 0.04838235676288604736f, -0.04179927706718444824f, 0.05591151490807533264f, -0.00097836425993591547f, -0.01053535472601652145f, 0.01635538786649703979f, -0.09960120171308517456f, -0.01119196321815252304f, -0.06708447635173797607f, -0.04593055695295333862f, 0.02936667203903198242f, 0.01384685188531875610f, -0.02770915254950523376f, -0.02661026455461978912f, -0.08065614104270935059f, 0.02727822959423065186f, -0.04456487670540809631f, -0.08486776053905487061f, -0.06366234272718429565f, 0.07084979861974716187f, -0.09858987480401992798f, 0.02745725400745868683f, 0.00701055629178881645f, -0.01407455373555421829f, 0.06335899978876113892f, -0.07557074725627899170f, 0.02107269503176212311f, -0.00368248950690031052f, 0.00826860219240188599f, 0.07570663094520568848f, 0.06227278336882591248f, 0.03442832455039024353f, -0.02722255513072013855f, -0.09856503456830978394f, -0.02416505478322505951f, -0.03249474987387657166f, 0.03025833889842033386f, 0.07021765410900115967f, 0.00563916238024830818f, -0.04147872701287269592f, 0.05569986626505851746f, -0.04899938777089118958f, -0.04393026605248451233f, -0.11419290304183959961f, -0.09226017445325851440f, 0.05487125366926193237f, -0.04787111282348632812f, -0.04022385179996490479f, 0.01982982642948627472f, 0.05694310367107391357f, -0.06952450424432754517f, -0.04336471483111381531f, 0.00995748490095138550f, 0.03803471103310585022f, -0.09500873088836669922f, 0.04992555081844329834f, 0.01440428383648395538f, 0.01055973954498767853f, 0.01354216597974300385f, 0.07574345916509628296f, 0.05730252340435981750f, -0.01877080090343952179f, -0.03412954881787300110f, 0.02233681455254554749f, 0.05316220223903656006f, 0.00628417031839489937f, 0.05678927898406982422f, 0.01518561504781246185f, 0.00567984068766236305f, 0.01649861223995685577f, -0.05537421628832817078f, -0.03179378062486648560f, 0.01927356421947479248f, -0.00496470090001821518f, 0.01814476586878299713f, 0.11443740874528884888f, 0.04929143190383911133f, -0.02470209449529647827f, -0.05473064631223678589f, -0.07934094965457916260f, -0.03734066337347030640f, 0.00312632299028337002f, -0.04135608673095703125f, -0.00171638419851660728f, 0.04890568926930427551f, 0.06320598721504211426f, -0.00309404148720204830f, -0.05715687200427055359f, 0.03524997085332870483f, -0.00255984649993479252f, 0.02910784818232059479f, 0.06798161566257476807f, -0.00119177438318729401f, 0.03291400894522666931f, -0.00821785628795623779f, 0.00101638922933489084f, 0.02793443389236927032f, 0.04018285125494003296f, -0.04738835617899894714f, -0.05279339477419853210f, -0.02600268647074699402f, 0.08401282876729965210f, -0.01564991474151611328f, 0.00728387944400310516f, -0.04611576721072196960f, -0.05287068709731101990f, -0.02545477449893951416f, -0.10614127665758132935f, -0.08178777247667312622f, 0.03633464500308036804f, -0.05907495319843292236f, -0.00501159718260169029f, 0.08450616151094436646f, 0.06467289477586746216f, -0.01652409695088863373f, 0.07715545594692230225f, 0.05577450245618820190f, -0.03634488210082054138f, 0.04819406569004058838f, -0.03710168600082397461f, 0.07647176831960678101f, 0.06413072347640991211f, 0.04201834276318550110f, 0.05460213497281074524f, 0.10885185748338699341f},
  {0.01394302397966384888f, 0.01696535013616085052f, -0.01721538417041301727f, 0.01045528799295425415f, 0.06815933436155319214f, -0.00841654092073440552f, 0.03822156786918640137f, 0.01515045296400785446f, 0.07770389318466186523f, -0.03816482052206993103f, -0.06967660784721374512f, -0.04701116681098937988f, 0.02643615193665027618f, 0.09824652969837188721f, 0.00956632196903228760f, 0.04733907431364059448f, 0.00905306730419397354f, 0.03672580048441886902f, -0.01190428156405687332f, 0.08151683956384658813f, 0.05929735302925109863f, 0.05050812661647796631f, 0.03448493033647537231f, 0.04147387295961380005f, -0.06074053794145584106f, 0.04155397787690162659f, 0.01762588508427143097f, 0.00647631846368312836f, 0.03063387237489223480f, 0.03148922324180603027f, -0.01562478672713041306f, 0.01274512801319360733f, -0.08814407140016555786f, -0.01303743664175271988f, -0.07370101660490036011f, 0.02981621958315372467f, 0.02751744911074638367f, -0.04285472258925437927f, -0.05313784629106521606f, 0.05263136699795722961f, -0.07712412625551223755f, -0.02264663018286228180f, -0.05532006919384002686f, -0.07926631718873977661f, -0.00916763767600059509f, 0.00024428349570371211f, 0.00975724682211875916f, -0.06167990714311599731f, 0.01863354258239269257f, -0.04710765928030014038f, -0.00659259874373674393f, -0.05604894459247589111f, 0.03488363698124885559f, -0.00844179652631282806f, -0.08020569384098052979f, -0.02979132533073425293f, -0.01371118705719709396f, -0.06538514047861099243f, -0.01593679748475551605f, -0.04488769546151161194f, -0.05190290883183479309f, 0.01809989474713802338f, -0.07090374827384948730f, 0.00169377168640494347f, 0.00581603730097413063f, -0.02326364256441593170f, -0.04890671372413635254f, 0.04250741377472877502f, 0.04231856018304824829f, 0.08982472121715545654f, 0.00635303510352969170f, 0.04288284480571746826f, 0.01094068307429552078f, 0.03932563960552215576f, -0.01274423208087682724f, -0.01832954399287700653f, 0.01927863806486129761f, 0.06912764906883239746f, 0.07670693844556808472f, 0.02492438815534114838f, 0.03199489042162895203f, 0.03165238723158836365f, 0.05393369123339653015f, -0.00722049036994576454f, 0.05966683104634284973f, 0.01919285021722316742f, 0.10743981599807739258f, 0.00399879971519112587f, 0.03565365821123123169f, -0.06061193719506263733f, -0.00738622015342116356f, -0.00004182569318800233f, 0.04003826156258583069f, 0.03924755007028579712f, 0.07914134114980697632f, 0.04418006166815757751f, -0.03266682848334312439f, 0.00584114762023091316f, 0.03451172262430191040f, 0.04486281797289848328f, -0.01427280437201261520f, 0.01871430128812789917f, 0.04769249260425567627f, -0.00204156362451612949f, 0.01607493869960308075f, -0.07323123514652252197f, 0.02267683483660221100f, -0.00736059341579675674f, 0.08706012368202209473f, -0.00196811277419328690f, -0.01169981341809034348f, 0.00836121663451194763f, 0.07681097835302352905f, 0.06349697709083557129f, 0.00943776499480009079f, -0.03192795440554618835f, 0.07353565096855163574f, -0.01646826416254043579f, -0.04718302562832832336f, 0.06278737634420394897f, -0.01714476756751537323f, 0.00773535575717687607f, 0.00650105765089392662f, -0.06312579661607742310f, -0.03011740744113922119f, 0.00981356110423803329f, -0.00473348563537001610f, 0.07643216103315353394f, -0.05297392234206199646f, 0.00035164630389772356f, -0.01686410605907440186f, -0.05451194196939468384f, 0.05457020178437232971f, 0.03508926555514335632f, 0.03724037855863571167f, 0.08859960734844207764f, -0.04940850287675857544f, 0.00436445372179150581f, -0.05612604320049285889f, 0.00160429975949227810f, 0.00865420605987310410f, 0.09604974091053009033f, 0.05326809734106063843f, 0.01838808692991733551f, -0.04058783873915672302f, -0.06021134182810783386f, -0.05094926431775093079f, -0.00631765089929103851f, 0.12039976567029953003f, 0.09018599987030029297f, -0.02158257737755775452f, 0.01109117083251476288f, -0.00339832738973200321f, -0.05229961499571800232f, -0.02996054477989673615f, -0.01044804789125919342f, 0.03317727893590927124f, 0.06122414767742156982f, -0.02809606306254863739f, -0.03194787725806236267f, -0.07600056380033493042f, -0.09735951572656631470f, -0.08029708266258239746f, -0.01597141101956367493f, -0.01818962953984737396f, 0.03653920069336891174f, -0.03378795832395553589f, 0.05582388117909431458f, -0.05831249803304672241f, -0.05366656556725502014f, -0.06125152856111526489f, 0.01730618625879287720f, 0.01766447722911834717f, -0.02755080536007881165f, -0.05212579295039176941f, 0.05131057277321815491f, 0.03634427115321159363f, 0.01296659372746944427f, 0.03155110776424407959f, -0.05249692127108573914f, -0.04986288398504257202f, -0.02614681795239448547f, -0.02297964878380298615f, 0.02862323448061943054f, 0.01966146938502788544f, 0.00303390063345432281f, 0.04951967298984527588f, -0.04777445271611213684f, 0.06396859884262084961f, -0.00710295420140028000f, -0.03706366941332817078f, 0.00463628536090254784f},
