// This file is computer-generated by onnx2c 
// Command Line: onnx2c/build/onnx2c -d batch_size:1 --no-globals --func-name linket_encoder_forward out/models/m1_medium/encoder.onnx

// onnx2c
// Git Branch: feature/func-name
// Git Commit: cfcce19

// ONNX Model
// Produced By: pytorch, version 2.10.0+cu130
// ONNX IR version: 20

#include <float.h>
#include <math.h>
#include <stdbool.h>
#include <stdint.h>
#include <string.h>
#include <stdlib.h>

#define MAX(X,Y) ( X > Y ? X : Y)
#define MIN(X,Y) ( X < Y ? X : Y)
#define CLIP(X,L) ( MAX(MIN(X,L), -L) )

#if __STDC_VERSION__ < 199901L
#define FUNC_PREFIX
#else
#define FUNC_PREFIX static inline
#endif

static const float tensor__Encoder__l0_0_weight[32][64] = 
{
  {-0.03068696893751621246f, 0.11920760571956634521f, 0.04909969121217727661f, 0.00610137917101383209f, -0.02792432159185409546f, -0.03627255558967590332f, -0.06428138166666030884f, -0.01437770761549472809f, 0.03853158652782440186f, -0.08845114707946777344f, -0.03738404437899589539f, 0.05848754197359085083f, -0.04843929782509803772f, 0.09444131702184677124f, 0.03789555653929710388f, 0.07080020010471343994f, 0.01252537406980991364f, -0.03584765642881393433f, 0.09695848822593688965f, 0.01233618613332509995f, 0.03352466598153114319f, -0.09130591154098510742f, 0.01948215439915657043f, -0.05617922917008399963f, 0.00394633505493402481f, -0.06316528469324111938f, 0.03206168487668037415f, -0.02329796366393566132f, 0.00498373014852404594f, 0.08268244564533233643f, 0.13730026781558990479f, 0.06850557774305343628f, 0.08617206662893295288f, 0.13351500034332275391f, -0.06555560231208801270f, -0.00223558791913092136f, 0.00399910146370530128f, -0.07749149948358535767f, -0.08845056593418121338f, -0.04199384152889251709f, -0.07175076007843017578f, -0.08625306189060211182f, -0.08401239663362503052f, 0.11200705915689468384f, 0.01433508750051259995f, 0.01751180551946163177f, -0.08543305099010467529f, 0.08603011071681976318f, 0.05985797569155693054f, 0.02957435883581638336f, -0.10955762118101119995f, 0.08344361186027526855f, -0.07522061467170715332f, 0.08361980319023132324f, -0.01507470570504665375f, -0.06361255794763565063f, -0.02032190375030040741f, 0.13436344265937805176f, 0.02834534458816051483f, -0.01769490167498588562f, 0.02333264425396919250f, 0.13677528500556945801f, 0.11340921372175216675f, 0.12892436981201171875f},
  {-0.02500746399164199829f, 0.07783941179513931274f, -0.04243937507271766663f, -0.00643429858610033989f, 0.01613766513764858246f, 0.05934405699372291565f, -0.05991195887327194214f, -0.05248117819428443909f, 0.04067350178956985474f, 0.01277433894574642181f, -0.02567495778203010559f, 0.11021011322736740112f, 0.04026497527956962585f, -0.07036084681749343872f, -0.06142840906977653503f, -0.01549515966325998306f, 0.03524298965930938721f, -0.02258615382015705109f, 0.11348240822553634644f, -0.03061209619045257568f, -0.01835101097822189331f, 0.13639198243618011475f, 0.10936084389686584473f, 0.00149510125629603863f, -0.06746409833431243896f, 0.12044939398765563965f, -0.00830442178994417191f, 0.12402549386024475098f, 0.07701080292463302612f, 0.04646360874176025391f, 0.04159605875611305237f, 0.14127919077873229980f, 0.06175312772393226624f, 0.03764259442687034607f, 0.12971577048301696777f, 0.02224279567599296570f, -0.08368585258722305298f, 0.05154760181903839111f, 0.01370056532323360443f, 0.01563747227191925049f, -0.04965762048959732056f, 0.06102243438363075256f, 0.06729836016893386841f, 0.07537564635276794434f, -0.01094031333923339844f, -0.07644639909267425537f, 0.12709937989711761475f, 0.08427838981151580811f, 0.11609029024839401245f, 0.10113472491502761841f, 0.07422912865877151489f, -0.08780961483716964722f, -0.05438712611794471741f, 0.00911860633641481400f, -0.00923648755997419357f, 0.07422135770320892334f, -0.00562828732654452324f, 0.11390645802021026611f, 0.11721647530794143677f, 0.07700964808464050293f, 0.10574760288000106812f, 0.00303670903667807579f, 0.08950362354516983032f, -0.06700792908668518066f},
  {-0.03638580441474914551f, 0.03415964171290397644f, -0.00594859430566430092f, -0.05490469932556152344f, -0.11633968353271484375f, -0.10238473862409591675f, -0.13672584295272827148f, 0.00829027965664863586f, -0.05603922903537750244f, -0.05420492962002754211f, -0.07906287163496017456f, -0.10492438077926635742f, 0.00061071326490491629f, -0.14455923438072204590f, 0.00966555811464786530f, -0.12698131799697875977f, 0.03627504780888557434f, -0.04627015441656112671f, 0.03949169442057609558f, 0.03820987045764923096f, -0.08898099511861801147f, -0.13380245864391326904f, 0.03961408510804176331f, -0.01095266360789537430f, -0.04813232645392417908f, -0.03664021939039230347f, 0.04183774068951606750f, -0.06695673614740371704f, -0.12396477162837982178f, -0.13205991685390472412f, -0.09225438535213470459f, -0.13741624355316162109f, -0.08304251730442047119f, -0.04445116594433784485f, 0.08219513297080993652f, -0.05122253671288490295f, -0.02949295379221439362f, -0.02307555638253688812f, 0.04475444182753562927f, 0.00744685763493180275f, -0.05199994519352912903f, 0.03939508274197578430f, 0.00184703676495701075f, -0.04426752403378486633f, -0.04638145491480827332f, -0.00506419455632567406f, -0.01609290763735771179f, -0.10429597645998001099f, 0.08215419948101043701f, -0.10629945993423461914f, -0.14320364594459533691f, 0.05577754229307174683f, 0.02122361212968826294f, 0.08679195493459701538f, -0.10515969991683959961f, -0.09369298070669174194f, 0.00845069997012615204f, 0.09296893328428268433f, 0.00697270454838871956f, -0.07451557368040084839f, -0.06961181759834289551f, -0.09862322360277175903f, -0.04131221026182174683f, -0.13567765057086944580f},
  {-0.03733820468187332153f, 0.05844006687402725220f, -0.09301728755235671997f, -0.09680826961994171143f, 0.08213776350021362305f, -0.07788937538862228394f, -0.06357582658529281616f, -0.09626174718141555786f, -0.06330563873052597046f, -0.04666042700409889221f, -0.06910913437604904175f, -0.04616128653287887573f, 0.04976109415292739868f, 0.12922929227352142334f, 0.05007637664675712585f, 0.14447835087776184082f, 0.00766344694420695305f, 0.08893242478370666504f, -0.09197808802127838135f, 0.06630914658308029175f, 0.13447760045528411865f, 0.08813031762838363647f, -0.03103456646203994751f, -0.08070147037506103516f, 0.14269152283668518066f, 0.13826198875904083252f, -0.04828137904405593872f, 0.08128395676612854004f, -0.07788086682558059692f, -0.05774813890457153320f, -0.10096236318349838257f, -0.00631376728415489197f, -0.01216310448944568634f, 0.00230746390298008919f, 0.09517780691385269165f, -0.03122282400727272034f, 0.05277725681662559509f, 0.00809568073600530624f, 0.01545015629380941391f, 0.14254853129386901855f, -0.02400407195091247559f, 0.12512487173080444336f, 0.01018654275685548782f, 0.09119052439928054810f, -0.07001724094152450562f, 0.05864097550511360168f, -0.05642429366707801819f, 0.11105725914239883423f, -0.04019724577665328979f, 0.11328344792127609253f, 0.00397560512647032738f, 0.05769083276391029358f, -0.06505528837442398071f, 0.04857587814331054688f, 0.06756674498319625854f, 0.01884518750011920929f, -0.03897924348711967468f, 0.13382191956043243408f, -0.03980910032987594604f, 0.11724460870027542114f, 0.10658354312181472778f, 0.11777210235595703125f, 0.08564925193786621094f, -0.06439155340194702148f},
  {-0.02533237636089324951f, 0.04354678839445114136f, -0.01171038765460252762f, 0.03641851618885993958f, -0.00711608724668622017f, -0.04610765725374221802f, -0.00716509623453021049f, -0.09397631138563156128f, 0.10154017806053161621f, 0.09121047705411911011f, -0.11654228717088699341f, 0.05384177342057228088f, -0.11302626878023147583f, 0.07805000990629196167f, -0.09798695147037506104f, 0.00181151775177568197f, -0.07472789287567138672f, -0.05298287421464920044f, -0.02991311997175216675f, 0.06218426302075386047f, 0.06046355143189430237f, 0.01122167613357305527f, -0.07779635488986968994f, 0.02251945436000823975f, 0.01373764686286449432f, -0.06187208369374275208f, 0.10756351053714752197f, -0.12081490457057952881f, 0.01655570790171623230f, -0.09734749048948287964f, 0.09414152055978775024f, -0.09326072037220001221f, -0.02996940724551677704f, -0.09568049013614654541f, -0.02618773840367794037f, -0.06948442012071609497f, 0.04739878699183464050f, 0.03987898305058479309f, -0.09862914681434631348f, -0.03597880154848098755f, 0.11483579874038696289f, -0.03831865265965461731f, 0.06115161255002021790f, 0.11065379530191421509f, 0.08099781721830368042f, -0.04045028612017631531f, 0.07089229673147201538f, -0.04288062825798988342f, 0.09754914045333862305f, -0.00080275739310309291f, 0.07271224260330200195f, 0.05573727935552597046f, -0.03261559084057807922f, 0.00361031363718211651f, -0.10506691783666610718f, 0.11057563871145248413f, -0.09161877632141113281f, -0.04105828702449798584f, -0.03784763067960739136f, -0.02418193779885768890f, 0.02656354755163192749f, -0.05501734092831611633f, -0.02974191680550575256f, -0.11884093284606933594f},
  {0.05884854122996330261f, -0.06779374182224273682f, -0.12315351516008377075f, -0.07982812076807022095f, -0.09192306548357009888f, -0.10702882707118988037f, 0.08550213277339935303f, 0.09593527764081954956f, 0.01282449252903461456f, -0.12301848083734512329f, -0.05296362563967704773f, -0.12285906076431274414f, -0.10675539821386337280f, -0.01393137034028768539f, -0.02914354205131530762f, 0.06762509047985076904f, -0.06935168057680130005f, -0.12097156047821044922f, -0.06974392384290695190f, -0.09705461561679840088f, -0.08178876340389251709f, 0.06925505399703979492f, -0.12264986336231231689f, -0.13498999178409576416f, 0.08526026457548141479f, -0.13322480022907257080f, 0.03344681486487388611f, -0.02420280501246452332f, -0.08339767903089523315f, 0.06221278011798858643f, -0.06008828431367874146f, -0.11171142756938934326f, -0.11127721518278121948f, -0.03585242107510566711f, -0.14140065014362335205f, -0.13992716372013092041f, 0.07344222813844680786f, 0.01315131131559610367f, -0.08045832812786102295f, 0.04295213520526885986f, 0.10102954506874084473f, -0.11550360172986984253f, -0.08510148525238037109f, -0.12504191696643829346f, -0.01381955016404390335f, -0.01338054612278938293f, -0.07875677943229675293f, 0.09956070035696029663f, 0.02140397578477859497f, 0.01551113463938236237f, -0.10080502927303314209f, -0.06677222996950149536f, -0.11769561469554901123f, -0.04573295265436172485f, 0.04468561336398124695f, 0.07922676950693130493f, 0.02219565212726593018f, -0.07163251936435699463f, -0.01412094477564096451f, 0.02708719111979007721f, 0.07927248626947402954f, 0.07490149885416030884f, -0.04941004514694213867f, -0.14023497700691223145f},
  {-0.02277338691055774689f, -0.07017125934362411499f, -0.05738732218742370605f, 0.00805016700178384781f, 0.07972761243581771851f, 0.01352724805474281311f, -0.01019139308482408524f, -0.04613916948437690735f, 0.02791965752840042114f, 0.00475472258403897285f, 0.06962680071592330933f, 0.11434820294380187988f, 0.07981470227241516113f, 0.02927105687558650970f, -0.02432997338473796844f, -0.08388224989175796509f, -0.00227768206968903542f, -0.03100680187344551086f, -0.04583622515201568604f, -0.02551095932722091675f, 0.06241243332624435425f, 0.06323978304862976074f, 0.09514348208904266357f, 0.02981832437217235565f, 0.04653698578476905823f, 0.09392998367547988892f, 0.11306472867727279663f, 0.00060485926223918796f, 0.12194724380970001221f, 0.02205041050910949707f, -0.07895356416702270508f, -0.01823843270540237427f, 0.12688745558261871338f, 0.10466144233942031860f, -0.10334830731153488159f, -0.07134356349706649780f, -0.00908033922314643860f, 0.03433387726545333862f, 0.00038032792508602142f, 0.01177031174302101135f, -0.03840937465429306030f, 0.07830450683832168579f, 0.09897635877132415771f, 0.01261232234537601471f, 0.09600440412759780884f, 0.12300664931535720825f, 0.12266448885202407837f, 0.10923159867525100708f, 0.03529353067278862000f, 0.09744432568550109863f, 0.06203367188572883606f, -0.01188345253467559814f, 0.07369630783796310425f, -0.00124377326574176550f, -0.06030431017279624939f, 0.06281001865863800049f, 0.00539025384932756424f, -0.09127866476774215698f, 0.11245758831501007080f, -0.02288687974214553833f, 0.07100229710340499878f, 0.14160862565040588379f, -0.10010708123445510864f, 0.07463691383600234985f},
  {-0.08678019046783447266f, 0.08987396210432052612f, 0.05272600054740905762f, -0.00823021400719881058f, 0.02161382883787155151f, 0.07197338342666625977f, -0.10185430198907852173f, -0.02665293216705322266f, -0.08502205461263656616f, -0.02473405189812183380f, -0.08812476694583892822f, -0.06336587667465209961f, 0.11061541736125946045f, -0.06803411990404129028f, -0.03720371052622795105f, 0.04111482575535774231f, -0.08664458245038986206f, 0.06159954145550727844f, 0.03658313676714897156f, 0.07173712551593780518f, 0.03991456702351570129f, -0.04602885618805885315f, 0.12553974986076354980f, 0.11176694184541702271f, -0.11081241071224212646f, -0.00159653171431273222f, 0.02834787964820861816f, -0.03894848376512527466f, -0.06735777854919433594f, -0.04161941260099411011f, -0.09484606236219406128f, -0.09632638841867446899f, 0.04929853230714797974f, 0.10756315290927886963f, 0.07489193975925445557f, 0.05080648511648178101f, 0.01389373838901519775f, 0.12561774253845214844f, -0.08836726099252700806f, 0.09961398690938949585f, -0.03123716451227664948f, 0.06094835698604583740f, -0.01952573843300342560f, -0.01706418208777904510f, -0.07297914475202560425f, -0.02780154533684253693f, 0.04019846394658088684f, 0.12138390541076660156f, -0.06880126148462295532f, -0.03355837985873222351f, 0.10682363063097000122f, -0.09068579971790313721f, -0.04440002888441085815f, -0.01201344560831785202f, 0.10991925746202468872f, -0.09704117476940155029f, 0.06849076598882675171f, -0.06310137361288070679f, -0.05937356874346733093f, 0.00333491130731999874f, -0.01210129912942647934f, -0.07473125308752059937f, 0.06309735029935836792f, 0.01852627843618392944f},
  {0.05599605664610862732f, 0.04081357270479202271f, 0.05094665288925170898f, 0.05316350236535072327f, -0.02328432910144329071f, 0.13142868876457214355f, 0.11032435297966003418f, 0.07225700467824935913f, -0.07892023772001266479f, -0.01100759487599134445f, -0.00232852133922278881f, -0.03658218681812286377f, 0.03013315983116626740f, -0.06451431661844253540f, 0.07607475668191909790f, -0.01856699213385581970f, 0.09469187259674072266f, 0.13454253971576690674f, -0.02823102660477161407f, -0.02240202017128467560f, 0.04836465790867805481f, 0.06103448197245597839f, 0.08263618499040603638f, 0.04332719743251800537f, 0.06108837202191352844f, 0.13065807521343231201f, 0.04895969480276107788f, 0.12197939306497573853f, 0.00295688956975936890f, -0.03839777410030364990f, 0.14115147292613983154f, -0.00868089403957128525f, 0.14196462929248809814f, -0.04411212354898452759f, -0.07227132469415664673f, 0.03553971275687217712f, 0.06311618536710739136f, -0.02409311756491661072f, -0.01502936799079179764f, -0.02560636028647422791f, 0.09587388485670089722f, -0.03596208244562149048f, 0.01882057264447212219f, 0.12338953465223312378f, 0.03958436101675033569f, -0.03260266408324241638f, -0.05389376729726791382f, -0.02911372482776641846f, -0.04326563701033592224f, 0.03075895830988883972f, 0.02588910050690174103f, -0.09696225821971893311f, -0.08433046191930770874f, 0.00013420784671325237f, 0.04514842852950096130f, 0.02214252017438411713f, 0.14182643592357635498f, 0.14743936061859130859f, 0.03601000458002090454f, 0.03610435128211975098f, -0.04195257648825645447f, 0.02406817488372325897f, 0.11421598494052886963f, 0.07543862611055374146f},
  {-0.05556441843509674072f, 0.11363898217678070068f, 0.04379472881555557251f, -0.06980700790882110596f, 0.08967177569866180420f, 0.11431223154067993164f, -0.00994298513978719711f, -0.11158519983291625977f, -0.07428526133298873901f, 0.07837274670600891113f, -0.00578900892287492752f, 0.07581381499767303467f, 0.03794566914439201355f, 0.02271775901317596436f, 0.08637980371713638306f, -0.01310663763433694839f, 0.00968771986663341522f, -0.03597297891974449158f, 0.00902823172509670258f, 0.01069177873432636261f, -0.07243574410676956177f, -0.11074891686439514160f, -0.03298366069793701172f, -0.04231135547161102295f, 0.03255318477749824524f, -0.00942216999828815460f, 0.07588214427232742310f, -0.00146422383841127157f, 0.09726177155971527100f, -0.03965217247605323792f, -0.00937414728105068207f, -0.09178208559751510620f, 0.10417895019054412842f, -0.04186982661485671997f, -0.00993101298809051514f, 0.08133195340633392334f, 0.10127181559801101685f, 0.06205570325255393982f, 0.10418704897165298462f, 0.01051376666873693466f, 0.13217274844646453857f, 0.12677234411239624023f, 0.10811863839626312256f, 0.11049022525548934937f, 0.01013634260743856430f, -0.05248744785785675049f, -0.01111069880425930023f, 0.05206097662448883057f, -0.05825913324952125549f, 0.06210691109299659729f, 0.12142559885978698730f, -0.00466560898348689079f, 0.12690655887126922607f, 0.03956016525626182556f, 0.02141258493065834045f, 0.12999640405178070068f, -0.04508648440241813660f, 0.04492783546447753906f, -0.02419287711381912231f, -0.09162412583827972412f, -0.10938003659248352051f, 0.01627747528254985809f, -0.10245773941278457642f, -0.00548122730106115341f},
  {0.08132320642471313477f, -0.04548809677362442017f, 0.05077244713902473450f, -0.06737586855888366699f, -0.01331176236271858215f, 0.07266921550035476685f, 0.11554305255413055420f, 0.07709323614835739136f, 0.02729437313973903656f, 0.08442568033933639526f, -0.01565147936344146729f, 0.03101083636283874512f, 0.14164298772811889648f, 0.02269688621163368225f, -0.01550870854407548904f, -0.03753133863210678101f, -0.04885316267609596252f, 0.12450863420963287354f, -0.09299132972955703735f, 0.08188082277774810791f, 0.03026081621646881104f, -0.07614763081073760986f, 0.11242842674255371094f, 0.14997868239879608154f, 0.03302380070090293884f, -0.04415629804134368896f, 0.14853468537330627441f, -0.02232198044657707214f, 0.00451664719730615616f, -0.06183100491762161255f, -0.08631984144449234009f, -0.04182384535670280457f, -0.04122429713606834412f, 0.09001789242029190063f, -0.03114853426814079285f, 0.02814847044646739960f, 0.04509665071964263916f, 0.09258782863616943359f, -0.05884111672639846802f, 0.08941244333982467651f, 0.09372248500585556030f, 0.14188662171363830566f, -0.06186264380812644958f, 0.13777704536914825439f, 0.09420587867498397827f, -0.06348662823438644409f, 0.00406930083408951759f, 0.03434028849005699158f, 0.02564672753214836121f, 0.08167504519224166870f, 0.15084402263164520264f, -0.02306830510497093201f, 0.03864475712180137634f, 0.11877753585577011108f, -0.06916920095682144165f, 0.04350138083100318909f, 0.10832608491182327271f, -0.07193551212549209595f, 0.08504003286361694336f, -0.01186883170157670975f, -0.04619883000850677490f, -0.04907123744487762451f, 0.12381419539451599121f, 0.02639748901128768921f},
  {-0.01018433459103107452f, 0.07086022198200225830f, -0.03297124058008193970f, 0.01319154072552919388f, 0.11445810645818710327f, 0.03469049185514450073f, 0.06496488302946090698f, -0.05657758563756942749f, 0.07750611752271652222f, 0.10207220166921615601f, -0.04237622395157814026f, 0.10016938298940658569f, 0.02015152201056480408f, 0.09704236686229705811f, -0.01863456331193447113f, 0.05667297914624214172f, -0.00969276018440723419f, -0.00723485602065920830f, 0.06276394426822662354f, 0.03510577231645584106f, 0.00857374444603919983f, 0.04131824150681495667f, -0.08156199753284454346f, 0.12929522991180419922f, 0.12749759852886199951f, 0.02057896181941032410f, 0.02679232507944107056f, 0.13949637115001678467f, 0.10298675298690795898f, 0.06993483006954193115f, -0.08208528161048889160f, 0.03021799586713314056f, -0.08741761744022369385f, 0.05903038755059242249f, -0.03294954448938369751f, 0.04741510003805160522f, 0.07771985232830047607f, 0.04065747186541557312f, 0.12568737566471099854f, -0.06668245792388916016f, -0.05598804727196693420f, 0.05293344706296920776f, 0.01318484358489513397f, -0.03433557972311973572f, -0.10097171366214752197f, -0.00335950381122529507f, -0.00863770209252834320f, 0.06119032949209213257f, -0.04065396636724472046f, 0.02012321725487709045f, -0.00674078008159995079f, 0.02093356102705001831f, -0.03840518742799758911f, -0.04328576847910881042f, 0.01770155876874923706f, -0.00406043510884046555f, 0.07447071373462677002f, 0.06685541570186614990f, 0.13347609341144561768f, 0.12185373902320861816f, 0.00755635742098093033f, -0.07951039820909500122f, 0.13719639182090759277f, 0.06896413117647171021f},
  {0.01484120357781648636f, 0.09750522673130035400f, 0.00528367841616272926f, 0.04529148712754249573f, 0.11649935692548751831f, 0.09059987217187881470f, -0.08745973557233810425f, 0.03053227066993713379f, -0.00991510786116123199f, -0.09645822644233703613f, 0.07903106510639190674f, -0.02561555057764053345f, 0.05714519694447517395f, -0.07329167425632476807f, -0.07563295215368270874f, 0.01447111088782548904f, -0.01966509222984313965f, 0.06186906620860099792f, 0.02160351909697055817f, -0.08765433728694915771f, 0.09246008098125457764f, -0.04519845172762870789f, 0.00386306317523121834f, 0.01446379814296960831f, -0.07205583900213241577f, 0.07541831582784652710f, 0.01008747611194849014f, -0.04898474365472793579f, -0.11668983101844787598f, 0.04187881946563720703f, -0.10319735109806060791f, 0.00805709883570671082f, -0.05435607954859733582f, -0.07277850061655044556f, 0.02981554903090000153f, -0.11085761338472366333f, -0.08641346544027328491f, 0.00653666444122791290f, -0.05287774279713630676f, 0.00006070630479371175f, -0.01516953296959400177f, -0.00921940244734287262f, 0.05898358300328254700f, -0.06245377287268638611f, -0.07684167474508285522f, -0.08657816797494888306f, 0.12095509469509124756f, 0.06429978460073471069f, 0.09514478594064712524f, 0.09585800766944885254f, -0.06841649115085601807f, -0.00248876074329018593f, -0.09650751948356628418f, 0.00490161124616861343f, 0.09774088859558105469f, -0.10622718930244445801f, 0.11680509895086288452f, -0.07332181930541992188f, 0.11501756310462951660f, 0.05630949884653091431f, 0.02647276595234870911f, -0.01110722310841083527f, 0.08524733781814575195f, -0.01210207492113113403f},
  {0.06183755397796630859f, 0.02827008068561553955f, -0.11721190810203552246f, 0.08234075456857681274f, -0.08131458610296249390f, 0.00889487750828266144f, -0.07840283960103988647f, 0.09653399884700775146f, -0.02879119664430618286f, 0.05736255273222923279f, -0.04692603275179862976f, 0.03895439580082893372f, -0.05544386804103851318f, 0.01662298664450645447f, 0.08727210760116577148f, -0.05131732299923896790f, -0.06082038953900337219f, 0.02216106466948986053f, 0.03005436062812805176f, 0.04242927581071853638f, 0.10652406513690948486f, 0.03513251990079879761f, -0.08141873031854629517f, 0.05723546445369720459f, 0.05797765403985977173f, -0.10690431296825408936f, 0.02486539632081985474f, 0.05568564310669898987f, -0.09464599192142486572f, 0.04449072852730751038f, -0.09515720605850219727f, -0.09745786339044570923f, -0.11816029995679855347f, -0.06422638893127441406f, -0.06831969320774078369f, 0.04345587641000747681f, -0.07912340760231018066f, 0.02278988622128963470f, -0.04571702331304550171f, 0.05336397886276245117f, 0.04923458397388458252f, -0.12151008099317550659f, -0.04809592664241790771f, 0.04669687151908874512f, 0.07442858070135116577f, 0.08847578614950180054f, 0.04176313057541847229f, -0.05511247739195823669f, -0.01979150064289569855f, -0.00778447603806853294f, 0.03427716717123985291f, -0.06095721945166587830f, -0.02311069518327713013f, -0.01261504366993904114f, 0.03309322893619537354f, -0.08331536501646041870f, 0.02854585088789463043f, -0.11274334043264389038f, -0.04865864291787147522f, -0.09803333133459091187f, -0.11351601034402847290f, 0.04520649462938308716f, -0.09114978462457656860f, -0.11258847266435623169f},
  {0.08869245648384094238f, 0.06665415316820144653f, -0.00369709287770092487f, 0.09364928305149078369f, -0.12397786974906921387f, 0.01075326558202505112f, 0.01358784921467304230f, -0.08942628651857376099f, -0.05061125382781028748f, 0.09295772016048431396f, -0.02543283440172672272f, -0.04176622629165649414f, 0.02407472021877765656f, -0.03868081420660018921f, -0.01663486845791339874f, -0.12611322104930877686f, -0.06622619926929473877f, 0.05921906605362892151f, -0.09391217678785324097f, -0.11097522825002670288f, -0.06075740978121757507f, -0.13549333810806274414f, -0.03748480975627899170f, -0.12010768055915832520f, -0.01484609488397836685f, -0.12215179204940795898f, -0.03739910572767257690f, -0.13489280641078948975f, -0.01163178309798240662f, 0.05477134510874748230f, 0.05588035285472869873f, 0.02396600320935249329f, 0.02733441814780235291f, -0.08084199577569961548f, 0.08375839889049530029f, -0.04195440933108329773f, -0.00089041003957390785f, -0.10231021791696548462f, 0.04953479394316673279f, 0.01914297975599765778f, 0.00962182413786649704f, -0.12377449870109558105f, 0.04234015196561813354f, 0.00477111293002963066f, 0.03349842876195907593f, -0.07941288501024246216f, 0.01743452064692974091f, -0.08282012492418289185f, -0.04955526813864707947f, -0.11023854464292526245f, 0.01886084116995334625f, -0.12316547334194183350f, 0.09448961168527603149f, -0.14702890813350677490f, 0.07714398205280303955f, -0.00371670490130782127f, 0.06256118416786193848f, -0.14297902584075927734f, 0.00400769710540771484f, -0.02664438076317310333f, -0.05218324437737464905f, 0.00342478789389133453f, 0.08541920036077499390f, 0.02428857050836086273f},
  {0.07271876186132431030f, -0.00495101418346166611f, 0.02748353779315948486f, 0.01874475367367267609f, 0.09250817447900772095f, 0.07036801427602767944f, -0.09617604315280914307f, 0.03364903852343559265f, -0.09750469028949737549f, 0.09731368720531463623f, 0.09889084100723266602f, 0.10144022107124328613f, -0.03501173481345176697f, -0.06551298499107360840f, 0.12051589787006378174f, 0.12900385260581970215f, 0.09481315314769744873f, 0.09644982963800430298f, 0.08184657245874404907f, 0.10442986339330673218f, -0.04344914481043815613f, -0.04491465911269187927f, -0.01561345998197793961f, 0.01685483381152153015f, 0.08514381200075149536f, 0.03441949933767318726f, 0.08207752555608749390f, 0.12780714035034179688f, -0.06184053048491477966f, 0.07833114266395568848f, 0.08333595097064971924f, 0.01855366677045822144f, 0.08593994379043579102f, 0.03132773935794830322f, -0.03924116864800453186f, 0.13492314517498016357f, 0.07128296792507171631f, -0.01174487080425024033f, 0.04281597211956977844f, 0.10240797698497772217f, 0.05749122053384780884f, 0.08968877047300338745f, 0.05127616599202156067f, -0.03945801034569740295f, 0.00407215254381299019f, -0.05888004228472709656f, -0.05199630931019783020f, 0.00623885169625282288f, -0.08401038497686386108f, -0.02334440127015113831f, -0.07026980817317962646f, -0.03695867955684661865f, -0.07569296658039093018f, -0.05736567452549934387f, 0.05376786366105079651f, 0.06568519771099090576f, -0.04903384670615196228f, -0.08156237006187438965f, 0.07932785153388977051f, 0.05208499357104301453f, 0.05456374958157539368f, 0.10200113058090209961f, 0.09611503034830093384f, 0.04492413625121116638f},
  {0.06601942330598831177f, -0.10634562373161315918f, -0.02413097396492958069f, -0.08234532922506332397f, 0.05774305388331413269f, -0.12177819013595581055f, 0.07221759110689163208f, -0.06028005853295326233f, -0.12867148220539093018f, -0.07840636372566223145f, 0.02333314530551433563f, -0.04412299394607543945f, 0.10582858324050903320f, -0.04429021105170249939f, -0.10084377229213714600f, -0.03918995335698127747f, -0.09467945247888565063f, 0.04739957675337791443f, 0.05496175214648246765f, 0.08627274632453918457f, -0.13022197782993316650f, -0.07297124713659286499f, 0.11182557046413421631f, -0.08954983949661254883f, -0.01486985012888908386f, -0.02094990387558937073f, 0.01709990389645099640f, 0.08116012066602706909f, -0.11687701940536499023f, -0.12788569927215576172f, -0.00537335360422730446f, 0.11252554506063461304f, 0.05389754101634025574f, 0.05717520043253898621f, -0.01821491867303848267f, 0.07975269854068756104f, -0.02970504015684127808f, 0.05853235349059104919f, -0.07032755017280578613f, -0.01405943091958761215f, 0.11143169552087783813f, -0.08453483134508132935f, -0.11514763534069061279f, -0.09963166713714599609f, -0.02328664064407348633f, 0.05903942510485649109f, 0.04815120249986648560f, -0.02656931057572364807f, -0.02487291768193244934f, -0.10769884288311004639f, -0.06574390083551406860f, 0.02061676792800426483f, 0.06874572485685348511f, -0.04384579509496688843f, -0.02545268461108207703f, -0.03985196352005004883f, -0.10120406746864318848f, 0.05390120670199394226f, 0.03536135330796241760f, 0.08183775097131729126f, -0.00040685734711587429f, -0.11405909806489944458f, -0.11840439587831497192f, 0.07235308736562728882f},
  {-0.01194330211728811264f, -0.04232145100831985474f, -0.05072699859738349915f, -0.03113322705030441284f, 0.09151965379714965820f, 0.10270392894744873047f, 0.04915024712681770325f, 0.06156313046813011169f, 0.12308551371097564697f, -0.00440567685291171074f, 0.09645182639360427856f, 0.13392791152000427246f, 0.00012479812721721828f, -0.09187228977680206299f, -0.02241505309939384460f, -0.03379824012517929077f, 0.05077865347266197205f, 0.13932397961616516113f, -0.05454249307513237000f, 0.09662088751792907715f, -0.07076425105333328247f, -0.06852164119482040405f, 0.04064682498574256897f, -0.00524883484467864037f, 0.04986031353473663330f, -0.06773385405540466309f, 0.01647003740072250366f, 0.12664429843425750732f, -0.11254847049713134766f, 0.09483790397644042969f, 0.09641421586275100708f, 0.06193941086530685425f, 0.05101197212934494019f, 0.11697854846715927124f, 0.13234156370162963867f, 0.13468937575817108154f, -0.09399728477001190186f, 0.00911214761435985565f, 0.12613175809383392334f, 0.09894932061433792114f, 0.01061982661485671997f, -0.02113172598183155060f, 0.12177236378192901611f, -0.09299289435148239136f, -0.11128155142068862915f, 0.05079913884401321411f, 0.04275551065802574158f, -0.10084993392229080200f, 0.08938332647085189819f, 0.01762836612761020660f, 0.03769215568900108337f, -0.06239709258079528809f, 0.11728767305612564087f, -0.06235833466053009033f, -0.05292728915810585022f, -0.00342271360568702221f, 0.09993634372949600220f, -0.01089594792574644089f, -0.10423810780048370361f, -0.02227383479475975037f, -0.08003358542919158936f, -0.04259220883250236511f, 0.10715233534574508667f, -0.03138124197721481323f},
  {0.04109632223844528198f, 0.05158676579594612122f, -0.03890039399266242981f, 0.06197509914636611938f, -0.00048499245895072818f, 0.08676767349243164062f, -0.01657559908926486969f, 0.13534502685070037842f, 0.06551241874694824219f, 0.00346725969575345516f, 0.11282631754875183105f, -0.02303628437221050262f, 0.08927939087152481079f, 0.02779245562851428986f, -0.08029986172914505005f, 0.00115683185867965221f, 0.01519335433840751648f, 0.02768410742282867432f, -0.07581400126218795776f, 0.05275418981909751892f, 0.10719832777976989746f, -0.06802911311388015747f, -0.02882014587521553040f, 0.10566164553165435791f, -0.00669938046485185623f, 0.14568285644054412842f, -0.00466572027653455734f, 0.04125592857599258423f, 0.05689262226223945618f, -0.07855181396007537842f, 0.14539644122123718262f, 0.14210033416748046875f, -0.01806875877082347870f, 0.12501882016658782959f, 0.10552753508090972900f, 0.12690035998821258545f, 0.06607766449451446533f, 0.04828087612986564636f, 0.07301405072212219238f, -0.07276783138513565063f, -0.08587890863418579102f, 0.09214559942483901978f, -0.00796659104526042938f, 0.01180315669625997543f, 0.08405908942222595215f, 0.10230575501918792725f, -0.03311663493514060974f, 0.13118657469749450684f, -0.08528068661689758301f, -0.00141528493259102106f, -0.07282436639070510864f, 0.05254367738962173462f, 0.01797358319163322449f, -0.09945902228355407715f, 0.05686554312705993652f, -0.02478493377566337585f, 0.12557083368301391602f, 0.01661622337996959686f, 0.09600874036550521851f, 0.12294056266546249390f, 0.12061084061861038208f, -0.04185879230499267578f, -0.05577188357710838318f, 0.06872095167636871338f},
  {0.08569394052028656006f, -0.00735068554058670998f, -0.04004727676510810852f, -0.04801339283585548401f, 0.02975212223827838898f, 0.03567774966359138489f, -0.11764894425868988037f, 0.02055861800909042358f, -0.05709994211792945862f, -0.10586888343095779419f, 0.06121532246470451355f, -0.03318019956350326538f, 0.02170626446604728699f, 0.07252734154462814331f, 0.00007659519178560004f, -0.05260011926293373108f, -0.06907827407121658325f, 0.08890517801046371460f, -0.04116485267877578735f, -0.07845780998468399048f, -0.05602446198463439941f, -0.10406972467899322510f, -0.06504710018634796143f, 0.04986422508955001831f, 0.01855570636689662933f, 0.00521225063130259514f, -0.02618078328669071198f, -0.12203910946846008301f, 0.06451159715652465820f, 0.00751306954771280289f, 0.03438420966267585754f, 0.01891893893480300903f, -0.06764744222164154053f, -0.06704986840486526489f, 0.09095306694507598877f, -0.12986759841442108154f, -0.01390616688877344131f, -0.08666042983531951904f, 0.04681861773133277893f, -0.12343908846378326416f, 0.07575010508298873901f, -0.11328653246164321899f, -0.13979266583919525146f, -0.10464286804199218750f, 0.07292154431343078613f, 0.00499455304816365242f, -0.00355443498119711876f, 0.03799507766962051392f, 0.01722714491188526154f, 0.06473322212696075439f, -0.06768337637186050415f, -0.11364199966192245483f, 0.09681966900825500488f, -0.07273008674383163452f, -0.09504327923059463501f, 0.01901278831064701080f, -0.04842062667012214661f, 0.08899369835853576660f, -0.09059030562639236450f, -0.04251600056886672974f, -0.02483685687184333801f, 0.06194617599248886108f, -0.05688000470399856567f, -0.08094209432601928711f},
  {-0.04573748260736465454f, -0.07856569439172744751f, -0.01275497768074274063f, 0.03226341679692268372f, 0.14366495609283447266f, 0.12077337503433227539f, -0.04915814101696014404f, 0.08233957737684249878f, -0.09822589904069900513f, 0.01564386487007141113f, -0.01246923208236694336f, 0.10622852295637130737f, 0.08561789244413375854f, -0.05031532794237136841f, -0.05697077140212059021f, 0.10427074134349822998f, 0.06226593255996704102f, 0.07371167838573455811f, 0.12598007917404174805f, 0.02365631796419620514f, 0.09763449430465698242f, -0.10304405540227890015f, -0.01576965302228927612f, -0.02714700438082218170f, -0.00313567882403731346f, -0.00977157987654209137f, 0.01696731895208358765f, -0.08731656521558761597f, -0.01589448004961013794f, 0.10415121167898178101f, -0.05848511680960655212f, -0.02481683529913425446f, 0.02819553203880786896f, 0.14184707403182983398f, 0.12881132960319519043f, 0.03319955617189407349f, -0.10146331787109375000f, 0.11427810788154602051f, 0.00171234027948230505f, 0.14000152051448822021f, -0.04150621220469474792f, -0.07506702840328216553f, 0.10477642714977264404f, 0.14304083585739135742f, 0.11160675436258316040f, -0.07785414904356002808f, 0.14150696992874145508f, -0.01010556053370237350f, -0.01241046469658613205f, -0.10263630747795104980f, -0.06862808018922805786f, 0.10978844016790390015f, 0.12580391764640808105f, 0.13027691841125488281f, 0.06396619975566864014f, 0.01221171952784061432f, -0.01648812741041183472f, -0.07055803388357162476f, 0.11648007482290267944f, 0.04201886430382728577f, 0.07597898691892623901f, 0.07953637838363647461f, 0.02319582551717758179f, -0.08293182402849197388f},
  {-0.07714995741844177246f, 0.10065805912017822266f, 0.13884845376014709473f, -0.04651245102286338806f, 0.10201416164636611938f, -0.06429869681596755981f, -0.01285766996443271637f, -0.10071183741092681885f, 0.14534474909305572510f, 0.04621402919292449951f, -0.06286374479532241821f, 0.13629607856273651123f, -0.07956831902265548706f, -0.03943269699811935425f, 0.14281851053237915039f, -0.04016125947237014771f, 0.08987543731927871704f, 0.10905024409294128418f, 0.01874675229191780090f, -0.04369619116187095642f, -0.07831864804029464722f, 0.03401870653033256531f, -0.02204798907041549683f, -0.10184583067893981934f, 0.14095097780227661133f, -0.08968554437160491943f, -0.06345289945602416992f, -0.02667964994907379150f, -0.03357136994600296021f, -0.09169615805149078369f, -0.09433738887310028076f, 0.01696405559778213501f, 0.12847745418548583984f, 0.04805368930101394653f, 0.02749311365187168121f, 0.00133617210667580366f, -0.01871571131050586700f, 0.14042346179485321045f, -0.03523145616054534912f, 0.10063032805919647217f, -0.02295865304768085480f, 0.00060245691565796733f, -0.00175370101351290941f, 0.11132177710533142090f, 0.01263476628810167313f, 0.10580185055732727051f, -0.09436803311109542847f, 0.12949779629707336426f, 0.09542775154113769531f, 0.02331460267305374146f, -0.01972165703773498535f, 0.10261969268321990967f, 0.07450226694345474243f, 0.10022858530282974243f, 0.07811679691076278687f, 0.04111950099468231201f, 0.14685936272144317627f, -0.05224676802754402161f, -0.06040751188993453979f, -0.01569560170173645020f, 0.12219057977199554443f, -0.03419769182801246643f, -0.04309312999248504639f, 0.14124050736427307129f},
  {0.04865524172782897949f, -0.03840219229459762573f, -0.01000146009027957916f, 0.05617351457476615906f, 0.05132592841982841492f, -0.07037393003702163696f, -0.05677416548132896423f, -0.04297689348459243774f, 0.11957813054323196411f, 0.03683726489543914795f, 0.05894568562507629395f, -0.09847415238618850708f, 0.10307066142559051514f, 0.11765679717063903809f, 0.11385212093591690063f, 0.08258642256259918213f, -0.03985144570469856262f, -0.06501111388206481934f, 0.00966539140790700912f, 0.06145930290222167969f, -0.00022286616149358451f, 0.00958773680031299591f, -0.04924734309315681458f, 0.12848307192325592041f, -0.07249721139669418335f, -0.03595466911792755127f, 0.09947516769170761108f, 0.12676116824150085449f, -0.09265543520450592041f, 0.03021114692091941833f, 0.06547285616397857666f, 0.04123325273394584656f, 0.07773838937282562256f, -0.04462288320064544678f, 0.10458399355411529541f, 0.10560006648302078247f, 0.03603007644414901733f, -0.01351038832217454910f, 0.13078585267066955566f, -0.06004118546843528748f, -0.05595817044377326965f, 0.08143488317728042603f, 0.14080458879470825195f, -0.02070954255759716034f, 0.09340564906597137451f, 0.00046654389007017016f, 0.10560953617095947266f, 0.13957138359546661377f, -0.03683335706591606140f, -0.03555077686905860901f, -0.08310899138450622559f, -0.03074809163808822632f, 0.00853198766708374023f, -0.03975699096918106079f, 0.13905371725559234619f, -0.03122202865779399872f, 0.11411062628030776978f, 0.08273229748010635376f, -0.06482502818107604980f, -0.04569271579384803772f, -0.07726991176605224609f, 0.14531734585762023926f, -0.06341291218996047974f, -0.08822252601385116577f},
  {-0.07666085660457611084f, 0.08598447591066360474f, 0.12226801365613937378f, 0.07790319621562957764f, 0.12132912874221801758f, 0.03995215147733688354f, 0.04775802046060562134f, -0.06643790751695632935f, 0.11256543546915054321f, -0.04711515828967094421f, 0.01722515188157558441f, -0.06880142539739608765f, -0.05591128021478652954f, 0.01283631753176450729f, -0.06814876198768615723f, 0.02389194816350936890f, -0.02034918777644634247f, -0.02869355492293834686f, -0.03724864870309829712f, -0.03120742551982402802f, -0.06911887228488922119f, 0.08995087444782257080f, -0.06335026025772094727f, 0.10450784862041473389f, -0.06648911535739898682f, 0.14384211599826812744f, 0.08833628147840499878f, 0.11362311989068984985f, 0.06994510442018508911f, -0.08277227729558944702f, -0.07899477332830429077f, -0.03123968094587326050f, 0.06850486993789672852f, 0.09365622699260711670f, 0.14236521720886230469f, 0.13930258154869079590f, 0.10878737270832061768f, 0.09452401101589202881f, -0.01527532935142517090f, -0.03421063348650932312f, -0.03062606230378150940f, -0.08984482288360595703f, -0.04036928340792655945f, -0.03333220258355140686f, -0.07471346110105514526f, 0.11512263864278793335f, 0.04423894733190536499f, -0.09283576905727386475f, -0.09038281440734863281f, 0.00565384561195969582f, -0.07592023909091949463f, -0.04818217456340789795f, 0.08315454423427581787f, 0.02485928870737552643f, 0.12348397821187973022f, -0.01285632234066724777f, 0.02959807217121124268f, 0.10256574302911758423f, 0.13831856846809387207f, -0.00248649250715970993f, -0.03306863456964492798f, 0.02526166476309299469f, 0.05855846405029296875f, 0.03538486734032630920f},
  {0.11481595784425735474f, 0.10668162256479263306f, 0.11532973498106002808f, -0.04262113943696022034f, 0.11396057158708572388f, 0.05921911075711250305f, 0.08647056668996810913f, 0.05179371684789657593f, 0.09967958927154541016f, -0.04593367502093315125f, -0.03746235743165016174f, 0.13902418315410614014f, -0.05448623001575469971f, 0.12796822190284729004f, -0.02043088711798191071f, 0.13062886893749237061f, 0.11823622137308120728f, -0.03046856261789798737f, 0.02104525081813335419f, 0.04683211818337440491f, 0.10562955588102340698f, 0.06126581504940986633f, 0.08748629689216613770f, 0.02618974260985851288f, -0.04470758140087127686f, 0.02149846777319908142f, 0.07538428157567977905f, 0.02261144854128360748f, 0.07128307223320007324f, 0.01441636960953474045f, 0.08743988722562789917f, 0.15515202283859252930f, -0.02445877529680728912f, -0.08831258863210678101f, -0.04878068342804908752f, -0.07616352289915084839f, 0.07586340606212615967f, 0.01924932189285755157f, 0.06928570568561553955f, -0.05369519069790840149f, -0.05383770167827606201f, -0.01798995584249496460f, -0.08488497138023376465f, 0.10050930082798004150f, 0.10862855613231658936f, -0.07499527186155319214f, 0.06685655564069747925f, -0.07147647440433502197f, -0.05460022762417793274f, -0.01338188257068395615f, -0.04033470526337623596f, 0.06019240990281105042f, -0.05600460246205329895f, 0.14676602184772491455f, -0.06705860048532485962f, 0.00946960691362619400f, 0.09052819758653640747f, 0.11768472194671630859f, 0.13105955719947814941f, -0.04519541934132575989f, 0.00763823790475726128f, -0.06873594969511032104f, -0.04290302842855453491f, -0.02891744486987590790f},
  {0.14719112217426300049f, -0.00911494437605142593f, 0.08047135919332504272f, 0.12825897336006164551f, 0.07066109031438827515f, -0.02460600621998310089f, 0.08936544507741928101f, 0.06174701452255249023f, -0.08970782160758972168f, 0.01756401173770427704f, 0.06743428856134414673f, -0.06330032646656036377f, 0.11820165812969207764f, 0.10056778788566589355f, -0.06544739753007888794f, 0.10696936398744583130f, 0.12926618754863739014f, -0.01107196044176816940f, -0.08737245202064514160f, -0.03282563760876655579f, -0.05250940471887588501f, 0.03793555870652198792f, 0.08606003969907760620f, 0.12985624372959136963f, -0.01897982507944107056f, 0.08494188636541366577f, -0.08023946732282638550f, 0.11123923957347869873f, 0.10973246395587921143f, -0.03539823368191719055f, -0.02564803697168827057f, -0.00082400697283446789f, -0.03859827294945716858f, 0.07554026693105697632f, 0.02424858510494232178f, -0.00594701757654547691f, 0.06635009497404098511f, 0.00106068095192313194f, -0.05058774352073669434f, -0.01926900073885917664f, 0.04730277881026268005f, 0.11423561722040176392f, -0.09687845408916473389f, -0.09036011993885040283f, -0.01606280729174613953f, 0.07780591398477554321f, 0.06169627979397773743f, 0.04540055617690086365f, -0.02530953288078308105f, -0.07611086219549179077f, 0.03803028166294097900f, 0.10811188817024230957f, 0.13226658105850219727f, 0.11702642589807510376f, 0.07535864412784576416f, 0.06110714003443717957f, 0.14707744121551513672f, 0.04494440555572509766f, 0.11158739030361175537f, -0.08854916691780090332f, -0.08565138280391693115f, 0.11465003341436386108f, 0.13388955593109130859f, 0.00619826605543494225f},
  {-0.00294917589053511620f, -0.03223759680986404419f, 0.04598331078886985779f, 0.08521651476621627808f, 0.10092265903949737549f, -0.03456097468733787537f, -0.01533215679228305817f, 0.08757490664720535278f, -0.02974426373839378357f, 0.08437857031822204590f, -0.07429873943328857422f, 0.11680450290441513062f, 0.06750109046697616577f, 0.11594304442405700684f, 0.08718695491552352905f, 0.03130263835191726685f, -0.08359916508197784424f, 0.00921782851219177246f, 0.07643900066614151001f, 0.08414087444543838501f, 0.09843283146619796753f, -0.04722446575760841370f, 0.06551613658666610718f, -0.02968152984976768494f, 0.01726720482110977173f, 0.03551199287176132202f, -0.08037669956684112549f, -0.02389561943709850311f, 0.12926615774631500244f, 0.06450597941875457764f, 0.12371543794870376587f, -0.05654577165842056274f, -0.00860214605927467346f, 0.06919438391923904419f, -0.07465109974145889282f, -0.01310238987207412720f, 0.08581955730915069580f, 0.06495570391416549683f, -0.07124748826026916504f, 0.01698226109147071838f, -0.05480160936713218689f, 0.10966915637254714966f, -0.02302127145230770111f, 0.12105858325958251953f, -0.08389008790254592896f, 0.15153728425502777100f, 0.02884239889681339264f, 0.02244174666702747345f, 0.09668807685375213623f, -0.00426043663173913956f, 0.03542081266641616821f, 0.04194403067231178284f, 0.08117792010307312012f, -0.06338659673929214478f, 0.02089833840727806091f, 0.03205701708793640137f, -0.01393079943954944611f, 0.09794058650732040405f, 0.11102989315986633301f, -0.08075800538063049316f, 0.03636695817112922668f, 0.06849239766597747803f, 0.13496422767639160156f, -0.01832396537065505981f},
  {0.04240735620260238647f, -0.03199581056833267212f, 0.07450354099273681641f, 0.07726711034774780273f, -0.09996090084314346313f, 0.10977464914321899414f, -0.06888322532176971436f, 0.13669374585151672363f, 0.11350604146718978882f, 0.06695175170898437500f, 0.02871879562735557556f, 0.01617462001740932465f, 0.13748465478420257568f, -0.05360034853219985962f, -0.00386105966754257679f, 0.05469606816768646240f, 0.14823125302791595459f, 0.03012386150658130646f, 0.11366416513919830322f, 0.07075691968202590942f, 0.11864706128835678101f, 0.14495913684368133545f, 0.07888574898242950439f, -0.02326827868819236755f, -0.09073270857334136963f, 0.14048933982849121094f, -0.05080374330282211304f, 0.00634173909202218056f, -0.05389461293816566467f, -0.01257857307791709900f, -0.01197620574384927750f, 0.14127171039581298828f, -0.03321121633052825928f, -0.06824777275323867798f, -0.03017681464552879333f, -0.06765947490930557251f, 0.07741209864616394043f, -0.09665697067975997925f, 0.01748687960207462311f, -0.01885312795639038086f, 0.12034180760383605957f, 0.10531215369701385498f, -0.02400940842926502228f, -0.04922857880592346191f, 0.01571037061512470245f, 0.03213731199502944946f, 0.04429532214999198914f, -0.09436377882957458496f, -0.08743289858102798462f, -0.09409943968057632446f, 0.10303283482789993286f, 0.05456449836492538452f, -0.06973053514957427979f, -0.09562578052282333374f, 0.02497345022857189178f, 0.13622057437896728516f, 0.03461476042866706848f, -0.03736364841461181641f, 0.01176895387470722198f, 0.05226513743400573730f, -0.01673584058880805969f, 0.01718448661267757416f, 0.00974192749708890915f, -0.05448730289936065674f},
  {0.03664536029100418091f, 0.07249287515878677368f, 0.01118667889386415482f, -0.02687474712729454041f, 0.10748586803674697876f, -0.04729669913649559021f, -0.02376366592943668365f, 0.06248459219932556152f, -0.06289911270141601562f, -0.03748960793018341064f, 0.13835309445858001709f, 0.03352261334657669067f, 0.02741465531289577484f, -0.07483240216970443726f, 0.00492020882666110992f, 0.10963314026594161987f, 0.09069784730672836304f, 0.05361362174153327942f, 0.03537047281861305237f, 0.13157796859741210938f, 0.09545640647411346436f, -0.09432724863290786743f, -0.05120451748371124268f, 0.01791203580796718597f, 0.01785727962851524353f, 0.03927589952945709229f, -0.08124982565641403198f, -0.08285773545503616333f, -0.08347718417644500732f, -0.05955455079674720764f, 0.08012282848358154297f, -0.03240473195910453796f, -0.03775180503726005554f, -0.07642873376607894897f, -0.00559616833925247192f, -0.06487774103879928589f, -0.02341153100132942200f, -0.08438755571842193604f, 0.07150542736053466797f, 0.11556454002857208252f, 0.13696385920047760010f, -0.09749286621809005737f, -0.01470122486352920532f, 0.12035866081714630127f, 0.03232782706618309021f, 0.03660419955849647522f, -0.05088879540562629700f, 0.10411316156387329102f, -0.01779622770845890045f, 0.05681884288787841797f, -0.08513233065605163574f, 0.11765015870332717896f, 0.12424875795841217041f, 0.06783287227153778076f, 0.07369530200958251953f, 0.12881289422512054443f, -0.02337098494172096252f, -0.05606278032064437866f, 0.13722062110900878906f, 0.13220107555389404297f, -0.03574008867144584656f, -0.05717206001281738281f, -0.01141241565346717834f, 0.05325323715806007385f},
  {0.01646817475557327271f, -0.02779520489275455475f, -0.04672620818018913269f, 0.07207883894443511963f, 0.04152436554431915283f, 0.05257077142596244812f, -0.03557905554771423340f, -0.02432733774185180664f, 0.02900924906134605408f, 0.11711236089468002319f, -0.08238867670297622681f, 0.10337163507938385010f, 0.01824303157627582550f, 0.03380956128239631653f, -0.04825055226683616638f, 0.01932787336409091949f, -0.10618346184492111206f, 0.05520194768905639648f, -0.06044986471533775330f, -0.05091342702507972717f, 0.03096497803926467896f, -0.10346125066280364990f, -0.00570129510015249252f, 0.04624922201037406921f, -0.04868265613913536072f, 0.11612018942832946777f, 0.03714694082736968994f, -0.09679868072271347046f, 0.02450892142951488495f, 0.08077183365821838379f, -0.06162429973483085632f, 0.07444283366203308105f, -0.07857547700405120850f, -0.06621617078781127930f, -0.10212157666683197021f, -0.00692784460261464119f, -0.06308536976575851440f, 0.12877306342124938965f, 0.01785873807966709137f, 0.05109547451138496399f, -0.04975562542676925659f, 0.12909188866615295410f, -0.02011778950691223145f, 0.12050351500511169434f, -0.02657156623899936676f, -0.00060575193492695689f, -0.10209874808788299561f, -0.01880801469087600708f, -0.07184817641973495483f, -0.03865807875990867615f, 0.00014078919775784016f, -0.07323838025331497192f, -0.04776745289564132690f, -0.08708954602479934692f, 0.11545311659574508667f, -0.10374121367931365967f, 0.03199137002229690552f, -0.08966962248086929321f, -0.06986371427774429321f, -0.07152409851551055908f, -0.08802264183759689331f, 0.01153265032917261124f, 0.04378686845302581787f, -0.09787521511316299438f},
  {0.02722341753542423248f, -0.06691194325685501099f, -0.10737638920545578003f, 0.07824387401342391968f, -0.06181621178984642029f, -0.05858539417386054993f, 0.12607795000076293945f, 0.06056874617934226990f, -0.00136589130852371454f, -0.09642181545495986938f, -0.03710200265049934387f, 0.05504322052001953125f, -0.03800618276000022888f, 0.00050002505304291844f, 0.03743312135338783264f, 0.01110310945659875870f, 0.12575222551822662354f, -0.03193210437893867493f, -0.05168865621089935303f, -0.00034921042970381677f, 0.07977480441331863403f, 0.01757034845650196075f, -0.04453984647989273071f, -0.02771384641528129578f, -0.01174799352884292603f, 0.13118244707584381104f, 0.02944011613726615906f, -0.05658970028162002563f, -0.10238806903362274170f, -0.01890078186988830566f, -0.03546533361077308655f, 0.14217059314250946045f, 0.04885222390294075012f, 0.12954333424568176270f, 0.10763823986053466797f, 0.09717682749032974243f, 0.10988666862249374390f, 0.07392338663339614868f, -0.09461063891649246216f, -0.07889334112405776978f, 0.08747914433479309082f, -0.01206754893064498901f, 0.02765768393874168396f, -0.03577245771884918213f, -0.09477849304676055908f, -0.09118843823671340942f, -0.00967628043144941330f, -0.06249779090285301208f, 0.11822302639484405518f, -0.02191903442144393921f, 0.00447939010336995125f, 0.09138236194849014282f, 0.05057268217206001282f, -0.05606185644865036011f, -0.00809738133102655411f, 0.11605785787105560303f, -0.05671507492661476135f, 0.04028863832354545593f, 0.10151866078376770020f, 0.02733270823955535889f, -0.03385744616389274597f, -0.02481377124786376953f, 0.10304695367813110352f, 0.09232848882675170898f},
  {-0.10524214059114456177f, -0.13522285223007202148f, 0.04299636930227279663f, 0.09946451336145401001f, 0.09701634943485260010f, 0.02413878031075000763f, -0.00011592307419050485f, 0.00823461450636386871f, -0.10650763660669326782f, -0.02015818655490875244f, -0.04969973117113113403f, -0.14380814135074615479f, 0.09194080531597137451f, 0.04374435916543006897f, -0.10078267008066177368f, -0.01657937467098236084f, 0.09367010742425918579f, -0.06139282882213592529f, -0.12964284420013427734f, 0.03133265674114227295f, 0.03620326146483421326f, 0.07296409457921981812f, -0.11018277704715728760f, -0.02503449097275733948f, -0.14759172499179840088f, -0.05831003561615943909f, 0.06895367056131362915f, -0.05010224133729934692f, 0.00907149259001016617f, -0.07833472639322280884f, -0.06961739063262939453f, 0.01651014015078544617f, -0.08733648061752319336f, -0.07865221053361892700f, 0.02851335331797599792f, -0.02892383001744747162f, -0.06576047092676162720f, 0.01396405790001153946f, -0.09282746165990829468f, -0.12780877947807312012f, -0.03828452527523040771f, -0.00391973974183201790f, -0.11426828801631927490f, -0.14759176969528198242f, 0.00957786757498979568f, -0.07592982798814773560f, -0.02017777226865291595f, 0.03856308758258819580f, -0.13951283693313598633f, -0.12804487347602844238f, -0.06362640857696533203f, 0.05457854270935058594f, -0.14812447130680084229f, -0.01711404882371425629f, 0.07792464643716812134f, 0.00086679292144253850f, 0.09808688610792160034f, 0.03101082146167755127f, -0.04937068372964859009f, -0.01691426336765289307f, -0.03825412690639495850f, -0.08832310140132904053f, -0.07615915685892105103f, -0.07083920389413833618f}
};
static const float tensor__Encoder__l0_0_bias[32] = 
{0.04396075382828712463f, 0.04745416343212127686f, 0.04828038439154624939f, -0.13711798191070556641f, 0.16914276778697967529f, -0.02909622713923454285f, -0.05317101255059242249f, 0.05803278088569641113f, 0.03876331076025962830f, -0.01594666764140129089f, -0.09592352807521820068f, -0.04311779141426086426f, 0.12412080913782119751f, 0.14344361424446105957f, 0.03056849166750907898f, 0.05379361659288406372f, 0.15203119814395904541f, -0.05661964416503906250f, 0.00499908253550529480f, -0.14216721057891845703f, 0.01718568988144397736f, -0.01374840550124645233f, -0.03577005490660667419f, 0.01924956031143665314f, 0.16914008557796478271f, 0.09184564650058746338f, 0.08441073447465896606f, -0.10567534714937210083f, 0.05694777891039848328f, -0.11259057372808456421f, 0.09103871881961822510f, -0.05011617019772529602f};
static const float tensor__Encoder__l0_1_l0_weight[32][32] = 
{
  {0.12469509989023208618f, -0.02536045946180820465f, 0.04200663417577743530f, -0.00454251142218708992f, -0.12447869777679443359f, -0.11196736246347427368f, 0.07688418775796890259f, 0.16251091659069061279f, 0.09164886921644210815f, -0.18701004981994628906f, -0.02011529915034770966f, -0.07809038460254669189f, 0.07992642372846603394f, -0.04370227456092834473f, 0.12218488007783889771f, -0.02621738612651824951f, -0.03840554133057594299f, -0.04521069675683975220f, -0.12236198782920837402f, 0.11141902953386306763f, -0.13778692483901977539f, -0.06169766187667846680f, -0.08736786991357803345f, -0.04294782504439353943f, -0.04150072112679481506f, -0.13624785840511322021f, 0.03710706532001495361f, -0.02795387990772724152f, 0.03031511418521404266f, 0.18295794725418090820f, -0.07067625224590301514f, 0.08521670848131179810f},
  {-0.08371830731630325317f, -0.11535304784774780273f, -0.12652701139450073242f, -0.01430353429168462753f, -0.03339190781116485596f, -0.14453516900539398193f, 0.15572221577167510986f, 0.14424647390842437744f, -0.12354706227779388428f, -0.15671268105506896973f, -0.06600561738014221191f, -0.17374794185161590576f, -0.02764089964330196381f, -0.04944531992077827454f, -0.05033034458756446838f, -0.05447479709982872009f, 0.13240379095077514648f, 0.00168450130149722099f, 0.03335865586996078491f, 0.12696912884712219238f, -0.00194679060950875282f, -0.07116763293743133545f, 0.15700623393058776855f, 0.01591040194034576416f, -0.04145237803459167480f, -0.02917998097836971283f, -0.02365899831056594849f, 0.06773129105567932129f, -0.03362554684281349182f, -0.00837958510965108871f, -0.05505255237221717834f, -0.02818258479237556458f},
  {0.16047255694866180420f, -0.08230881392955780029f, 0.08439048379659652710f, -0.07063640654087066650f, 0.09965419024229049683f, -0.06642901152372360229f, -0.05284024775028228760f, 0.14236424863338470459f, 0.00345402932725846767f, 0.05399657785892486572f, -0.16549238562583923340f, 0.02094433270394802094f, 0.03728988021612167358f, 0.01376419328153133392f, -0.12299764156341552734f, 0.11709330230951309204f, 0.13794197142124176025f, -0.07546683400869369507f, 0.03262555599212646484f, 0.09014344960451126099f, 0.04051111638545989990f, -0.07016713172197341919f, -0.02058902382850646973f, 0.13562637567520141602f, 0.15866233408451080322f, -0.00981120485812425613f, 0.00619151862338185310f, 0.03682991489768028259f, -0.03448385372757911682f, -0.07206347584724426270f, 0.00490283919498324394f, -0.02068316191434860229f},
  {0.00556262535974383354f, 0.17872022092342376709f, -0.17224530875682830811f, 0.07738560438156127930f, -0.06752931326627731323f, 0.12138354033231735229f, -0.02802016027271747589f, -0.12631919980049133301f, -0.03597816079854965210f, 0.09156859666109085083f, -0.04807035624980926514f, -0.04399145394563674927f, 0.11177282780408859253f, 0.02272163704037666321f, -0.12660510838031768799f, 0.20122280716896057129f, -0.03726109489798545837f, 0.18752479553222656250f, 0.08689755201339721680f, 0.03474896401166915894f, -0.13861574232578277588f, -0.05353498831391334534f, 0.08687281608581542969f, 0.14128267765045166016f, -0.07978313416242599487f, -0.05722978338599205017f, 0.17572587728500366211f, 0.20049539208412170410f, 0.12330905348062515259f, -0.00832758750766515732f, 0.20350255072116851807f, -0.15012672543525695801f},
  {0.01750791445374488831f, -0.13569046556949615479f, -0.15728908777236938477f, -0.08053313940763473511f, 0.01975368149578571320f, -0.11841344833374023438f, -0.16594724357128143311f, 0.14531718194484710693f, -0.04653007909655570984f, -0.10696218907833099365f, -0.18920095264911651611f, -0.17847169935703277588f, -0.16594167053699493408f, -0.10481940209865570068f, -0.03966277837753295898f, -0.14225766062736511230f, -0.15789304673671722412f, -0.05544719099998474121f, -0.09263579547405242920f, -0.02918342873454093933f, 0.02562233433127403259f, -0.05783677473664283752f, -0.09282974898815155029f, 0.00008739486656850204f, -0.02426868677139282227f, 0.05562382563948631287f, -0.16548198461532592773f, 0.03031062334775924683f, -0.16194275021553039551f, -0.01761494949460029602f, -0.03964683040976524353f, 0.15097440779209136963f},
  {-0.12037324160337448120f, 0.13629651069641113281f, 0.17968806624412536621f, -0.08084788918495178223f, -0.09857247024774551392f, -0.11012850701808929443f, 0.07630599290132522583f, 0.06891161203384399414f, -0.18547864258289337158f, -0.16563850641250610352f, -0.07488613575696945190f, -0.10337720811367034912f, -0.07997556030750274658f, -0.04430965706706047058f, 0.12585999071598052979f, -0.05040384083986282349f, 0.16932916641235351562f, 0.10184867680072784424f, 0.03924779966473579407f, 0.11547482013702392578f, 0.13766427338123321533f, 0.14588503539562225342f, 0.07523547857999801636f, 0.01020271517336368561f, -0.15243901312351226807f, -0.08818273246288299561f, 0.15210019052028656006f, -0.08915306627750396729f, 0.08960758894681930542f, 0.01693857461214065552f, -0.15656840801239013672f, -0.07138575613498687744f},
  {-0.04851426184177398682f, -0.11185519397258758545f, 0.10653369873762130737f, -0.14770703017711639404f, 0.06829663366079330444f, 0.04818580672144889832f, -0.13684578239917755127f, 0.22292162477970123291f, -0.00796600617468357086f, 0.10011677443981170654f, -0.09788466989994049072f, 0.00045247448724694550f, -0.10455180704593658447f, 0.09868161380290985107f, -0.05147562175989151001f, -0.03791211172938346863f, 0.08021430671215057373f, -0.13033199310302734375f, 0.06217164918780326843f, 0.10487214475870132446f, 0.11073265969753265381f, 0.14901395142078399658f, -0.02139918692409992218f, 0.02539065293967723846f, 0.14466536045074462891f, 0.13853004574775695801f, 0.16556920111179351807f, 0.13947960734367370605f, 0.01240874826908111572f, -0.08620134741067886353f, 0.05844496563076972961f, -0.09651030600070953369f},
  {-0.06261374056339263916f, -0.18295030295848846436f, -0.05760914832353591919f, -0.12093694508075714111f, -0.03946400806307792664f, 0.11086171865463256836f, -0.02059362456202507019f, -0.02542188949882984161f, -0.10704992711544036865f, -0.06804746389389038086f, 0.07647677510976791382f, 0.14542190730571746826f, -0.10948174446821212769f, -0.06565295159816741943f, 0.00543440645560622215f, -0.00373753253370523453f, 0.00678267516195774078f, -0.07186433672904968262f, -0.14914077520370483398f, -0.13554635643959045410f, -0.10659300535917282104f, -0.14935237169265747070f, 0.10005772113800048828f, -0.03685655817389488220f, -0.19794870913028717041f, 0.00936580542474985123f, -0.10216545313596725464f, 0.03162937238812446594f, -0.09900570660829544067f, 0.02509341575205326080f, -0.17707358300685882568f, -0.05420578271150588989f},
  {-0.11743011325597763062f, 0.12047092616558074951f, -0.01234732102602720261f, -0.02273889817297458649f, 0.03573039919137954712f, 0.09552147984504699707f, -0.04822251200675964355f, -0.05929493531584739685f, -0.01578256487846374512f, -0.14175285398960113525f, 0.07059693336486816406f, -0.02658725529909133911f, 0.05365180596709251404f, 0.06852727383375167847f, -0.11013246327638626099f, -0.08787743002176284790f, 0.17562319338321685791f, -0.04090594127774238586f, -0.17338870465755462646f, -0.05391704663634300232f, 0.15201900899410247803f, 0.10533493012189865112f, 0.13847278058528900146f, 0.10843957960605621338f, 0.11891300231218338013f, 0.04780825600028038025f, -0.05788322165608406067f, 0.01171976514160633087f, 0.12737660109996795654f, 0.04451665654778480530f, -0.11555045843124389648f, -0.01423192117363214493f},
  {-0.05985343828797340393f, 0.17915776371955871582f, -0.11501684784889221191f, -0.05439053475856781006f, 0.09353031218051910400f, -0.02066803537309169769f, -0.12153569608926773071f, 0.07815559208393096924f, 0.07741487026214599609f, -0.01940861716866493225f, -0.02375540696084499359f, 0.09623523801565170288f, -0.14845436811447143555f, -0.05773931741714477539f, 0.00655977381393313408f, -0.11055994778871536255f, -0.05960820615291595459f, 0.12848959863185882568f, 0.15396073460578918457f, 0.05515539646148681641f, -0.13210333883762359619f, 0.18381582200527191162f, -0.08766163885593414307f, -0.12392953038215637207f, 0.11593507975339889526f, -0.12736822664737701416f, 0.20627437531948089600f, 0.00890117697417736053f, 0.12191042304039001465f, 0.08192940056324005127f, 0.05071811378002166748f, -0.11831663548946380615f},
  {-0.02849854156374931335f, 0.09587772190570831299f, 0.12473191320896148682f, 0.10707817226648330688f, 0.08988224714994430542f, 0.14948990941047668457f, -0.04701859131455421448f, 0.21278627216815948486f, 0.14395076036453247070f, 0.05913535878062248230f, -0.13525278866291046143f, 0.00291084195487201214f, 0.20571126043796539307f, 0.04237792268395423889f, -0.08540016412734985352f, 0.11693353950977325439f, 0.16580753028392791748f, 0.13537956774234771729f, -0.12872616946697235107f, 0.03070634417235851288f, -0.11562365293502807617f, 0.16936209797859191895f, -0.14027969539165496826f, -0.09192150086164474487f, 0.19544541835784912109f, 0.14778815209865570068f, -0.06666764616966247559f, -0.01205823756754398346f, 0.05232863500714302063f, -0.09319944679737091064f, 0.00136247160844504833f, -0.07948279380798339844f},
  {0.10389623790979385376f, -0.04983207955956459045f, -0.16453281044960021973f, 0.04049564898014068604f, -0.11772808432579040527f, -0.15789596736431121826f, -0.02514282055199146271f, 0.13985183835029602051f, 0.08509767055511474609f, 0.00319257238879799843f, 0.08144070953130722046f, 0.16662624478340148926f, 0.08997907489538192749f, -0.00206625903956592083f, -0.07673685997724533081f, 0.16943609714508056641f, -0.05889784544706344604f, 0.18408142030239105225f, 0.06193913891911506653f, -0.02190314792096614838f, -0.08161945641040802002f, 0.01938047073781490326f, -0.07514169067144393921f, -0.06729830801486968994f, 0.00911143515259027481f, 0.10828670114278793335f, 0.11450019478797912598f, 0.10602066665887832642f, -0.06099398061633110046f, 0.12068758904933929443f, 0.13325591385364532471f, 0.06153570115566253662f},
  {0.10578028112649917603f, 0.10593169927597045898f, 0.03461989015340805054f, -0.18829695880413055420f, -0.11596340686082839966f, 0.01560363825410604477f, 0.09769396483898162842f, -0.02445359155535697937f, -0.17320074141025543213f, -0.12931662797927856445f, 0.02142709493637084961f, -0.10091757774353027344f, 0.02410820312798023224f, 0.01473661884665489197f, -0.01857047900557518005f, -0.14003318548202514648f, 0.01305878628045320511f, -0.12004803866147994995f, -0.10734073817729949951f, 0.15645602345466613770f, 0.11685299128293991089f, 0.01611152477562427521f, 0.00395833561196923256f, -0.13546876609325408936f, -0.06301481276750564575f, -0.09905786067247390747f, 0.12580415606498718262f, 0.00407140422612428665f, -0.05462298169732093811f, 0.17712002992630004883f, -0.12984295189380645752f, 0.03617036342620849609f},
  {0.05183935165405273438f, -0.18103836476802825928f, 0.08317226916551589966f, 0.08814560621976852417f, -0.02028709463775157928f, -0.15388442575931549072f, 0.05944163724780082703f, 0.06909943372011184692f, 0.00392408296465873718f, 0.15703797340393066406f, -0.02518630772829055786f, 0.00006830941856605932f, -0.05025523528456687927f, 0.05355520918965339661f, 0.03185234218835830688f, -0.16188481450080871582f, -0.08421988785266876221f, -0.05575926229357719421f, -0.16173602640628814697f, 0.09927314519882202148f, -0.19008512794971466064f, 0.09674211591482162476f, -0.08533064275979995728f, -0.15708185732364654541f, 0.01936131529510021210f, 0.11293385922908782959f, 0.09119109064340591431f, -0.17334675788879394531f, 0.09545884281396865845f, 0.00918907485902309418f, -0.13822260499000549316f, 0.11356114596128463745f},
  {0.02483289688825607300f, -0.09321331232786178589f, -0.07198311388492584229f, 0.07724988460540771484f, 0.06843341141939163208f, 0.09002497047185897827f, -0.02791897952556610107f, -0.08475584536790847778f, 0.05886623263359069824f, -0.20389138162136077881f, -0.08687612414360046387f, 0.07917789369821548462f, 0.14480119943618774414f, 0.06061598286032676697f, -0.10612825304269790649f, -0.08425095677375793457f, -0.08929123729467391968f, -0.01263673324137926102f, -0.06717742234468460083f, 0.13483396172523498535f, -0.19139735400676727295f, -0.10741933435201644897f, 0.01900223456323146820f, -0.00387609517201781273f, -0.13784052431583404541f, 0.03521626442670822144f, 0.02725237980484962463f, 0.09178715944290161133f, 0.04103138670325279236f, -0.02993267588317394257f, -0.03315521031618118286f, 0.04542941972613334656f},
  {0.16911534965038299561f, -0.08059474825859069824f, -0.14361335337162017822f, -0.11967767775058746338f, 0.07130914926528930664f, 0.01502561010420322418f, 0.02253840863704681396f, 0.10255429893732070923f, -0.04487336054444313049f, 0.08090970665216445923f, 0.08853052556514739990f, -0.14625340700149536133f, -0.14230962097644805908f, -0.03530874475836753845f, 0.13910891115665435791f, -0.06258355081081390381f, 0.11721783131361007690f, -0.11218204349279403687f, -0.00035876431502401829f, -0.02299236692488193512f, 0.12227712571620941162f, -0.16151009500026702881f, -0.00580323440954089165f, 0.12026614695787429810f, 0.17146314680576324463f, 0.15018309652805328369f, 0.17189335823059082031f, -0.13247607648372650146f, 0.11295397579669952393f, -0.06917122006416320801f, 0.00147461541928350925f, -0.03122941032052040100f},
  {-0.05537236854434013367f, -0.01055585220456123352f, -0.08758345246315002441f, -0.02029597386717796326f, -0.10683743655681610107f, 0.10394128412008285522f, 0.08201292157173156738f, -0.14264485239982604980f, 0.05046090856194496155f, 0.01946382038295269012f, 0.02200835756957530975f, 0.12843079864978790283f, -0.09219566732645034790f, -0.11049168556928634644f, -0.05165316537022590637f, -0.00514503614977002144f, 0.02893008850514888763f, 0.09126023203134536743f, 0.12200835347175598145f, -0.01449586451053619385f, 0.04237558692693710327f, 0.10872406512498855591f, 0.04516980797052383423f, 0.12949891388416290283f, -0.01224652584642171860f, -0.04962716996669769287f, -0.08598973602056503296f, -0.11907528340816497803f, 0.00507144723087549210f, -0.14454710483551025391f, -0.15907554328441619873f, 0.01893614418804645538f},
  {0.04916571080684661865f, -0.01161696668714284897f, 0.09378417581319808960f, 0.03872974216938018799f, 0.01506023015826940536f, 0.03866108134388923645f, -0.09244479238986968994f, 0.01936726272106170654f, 0.00414984347298741341f, -0.12129082530736923218f, 0.08185883611440658569f, 0.16448487341403961182f, -0.00807288195937871933f, 0.07992880791425704956f, 0.05252989009022712708f, -0.09967231750488281250f, 0.09904586523771286011f, 0.03026219271123409271f, -0.08414564281702041626f, -0.04573924466967582703f, 0.09484321624040603638f, 0.01185346860438585281f, -0.13876996934413909912f, 0.07952962815761566162f, 0.19028930366039276123f, 0.17170549929141998291f, 0.15716917812824249268f, -0.01649406924843788147f, -0.07067537307739257812f, -0.18423621356487274170f, -0.08500543236732482910f, 0.16806381940841674805f},
  {0.06890353560447692871f, -0.09750472009181976318f, 0.05643121898174285889f, -0.04878167808055877686f, -0.05140557512640953064f, -0.01588456518948078156f, -0.06940173357725143433f, -0.09111350774765014648f, 0.17700074613094329834f, -0.14666002988815307617f, 0.10919886827468872070f, -0.03461701422929763794f, 0.03027169220149517059f, -0.08848337084054946899f, 0.11640708893537521362f, -0.06250488758087158203f, 0.20025959610939025879f, -0.12140509486198425293f, -0.02516660466790199280f, -0.12949438393115997314f, -0.09174006432294845581f, 0.03479802981019020081f, 0.19398036599159240723f, 0.08995679020881652832f, 0.04947565495967864990f, -0.09659092873334884644f, 0.06449023634195327759f, -0.15169508755207061768f, 0.02529117278754711151f, 0.00081898830831050873f, 0.07095507532358169556f, -0.12230625748634338379f},
  {0.16920816898345947266f, -0.11772482097148895264f, -0.06199705600738525391f, 0.10387575626373291016f, -0.10139124840497970581f, -0.11698374152183532715f, -0.10336497426033020020f, -0.13537807762622833252f, -0.02697135508060455322f, 0.14034350216388702393f, 0.18330849707126617432f, 0.12893909215927124023f, 0.13280171155929565430f, -0.00419441191479563713f, 0.14916846156120300293f, 0.06690476089715957642f, -0.14699351787567138672f, 0.04772097244858741760f, -0.02081561461091041565f, -0.03904399275779724121f, 0.06615488976240158081f, 0.04078363999724388123f, 0.19400352239608764648f, 0.03753123432397842407f, 0.13623523712158203125f, 0.18499308824539184570f, 0.08286456018686294556f, 0.01127558015286922455f, -0.02483893558382987976f, -0.04292722791433334351f, -0.04452722892165184021f, -0.06312716007232666016f},
  {0.01723182201385498047f, 0.17895866930484771729f, -0.11747299134731292725f, -0.06732660531997680664f, 0.07622287422418594360f, 0.05812147632241249084f, 0.10502432286739349365f, 0.15742611885070800781f, 0.01513486914336681366f, -0.08424709737300872803f, 0.03070783801376819611f, 0.18102972209453582764f, -0.01839662529528141022f, 0.14919339120388031006f, -0.14030975103378295898f, -0.09446994215250015259f, 0.01435778476297855377f, 0.17251871526241302490f, 0.14670756459236145020f, -0.11644426733255386353f, -0.13676521182060241699f, 0.04466602206230163574f, 0.00456627365201711655f, 0.00444185500964522362f, 0.07579447329044342041f, -0.00481371022760868073f, -0.11834841221570968628f, 0.18274573981761932373f, 0.16302803158760070801f, 0.14436446130275726318f, 0.14932657778263092041f, -0.03481233865022659302f},
  {-0.04934098571538925171f, -0.01577175967395305634f, -0.17231981456279754639f, 0.08254931867122650146f, 0.07043673098087310791f, -0.11304687708616256714f, 0.19412223994731903076f, -0.07516652345657348633f, -0.12181100994348526001f, 0.10650838911533355713f, -0.05396245047450065613f, 0.09772836416959762573f, 0.01874087192118167877f, -0.11695215106010437012f, -0.19715805351734161377f, -0.01408820878714323044f, -0.04760158807039260864f, -0.05755651742219924927f, 0.15318116545677185059f, 0.14063878357410430908f, 0.13438163697719573975f, 0.05722006782889366150f, -0.13418135046958923340f, -0.04864107072353363037f, 0.14998403191566467285f, 0.10668984800577163696f, -0.12985396385192871094f, 0.04180267453193664551f, 0.09266708791255950928f, 0.07059674710035324097f, 0.00247627822682261467f, -0.14927799999713897705f},
  {-0.07794340699911117554f, -0.13718114793300628662f, -0.08430265635251998901f, -0.11453145742416381836f, 0.06592415273189544678f, -0.03825496882200241089f, -0.04106903076171875000f, 0.05787502229213714600f, 0.10339248925447463989f, -0.08221770077943801880f, 0.19292807579040527344f, 0.20150819420814514160f, -0.01654182374477386475f, 0.00904306210577487946f, 0.04234943538904190063f, 0.01054698787629604340f, -0.11391721665859222412f, 0.18816864490509033203f, -0.12378513813018798828f, -0.11749947071075439453f, 0.15196295082569122314f, -0.02451384253799915314f, 0.20229567587375640869f, -0.07852483540773391724f, -0.10914456844329833984f, 0.15955358743667602539f, 0.11523769795894622803f, 0.13407608866691589355f, 0.17822477221488952637f, 0.04815380275249481201f, 0.17253981530666351318f, -0.15844750404357910156f},
  {0.03700631111860275269f, -0.06033640727400779724f, 0.11931293457746505737f, -0.07238525152206420898f, 0.15607516467571258545f, 0.05422452092170715332f, 0.04357997328042984009f, 0.08864637464284896851f, 0.10388421267271041870f, 0.01540414802730083466f, -0.08117629587650299072f, -0.04064438864588737488f, 0.16065073013305664062f, -0.10465974360704421997f, 0.13919168710708618164f, -0.11034338176250457764f, -0.07176950573921203613f, -0.10612661391496658325f, 0.18906816840171813965f, -0.13747179508209228516f, -0.00246313796378672123f, -0.07254952937364578247f, -0.03949191421270370483f, 0.19121299684047698975f, -0.00554155418649315834f, -0.02208503521978855133f, 0.04711917415261268616f, -0.08970079571008682251f, -0.12956908345222473145f, -0.14295323193073272705f, 0.17307332158088684082f, -0.19162510335445404053f},
  {0.11429204046726226807f, -0.05226122960448265076f, -0.04761209338903427124f, -0.11258824914693832397f, 0.15922260284423828125f, 0.15565955638885498047f, 0.13145220279693603516f, -0.00107847398612648249f, -0.06706531345844268799f, 0.08234954625368118286f, 0.02957093156874179840f, 0.15263214707374572754f, -0.07400498539209365845f, 0.16752180457115173340f, -0.03600599989295005798f, -0.07950463891029357910f, 0.08281752467155456543f, -0.09895830601453781128f, 0.14361844956874847412f, 0.01598142273724079132f, 0.14797878265380859375f, 0.13198889791965484619f, -0.12227968871593475342f, -0.04175060242414474487f, -0.17573286592960357666f, -0.11146697402000427246f, -0.05525288358330726624f, 0.09400028735399246216f, 0.16425761580467224121f, 0.16038344800472259521f, -0.14609242975711822510f, -0.13697944581508636475f},
  {-0.03401427716016769409f, 0.10158956795930862427f, -0.08425062894821166992f, -0.11324664205312728882f, -0.06806635111570358276f, -0.08710646629333496094f, -0.13426776230335235596f, -0.01268540136516094208f, -0.03829495608806610107f, -0.11018297821283340454f, 0.04727346822619438171f, 0.11905927211046218872f, 0.17330786585807800293f, -0.02702974155545234680f, 0.10476621240377426147f, -0.00961645692586898804f, -0.12422785162925720215f, -0.05751330405473709106f, 0.07741142809391021729f, 0.16657106578350067139f, 0.11254226416349411011f, -0.05687680467963218689f, 0.06174976378679275513f, -0.12320818006992340088f, -0.16281338036060333252f, -0.06172449886798858643f, 0.00842899736016988754f, -0.14554832875728607178f, -0.13078939914703369141f, 0.09568216651678085327f, 0.14106556773185729980f, -0.15096567571163177490f},
  {-0.07176090776920318604f, -0.09886161983013153076f, -0.17980411648750305176f, 0.17467077076435089111f, -0.13232828676700592041f, -0.17925293743610382080f, 0.07107856869697570801f, -0.03157814219594001770f, 0.02983536943793296814f, 0.16444730758666992188f, 0.18163883686065673828f, 0.15266077220439910889f, -0.13839013874530792236f, 0.13675941526889801025f, -0.19255380332469940186f, -0.11818203330039978027f, 0.05199457332491874695f, -0.00208784639835357666f, -0.09985007345676422119f, -0.04712154343724250793f, 0.07463858276605606079f, 0.14709527790546417236f, -0.05622762814164161682f, -0.06759791821241378784f, 0.06468155980110168457f, 0.11319204419851303101f, 0.13659416139125823975f, 0.07304862141609191895f, -0.06642506271600723267f, -0.14250172674655914307f, -0.09132564067840576172f, 0.13759543001651763916f},
  {-0.06718405336141586304f, -0.02439905330538749695f, 0.14666472375392913818f, 0.05477129295468330383f, -0.12803608179092407227f, -0.02047678455710411072f, -0.00262621697038412094f, 0.04961282387375831604f, 0.01496952679008245468f, 0.13440424203872680664f, 0.14061793684959411621f, 0.04617837443947792053f, 0.17417068779468536377f, -0.07056886702775955200f, 0.06608193367719650269f, 0.02719988301396369934f, 0.09839082509279251099f, -0.04672289267182350159f, -0.11406929790973663330f, -0.16270004212856292725f, 0.18823924660682678223f, 0.08462118357419967651f, -0.13567572832107543945f, 0.06063780933618545532f, -0.00297191925346851349f, 0.01965220645070075989f, 0.08561283349990844727f, 0.00471015088260173798f, 0.00405664928257465363f, -0.15473054349422454834f, 0.11582583189010620117f, -0.10036559402942657471f},
  {-0.15167857706546783447f, 0.14819483458995819092f, -0.05122919753193855286f, -0.00068399589508771896f, 0.06137582659721374512f, -0.09998044371604919434f, -0.02586333453655242920f, 0.07255557924509048462f, 0.02067044563591480255f, 0.13447782397270202637f, 0.05733878165483474731f, 0.05802112817764282227f, 0.13236546516418457031f, -0.07009925693273544312f, -0.09069006890058517456f, 0.01559539698064327240f, -0.13766036927700042725f, -0.14327059686183929443f, 0.18286420404911041260f, 0.06564772129058837891f, 0.07652880996465682983f, -0.02515308372676372528f, 0.17126464843750000000f, 0.13072484731674194336f, 0.06008455902338027954f, -0.01531644444912672043f, -0.03643615916371345520f, -0.13644936680793762207f, 0.11510021239519119263f, 0.07528806477785110474f, 0.08938834816217422485f, 0.00145326717756688595f},
  {0.16954509913921356201f, 0.04195933043956756592f, 0.11472570151090621948f, 0.00336181977763772011f, -0.02029683440923690796f, 0.14428511261940002441f, 0.08973835408687591553f, 0.08580978214740753174f, 0.04974257200956344604f, 0.08667498826980590820f, 0.04905955493450164795f, -0.13717083632946014404f, -0.12127538025379180908f, -0.09697865694761276245f, 0.16046690940856933594f, 0.07750163227319717407f, -0.08042544126510620117f, -0.05385641381144523621f, 0.07688448578119277954f, -0.07812378555536270142f, -0.06381443887948989868f, 0.01258598454296588898f, 0.00942485779523849487f, -0.13998417556285858154f, -0.08479049056768417358f, 0.07274521142244338989f, -0.03187127783894538879f, 0.06449370831251144409f, -0.04404760152101516724f, 0.03222831711173057556f, 0.00063642876921221614f, 0.15806776285171508789f},
  {0.15692903101444244385f, -0.01167613919824361801f, 0.11943793296813964844f, 0.10658845305442810059f, -0.12109442055225372314f, 0.13289138674736022949f, -0.11902932822704315186f, -0.13227446377277374268f, -0.11537121236324310303f, 0.08512755483388900757f, -0.13862068951129913330f, -0.00378381065092980862f, 0.10037996619939804077f, 0.09471216052770614624f, 0.15684561431407928467f, 0.03218811005353927612f, -0.02682259120047092438f, 0.12457052618265151978f, 0.14898025989532470703f, 0.13854660093784332275f, 0.10821581631898880005f, -0.01780774444341659546f, -0.10059217363595962524f, -0.13471983373165130615f, 0.14344529807567596436f, -0.06132392585277557373f, -0.03649862855672836304f, -0.19575607776641845703f, -0.16139064729213714600f, 0.17103359103202819824f, -0.09066005051136016846f, -0.04988405108451843262f},
  {0.00810270756483078003f, 0.09888000041246414185f, 0.03143179044127464294f, -0.07417269796133041382f, 0.06426928192377090454f, -0.03752355277538299561f, -0.02564512565732002258f, 0.05574789270758628845f, -0.13181895017623901367f, 0.16118375957012176514f, 0.07993798702955245972f, -0.14310985803604125977f, 0.08097711205482482910f, -0.08691623061895370483f, -0.06841206550598144531f, 0.01968669518828392029f, 0.11888569593429565430f, -0.16896896064281463623f, -0.06716867536306381226f, 0.07332758605480194092f, 0.01045544911175966263f, 0.01056341081857681274f, -0.04429418221116065979f, 0.07630271464586257935f, 0.12387753278017044067f, 0.11221068352460861206f, 0.00533350557088851929f, -0.06803454458713531494f, -0.16500049829483032227f, -0.09744386374950408936f, -0.02234100736677646637f, 0.01120834983885288239f}
};
static const float tensor__Encoder__l0_1_l0_bias[32] = 
{-0.11543802917003631592f, -0.04261111095547676086f, 0.09298074990510940552f, 0.14481939375400543213f, -0.02647322416305541992f, -0.01821826584637165070f, 0.02795082144439220428f, -0.06489359587430953979f, 0.10668662935495376587f, 0.19329839944839477539f, 0.04650975018739700317f, 0.10072275251150131226f, -0.00156797561794519424f, -0.09343956410884857178f, -0.12822850048542022705f, 0.08755911886692047119f, -0.10633280128240585327f, 0.06720658391714096069f, 0.20553694665431976318f, -0.11421789228916168213f, 0.14467169344425201416f, -0.11481906473636627197f, -0.13625884056091308594f, 0.14880031347274780273f, -0.09441255033016204834f, 0.15720321238040924072f, 0.05444921180605888367f, 0.20020247995853424072f, 0.08423198014497756958f, -0.14342826604843139648f, -0.02168105356395244598f, 0.16606126725673675537f};
static const float tensor__Encoder__l0_1_l1_weight[32][32] = 
{
  {0.05363159254193305969f, -0.12837944924831390381f, 0.00406991224735975266f, 0.12528219819068908691f, -0.19248864054679870605f, 0.08099134266376495361f, 0.19494250416755676270f, -0.12431886047124862671f, 0.05660635605454444885f, 0.01215677987784147263f, 0.04203226044774055481f, -0.09283989667892456055f, 0.00355349574238061905f, -0.18728420138359069824f, -0.05510862171649932861f, -0.05447443574666976929f, -0.16859848797321319580f, 0.08308350294828414917f, 0.06568689644336700439f, 0.01760171167552471161f, -0.11272987723350524902f, -0.17143656313419342041f, 0.01861574500799179077f, 0.19015216827392578125f, 0.09425198286771774292f, -0.10408532619476318359f, -0.09309360384941101074f, 0.05745324119925498962f, -0.10662645101547241211f, -0.07728803157806396484f, 0.05102840065956115723f, -0.00508911209180951118f},
  {0.08923859894275665283f, 0.15344983339309692383f, 0.11532805860042572021f, 0.04854014888405799866f, -0.09005199372768402100f, -0.04722747951745986938f, 0.03297169506549835205f, -0.19108180701732635498f, -0.17055472731590270996f, 0.18226553499698638916f, 0.00299544911831617355f, 0.09921301156282424927f, -0.09919728338718414307f, -0.04844652116298675537f, 0.09232308715581893921f, 0.09058101475238800049f, 0.03348946943879127502f, -0.17623464763164520264f, -0.20601692795753479004f, 0.15298286080360412598f, 0.14582398533821105957f, -0.07476639002561569214f, 0.16374421119689941406f, 0.13283081352710723877f, -0.13645386695861816406f, -0.16235832870006561279f, 0.02611928805708885193f, 0.04564848914742469788f, 0.19017952680587768555f, 0.11122968792915344238f, -0.11350835114717483521f, -0.07257532328367233276f},
  {0.01878237724304199219f, 0.06916571408510208130f, -0.08066853135824203491f, -0.17569564282894134521f, 0.04035861045122146606f, -0.05764255300164222717f, -0.13375467061996459961f, 0.17873841524124145508f, 0.12422821670770645142f, -0.13429734110832214355f, -0.01839190348982810974f, -0.07604752480983734131f, -0.15224726498126983643f, 0.14358457922935485840f, 0.14077135920524597168f, 0.05990034714341163635f, -0.04891432821750640869f, -0.01967669650912284851f, -0.07257873564958572388f, -0.11777086555957794189f, 0.06106911599636077881f, 0.08120178431272506714f, -0.11979748308658599854f, 0.07274512201547622681f, -0.02229552529752254486f, -0.17892095446586608887f, 0.06942473351955413818f, -0.01466942951083183289f, 0.10364911705255508423f, -0.16153326630592346191f, 0.11937437206506729126f, -0.14006245136260986328f},
  {0.08300952613353729248f, -0.11878564953804016113f, -0.21236369013786315918f, 0.16801938414573669434f, 0.07345482707023620605f, -0.06109428033232688904f, 0.03621973469853401184f, -0.03008345700800418854f, 0.00796366482973098755f, -0.07105475664138793945f, -0.09506987780332565308f, 0.00951310619711875916f, 0.05211608856916427612f, -0.03715121746063232422f, 0.06751859933137893677f, -0.14955216646194458008f, -0.02456499263644218445f, 0.00269781588576734066f, 0.06932748109102249146f, 0.20785939693450927734f, -0.00936137232929468155f, -0.05534453317523002625f, 0.01425044145435094833f, -0.17191892862319946289f, -0.03922418132424354553f, -0.20234605669975280762f, -0.05309373140335083008f, 0.01017647422850131989f, 0.14190109074115753174f, -0.11372771114110946655f, -0.07326618582010269165f, 0.12951661646366119385f},
  {-0.06248271837830543518f, 0.03865320235490798950f, 0.19774530827999114990f, -0.02094854600727558136f, 0.12739583849906921387f, -0.04017762839794158936f, 0.18400329351425170898f, -0.16799695789813995361f, 0.20055626332759857178f, 0.15938641130924224854f, 0.16940233111381530762f, 0.18102209270000457764f, 0.14094205200672149658f, -0.13248693943023681641f, 0.01391135994344949722f, -0.12909795343875885010f, -0.08559338748455047607f, 0.16836360096931457520f, 0.01588223315775394440f, 0.12005520612001419067f, 0.11826871335506439209f, 0.09219487756490707397f, -0.07467535138130187988f, -0.00000705431421010871f, 0.07423363626003265381f, 0.10312215238809585571f, -0.13295713067054748535f, -0.14043076336383819580f, 0.00770883169025182724f, 0.01838666014373302460f, 0.03867086395621299744f, -0.13554398715496063232f},
  {0.08999020606279373169f, -0.12099564075469970703f, 0.03620312362909317017f, -0.08265439420938491821f, 0.16383345425128936768f, 0.07982796430587768555f, -0.13145335018634796143f, 0.12952527403831481934f, -0.02882034517824649811f, 0.09564284980297088623f, -0.01326158177107572556f, 0.05898424237966537476f, 0.04651000350713729858f, -0.17328116297721862793f, -0.01266999170184135437f, -0.13703787326812744141f, 0.01182349864393472672f, -0.07588393986225128174f, 0.05596841871738433838f, 0.15055091679096221924f, -0.02770773880183696747f, -0.16948056221008300781f, -0.02465887926518917084f, 0.10507367551326751709f, -0.02610817924141883850f, 0.14426904916763305664f, -0.03960741311311721802f, 0.07159419357776641846f, -0.07139747589826583862f, -0.14826749265193939209f, -0.08907309919595718384f, -0.13796812295913696289f},
  {-0.06176504492759704590f, 0.02988743223249912262f, -0.06740215420722961426f, 0.13384599983692169189f, -0.04906311631202697754f, -0.01498365588486194611f, -0.05413554981350898743f, -0.11908682435750961304f, -0.09210802614688873291f, 0.08116056770086288452f, -0.00949435401707887650f, 0.17505459487438201904f, -0.13946901261806488037f, -0.09475743770599365234f, 0.08561345934867858887f, -0.12098959088325500488f, 0.19291323423385620117f, -0.12298341840505599976f, 0.06651536375284194946f, -0.09322881698608398438f, -0.03210274502635002136f, -0.08384560793638229370f, 0.20773571729660034180f, 0.09814811497926712036f, -0.03788395598530769348f, -0.20575708150863647461f, 0.19570048153400421143f, 0.09847278147935867310f, -0.11418071389198303223f, -0.16059394180774688721f, 0.05952335894107818604f, 0.00608387449756264687f},
  {0.16677492856979370117f, 0.02907503210008144379f, 0.08416897058486938477f, 0.15280373394489288330f, -0.15771220624446868896f, -0.00028995258617214859f, 0.07664517313241958618f, 0.06591772288084030151f, 0.06493083387613296509f, 0.17917738854885101318f, -0.10311499983072280884f, -0.00205440702848136425f, -0.09468653053045272827f, -0.15507908165454864502f, 0.00211904314346611500f, 0.16165068745613098145f, -0.13061161339282989502f, 0.15902958810329437256f, 0.09828782826662063599f, -0.08678182214498519897f, 0.15318056941032409668f, 0.07168471813201904297f, -0.13915143907070159912f, 0.22811797261238098145f, -0.06211909279227256775f, -0.08990541100502014160f, -0.04079105705022811890f, 0.10592406988143920898f, -0.11291332542896270752f, 0.10060513019561767578f, 0.15250095725059509277f, -0.08313437551259994507f},
  {-0.06213466823101043701f, -0.13916313648223876953f, 0.00088822137331590056f, -0.09539457410573959351f, -0.05247614160180091858f, -0.07984699308872222900f, 0.09470449388027191162f, -0.17408332228660583496f, -0.15681579709053039551f, -0.12518979609012603760f, 0.07462061941623687744f, -0.01036657858639955521f, 0.12989813089370727539f, -0.00234482949599623680f, -0.03100440651178359985f, -0.11746837943792343140f, 0.13825815916061401367f, -0.13981765508651733398f, -0.02786161191761493683f, -0.12676194310188293457f, 0.05556789413094520569f, 0.18545742332935333252f, 0.04988817125558853149f, -0.13615380227565765381f, 0.10958929359912872314f, -0.13404668867588043213f, 0.14875750243663787842f, -0.16088123619556427002f, 0.14238598942756652832f, -0.11886862665414810181f, 0.02951090224087238312f, 0.10839159041643142700f},
  {-0.09464944899082183838f, -0.12039436399936676025f, -0.08015662431716918945f, -0.11003193259239196777f, 0.11715114116668701172f, 0.04821656644344329834f, -0.18966940045356750488f, 0.09275420010089874268f, -0.18806561827659606934f, 0.07052902877330780029f, -0.07638985663652420044f, -0.09859449416399002075f, 0.14279432594776153564f, -0.16642516851425170898f, 0.13450084626674652100f, -0.16600154340267181396f, -0.09469024837017059326f, -0.13710263371467590332f, -0.14961756765842437744f, 0.17773900926113128662f, 0.10508840531110763550f, -0.12106093764305114746f, 0.11454340815544128418f, 0.01489459536969661713f, 0.01085972879081964493f, -0.08007247745990753174f, -0.06332438439130783081f, 0.05692701414227485657f, 0.11414916068315505981f, -0.08530692011117935181f, 0.03228521347045898438f, -0.12859466671943664551f},
  {0.08719269186258316040f, 0.16134124994277954102f, -0.19662782549858093262f, -0.06926917284727096558f, 0.10131471604108810425f, -0.16613563895225524902f, 0.07207103818655014038f, -0.01927117072045803070f, 0.08414906263351440430f, 0.19177779555320739746f, -0.08609342575073242188f, 0.18460106849670410156f, 0.02302384562790393829f, -0.02846501208841800690f, 0.02512794360518455505f, -0.11009546369314193726f, 0.21745364367961883545f, -0.08498266339302062988f, -0.13461966812610626221f, 0.00347367115318775177f, -0.01849240064620971680f, 0.20108947157859802246f, 0.16284890472888946533f, -0.02519180066883563995f, 0.10425357520580291748f, 0.14027085900306701660f, 0.00430166162550449371f, -0.01446777489036321640f, 0.10160145163536071777f, -0.11050851643085479736f, -0.09913311898708343506f, -0.01726741343736648560f},
  {-0.11146622151136398315f, -0.12648443877696990967f, 0.00543307280167937279f, 0.03162771090865135193f, -0.13813570141792297363f, 0.01575284264981746674f, -0.11131285130977630615f, -0.18713749945163726807f, -0.02683929726481437683f, 0.04811522364616394043f, -0.19788381457328796387f, 0.06401300430297851562f, -0.14635561406612396240f, -0.18649910390377044678f, 0.04763516038656234741f, 0.02486816793680191040f, 0.09681041538715362549f, 0.01410500798374414444f, -0.14151199162006378174f, -0.11197851598262786865f, 0.14645847678184509277f, 0.04899436235427856445f, 0.02670790813863277435f, -0.01461696904152631760f, 0.04019611701369285583f, 0.09673469513654708862f, 0.10607713460922241211f, 0.14242237806320190430f, -0.08675730228424072266f, -0.07782434672117233276f, 0.13695642352104187012f, -0.00024079698778223246f},
  {0.13164387643337249756f, 0.03832948207855224609f, 0.15634252130985260010f, 0.07268257439136505127f, 0.10360177606344223022f, -0.15475139021873474121f, 0.17741644382476806641f, -0.10848742723464965820f, 0.23901835083961486816f, -0.06715711951255798340f, 0.20130126178264617920f, -0.12222510576248168945f, -0.14442574977874755859f, -0.15673023462295532227f, 0.03017476759850978851f, -0.02608028240501880646f, -0.21075631678104400635f, 0.15603341162204742432f, 0.16175507009029388428f, -0.01676033623516559601f, 0.10064581781625747681f, 0.12181209772825241089f, -0.09493730962276458740f, -0.00207913503982126713f, 0.04907920956611633301f, 0.12052850425243377686f, 0.06979409605264663696f, 0.18286213278770446777f, -0.03904100134968757629f, 0.10291295498609542847f, 0.04454847425222396851f, 0.16078306734561920166f},
  {-0.03426893427968025208f, 0.13519436120986938477f, 0.17701208591461181641f, 0.00785014498978853226f, 0.11656235158443450928f, 0.13994459807872772217f, -0.00095313269412145019f, -0.15708933770656585693f, 0.19545397162437438965f, 0.10071203857660293579f, 0.23286460340023040771f, 0.05782737210392951965f, 0.10438699275255203247f, -0.16888470947742462158f, 0.10269491374492645264f, 0.10127346962690353394f, -0.04916134476661682129f, 0.06054382398724555969f, 0.05582436174154281616f, -0.13446804881095886230f, 0.17251396179199218750f, 0.08528397977352142334f, 0.08757402747869491577f, 0.19618429243564605713f, -0.03822175040841102600f, 0.17732159793376922607f, 0.03076634183526039124f, 0.18137107789516448975f, -0.05525498464703559875f, -0.08109568804502487183f, 0.08476774394512176514f, 0.07209589332342147827f},
  {-0.11623760312795639038f, 0.02103937417268753052f, 0.01228375826030969620f, -0.06696845591068267822f, -0.06108625978231430054f, -0.07781291753053665161f, 0.15969622135162353516f, -0.21539311110973358154f, 0.19247406721115112305f, -0.07354562729597091675f, 0.22753165662288665771f, 0.10452289879322052002f, 0.13818767666816711426f, -0.12246538698673248291f, -0.06724007427692413330f, 0.16746155917644500732f, 0.02708834595978260040f, -0.06057799607515335083f, 0.18391813337802886963f, -0.16857670247554779053f, -0.10747896134853363037f, 0.08463262766599655151f, -0.18569742143154144287f, -0.06772384047508239746f, -0.01870713941752910614f, 0.14966017007827758789f, 0.06854066997766494751f, 0.21607120335102081299f, -0.07109265029430389404f, -0.12459448724985122681f, -0.08591294288635253906f, 0.18894784152507781982f},
  {-0.15395320951938629150f, 0.03204599767923355103f, 0.02177865803241729736f, 0.10994019359350204468f, 0.09312935173511505127f, 0.14233817160129547119f, 0.12369489669799804688f, 0.14458490908145904541f, 0.09038677066564559937f, 0.06923112273216247559f, 0.12392371892929077148f, 0.19177894294261932373f, -0.10707631707191467285f, -0.02400925382971763611f, -0.05507541075348854065f, 0.01411447301506996155f, 0.04590993002057075500f, -0.10777220875024795532f, 0.09084963798522949219f, 0.16827355325222015381f, -0.15208601951599121094f, 0.07259652763605117798f, -0.08341657370328903198f, -0.15798294544219970703f, 0.15208007395267486572f, -0.15353572368621826172f, 0.06692737340927124023f, -0.03117579780519008636f, 0.01773678511381149292f, 0.03063833154737949371f, -0.09155423194169998169f, -0.14304558932781219482f},
  {-0.03959297388792037964f, 0.11004120856523513794f, 0.23735281825065612793f, 0.04816372320055961609f, -0.14404515922069549561f, -0.04696651920676231384f, -0.09617194533348083496f, 0.09712763875722885132f, 0.00742974877357482910f, 0.14677500724792480469f, 0.21286365389823913574f, 0.01167958136647939682f, -0.09710454940795898438f, 0.06562186777591705322f, -0.20745413005352020264f, 0.10380534082651138306f, -0.07866131514310836792f, 0.13247802853584289551f, 0.20396442711353302002f, -0.01160959433764219284f, 0.02187855355441570282f, -0.00340179051272571087f, 0.08200701326131820679f, 0.18221317231655120850f, 0.00406607333570718765f, -0.05368501320481300354f, 0.13713088631629943848f, 0.13517713546752929688f, 0.10150689631700515747f, 0.00457313656806945801f, -0.15480862557888031006f, -0.07106419652700424194f},
  {0.11958591639995574951f, 0.18559880554676055908f, -0.08898760378360748291f, -0.15179011225700378418f, 0.19462510943412780762f, 0.18247222900390625000f, 0.04711171612143516541f, 0.15907384455204010010f, 0.03272111341357231140f, -0.17950212955474853516f, 0.08132637292146682739f, 0.00698334118351340294f, -0.01092913839966058731f, -0.06747484207153320312f, 0.09057120233774185181f, -0.18457911908626556396f, -0.12025167793035507202f, 0.05339033529162406921f, 0.02487028948962688446f, -0.05994666367769241333f, 0.10034102946519851685f, -0.04001788049936294556f, 0.04075524210929870605f, 0.01465042866766452789f, 0.12294181436300277710f, 0.01474673580378293991f, -0.09293338656425476074f, -0.10602909326553344727f, -0.04344385489821434021f, 0.18049113452434539795f, 0.07554963976144790649f, -0.14487197995185852051f},
  {-0.07192910462617874146f, -0.05385719239711761475f, -0.18155796825885772705f, 0.09519906342029571533f, -0.08698546886444091797f, -0.16200399398803710938f, -0.10741723328828811646f, 0.02361734583973884583f, -0.06916231662034988403f, -0.01621136814355850220f, -0.06396201997995376587f, 0.08935955911874771118f, -0.10703989863395690918f, 0.14655452966690063477f, -0.04536084458231925964f, -0.11138480901718139648f, -0.06330082565546035767f, 0.06133195757865905762f, -0.11139546334743499756f, -0.01338982488960027695f, -0.08243834972381591797f, -0.10596825182437896729f, 0.18369585275650024414f, -0.13235691189765930176f, -0.10642102360725402832f, -0.13229568302631378174f, -0.11673984676599502563f, -0.02126732282340526581f, 0.12104612588882446289f, 0.01587901078164577484f, -0.15405800938606262207f, -0.16257441043853759766f},
  {0.13231965899467468262f, -0.00795165449380874634f, -0.01201667729765176773f, 0.18426117300987243652f, 0.13795578479766845703f, -0.16452318429946899414f, 0.08711804449558258057f, 0.01880689151585102081f, -0.06149604544043540955f, 0.02540678903460502625f, 0.01410010643303394318f, -0.10076271742582321167f, -0.01362043526023626328f, 0.03805458545684814453f, -0.09100630879402160645f, 0.00228503090329468250f, 0.17021232843399047852f, 0.14434468746185302734f, -0.14427596330642700195f, 0.01623510941863059998f, 0.17047643661499023438f, 0.10750327259302139282f, 0.19628873467445373535f, 0.11425760388374328613f, -0.02342225797474384308f, 0.00200228486210107803f, -0.06780119240283966064f, 0.13195268809795379639f, -0.11648997664451599121f, 0.15837953984737396240f, -0.03250522911548614502f, -0.14569652080535888672f},
  {-0.09925360232591629028f, -0.11972258985042572021f, -0.11198761314153671265f, -0.08989881724119186401f, -0.07598885893821716309f, -0.17208942770957946777f, -0.11225015670061111450f, 0.16046190261840820312f, -0.10731703788042068481f, 0.01407265570014715195f, -0.12603771686553955078f, 0.18475160002708435059f, 0.00334204547107219696f, -0.17027097940444946289f, -0.06678153574466705322f, 0.15024448931217193604f, -0.05384628474712371826f, 0.14044359326362609863f, -0.16614319384098052979f, 0.17873494327068328857f, 0.11740133911371231079f, 0.10026868432760238647f, -0.09735397994518280029f, 0.09744435548782348633f, -0.06248319521546363831f, -0.06664349883794784546f, -0.12066493928432464600f, 0.02336732111871242523f, -0.07976645231246948242f, -0.07847955822944641113f, -0.01370864547789096832f, -0.19266034662723541260f},
  {-0.00864084716886281967f, -0.10134357213973999023f, -0.09339199960231781006f, 0.11622437834739685059f, 0.15215250849723815918f, 0.11095516383647918701f, 0.03014253638684749603f, -0.18947298824787139893f, -0.06739326566457748413f, 0.13398084044456481934f, 0.08532513678073883057f, 0.09471195191144943237f, 0.01127237360924482346f, -0.02755599096417427063f, -0.07037751376628875732f, 0.16510798037052154541f, 0.11227581650018692017f, -0.17053881287574768066f, -0.18645980954170227051f, -0.02335128188133239746f, 0.18376921117305755615f, 0.16369000077247619629f, 0.14843733608722686768f, 0.09522952139377593994f, -0.00169354188255965710f, 0.04755530506372451782f, 0.17424477636814117432f, 0.09561310708522796631f, -0.09786268323659896851f, 0.04911788180470466614f, -0.08455502241849899292f, -0.16210032999515533447f},
  {0.01742507331073284149f, -0.13969951868057250977f, -0.17179888486862182617f, 0.12563583254814147949f, -0.10331992805004119873f, 0.03112524002790451050f, -0.03874820098280906677f, 0.05727370828390121460f, -0.12895856797695159912f, 0.09594595432281494141f, -0.09693934768438339233f, 0.19326023757457733154f, -0.13634303212165832520f, 0.04879272356629371643f, 0.17488427460193634033f, -0.01009868551045656204f, 0.02674494497478008270f, 0.00630658585578203201f, -0.09865799546241760254f, 0.14423950016498565674f, -0.01271346770226955414f, 0.21099902689456939697f, 0.16144214570522308350f, 0.00844451226294040680f, -0.13612565398216247559f, 0.10113124549388885498f, -0.08908367902040481567f, -0.10900191217660903931f, 0.11829326301813125610f, -0.14941382408142089844f, 0.05011412128806114197f, -0.07098136842250823975f},
