// This file is computer-generated by onnx2c 
// Command Line: onnx2c/build/onnx2c -d batch_size:1 --no-globals --func-name linket_encoder_forward out/models/m0_medium/encoder.onnx

// onnx2c
// Git Branch: feature/func-name
// Git Commit: cfcce19

// ONNX Model
// Produced By: pytorch, version 2.10.0+cu130
// ONNX IR version: 20

#include <float.h>
#include <math.h>
#include <stdbool.h>
#include <stdint.h>
#include <string.h>
#include <stdlib.h>

#define MAX(X,Y) ( X > Y ? X : Y)
#define MIN(X,Y) ( X < Y ? X : Y)
#define CLIP(X,L) ( MAX(MIN(X,L), -L) )

#if __STDC_VERSION__ < 199901L
#define FUNC_PREFIX
#else
#define FUNC_PREFIX static inline
#endif

static const float tensor_layers_0_weight[128][192] = 
{
  {0.10393119603395462036f, -0.01732835173606872559f, 0.04858578741550445557f, 0.06938382238149642944f, -0.01600242033600807190f, -0.03336999565362930298f, -0.04405768960714340210f, -0.13986806571483612061f, 0.03208241611719131470f, 0.02645579166710376740f, 0.00166515528690069914f, -0.01670331880450248718f, 0.01083871815353631973f, -0.01022160891443490982f, 0.05482729151844978333f, -0.02167021855711936951f, 0.02452583797276020050f, -0.03695223480463027954f, -0.07472688704729080200f, -0.00834030099213123322f, -0.05912722274661064148f, -0.05235702916979789734f, 0.08081438392400741577f, 0.01604784093797206879f, 0.07979861646890640259f, 0.00777987297624349594f, -0.07351646572351455688f, -0.01343110669404268265f, -0.09614040702581405640f, -0.07427667826414108276f, 0.04257622361183166504f, 0.04889100790023803711f, 0.10475161671638488770f, -0.00182466860860586166f, -0.04558926448225975037f, -0.06907242536544799805f, -0.10010287165641784668f, -0.07955532521009445190f, 0.07683953642845153809f, 0.06081410124897956848f, 0.08403727412223815918f, 0.07723040133714675903f, 0.00479556061327457428f, -0.07583820819854736328f, -0.14233954250812530518f, -0.00488600693643093109f, -0.00544520746916532516f, 0.03964957594871520996f, 0.07424034178256988525f, 0.08388856053352355957f, 0.12190546840429306030f, 0.01392954122275114059f, -0.02669301070272922516f, 0.04236374050378799438f, 0.16074047982692718506f, 0.05580267310142517090f, 0.03259117528796195984f, 0.00457431003451347351f, -0.02300996333360671997f, -0.05297349765896797180f, 0.01845709048211574554f, 0.03286417201161384583f, 0.10805852711200714111f, 0.08107776939868927002f, 0.05209877714514732361f, -0.02076936140656471252f, -0.07818615436553955078f, -0.01834640838205814362f, 0.02058123052120208740f, 0.06441289186477661133f, -0.07361187785863876343f, -0.15356399118900299072f, 0.10085855424404144287f, -0.07087312638759613037f, -0.00409112824127078056f, 0.00701302569359540939f, 0.11920282244682312012f, 0.04137696698307991028f, 0.02432556077837944031f, -0.09056759625673294067f, 0.05944098159670829773f, -0.12954972684383392334f, -0.06248791888356208801f, -0.06541175395250320435f, -0.02943684346973896027f, 0.03165761008858680725f, 0.00966617278754711151f, 0.03386394307017326355f, 0.04783784970641136169f, -0.04502463340759277344f, -0.06928396224975585938f, -0.06701631844043731689f, -0.04672390222549438477f, -0.05759474262595176697f, -0.00504501024261116982f, 0.02617086097598075867f, 0.04524525627493858337f, -0.02392275817692279816f, -0.08954475075006484985f, -0.03837312757968902588f, -0.11328367888927459717f, -0.06189069524407386780f, -0.00062665040604770184f, -0.03435882553458213806f, 0.02631008438766002655f, 0.01921904459595680237f, 0.02521797269582748413f, -0.10755779594182968140f, -0.08280853927135467529f, -0.10546177625656127930f, -0.01066957507282495499f, 0.01692089997231960297f, 0.00468304706737399101f, 0.03381514921784400940f, -0.00370931182987987995f, 0.02043003775179386139f, -0.05365888029336929321f, 0.02557581663131713867f, 0.14305621385574340820f, 0.04424403980374336243f, -0.09960957616567611694f, -0.10776323825120925903f, -0.06324831396341323853f, -0.08699933439493179321f, -0.04994270205497741699f, -0.00622099684551358223f, -0.00206264643929898739f, 0.01334489230066537857f, 0.03044723719358444214f, -0.02824160456657409668f, -0.00211545708589255810f, -0.00338018988259136677f, 0.00049043697072193027f, -0.00404230318963527679f, -0.03129987418651580811f, -0.14026910066604614258f, 0.09055914729833602905f, -0.05153535306453704834f, -0.11983436346054077148f, 0.05476623773574829102f, 0.04770948365330696106f, 0.07399623841047286987f, -0.00914141535758972168f, -0.07203423231840133667f, 0.08980056643486022949f, 0.00580311892554163933f, -0.04983792454004287720f, 0.04941065981984138489f, 0.06277737021446228027f, -0.04339851438999176025f, 0.06042923033237457275f, 0.00218348810449242592f, 0.10738608986139297485f, -0.00949534028768539429f, -0.03598051890730857849f, 0.04877712950110435486f, -0.06624010205268859863f, -0.07652630656957626343f, 0.09766427427530288696f, 0.02257872000336647034f, 0.06348749995231628418f, 0.05293188244104385376f, -0.02967547252774238586f, -0.07097468525171279907f, -0.03235912695527076721f, -0.00466349394991993904f, -0.00624612113460898399f, 0.05734916403889656067f, 0.07023263722658157349f, -0.00885310769081115723f, 0.03845668584108352661f, -0.08699798583984375000f, -0.13009247183799743652f, -0.04273073747754096985f, 0.08938998728990554810f, 0.04315342009067535400f, 0.04198509082198143005f, 0.02947101183235645294f, 0.11428478360176086426f, 0.09056404978036880493f, -0.02879019081592559814f, 0.02046861127018928528f, 0.04334234446287155151f, 0.01717928051948547363f, -0.01778238266706466675f, -0.02558279782533645630f, -0.00613846397027373314f, -0.04715710878372192383f, -0.00834825355559587479f, 0.06522739678621292114f, 0.08883407711982727051f, 0.11976679414510726929f},
  {-0.03339869156479835510f, -0.15684056282043457031f, -0.17597539722919464111f, -0.13663205504417419434f, -0.04861819744110107422f, -0.11893024295568466187f, -0.13235081732273101807f, -0.08878419548273086548f, -0.11859621852636337280f, -0.15580393373966217041f, -0.04961899667978286743f, -0.15607906877994537354f, -0.09112994372844696045f, -0.13701018691062927246f, -0.13658353686332702637f, -0.01715476997196674347f, -0.15267950296401977539f, -0.11219412088394165039f, 0.11216609179973602295f, 0.05727072432637214661f, -0.05301924794912338257f, -0.06362265348434448242f, -0.06301254779100418091f, -0.04378915205597877502f, 0.04643693566322326660f, -0.00774622708559036255f, 0.08922145515680313110f, 0.06753645092248916626f, 0.07718134671449661255f, 0.01983125321567058563f, -0.03146540746092796326f, -0.02615953981876373291f, 0.08996050059795379639f, 0.01579916104674339294f, -0.05059318616986274719f, -0.08258496969938278198f, 0.03407991677522659302f, 0.03073512576520442963f, 0.02358956076204776764f, -0.04487095028162002563f, 0.03808422386646270752f, -0.06434769928455352783f, 0.02815688028931617737f, 0.00081349367974326015f, 0.10928712040185928345f, 0.03925231471657752991f, 0.11576654016971588135f, 0.03419086709618568420f, 0.09787455946207046509f, 0.10486043244600296021f, 0.15226356685161590576f, 0.12587590515613555908f, 0.17625150084495544434f, 0.06005895882844924927f, 0.13778182864189147949f, 0.14985737204551696777f, 0.07055269181728363037f, -0.08146158605813980103f, 0.08869880437850952148f, 0.08041954040527343750f, -0.00002817265522025991f, 0.08682476729154586792f, 0.02819685079157352448f, 0.10518376529216766357f, 0.02582949586212635040f, -0.01528524793684482574f, 0.05306943878531455994f, 0.05294979363679885864f, 0.07887647300958633423f, -0.01226601563394069672f, -0.02578990347683429718f, 0.01498048659414052963f, 0.01938892155885696411f, -0.05092269927263259888f, 0.02237339876592159271f, 0.01744368672370910645f, -0.02211085148155689240f, 0.00159504590556025505f, -0.00735939620062708855f, -0.03516712039709091187f, -0.04965345188975334167f, 0.00831555575132369995f, 0.09236675500869750977f, 0.06943550705909729004f, -0.05188000947237014771f, -0.02062016911804676056f, -0.09368631243705749512f, -0.02916772849857807159f, -0.03014041855931282043f, 0.03893481940031051636f, 0.14767542481422424316f, 0.08018711954355239868f, 0.07857877016067504883f, 0.07894891500473022461f, 0.01293846964836120605f, -0.00190608203411102295f, 0.06192556768655776978f, -0.04887578263878822327f, -0.02352313511073589325f, -0.12735389173030853271f, -0.03794346749782562256f, 0.03431473299860954285f, -0.07849355787038803101f, -0.02116645872592926025f, 0.00180168030783534050f, 0.01322290021926164627f, -0.02371761202812194824f, -0.02187762595713138580f, -0.06346242129802703857f, 0.06285909563302993774f, 0.01723348163068294525f, 0.05722256749868392944f, 0.06726151704788208008f, 0.04485920071601867676f, 0.04786345362663269043f, 0.10277690738439559937f, 0.04803492128849029541f, -0.01766203157603740692f, -0.00135520636104047298f, 0.08869761228561401367f, -0.09380429238080978394f, -0.05724394321441650391f, -0.05411068722605705261f, -0.07117055356502532959f, -0.02649671211838722229f, -0.13021394610404968262f, -0.08605194091796875000f, 0.06336350739002227783f, 0.17129257321357727051f, 0.09758710116147994995f, 0.05884435772895812988f, 0.01037469599395990372f, 0.10387258976697921753f, 0.16097602248191833496f, 0.05425991863012313843f, 0.02129022963345050812f, 0.05710680410265922546f, 0.06351820379495620728f, 0.07333415001630783081f, 0.07042596489191055298f, -0.01247426122426986694f, -0.01904322020709514618f, 0.06629725545644760132f, 0.10563441365957260132f, 0.00333707267418503761f, -0.02251554839313030243f, 0.11286893486976623535f, 0.08423017710447311401f, 0.06534872204065322876f, -0.03290876746177673340f, -0.04173511266708374023f, 0.07160802185535430908f, 0.05614325404167175293f, 0.03630467504262924194f, 0.15835687518119812012f, 0.08240024745464324951f, 0.04576498642563819885f, 0.04202516004443168640f, 0.01857548765838146210f, 0.00505919568240642548f, -0.01313093304634094238f, -0.07810682803392410278f, -0.12563291192054748535f, -0.14578039944171905518f, -0.09474056214094161987f, -0.00314841978251934052f, -0.03414710238575935364f, -0.12764887511730194092f, -0.01787196472287178040f, -0.04229407384991645813f, -0.07270308583974838257f, -0.00855031795799732208f, -0.02039030753076076508f, 0.00934866722673177719f, -0.04919860884547233582f, -0.04402267560362815857f, 0.00137171405367553234f, -0.07164733111858367920f, 0.02436208166182041168f, 0.01492842473089694977f, -0.00637166667729616165f, -0.04646379500627517700f, -0.00368597730994224548f, 0.07219552248716354370f, -0.06565296649932861328f, -0.10462150722742080688f, -0.12718665599822998047f, -0.09646063297986984253f, -0.10217840224504470825f, -0.16984306275844573975f, -0.13110870122909545898f, -0.04045485332608222961f},
  {0.08194333314895629883f, 0.04874902591109275818f, -0.03436310589313507080f, -0.02271595038473606110f, -0.08692866563796997070f, -0.11159088462591171265f, -0.04437926784157752991f, -0.00670950347557663918f, 0.13708545267581939697f, 0.07555297017097473145f, 0.00458600418642163277f, 0.04570519924163818359f, -0.16272787749767303467f, -0.02224393002688884735f, 0.03779491037130355835f, 0.05667067319154739380f, 0.06951019912958145142f, -0.08181445300579071045f, -0.03321938961744308472f, 0.02988931536674499512f, -0.07475959509611129761f, -0.05609990283846855164f, 0.07040192931890487671f, 0.08455553650856018066f, 0.07791764289140701294f, -0.07724881917238235474f, -0.04909789934754371643f, 0.05877928435802459717f, -0.01574783958494663239f, -0.04247312620282173157f, -0.01413890905678272247f, -0.00912158563733100891f, 0.13758607208728790283f, 0.04961796477437019348f, 0.15046837925910949707f, 0.16463950276374816895f, 0.10862618684768676758f, -0.00899347942322492599f, 0.00651681842282414436f, -0.09344046562910079956f, 0.12109024077653884888f, 0.06093899160623550415f, 0.03286216035485267639f, -0.03875359147787094116f, 0.03521252423524856567f, -0.05108562856912612915f, -0.04569083452224731445f, -0.05738415941596031189f, 0.01504858490079641342f, -0.00371708767488598824f, 0.01378001831471920013f, -0.05496718361973762512f, -0.05697308480739593506f, -0.00867909099906682968f, -0.05995563045144081116f, -0.08943186700344085693f, 0.10054273903369903564f, -0.07509256154298782349f, -0.12153763324022293091f, -0.11030595749616622925f, -0.12997208535671234131f, -0.07330273091793060303f, -0.12810832262039184570f, -0.04100845754146575928f, 0.08864299952983856201f, -0.05057731270790100098f, 0.02630876377224922180f, 0.01832808554172515869f, -0.11807561665773391724f, -0.02980961836874485016f, -0.05542190372943878174f, -0.05688545107841491699f, 0.14166502654552459717f, 0.08330798149108886719f, 0.02031176537275314331f, 0.00214369269087910652f, -0.00466622645035386086f, 0.01946624740958213806f, 0.10260098427534103394f, 0.09023396670818328857f, 0.03175838291645050049f, -0.03177635744214057922f, -0.05917539820075035095f, 0.01624014601111412048f, -0.15409432351589202881f, -0.08411440998315811157f, -0.01179790496826171875f, 0.12553320825099945068f, -0.04203298687934875488f, -0.07089193165302276611f, -0.01678894646465778351f, 0.06880848109722137451f, -0.01025826763361692429f, 0.01269168220460414886f, 0.02740840241312980652f, -0.00495821703225374222f, 0.06058144569396972656f, 0.05932858213782310486f, 0.10175620764493942261f, 0.14354215562343597412f, 0.08406732231378555298f, -0.05213353782892227173f, 0.02656693570315837860f, 0.02947233244776725769f, 0.05626028031110763550f, 0.00422396091744303703f, 0.03640716522932052612f, 0.01723168604075908661f, -0.00253465166315436363f, 0.04153719171881675720f, -0.09324366599321365356f, -0.06737101823091506958f, 0.07716758549213409424f, -0.07847629487514495850f, -0.12499073147773742676f, -0.04877186194062232971f, -0.03484679386019706726f, 0.01383641548454761505f, 0.05535404756665229797f, -0.01340558286756277084f, 0.00658929720520973206f, -0.02350078523159027100f, -0.09561892598867416382f, -0.05886334180831909180f, -0.07403923571109771729f, 0.00018331684987060726f, 0.03274695202708244324f, -0.01502208784222602844f, -0.00201716716401278973f, -0.06743296980857849121f, 0.01846366748213768005f, -0.03446986898779869080f, -0.07043664157390594482f, -0.08415519446134567261f, 0.01489295810461044312f, 0.07544144243001937866f, 0.00351473060436546803f, -0.08323567360639572144f, 0.05836911872029304504f, 0.00619961228221654892f, -0.02812416478991508484f, -0.03290337324142456055f, 0.04343585669994354248f, 0.12837438285350799561f, -0.04333136230707168579f, -0.10153184086084365845f, -0.06639238446950912476f, -0.02135577797889709473f, -0.13593757152557373047f, -0.11742871999740600586f, 0.04127562046051025391f, 0.05859045684337615967f, -0.14444293081760406494f, -0.18221104145050048828f, -0.04445385932922363281f, 0.03822980448603630066f, 0.00066551525378599763f, -0.09604180604219436646f, -0.04007341340184211731f, 0.05810039117932319641f, 0.06409984081983566284f, -0.08951074630022048950f, 0.07821852713823318481f, 0.03485323861241340637f, 0.07400555908679962158f, 0.08342931419610977173f, 0.00115090701729059219f, 0.04114606603980064392f, -0.01537831872701644897f, -0.10187987983226776123f, 0.01462630555033683777f, 0.02344745956361293793f, 0.03630528226494789124f, -0.01416436303406953812f, -0.01511599030345678329f, -0.02786855399608612061f, 0.08596455305814743042f, -0.00425163144245743752f, -0.02770212478935718536f, -0.03493506461381912231f, 0.11347567290067672729f, 0.09688585996627807617f, 0.11121657490730285645f, 0.15225449204444885254f, -0.00666249776259064674f, -0.03819721564650535583f, 0.03004865162074565887f, -0.04222085699439048767f, -0.02414767444133758545f, 0.05231051892042160034f, 0.04126918315887451172f, 0.09772390127182006836f},
  {-0.04031887277960777283f, 0.09771669656038284302f, 0.14763587713241577148f, 0.05073413252830505371f, 0.00061642483342438936f, 0.03333097323775291443f, -0.02908448316156864166f, -0.09508072584867477417f, -0.14414462447166442871f, -0.08138599246740341187f, -0.03528244048357009888f, -0.00467131473124027252f, 0.05295401066541671753f, 0.03454238176345825195f, -0.07129670679569244385f, -0.03162096068263053894f, -0.19108857214450836182f, -0.06727580726146697998f, -0.12090392410755157471f, -0.08847532421350479126f, -0.03995692729949951172f, -0.02146343700587749481f, -0.03370405733585357666f, -0.04268344864249229431f, -0.01211859099566936493f, -0.03278928622603416443f, -0.08348476886749267578f, -0.03271552175283432007f, -0.02632649615406990051f, -0.01876783184707164764f, -0.13231937587261199951f, -0.03160520642995834351f, 0.04344902187585830688f, 0.08726373314857482910f, 0.04108099266886711121f, -0.04172560945153236389f, 0.05514240264892578125f, 0.12222913652658462524f, 0.00892992131412029266f, -0.04349861294031143188f, 0.09630627930164337158f, 0.00804472807794809341f, -0.01281914394348859787f, -0.05831030383706092834f, 0.04168944805860519409f, 0.05370185524225234985f, 0.02663701400160789490f, -0.01685913838446140289f, 0.09086501598358154297f, -0.02145143598318099976f, -0.04572388529777526855f, -0.08772078901529312134f, -0.08452165871858596802f, 0.02917411923408508301f, 0.06436508148908615112f, -0.04308310896158218384f, -0.02363803423941135406f, 0.07370418310165405273f, 0.00167735770810395479f, -0.00159597641322761774f, -0.06253329664468765259f, 0.01183110382407903671f, 0.06814361363649368286f, 0.00683775776997208595f, 0.02528255246579647064f, 0.11144201457500457764f, 0.15788926184177398682f, 0.05065335333347320557f, 0.03889721632003784180f, -0.05189297348260879517f, -0.04925182461738586426f, -0.05434513837099075317f, -0.12887029349803924561f, -0.04689665511250495911f, 0.05966972187161445618f, 0.00787807442247867584f, -0.00152183044701814651f, 0.00122645392548292875f, -0.00384054356254637241f, 0.01128963753581047058f, -0.10651810467243194580f, -0.14496836066246032715f, -0.09578093886375427246f, -0.07646028697490692139f, 0.03550844267010688782f, -0.01158177107572555542f, -0.02230914495885372162f, 0.03337225317955017090f, -0.05071652680635452271f, 0.03438441827893257141f, 0.00847368501126766205f, -0.08288721740245819092f, 0.05127181857824325562f, 0.07206639647483825684f, -0.03899171948432922363f, -0.01712323352694511414f, 0.12271286547183990479f, 0.15073092281818389893f, 0.13269431889057159424f, 0.07795625925064086914f, 0.15638826787471771240f, 0.17323750257492065430f, 0.04809262976050376892f, 0.03808777779340744019f, 0.04102845117449760437f, 0.11602161824703216553f, -0.00793079007416963577f, -0.02384933270514011383f, 0.06086679920554161072f, 0.06705150753259658813f, 0.01948882639408111572f, -0.01198762189596891403f, 0.02812547981739044189f, 0.06438474357128143311f, -0.00339450035244226456f, -0.09541919827461242676f, -0.04097243398427963257f, -0.01809601671993732452f, 0.04591840505599975586f, 0.04868179932236671448f, 0.04740390926599502563f, 0.05840031430125236511f, -0.03279052302241325378f, -0.04819002002477645874f, -0.06487400084733963013f, 0.03437869250774383545f, 0.05669945850968360901f, 0.03239215165376663208f, 0.00323597551323473454f, 0.07153496891260147095f, 0.10693515837192535400f, 0.06432421505451202393f, 0.06902590394020080566f, 0.05064038932323455811f, -0.05711882933974266052f, -0.04278781265020370483f, -0.15181221067905426025f, -0.04080392792820930481f, -0.04043329134583473206f, -0.05939106643199920654f, 0.04794764518737792969f, 0.02562542632222175598f, -0.03640349581837654114f, -0.05861542746424674988f, -0.14187517762184143066f, -0.03435781970620155334f, -0.05649154633283615112f, -0.03612628206610679626f, -0.04283040761947631836f, 0.02031217142939567566f, -0.04754031077027320862f, 0.01987067610025405884f, 0.00202644034288823605f, 0.06284634023904800415f, -0.01991883292794227600f, -0.00386574445292353630f, 0.05213515833020210266f, 0.06733327358961105347f, 0.02694237045943737030f, -0.02755800820887088776f, 0.02959635667502880096f, 0.13790066540241241455f, 0.05707193911075592041f, 0.08877760916948318481f, 0.14680257439613342285f, 0.09877576678991317749f, 0.00259250402450561523f, -0.06324923038482666016f, 0.03132723271846771240f, 0.13584195077419281006f, -0.03844781219959259033f, 0.01524461619555950165f, -0.00756212836131453514f, 0.05424521490931510925f, -0.04267359897494316101f, -0.07148615270853042603f, -0.03502677381038665771f, -0.02267943695187568665f, -0.09546953439712524414f, -0.06723465770483016968f, -0.12151536345481872559f, -0.08914355933666229248f, 0.02285376377403736115f, -0.00349413766525685787f, -0.04164849221706390381f, -0.02874591387808322906f, -0.10775134712457656860f, -0.12477174401283264160f, -0.00651910109445452690f, -0.04797426983714103699f, 0.06862919777631759644f, 0.00750197935849428177f},
  {0.06328089535236358643f, 0.08334440737962722778f, -0.02040849253535270691f, -0.04446745663881301880f, -0.01504231337457895279f, -0.05010505393147468567f, -0.05083614960312843323f, 0.02291076816618442535f, 0.07416217029094696045f, 0.04152585566043853760f, 0.05045405775308609009f, -0.03353522717952728271f, 0.02551330067217350006f, 0.06740603595972061157f, 0.02549963444471359253f, 0.06245331466197967529f, 0.04034829139709472656f, 0.05841014534235000610f, -0.05950033292174339294f, -0.06031287461519241333f, -0.04478903114795684814f, 0.02664919383823871613f, 0.00237667770124971867f, 0.13357377052307128906f, 0.01406867522746324539f, 0.06665351986885070801f, -0.09222631156444549561f, -0.08205574005842208862f, -0.04618299007415771484f, 0.03969845175743103027f, -0.00682377163320779800f, 0.06788235157728195190f, 0.04238737374544143677f, 0.05576227977871894836f, -0.06530151516199111938f, 0.00847313459962606430f, -0.06379002332687377930f, 0.07758650928735733032f, -0.00144059862941503525f, 0.10352044552564620972f, 0.00189167819917201996f, -0.04403053224086761475f, -0.00231238268315792084f, -0.01215166691690683365f, -0.08374845981597900391f, -0.03682897612452507019f, -0.07459649443626403809f, 0.06229392439126968384f, -0.15650579333305358887f, -0.10058474540710449219f, -0.05693482980132102966f, -0.02406102232635021210f, -0.03091833181679248810f, -0.08494988083839416504f, -0.09946051985025405884f, -0.02456384338438510895f, -0.09190905839204788208f, -0.12633429467678070068f, -0.08037586510181427002f, 0.03870704025030136108f, -0.11752990633249282837f, -0.06036921590566635132f, -0.02434879727661609650f, -0.07466300576925277710f, 0.06152868270874023438f, 0.10654284060001373291f, 0.02919060923159122467f, -0.07919781655073165894f, -0.03342222794890403748f, -0.06558686494827270508f, -0.05345930159091949463f, -0.00345816346816718578f, 0.02093758061528205872f, 0.07517980039119720459f, 0.05264855548739433289f, -0.03093393705785274506f, -0.07891213893890380859f, -0.01682267896831035614f, 0.01052460726350545883f, 0.11186251044273376465f, 0.04622787237167358398f, 0.00001741430605761707f, -0.08311878144741058350f, -0.02869182638823986053f, 0.02672413736581802368f, -0.04816800728440284729f, 0.03510584682226181030f, 0.09162338823080062866f, 0.00219028093852102757f, -0.03456365689635276794f, -0.01473436504602432251f, -0.12165078520774841309f, -0.10151527076959609985f, 0.01099296566098928452f, -0.01552474126219749451f, 0.08621128648519515991f, 0.04167276248335838318f, 0.06848534941673278809f, 0.04408049210906028748f, 0.02000299096107482910f, -0.00993802864104509354f, -0.02799139730632305145f, -0.03961529582738876343f, 0.07610712200403213501f, -0.02210706658661365509f, 0.03532540053129196167f, 0.04070359840989112854f, -0.01440014969557523727f, -0.07771414518356323242f, 0.02563864551484584808f, -0.02305739745497703552f, 0.05168867111206054688f, -0.05171005800366401672f, -0.07565428316593170166f, 0.02358757704496383667f, -0.00276351952925324440f, -0.05439901724457740784f, -0.08806032687425613403f, -0.07142499834299087524f, 0.07828924059867858887f, -0.08158519864082336426f, -0.03701930493116378784f, 0.00453550368547439575f, -0.03390293195843696594f, -0.03382340073585510254f, -0.01420348789542913437f, -0.02316115424036979675f, 0.00450925994664430618f, 0.09525168687105178833f, 0.06006978079676628113f, -0.00271753896959125996f, 0.02317875437438488007f, -0.01158407144248485565f, 0.07057067006826400757f, -0.00182984292041510344f, 0.06845517456531524658f, 0.15875077247619628906f, 0.09353388845920562744f, 0.03593726456165313721f, 0.05977099388837814331f, 0.01725458726286888123f, 0.04397132247686386108f, 0.08967623859643936157f, 0.03708832710981369019f, 0.03248042613267898560f, 0.02870514243841171265f, -0.11609733849763870239f, -0.07397040724754333496f, -0.09556173533201217651f, 0.02067586034536361694f, 0.05909799784421920776f, 0.09318177402019500732f, 0.02727769874036312103f, -0.03760490939021110535f, -0.07637630403041839600f, -0.05336321890354156494f, -0.07391491532325744629f, -0.05327447503805160522f, 0.08299524337053298950f, 0.13300143182277679443f, 0.05762733891606330872f, 0.05579371750354766846f, 0.01202013622969388962f, 0.03149326145648956299f, 0.02162355370819568634f, 0.05530711263418197632f, 0.01130562741309404373f, 0.13270169496536254883f, 0.02319424971938133240f, 0.05690194666385650635f, 0.02113938517868518829f, 0.04202571511268615723f, -0.05833951756358146667f, -0.06056014075875282288f, -0.01779312267899513245f, 0.00741663994267582893f, 0.00693445559591054916f, -0.01761242933571338654f, 0.08217640221118927002f, 0.02400838956236839294f, -0.05379894003272056580f, -0.00575760798528790474f, 0.02870685793459415436f, -0.01533997431397438049f, -0.08944343775510787964f, 0.00754610961303114891f, -0.03227845579385757446f, 0.03885567188262939453f, -0.01895153708755970001f, -0.02998297475278377533f, -0.00484765693545341492f, 0.03279063478112220764f},
  {-0.04674838110804557800f, 0.05257551744580268860f, -0.08061455190181732178f, -0.01554249599575996399f, -0.01229406241327524185f, 0.05112410336732864380f, 0.12097071856260299683f, 0.14005850255489349365f, 0.04887197539210319519f, 0.14675284922122955322f, -0.03851699084043502808f, -0.10777290165424346924f, -0.07085723429918289185f, -0.01659865677356719971f, 0.12707273662090301514f, 0.01949108578264713287f, 0.00937853474169969559f, 0.08669608086347579956f, -0.01645510457456111908f, -0.04812163859605789185f, -0.07907938212156295776f, 0.00252003851346671581f, -0.04891445860266685486f, -0.13008898496627807617f, -0.01765262149274349213f, 0.12186007946729660034f, 0.11704389750957489014f, 0.03389181196689605713f, -0.02294483967125415802f, -0.00348499533720314503f, -0.03725783526897430420f, -0.12565100193023681641f, 0.02311797998845577240f, 0.05723112821578979492f, 0.03942544385790824890f, 0.04809873923659324646f, 0.05151386931538581848f, -0.00838195625692605972f, 0.03376782685518264771f, -0.06395553797483444214f, -0.03095887601375579834f, 0.00489145983010530472f, -0.00123849243391305208f, -0.13332517445087432861f, -0.08703606575727462769f, -0.07919536530971527100f, 0.05255730822682380676f, -0.04945243149995803833f, -0.04554512724280357361f, 0.05569043755531311035f, -0.02635174244642257690f, -0.07974386960268020630f, -0.16500538587570190430f, 0.03708466514945030212f, 0.07676557451486587524f, 0.02609780617058277130f, 0.01849188841879367828f, -0.00851290766149759293f, 0.00273776846006512642f, -0.06114538013935089111f, -0.14559645950794219971f, 0.02474260702729225159f, 0.07568513602018356323f, -0.01479736715555191040f, -0.04366606473922729492f, -0.01710256189107894897f, -0.13337200880050659180f, -0.09942389279603958130f, -0.12021266669034957886f, -0.03489235788583755493f, 0.06402567774057388306f, 0.11768129467964172363f, -0.00960327405482530594f, 0.06946678459644317627f, -0.08007851988077163696f, -0.12929552793502807617f, -0.03712125867605209351f, 0.00105493492446839809f, 0.07504558563232421875f, 0.02912783250212669373f, 0.03199417144060134888f, 0.07319150120019912720f, -0.01542886719107627869f, -0.08876784890890121460f, -0.06349835544824600220f, -0.06242604926228523254f, 0.01283029001206159592f, -0.11258570104837417603f, 0.05892204493284225464f, 0.10269665718078613281f, 0.10021193325519561768f, 0.06887949258089065552f, -0.02206882834434509277f, -0.04359813034534454346f, 0.00705985398963093758f, -0.12251330167055130005f, -0.01041543763130903244f, 0.08254629373550415039f, 0.08844984322786331177f, 0.07541152089834213257f, 0.06304819881916046143f, 0.01721307449042797089f, 0.02020337618887424469f, -0.03056473657488822937f, -0.01446782704442739487f, 0.10605252534151077271f, -0.03926663845777511597f, -0.10569968819618225098f, -0.09308597445487976074f, -0.01916144602000713348f, 0.08933676034212112427f, 0.04052297025918960571f, -0.02458341978490352631f, 0.04626405239105224609f, 0.01780398935079574585f, -0.08135271072387695312f, -0.10606174170970916748f, 0.00350492889992892742f, 0.12042067945003509521f, 0.06608939915895462036f, 0.03120260499417781830f, 0.05800428241491317749f, 0.05158537998795509338f, -0.03791759908199310303f, 0.02067107520997524261f, 0.03868650645017623901f, 0.08878690004348754883f, 0.08787105977535247803f, -0.01971357688307762146f, -0.07129348814487457275f, -0.11549307405948638916f, -0.05197222903370857239f, -0.06157997250556945801f, -0.03863336890935897827f, 0.11943954229354858398f, 0.20795270800590515137f, -0.01614862121641635895f, 0.01047451794147491455f, -0.05067507550120353699f, -0.10325789451599121094f, -0.04975686594843864441f, 0.03446533530950546265f, 0.05605962499976158142f, 0.13044260442256927490f, 0.03749546408653259277f, 0.04131923243403434753f, -0.01457113679498434067f, -0.03635980561375617981f, -0.06517100334167480469f, 0.08183072507381439209f, 0.04669494554400444031f, -0.03586354106664657593f, -0.02870748750865459442f, 0.08063034713268280029f, 0.02655464783310890198f, -0.00691704358905553818f, 0.03737692907452583313f, 0.06853844970464706421f, 0.02062137238681316376f, 0.00385580724105238914f, -0.04983815550804138184f, 0.08920891582965850830f, 0.02738670073449611664f, 0.09390225261449813843f, -0.00278367684222757816f, 0.12954336404800415039f, 0.11333255469799041748f, -0.02509978041052818298f, -0.09126207232475280762f, 0.02563123218715190887f, 0.00319391069933772087f, -0.12840071320533752441f, -0.07096672803163528442f, 0.04910002276301383972f, 0.07217491418123245239f, -0.01044021639972925186f, -0.04612708836793899536f, -0.00752764893695712090f, -0.05641355738043785095f, -0.04417559131979942322f, -0.02620406448841094971f, 0.01288592163473367691f, 0.06164975836873054504f, 0.06023149192333221436f, -0.01868433691561222076f, 0.00603935029357671738f, -0.08473217487335205078f, -0.06466498970985412598f, -0.08125518262386322021f, 0.03656708821654319763f, 0.12565016746520996094f, -0.02761987410485744476f},
  {0.00069466501008719206f, 0.03094207867980003357f, 0.03495246171951293945f, -0.02525771595537662506f, -0.11078038811683654785f, -0.04415553435683250427f, -0.05460612103343009949f, -0.06848442554473876953f, -0.01568691432476043701f, 0.01694981008768081665f, 0.05488920584321022034f, 0.10878755897283554077f, -0.07052866369485855103f, -0.05132809281349182129f, 0.01515451353043317795f, -0.00386490300297737122f, 0.04775516688823699951f, 0.11147221922874450684f, 0.11221022158861160278f, 0.16945520043373107910f, -0.01269956491887569427f, -0.07860821485519409180f, 0.00454059895128011703f, 0.03278128802776336670f, -0.02807120420038700104f, 0.12660676240921020508f, -0.01811725273728370667f, 0.15535649657249450684f, 0.00623327353969216347f, -0.01619925722479820251f, -0.01827434822916984558f, -0.02346684969961643219f, 0.01454213913530111313f, 0.01579772680997848511f, -0.07857038080692291260f, 0.09434014558792114258f, 0.08022036403417587280f, 0.04220503568649291992f, -0.00500085577368736267f, 0.11791280657052993774f, -0.07400958985090255737f, -0.10565218329429626465f, -0.13091209530830383301f, 0.09015855938196182251f, 0.03457398712635040283f, 0.00344789400696754456f, 0.01596299558877944946f, 0.02205811440944671631f, -0.04856680333614349365f, -0.05907966941595077515f, -0.01069535221904516220f, 0.07219133526086807251f, -0.03690288215875625610f, -0.03493987768888473511f, 0.03088413923978805542f, 0.00822633877396583557f, -0.06471506506204605103f, -0.02248472906649112701f, -0.03547445684671401978f, 0.00788552872836589813f, 0.05019260197877883911f, -0.00590296601876616478f, -0.08385374397039413452f, -0.06564690917730331421f, -0.02529298886656761169f, 0.00201133708469569683f, -0.02940296381711959839f, 0.01764122955501079559f, 0.02975529991090297699f, -0.00012713001342490315f, 0.01451696455478668213f, -0.06575342267751693726f, -0.04273590072989463806f, 0.07438345998525619507f, 0.10214377194643020630f, 0.11576645076274871826f, 0.00951639190316200256f, -0.07568270713090896606f, -0.00187662511598318815f, -0.03285973146557807922f, -0.01509698014706373215f, 0.01381122972816228867f, 0.00684824306517839432f, 0.06582125276327133179f, -0.01820214465260505676f, -0.00145284854806959629f, -0.03507413715124130249f, -0.00813808105885982513f, 0.03070022538304328918f, 0.08166804164648056030f, -0.04237578064203262329f, 0.02672414481639862061f, -0.01877497509121894836f, -0.06011642888188362122f, -0.05996657162904739380f, 0.03163525834679603577f, 0.03260291367769241333f, 0.00539032416418194771f, -0.09026105701923370361f, 0.02136254869401454926f, -0.00366607285104691982f, 0.00757627841085195541f, -0.00103928288444876671f, 0.07987956702709197998f, -0.06010298430919647217f, -0.05376971885561943054f, -0.15889140963554382324f, 0.04666623845696449280f, 0.13593281805515289307f, -0.02066801860928535461f, 0.01550605613738298416f, 0.12791939079761505127f, 0.00122311431914567947f, 0.04231652244925498962f, -0.04842014983296394348f, 0.04081353172659873962f, 0.07902798801660537720f, -0.02694508805871009827f, -0.02597065083682537079f, -0.00061346084112301469f, -0.08608683198690414429f, -0.07384697347879409790f, -0.09032015502452850342f, 0.01826188154518604279f, 0.06466198712587356567f, -0.03812288120388984680f, 0.00416824035346508026f, -0.06285960227251052856f, 0.01134830899536609650f, 0.05141641572117805481f, 0.02443041652441024780f, 0.01975697092711925507f, -0.07117297500371932983f, -0.04421490430831909180f, -0.02797693386673927307f, -0.02801524661481380463f, -0.08295036852359771729f, -0.05468247458338737488f, 0.00641752593219280243f, 0.05891350656747817993f, -0.01578333415091037750f, -0.04728675261139869690f, -0.03241569548845291138f, -0.03852702677249908447f, -0.00971292518079280853f, 0.14422658085823059082f, 0.07835047692060470581f, 0.15228420495986938477f, -0.03388201072812080383f, -0.01363090332597494125f, -0.06309752166271209717f, -0.03013990446925163269f, 0.06085976585745811462f, 0.04226427897810935974f, -0.03241035342216491699f, 0.07099832594394683838f, -0.06681678444147109985f, -0.11048899590969085693f, -0.07339070737361907959f, 0.02262151800096035004f, 0.01755210012197494507f, 0.01644782535731792450f, -0.07740779966115951538f, 0.09630494564771652222f, -0.03171633556485176086f, -0.00297786528244614601f, 0.04303238913416862488f, 0.00691148545593023300f, -0.06708307564258575439f, -0.05838048458099365234f, -0.12250797450542449951f, 0.02143231779336929321f, -0.00449305493384599686f, 0.00467668985947966576f, 0.01038394030183553696f, 0.08068923652172088623f, -0.06335429847240447998f, -0.04585608839988708496f, -0.05328051373362541199f, 0.07757619768381118774f, 0.07067342847585678101f, -0.01304271630942821503f, 0.02316425926983356476f, 0.00293506844900548458f, -0.06159763410687446594f, 0.02274924330413341522f, 0.01241618487983942032f, 0.03057198226451873779f, -0.04869005456566810608f, 0.03644484281539916992f, -0.07684634625911712646f, -0.01424235850572586060f},
  {-0.18540643155574798584f, -0.16557872295379638672f, -0.19017624855041503906f, -0.08641897886991500854f, -0.03426759317517280579f, -0.00835969205945730209f, -0.01759377494454383850f, -0.11347506940364837646f, 0.01175634004175662994f, 0.00739980302751064301f, -0.13030828535556793213f, 0.07117794454097747803f, 0.05385283008217811584f, -0.00494785420596599579f, 0.11354976892471313477f, -0.01964014954864978790f, -0.00726112164556980133f, 0.03357224538922309875f, -0.05138568207621574402f, 0.02245918847620487213f, -0.01119554229080677032f, -0.00240987516008317471f, -0.02973113954067230225f, 0.03553810715675354004f, 0.02970105223357677460f, -0.01371664088219404221f, -0.01843342371284961700f, 0.07795457541942596436f, 0.06925433129072189331f, -0.04048463329672813416f, 0.07785726338624954224f, 0.06144521385431289673f, -0.09808330982923507690f, -0.01593827642500400543f, -0.12290563434362411499f, -0.00884357001632452011f, 0.01366061065346002579f, 0.06002400070428848267f, 0.05764495953917503357f, 0.07575989514589309692f, 0.10693226754665374756f, 0.25924089550971984863f, 0.18551748991012573242f, 0.13473266363143920898f, 0.05755046382546424866f, 0.00064577837474644184f, 0.06754928082227706909f, 0.01521498523652553558f, -0.11286506801843643188f, 0.12253808230161666870f, 0.01236969791352748871f, -0.06364455819129943848f, -0.14528222382068634033f, -0.01933571882545948029f, 0.01725120097398757935f, -0.01033987756818532944f, -0.15626731514930725098f, -0.03552188351750373840f, -0.07519281655550003052f, -0.06682731211185455322f, -0.06429709494113922119f, 0.05054817348718643188f, 0.10030557215213775635f, 0.09725772589445114136f, 0.00200445461086928844f, -0.09057352691888809204f, -0.06375128775835037231f, -0.04096178337931632996f, -0.00419231178238987923f, 0.00842246226966381073f, 0.03278364613652229309f, -0.08352437615394592285f, 0.01471130084246397018f, 0.10439588874578475952f, -0.00774154812097549438f, 0.13785190880298614502f, 0.09502186626195907593f, 0.06610006839036941528f, 0.04379254952073097229f, 0.01640439219772815704f, -0.00557117909193038940f, 0.08088894933462142944f, -0.00843381695449352264f, 0.01367508899420499802f, -0.00440717395395040512f, -0.11565348505973815918f, 0.05238280817866325378f, -0.04188829287886619568f, -0.06230270117521286011f, 0.02897251583635807037f, -0.09688390791416168213f, -0.01779520139098167419f, 0.02008815854787826538f, -0.07082564383745193481f, 0.06790561974048614502f, -0.00966970622539520264f, -0.02877124585211277008f, 0.01305130962282419205f, -0.06593114137649536133f, -0.06775479763746261597f, -0.01686951145529747009f, -0.01087850145995616913f, -0.04842753335833549500f, -0.03227254003286361694f, -0.01865394413471221924f, 0.16610327363014221191f, 0.08007714152336120605f, 0.09335598349571228027f, -0.00187002983875572681f, -0.01027065142989158630f, 0.04098696261644363403f, 0.04824244230985641479f, -0.00499697634950280190f, 0.10434273630380630493f, 0.09121446311473846436f, -0.10504007339477539062f, -0.13722506165504455566f, -0.14384928345680236816f, -0.07212812453508377075f, 0.05774665996432304382f, -0.15725362300872802734f, -0.00300851324573159218f, -0.03390240296721458435f, -0.04214909300208091736f, -0.06182623282074928284f, 0.03459392860531806946f, 0.03363504633307456970f, 0.13022220134735107422f, -0.00051345891552045941f, 0.01368118263781070709f, -0.05118531361222267151f, 0.09168173372745513916f, 0.11642159521579742432f, 0.02521825209259986877f, 0.04655294865369796753f, -0.04895247891545295715f, 0.05778728052973747253f, 0.05198275297880172729f, 0.10241860151290893555f, 0.08710958063602447510f, 0.12294378131628036499f, 0.12396663427352905273f, 0.02990038506686687469f, -0.00642380444332957268f, 0.06864988803863525391f, 0.07542759180068969727f, -0.02448880299925804138f, 0.07299373298883438110f, -0.03366906195878982544f, -0.08571210503578186035f, -0.00851018633693456650f, -0.10426813364028930664f, 0.01621682569384574890f, 0.06460889428853988647f, -0.03272235020995140076f, 0.06103583425283432007f, -0.01894676499068737030f, -0.03113062307238578796f, -0.01954100094735622406f, -0.07921532541513442993f, -0.05082204565405845642f, -0.04638724029064178467f, -0.13108772039413452148f, -0.06568325310945510864f, -0.05584246665239334106f, -0.15727949142456054688f, -0.07637981325387954712f, -0.10713338106870651245f, -0.05590896680951118469f, 0.14323677122592926025f, 0.07716076076030731201f, -0.05156745761632919312f, -0.03270209208130836487f, -0.02916500344872474670f, -0.06595271080732345581f, -0.05285453051328659058f, 0.02994745969772338867f, 0.20628291368484497070f, 0.07825370132923126221f, -0.03395684063434600830f, -0.00890084169805049896f, -0.12378934025764465332f, -0.05497596040368080139f, -0.04024020209908485413f, -0.14413985610008239746f, -0.01066145766526460648f, -0.04619300365447998047f, 0.03620666638016700745f, 0.03955825418233871460f, 0.00923362653702497482f, 0.10898633301258087158f, 0.11759363114833831787f},
  {-0.05233748629689216614f, 0.04761167615652084351f, -0.06467296183109283447f, -0.05707808956503868103f, 0.01003634557127952576f, -0.03694967180490493774f, -0.00602430105209350586f, -0.06761023402214050293f, -0.00977772939950227737f, 0.14558172225952148438f, 0.02034423686563968658f, 0.06019407510757446289f, 0.03017004020512104034f, -0.06560081988573074341f, -0.03664901852607727051f, -0.03925349563360214233f, -0.14688882231712341309f, -0.07714653760194778442f, -0.08869892358779907227f, -0.05635489523410797119f, -0.03445073962211608887f, -0.10866099596023559570f, 0.00157634180504828691f, -0.02694489434361457825f, -0.08101342618465423584f, -0.01916255801916122437f, -0.15827360749244689941f, -0.06414870917797088623f, 0.01873502135276794434f, -0.09350589662790298462f, 0.01588773168623447418f, -0.03590574860572814941f, 0.12689253687858581543f, 0.10908867418766021729f, 0.02618887089192867279f, 0.04680962860584259033f, -0.07272019982337951660f, -0.02341093495488166809f, 0.01910405047237873077f, -0.06129872798919677734f, 0.16599452495574951172f, 0.11770495027303695679f, -0.01357259973883628845f, 0.05637612193822860718f, 0.04238571599125862122f, -0.01042858231812715530f, -0.01990215480327606201f, -0.10638231784105300903f, 0.01436670776456594467f, -0.05129175633192062378f, -0.07796847075223922729f, 0.08254883438348770142f, 0.10048993676900863647f, 0.06303808838129043579f, 0.19781318306922912598f, 0.05326750501990318298f, 0.13767147064208984375f, 0.04971526935696601868f, -0.03329185023903846741f, 0.02838125266134738922f, 0.03334363177418708801f, 0.02235919795930385590f, 0.07762692868709564209f, 0.00642929412424564362f, -0.05253113433718681335f, 0.00012166349915787578f, -0.08240898698568344116f, -0.06792513281106948853f, -0.10088968276977539062f, 0.00095685309497639537f, -0.04332295060157775879f, 0.00721938209608197212f, 0.00977294240146875381f, 0.15018068253993988037f, 0.03118641674518585205f, 0.09227076917886734009f, 0.00999998953193426132f, -0.09166155755519866943f, 0.02027335762977600098f, -0.00384163716807961464f, -0.06640842556953430176f, -0.10320753604173660278f, -0.17408461868762969971f, -0.04513877630233764648f, 0.05837758257985115051f, -0.03900390490889549255f, 0.01940322667360305786f, -0.11173136532306671143f, 0.00810129661113023758f, -0.02519067376852035522f, -0.06374957412481307983f, 0.01627379842102527618f, 0.03687643632292747498f, -0.03188063576817512512f, 0.06758653372526168823f, 0.03877818956971168518f, 0.11556909233331680298f, 0.18439519405364990234f, 0.03613683208823204041f, 0.04032953083515167236f, 0.00321640982292592525f, -0.08531379699707031250f, -0.03299135714769363403f, -0.00674514938145875931f, 0.08883353322744369507f, 0.11520226299762725830f, 0.00782635342329740524f, 0.09448440372943878174f, 0.02215796522796154022f, -0.06218057125806808472f, 0.04220257326960563660f, -0.01130579970777034760f, -0.00656304787844419479f, -0.06785069406032562256f, -0.04971742630004882812f, -0.04673201963305473328f, 0.09009029716253280640f, 0.09035502374172210693f, 0.00704852631315588951f, 0.04020082950592041016f, -0.00446043489500880241f, -0.06977686285972595215f, -0.10989566147327423096f, -0.02676983922719955444f, 0.05174059793353080750f, 0.05391045287251472473f, 0.06616568565368652344f, -0.00403672270476818085f, 0.02238946594297885895f, 0.07050985842943191528f, -0.02744457311928272247f, 0.02993693761527538300f, -0.00426418846473097801f, -0.03631976246833801270f, 0.10789103060960769653f, 0.03108573891222476959f, 0.06966650485992431641f, 0.13194392621517181396f, 0.08983465284109115601f, 0.11307280510663986206f, 0.08342729508876800537f, 0.08081340044736862183f, 0.06107107549905776978f, 0.09265698492527008057f, -0.11066797375679016113f, 0.02280018851161003113f, -0.03235800936818122864f, 0.01292953640222549438f, 0.06469943374395370483f, -0.04395829141139984131f, -0.00570150930434465408f, 0.06185294315218925476f, -0.03709718957543373108f, 0.01229856908321380615f, -0.10448445379734039307f, 0.02952945977449417114f, 0.07472642511129379272f, 0.04770825058221817017f, 0.17021751403808593750f, 0.00918807927519083023f, 0.12387266755104064941f, 0.16810530424118041992f, 0.00403739325702190399f, -0.00968192797154188156f, -0.00210918835364282131f, -0.05410102382302284241f, 0.02796950563788414001f, 0.00495404796674847603f, 0.08557514101266860962f, 0.10030592232942581177f, -0.00776358041912317276f, 0.07078148424625396729f, -0.02756502293050289154f, -0.12741340696811676025f, 0.00304040429182350636f, -0.02052360773086547852f, -0.05846708640456199646f, -0.05387463793158531189f, -0.20816943049430847168f, -0.07545957714319229126f, 0.00317370588891208172f, -0.03085767105221748352f, -0.04390479996800422668f, -0.09634861350059509277f, 0.00283590471372008324f, -0.06156140565872192383f, -0.18704728782176971436f, -0.10761947184801101685f, -0.12456536293029785156f, -0.12541158497333526611f, -0.04623644053936004639f, -0.12784820795059204102f},
  {0.04488933086395263672f, 0.00621184008195996284f, -0.01446630153805017471f, -0.02048862725496292114f, 0.00126168690621852875f, 0.01666374690830707550f, 0.04682674258947372437f, 0.07859338819980621338f, 0.02370336279273033142f, -0.00260919984430074692f, 0.01850804314017295837f, -0.03750213608145713806f, -0.00094011821784079075f, 0.04116317257285118103f, 0.08189231157302856445f, 0.08618099987506866455f, 0.05882375687360763550f, 0.02386367693543434143f, 0.05246208608150482178f, 0.04361986741423606873f, 0.03782315924763679504f, 0.11207611858844757080f, 0.12876386940479278564f, 0.09482606500387191772f, 0.01654545031487941742f, -0.05691536888480186462f, 0.00073124212212860584f, -0.02336827106773853302f, 0.07243902236223220825f, 0.01268158759921789169f, -0.02661617659032344818f, 0.10515823960304260254f, -0.00392522383481264114f, -0.00930653605610132217f, -0.03331439197063446045f, 0.03830958902835845947f, 0.01480713021010160446f, 0.09355194121599197388f, 0.06510961800813674927f, 0.07887645810842514038f, 0.02885613404214382172f, 0.00745946029201149940f, 0.04049678519368171692f, -0.04250830039381980896f, 0.06399817019701004028f, 0.16736030578613281250f, 0.12587821483612060547f, 0.07546968758106231689f, 0.06636391580104827881f, 0.03279839083552360535f, -0.00894472375512123108f, -0.02021012268960475922f, 0.07591035217046737671f, 0.06010342016816139221f, 0.08775740116834640503f, 0.05288581177592277527f, 0.09817849099636077881f, 0.06952650099992752075f, -0.06671788543462753296f, 0.05041452124714851379f, 0.07357645034790039062f, 0.07089912146329879761f, 0.00334316329099237919f, -0.03428756073117256165f, 0.03428959473967552185f, -0.03272624313831329346f, 0.05264614894986152649f, 0.04637864232063293457f, 0.05436635389924049377f, -0.06784209609031677246f, -0.02370994724333286285f, 0.03443907573819160461f, 0.02393497340381145477f, 0.06556419283151626587f, 0.07983039319515228271f, 0.04173250496387481689f, -0.03229073435068130493f, -0.01425134111195802689f, 0.06039138138294219971f, 0.03824254870414733887f, 0.04363271966576576233f, 0.01777716539800167084f, 0.06510235369205474854f, 0.07134373486042022705f, 0.04885607585310935974f, 0.03200858831405639648f, 0.02079982496798038483f, 0.10175290703773498535f, -0.03188173100352287292f, -0.05084112286567687988f, -0.03565213084220886230f, -0.05537291988730430603f, 0.03254931047558784485f, -0.02196626551449298859f, 0.08668527752161026001f, -0.04737614840269088745f, -0.02064408175647258759f, -0.04145497456192970276f, 0.04599326103925704956f, -0.05491453409194946289f, 0.01687970757484436035f, 0.07627314329147338867f, 0.06026731431484222412f, 0.06627334654331207275f, -0.00530912587419152260f, 0.02897500991821289062f, -0.03706327080726623535f, 0.01185334008187055588f, 0.03284332528710365295f, 0.05679794400930404663f, 0.11836624145507812500f, 0.05120993778109550476f, 0.05203585326671600342f, 0.03165570273995399475f, -0.05859426781535148621f, -0.06771201640367507935f, -0.01974627561867237091f, 0.07266198843717575073f, 0.04065891355276107788f, 0.00128900888375937939f, 0.07743348181247711182f, 0.01359420921653509140f, 0.03795593604445457458f, -0.07122105360031127930f, -0.05702624469995498657f, -0.02299609594047069550f, -0.04689201340079307556f, 0.00748759368434548378f, -0.00063888740260154009f, 0.01812261343002319336f, 0.01688640005886554718f, -0.05221595987677574158f, -0.04724697396159172058f, 0.03849780932068824768f, 0.02275172807276248932f, 0.03654411435127258301f, 0.08421880006790161133f, 0.00153984408825635910f, -0.00631189299747347832f, 0.04234393313527107239f, 0.05487696453928947449f, -0.04781040549278259277f, 0.01694150269031524658f, 0.03231776133179664612f, 0.00667262356728315353f, 0.10111232846975326538f, 0.09085086733102798462f, -0.00835576094686985016f, 0.00960339419543743134f, 0.02633683010935783386f, 0.09244454652070999146f, 0.05357434600591659546f, 0.00549029419198632240f, 0.00292102945968508720f, 0.03226389735937118530f, -0.03801587224006652832f, 0.01225725375115871429f, 0.02174974232912063599f, 0.04143473878502845764f, 0.02124199271202087402f, 0.02951252087950706482f, 0.00008385127148358151f, -0.05357041582465171814f, -0.02162116579711437225f, 0.05006537958979606628f, 0.07066271454095840454f, 0.00575968530029058456f, 0.04718827456235885620f, 0.07565305382013320923f, 0.04161843284964561462f, -0.03302513062953948975f, 0.03160513192415237427f, 0.10643498599529266357f, 0.12342549860477447510f, 0.09940698742866516113f, 0.06169145554304122925f, 0.06349480152130126953f, 0.05192245170474052429f, -0.02876511029899120331f, -0.01042260602116584778f, 0.03668091818690299988f, 0.02129794843494892120f, -0.01546289958059787750f, -0.02010206691920757294f, 0.04788428172469139099f, -0.02270088158547878265f, -0.01179592870175838470f, -0.05079258978366851807f, 0.04033288732171058655f, 0.06656751781702041626f, -0.03046077676117420197f, -0.07696741074323654175f},
  {0.23386728763580322266f, 0.01368126086890697479f, 0.08711586147546768188f, 0.15046454966068267822f, 0.02816419303417205811f, -0.00199115951545536518f, -0.01033719442784786224f, 0.04901039600372314453f, 0.08107906579971313477f, -0.13630589842796325684f, -0.01312944386154413223f, 0.05587901920080184937f, -0.02760160900652408600f, -0.08094138652086257935f, -0.10718489438295364380f, 0.03418757021427154541f, 0.15023604035377502441f, -0.13402186334133148193f, 0.06647629290819168091f, 0.19603006541728973389f, 0.13272719085216522217f, 0.03476006910204887390f, -0.02268925309181213379f, 0.04080030322074890137f, 0.11921669542789459229f, -0.16047830879688262939f, -0.04953413456678390503f, 0.09110391885042190552f, 0.00603477982804179192f, 0.02567531354725360870f, 0.00924767553806304932f, 0.05775992572307586670f, 0.06090756505727767944f, -0.08221060037612915039f, -0.06281487643718719482f, -0.03125937283039093018f, -0.02322849258780479431f, 0.03045643493533134460f, -0.05226597934961318970f, 0.00968625117093324661f, 0.13747255504131317139f, -0.04435420036315917969f, 0.03337081894278526306f, -0.03713698312640190125f, -0.11087475717067718506f, 0.06616386026144027710f, -0.02050815708935260773f, -0.01759481430053710938f, 0.02055049687623977661f, -0.06522947549819946289f, 0.00861613173037767410f, -0.06171098724007606506f, -0.13116706907749176025f, 0.00198678486049175262f, -0.02684504352509975433f, -0.14626939594745635986f, -0.06181118637323379517f, -0.17143851518630981445f, 0.00755615858361124992f, -0.03085853531956672668f, -0.13053815066814422607f, 0.04244124889373779297f, -0.01232457440346479416f, -0.12970289587974548340f, 0.14284978806972503662f, -0.02603272721171379089f, 0.00603653863072395325f, 0.01995253935456275940f, -0.09384292364120483398f, -0.09197534620761871338f, -0.05051403492689132690f, 0.01043987646698951721f, 0.11091743409633636475f, -0.25862377882003784180f, -0.10190886259078979492f, 0.10000150650739669800f, -0.02872587181627750397f, -0.16623024642467498779f, -0.17298109829425811768f, -0.04803875461220741272f, 0.04980744794011116028f, -0.14711819589138031006f, -0.06694109737873077393f, 0.15063790977001190186f, 0.07867567241191864014f, 0.02867500856518745422f, 0.04283078759908676147f, 0.01962895505130290985f, 0.05680695921182632446f, -0.22239492833614349365f, -0.04792034626007080078f, 0.08847367763519287109f, -0.01818668283522129059f, 0.04382407665252685547f, -0.02664537355303764343f, -0.00361431692726910114f, 0.13885906338691711426f, -0.16448162496089935303f, 0.01547505334019660950f, 0.00263943918980658054f, -0.10539618134498596191f, 0.04269126430153846741f, 0.07120185345411300659f, -0.01747891679406166077f, 0.18223807215690612793f, -0.06245939806103706360f, 0.08840665966272354126f, 0.03638375177979469299f, -0.05587014555931091309f, 0.04880265519022941589f, 0.01835751719772815704f, -0.04228352010250091553f, 0.11796370148658752441f, -0.05235764756798744202f, 0.11343233287334442139f, 0.05081247165799140930f, -0.07093840092420578003f, 0.08879613131284713745f, 0.02530998177826404572f, -0.01173679716885089874f, 0.04625358060002326965f, -0.07843289524316787720f, 0.05213361606001853943f, 0.07662478089332580566f, 0.07367119938135147095f, 0.15905442833900451660f, 0.06173226609826087952f, 0.00679348316043615341f, 0.16013179719448089600f, -0.08567228913307189941f, -0.01862516254186630249f, 0.10662796348333358765f, -0.00250652758404612541f, -0.08302448689937591553f, -0.01868036761879920959f, 0.01052920054644346237f, 0.12765705585479736328f, -0.22538799047470092773f, -0.03621899709105491638f, 0.11108700186014175415f, 0.01914254575967788696f, -0.07393547892570495605f, -0.13506311178207397461f, 0.00013108551502227783f, 0.16789139807224273682f, -0.25922232866287231445f, -0.05761040002107620239f, 0.14005766808986663818f, 0.07477371394634246826f, 0.00827414076775312424f, -0.06594932824373245239f, -0.02385978400707244873f, 0.06022696197032928467f, -0.19747389853000640869f, -0.07774010300636291504f, 0.01832726411521434784f, -0.05133368074893951416f, 0.08962707966566085815f, 0.02103857323527336121f, -0.01199468597769737244f, 0.07619388401508331299f, -0.14883556962013244629f, -0.11343757808208465576f, 0.00755925709381699562f, -0.06791028380393981934f, 0.02651528082787990570f, -0.01879172213375568390f, -0.01622394658625125885f, 0.10924044251441955566f, -0.02972833253443241119f, 0.01362710166722536087f, 0.00330077065154910088f, -0.01768930815160274506f, 0.12241562455892562866f, 0.00111947767436504364f, -0.04712169617414474487f, 0.07262972742319107056f, 0.00822501629590988159f, 0.11509502679109573364f, -0.05570285767316818237f, 0.02875444293022155762f, 0.11798035353422164917f, -0.01332898158580064774f, 0.01109650172293186188f, -0.08962496370077133179f, -0.10115794837474822998f, -0.00599075574427843094f, 0.02932594530284404755f, -0.02069385536015033722f, 0.15456236898899078369f, 0.05030527710914611816f, -0.04061459749937057495f},
  {0.14855411648750305176f, 0.00737213483080267906f, 0.01243870425969362259f, 0.09009326249361038208f, 0.13017475605010986328f, 0.03676895052194595337f, -0.06188438087701797485f, -0.09411779791116714478f, 0.04872114956378936768f, -0.06930898129940032959f, -0.04344022274017333984f, -0.00775374565273523331f, 0.07170966267585754395f, 0.00905757304280996323f, 0.04832293093204498291f, -0.02710029855370521545f, -0.01648175157606601715f, -0.07566796988248825073f, -0.08433046191930770874f, 0.02567284181714057922f, -0.05501652881503105164f, -0.08058669418096542358f, 0.04430335760116577148f, 0.11631499975919723511f, 0.03487615287303924561f, -0.02940734289586544037f, 0.14270211756229400635f, 0.12565778195858001709f, 0.02048721723258495331f, -0.11093115061521530151f, 0.04923660308122634888f, 0.02908822149038314819f, 0.03840224817395210266f, -0.00496959686279296875f, -0.00143765110988169909f, 0.01283817831426858902f, -0.06158037483692169189f, -0.16196662187576293945f, -0.08599647134542465210f, 0.05239259079098701477f, -0.11314265429973602295f, -0.06638815999031066895f, -0.05628286674618721008f, 0.00831293594092130661f, 0.00896973535418510437f, -0.08047757297754287720f, -0.12168153375387191772f, -0.08101590722799301147f, -0.04993533343076705933f, 0.03553532063961029053f, -0.01951980777084827423f, 0.00540611101314425468f, 0.04508265852928161621f, -0.04807009175419807434f, 0.01371990982443094254f, -0.08547899127006530762f, -0.07394640892744064331f, 0.01822466216981410980f, -0.05545575916767120361f, -0.08611863851547241211f, 0.01771371439099311829f, -0.00682760914787650108f, -0.05320231616497039795f, -0.03257835283875465393f, 0.11304266005754470825f, 0.05419017747044563293f, 0.05546365678310394287f, 0.09099777042865753174f, 0.03392232954502105713f, 0.02678423374891281128f, -0.07558917254209518433f, -0.14360260963439941406f, 0.00887863431125879288f, -0.09437072277069091797f, -0.03734722733497619629f, 0.04878359660506248474f, -0.02681334130465984344f, -0.02828657999634742737f, 0.05500022321939468384f, 0.02825862914323806763f, -0.03384818509221076965f, -0.00781356357038021088f, -0.04883809760212898254f, 0.01662790589034557343f, -0.11063680052757263184f, -0.05705113336443901062f, 0.08809440582990646362f, 0.09955424070358276367f, 0.07977550476789474487f, 0.07132424414157867432f, 0.11869979649782180786f, 0.07594745606184005737f, -0.00208436325192451477f, -0.08138785511255264282f, 0.11499930173158645630f, 0.11183739453554153442f, -0.05741221085190773010f, 0.04167141392827033997f, 0.07761497050523757935f, 0.06950563192367553711f, 0.08094681054353713989f, -0.14695557951927185059f, 0.02219069190323352814f, 0.04307119175791740417f, -0.01457536220550537109f, -0.06559987366199493408f, -0.00413172040134668350f, -0.03556036204099655151f, 0.11512299627065658569f, -0.13662919402122497559f, 0.00793181732296943665f, -0.00129518355242908001f, -0.06201889365911483765f, 0.03416319191455841064f, 0.02451875060796737671f, 0.03077796846628189087f, 0.10748440772294998169f, 0.02907710149884223938f, -0.02726608514785766602f, -0.05960856005549430847f, -0.06986943632364273071f, -0.06158756837248802185f, -0.02938899397850036621f, -0.04909309372305870056f, 0.04386982321739196777f, 0.06285607069730758667f, 0.02368000149726867676f, 0.01929679512977600098f, 0.04548980295658111572f, -0.03418289124965667725f, -0.06904930621385574341f, -0.03043856285512447357f, 0.06774114072322845459f, -0.00670533254742622375f, -0.11964789777994155884f, -0.15036578476428985596f, 0.07198432832956314087f, -0.10129878669977188110f, -0.15270800888538360596f, -0.02165881358087062836f, -0.02765873260796070099f, 0.01794143393635749817f, 0.03688498958945274353f, -0.08243980258703231812f, -0.08467838168144226074f, -0.10566168278455734253f, 0.00802467018365859985f, -0.07802699506282806396f, -0.10077770799398422241f, -0.13660319149494171143f, 0.13877655565738677979f, 0.03155506402254104614f, -0.04377952590584754944f, 0.03336178138852119446f, 0.13545657694339752197f, 0.12850973010063171387f, 0.07758825272321701050f, -0.03256731480360031128f, 0.06284189224243164062f, 0.08080603927373886108f, -0.02884495258331298828f, -0.00994602497667074203f, 0.03634186461567878723f, 0.11604204028844833374f, 0.03339591249823570251f, -0.11512471735477447510f, -0.06752719730138778687f, -0.02805246971547603607f, -0.05401901155710220337f, 0.04363293200731277466f, 0.05468798056244850159f, 0.08914504945278167725f, 0.01726247183978557587f, 0.01203871052712202072f, -0.05107879638671875000f, -0.01361682917922735214f, -0.05149194598197937012f, 0.04687282815575599670f, 0.05291423201560974121f, 0.03511365875601768494f, 0.17622619867324829102f, 0.04538522288203239441f, -0.03190447390079498291f, 0.02292422577738761902f, -0.08625239133834838867f, -0.03454605489969253540f, 0.04523711651563644409f, 0.00328859174624085426f, 0.11639066040515899658f, 0.11073806881904602051f, -0.00717768725007772446f, 0.05113111808896064758f},
  {0.09279646724462509155f, -0.12123080343008041382f, -0.11520771682262420654f, 0.03283887356519699097f, 0.10595148056745529175f, 0.07960332185029983521f, 0.02779627218842506409f, -0.02094788104295730591f, 0.09628907591104507446f, -0.00771723454818129539f, -0.14852184057235717773f, -0.06149628013372421265f, 0.04270692914724349976f, -0.14321547746658325195f, -0.05361429229378700256f, -0.18571460247039794922f, 0.10712333768606185913f, 0.09186933934688568115f, -0.01231202948838472366f, -0.02301750518381595612f, -0.03994047641754150391f, -0.16622810065746307373f, -0.02230877801775932312f, -0.09273234754800796509f, -0.02727203816175460815f, -0.06221732497215270996f, -0.09811783581972122192f, -0.06835592538118362427f, 0.05717517063021659851f, -0.00260499957948923111f, 0.08698108792304992676f, 0.00337294070050120354f, -0.02714545093476772308f, -0.00634947651997208595f, 0.01321991439908742905f, 0.01812710799276828766f, 0.05286835879087448120f, -0.07126279175281524658f, 0.15416733920574188232f, 0.03530807793140411377f, 0.12741573154926300049f, 0.03157752752304077148f, -0.00670195976272225380f, 0.12208418548107147217f, -0.02895599417388439178f, -0.06871417909860610962f, -0.02817209064960479736f, -0.14282213151454925537f, 0.17466375231742858887f, 0.12365416437387466431f, 0.04926482588052749634f, 0.05535425245761871338f, 0.01095956657081842422f, -0.02218279615044593811f, -0.01683291979134082794f, -0.14634427428245544434f, 0.03361159190535545349f, -0.01879091933369636536f, 0.01227943226695060730f, -0.02434786595404148102f, 0.08195857703685760498f, 0.01697271689772605896f, 0.09978955984115600586f, 0.03132269904017448425f, 0.00863201916217803955f, -0.05215877294540405273f, -0.15380962193012237549f, 0.07985602319240570068f, 0.25138834118843078613f, 0.07084672152996063232f, 0.02133866772055625916f, 0.02587834745645523071f, 0.17052836716175079346f, -0.02692966535687446594f, -0.09851511567831039429f, -0.02231225557625293732f, 0.00391285447403788567f, -0.11346082389354705811f, -0.12007857114076614380f, -0.07756669074296951294f, 0.09749020636081695557f, -0.02149101719260215759f, -0.06229652836918830872f, -0.00179168151225894690f, -0.06125031039118766785f, -0.05810814350843429565f, 0.02551104128360748291f, -0.02603830397129058838f, -0.13258756697177886963f, -0.12176271528005599976f, -0.13548824191093444824f, -0.00851362012326717377f, 0.03065461665391921997f, -0.00796568579971790314f, 0.09961698949337005615f, 0.06789466738700866699f, -0.06729235500097274780f, 0.01153099723160266876f, -0.04923131689429283142f, 0.03090245276689529419f, 0.06799719482660293579f, -0.03668908029794692993f, 0.17628431320190429688f, 0.01306133996695280075f, 0.04303452000021934509f, 0.01257078628987073898f, 0.02763273380696773529f, -0.01382428314536809921f, 0.00169509253464639187f, -0.13573439419269561768f, 0.03489928692579269409f, -0.15277968347072601318f, 0.10896443575620651245f, 0.06936030089855194092f, 0.01847506687045097351f, 0.05474353581666946411f, 0.09292077273130416870f, 0.03245418891310691833f, 0.09320514649152755737f, -0.13019880652427673340f, -0.04718420654535293579f, -0.09016618877649307251f, -0.08026660978794097900f, -0.06146545335650444031f, 0.00853212550282478333f, 0.07795387506484985352f, 0.17693188786506652832f, -0.04967763274908065796f, -0.00799608230590820312f, -0.03368660062551498413f, -0.09624447673559188843f, 0.04327203705906867981f, 0.26223033666610717773f, 0.14378567039966583252f, 0.13100722432136535645f, 0.01285126153379678726f, 0.07249174267053604126f, 0.07805959880352020264f, -0.08458438515663146973f, 0.00314484606496989727f, 0.10506661981344223022f, -0.09357017278671264648f, -0.06301147490739822388f, -0.05357413366436958313f, 0.08313539624214172363f, 0.03745986521244049072f, -0.03918510302901268005f, -0.00313191558234393597f, 0.09261654317378997803f, -0.08994067460298538208f, -0.04562820866703987122f, 0.02251920662820339203f, -0.03322753310203552246f, -0.10973846167325973511f, -0.07161948084831237793f, 0.02580927312374114990f, 0.07783190906047821045f, 0.00330982566811144352f, 0.24147059023380279541f, 0.14204572141170501709f, -0.05976406112313270569f, -0.11308646947145462036f, -0.07258719205856323242f, 0.04757629707455635071f, 0.05939620733261108398f, 0.00006210275023477152f, 0.18546079099178314209f, 0.07283305376768112183f, -0.00799088273197412491f, 0.10031384974718093872f, -0.02398030646145343781f, 0.00390069885179400444f, -0.02552208676934242249f, -0.06313053518533706665f, -0.03748891502618789673f, -0.11827788501977920532f, -0.05683378130197525024f, -0.08907134085893630981f, -0.07481184601783752441f, 0.01740506663918495178f, -0.02909092046320438385f, 0.01762677729129791260f, 0.07560666650533676147f, -0.11932172626256942749f, -0.10468883067369461060f, -0.09196355193853378296f, -0.12661962211132049561f, -0.07930672913789749146f, -0.02761444635689258575f, -0.00170894467737525702f, 0.07569552212953567505f, -0.13764816522598266602f},
  {0.16081970930099487305f, 0.06817992776632308960f, -0.07601909339427947998f, 0.01665447466075420380f, 0.02402903325855731964f, -0.04272819310426712036f, -0.01497823651880025864f, -0.03343549370765686035f, 0.00093082775129005313f, 0.00667178258299827576f, -0.13006789982318878174f, 0.01007545460015535355f, 0.00994737353175878525f, -0.08406206220388412476f, 0.10555169731378555298f, 0.09241063147783279419f, -0.00431250408291816711f, -0.10449276864528656006f, -0.09548064321279525757f, 0.03786884248256683350f, 0.01423035934567451477f, -0.10231222957372665405f, -0.03311186283826828003f, 0.03309366852045059204f, -0.02750949561595916748f, 0.02554121613502502441f, -0.10582828521728515625f, 0.02425218559801578522f, -0.04314140602946281433f, -0.16072870790958404541f, -0.13453245162963867188f, -0.01857440546154975891f, -0.05293514207005500793f, 0.03223985806107521057f, 0.00981607474386692047f, 0.01890241913497447968f, -0.02600576542317867279f, -0.05212568491697311401f, -0.00199646595865488052f, -0.05852227658033370972f, -0.08727287501096725464f, 0.02246158570051193237f, 0.00458111567422747612f, -0.04358417168259620667f, 0.01353427860885858536f, 0.12654490768909454346f, 0.10843690484762191772f, 0.00091829407028853893f, -0.12932623922824859619f, -0.00192982226144522429f, -0.01811115443706512451f, -0.09259159862995147705f, -0.00799507927149534225f, 0.05664881691336631775f, 0.04297696053981781006f, -0.14551213383674621582f, 0.05031192675232887268f, 0.11221153289079666138f, 0.07732285559177398682f, 0.06038261950016021729f, 0.03878610581159591675f, 0.03009137511253356934f, 0.06412965804338455200f, -0.12944465875625610352f, 0.14073088765144348145f, 0.14055553078651428223f, -0.04345346987247467041f, 0.06824321299791336060f, -0.00305362185463309288f, -0.02902693673968315125f, 0.06279926002025604248f, 0.06427543610334396362f, 0.09454151988029479980f, 0.04221111536026000977f, -0.05365410447120666504f, 0.10372278094291687012f, 0.10266809910535812378f, 0.06727419793605804443f, 0.10414939373731613159f, 0.07562662661075592041f, 0.00223107100464403629f, 0.03133824467658996582f, -0.09849515557289123535f, 0.01964081265032291412f, 0.06436872482299804688f, -0.00657234946265816689f, 0.06800961494445800781f, 0.09224478155374526978f, 0.00323326117359101772f, 0.05362858250737190247f, -0.02715547755360603333f, 0.07705882936716079712f, -0.02365127950906753540f, -0.11109219491481781006f, -0.04418445751070976257f, -0.05957952886819839478f, -0.02977621555328369141f, 0.10340794175863265991f, -0.02066087350249290466f, -0.00013462440983857960f, -0.01752218604087829590f, -0.00811253208667039871f, -0.00113925349432975054f, 0.01730430126190185547f, -0.06256040185689926147f, 0.07946074753999710083f, -0.01359912194311618805f, 0.04408680275082588196f, 0.05228044092655181885f, 0.05059061944484710693f, 0.09409559518098831177f, 0.06262746453285217285f, -0.13415776193141937256f, -0.04425511509180068970f, -0.06720606982707977295f, -0.11404435336589813232f, -0.06957500427961349487f, 0.01086916029453277588f, -0.00943832099437713623f, -0.06988225132226943970f, -0.01418249029666185379f, 0.12214662134647369385f, 0.07795982807874679565f, -0.03695408627390861511f, -0.00817566737532615662f, 0.03466700762510299683f, -0.04354642331600189209f, -0.13503041863441467285f, 0.10584135353565216064f, -0.00210576294921338558f, -0.05911958590149879456f, -0.06212537363171577454f, -0.06426281481981277466f, -0.08215463906526565552f, -0.04001147300004959106f, 0.03197936713695526123f, -0.01695817895233631134f, -0.12136936187744140625f, -0.14677883684635162354f, 0.03402582928538322449f, -0.01956843584775924683f, -0.02426777593791484833f, -0.01510911062359809875f, 0.02491917461156845093f, 0.01541013084352016449f, -0.08876534551382064819f, -0.16296686232089996338f, -0.01017522346228361130f, 0.06898402422666549683f, -0.06324829906225204468f, 0.01783886551856994629f, 0.02800292521715164185f, 0.00126831943634897470f, -0.03849625214934349060f, -0.07799015939235687256f, 0.10345204174518585205f, -0.00444291951134800911f, -0.12866638600826263428f, -0.05751201510429382324f, -0.03626955300569534302f, 0.03522019088268280029f, 0.07365518808364868164f, 0.04196755588054656982f, 0.02518260665237903595f, 0.06563363969326019287f, -0.00970060192048549652f, 0.03019516728818416595f, 0.00958493445068597794f, -0.06066331639885902405f, 0.06995634734630584717f, 0.04938909038901329041f, 0.00441312463954091072f, -0.00281974067911505699f, 0.08667398989200592041f, 0.18522450327873229980f, -0.01315899845212697983f, -0.07626589387655258179f, 0.01826045848429203033f, 0.03832416981458663940f, -0.06685595214366912842f, -0.04360125213861465454f, 0.01719722710549831390f, -0.01096532959491014481f, -0.08777229487895965576f, -0.05244934186339378357f, 0.10187053680419921875f, 0.08576721698045730591f, 0.10526198148727416992f, 0.09166283160448074341f, 0.06741331517696380615f, -0.02768889255821704865f, -0.11390997469425201416f},
  {0.00544008426368236542f, 0.04945788905024528503f, -0.02638215385377407074f, -0.02850296534597873688f, -0.01580047607421875000f, 0.03255178406834602356f, 0.05718450248241424561f, 0.02925877831876277924f, -0.03778522834181785583f, 0.08207838982343673706f, 0.06420828402042388916f, 0.10271301865577697754f, 0.02386642619967460632f, -0.00354218902066349983f, -0.01024816650897264481f, 0.06352411955595016479f, 0.02827534079551696777f, 0.12025760859251022339f, 0.05068432539701461792f, 0.09083794057369232178f, 0.06450231373310089111f, 0.02919129841029644012f, -0.00205339211970567703f, 0.00948840100318193436f, -0.04501686245203018188f, 0.04963742196559906006f, 0.04845983907580375671f, 0.01129226572811603546f, -0.06911758333444595337f, 0.01344702765345573425f, -0.10710993409156799316f, -0.05910592898726463318f, -0.00333749526180326939f, 0.01207416784018278122f, 0.02284528128802776337f, -0.11867600679397583008f, 0.00679133646190166473f, -0.07085066288709640503f, -0.00762688973918557167f, -0.01534152869135141373f, 0.04192402958869934082f, 0.04126355051994323730f, -0.05641365796327590942f, -0.06337776780128479004f, -0.08032727986574172974f, 0.00453013600781559944f, -0.04520375281572341919f, 0.02854988165199756622f, 0.10286679863929748535f, 0.13468010723590850830f, -0.01714726909995079041f, -0.02010157704353332520f, 0.04053737595677375793f, 0.01681444793939590454f, -0.01302026025950908661f, -0.01747540570795536041f, 0.06491000205278396606f, 0.01816243678331375122f, -0.11418359726667404175f, -0.09284886717796325684f, -0.10415257513523101807f, -0.04573722556233406067f, -0.11833998560905456543f, -0.07139080017805099487f, -0.06447990983724594116f, 0.02049036137759685516f, -0.03703521937131881714f, 0.00972219835966825485f, -0.03666734322905540466f, -0.02466962300240993500f, 0.00328072300180792809f, -0.00911559909582138062f, -0.06928285211324691772f, 0.03115719184279441833f, 0.03515056520700454712f, 0.00212653889320790768f, -0.04963892698287963867f, 0.00931248627603054047f, -0.01819888129830360413f, 0.04001785442233085632f, -0.01614787802100181580f, 0.04515068233013153076f, 0.04510478302836418152f, 0.08763854205608367920f, -0.00916947424411773682f, -0.00315157463774085045f, -0.06586363166570663452f, -0.01553071103990077972f, -0.04729879274964332581f, 0.00904860440641641617f, 0.00922635290771722794f, -0.07031089067459106445f, -0.01044440735131502151f, -0.03030096925795078278f, -0.12602296471595764160f, -0.06809384375810623169f, -0.03773108124732971191f, 0.00811463966965675354f, -0.09263599663972854614f, -0.10944332927465438843f, -0.07293958961963653564f, -0.01970547065138816833f, -0.06669848412275314331f, -0.00963824614882469177f, 0.05129708349704742432f, 0.10978472977876663208f, -0.00021466764155775309f, -0.05557702481746673584f, -0.02421588636934757233f, 0.04560198262333869934f, -0.02979592606425285339f, 0.01554784458130598068f, 0.09762517362833023071f, 0.15609923005104064941f, 0.06828010082244873047f, 0.00290649314410984516f, 0.07773312181234359741f, 0.08401899039745330811f, 0.04846457391977310181f, 0.03345383331179618835f, 0.04067831858992576599f, 0.00099033187143504620f, 0.00391997070983052254f, -0.10011183470487594604f, -0.00192916416563093662f, 0.01863815821707248688f, -0.07371191680431365967f, -0.11852034926414489746f, -0.03214726969599723816f, -0.01888271607458591461f, -0.08698431402444839478f, -0.00428148917853832245f, -0.03685060143470764160f, -0.04010967165231704712f, -0.11302319914102554321f, -0.00939492136240005493f, -0.07053174078464508057f, 0.05274147167801856995f, 0.05703146755695343018f, 0.02815053984522819519f, -0.04529714584350585938f, 0.00462725060060620308f, -0.01991480961441993713f, -0.00387987960129976273f, -0.05567910522222518921f, 0.00850179698318243027f, 0.07231573760509490967f, 0.03219472989439964294f, 0.02156666293740272522f, -0.07435796409845352173f, 0.01829853840172290802f, -0.04239147156476974487f, -0.08144495636224746704f, 0.02223359793424606323f, -0.00164582033175975084f, 0.02261883206665515900f, -0.03072848170995712280f, -0.06394794583320617676f, 0.01964091137051582336f, -0.07221405953168869019f, -0.00812786910682916641f, 0.13333477079868316650f, 0.03459055349230766296f, -0.01572599634528160095f, -0.00339872553013265133f, -0.06388147175312042236f, -0.03778824210166931152f, -0.08831603825092315674f, 0.04655949026346206665f, 0.18661977350711822510f, 0.00790033303201198578f, -0.03951949626207351685f, 0.03081615827977657318f, 0.11110787093639373779f, 0.07690256834030151367f, 0.07775665074586868286f, 0.15881682932376861572f, 0.21090669929981231689f, 0.04047437757253646851f, 0.10502039641141891479f, 0.04831647872924804688f, 0.17949369549751281738f, 0.12092857807874679565f, -0.01743501238524913788f, 0.13634963333606719971f, 0.15633757412433624268f, -0.00846396107226610184f, 0.03811692073941230774f, 0.02533738501369953156f, 0.00199672323651611805f, -0.00325368088670074940f, -0.09470774233341217041f},
  {-0.04866568744182586670f, 0.04703832790255546570f, -0.00478419708088040352f, 0.02595120295882225037f, 0.08429597318172454834f, 0.04554195329546928406f, 0.09006381779909133911f, 0.02121244370937347412f, -0.05081117525696754456f, 0.05786141753196716309f, 0.06937681883573532104f, -0.03369647637009620667f, -0.00146785518154501915f, -0.03960577771067619324f, -0.00653498480096459389f, -0.03740908950567245483f, -0.06516378372907638550f, -0.05173809826374053955f, -0.04032068327069282532f, -0.02502980828285217285f, -0.06680981069803237915f, -0.03841818869113922119f, -0.04568238928914070129f, -0.06471259891986846924f, -0.09152901172637939453f, 0.00861803628504276276f, -0.02201591618359088898f, -0.05108514428138732910f, -0.02281186729669570923f, 0.07616511732339859009f, 0.05738208815455436707f, 0.04087784513831138611f, -0.02220462262630462646f, 0.02963863499462604523f, 0.03153364732861518860f, -0.05768565088510513306f, 0.00473496457561850548f, 0.02261897549033164978f, 0.07263804972171783447f, 0.08273303508758544922f, 0.05773926526308059692f, 0.11469263583421707153f, 0.04135323315858840942f, -0.04848133027553558350f, -0.03131790459156036377f, -0.01940836943686008453f, 0.00983005017042160034f, 0.06843588501214981079f, 0.03411803394556045532f, 0.02590822242200374603f, 0.01109150145202875137f, 0.01277843397110700607f, -0.04496212303638458252f, -0.08292815089225769043f, -0.10145667195320129395f, 0.01793782599270343781f, 0.05737358704209327698f, 0.07781224697828292847f, 0.11674144119024276733f, 0.10893964022397994995f, 0.11128954589366912842f, 0.04394692555069923401f, 0.05192099511623382568f, 0.01137750968337059021f, -0.08370917290449142456f, 0.04493904486298561096f, 0.00446969131007790565f, -0.04551219940185546875f, -0.06407995522022247314f, 0.03825202584266662598f, 0.08080465346574783325f, 0.10450737923383712769f, -0.11296917498111724854f, 0.05749822035431861877f, 0.00222428631968796253f, -0.04899900779128074646f, -0.02824524976313114166f, -0.02528912201523780823f, -0.02857046201825141907f, -0.03805843740701675415f, -0.14859110116958618164f, -0.02398787066340446472f, -0.02687392756342887878f, -0.10179012268781661987f, -0.04216072708368301392f, -0.07850638031959533691f, -0.09764944016933441162f, -0.00719823176041245461f, -0.14341476559638977051f, -0.08367457240819931030f, -0.01543729286640882492f, -0.11658476293087005615f, -0.06556610018014907837f, 0.00650409283116459846f, 0.03962949663400650024f, 0.10952414572238922119f, -0.04422541335225105286f, -0.00069758266909047961f, -0.02939922176301479340f, -0.08423341810703277588f, -0.03780869394540786743f, -0.00587285077199339867f, 0.03867166489362716675f, 0.04048682004213333130f, -0.04538337886333465576f, 0.01527447253465652466f, 0.04278873279690742493f, -0.02924675121903419495f, -0.05292549729347229004f, -0.04932378605008125305f, -0.03468523547053337097f, 0.04171329736709594727f, -0.04459015652537345886f, 0.02480690181255340576f, 0.06538954377174377441f, 0.01440546754747629166f, -0.04048478230834007263f, -0.01850134506821632385f, -0.09686025232076644897f, -0.02973862551152706146f, -0.04720868170261383057f, -0.00351040926761925220f, 0.07935828715562820435f, 0.10671666264533996582f, 0.09993515163660049438f, 0.07491082698106765747f, 0.05967245995998382568f, 0.12964951992034912109f, 0.05190603435039520264f, 0.07117216289043426514f, 0.13389228284358978271f, 0.08378944545984268188f, 0.10976281762123107910f, 0.05796680599451065063f, 0.05854650586843490601f, 0.13232500851154327393f, 0.02956250868737697601f, 0.06894692778587341309f, 0.11923402547836303711f, 0.06644421070814132690f, 0.04239314794540405273f, 0.03693194687366485596f, -0.03896436095237731934f, 0.02282804623246192932f, -0.00685539562255144119f, 0.01997772045433521271f, -0.00063469132874161005f, -0.00868619233369827271f, 0.05911659076809883118f, 0.00063183333259075880f, -0.00439752312377095222f, 0.03597481921315193176f, -0.07830948382616043091f, -0.03991627320647239685f, -0.05518653616309165955f, -0.00880680885165929794f, 0.04977161064743995667f, 0.03928766772150993347f, -0.02398746646940708160f, 0.07764540612697601318f, -0.04939015209674835205f, -0.04883060231804847717f, -0.01663255318999290466f, -0.10945793986320495605f, 0.00289285345934331417f, -0.03661908581852912903f, 0.05074359849095344543f, 0.04163980111479759216f, -0.07847745716571807861f, 0.03056593984365463257f, -0.01477925386279821396f, -0.14239323139190673828f, -0.07586782425642013550f, -0.11295966058969497681f, -0.02355968765914440155f, -0.02062323130667209625f, -0.05829786881804466248f, 0.02559280209243297577f, 0.05160303041338920593f, -0.03395204246044158936f, -0.09014157950878143311f, -0.14359574019908905029f, -0.08466432988643646240f, -0.02485322766005992889f, -0.09449675679206848145f, -0.00430370634421706200f, 0.09654523432254791260f, 0.02975377440452575684f, 0.00215366622433066368f, -0.05375776067376136780f, -0.00747188460081815720f, 0.02942682616412639618f},
  {-0.03346585854887962341f, -0.06613603979349136353f, -0.01088730152696371078f, -0.05768244713544845581f, -0.05224155634641647339f, 0.01628856547176837921f, -0.07496333122253417969f, -0.02543440461158752441f, -0.03920314833521842957f, -0.09100595861673355103f, -0.02781975269317626953f, -0.08732938021421432495f, 0.02804677188396453857f, -0.03197389841079711914f, -0.04825285822153091431f, -0.09077115356922149658f, 0.00440346496179699898f, -0.02759910561144351959f, -0.02886305935680866241f, -0.05201590433716773987f, 0.01262756157666444778f, 0.06699441373348236084f, 0.01629041694104671478f, -0.04892751574516296387f, -0.01353674475103616714f, -0.00876253470778465271f, -0.04153825342655181885f, -0.03091887570917606354f, -0.00118245789781212807f, 0.06594895571470260620f, -0.05424332618713378906f, -0.11104314774274826050f, 0.11567727476358413696f, -0.00716777332127094269f, 0.00319489720277488232f, 0.05114560201764106750f, 0.07930653542280197144f, 0.08758134394884109497f, -0.02076332084834575653f, -0.08421038836240768433f, 0.13629166781902313232f, -0.00382113852538168430f, 0.01823756098747253418f, 0.07437464594841003418f, 0.04621016979217529297f, 0.01398304477334022522f, 0.00716061610728502274f, -0.01440124213695526123f, 0.07423648983240127563f, -0.07058041542768478394f, -0.06176795437932014465f, -0.03888651728630065918f, -0.04904532432556152344f, 0.04709397628903388977f, 0.00364976283162832260f, -0.05438397079706192017f, 0.04363016039133071899f, -0.02492902241647243500f, 0.01619576290249824524f, 0.03873030096292495728f, 0.03789022564888000488f, 0.05363544076681137085f, 0.08484206348657608032f, 0.04226174205541610718f, -0.00135791418142616749f, -0.03359629213809967041f, -0.03478496894240379333f, -0.01852698810398578644f, 0.03979976847767829895f, 0.08958151191473007202f, -0.02054434642195701599f, -0.05042782425880432129f, -0.07573521137237548828f, -0.09258939325809478760f, 0.01841196417808532715f, -0.08502923697233200073f, 0.02637872286140918732f, 0.06274741888046264648f, -0.06491865962743759155f, -0.00760932732373476028f, 0.02054596878588199615f, -0.02612831071019172668f, -0.01381874270737171173f, -0.01439755875617265701f, -0.00782279483973979950f, 0.13008731603622436523f, 0.00261280825361609459f, -0.02592520043253898621f, 0.06357303261756896973f, -0.06027345731854438782f, -0.02546146698296070099f, -0.00388565682806074619f, 0.05026111379265785217f, 0.13538905978202819824f, -0.04111158847808837891f, -0.06041675806045532227f, 0.16219852864742279053f, 0.06456637382507324219f, -0.05896858870983123779f, 0.01614275760948657990f, 0.08874189108610153198f, 0.03076211921870708466f, 0.00501460069790482521f, -0.09618230909109115601f, 0.06134131923317909241f, -0.01661659777164459229f, -0.00675316248089075089f, -0.00232091173529624939f, 0.00220776256173849106f, -0.00007061408541630954f, -0.11414173990488052368f, -0.04575281962752342224f, 0.01361714117228984833f, -0.09157089143991470337f, -0.00378172751516103745f, -0.05126139894127845764f, 0.03592512011528015137f, -0.00757662253454327583f, -0.02797977626323699951f, -0.00320276664569973946f, 0.06238311901688575745f, -0.00177268660627305508f, -0.03855250403285026550f, 0.03040235489606857300f, 0.02566563151776790619f, 0.01209168229252099991f, 0.02032602764666080475f, -0.00277417665347456932f, 0.02895942144095897675f, -0.05734650790691375732f, -0.00511883990839123726f, 0.07007690519094467163f, 0.08851157873868942261f, 0.11044787615537643433f, 0.07786307483911514282f, 0.10079779475927352905f, -0.02041185647249221802f, -0.02408970892429351807f, 0.02641643770039081573f, -0.02677099965512752533f, 0.00263062003068625927f, 0.15750409662723541260f, 0.10280276834964752197f, 0.07787489891052246094f, 0.03044099919497966766f, -0.04782369360327720642f, -0.01743943989276885986f, 0.02469954825937747955f, 0.16094367206096649170f, 0.19234919548034667969f, 0.01116526406258344650f, 0.04915370792150497437f, 0.05622894316911697388f, 0.01893318258225917816f, -0.02014963887631893158f, 0.04239017143845558167f, 0.05040453374385833740f, 0.13033598661422729492f, 0.01067515835165977478f, -0.06277475506067276001f, 0.13606660068035125732f, 0.02398769930005073547f, 0.01670156978070735931f, 0.08248315006494522095f, 0.06541381031274795532f, 0.14527161419391632080f, -0.01567757874727249146f, -0.04365601763129234314f, 0.12896119058132171631f, 0.00131822749972343445f, -0.00482234358787536621f, 0.02669164910912513733f, 0.08394186198711395264f, 0.11589173227548599243f, -0.07520643621683120728f, 0.02262593246996402740f, 0.01341869309544563293f, -0.08756204694509506226f, -0.02627881802618503571f, -0.01713122613728046417f, 0.00938508566468954086f, 0.01763584278523921967f, -0.06504419445991516113f, 0.00279964972287416458f, -0.03561588004231452942f, -0.04912787675857543945f, 0.00312744756229221821f, 0.01843149214982986450f, 0.02762388437986373901f, 0.08855542540550231934f, -0.00378739507868885994f, 0.04902174323797225952f},
  {-0.05818371847271919250f, -0.09423871338367462158f, -0.02527937106788158417f, 0.05419514328241348267f, -0.02384116314351558685f, -0.03975364193320274353f, 0.03692814335227012634f, -0.17864781618118286133f, -0.01690690591931343079f, 0.00136281969025731087f, -0.01762391440570354462f, -0.05804385989904403687f, -0.11897770315408706665f, -0.05738765746355056763f, -0.04486670717597007751f, -0.13484534621238708496f, 0.02323395200073719025f, -0.05771006643772125244f, -0.12516854703426361084f, -0.04956289753317832947f, -0.00440583936870098114f, -0.02330666780471801758f, 0.04198382794857025146f, -0.02050300501286983490f, 0.05946424603462219238f, 0.00728377280756831169f, -0.10133088380098342896f, 0.09774115681648254395f, -0.02079634740948677063f, -0.02171169221401214600f, 0.01946083828806877136f, 0.01279744599014520645f, 0.07694623619318008423f, 0.04166877269744873047f, -0.09216240048408508301f, 0.10445883870124816895f, -0.05490769445896148682f, -0.20745396614074707031f, -0.09811063855886459351f, -0.05364699289202690125f, 0.08683113753795623779f, -0.05544786155223846436f, -0.01306266896426677704f, 0.10640912503004074097f, 0.08103392273187637329f, -0.03613246232271194458f, 0.10439150780439376831f, 0.03948512300848960876f, 0.02623807080090045929f, -0.02846920117735862732f, -0.11061163246631622314f, 0.06073129922151565552f, 0.10000902414321899414f, 0.12666650116443634033f, 0.12580427527427673340f, 0.07777798175811767578f, 0.15046197175979614258f, 0.11408107727766036987f, 0.01582245342433452606f, 0.08161641657352447510f, 0.06996959447860717773f, 0.00453187525272369385f, 0.02238332293927669525f, -0.09590347111225128174f, -0.09211789816617965698f, 0.00587164284661412239f, 0.02701884135603904724f, 0.07936581969261169434f, -0.00496206991374492645f, 0.05592466890811920166f, 0.03778815269470214844f, 0.03479540720582008362f, -0.08209554105997085571f, 0.03858835622668266296f, 0.01832174137234687805f, 0.08906625211238861084f, -0.01215226389467716217f, -0.02949391305446624756f, 0.04318718984723091125f, -0.03139137476682662964f, -0.02733675763010978699f, 0.06204942986369132996f, -0.03739051893353462219f, 0.03982242569327354431f, -0.03624796867370605469f, -0.04536456614732742310f, 0.08403464406728744507f, -0.00494851078838109970f, 0.03365011885762214661f, 0.01721872389316558838f, 0.01852788403630256653f, 0.02061232738196849823f, -0.02609189040958881378f, 0.04244478791952133179f, 0.12884135544300079346f, 0.02333663590252399445f, 0.05047629028558731079f, -0.01068964414298534393f, -0.05680602788925170898f, 0.12367147952318191528f, -0.12767645716667175293f, -0.15396831929683685303f, -0.07509366422891616821f, -0.15174631774425506592f, -0.00937524344772100449f, -0.00331973703578114510f, -0.07098101079463958740f, 0.15432448685169219971f, 0.11500989645719528198f, -0.03360090777277946472f, 0.10596011579036712646f, 0.06261420249938964844f, -0.00491723464801907539f, -0.06401018798351287842f, -0.09468042105436325073f, 0.08758684992790222168f, -0.06409423053264617920f, 0.06214615702629089355f, 0.12833049893379211426f, 0.03130816295742988586f, 0.02858763188123703003f, 0.01053037121891975403f, -0.01954177767038345337f, 0.01123604457825422287f, -0.05852852389216423035f, -0.03440015017986297607f, -0.08264870941638946533f, -0.11912436038255691528f, -0.07599832862615585327f, 0.06038616225123405457f, 0.02415446750819683075f, 0.11131475865840911865f, 0.10577356815338134766f, 0.03195934742689132690f, 0.01208421681076288223f, -0.01787645556032657623f, -0.03323172405362129211f, 0.08899274468421936035f, -0.03493069112300872803f, 0.10106586664915084839f, 0.00915582478046417236f, -0.01899644732475280762f, 0.08011776953935623169f, -0.04579696059226989746f, -0.02077911794185638428f, 0.09731321036815643311f, -0.05195269733667373657f, 0.03716203570365905762f, -0.02760134823620319366f, 0.06446811556816101074f, 0.12651343643665313721f, -0.01846144534647464752f, 0.02176425419747829437f, 0.07975682616233825684f, -0.07146987318992614746f, 0.04551651328802108765f, 0.00478526484221220016f, -0.01622362248599529266f, -0.00374130299314856529f, -0.01333908271044492722f, 0.08236901462078094482f, -0.07066619396209716797f, -0.10207059234380722046f, 0.03612296283245086670f, -0.11247131228446960449f, -0.11515696346759796143f, -0.09438085556030273438f, -0.07575141638517379761f, 0.04532449319958686829f, -0.10823301225900650024f, -0.00333669688552618027f, 0.16273392736911773682f, 0.08998184651136398315f, 0.07470132410526275635f, 0.11876817792654037476f, 0.00499803945422172546f, -0.07117326557636260986f, -0.08286459743976593018f, -0.15391796827316284180f, 0.02560668066143989563f, 0.02636269107460975647f, -0.03945780172944068909f, -0.00035646729520522058f, -0.01112441811710596085f, -0.03943678736686706543f, -0.02233598753809928894f, -0.10580323636531829834f, 0.05295811221003532410f, -0.12273502349853515625f, -0.06717154383659362793f, -0.04597358033061027527f, -0.01932257972657680511f},
  {0.10489144921302795410f, 0.03244258835911750793f, 0.04995895549654960632f, 0.13074697554111480713f, 0.10066275298595428467f, 0.01293834298849105835f, -0.03758267313241958618f, 0.03828662633895874023f, 0.05962123721837997437f, 0.04052701964974403381f, 0.11327452212572097778f, 0.14439508318901062012f, 0.08107060194015502930f, -0.02000718191266059875f, 0.05904100462794303894f, 0.18510517477989196777f, 0.00216649775393307209f, -0.07462118566036224365f, -0.08691511303186416626f, 0.03988821059465408325f, -0.01401160657405853271f, 0.01405869051814079285f, -0.00295886863023042679f, 0.06239085271954536438f, 0.03535700961947441101f, -0.03877188265323638916f, -0.00469354167580604553f, 0.07723820209503173828f, 0.07301872968673706055f, 0.06614256650209426880f, -0.00027274401509203017f, 0.08811718970537185669f, 0.10977578163146972656f, 0.10292764008045196533f, 0.00889146793633699417f, 0.02763121016323566437f, 0.03857103735208511353f, 0.03491118922829627991f, -0.01012751180678606033f, 0.04263015091419219971f, 0.08946742117404937744f, -0.05123290792107582092f, -0.07240007817745208740f, -0.04583872854709625244f, 0.00317773735150694847f, -0.03476882353425025940f, -0.09462100267410278320f, -0.00289451656863093376f, 0.02404274046421051025f, -0.00100839266087859869f, -0.06764155626296997070f, -0.03681142255663871765f, -0.06093745306134223938f, -0.01409908663481473923f, -0.09019889682531356812f, 0.03080217540264129639f, 0.10410913825035095215f, 0.04604597017168998718f, 0.03769163787364959717f, -0.00702532287687063217f, 0.00466843927279114723f, 0.00417792564257979393f, -0.05595165863633155823f, 0.07202064990997314453f, 0.06185502558946609497f, 0.04350276291370391846f, -0.02408410795032978058f, -0.01541912462562322617f, -0.08759059756994247437f, -0.05805630236864089966f, -0.03031952306628227234f, -0.04541492462158203125f, 0.04704400524497032166f, -0.07505975663661956787f, -0.02873274683952331543f, -0.01332164090126752853f, -0.00754618877544999123f, -0.00565781723707914352f, 0.00159085204359143972f, 0.15395849943161010742f, -0.02781639806926250458f, -0.03193031251430511475f, -0.07167514413595199585f, 0.03278664872050285339f, -0.03729617968201637268f, 0.01704443059861660004f, 0.02762674726545810699f, 0.04966267943382263184f, -0.04729723557829856873f, -0.02167680300772190094f, -0.01139201223850250244f, 0.03244120255112648010f, 0.00879422482103109360f, 0.02636462450027465820f, -0.07433518767356872559f, 0.10759324580430984497f, 0.04272451251745223999f, 0.01956771314144134521f, 0.00832135882228612900f, 0.05643988400697708130f, -0.03023934364318847656f, 0.03714589402079582214f, -0.03027635067701339722f, 0.00286519899964332581f, 0.00101513206027448177f, -0.06127190217375755310f, -0.08338341861963272095f, -0.08732900768518447876f, 0.00706155598163604736f, -0.10882757604122161865f, -0.09843861311674118042f, 0.02807175926864147186f, -0.09077843278646469116f, -0.07753214985132217407f, -0.08695074915885925293f, 0.02197755500674247742f, -0.05546643957495689392f, -0.04214399680495262146f, -0.05823935195803642273f, 0.05361344665288925171f, 0.02396241389214992523f, -0.00204564770683646202f, -0.06420812010765075684f, -0.01463766023516654968f, 0.03489298000931739807f, -0.02662897482514381409f, -0.06396865099668502808f, 0.01664473488926887512f, 0.04356697574257850647f, -0.07839665561914443970f, -0.02938919141888618469f, -0.02250440977513790131f, -0.02203996106982231140f, -0.13937336206436157227f, -0.12603494524955749512f, -0.01826001890003681183f, -0.06517294794321060181f, -0.06595176458358764648f, 0.00539857707917690277f, 0.00425594113767147064f, -0.02098922058939933777f, 0.01219035219401121140f, -0.01340897195041179657f, 0.06486444175243377686f, -0.04011015966534614563f, -0.15106867253780364990f, -0.00012236618204042315f, -0.00089797744294628501f, -0.05425056815147399902f, -0.02783546783030033112f, -0.03764774650335311890f, 0.13996823132038116455f, 0.04730222374200820923f, -0.03539508953690528870f, -0.07311544567346572876f, 0.05281559005379676819f, 0.03228044137358665466f, -0.03611365705728530884f, 0.00664576422423124313f, 0.06068366393446922302f, 0.10538792610168457031f, 0.01521776802837848663f, -0.00913572497665882111f, -0.01576158031821250916f, 0.05840134620666503906f, 0.02805602364242076874f, -0.07143164426088333130f, 0.04333101585507392883f, 0.03107747808098793030f, 0.03424471989274024963f, -0.04564606398344039917f, -0.02936081774532794952f, -0.08254697918891906738f, -0.00669646495953202248f, -0.11167065054178237915f, 0.04897862672805786133f, 0.01916921325027942657f, -0.08393960446119308472f, 0.01533274818211793900f, -0.03871898725628852844f, 0.03413515165448188782f, -0.07170504331588745117f, -0.08331336826086044312f, 0.07036892324686050415f, 0.07517579197883605957f, 0.04869352653622627258f, 0.01191783323884010315f, 0.07587887346744537354f, -0.01081303693354129791f, -0.01958135142922401428f, 0.02175725623965263367f, 0.09659770876169204712f},
  {-0.05472092702984809875f, -0.09704724699258804321f, -0.13043048977851867676f, -0.03700016811490058899f, 0.00419589458033442497f, -0.02615945227444171906f, -0.05345121026039123535f, -0.01580794528126716614f, -0.07221877574920654297f, -0.10602151602506637573f, -0.08914616703987121582f, 0.04663267731666564941f, 0.07159456610679626465f, 0.08909473568201065063f, -0.04667890071868896484f, 0.00556009216234087944f, -0.01307000033557415009f, -0.04143569245934486389f, -0.04325268790125846863f, 0.02928313799202442169f, 0.08688872307538986206f, 0.06165082007646560669f, 0.01681381650269031525f, 0.04942639917135238647f, 0.03370431810617446899f, -0.05733899399638175964f, -0.02361173741519451141f, -0.09088374674320220947f, -0.05421559512615203857f, -0.02677752636373043060f, -0.06048224121332168579f, 0.00444646179676055908f, 0.03207951784133911133f, 0.00672835623845458031f, -0.07926053553819656372f, -0.08827856183052062988f, -0.02745989710092544556f, -0.08286130428314208984f, 0.04064152762293815613f, -0.02756695635616779327f, 0.03949509933590888977f, 0.02820711582899093628f, 0.08065384626388549805f, 0.00222884700633585453f, 0.00904083624482154846f, 0.03738175332546234131f, 0.03255074098706245422f, 0.08753471821546554565f, -0.06687678396701812744f, 0.02746413461863994598f, 0.07795415818691253662f, 0.04539630934596061707f, 0.08400347083806991577f, -0.08255354315042495728f, -0.11382737755775451660f, 0.05983410030603408813f, -0.11786303669214248657f, 0.00579895731061697006f, 0.03781545907258987427f, 0.03191835805773735046f, -0.00123773212544620037f, 0.01445117592811584473f, -0.07367463409900665283f, 0.05711604282259941101f, -0.09727162867784500122f, -0.07599636167287826538f, -0.01757496595382690430f, 0.02761356160044670105f, 0.05011894181370735168f, -0.01198712829500436783f, 0.01516581792384386063f, 0.05920377746224403381f, -0.02834193222224712372f, -0.03033245913684368134f, -0.05699247494339942932f, 0.00003544271385180764f, 0.11365774273872375488f, 0.14100730419158935547f, 0.10446015745401382446f, 0.08658558130264282227f, 0.07852371037006378174f, 0.07157776504755020142f, 0.05715918913483619690f, 0.05317726358771324158f, 0.14998109638690948486f, 0.13744214177131652832f, 0.08182888478040695190f, 0.00598993990570306778f, 0.01059051230549812317f, 0.09081974625587463379f, -0.05549875274300575256f, -0.01812072098255157471f, -0.00287108495831489563f, -0.00333797256462275982f, -0.08048060536384582520f, 0.07550116628408432007f, -0.04957062378525733948f, 0.02537989988923072815f, -0.02651121467351913452f, -0.09372457116842269897f, -0.08519987016916275024f, 0.00322844670154154301f, 0.03924119472503662109f, 0.09798384457826614380f, 0.02995350956916809082f, 0.06133947521448135376f, 0.11446846276521682739f, 0.00590780004858970642f, 0.09538055211305618286f, -0.01128551736474037170f, -0.00430145161226391792f, 0.05715446546673774719f, -0.07658842951059341431f, 0.00113586627412587404f, 0.07369624823331832886f, 0.02942550368607044220f, 0.02079497836530208588f, -0.00107320980168879032f, -0.00354825472459197044f, 0.01899392344057559967f, -0.08173859864473342896f, -0.06905604153871536255f, 0.00863305199891328812f, 0.03477354347705841064f, 0.00542401010170578957f, -0.00940663833171129227f, -0.00937044899910688400f, 0.03141651302576065063f, -0.02828543633222579956f, -0.08067646622657775879f, 0.00045361480442807078f, -0.03204843401908874512f, 0.03564834594726562500f, 0.08579382300376892090f, 0.03248992934823036194f, 0.01327335555106401443f, -0.02135406062006950378f, -0.02556707523763179779f, -0.01202039420604705811f, 0.03146678954362869263f, 0.16434989869594573975f, 0.13997033238410949707f, 0.07841565459966659546f, 0.05797988176345825195f, 0.09704104065895080566f, 0.10710324347019195557f, 0.09453131258487701416f, 0.06812030822038650513f, 0.08207546174526214600f, 0.05768325179815292358f, 0.02546103298664093018f, 0.12000034749507904053f, 0.01193137932568788528f, -0.01329388935118913651f, -0.00556378066539764404f, -0.09569350630044937134f, -0.04206779971718788147f, -0.04256531223654747009f, -0.01225203368812799454f, -0.01070919632911682129f, 0.03193441778421401978f, -0.00873200222849845886f, -0.07354419678449630737f, -0.09572814404964447021f, -0.13120479881763458252f, -0.04292058944702148438f, -0.08274708688259124756f, 0.07956421375274658203f, -0.00276138423942029476f, 0.05506703630089759827f, 0.02980530075728893280f, -0.03618941456079483032f, -0.04432578757405281067f, -0.05127808451652526855f, 0.00316692702472209930f, 0.00019462776253931224f, -0.08456754684448242188f, -0.01851495355367660522f, 0.02011409029364585876f, 0.00486565148457884789f, -0.04489022865891456604f, -0.14660581946372985840f, -0.08084718883037567139f, -0.03639097884297370911f, -0.06089912727475166321f, -0.10166852176189422607f, -0.05409128963947296143f, -0.03650832921266555786f, 0.00727268168702721596f, -0.12303987890481948853f, -0.08318454772233963013f, -0.09055303782224655151f},
